{"version":"0.5.4","metadata":{"date":{"year":2025,"month":10,"day":4,"hour":1,"minute":32,"second":58},"loudness":-7.223243713378906,"gain":0.015929371328739183,"name":"Aguilar DB751 cab","modeled_by":"dudubxt","gear_type":"amp","gear_make":"tz-make","gear_model":"tz-model","tone_type":"overdrive","input_level_dbu":null,"output_level_dbu":null,"training":{"settings":{"ignore_checks":false},"data":{"latency":{"manual":null,"calibration":{"algorithm_version":1,"delays":[20],"safety_factor":1,"recommended":19,"warnings":{"matches_lookahead":false,"disagreement_too_high":false}}},"checks":{"version":3,"passed":true}},"validation_esr":0.0003296986461383751}},"architecture":"WaveNet","config":{"layers":[{"input_size":1,"condition_size":1,"head_size":8,"channels":16,"kernel_size":3,"dilations":[1,2,4,8,16,32,64,128,256,512],"activation":"Tanh","gated":false,"head_bias":false},{"input_size":16,"condition_size":1,"head_size":1,"channels":8,"kernel_size":3,"dilations":[1,2,4,8,16,32,64,128,256,512],"activation":"Tanh","gated":false,"head_bias":true}],"head":null,"head_scale":0.02},"weights":[0.0014767112443223596,0.3447471857070923,-0.5628631114959717,-0.7362802624702454,0.005362937226891518,0.06936607509851456,-0.006272345781326294,0.6957821846008301,0.0008741376805119216,0.14661912620067596,-0.13802014291286469,-0.006671792361885309,-0.8101902008056641,-0.5813528895378113,0.003947851713746786,-0.0031242449767887592,-0.031135888770222664,0.05539504438638687,-0.15199501812458038,-0.1268041729927063,-0.041288573294878006,0.12216245383024216,0.032969117164611816,0.20019249618053436,-0.024791179224848747,0.0803222507238388,0.22602097690105438,-0.13401396572589874,0.018161416053771973,0.08894838392734528,-0.07023248076438904,0.07698415964841843,-0.1724300980567932,-0.053227055817842484,-0.11664833873510361,-0.1183229386806488,-0.0523887574672699,0.0582258403301239,-0.031488899141550064,0.0682893693447113,0.12082257866859436,-0.022725354880094528,0.06256076693534851,-0.1867646425962448,-0.18562039732933044,-0.06261087208986282,0.14524197578430176,0.1689506471157074,-0.07244623452425003,0.056437745690345764,0.17651742696762085,0.1353021264076233,0.12472028285264969,0.11684489995241165,0.09933369606733322,-0.020587731152772903,0.12130404263734818,-0.11257414519786835,-0.006277252919971943,0.032876741141080856,0.045709121972322464,-0.09649813175201416,-0.17123596370220184,-0.03970123454928398,0.10977816581726074,-0.05036729574203491,-0.7709056735038757,0.09165935218334198,0.09929551184177399,0.18645751476287842,-0.16896308958530426,-0.06251771003007889,0.008563583716750145,0.059370044618844986,0.11472316086292267,0.07825475186109543,-0.10664089769124985,-0.14903301000595093,0.08910998702049255,-0.04076511040329933,-0.12133942544460297,0.1806793063879013,0.08252453804016113,-0.26240625977516174,0.25779208540916443,0.03523224964737892,-0.012428412213921547,-0.01671566627919674,0.21168576180934906,0.011697335168719292,-0.14330404996871948,0.12706616520881653,0.10903891921043396,0.09898550063371658,-0.1953401267528534,-0.10294299572706223,0.02183195948600769,-0.04393564164638519,-0.12290330976247787,-0.12224890291690826,0.07619866728782654,0.08616843074560165,-0.11222440749406815,-0.09517688304185867,-0.1477537304162979,-0.0508430041372776,-0.24227504432201385,-0.181110218167305,-0.01735083945095539,-0.021938174962997437,0.01555113960057497,0.053979579359292984,0.006131070666015148,0.06792967766523361,0.09901118278503418,-0.16320139169692993,0.005186117719858885,-0.13538293540477753,0.06107992306351662,-0.009404558688402176,0.1961924433708191,0.04968990385532379,-0.11413531005382538,0.21065396070480347,-0.1395530104637146,-0.09536710381507874,0.03659800812602043,-0.12309954315423965,-0.0240153968334198,-0.26779603958129883,-0.049912016838788986,-0.04982413724064827,-0.11012384295463562,-0.04745892062783241,0.14712879061698914,-0.15542387962341309,-0.018577277660369873,0.05631271377205849,0.13983605802059174,0.03890267014503479,0.16498856246471405,-0.06009892746806145,0.18658748269081116,-0.04217102378606796,0.01900290511548519,-0.0269760899245739,0.07260770350694656,0.13610288500785828,-0.033160001039505005,-0.15583349764347076,0.004123291466385126,-0.08043652027845383,-0.0718943178653717,0.22140541672706604,0.08859679102897644,-0.13660354912281036,0.1820329874753952,-0.03762095049023628,-0.05020406097173691,-0.0706486850976944,0.04257042333483696,0.09594443440437317,-0.282703697681427,-0.09139256179332733,-0.03177892044186592,0.11813761293888092,-0.099830262362957,0.062433697283267975,-0.2469944804906845,-0.0442158468067646,0.13688965141773224,-0.1760292500257492,0.019025076180696487,0.0216672345995903,-0.20434924960136414,0.12443649023771286,-0.015276432037353516,0.05601555481553078,0.13073818385601044,-0.18883709609508514,0.061278413981199265,0.0028270012699067593,0.09349782764911652,0.15637266635894775,0.07939591258764267,0.046091366559267044,-0.19278860092163086,0.011060353368520737,-0.118904709815979,0.20213699340820312,0.0790322944521904,0.10089845210313797,-0.22419948875904083,-0.044161226600408554,-0.09696514159440994,-0.18808428943157196,-0.11628544330596924,0.05992521718144417,-0.201247438788414,-0.037108082324266434,0.015205337665975094,-0.023898528888821602,-0.17148534953594208,-0.10128088295459747,-0.13245294988155365,0.04352365806698799,-0.05907144770026207,0.06112845614552498,-0.147044375538826,-0.030976949259638786,-0.7011792659759521,0.01351519487798214,-0.00041276475531049073,-0.07475177943706512,-0.04037902504205704,0.03799847513437271,-0.06734024733304977,-0.11791718751192093,0.13631564378738403,-0.0702945664525032,-0.08634189516305923,0.15587589144706726,0.06161230802536011,0.03677752614021301,-0.1337471306324005,0.0369236059486866,0.045097652822732925,-0.018602367490530014,0.11615116149187088,0.019089216366410255,-0.01727101020514965,0.073512002825737,0.05199948325753212,0.19126175343990326,-0.09420987963676453,-0.04604881629347801,0.05024973675608635,-0.13877218961715698,-0.09861761331558228,0.05791345611214638,0.0859687551856041,0.04579314589500427,-0.02814430743455887,0.041212499141693115,0.03415003418922424,-0.1196819618344307,0.1501004695892334,-0.16030077636241913,0.021147562190890312,0.021002143621444702,-0.15134650468826294,0.034697141498327255,0.17221345007419586,0.005528224166482687,0.09047234803438187,-0.1418982595205307,-0.07191033661365509,0.02169862575829029,-0.058156855404376984,-0.1280517578125,-0.05576819181442261,-0.060759879648685455,0.11026018857955933,0.08351132273674011,0.1966305375099182,-0.01180967316031456,-0.06603068858385086,0.19107647240161896,0.14199964702129364,0.06474284082651138,-0.08939005434513092,-0.09693990647792816,-0.11316031962633133,-0.10992598533630371,-0.022942418232560158,-0.09942075610160828,0.07972632348537445,-0.12834767997264862,0.010185380466282368,-0.10442593693733215,-0.08966777473688126,-0.05450412258505821,0.10160443931818008,0.08053890615701675,0.04639469087123871,-0.024947917088866234,-0.016779441386461258,0.017780303955078125,0.11141084134578705,0.028033992275595665,-0.09750857204198837,0.17881596088409424,0.07972879707813263,-0.03007986769080162,0.11309950798749924,-0.054333627223968506,0.07311046123504639,0.03875463828444481,0.05822876840829849,-0.015946058556437492,-0.04715031385421753,-0.032122232019901276,-0.0775579884648323,-0.23250636458396912,0.19859324395656586,-0.09606194496154785,-0.36681970953941345,0.03405344486236572,0.012246251106262207,-0.1383986920118332,-0.09037226438522339,0.02111053466796875,0.1684914082288742,-0.023187175393104553,0.1003255844116211,0.2184319943189621,-0.144056499004364,0.004971355199813843,0.08881021291017532,-0.030624261125922203,-0.037754401564598083,-0.10893680900335312,-0.07725747674703598,-0.13096393644809723,0.09005878120660782,0.10113879293203354,0.04035350680351257,-0.10106498748064041,0.02973906323313713,0.0293903648853302,0.05827813223004341,-0.1601121723651886,0.089067243039608,-0.035922564566135406,-0.06386589258909225,0.10517004132270813,0.2318337857723236,0.15786030888557434,0.18646712601184845,0.23794984817504883,-0.005673862062394619,-0.007379740942269564,0.23769940435886383,0.11014918982982635,-0.04164908826351166,0.2510063946247101,0.019109902903437614,0.11015968024730682,-0.007627217099070549,0.07133567333221436,0.03760222718119621,0.04979884997010231,0.018742531538009644,0.0004555076011456549,0.002290532924234867,0.09998493641614914,0.05469557270407677,0.0587080642580986,-0.1388947069644928,-0.07195977866649628,-0.08763939142227173,-0.18136587738990784,-0.22196927666664124,0.12394186854362488,-0.007103052921593189,0.035163234919309616,0.13300257921218872,-0.10733598470687866,-0.011893469840288162,-0.049395862966775894,-0.033915918320417404,0.10480765253305435,-0.12223809212446213,-0.031087828800082207,-0.033538948744535446,-0.09111092239618301,0.02162686362862587,0.113346628844738,0.12714245915412903,0.1366165727376938,0.21770846843719482,-0.06087891384959221,0.03600224480032921,0.035839568823575974,0.06861637532711029,0.10837401449680328,-0.01336335763335228,0.10773593187332153,-0.09178442507982254,-0.03838794305920601,0.02418152056634426,-0.0728139877319336,-0.186219722032547,-0.07035885751247406,-0.18841183185577393,0.007361100520938635,0.13149690628051758,0.0825878232717514,-0.043279681354761124,0.06285347789525986,0.19071701169013977,-0.012127750553190708,-0.012517251074314117,0.16943210363388062,0.1428704410791397,-0.19720590114593506,0.10026552528142929,0.023650817573070526,0.03291184827685356,0.0430883951485157,-0.16868165135383606,0.06468837708234787,0.05831258371472359,-0.054424136877059937,-0.056335292756557465,-0.02832801081240177,0.027379075065255165,-0.12631241977214813,0.026153305545449257,0.08421631902456284,0.013752823695540428,-0.05071912705898285,0.09393326193094254,-0.01666007936000824,0.011994843371212482,-0.092074453830719,0.010278038680553436,-0.08353380113840103,0.008365331217646599,-0.04671333730220795,-0.1289413422346115,-0.019801804795861244,0.21788905560970306,-0.022608928382396698,-0.16332150995731354,0.03705187886953354,-0.008585799485445023,-0.19812652468681335,0.1560906022787094,-0.1683119535446167,-0.22415190935134888,-0.05274488404393196,-0.08110646158456802,0.04822643846273422,-0.061943452805280685,0.24462884664535522,-0.03712456673383713,0.08413997292518616,-0.04605069011449814,-0.25138774514198303,0.21110914647579193,0.05576198175549507,0.1805572211742401,0.007904493249952793,-0.07488379627466202,0.08134154975414276,0.06969083100557327,0.0912759080529213,-0.1536276936531067,0.022106103599071503,-0.1177799329161644,-0.07352714240550995,0.017847424373030663,-0.13311050832271576,0.07357478886842728,0.0050578941591084,0.10379911214113235,0.05046485736966133,-0.04920465871691704,-0.06539338082075119,0.10181865096092224,0.08027609437704086,-0.02975619025528431,-0.06770037859678268,0.32330793142318726,-0.16791197657585144,-0.09192249178886414,-0.0025282527785748243,-0.05904141813516617,0.03886670991778374,-0.03156767040491104,-0.03637738153338432,-0.14378760755062103,0.1444290578365326,0.005475698970258236,0.07169453799724579,0.1512737274169922,0.10193336755037308,-0.03314237296581268,0.01873956061899662,-0.02154769003391266,0.013315686024725437,0.029384732246398926,-0.056784987449645996,0.13243511319160461,0.02524343878030777,-0.12791959941387177,-0.01151866652071476,-0.5174478888511658,0.12933479249477386,-0.1574137806892395,0.16766446828842163,0.0723162293434143,0.1052078902721405,0.05371938645839691,-0.07612047344446182,0.06853756308555603,-0.006623838096857071,-0.11978352069854736,0.041930317878723145,-0.05694059282541275,0.09077181667089462,-0.04334888607263565,0.026012536138296127,-0.011448790319263935,0.20659807324409485,0.516907274723053,0.011101271025836468,0.061996448785066605,0.05113236606121063,0.10536781698465347,-0.040616732090711594,-0.23485448956489563,-0.10051561892032623,-0.10231928527355194,-0.0031512780115008354,0.13475756347179413,-0.022649722173810005,-0.06930077075958252,-0.08827487379312515,0.16087444126605988,0.07790783047676086,-0.10695049911737442,-0.09456927329301834,-0.17505331337451935,0.0011977565009146929,-0.014616571366786957,-0.16014814376831055,-0.08907534182071686,0.022655945271253586,-0.07911137491464615,-0.013487692922353745,0.032875992357730865,-0.14566218852996826,0.13539592921733856,0.3278183937072754,0.15786540508270264,-0.01887836679816246,-0.05710693821310997,0.10327425599098206,-0.10884427279233932,-0.13307695090770721,0.18031877279281616,-0.06476370245218277,0.030893387272953987,0.02269737236201763,-0.07339737564325333,-0.08732231706380844,0.11869094520807266,-0.028954612091183662,-0.15431751310825348,-0.13670307397842407,-0.09092769771814346,-0.0393168106675148,-0.3813362419605255,0.11021649092435837,-0.03490666300058365,-0.06030627712607384,0.05117194727063179,0.017461685463786125,0.15146641433238983,0.049656033515930176,-0.05585987865924835,-0.1418246030807495,0.02120319940149784,0.12917344272136688,-0.0050476654432713985,-0.10316794365644455,0.06805895268917084,0.20777519047260284,-0.016831111162900925,-0.11798464506864548,-0.09718413650989532,0.06258607655763626,-0.007420010399073362,-0.03739572688937187,-0.0023120450787246227,0.008875665254890919,0.17091260850429535,0.05039125680923462,-0.08605588972568512,-0.3346248269081116,-0.14858366549015045,-0.0211808905005455,0.05794757604598999,0.03568803146481514,-0.12698058784008026,0.09087110310792923,0.1587020456790924,0.12770022451877594,-0.08343266695737839,-0.028221959248185158,-0.0986819937825203,0.1782575100660324,-0.05466589704155922,-0.06098511815071106,0.050703831017017365,-0.08055795729160309,-0.069503553211689,-0.05148879438638687,0.14741143584251404,-0.17257539927959442,0.06771205365657806,-0.08909374475479126,0.0507843978703022,0.08401086926460266,-0.07695093005895615,-0.04244362935423851,0.15410536527633667,-0.005034415051341057,-0.06658874452114105,0.09590157121419907,0.05626358836889267,-0.13928890228271484,0.001452984637580812,-0.0681932345032692,0.13229812681674957,0.010268106125295162,-0.10641872137784958,-0.009181449189782143,0.13177768886089325,0.06321682035923004,0.04625711217522621,0.0551593191921711,0.08749669045209885,-0.0021997159346938133,-0.11378146708011627,0.05097933113574982,0.011654055677354336,0.36287638545036316,-0.15807688236236572,0.016125641763210297,-0.03816356137394905,-0.021032070741057396,-0.16646797955036163,0.2621718645095825,-0.05213117226958275,0.19371886551380157,-0.237202450633049,-0.002705514198169112,0.15444234013557434,-0.18303616344928741,0.16966669261455536,-0.06316259503364563,-0.1873096376657486,-0.07865456491708755,-0.032986611127853394,0.26631829142570496,-0.05038187652826309,0.15130512416362762,0.04501994699239731,-0.0636323019862175,0.030198516324162483,0.01052843313664198,0.06273172050714493,0.0800529196858406,-0.035299550741910934,0.09430534392595291,-0.10357607901096344,0.25103533267974854,-0.11951182037591934,0.0422196127474308,-0.15646544098854065,0.0720786303281784,0.11212857067584991,-0.012802744284272194,0.012726458720862865,0.07171021401882172,-0.02209905907511711,-0.007661879528313875,0.2012234628200531,-0.22023792564868927,0.02272719144821167,0.02205393649637699,-0.03051641769707203,-0.039618030190467834,-0.08074935525655746,-0.17870493233203888,0.05959780141711235,0.08618422597646713,-0.25338247418403625,-0.0736326277256012,0.12752828001976013,0.07324593514204025,-0.004375404678285122,-0.1714068502187729,0.1609429568052292,-0.12317224591970444,-0.003048749640583992,0.08274137228727341,-0.1602291762828827,-0.05189692601561546,-0.030446041375398636,0.03407755866646767,-0.06448546797037125,-0.08210720866918564,0.07098563015460968,0.07836612313985825,0.003536882344633341,0.10904686897993088,0.01820692978799343,-0.12896223366260529,-0.08704265207052231,-0.1379440575838089,0.043905552476644516,-0.02954072318971157,0.032370906323194504,-0.031114330515265465,0.0922333151102066,0.09501180052757263,0.18307335674762726,-0.12315705418586731,-0.05247822403907776,-0.001957235625013709,-0.10042106360197067,-0.003330851439386606,0.19519178569316864,-0.1310950219631195,0.052000198513269424,-0.012680111452937126,-0.08254997432231903,0.01649649813771248,0.09855849295854568,-0.02053733356297016,-0.10745451599359512,-0.10603604465723038,-0.025173913687467575,-0.00883588194847107,0.026081381365656853,-0.0758075937628746,-0.14558912813663483,0.050407774746418,0.08744186908006668,-0.009464115835726261,0.02707803249359131,0.09821537882089615,0.12892493605613708,-0.1158284842967987,-0.019583752378821373,0.015781523659825325,-0.16776101291179657,0.03869536891579628,0.09158433973789215,0.17496107518672943,0.03102460876107216,0.07480283081531525,0.00005342798613128252,0.1342102587223053,-0.09311950206756592,-0.0608786903321743,0.07794193923473358,0.08484409004449844,-0.17186999320983887,0.16747887432575226,0.03152749314904213,-0.0502784363925457,-0.0658629909157753,0.14745710790157318,-0.16047173738479614,-0.07296831160783768,0.0731939896941185,-0.1689644753932953,0.05519722029566765,0.10952968895435333,0.05124789848923683,-0.11846087127923965,0.1757354885339737,-0.12638747692108154,0.12459147721529007,-0.08805727958679199,-0.17191822826862335,0.02432628720998764,0.012496666051447392,-0.02859390713274479,0.003059242619201541,-0.17380523681640625,-0.005873137153685093,-0.10228987783193588,0.02127348817884922,0.05369388312101364,0.02137826383113861,0.005498184822499752,0.05621540918946266,0.1813172847032547,-0.007864082232117653,0.0018599608447402716,-0.06688924878835678,-0.013083805330097675,-0.03386281803250313,-0.0014185806503519416,0.4378131628036499,-0.37614870071411133,0.6619951725006104,-0.5882601737976074,-0.04635588452219963,0.7512940168380737,0.8770491480827332,-0.5814304947853088,0.09847100079059601,0.05863667279481888,-0.4045313000679016,-0.3754918575286865,0.22915206849575043,-0.5789148211479187,0.10934959352016449,0.46640557050704956,-0.06470634043216705,0.1585645079612732,-0.06473681330680847,0.19910527765750885,0.19580687582492828,-0.10170299559831619,0.14691196382045746,-0.04382118955254555,-0.05775819346308708,-0.0765240415930748,0.12493003904819489,0.023766249418258667,-0.005195069592446089,0.026028215885162354,0.2690584063529968,0.1443738341331482,-0.03378528729081154,-0.10155187547206879,-0.3735481798648834,0.06366489827632904,0.048988424241542816,-0.15437887609004974,-0.13065044581890106,0.16569332778453827,-0.12484433501958847,0.23537269234657288,0.014788440428674221,0.24555091559886932,-0.07374148815870285,0.06487170606851578,0.08066634833812714,-0.06144705414772034,-0.020929628983139992,0.027181360870599747,0.16551443934440613,0.10848474502563477,-0.12841962277889252,0.10425572097301483,0.24467059969902039,-0.18911820650100708,0.07317494601011276,-0.1561518758535385,-0.01594972237944603,-0.2695586681365967,0.153206467628479,0.13144858181476593,0.07879480719566345,0.08688735216856003,0.26384085416793823,-0.05522769317030907,-0.014993835240602493,-0.16424159705638885,-0.08282042294740677,0.08312161266803741,0.029729586094617844,-0.12106991559267044,-0.25328317284584045,0.005147784017026424,-0.0058862436562776566,-0.09294674545526505,0.08579015731811523,0.2268376350402832,-0.17873243987560272,-0.02564123272895813,-0.15895767509937286,-0.20791661739349365,-0.15647576749324799,0.007606872357428074,0.13045470416545868,0.10907311737537384,0.11216706037521362,0.04900677129626274,0.10595022141933441,0.2212316393852234,-0.008417059667408466,0.4421076476573944,-0.11350280791521072,0.09632806479930878,0.031192921102046967,0.09880439937114716,-0.21146905422210693,-0.03435457870364189,0.06917846202850342,0.060315389186143875,0.11961711943149567,0.14464275538921356,0.19425341486930847,0.181942418217659,0.18956759572029114,0.014587107114493847,-0.11834724992513657,-0.03863757103681564,-0.024809325113892555,-0.12576231360435486,0.13372603058815002,0.0487486906349659,0.17552177608013153,0.12017487734556198,0.16434861719608307,0.1392977088689804,-0.14301256835460663,-0.299500435590744,0.0028313472867012024,-0.04476449638605118,-0.06556510925292969,-0.30330967903137207,-0.0031923926435410976,0.0706845223903656,0.16601034998893738,-0.04773224890232086,0.02671288140118122,-0.21783438324928284,0.1704341471195221,0.11355410516262054,0.22216345369815826,-0.16777759790420532,-0.16262921690940857,0.07046811282634735,0.19087430834770203,0.19997447729110718,0.1546051800251007,-0.16788983345031738,0.11188407242298126,-0.10791325569152832,0.06888856738805771,-0.12821190059185028,-0.07746339589357376,-0.04774098098278046,-0.1498984694480896,0.0012888219207525253,-0.1903737634420395,-0.19982025027275085,0.09481728076934814,0.005973501596599817,-0.03773454576730728,-0.11133992671966553,-0.1347341239452362,-0.1707010567188263,0.14288601279258728,0.03866923972964287,0.04472203552722931,-0.20579062402248383,0.14947998523712158,0.1299913376569748,-0.15956434607505798,0.02105097845196724,0.11859584599733353,-0.16748645901679993,-0.05362844094634056,-0.0829315260052681,0.08756065368652344,-0.23119549453258514,-0.0064354934729635715,0.1347648650407791,0.13758838176727295,-0.02490023709833622,0.2105092704296112,0.2501278817653656,-0.19333790242671967,0.011906348168849945,0.10444190353155136,0.23290060460567474,-0.21597495675086975,0.10304486751556396,-0.02440919168293476,-0.15488627552986145,0.08214232325553894,-0.11361347883939743,0.049928873777389526,-0.16406306624412537,-0.13778911530971527,-0.0234679002314806,-0.08448553830385208,0.1090356856584549,0.061155449599027634,0.19246558845043182,0.025698067620396614,-0.16971859335899353,0.188354954123497,-0.07971217483282089,-0.033105552196502686,0.1478538066148758,0.03508555516600609,-0.04886184632778168,0.05198577046394348,-0.09319973737001419,-0.04547981172800064,-0.26842188835144043,-0.010499417781829834,0.06137247011065483,-0.2512884736061096,-0.08968067914247513,-0.06740360707044601,0.05698009207844734,0.17393094301223755,0.14585404098033905,0.1551406979560852,-0.06243351101875305,0.08590243756771088,0.13676775991916656,0.2991889417171478,-0.09547460079193115,0.006015259772539139,-0.03046935610473156,0.06047103554010391,-0.3040298521518707,-0.03635422885417938,0.3550649881362915,0.0016735069220885634,-0.14279477298259735,-0.07118231803178787,0.1178143322467804,-0.03653133288025856,0.24134646356105804,0.2451813817024231,-0.02611590176820755,0.01456385850906372,-0.12303213775157928,0.05994885042309761,-0.1449836641550064,-0.10651034861803055,-0.12324296683073044,-0.1666441708803177,0.2906322777271271,-0.12402122467756271,0.13165266811847687,0.10980070382356644,-0.18054959177970886,-0.09904832392930984,0.18333005905151367,0.25115346908569336,0.0708160549402237,-0.12729564309120178,0.11328136920928955,0.06270268559455872,-0.11881982535123825,0.17316275835037231,0.0257906261831522,-0.1551196277141571,0.08347658067941666,0.19178436696529388,0.10044054687023163,0.1878778338432312,-0.06761094182729721,-0.005306627601385117,0.14518862962722778,0.1188541129231453,0.323035329580307,-0.07878687232732773,-0.18309956789016724,0.04302040860056877,-0.06386110931634903,0.009917046874761581,0.16593100130558014,0.1893358826637268,-0.012909612618386745,0.10860414057970047,-0.12216923385858536,0.12474732846021652,-0.17842407524585724,-0.06903523206710815,-0.039326876401901245,0.12654124200344086,-0.038981519639492035,0.050878047943115234,-0.13703742623329163,0.08607502281665802,0.0016564511461183429,0.021262120455503464,0.1790052354335785,0.07423103600740433,0.0153191601857543,0.10352037847042084,-0.08289732784032822,0.018871210515499115,0.0865408331155777,-0.05808805674314499,0.09958604723215103,-0.08893202245235443,-0.04115681350231171,-0.02712380513548851,-0.19450606405735016,-0.003058437258005142,-0.008618406020104885,-0.0736965760588646,-0.1165197342634201,-0.08395139873027802,0.13570289313793182,-0.10609685629606247,0.022196955978870392,0.05350488796830177,0.024312395602464676,0.05162355303764343,0.0236945953220129,-0.07769819349050522,-0.16249783337116241,-0.014974018558859825,0.02775540202856064,-0.02873293310403824,-0.12247218936681747,0.039117757230997086,-0.07022424787282944,-0.13329583406448364,-0.021972764283418655,0.030133742839097977,-0.19580264389514923,-0.09791164845228195,0.06661660224199295,-0.08136757463216782,-0.022909190505743027,-0.1291733831167221,-0.15095607936382294,0.03291650488972664,-0.11746536195278168,-0.14096038043498993,0.05420082062482834,0.10978637635707855,0.025862880051136017,0.027598828077316284,-0.12215927243232727,0.11379417032003403,0.18937146663665771,0.3198625147342682,-0.16918723285198212,-0.035590820014476776,0.11465836316347122,-0.07804515957832336,0.038465097546577454,0.09674184024333954,-0.11829820275306702,0.16473837196826935,-0.05525567755103111,0.24180187284946442,-0.0331074520945549,0.27469444274902344,-0.0962752252817154,-0.22733387351036072,0.007792278192937374,0.10260068625211716,-0.09504243731498718,0.1221003383398056,0.10517793148756027,-0.12868571281433105,-0.011790558695793152,-0.14243708550930023,0.017834922298789024,0.01392119750380516,0.09327003359794617,-0.025147395208477974,-0.21381762623786926,-0.005179793573915958,0.12166092544794083,-0.03708944842219353,-0.12388449907302856,-0.013649099506437778,-0.027112485840916634,0.006686293985694647,-0.05210840702056885,0.08375419676303864,-0.02866731956601143,0.11544425040483475,-0.0053354427218437195,-0.07237102091312408,-0.16397351026535034,-0.1455143839120865,-0.05130873620510101,0.17417189478874207,0.06625690311193466,-0.10291349142789841,-0.1254730522632599,0.1278204321861267,0.179473876953125,0.13896486163139343,-0.14576609432697296,-0.07669859379529953,0.04552776366472244,0.13675592839717865,0.045125704258680344,-0.0408189557492733,0.04851037263870239,0.08013651520013809,0.05059857293963432,0.2861603796482086,0.009263520129024982,0.09377440065145493,0.022717591375112534,0.06053212657570839,-0.05111292004585266,-0.27639052271842957,-0.009761500172317028,-0.0836155116558075,-0.010556829161942005,-0.05425640940666199,-0.12407318502664566,-0.01013233046978712,-0.014137674123048782,0.08261331170797348,-0.19817377626895905,-0.18416327238082886,-0.16426868736743927,0.18716174364089966,0.047798994928598404,-0.0866243988275528,0.10325323790311813,0.03640815615653992,0.030388496816158295,0.0789010226726532,-0.052992865443229675,-0.044320762157440186,0.1680646687746048,-0.1298164427280426,0.0683322325348854,0.14160025119781494,-0.0985679030418396,0.13763010501861572,0.3099554181098938,-0.20888450741767883,-0.15299443900585175,-0.18386803567409515,-0.05243481323122978,0.10232268273830414,0.029346583411097527,0.10884913802146912,-0.18080288171768188,-0.14337535202503204,0.14169485867023468,0.0006020391010679305,-0.1679414063692093,-0.07682574540376663,-0.0939297154545784,-0.13865023851394653,-0.10202177613973618,0.17090491950511932,-0.00753798009827733,0.06810468435287476,-0.015024479478597641,0.007954406552016735,-0.1532452404499054,0.15271009504795074,0.1784668117761612,0.07354062050580978,-0.17465665936470032,-0.06934354454278946,0.07975386083126068,-0.06724148243665695,0.10327613353729248,0.11956211179494858,-0.17254729568958282,0.0026184755843132734,0.13958695530891418,0.0030525228939950466,0.2096407562494278,0.056874822825193405,0.0797610655426979,-0.1774299442768097,0.1388394981622696,-0.17551980912685394,-0.16275471448898315,-0.017871510237455368,-0.04112343490123749,0.07450830936431885,0.14318540692329407,0.028638795018196106,-0.1461840122938156,-0.2210688591003418,-0.29155462980270386,-0.06134345754981041,0.06415177881717682,0.0788203701376915,-0.09370723366737366,-0.08918909728527069,0.0439576655626297,0.029960017651319504,-0.16940410435199738,-0.004266723059117794,0.16472066938877106,0.009132176637649536,0.1355009377002716,-0.11378892511129379,-0.07348071038722992,0.1562165468931198,-0.16095829010009766,0.12144458293914795,0.042587973177433014,-0.07890929281711578,0.05857747793197632,0.13354356586933136,0.02843598462641239,0.004829941783100367,-0.04855318367481232,-0.023522740229964256,-0.06199221685528755,-0.12386800348758698,-0.04158705845475197,0.09136738628149033,-0.13976405560970306,0.07360387593507767,-0.08804023265838623,-0.007739846594631672,0.21707017719745636,-0.19295185804367065,-0.0711837187409401,0.1499561220407486,-0.01096847653388977,-0.08579964190721512,0.09988062083721161,-0.03682214766740799,-0.09591282904148102,-0.013361583463847637,0.048093993216753006,-0.06996293365955353,-0.07772572338581085,0.1542038470506668,0.044066060334444046,-0.01244340930134058,-0.09340111911296844,0.08921542763710022,0.1836731880903244,-0.16584518551826477,-0.027907609939575195,-0.16767387092113495,-0.0921810045838356,0.11765114217996597,-0.0036727164406329393,-0.03488130494952202,0.023470843210816383,-0.02075766958296299,0.17021986842155457,-0.11189702153205872,0.067787304520607,0.21750149130821228,-0.11214333027601242,-0.19451822340488434,0.13387764990329742,-0.10248780250549316,0.2920721471309662,0.18951459228992462,0.17041820287704468,-0.0060401130467653275,0.09357935935258865,-0.11556359380483627,0.1273193061351776,0.06683211028575897,0.12107925117015839,0.019968103617429733,-0.0009599892073310912,-0.08204993605613708,0.07610328495502472,0.07901587337255478,0.01197053398936987,-0.16973398625850677,-0.14027337729930878,-0.11494344472885132,0.043566860258579254,-0.17192550003528595,0.020776160061359406,-0.027079511433839798,-0.11399853229522705,0.1321738362312317,0.11158929020166397,0.08015205711126328,0.13645091652870178,0.16827429831027985,0.08199456334114075,0.15640376508235931,-0.06064585968852043,-0.08590899407863617,-0.04818855598568916,0.1192660927772522,0.04281318560242653,0.022853747010231018,-0.014018525369465351,-0.09824704378843307,-0.009388449601829052,-0.1676926463842392,0.22163350880146027,0.027608400210738182,0.02474626526236534,0.11854175478219986,-0.08563912659883499,0.09712587296962738,0.014398589730262756,0.06981220841407776,0.013326737098395824,-0.025384273380041122,-0.10416487604379654,-0.05892638862133026,0.0948224663734436,0.08006271719932556,0.025190161541104317,-0.002906985580921173,-0.01325324084609747,0.15419623255729675,-0.12309375405311584,0.08948303759098053,0.0645894706249237,0.049273669719696045,0.028302175924181938,0.01806899532675743,-0.047591522336006165,0.08902927488088608,-0.13430295884609222,-0.11734737455844879,-0.008111655712127686,-0.040577180683612823,-0.06969302892684937,-0.005570087116211653,0.06265853345394135,-0.10447105765342712,-0.3439466953277588,0.12483958899974823,0.06610416620969772,-0.051100198179483414,-0.13981516659259796,-0.13125674426555634,-0.07071341574192047,0.14828097820281982,-0.06860069185495377,-0.1451851725578308,-0.03287239372730255,-0.07753558456897736,-0.21592195332050323,-0.2762987017631531,0.12967997789382935,-0.005588104482740164,-0.12235519289970398,-0.08250486850738525,-0.14115291833877563,-0.06676653772592545,0.05620572343468666,0.019151097163558006,-0.06487729400396347,-0.017657054588198662,-0.28286442160606384,0.20671826601028442,0.16624252498149872,0.21536685526371002,-0.053158245980739594,0.08336592465639114,-0.21913056075572968,0.044561631977558136,0.028125589713454247,0.012576057575643063,0.17298482358455658,-0.10279456526041031,-0.08037782460451126,-0.0417235791683197,-0.13751275837421417,-0.1077628955245018,-0.05709347128868103,0.07024998962879181,0.09049522876739502,0.24271732568740845,-0.13675226271152496,-0.050025906413793564,-0.05760890990495682,-0.05609108880162239,0.023889461532235146,-0.1467704474925995,-0.14785434305667877,-0.11629429459571838,-0.1804201602935791,0.14695045351982117,0.032471176236867905,0.2732708156108856,0.14728133380413055,-0.0730426162481308,-0.06879723072052002,-0.023705601692199707,0.06974653154611588,0.10492749512195587,-0.1343572437763214,0.13852980732917786,-0.013876251876354218,0.24145950376987457,0.0728888064622879,0.3178911805152893,-0.1655951887369156,-0.06772390753030777,-0.06625169515609741,-0.004833919461816549,-0.0692770928144455,0.15344193577766418,-0.015308916568756104,0.11496540904045105,-0.19705325365066528,0.015160296112298965,-0.1149933710694313,-0.07187117636203766,0.11453592032194138,-0.07414934784173965,0.076151043176651,0.04301423951983452,0.21114537119865417,0.33096855878829956,-0.010838446207344532,-0.10085795074701309,-0.12169100344181061,0.06897000968456268,-0.06061268225312233,0.0809304267168045,-0.036282479763031006,-0.014325135387480259,-0.20440159738063812,0.09302057325839996,0.24879224598407745,0.03630465641617775,-0.1165195032954216,0.11057206243276596,0.24032382667064667,-0.07698129117488861,-0.01837170124053955,-0.1438482105731964,0.010381433181464672,0.1606810986995697,-0.13838361203670502,0.1343315690755844,-0.22149471938610077,-0.17138493061065674,-0.12679338455200195,-0.08609150350093842,0.18026423454284668,0.021089136600494385,-0.1019178107380867,0.08007817715406418,-0.13958831131458282,0.05694080889225006,0.30172792077064514,-0.02569633349776268,0.1393374651670456,-0.05758710205554962,-0.1543031632900238,-0.050587136298418045,0.18105214834213257,-0.027543283998966217,0.07097676396369934,0.006873307749629021,0.08946751803159714,0.008343466557562351,-0.0778239518404007,-0.042187195271253586,-0.1885494738817215,-0.2852347195148468,-0.08137017488479614,0.04725423455238342,-0.11174297332763672,-0.00866697821766138,-0.17290930449962616,-0.04287761449813843,-0.06445742398500443,-0.033055249601602554,-0.015836076810956,0.01088132057338953,0.0861421674489975,-0.1338050365447998,-0.09034547209739685,0.04991281032562256,-0.11642735451459885,-0.013817617669701576,0.02924063242971897,0.08911802619695663,-0.10678599774837494,-0.004923913162201643,-0.04964891076087952,0.014506719075143337,0.029743975028395653,-0.20723818242549896,0.042547475546598434,0.03829389810562134,0.0020556775853037834,-0.11679161339998245,0.046610694378614426,0.20205192267894745,-0.029953645542263985,0.058358825743198395,0.2401188313961029,-0.027239691466093063,-0.00873526930809021,0.17491261661052704,-0.042058855295181274,-0.13619861006736755,-0.0015806336887180805,0.10382738709449768,-0.04369150847196579,-0.05723978951573372,0.0600898377597332,0.06310637295246124,-0.035503849387168884,-0.01430307887494564,-0.029853424057364464,-0.06992170214653015,0.06701221317052841,-0.03102528303861618,0.051427241414785385,0.0930686891078949,0.12283160537481308,-0.03385873883962631,0.10778379440307617,-0.16684383153915405,-0.024510104209184647,0.018272850662469864,-0.042896103113889694,-0.4148184657096863,-0.02588554099202156,-0.0280099306255579,-0.15415556728839874,-0.13155615329742432,0.11788982897996902,-0.03242909908294678,-0.00902640726417303,0.025067944079637527,-0.1051124557852745,-0.04719781503081322,-0.009350722655653954,-0.2787286937236786,0.04133177921175957,0.12682107090950012,0.0668807178735733,0.008622675202786922,-0.03828408941626549,0.09862683713436127,0.16679546236991882,0.12778879702091217,0.19583338499069214,0.06638778001070023,-0.13178975880146027,-0.07523658126592636,-0.11202649027109146,0.09437032043933868,0.07756899297237396,-0.1277402639389038,0.0304521806538105,-0.15390516817569733,-0.14610259234905243,0.004569429438561201,0.1749904602766037,-0.08810089528560638,-0.05836103856563568,-0.0901140496134758,0.07713648676872253,-0.002962328027933836,-0.17615003883838654,0.09487868845462799,0.008006303571164608,-0.019588634371757507,-0.1584661602973938,0.0226033516228199,-0.11869172751903534,-0.05265846103429794,0.32991737127304077,0.06200527399778366,0.11503671854734421,0.08438100665807724,0.04127350077033043,0.09290217608213425,0.11599531769752502,-0.1123059019446373,0.05146075040102005,0.12407448142766953,-0.06320139765739441,0.07194144278764725,-0.0022779228165745735,0.019259994849562645,-0.08966317027807236,-0.19530126452445984,0.19385920464992523,-0.03811889886856079,-0.11624099314212799,0.11904933303594589,-0.12434609234333038,-0.14437906444072723,0.11466291546821594,-0.08420196920633316,0.13372665643692017,0.0975448489189148,-0.025352459400892258,-0.010060216300189495,-0.11118414998054504,0.13196949660778046,0.21317225694656372,-0.015438043512403965,0.13907822966575623,-0.17736579477787018,-0.1831285059452057,0.05657118931412697,-0.08414196968078613,0.09139798581600189,-0.03403371945023537,0.008101053535938263,-0.1497761756181717,0.0877431258559227,-0.10027516633272171,-0.12258237600326538,0.06772036850452423,0.13587774336338043,0.13355804979801178,-0.09053768962621689,-0.2257307469844818,-0.12477412074804306,0.025073084980249405,0.1100379005074501,0.0373942032456398,0.12237000465393066,-0.18184736371040344,0.09664370864629745,-0.06314961612224579,-0.13315027952194214,-0.008032889105379581,-0.1183401569724083,-0.0021924017928540707,-0.16832107305526733,-0.11115157604217529,0.15909314155578613,-0.15205968916416168,-0.010402694344520569,0.10540387034416199,-0.04126540198922157,0.103267140686512,0.15534459054470062,0.05225202068686485,0.0018735482590273023,-0.1537252962589264,0.04730476811528206,0.07541760802268982,-0.059395935386419296,0.2382396012544632,0.01553057786077261,-0.12588588893413544,-0.026962459087371826,0.021382540464401245,0.012757190503180027,0.17877008020877838,-0.1572975516319275,-0.05897125229239464,-0.16492486000061035,0.11362235248088837,0.05431414768099785,-0.10116159915924072,-0.014701975509524345,-0.023509005084633827,-0.06485632807016373,-0.012566305696964264,-0.0530792698264122,-0.04636163264513016,-0.0599721223115921,-0.011378987692296505,-0.019279584288597107,0.02719757705926895,0.18299876153469086,0.016882700845599174,-0.08261426538228989,0.084719717502594,0.03253840282559395,-0.09935292601585388,-0.03609707951545715,0.08140669018030167,0.05337763577699661,0.09886644035577774,0.13142985105514526,0.16857539117336273,-0.09093168377876282,-0.12712375819683075,0.057434968650341034,0.17362788319587708,0.1131494790315628,0.06578067690134048,0.0056813061237335205,-0.25772830843925476,0.05869637057185173,-0.10979798436164856,0.03321234509348869,-0.05621351674199104,-0.0889039859175682,0.05268842354416847,0.007309917826205492,0.1303441971540451,0.21329697966575623,0.031074805185198784,0.11106324195861816,-0.06333452463150024,0.06966106593608856,0.022029664367437363,0.09627492725849152,-0.09823938459157944,-0.05736185610294342,-0.02706628106534481,-0.19976694881916046,-0.07709099352359772,-0.1424059122800827,0.08499237149953842,-0.05507151037454605,0.07710585743188858,-0.08234278112649918,0.06753227859735489,-0.23352643847465515,0.10665597021579742,0.08217485249042511,0.22147634625434875,-0.04742738604545593,0.031634069979190826,-0.09745422750711441,0.0213164109736681,0.07423917204141617,-0.18059827387332916,0.11998146772384644,0.10849642008543015,0.023509852588176727,0.03267906606197357,-0.1087692528963089,0.10690125823020935,0.011946474201977253,0.11308600008487701,-0.35309287905693054,0.0801970362663269,-0.14583179354667664,0.03688525781035423,-0.1276029348373413,-0.033871620893478394,-0.16831758618354797,-0.09353549033403397,0.11199428141117096,0.37044841051101685,-0.05161237344145775,0.08710526674985886,-0.20507527887821198,-0.15919630229473114,-0.012144902721047401,-0.023275280371308327,-0.06374991685152054,-0.08834954351186752,-0.1912606954574585,-0.020234903320670128,0.11574871838092804,-0.20542028546333313,-0.03164619952440262,-0.11153196543455124,-0.14110633730888367,0.07383927702903748,0.11694617569446564,0.2141859531402588,0.11234933882951736,0.03606342151761055,-0.004001767840236425,0.1350865513086319,-0.053607527166604996,0.12410340458154678,0.14907683432102203,0.14876343309879303,-0.03908243402838707,-0.03544074296951294,0.06115225702524185,0.09168844670057297,0.05742768570780754,0.03787493705749512,0.04535263404250145,-0.06871780753135681,-0.313956618309021,0.23473459482192993,0.17544767260551453,-0.44373348355293274,0.05962984636425972,-0.5774264931678772,-0.22483111917972565,-0.39818647503852844,0.6438097357749939,-0.7602958083152771,-0.42318034172058105,-0.7918407917022705,0.2370358407497406,-0.6716872453689575,0.21750004589557648,-0.527840256690979,-0.20885123312473297,-0.20757117867469788,0.06399372220039368,0.42834433913230896,0.15964312851428986,-0.08030703663825989,-0.06907490640878677,-0.13168500363826752,0.1993800848722458,-0.11413200199604034,0.1015569344162941,0.11790777742862701,0.039119523018598557,0.09138190746307373,-0.21957483887672424,-0.10286645591259003,0.10824299603700638,-0.10138705372810364,-0.06136050075292587,-0.13286848366260529,-0.2770255506038666,0.1584201157093048,0.037108492106199265,-0.20473287999629974,0.17426881194114685,-0.11380831897258759,0.1296539306640625,0.3626543879508972,-0.10229294002056122,0.1336013823747635,0.04008914902806282,0.1032266765832901,-0.09646692126989365,-0.18785837292671204,0.10126858949661255,0.2404758632183075,0.10921540856361389,-0.03971944749355316,0.018273185938596725,0.011646722443401814,0.03711413964629173,0.057191815227270126,-0.28194352984428406,-0.2004815638065338,0.04347633942961693,-0.05840697139501572,0.10156048834323883,-0.01910322904586792,0.006219902075827122,0.01447911374270916,-0.13833199441432953,-0.08154681324958801,-0.20088134706020355,-0.028172913938760757,-0.09426674246788025,-0.159362331032753,0.021899297833442688,0.10095541179180145,0.02623201534152031,0.18335136771202087,0.3417840898036957,-0.11309006065130234,-0.051200807094573975,0.09068252146244049,0.2613033950328827,0.05192098394036293,-0.17955470085144043,-0.12203735113143921,0.13384853303432465,-0.10375773161649704,-0.06293968111276627,0.2039380967617035,0.22563309967517853,-0.040651243180036545,-0.06061878800392151,0.235731840133667,-0.13675127923488617,-0.10819435864686966,-0.07456731796264648,-0.1655517965555191,-0.1498062014579773,-0.051056377589702606,-0.27617305517196655,-0.1424075961112976,0.08318439871072769,-0.1376991868019104,0.02157777175307274,-0.03553092107176781,0.08582509309053421,0.15639454126358032,-0.016763044521212578,-0.16822302341461182,-0.2554384768009186,-0.09711150825023651,0.10824310034513474,-0.03729855269193649,-0.023250818252563477,-0.03127520903944969,0.07750383764505386,-0.15392589569091797,0.04360467195510864,0.08962929248809814,-0.258069783449173,-0.16245479881763458,0.016856351867318153,0.051805153489112854,-0.12805405259132385,0.049824267625808716,0.13280852138996124,-0.16017509996891022,-0.05330729857087135,0.1225133016705513,0.15592826902866364,0.07278787344694138,-0.003899222007021308,0.0018731176387518644,0.14361347258090973,-0.025179794058203697,0.013771574012935162,0.1674915999174118,-0.16637858748435974,0.2233837991952896,-0.12119720131158829,0.08794352412223816,-0.26384997367858887,0.1464913785457611,0.20777636766433716,0.03929906710982323,-0.09483601152896881,-0.0021616299636662006,-0.1137428879737854,-0.03689795359969139,-0.17908401787281036,-0.20850887894630432,-0.05328895151615143,-0.12243439257144928,0.14625467360019684,-0.030005987733602524,0.18010364472866058,0.0026080587413161993,-0.15040864050388336,0.06767087429761887,-0.0755309984087944,0.1832124888896942,-0.033110763877630234,0.11936827749013901,-0.0353865846991539,0.054525163024663925,0.031128881499171257,-0.1332436501979828,0.2259826511144638,0.0459732785820961,-0.08875022828578949,0.020809585228562355,0.1001984104514122,0.10662131011486053,0.2169841229915619,0.015718236565589905,0.10346325486898422,-0.10335617512464523,-0.20592565834522247,-0.17545253038406372,-0.15661342442035675,0.30402928590774536,-0.0047609843313694,-0.10305682569742203,-0.14972805976867676,-0.1083657369017601,0.3938754200935364,0.18482926487922668,-0.20217865705490112,0.12929540872573853,0.16281837224960327,-0.028508786112070084,-0.20767170190811157,0.0976228415966034,0.08542788028717041,0.13328783214092255,-0.12606185674667358,0.002962663536891341,-0.12804846465587616,-0.17266958951950073,0.0918508768081665,0.10167364776134491,-0.16596046090126038,0.16137059032917023,0.15079888701438904,-0.07704049348831177,0.021734869107604027,-0.07993485033512115,0.04478073865175247,-0.17415930330753326,-0.2486073523759842,-0.1815536618232727,-0.21591371297836304,0.2540911138057709,0.09096664935350418,-0.08861319720745087,-0.16707861423492432,0.10840656608343124,-0.06817305088043213,-0.10188575088977814,-0.2898819148540497,-0.3024352490901947,0.22260114550590515,-0.16468489170074463,-0.016630567610263824,-0.0670923963189125,-0.12085525691509247,-0.037528619170188904,-0.10284072160720825,0.4524652063846588,-0.25868475437164307,-0.16243386268615723,0.0011046160943806171,-0.1018325537443161,0.2690468728542328,0.21890151500701904,-0.0788605809211731,-0.17856381833553314,0.30376678705215454,0.11732548475265503,-0.045415207743644714,-0.0852159634232521,-0.05576241388916969,0.1177113726735115,0.0017274697311222553,0.08422555774450302,-0.1173587292432785,-0.09825760871171951,0.10851331055164337,-0.003924509510397911,-0.11466844379901886,0.12801626324653625,-0.13936464488506317,-0.038291651755571365,-0.03287899121642113,0.20114766061306,0.07327810674905777,0.11608301848173141,0.19497539103031158,-0.11880816519260406,-0.15540540218353271,-0.048695970326662064,-0.1324175000190735,0.12748655676841736,-0.05688249692320824,0.09307771921157837,0.0929306298494339,-0.17302124202251434,0.14830282330513,0.11030785739421844,-0.22241799533367157,0.23035928606987,-0.10743262618780136,-0.07393606007099152,-0.09771718084812164,0.011945194564759731,-0.017379488795995712,-0.015982745215296745,-0.13011619448661804,-0.04106273874640465,0.10724830627441406,0.09123075008392334,0.11480022221803665,0.04489648714661598,0.06604401767253876,-0.17566265165805817,0.030963363125920296,-0.2064681202173233,-0.12388800829648972,-0.07940713316202164,0.15345457196235657,0.11372315138578415,0.1432390958070755,0.08919142931699753,-0.021015195176005363,-0.1262669712305069,-0.07858876883983612,0.07243432104587555,-0.04256705194711685,-0.019687950611114502,-0.1736021190881729,-0.04734685644507408,0.18181265890598297,0.13660699129104614,-0.09828607738018036,0.20609520375728607,0.10688192397356033,0.03141927346587181,-0.030858438462018967,-0.15183056890964508,-0.003388196462765336,0.08253031224012375,0.08742254227399826,-0.16075707972049713,-0.1444002091884613,0.10598324239253998,0.10416215658187866,0.06623687595129013,-0.008026250638067722,0.0014113166835159063,-0.1406046748161316,0.040673527866601944,0.08963905274868011,-0.11364056915044785,-0.04805027320981026,0.05147761106491089,-0.07643620669841766,0.03623452037572861,0.14587624371051788,-0.1558990478515625,0.09088629484176636,0.09662755578756332,0.05888469144701958,0.07682318985462189,-0.07358191162347794,0.14262406527996063,0.023228900507092476,-0.0735418051481247,-0.1926148682832718,-0.16376903653144836,-0.11165259778499603,-0.015793902799487114,0.033466797322034836,-0.21024906635284424,0.04200080409646034,0.17226772010326385,0.26292285323143005,-0.030848266556859016,-0.09364001452922821,0.03980918973684311,0.08525830507278442,-0.10288938879966736,-0.2591407895088196,-0.038331083953380585,-0.0550667904317379,-0.3102026581764221,0.2627958655357361,-0.030277054756879807,0.27833834290504456,-0.10879320651292801,-0.13301926851272583,-0.1905282884836197,0.10572116076946259,0.04996800795197487,0.01369659136980772,0.029474571347236633,0.07081779092550278,0.04590365290641785,0.20749972760677338,0.17374083399772644,0.32837340235710144,-0.044799137860536575,0.024473199620842934,0.1956033855676651,0.0755685344338417,0.23540142178535461,0.04275228828191757,0.10228642076253891,0.1165720596909523,0.1935124695301056,-0.059213507920503616,0.109129898250103,0.14890606701374054,-0.08196346461772919,-0.00863995123654604,-0.21443872153759003,0.12755899131298065,-0.1645328402519226,-0.4315287470817566,0.025925470516085625,0.022487731650471687,-0.24518555402755737,-0.056547489017248154,0.10759791731834412,0.13447169959545135,-0.1972503364086151,-0.021813523024320602,0.22686301171779633,-0.1911194771528244,-0.0867357924580574,0.02660454623401165,0.12218675017356873,-0.002170744352042675,-0.09522166103124619,0.22803756594657898,0.14624586701393127,0.24658630788326263,0.017917068675160408,0.06282494217157364,-0.0942172035574913,0.06247327849268913,0.001319959876127541,0.10291323810815811,0.13552463054656982,-0.006905129179358482,-0.24100768566131592,-0.11073026806116104,0.0843401849269867,-0.00932219997048378,-0.08329259604215622,-0.007837262935936451,0.04856251925230026,0.015827100723981857,0.13602714240550995,0.3716432452201843,-0.05939977243542671,0.033235158771276474,0.2624102234840393,0.16469138860702515,0.000665264786221087,0.11771047860383987,-0.14083653688430786,0.07221224904060364,0.10125430673360825,-0.1314135193824768,-0.008793406188488007,0.29605352878570557,-0.13041816651821136,0.030790172517299652,0.006933998316526413,0.12271531671285629,0.09816478937864304,0.23316213488578796,0.0795615091919899,-0.0025048113893717527,-0.11835455149412155,0.17330487072467804,0.005181895103305578,0.03401537612080574,-0.14380404353141785,-0.05229377746582031,0.0057763028889894485,0.007669438142329454,0.06987237185239792,-0.007113807834684849,-0.03946204110980034,0.047867272049188614,0.09933186322450638,0.01919170841574669,0.09021618962287903,0.043213438242673874,-0.10261252522468567,-0.17177993059158325,-0.4792453348636627,-0.08528640866279602,0.042424265295267105,0.05017460137605667,0.05813894793391228,-0.0923081636428833,-0.1559155434370041,0.029924238100647926,0.022833511233329773,0.017963973805308342,0.06865155696868896,-0.03118431381881237,0.014961672946810722,-0.05240962654352188,-0.05306924134492874,0.10464564710855484,0.12180033326148987,0.043357279151678085,0.36507490277290344,-0.06676103919744492,0.008049926720559597,-0.1884417086839676,-0.05191465839743614,0.10443025827407837,0.1347813904285431,0.17043465375900269,-0.030356071889400482,-0.11788109689950943,0.09133783727884293,0.14403612911701202,-0.16673727333545685,-0.025999393314123154,-0.038296543061733246,-0.08098188787698746,-0.0702367052435875,0.23727944493293762,0.06752847135066986,-0.19739682972431183,-0.05925849452614784,0.10216100513935089,-0.12706154584884644,-0.07558970898389816,0.13040691614151,-0.0031873579137027264,-0.15992654860019684,-0.0072389524430036545,0.0335872620344162,0.1894116848707199,0.06743311882019043,-0.05278140306472778,-0.11000651866197586,-0.15867914259433746,0.039922427386045456,0.08015493303537369,-0.029514601454138756,-0.026360584422945976,0.01233353465795517,-0.25595009326934814,-0.0035630722995847464,-0.11544519662857056,-0.12566623091697693,0.10251261293888092,-0.10142006725072861,0.19786541163921356,0.12703098356723785,-0.17976854741573334,-0.16462409496307373,0.09657568484544754,-0.1438237875699997,-0.12913307547569275,0.012030190788209438,0.071564681828022,-0.05078424513339996,-0.07847271859645844,-0.09301087260246277,-0.047474853694438934,-0.04939361661672592,0.06821560859680176,0.06811065226793289,0.03485425189137459,-0.06528032571077347,0.09416966140270233,-0.2191714346408844,-0.17172832787036896,0.10616112500429153,-0.13837653398513794,0.1430720090866089,0.08101455867290497,-0.03963907063007355,-0.25154972076416016,0.15488319098949432,-0.06227482855319977,0.0056336913257837296,-0.15411019325256348,0.06851039081811905,-0.06395229697227478,-0.012047631666064262,-0.026036884635686874,0.04088671877980232,-0.032223064452409744,-0.1992994099855423,0.06367495656013489,-0.08732561767101288,-0.006272138096392155,-0.003546727355569601,-0.10168959200382233,-0.2435094714164734,0.04094003885984421,-0.03192656859755516,0.21943137049674988,0.14184711873531342,-0.2383938431739807,0.35458904504776,-0.05535641685128212,-0.06238013878464699,-0.01008001621812582,-0.283212274312973,-0.20151709020137787,-0.17214012145996094,0.03743526712059975,-0.18367132544517517,0.05965356156229973,-0.18492339551448822,-0.06492148339748383,-0.06274344772100449,0.22241023182868958,0.047493137419223785,0.10910918563604355,-0.11713950335979462,-0.0002502224815543741,-0.089289091527462,0.07654989510774612,-0.030478322878479958,-0.046646613627672195,0.12093059718608856,-0.05759650841355324,0.17936904728412628,0.013444989919662476,-0.06112711504101753,-0.10508845746517181,0.07889249920845032,0.08938242495059967,-0.04818262904882431,0.14327363669872284,0.13413994014263153,-0.11884824186563492,0.05551457777619362,-0.10872948914766312,-0.10165789723396301,-0.06676026433706284,-0.01059345155954361,-0.13924528658390045,-0.07611683011054993,0.0005018568481318653,-0.06463255733251572,0.02496919594705105,0.03824426978826523,0.006410416681319475,0.0745270848274231,-0.17563211917877197,0.1667577028274536,-0.07907760143280029,-0.049080513417720795,0.20356254279613495,0.07259821146726608,0.036516495048999786,0.10914511233568192,0.08061216026544571,0.0347072035074234,-0.2223813831806183,0.18368549644947052,0.0022077958565205336,-0.15465682744979858,-0.0390080027282238,0.06557956337928772,-0.18860138952732086,0.07443498820066452,-0.0702202245593071,0.11407255381345749,0.014588583260774612,0.033389557152986526,-0.054576292634010315,-0.049564678221940994,0.008601484820246696,-0.09303261339664459,0.05252519249916077,-0.05881936475634575,0.00903739221394062,0.07264873385429382,-0.05185830220580101,0.0049308729358017445,0.07304513454437256,0.011221476830542088,0.14641571044921875,-0.11453847587108612,0.13808979094028473,-0.11026221513748169,-0.009497011080384254,-0.14314623177051544,0.15417812764644623,0.09053825587034225,0.22427771985530853,-0.08100537210702896,-0.19207580387592316,0.16213276982307434,-0.12641821801662445,-0.13868004083633423,-0.11563818901777267,-0.0784340500831604,0.004471955820918083,0.02045144885778427,-0.04352060332894325,-0.5585274696350098,-0.09256278723478317,0.02657904289662838,-0.020307449623942375,0.23032599687576294,0.10638240724802017,0.05016583576798439,-0.05956808105111122,0.058252085000276566,0.24979206919670105,0.02654477395117283,-0.1613655686378479,-0.09842075407505035,0.1377534717321396,-0.10771684348583221,-0.18287572264671326,-0.08234421163797379,-0.03946609050035477,0.07751505076885223,-0.05805087462067604,-0.007556503172963858,-0.1223376914858818,0.0743660181760788,0.05321906507015228,-0.07325506210327148,-0.07466576993465424,0.01044614426791668,0.0434282086789608,0.02900376170873642,0.06309884041547775,-0.020689014345407486,-0.27853477001190186,0.019316576421260834,0.1299508661031723,-0.21583379805088043,-0.04754844680428505,0.07554806023836136,-0.024603618308901787,0.030468473210930824,-0.08745517581701279,-0.0928235575556755,0.12086612731218338,0.11454879492521286,-0.14491282403469086,0.1634722650051117,-0.08983226865530014,0.24222925305366516,-0.09504086524248123,-0.0899774581193924,-0.06638505309820175,-0.017144430428743362,0.16856396198272705,0.04860706999897957,0.08153712004423141,-0.0515974760055542,-0.10245100408792496,-0.1298316866159439,-0.03201369568705559,-0.2695551812648773,0.05481439083814621,0.0018987588118761778,0.16115206480026245,-0.003024468431249261,-0.004012987483292818,0.2061818689107895,-0.13372458517551422,-0.08788543194532394,-0.19978392124176025,0.10559147596359253,-0.09849848598241806,0.09219102561473846,-0.22910146415233612,-0.2639254331588745,-0.238289937376976,0.19701123237609863,-0.06378886103630066,0.3572009205818176,-0.018731407821178436,0.00473703583702445,-0.22507837414741516,-0.11522536724805832,0.04171184077858925,-0.25089141726493835,-0.005763244815170765,-0.1327390819787979,-0.2240714132785797,-0.16777528822422028,-0.21615742146968842,-0.18838471174240112,-0.042937565594911575,0.09684837609529495,-0.22160029411315918,0.18858464062213898,0.12308751791715622,-0.04627947881817818,-0.16802017390727997,-0.2464848756790161,-0.20079748332500458,0.03302859142422676,0.0331801101565361,0.1440802961587906,-0.04433134198188782,0.02529151923954487,0.1785414069890976,0.01918799616396427,0.13359278440475464,0.12859226763248444,0.1953066736459732,-0.013174034655094147,0.23209120333194733,-0.021082043647766113,-0.08136433362960815,-0.1298571527004242,-0.023224465548992157,0.10692662745714188,-0.20934562385082245,0.08447982370853424,0.011366418562829494,-0.15992987155914307,-0.04798947274684906,0.07858871668577194,0.0432802215218544,0.0784759372472763,-0.03611195459961891,-0.3576745092868805,0.05309044197201729,0.015198471955955029,0.130208820104599,0.07728980481624603,0.03603430464863777,0.16281680762767792,-0.024967864155769348,0.16508758068084717,0.23411467671394348,0.03915214538574219,-0.1204855740070343,-0.026068512350320816,-0.21514344215393066,0.10291405022144318,-0.14452365040779114,-0.06507963687181473,-0.2590228319168091,0.025715721771121025,0.14739103615283966,-0.1318560391664505,0.08246754854917526,-0.1913796365261078,-0.16733601689338684,-0.016263067722320557,0.031684521585702896,-0.0724664181470871,0.20569436252117157,-0.17928892374038696,0.11780936270952225,0.08061955124139786,0.05003172159194946,-0.09287051856517792,0.26694414019584656,-0.0545324981212616,-0.18384718894958496,-0.05247244983911514,0.07028838247060776,0.07443806529045105,-0.04007015749812126,0.20227600634098053,-0.1070299819111824,-0.1682470291852951,-0.21057729423046112,0.13104219734668732,-0.1799960732460022,-0.03525963053107262,-0.101121686398983,-0.042545244097709656,-0.02688385732471943,0.0016864313511177897,-0.08901595324277878,0.013624532148241997,-0.09645864367485046,-0.11497925966978073,-0.004947025794535875,0.06679261475801468,0.19648714363574982,-0.13255730271339417,0.02854420617222786,0.19135361909866333,-0.02958865836262703,-0.1183573305606842,-0.06228557601571083,0.03278063237667084,-0.15543892979621887,0.248329296708107,-0.020995505154132843,-0.014959216117858887,0.2713091969490051,0.09553547203540802,0.07232203334569931,-0.24577875435352325,-0.13620701432228088,-0.14621053636074066,-0.030128374695777893,-0.10700982809066772,-0.10958018898963928,0.04276745393872261,0.12492207437753677,0.12095990031957626,0.10213986039161682,0.010662690736353397,-0.013483192771673203,-0.024359513074159622,-0.038544196635484695,-0.0016025991644710302,-0.1668395698070526,0.12486706674098969,-0.0661594495177269,-0.06241258978843689,0.018959226086735725,-0.14617067575454712,0.10158603638410568,-0.1603514701128006,0.0035559351090341806,0.010026678442955017,0.03241243585944176,0.17525766789913177,0.1363975703716278,0.02193446271121502,-0.13533605635166168,0.08181402832269669,-0.09380104392766953,0.05922570824623108,0.004746286664158106,0.04434136301279068,0.07703516632318497,0.2586832344532013,0.05908327177166939,0.07292314618825912,-0.057374101132154465,0.13386447727680206,0.2498355656862259,0.0495971143245697,0.14116109907627106,-0.11642277985811234,0.1221776083111763,0.08777826279401779,-0.004162636119872332,-0.12731853127479553,-0.05306047201156616,0.02270098403096199,-0.24156813323497772,-0.1858324259519577,-0.008676043711602688,0.0761311799287796,0.003696309868246317,0.0643158107995987,0.08010075986385345,-0.015470247715711594,-0.04715602844953537,-0.0020066224969923496,0.0034851613454520702,-0.020245101302862167,-0.12132145464420319,0.057818785309791565,0.004770603496581316,0.022763116285204887,-0.057332996279001236,-0.025251833721995354,-0.01825985684990883,0.09093605726957321,0.05391555279493332,0.34610623121261597,0.06618356704711914,0.0737481340765953,0.10739142447710037,-0.12428773939609528,0.14933593571186066,0.10309601575136185,-0.029179148375988007,-0.025980599224567413,-0.12849752604961395,0.00029745057690888643,0.1787683367729187,0.10200413316488266,0.02863304130733013,-0.057209622114896774,-0.12349744141101837,0.06131630763411522,-0.04923808202147484,-0.21266385912895203,0.01240992546081543,0.27176567912101746,0.23429299890995026,0.1033012866973877,0.011122841387987137,-0.010366789996623993,-0.11299282312393188,0.001865494647063315,0.14766624569892883,-0.17026139795780182,-0.182294100522995,0.09632464498281479,0.01654757931828499,0.004928749054670334,-0.13868078589439392,0.16091540455818176,0.060267649590969086,-0.15561768412590027,-0.0013627295847982168,0.006020318251103163,-0.18024064600467682,0.04556615278124809,-0.0017992822686210275,-0.08310188353061676,0.03850296512246132,-0.10601948946714401,0.16631880402565002,0.04844317212700844,-0.015975704416632652,-0.06153193116188049,-0.07872803509235382,0.04373813420534134,0.19775457680225372,-0.07395534217357635,0.07764548063278198,-0.06619077175855637,-0.12520676851272583,-0.009279238060116768,0.05177803710103035,-0.08338531851768494,-0.0746954083442688,0.229624941945076,-0.06970183551311493,-0.11076312512159348,0.10421162843704224,0.026158399879932404,0.11554595082998276,0.03821804001927376,-0.04097447171807289,0.18278303742408752,0.4171904921531677,0.01980961300432682,0.008689329028129578,0.07041644304990768,0.015444803051650524,0.08385253697633743,0.00869940035045147,-0.1277993619441986,0.0382000207901001,0.044162292033433914,-0.043540481477975845,0.028117157518863678,0.06096595898270607,0.07008132338523865,0.0014602412702515721,0.027512894943356514,0.03260260075330734,-0.09948635846376419,-0.2368728369474411,0.06388244032859802,0.08982700854539871,0.20295509696006775,0.04103456810116768,-0.023319611325860023,-0.04369431361556053,-0.13018132746219635,0.055418550968170166,0.3778125047683716,-0.046973902732133865,-0.055887382477521896,0.07647720724344254,-0.08881538361310959,0.04137180373072624,0.016860902309417725,-0.060192808508872986,0.20232954621315002,-0.15431220829486847,-0.11210402846336365,0.09038803726434708,-0.006247426848858595,0.1717766523361206,-0.06173278018832207,-0.056477420032024384,0.05283951759338379,-0.16649653017520905,0.12250406295061111,0.08555284887552261,0.0684475228190422,0.005973805673420429,-0.05614824593067169,0.062161885201931,-0.013813672587275505,-0.024465499445796013,-0.045085206627845764,0.023780547082424164,0.008739802986383438,0.0622786283493042,0.010504291392862797,-0.11614301800727844,0.03684103861451149,-0.015234645456075668,0.008706311695277691,-0.18625254929065704,-0.5635203123092651,0.5090333223342896,0.23024125397205353,-0.27559858560562134,0.10013879835605621,-0.16365371644496918,-0.005199965089559555,0.48704996705055237,-0.588021457195282,0.744479238986969,0.42780545353889465,-0.03353779390454292,-0.1294350028038025,0.1592041701078415,-0.5149308443069458,-0.04748960956931114,-0.07298015803098679,0.1397574096918106,-0.22951474785804749,0.23819801211357117,0.1333099901676178,0.25513049960136414,-0.055386532098054886,0.1784713864326477,0.016686512157320976,0.01816125214099884,-0.03844683989882469,-0.1976398527622223,-0.011308406479656696,-0.23099741339683533,-0.22052645683288574,0.27719441056251526,-0.04650657996535301,0.06832294911146164,0.041069164872169495,0.10904711484909058,0.23526129126548767,0.17564447224140167,-0.2035316526889801,-0.23603220283985138,0.025966284796595573,0.1249796524643898,0.029860366135835648,0.2073127180337906,0.24551615118980408,0.21566231548786163,-0.03051663562655449,-0.049469005316495895,-0.2127198874950409,-0.051157571375370026,-0.43013423681259155,0.16201044619083405,-0.24431724846363068,-0.03148398920893669,-0.13576675951480865,-0.03974566608667374,0.026936767622828484,-0.1085992231965065,-0.06598929315805435,0.005228129215538502,-0.1656939685344696,-0.019439492374658585,0.002571460558101535,0.2060278207063675,-0.0967220738530159,0.14729419350624084,0.006631894037127495,-0.08333709090948105,0.09989893436431885,-0.14116878807544708,0.17270058393478394,0.28338658809661865,0.02757982909679413,0.06307070702314377,0.28231683373451233,0.059543684124946594,0.1066117212176323,0.10186544060707092,-0.11299692094326019,0.0842394307255745,-0.014196723699569702,0.21873986721038818,-0.08104924857616425,0.021254440769553185,-0.13063044846057892,-0.015008878894150257,0.09199462831020355,0.13546735048294067,-0.16876022517681122,-0.1496708244085312,0.0753210261464119,-0.20318129658699036,-0.11460956931114197,0.1296892613172531,-0.13111400604248047,-0.235973060131073,-0.03010278195142746,0.1040337011218071,-0.17103086411952972,-0.09831574559211731,0.10444406419992447,0.3400578796863556,0.11139626801013947,-0.02428882010281086,-0.23417894542217255,0.10231828689575195,0.16829083859920502,0.027843676507472992,0.17295007407665253,0.2057451605796814,0.11119609326124191,0.09560468047857285,0.004112196154892445,-0.16325107216835022,0.0913337916135788,0.05757255479693413,0.06254508346319199,0.19438759982585907,-0.17028725147247314,-0.1002020314335823,0.07371968030929565,0.20981092751026154,0.017124328762292862,0.3460806906223297,0.08535927534103394,0.15577028691768646,0.12532790005207062,0.19118571281433105,0.19648954272270203,-0.19669966399669647,0.023944266140460968,0.06876761466264725,-0.13836100697517395,-0.16518157720565796,0.013146270997822285,0.044739093631505966,0.028631487861275673,-0.014826424419879913,0.1086982786655426,-0.008145434781908989,-0.016385652124881744,0.08650905638933182,-0.033691585063934326,-0.12329977005720139,0.08655966073274612,-0.14599356055259705,0.0030616207513958216,0.16141898930072784,0.09516721218824387,-0.07822749018669128,-0.006309173069894314,-0.10910383611917496,0.21036839485168457,-0.005276539828628302,0.20224444568157196,-0.33165451884269714,0.052486684173345566,0.05869089066982269,0.07475414127111435,-0.029619773849844933,0.007210173644125462,-0.13870276510715485,0.33060795068740845,0.16195735335350037,0.033046655356884,-0.2690146267414093,-0.2663993537425995,0.020950209349393845,-0.04233330488204956,0.12623141705989838,-0.05723530426621437,-0.08792006969451904,-0.2210196703672409,0.16576096415519714,-0.2382226437330246,0.05325702577829361,-0.16542957723140717,-0.19896511733531952,-0.16244277358055115,0.3405001163482666,0.021702537313103676,0.18425396084785461,-0.1258745789527893,0.3005632162094116,0.03871758654713631,-0.24801522493362427,-0.011648315005004406,-0.10071420669555664,-0.2370067536830902,-0.15465636551380157,0.2224932461977005,0.09303165972232819,-0.028618566691875458,-0.12168927490711212,0.06366671621799469,-0.07148033380508423,0.13052015006542206,0.2681332528591156,0.021975697949528694,-0.12368103116750717,-0.16036659479141235,-0.09080663323402405,0.20057523250579834,-0.11589560657739639,-0.11887744814157486,0.028568997979164124,0.09900891780853271,-0.36987096071243286,-0.2544049024581909,-0.13262303173542023,0.11888399720191956,0.10646244883537292,0.23902787268161774,-0.16422609984874725,-0.32113170623779297,0.18299776315689087,-0.04266956448554993,-0.045222073793411255,-0.009055808186531067,0.000154013279825449,0.060923539102077484,-0.057914573699235916,0.06630738079547882,-0.37019574642181396,0.11035500466823578,-0.1580001413822174,0.11229687184095383,0.06721160560846329,-0.13943831622600555,-0.05003943666815758,-0.25237083435058594,0.17702393233776093,0.017437925562262535,0.09123620390892029,-0.315511554479599,-0.12344040721654892,0.04765770211815834,-0.2625550925731659,-0.0590834803879261,0.06282471120357513,0.12400161474943161,-0.11379256099462509,0.028656436130404472,-0.05569273605942726,-0.06974612921476364,0.23194527626037598,-0.22835730016231537,0.2567887306213379,0.18179276585578918,0.0940268337726593,0.32359063625335693,0.056820664554834366,0.07972713559865952,0.0124906525015831,-0.0651550218462944,-0.07463716715574265,-0.015776613727211952,0.08749306946992874,-0.1784847229719162,-0.12717485427856445,0.05574319139122963,-0.017829615622758865,-0.13755880296230316,-0.01785132847726345,0.03140243887901306,0.1942233443260193,0.09646286070346832,-0.09981893748044968,0.018029673025012016,-0.11610749363899231,0.0008145769825205207,0.07405068725347519,0.010977081954479218,0.05986659601330757,0.1650518774986267,-0.04038744047284126,0.10274726897478104,0.0053159864619374275,-0.03078863024711609,-0.16843512654304504,-0.08037257939577103,0.05268891900777817,0.06240740790963173,0.15534785389900208,0.16184641420841217,0.04637235030531883,-0.011707479134202003,0.039335791021585464,-0.22985891997814178,0.03878075256943703,-0.07262779772281647,-0.012915083207190037,0.03031122498214245,0.19858284294605255,0.23573845624923706,0.016159260645508766,-0.12183176726102829,0.04952148720622063,0.2544039785861969,0.10312594473361969,-0.2581518888473511,-0.23213127255439758,0.25227102637290955,-0.11731697618961334,0.024181703105568886,0.17110218107700348,0.001385077484883368,0.014088214375078678,-0.09430766850709915,0.028793008998036385,-0.0010221600532531738,0.09682076424360275,0.012084005400538445,0.16468997299671173,-0.1902093142271042,0.09547758847475052,-0.2164234220981598,-0.18662689626216888,-0.02339675836265087,0.19018137454986572,0.00216386909596622,-0.14850138127803802,-0.11049970984458923,-0.28218647837638855,0.11083345860242844,-0.08111796528100967,-0.17516648769378662,-0.025967566296458244,0.07859288156032562,-0.10554010421037674,-0.1834946870803833,-0.10425455123186111,0.0028400463052093983,-0.1279066801071167,0.10370635241270065,-0.020124418660998344,0.20298248529434204,-0.06287406384944916,0.14119760692119598,-0.12179621309041977,0.054832037538290024,0.06506235897541046,-0.034545429050922394,0.15746212005615234,0.05195327475667,0.25377869606018066,0.07742141932249069,-0.044169116765260696,-0.018562810495495796,0.1686936467885971,0.05302444100379944,-0.09902788698673248,0.026788385584950447,-0.12796296179294586,0.11056742817163467,0.05503133311867714,-0.06774865835905075,-0.18662738800048828,-0.060828205198049545,0.05119777098298073,0.15495052933692932,-0.08535784482955933,-0.011645512655377388,-0.03887767344713211,-0.01816905103623867,0.04612414166331291,0.1735410839319229,-0.038143038749694824,0.12168300896883011,-0.004228584468364716,-0.14647148549556732,-0.07588640600442886,0.1016232818365097,-0.054338376969099045,-0.0952126532793045,0.17255112528800964,-0.2749541401863098,-0.004583422560244799,0.28775593638420105,0.19233354926109314,-0.05613488703966141,0.0497899167239666,0.03528637811541557,-0.05921707674860954,-0.2915281057357788,-0.12311654537916183,-0.01010577380657196,0.14732420444488525,-0.07376933842897415,-0.10808157175779343,0.05525921285152435,0.18711504340171814,-0.09440986067056656,0.24856331944465637,0.06266825646162033,0.1934140920639038,-0.03754618391394615,-0.017803682014346123,0.0013898737961426377,-0.12976178526878357,-0.09680862724781036,-0.020101075991988182,0.11805137991905212,-0.047881342470645905,0.04025448486208916,-0.02291654422879219,0.08137574046850204,-0.052989982068538666,0.021457992494106293,0.12274296581745148,0.08422563970088959,-0.09967516362667084,-0.0732879489660263,-0.014809271320700645,0.09596032649278641,-0.10220201313495636,-0.17298442125320435,-0.03486903756856918,0.04968922957777977,-0.10034008324146271,-0.09398510307073593,-0.132254496216774,-0.06953941285610199,-0.015133563429117203,-0.012811504304409027,0.11078273504972458,-0.11563299596309662,-0.02488752081990242,-0.08691533654928207,-0.1024666428565979,0.16060389578342438,-0.018950410187244415,0.12769632041454315,0.20692329108715057,-0.09179774671792984,0.05728312209248543,0.20125310122966766,0.041133951395750046,0.15773418545722961,-0.1533522754907608,0.1366657316684723,0.17175233364105225,-0.19945557415485382,-0.08159516006708145,0.08673231303691864,-0.06718777120113373,-0.044113483279943466,-0.12643374502658844,0.2109622359275818,0.1717505007982254,0.03034166432917118,0.020375970751047134,-0.0030349341686815023,-0.043786611407995224,0.2931661903858185,0.060676250606775284,-0.17844326794147491,-0.20275914669036865,-0.18098817765712738,-0.15001370012760162,0.26952335238456726,0.04058121517300606,0.1591285765171051,-0.09194228053092957,0.08291316032409668,0.1635487675666809,-0.015051117166876793,0.08006034046411514,0.12751100957393646,-0.15262162685394287,0.11329092085361481,0.10523989796638489,-0.23731787502765656,-0.13580994307994843,0.12474201619625092,-0.20485873520374298,-0.06113014370203018,0.0052337790839374065,0.020704731345176697,0.09994152933359146,0.22621816396713257,0.06225845217704773,0.053216319531202316,-0.09416152536869049,0.0630699098110199,-0.14222672581672668,-0.0030687805265188217,0.03935282677412033,0.20489734411239624,-0.03495628386735916,-0.024851756170392036,0.03808800131082535,-0.14085429906845093,-0.1301729679107666,-0.20771078765392303,0.15574735403060913,0.21307751536369324,-0.09748712927103043,-0.14566302299499512,0.0395134799182415,0.029160842299461365,0.03357430547475815,-0.06056664139032364,-0.10808388143777847,0.05813109129667282,-0.16360944509506226,-0.163326695561409,0.00919942557811737,0.10082724690437317,0.12034661322832108,0.09592659771442413,0.04607207328081131,-0.06842215359210968,-0.03655177354812622,-0.03238801658153534,-0.018261650577187538,0.16033680737018585,0.04962059110403061,0.02054046094417572,-0.0009040144504979253,-0.14819493889808655,-0.04810037091374397,-0.08059733361005783,0.07381293177604675,0.030929742380976677,-0.025691846385598183,-0.10202973335981369,-0.08247363567352295,-0.07188884913921356,-0.0419711098074913,-0.09014207124710083,0.015121981501579285,-0.00393339991569519,0.04285648837685585,0.19229844212532043,0.13433577120304108,0.0798005610704422,0.18511486053466797,-0.20433707535266876,0.009905809536576271,-0.1634497344493866,-0.057312168180942535,-0.214747354388237,-0.1638135015964508,0.1078236773610115,-0.07449175417423248,0.006223718635737896,-0.027382226660847664,-0.12083961814641953,-0.15335862338542938,-0.017323246225714684,-0.058657463639974594,0.08385873585939407,-0.09253420680761337,-0.05436410382390022,-0.06714855134487152,-0.04204859212040901,0.09064972400665283,-0.014566059224307537,-0.1820194572210312,0.10470077395439148,0.013798289000988007,0.05110514536499977,0.14525429904460907,-0.041437096893787384,-0.2378280907869339,0.16747704148292542,0.019377822056412697,-0.20187945663928986,-0.02023237943649292,0.13461337983608246,-0.06339048594236374,-0.05315108597278595,0.053519975394010544,0.09043601155281067,0.1357145458459854,-0.018397053703665733,-0.13266509771347046,-0.1040002703666687,-0.05372091010212898,-0.11549468338489532,-0.10109328478574753,0.10350069403648376,0.2416020929813385,-0.21311409771442413,-0.20302508771419525,-0.021128874272108078,-0.06578709185123444,0.08242827653884888,-0.10718623548746109,-0.14346866309642792,-0.160830557346344,-0.12404002249240875,-0.0807475671172142,-0.07285104691982269,-0.16771557927131653,0.20636816322803497,0.035148102790117264,-0.16902436316013336,-0.08445873856544495,0.10886231809854507,0.09609125554561615,0.05506335198879242,0.17930474877357483,-0.0208894070237875,0.049984078854322433,-0.04768247529864311,0.1504427194595337,-0.0014885836280882359,-0.15339788794517517,-0.03682883828878403,0.25048860907554626,-0.04507416486740112,0.17473196983337402,-0.15596787631511688,0.004601671826094389,0.09127029031515121,0.04554539918899536,0.04676687717437744,0.02285129949450493,0.049551960080862045,0.03250408545136452,-0.16932934522628784,-0.11887431144714355,0.24702997505664825,0.08245307952165604,0.006660618353635073,-0.20125016570091248,0.006883158814162016,-0.019642561674118042,-0.3732335567474365,0.31837108731269836,-0.03559568151831627,-0.05782752111554146,-0.005225781816989183,-0.07223138958215714,0.1208079531788826,-0.021067067980766296,-0.15984880924224854,0.03673827275633812,-0.09182243794202805,0.038391679525375366,-0.09144469350576401,-0.013355329632759094,-0.10075105726718903,0.10959027707576752,-0.10954698920249939,0.04248106852173805,-0.027843719348311424,0.04118248447775841,-0.09825049340724945,0.046429216861724854,0.11030128598213196,-0.01818731427192688,-0.0007213405333459377,0.17043553292751312,0.005127290729433298,-0.0451069213449955,0.14634178578853607,0.1367107480764389,0.14101287722587585,0.15387794375419617,0.1572294384241104,-0.04308850318193436,-0.01980518363416195,0.09741657972335815,-0.10580224543809891,-0.02248234860599041,0.09212150424718857,-0.07330337911844254,0.018297774717211723,-0.1503334790468216,0.20443716645240784,0.06036851927638054,0.13147078454494476,-0.09202225506305695,0.2600967586040497,0.15623658895492554,-0.09281153231859207,0.014457114972174168,-0.01683845743536949,0.1271115392446518,0.03365065157413483,0.012452520430088043,-0.011708649806678295,-0.01726342737674713,0.08387722820043564,0.03080754168331623,-0.16366977989673615,-0.051843125373125076,-0.1141224056482315,-0.015339230187237263,-0.0341351293027401,-0.2039487063884735,-0.21263597905635834,-0.11411406099796295,0.00800030305981636,-0.0007144492119550705,0.07758800685405731,0.09090328216552734,-0.14941555261611938,-0.015555106103420258,0.048731956630945206,-0.04597034305334091,0.10015391558408737,0.07859347015619278,0.08852674067020416,-0.029311589896678925,0.12335139513015747,-0.13732782006263733,-0.30667027831077576,0.22272531688213348,-0.0916052982211113,0.05132357403635979,0.17382563650608063,0.14837953448295593,0.2146974354982376,0.02233554795384407,0.24196602404117584,0.011904404498636723,0.04615306481719017,-0.06216617301106453,0.028939278796315193,-0.19303275644779205,0.08310214430093765,-0.1441652625799179,0.004602441098541021,0.08993592113256454,0.16006192564964294,0.11090780794620514,0.009242253378033638,0.1407315731048584,0.02771587111055851,-0.10559433698654175,0.07780338823795319,-0.04029964655637741,-0.24403207004070282,-0.039857521653175354,-0.09134507924318314,0.15315741300582886,0.08892752230167389,-0.06032492592930794,-0.007784417364746332,-0.044294051826000214,0.19932107627391815,0.19702300429344177,-0.07409229874610901,-0.13727231323719025,-0.11941976845264435,-0.07647357881069183,0.20198459923267365,0.02810407429933548,-0.05522633343935013,-0.08841238170862198,0.059446100145578384,-0.09465199708938599,-0.007302135229110718,-0.15481673181056976,-0.2716812491416931,0.21889692544937134,-0.08494282513856888,0.15687820315361023,0.2693696916103363,-0.15463344752788544,-0.0009562699124217033,0.031900081783533096,0.05977891385555267,0.05960329994559288,0.2066633254289627,0.26927298307418823,0.27176064252853394,-0.1808241307735443,0.10240813344717026,-0.15182632207870483,-0.18696284294128418,0.18272462487220764,0.20009024441242218,-0.11769367754459381,-0.22587163746356964,-0.17303292453289032,-0.0985068678855896,-0.0567346066236496,0.12827102839946747,0.15719033777713776,0.1680498719215393,0.3158505856990814,0.016740823164582253,-0.06024578958749771,-0.06055201590061188,0.06986963003873825,0.14408759772777557,0.0030378918163478374,0.022059209644794464,-0.025070203468203545,-0.03775302320718765,0.16838376224040985,0.13007752597332,0.10635828226804733,0.09128860384225845,0.011606849730014801,-0.0018163422355428338,-0.0698070153594017,-0.20814627408981323,0.07205807417631149,0.03388448804616928,0.14356693625450134,-0.029463980346918106,-0.0361899733543396,0.009083261713385582,0.000871351920068264,0.01443723775446415,0.05205056443810463,0.08496112376451492,0.17974315583705902,-0.10447115451097488,0.008223222568631172,-0.009154160507023335,-0.11382099986076355,0.054034892469644547,0.08389480412006378,-0.18446201086044312,-0.10474126785993576,-0.15008032321929932,0.34742555022239685,-0.23579035699367523,-0.17184603214263916,0.11331059038639069,0.01509012933820486,-0.043605927377939224,0.025141516700387,0.058198314160108566,-0.1141483336687088,-0.213376984000206,-0.001586008002050221,-0.03371953219175339,-0.11629178375005722,0.17193464934825897,0.04635566845536232,0.011771910823881626,-0.15079237520694733,-0.06174081563949585,0.08183396607637405,-0.05212009698152542,0.17632919549942017,-0.06403014063835144,0.051620688289403915,-0.1636890321969986,0.1851978451013565,0.07047189027070999,-0.06224537268280983,0.11328994482755661,-0.02540622279047966,0.0810420960187912,-0.09887287765741348,0.02601717598736286,-0.08115992695093155,0.2049347162246704,-0.019032133743166924,-0.18400220572948456,0.014985481277108192,0.15259015560150146,-0.026667680591344833,0.06497812271118164,0.05653160810470581,-0.09927425533533096,0.022125782445073128,0.10065864026546478,0.04301704093813896,-0.19440795481204987,0.11875265091657639,0.1721128225326538,-0.10448891669511795,-0.2556571960449219,-0.0735144093632698,-0.015308797359466553,-0.040143001824617386,0.15449154376983643,-0.034524135291576385,0.14832113683223724,-0.07958537340164185,-0.2022990584373474,-0.02788507752120495,0.10702339559793472,-0.1620536595582962,0.20781578123569489,0.11942481994628906,0.1009269654750824,-0.14324021339416504,0.08597369492053986,-0.2048901617527008,-0.032867446541786194,0.09371957182884216,0.012010625563561916,-0.09094913303852081,-0.06272845715284348,0.021655287593603134,-0.010567918419837952,-0.024299701675772667,0.08327573537826538,0.04580659419298172,-0.007947108708322048,-0.0009485757327638566,0.04543016850948334,-0.06064854934811592,0.1953948736190796,0.02024434693157673,-0.0690121129155159,-0.058752287179231644,0.05312218889594078,0.09026839584112167,0.02534881792962551,-0.03927120193839073,-0.16840296983718872,0.28648316860198975,-0.21907173097133636,0.23874233663082123,-0.07094693928956985,-0.0833321139216423,0.011378942988812923,-0.020974982529878616,-0.026803351938724518,0.06977710872888565,-0.04473556950688362,0.09906391054391861,0.00862849224358797,0.20647241175174713,0.08149950206279755,0.1748921126127243,0.29809123277664185,-0.18545284867286682,0.08037102222442627,0.08447454869747162,-0.11242594569921494,0.04964577034115791,0.1033550277352333,0.046463992446660995,-0.08210207521915436,-0.14679749310016632,0.0662023052573204,-0.09692265838384628,0.21148468554019928,0.03282402828335762,-0.11108558624982834,-0.06801736354827881,0.05743011459708214,-0.10060469806194305,-0.22001810371875763,0.034716472029685974,-0.20700427889823914,-0.18425849080085754,0.057948999106884,-0.17563702166080475,-0.004407021217048168,-0.15395092964172363,-0.08404957503080368,0.00600437493994832,0.06163405254483223,-0.03704987093806267,0.35084444284439087,0.06566138565540314,-0.008256977424025536,-0.012599483132362366,-0.07197816669940948,0.030375849455595016,0.029910339042544365,-0.26007723808288574,-0.1214694082736969,0.03760194405913353,0.019754087552428246,-0.05104424059391022,0.07295452058315277,-0.05219913274049759,0.018059339374303818,0.05642033368349075,-0.06977985799312592,-0.02642611600458622,0.16164454817771912,-0.09835103154182434,-0.06220579147338867,0.10179568082094193,-0.18493404984474182,0.05642867460846901,-0.0765131413936615,-0.16447287797927856,-0.04827447235584259,0.19558879733085632,-0.01103784516453743,0.17030656337738037,-0.027814805507659912,-0.02709062583744526,-0.12323977053165436,0.049083810299634933,0.08196266740560532,-0.15667839348316193,-0.07146415114402771,-0.028187284246087074,-0.1443866342306137,0.027700703591108322,0.16290481388568878,0.10528959333896637,-0.1192098930478096,-0.09696267545223236,-0.055312905460596085,0.09018746018409729,-0.07149296998977661,0.0737016424536705,-0.2099759727716446,0.1251678466796875,0.35297462344169617,0.20347382128238678,0.05900208279490471,0.010001439601182938,0.0717986449599266,-0.03627227991819382,-0.132864311337471,-0.44083866477012634,-0.03249005228281021,-0.017080551013350487,0.13066522777080536,0.10059019923210144,0.11417759209871292,0.08001444488763809,0.15114077925682068,-0.002738230861723423,0.024744976311922073,0.07096939533948898,-0.1264643669128418,-0.048570096492767334,0.07280215620994568,0.17485764622688293,-0.10351590067148209,-0.0002232141705462709,-0.03385588899254799,-0.017129987478256226,-0.09642956405878067,0.040297731757164,0.120545394718647,-0.18012234568595886,0.1326659768819809,-0.09635946899652481,0.026150163263082504,-0.10195650905370712,0.02373681403696537,-0.2488875836133957,0.002573722507804632,0.06442026793956757,-0.363145649433136,-0.013859613798558712,0.09782668948173523,0.09278984367847443,0.04404325783252716,0.03194568306207657,0.10809147357940674,0.13867276906967163,0.08486966043710709,-0.009458338841795921,-0.07516032457351685,0.15634694695472717,0.005068805068731308,0.1631879061460495,0.08503662794828415,-0.07764572650194168,-0.09245909750461578,0.05363134294748306,0.047784142196178436,0.008845953270792961,-0.039751749485731125,0.10004448145627975,0.060442037880420685,0.010230145417153835,0.07004330307245255,0.32113102078437805,0.2758277952671051,0.20845113694667816,-0.7356084585189819,-0.16994401812553406,0.14846396446228027,0.1092892587184906,0.08913996070623398,0.3232441246509552,0.23930524289608002,-0.5982984900474548,0.18938134610652924,-0.2100842297077179,-0.43588343262672424,0.1504267305135727,-0.328914076089859,-0.1219913586974144,-0.23389148712158203,0.24191616475582123,-0.08847958594560623,0.06491515785455704,0.32574865221977234,-0.11041665077209473,-0.10624907165765762,-0.11020389944314957,0.04304530471563339,-0.12663887441158295,-0.07365090399980545,0.07468931376934052,-0.02462257631123066,-0.010125572793185711,0.00758515065535903,-0.07404352724552155,-0.3140714466571808,0.04557281732559204,-0.28044378757476807,-0.11495504528284073,-0.10258004069328308,0.29379498958587646,-0.05119216442108154,-0.3854399621486664,-0.197052001953125,-0.16849324107170105,0.1563206911087036,0.011334292590618134,0.23496152460575104,0.10833859443664551,0.001590656116604805,0.07398759573698044,0.1868360936641693,-0.05565015599131584,-0.0767565444111824,-0.13555918633937836,-0.32969292998313904,-0.11379454284906387,-0.1486014574766159,0.2984926700592041,-0.02231784164905548,-0.15473617613315582,-0.16718295216560364,0.09913084656000137,0.05160196125507355,-0.1969708353281021,0.3294890820980072,-0.2700652480125427,-0.035258177667856216,-0.17109009623527527,0.22769780457019806,0.14132879674434662,0.3156697750091553,0.1739305555820465,0.17549489438533783,-0.2497352808713913,-0.2294415533542633,0.027299605309963226,-0.16858376562595367,0.116627536714077,0.09013452380895615,0.12715524435043335,-0.4076932668685913,0.2297365963459015,-0.06840053200721741,-0.05188732221722603,0.06194574758410454,-0.003328215330839157,-0.13699401915073395,0.13952992856502533,-0.2023467868566513,0.2868368327617645,0.22871606051921844,0.06417335569858551,0.07681529968976974,-0.2078968584537506,-0.1842915117740631,-0.23188509047031403,-0.10290101170539856,-0.21428117156028748,0.25949591398239136,0.23820392787456512,0.2069188356399536,-0.14670105278491974,0.17533671855926514,0.008874655701220036,-0.13134631514549255,0.24347585439682007,0.2169070839881897,-0.1404353231191635,0.18732388317584991,0.04087190330028534,0.059949375689029694,-0.32162708044052124,0.1277085542678833,-0.14036600291728973,-0.05564502254128456,-0.04465819522738457,0.05846305191516876,-0.03322892636060715,-0.07862512022256851,0.18124091625213623,0.07713780552148819,-0.04176333174109459,0.07005603611469269,0.1045922338962555,0.03455612063407898,0.03169351443648338,-0.0951877310872078,0.08392728865146637,-0.14876578748226166,-0.13400042057037354,0.33961257338523865,-0.27238157391548157,0.0803256407380104,0.2619328200817108,-0.1690368950366974,-0.16182000935077667,0.27548426389694214,0.013755236752331257,0.06901392340660095,0.017810819670557976,0.02725156582891941,-0.25949710607528687,-0.13940401375293732,0.24852409958839417,-0.16861797869205475,-0.15384970605373383,0.03181684762239456,0.008343659341335297,-0.035060636699199677,0.20714524388313293,0.10765090584754944,-0.20282594859600067,-0.13825373351573944,0.00643349951133132,-0.10638651996850967,-0.044903725385665894,-0.10418296605348587,0.20428314805030823,0.1976596564054489,0.012395190075039864,0.08376721292734146,0.18858562409877777,0.1233067512512207,0.08407145738601685,-0.04463256150484085,-0.16976067423820496,-0.18703576922416687,-0.20411144196987152,-0.034068599343299866,-0.13117434084415436,-0.10380607843399048,0.12637443840503693,-0.12160763144493103,0.17014974355697632,-0.05471620708703995,0.17259760200977325,0.26553767919540405,-0.08829837292432785,0.12593820691108704,-0.1774989664554596,-0.1394374966621399,-0.181560218334198,0.09599273651838303,-0.015463026240468025,-0.18684205412864685,0.07649251818656921,-0.11999738216400146,-0.1865774244070053,0.004718772601336241,-0.10034197568893433,0.2346312254667282,0.05485151335597038,-0.08235060423612595,-0.12036286294460297,0.09582674503326416,-0.09520167112350464,0.04243741184473038,-0.046231914311647415,-0.19866518676280975,-0.003231342416256666,-0.011851700954139233,-0.2735757529735565,0.10994475334882736,0.21974320709705353,0.21211731433868408,-0.10539834201335907,0.26160305738449097,-0.07901298254728317,-0.18906770646572113,0.22027918696403503,0.21120548248291016,0.25554537773132324,0.22537623345851898,-0.18263159692287445,0.13931258022785187,-0.16220073401927948,0.031505659222602844,0.06459632515907288,0.03282593563199043,-0.2607361376285553,-0.14123032987117767,-0.20551271736621857,0.29587703943252563,-0.025118662044405937,-0.24223963916301727,-0.11027203500270844,0.19759246706962585,-0.015051455236971378,0.28994062542915344,0.09779278934001923,0.17878875136375427,-0.1911611258983612,0.0781136155128479,0.0620330385863781,0.23595310747623444,0.06852974742650986,-0.1883544623851776,-0.28630921244621277,-0.2746324837207794,-0.003986194729804993,0.0372517891228199,0.26244980096817017,-0.20075520873069763,0.19211696088314056,0.18274462223052979,-0.218927800655365,-0.18526966869831085,0.13234741985797882,-0.0738728791475296,-0.29271310567855835,0.06593357026576996,-0.18637144565582275,0.03870001435279846,0.16561920940876007,0.1104516014456749,-0.1284841001033783,0.03254949674010277,-0.24462969601154327,0.20418737828731537,-0.18648675084114075,-0.10280385613441467,-0.12340464442968369,-0.026250068098306656,0.16110838949680328,-0.11864400655031204,-0.2338167428970337,0.00004370772512629628,-0.08609288185834885,-0.1876743584871292,0.06838257610797882,-0.10450030863285065,0.15071363747119904,-0.0015653560403734446,-0.16377806663513184,0.01995721459388733,0.06763682514429092,-0.012917201966047287,0.04201175272464752,-0.03075507842004299,0.013879862613976002,0.05423432216048241,-0.09007049351930618,0.09715130180120468,0.08659815788269043,0.062194421887397766,0.001595472451299429,-0.12070854753255844,-0.03863710165023804,0.058141063898801804,-0.0771537497639656,-0.05318320915102959,-0.07332263886928558,0.09391753375530243,0.1896018236875534,-0.1484985202550888,0.1759634166955948,0.0777197852730751,-0.30389511585235596,-0.0757104903459549,-0.022303378209471703,0.2142033725976944,0.029117902740836143,0.03407219424843788,-0.20499934256076813,0.18507543206214905,-0.0875343605875969,-0.15487980842590332,0.17139917612075806,0.10096922516822815,0.1356394737958908,0.24200209975242615,0.249321848154068,-0.137079119682312,-0.020619068294763565,-0.0885331928730011,0.16112521290779114,-0.11246831715106964,-0.04865580424666405,-0.061061520129442215,0.02285599708557129,0.08787906169891357,-0.06063943728804588,-0.027869844809174538,-0.028354432433843613,0.01190847996622324,-0.11073964834213257,0.14607153832912445,0.1956699639558792,-0.2058221399784088,-0.14609014987945557,0.015746794641017914,0.14932529628276825,-0.0559711679816246,-0.0960882231593132,-0.08286652714014053,0.01358170434832573,0.07096799463033676,-0.2136983573436737,-0.11429154872894287,-0.07047105580568314,-0.009626952931284904,-0.033494722098112106,0.1172790452837944,-0.012018069624900818,0.05593584105372429,-0.06056099757552147,-0.2714076340198517,0.21723751723766327,-0.02418639324605465,0.18012435734272003,-0.07155005633831024,-0.033294014632701874,0.11557211726903915,-0.00407259538769722,-0.0021984821651130915,-0.10384812206029892,0.1537146121263504,0.061495665460824966,-0.1314481496810913,-0.1619224101305008,-0.15727448463439941,-0.032455556094646454,0.08220330625772476,0.13096198439598083,0.023947687819600105,0.0505070686340332,0.013486555777490139,-0.03700590506196022,-0.07222724705934525,-0.008159124292433262,-0.20325879752635956,-0.09399331361055374,-0.12168313562870026,-0.09937288612127304,-0.248786062002182,0.06767842918634415,-0.0017931991023942828,-0.018463633954524994,-0.027981078252196312,0.21720698475837708,0.16823457181453705,-0.033187638968229294,-0.16913887858390808,-0.13294409215450287,-0.01934724859893322,-0.17237798869609833,-0.15338191390037537,0.016693856567144394,0.10193648934364319,0.03164703771471977,0.05564437061548233,0.1628454178571701,-0.1483587622642517,-0.037569329142570496,-0.13735896348953247,0.07564763724803925,-0.13325417041778564,-0.1098039448261261,-0.08851000666618347,-0.09336081892251968,0.05629555881023407,0.07218118011951447,0.16891300678253174,-0.03713303431868553,0.02701585739850998,-0.3426073491573334,-0.19251124560832977,0.20681090652942657,0.06352998316287994,0.053340885788202286,-0.08436335623264313,-0.04107704386115074,-0.06289437413215637,-0.16659832000732422,0.08377498388290405,-0.06224563717842102,0.1309024542570114,-0.1423310786485672,0.20941750705242157,0.22878408432006836,0.011339983902871609,-0.2508678436279297,0.057896651327610016,0.02172950468957424,0.08513897657394409,0.1498328149318695,0.018415089696645737,0.09146146476268768,-0.005913606844842434,0.1966250240802765,-0.25719794631004333,0.2565917372703552,0.0591118149459362,0.10930157452821732,0.03778430074453354,0.1961531788110733,0.08024267852306366,-0.01895577646791935,-0.21316298842430115,-0.04902244731783867,0.05382516235113144,-0.07316963374614716,0.14519692957401276,-0.2177213877439499,0.09803768992424011,-0.008195808157324791,0.0758686289191246,0.11711395531892776,-0.047690317034721375,-0.0030125498306006193,0.03921547159552574,0.10007669031620026,-0.12014642357826233,0.07658010721206665,0.1889723688364029,0.11996841430664062,-0.008029590360820293,0.04367224872112274,0.02427304908633232,0.0448174849152565,-0.17824053764343262,0.0394231341779232,0.05229119211435318,0.10821738839149475,0.10772497951984406,0.014333304017782211,-0.044395562261343,-0.07032166421413422,0.0024759608786553144,0.07129708677530289,0.16397951543331146,-0.050385940819978714,-0.09092047065496445,0.054243337363004684,-0.04151146858930588,-0.033339954912662506,-0.07743600755929947,-0.09735649824142456,0.11566426604986191,0.05982745811343193,0.081562340259552,-0.05481106787919998,0.20679272711277008,0.21576014161109924,-0.047168344259262085,0.1850893497467041,0.06911537796258926,0.2482277750968933,-0.008932698518037796,0.29583507776260376,-0.03306218981742859,0.24937713146209717,0.17977234721183777,0.11713841557502747,0.14624330401420593,0.02860814705491066,0.1224043145775795,-0.0997650995850563,-0.4292571544647217,0.09628364443778992,0.18035946786403656,-0.18281298875808716,-0.026301471516489983,0.02742353081703186,-0.11659707129001617,-0.046848054975271225,-0.034080736339092255,0.46859583258628845,0.02955896034836769,-0.06632257252931595,-0.21233712136745453,-0.06133081018924713,0.08356963843107224,0.06746815890073776,0.07100380957126617,-0.04784337803721428,0.0035270932130515575,-0.06035609543323517,-0.0009693176834844053,-0.0052938577719032764,0.09092586487531662,-0.05572124570608139,-0.03054577298462391,0.1585269719362259,0.027962863445281982,0.21352627873420715,-0.05006059259176254,-0.0920022651553154,0.35082176327705383,-0.2511901557445526,-0.12936663627624512,-0.2802881598472595,-0.09368215501308441,0.09382796287536621,0.031099902465939522,0.2337525188922882,0.029140029102563858,-0.12760357558727264,-0.12726445496082306,0.1852990984916687,0.10348177701234818,-0.023774296045303345,-0.10930604487657547,-0.14088082313537598,-0.03939300775527954,-0.23594973981380463,-0.10870486497879028,0.10396023839712143,0.028931105509400368,-0.1344694197177887,-0.0742039605975151,0.010793764144182205,-0.13284863531589508,-0.07097355276346207,-0.10743749886751175,0.15966647863388062,-0.02839392051100731,-0.04037122800946236,-0.2638280391693115,0.01843469776213169,0.05814353749155998,0.08526194840669632,-0.18889085948467255,0.19475057721138,0.046414297074079514,-0.01722075790166855,-0.22395141422748566,-0.013322788290679455,-0.12365242093801498,-0.023677241057157516,0.04935570806264877,0.0923059806227684,0.15410418808460236,0.03665594011545181,0.019145656377077103,0.10663353651762009,-0.012517455965280533,0.13566841185092926,-0.14397288858890533,-0.2307949960231781,0.102848581969738,-0.049753036350011826,-0.054241739213466644,-0.049646977335214615,-0.11366394907236099,-0.07646267861127853,-0.24424703419208527,-0.041572462767362595,0.08440291881561279,0.08823467046022415,0.071274034678936,-0.11474370956420898,0.19077323377132416,0.2935822904109955,-0.06208503246307373,-0.036797165870666504,0.21477526426315308,-0.22678817808628082,-0.06545859575271606,-0.08796043694019318,-0.19664524495601654,-0.024486390873789787,-0.030413659289479256,0.09192264825105667,0.08195922523736954,-0.07586121559143066,-0.06986065953969955,-0.05360649526119232,0.02334720827639103,-0.055911485105752945,0.09808676689863205,0.056496165692806244,0.04281245544552803,-0.06864091753959656,0.015683645382523537,0.1973210722208023,-0.03449676185846329,0.10659635066986084,0.09651543200016022,-0.10050992667675018,-0.040208734571933746,-0.03813684359192848,0.19239385426044464,0.1929183453321457,0.05821985378861427,-0.06201999634504318,0.003616959322243929,-0.0373886376619339,-0.06099085137248039,0.028247183188796043,0.021125290542840958,0.06206667050719261,-0.013679608702659607,0.3098674714565277,0.15997403860092163,0.1833377629518509,0.006964459549635649,0.08213432878255844,-0.10535258799791336,0.010384561493992805,-0.06533869355916977,-0.18331462144851685,-0.07436922192573547,-0.010892807506024837,0.14942023158073425,0.061530955135822296,-0.04554377868771553,-0.27895909547805786,-0.24148714542388916,-0.08668574690818787,0.0009865358006209135,0.14139774441719055,-0.09693869203329086,-0.056381285190582275,-0.2041013091802597,0.012325718998908997,0.09675206989049911,0.0739700198173523,-0.12851181626319885,0.011279783211648464,0.193485826253891,0.10280521959066391,-0.09918472915887833,-0.07947473227977753,0.1060013547539711,0.06743359565734863,-0.14697636663913727,0.01418428122997284,-0.05819758027791977,0.08362996578216553,-0.0370214618742466,-0.05346536263823509,0.06938956677913666,-0.012274755164980888,-0.01510748639702797,-0.11467638611793518,0.11029674857854843,0.05407043546438217,0.005070536397397518,-0.03536182641983032,-0.36119556427001953,-0.44062161445617676,-0.1027304008603096,-0.05234527215361595,0.013508148491382599,0.20461063086986542,-0.08101994544267654,0.10755235701799393,-0.008404220454394817,-0.09797659516334534,-0.02617041952908039,-0.10673760622739792,0.14942452311515808,0.07236581295728683,0.15179476141929626,0.08895072340965271,-0.02529490925371647,-0.027112800627946854,-0.1046275645494461,0.06946095079183578,-0.058677613735198975,-0.0659097284078598,0.11406929045915604,-0.09009335935115814,0.012446035631000996,0.14008808135986328,0.005366923753172159,0.19955235719680786,0.014260884374380112,-0.10845055431127548,-0.1349775642156601,-0.0022584155667573214,-0.11693728715181351,-0.02916499227285385,0.14069445431232452,0.0023518376983702183,-0.14553679525852203,-0.3092699646949768,-0.10826176404953003,0.029753552749753,0.25603052973747253,0.11952178925275803,0.0903569832444191,0.002217381726950407,-0.10313433408737183,-0.11366136372089386,-0.04860057309269905,0.03723369166254997,0.1404198706150055,0.04455723613500595,0.128092423081398,-0.09252225607633591,-0.2190200537443161,-0.10658242553472519,-0.0391925685107708,0.009143881499767303,-0.09739163517951965,0.1641288548707962,0.16718381643295288,-0.0346691831946373,-0.113423191010952,-0.06992212682962418,0.029751135036349297,0.13324308395385742,0.08340632170438766,0.057718150317668915,0.1176786795258522,0.007912999950349331,-0.053731173276901245,0.04783641919493675,-0.02312668412923813,0.13542094826698303,0.0693102553486824,-0.20023421943187714,0.15532848238945007,-0.02511863224208355,-0.23178762197494507,0.1784030944108963,0.15849582850933075,-0.13037198781967163,0.10966222733259201,0.093680739402771,0.004440528340637684,0.10136600583791733,-0.08199441432952881,0.05777326971292496,-0.01895502209663391,0.07147233188152313,-0.15680111944675446,-0.16405697166919708,-0.09101366996765137,-0.006358031649142504,-0.05940144136548042,0.09624391049146652,0.054819006472826004,-0.024856407195329666,-0.012216882780194283,0.010235089808702469,-0.006054125726222992,0.054339922964572906,-0.08882768452167511,0.03390657529234886,0.0802164077758789,0.1859663724899292,-0.0940881073474884,0.25286269187927246,0.11893919855356216,-0.08732449263334274,0.2512463927268982,0.0013153557665646076,-0.05157795175909996,0.04660535976290703,-0.007654435466974974,0.0850333571434021,-0.1919023096561432,-0.2024693787097931,0.07740526646375656,-0.041897840797901154,-0.023966951295733452,0.15635937452316284,-0.0036069622728973627,-0.03417820483446121,