{"config":{"head":null,"layers":[{"gated":false,"channels":16,"dilations":[1,2,4,8,16,32,64,128,256,512],"head_bias":false,"head_size":8,"activation":"Tanh","input_size":1,"kernel_size":3,"condition_size":1},{"gated":false,"channels":8,"dilations":[1,2,4,8,16,32,64,128,256,512],"head_bias":true,"head_size":1,"activation":"Tanh","input_size":16,"kernel_size":3,"condition_size":1}],"head_scale":0.02},"version":"0.5.4","weights":[-0.024384284391999245,0.39406031370162964,-0.6232028603553772,-0.5148539543151855,-0.09973357617855072,0.31241852045059204,0.002472067018970847,0.7136148810386658,-0.0022476331796497107,-0.0027668422553688288,-0.16969600319862366,-0.061360105872154236,-0.6437718272209167,-0.4749104380607605,-0.19457493722438812,0.004835722502321005,0.004430542699992657,0.14190050959587097,-0.10999502241611481,0.006646276451647282,-0.018952179700136185,0.06369499117136002,-0.09978603571653366,0.17878223955631256,0.028952833265066147,-0.05491234362125397,0.20029698312282562,-0.08003872632980347,-0.16200412809848785,0.011821712367236614,-0.027431577444076538,0.186086043715477,-0.17728058993816376,-0.11894309520721436,-0.03991039842367172,-0.03200584277510643,-0.05674441531300545,0.1926872283220291,-0.010493787005543709,0.01072795782238245,0.013871271163225174,0.003853224217891693,0.031002720817923546,-0.07948683202266693,-0.1379184126853943,-0.0851941630244255,0.022448908537626266,0.1516086906194687,-0.01506635919213295,-0.07795200496912003,0.14358051121234894,0.1835806518793106,-0.015343556180596352,0.08704514056444168,0.14879484474658966,-0.15437088906764984,0.0977979376912117,-0.056495919823646545,-0.16765426099300385,-0.010631237179040909,0.11186890304088593,0.0897272452712059,-0.14235755801200867,-0.01702340878546238,0.05996984988451004,-0.05070396885275841,-0.017852207645773888,0.15282626450061798,0.16836389899253845,0.08622755110263824,-0.2345767319202423,-0.13822434842586517,0.09957357496023178,-0.0039010057225823402,0.04187660291790962,0.1749543398618698,-0.04954780265688896,-0.17023544013500214,0.07184364646673203,0.03779931366443634,-0.03299093618988991,0.1188550516963005,0.03694794699549675,-0.1763276904821396,0.06131990998983383,0.10644227266311646,0.0655531957745552,-0.11176449805498123,0.08061785995960236,-0.09279245138168335,-0.032436124980449677,0.12011411786079407,0.12263096868991852,-0.013905772939324379,-0.24860700964927673,-0.16230639815330505,0.12290270626544952,-0.054839570075273514,-0.16054999828338623,-0.010849004611372948,0.011464500799775124,0.013717393390834332,-0.013703427277505398,-0.16061876714229584,-0.22134290635585785,0.04450325667858124,-0.21737857162952423,-0.18375258147716522,0.04003256559371948,0.04569000378251076,-0.05617036670446396,0.09808001667261124,-0.1279076337814331,0.26438525319099426,0.12323813885450363,-0.127809077501297,-0.2355118989944458,-0.004124626517295837,0.028357865288853645,0.23680640757083893,0.07168380171060562,0.017907530069351196,0.131695955991745,0.08245447278022766,-0.16071653366088867,0.07175799459218979,-0.03060728870332241,-0.09043150395154953,-0.27494120597839355,-0.1568203866481781,-0.06851063668727875,0.07617393881082535,-0.11351443082094193,-0.022532789036631584,-0.10720004141330719,-0.029855724424123764,-0.01102070789784193,0.1381167620420456,0.13428081572055817,0.11098236590623856,-0.0011735272128134966,0.07022283226251602,0.13541442155838013,0.17785312235355377,-0.11735007166862488,-0.0866902694106102,0.2625899314880371,-0.002827133983373642,-0.06545931100845337,0.08829496055841446,-0.12513072788715363,-0.11140648275613785,0.17421351373195648,0.09446685016155243,0.0783107727766037,0.048275768756866455,0.1005108505487442,-0.13459455966949463,-0.19645528495311737,-0.17826412618160248,-0.05326678976416588,-0.09665818512439728,-0.2282266616821289,-0.11856848746538162,0.035194411873817444,0.07279016077518463,-0.0679728090763092,-0.00035531731555238366,-0.19915232062339783,-0.01457802951335907,0.06960015743970871,-0.12934772670269012,0.14028555154800415,0.0014193399110808969,-0.1981254667043686,0.09457945823669434,0.03975590690970421,0.011413885280489922,0.13958574831485748,-0.1537298709154129,-0.04050064831972122,-0.01989506185054779,0.16295070946216583,0.11245820671319962,0.05880822613835335,-0.031245417892932892,-0.143717423081398,-0.04727829992771149,-0.06403552740812302,0.15000422298908234,0.10765816271305084,0.036182209849357605,-0.17900580167770386,0.01083027757704258,-0.15844739973545074,-0.15037882328033447,-0.08758903294801712,-0.005648176651448011,-0.1533696949481964,-0.008242572657763958,-0.05199584737420082,0.021355926990509033,-0.11147747933864594,-0.1550455093383789,-0.15411721169948578,0.05887067690491676,-0.013475318439304829,0.19323770701885223,0.04334308207035065,0.04728462174534798,-0.03215986490249634,-0.14061763882637024,-0.09030740708112717,0.05523514747619629,0.11704971641302109,0.13531693816184998,-0.18921393156051636,0.040667641907930374,0.2295861542224884,-0.19925935566425323,0.06508681178092957,0.21098265051841736,-0.030712362378835678,-0.11811380833387375,-0.2585972845554352,0.1194772943854332,-0.030565841123461723,-0.02553822658956051,-0.04495371878147125,-0.1430654078722,-0.11823097616434097,0.20247995853424072,0.007602200377732515,0.13830913603305817,0.12956194579601288,-0.14377179741859436,0.03131113573908806,-0.02317153476178646,0.037409309297800064,0.13693933188915253,-0.03728840872645378,0.1881820410490036,0.026022912934422493,-0.09932593256235123,0.19087474048137665,-0.026257550343871117,0.020657777786254883,-0.0021499490831047297,0.1154669001698494,-0.10588163882493973,0.022984905168414116,0.11534028500318527,0.034783173352479935,-0.09073373675346375,-0.11429803818464279,-0.05981796979904175,-0.2518811523914337,0.21069610118865967,-0.011968535371124744,-0.049401044845581055,-0.2808961570262909,0.06290501356124878,0.030067959800362587,0.3108588457107544,0.07652395218610764,-0.09109804034233093,0.16060611605644226,0.06624249368906021,0.036439552903175354,0.18139906227588654,-0.06997852772474289,-0.034321051090955734,-0.36456525325775146,-0.026144765317440033,-0.06082313135266304,-0.019053513184189796,0.19468365609645844,-0.055932145565748215,-0.22662353515625,0.014528813771903515,-0.07640551030635834,0.030869554728269577,-0.005929587874561548,0.19001144170761108,-0.09410406649112701,0.1110827699303627,-0.10134334117174149,0.2288200706243515,-0.011430413462221622,-0.06831715255975723,0.07969072461128235,0.05797365680336952,-0.0008308365941047668,0.19395136833190918,-0.013821791857481003,-0.13145223259925842,0.3021019697189331,-0.08257919549942017,0.007651571184396744,0.13672392070293427,-0.05124383047223091,0.05080786347389221,-0.22601541876792908,-0.09208299219608307,-0.04652167856693268,0.026590609923005104,0.008857617154717445,0.11235938966274261,-0.14481738209724426,-0.060441192239522934,-0.16869807243347168,0.18010349571704865,0.09198690205812454,-0.1013280376791954,0.25662195682525635,0.1386236548423767,-0.1429281234741211,0.14706256985664368,0.07051701843738556,0.04353375360369682,-0.21691922843456268,-0.042410969734191895,-0.09682369232177734,0.10997320711612701,0.13796240091323853,0.17606589198112488,-0.12839260697364807,-0.028336843475699425,0.05678727850317955,0.06134355068206787,-0.0860515758395195,-0.09057819843292236,0.00894645880907774,0.05913318693637848,-0.152047261595726,0.24437887966632843,0.1441912055015564,0.09498057514429092,0.3003489077091217,0.1447969377040863,-0.08498740196228027,0.14855091273784637,0.15844111144542694,0.03290862217545509,0.11590887606143951,0.17272238433361053,0.018784010782837868,0.2667456567287445,-0.054850004613399506,0.06020085886120796,-0.17816835641860962,0.044436659663915634,-0.06798804551362991,0.15504240989685059,-0.02573910728096962,0.22370828688144684,-0.11399418115615845,0.11437570303678513,-0.26712721586227417,0.09228456765413284,-0.1499304324388504,-0.30448171496391296,-0.05346295237541199,0.06691110134124756,-0.06136760860681534,0.18480731546878815,0.057766392827034,0.026730520650744438,-0.17087292671203613,0.03179854154586792,-0.1544681191444397,0.1330825537443161,-0.13844920694828033,0.09688983857631683,-0.20563015341758728,-0.036969367414712906,0.10508512705564499,0.20370781421661377,0.03793445974588394,0.2075481116771698,0.0791783332824707,0.003644735086709261,-0.08221229910850525,0.19742125272750854,0.0061594159342348576,0.017248133197426796,0.1470758020877838,0.060688216239213943,-0.21821928024291992,0.12763150036334991,-0.03399204835295677,-0.19577884674072266,-0.017715884372591972,-0.12834297120571136,-0.26028478145599365,0.16015608608722687,0.05707203224301338,0.01623915694653988,-0.19181348383426666,0.08798347413539886,0.08314728736877441,0.024054815992712975,-0.05437422916293144,0.048035554587841034,-0.020701732486486435,-0.04897724464535713,0.22535979747772217,0.19539758563041687,-0.10446900874376297,0.16970013082027435,0.0034299904946237803,-0.07822201400995255,0.16884151101112366,0.05910332873463631,-0.15913249552249908,-0.14023540914058685,-0.13852079212665558,-0.006731407716870308,-0.03672371432185173,0.0837562158703804,-0.08744370192289352,-0.18467015027999878,-0.08108479529619217,0.12547850608825684,0.05126431956887245,-0.07310470938682556,0.08808362483978271,-0.12984125316143036,-0.1076498031616211,0.10046187788248062,-0.03540782257914543,0.12063506245613098,0.06241904944181442,0.0621429942548275,-0.03995059058070183,-0.1220228299498558,0.1189609095454216,-0.02762524224817753,0.01179847028106451,-0.04065646976232529,-0.051845453679561615,-0.19414323568344116,0.04745573550462723,0.17207175493240356,-0.19047877192497253,0.1304408758878708,-0.07380276173353195,0.03137616440653801,-0.053674206137657166,-0.061361778527498245,0.20542730391025543,0.1210436075925827,0.056926414370536804,0.05543515086174011,-0.13803400099277496,0.20868879556655884,0.030833948403596878,0.028389353305101395,-0.027546528726816177,-0.021452317014336586,-0.19346334040164948,-0.00483524426817894,0.039679285138845444,-0.07229691743850708,-0.05600670352578163,0.03151416778564453,0.12566202878952026,0.04529222100973129,0.03885091096162796,-0.004403998143970966,-0.03128381073474884,0.12178120017051697,0.05026162788271904,0.032106876373291016,0.12858352065086365,-0.11166495829820633,-0.17358343303203583,0.059641651809215546,-0.12338884174823761,0.14927423000335693,-0.081867516040802,-0.10836123675107956,-0.045625798404216766,0.0885256826877594,-0.05752481147646904,0.19740350544452667,0.10662151873111725,0.040077224373817444,0.0935768261551857,-0.02415197528898716,-0.07708977162837982,0.09388373047113419,0.08508406579494476,-0.10051266103982925,0.0585642084479332,-0.07636824995279312,-0.11352213472127914,-0.10501641780138016,0.1348692774772644,0.24284498393535614,-0.03425046056509018,0.04358816519379616,-0.04639008268713951,-0.023905454203486443,0.16764716804027557,-0.19358551502227783,-0.058598656207323074,0.11139347404241562,-0.12671823799610138,-0.021099884063005447,0.019036361947655678,0.21241001784801483,0.08460415154695511,-0.07149344682693481,-0.024913329631090164,0.07514401525259018,0.019428687170147896,0.13191376626491547,0.192649245262146,-0.06665372103452682,0.03343058004975319,-0.06271641701459885,0.0034954396542161703,-0.028444824740290642,-0.03263776749372482,-0.128509059548378,0.0381317101418972,-0.12126855552196503,0.06354670971632004,-0.1499609798192978,0.07951461523771286,0.22070321440696716,-0.2243872582912445,-0.22080454230308533,-0.05467574670910835,-0.11833252012729645,-0.14189019799232483,-0.04277465492486954,-0.1511896550655365,-0.06197698041796684,-0.017115382477641106,0.13450124859809875,0.04639756679534912,-0.02263636328279972,0.05803481489419937,0.11918313801288605,-0.055161844938993454,0.08199551701545715,0.03882831335067749,0.061689961701631546,-0.2170155942440033,-0.23864047229290009,0.21119439601898193,-0.16973210871219635,-0.06887809187173843,0.0629604384303093,-0.06571537256240845,-0.09290774166584015,0.16943606734275818,0.09447197616100311,-0.023497305810451508,-0.12435055524110794,-0.04496247321367264,0.07315321266651154,-0.031210772693157196,0.2222750186920166,0.06965392082929611,-0.1016978994011879,0.14336253702640533,0.018828745931386948,0.03690183907747269,0.09155453741550446,-0.009054337628185749,-0.16883718967437744,-0.06795384734869003,0.04045828804373741,0.03221796825528145,-0.16823765635490417,0.004175846464931965,0.24240779876708984,-0.11954101920127869,-0.21551892161369324,-0.05353391915559769,-0.044253237545490265,-0.10933678597211838,0.00031055539147928357,-0.03459693863987923,-0.027210839092731476,0.1943570375442505,0.12259534746408463,0.0253126360476017,-0.0915752649307251,-0.20074671506881714,0.15653491020202637,0.0580875426530838,0.2157023400068283,-0.11917617917060852,0.031507305800914764,-0.017222002148628235,0.12090685963630676,-0.02812572754919529,-0.20799294114112854,-0.1079864650964737,0.234280526638031,-0.17746642231941223,-0.060473233461380005,0.14958515763282776,0.08262902498245239,-0.06359495967626572,-0.09108830988407135,-0.04615690931677818,-0.06913068890571594,0.13544420897960663,0.09723734855651855,0.06071978434920311,0.021373042836785316,0.027187000960111618,0.026658285409212112,0.06471240520477295,0.09640896320343018,-0.0900493860244751,0.06508953869342804,-0.10517533868551254,-0.1409996747970581,0.049648795276880264,-0.22067099809646606,0.13221998512744904,0.06973691284656525,-0.28734660148620605,-0.01933087594807148,0.1890551596879959,-0.11581581830978394,0.03816704452037811,0.11126570403575897,-0.08737286180257797,-0.038956839591264725,0.033684421330690384,-0.12562668323516846,-0.19593040645122528,-0.021409226581454277,-0.06899461150169373,-0.054565638303756714,-0.02363836020231247,0.04513094946742058,0.017618967220187187,0.14607752859592438,-0.11990470439195633,0.003633379004895687,-0.12893491983413696,-0.07375196367502213,-0.0373050831258297,-0.07114411145448685,0.11872830241918564,-0.17731109261512756,-0.12386065721511841,-0.025287147611379623,0.15236714482307434,0.17443262040615082,-0.012238693423569202,0.08386830985546112,0.011677916161715984,0.012705345638096333,0.22592024505138397,-0.09966319054365158,0.07439282536506653,0.08265959471464157,-0.12045051902532578,0.09256912767887115,0.015001008287072182,0.11054196953773499,-0.16568635404109955,-0.12404465675354004,-0.03675367310643196,0.03607156500220299,-0.029985636472702026,0.11335460096597672,-0.0592019148170948,-0.11827480047941208,0.0909414291381836,-0.07818266749382019,0.010958663187921047,-0.10863344371318817,-0.04380771145224571,-0.11119040101766586,0.053418174386024475,0.042184263467788696,-0.008066240698099136,-0.10096752643585205,0.025281710550189018,0.16754688322544098,0.05675125867128372,0.0021108125802129507,-0.060882993042469025,0.1424800455570221,-0.08077372610569,0.016415387392044067,0.09212271869182587,-0.19634179770946503,0.18651507794857025,0.015551657415926456,-0.15373359620571136,0.1726229041814804,-0.14079448580741882,0.11092682927846909,-0.26356449723243713,-0.019212709739804268,-0.03175131231546402,0.16748641431331635,-0.08058639615774155,0.18467122316360474,-0.1770341545343399,-0.06263262778520584,-0.12856218218803406,-0.0016196765936911106,0.167397141456604,0.02108384482562542,-0.1069398820400238,0.02247033454477787,0.01621023379266262,0.2739560604095459,0.11588934063911438,-0.1768348217010498,0.12601925432682037,-0.07322265207767487,-0.1762949824333191,0.18433797359466553,0.1257357895374298,-0.20387963950634003,0.24245859682559967,-0.07913105934858322,-0.11112480610609055,0.26222845911979675,-0.03473183140158653,0.01902672089636326,-0.2553233206272125,0.03414249047636986,-0.1440887302160263,-0.04901203513145447,0.04512984678149223,-0.028304684907197952,-0.20179763436317444,0.022724995389580727,0.041968170553445816,0.04948529601097107,0.05816369131207466,0.05334307625889778,0.18608219921588898,-0.08705263584852219,-0.11684108525514603,-0.0011457201326265931,-0.15128390491008759,0.060666508972644806,-0.00592391612008214,0.10299577564001083,0.050722118467092514,0.12888994812965393,-0.012236206792294979,0.17483817040920258,-0.15793107450008392,-0.09190013259649277,-0.07535386830568314,0.12566982209682465,-0.0991932824254036,0.21667857468128204,0.011269533075392246,-0.07330696284770966,-0.11429893970489502,0.20015451312065125,-0.1300841122865677,-0.1235605999827385,0.11721171438694,-0.14603359997272491,0.004244445823132992,0.16062302887439728,0.07322894036769867,-0.1621851921081543,0.23538744449615479,-0.09517437219619751,0.06881008297204971,-0.058576811105012894,-0.14351336658000946,0.1658976674079895,-0.026531292125582695,-0.02451225183904171,-0.0871184915304184,-0.10151241719722748,-0.05136481299996376,-0.09460052102804184,0.020155513659119606,0.06244631111621857,-0.04437172785401344,0.02264864556491375,0.019907789304852486,0.15364447236061096,0.010552995838224888,0.038808196783065796,-0.06312576681375504,0.028887955471873283,-0.035531897097826004,-0.012169795110821724,0.38527974486351013,-0.4698626399040222,0.7821938395500183,-0.6336792707443237,0.08276954293251038,0.8720547556877136,0.9462220072746277,-0.5273457169532776,0.23313583433628082,0.09615928679704666,-0.5147597789764404,-0.4171963036060333,0.16586123406887054,-0.6829649209976196,0.17563189566135406,0.44014206528663635,-0.16408301889896393,0.26511549949645996,-0.044299300760030746,0.07913797348737717,0.0659053698182106,-0.17908072471618652,0.011487208306789398,0.20577402412891388,-0.07211967557668686,-0.05460087209939957,0.16959215700626373,0.0012672286247834563,0.0026185018941760063,0.02673191763460636,0.2301577627658844,-0.1210443302989006,-0.10335561633110046,-0.20889343321323395,-0.204482302069664,0.08180221915245056,0.19157423079013824,-0.07195722311735153,-0.12718616425991058,-0.13037008047103882,0.049594517797231674,0.23615692555904388,-0.1633935123682022,-0.039135247468948364,0.03786249831318855,-0.06020435318350792,-0.004473185632377863,0.16563455760478973,0.1976410448551178,0.06572144478559494,0.1037963330745697,0.253482460975647,-0.2816629707813263,-0.10203039646148682,0.2928413152694702,-0.13733935356140137,-0.025645695626735687,-0.10709835588932037,0.3370063304901123,-0.15343926846981049,0.33565935492515564,0.23007306456565857,0.011446565389633179,0.10657358169555664,0.20436187088489532,-0.32714441418647766,0.030893247574567795,-0.2573588192462921,-0.005139202810823917,0.27824684977531433,0.04060519486665726,-0.19319474697113037,0.044948603957891464,0.10684210807085037,-0.14121906459331512,-0.1269451081752777,0.13139274716377258,0.026462676003575325,-0.2867719829082489,0.023639576509594917,-0.05861581489443779,-0.2866401672363281,-0.19518914818763733,0.06872256845235825,0.05507794767618179,0.1654699146747589,0.11959470063447952,-0.12398407608270645,0.025696026161313057,0.3323104977607727,-0.011509760282933712,0.2647957503795624,0.07396353036165237,0.15973128378391266,-0.2154088020324707,0.029493974521756172,-0.08693765103816986,-0.10787522047758102,0.13790880143642426,0.017929278314113617,0.3828790485858917,0.39441758394241333,0.17752958834171295,-0.07007306069135666,0.20914828777313232,-0.014406062662601471,-0.3953818678855896,-0.2465764880180359,-0.04210756719112396,-0.1637548953294754,0.08458040654659271,0.14057499170303345,0.05531146004796028,0.09631812572479248,0.21632061898708344,0.12390142679214478,-0.19279955327510834,-0.15409605205059052,0.031182896345853806,-0.009649761952459812,0.11430121958255768,-0.2491317242383957,-0.2858109176158905,0.08574158698320389,0.1484740525484085,-0.20550572872161865,0.1514207273721695,-0.16797956824302673,0.21128670871257782,0.12829019129276276,0.1330551654100418,-0.11336489021778107,-0.29676198959350586,0.02037745900452137,0.25251054763793945,0.19006212055683136,-0.02144780196249485,-0.21271662414073944,0.30288165807724,-0.04114210978150368,0.1448776125907898,0.029608940705657005,-0.020693352445960045,0.05958845093846321,-0.10191142559051514,-0.016730573028326035,-0.17585447430610657,-0.2558768093585968,0.06029096245765686,-0.12813188135623932,-0.15936067700386047,0.05300009623169899,-0.12096016108989716,-0.19098366796970367,0.17673051357269287,0.04738421365618706,-0.03587835282087326,-0.18793858587741852,0.055135730654001236,0.0054341694340109825,-0.3188176453113556,0.05197659507393837,0.040685031563043594,-0.3003142476081848,-0.25801268219947815,-0.14215002954006195,-0.011274334974586964,0.11936203390359879,-0.04957302659749985,0.19985798001289368,0.17104540765285492,0.10231216251850128,0.0986139103770256,0.22772099077701569,-0.11667652428150177,-0.1597016304731369,0.16089870035648346,0.15337173640727997,-0.20327576994895935,0.04435194283723831,-0.12181805819272995,-0.21301108598709106,0.05843014270067215,-0.066145159304142,0.12973928451538086,-0.17784082889556885,-0.1625126749277115,-0.1073419377207756,-0.13124921917915344,0.0011550347553566098,0.0005840571830049157,0.17615123093128204,-0.04678875952959061,-0.30799803137779236,0.27662473917007446,-0.13952624797821045,0.18800997734069824,0.052434250712394714,-0.06928849965333939,-0.3531300127506256,0.3071749806404114,-0.23146769404411316,-0.21000829339027405,-0.4864325225353241,-0.2290891706943512,-0.0866599828004837,-0.36599335074424744,-0.13142123818397522,0.17726381123065948,-0.028151191771030426,0.15213407576084137,0.09848629683256149,-0.15297554433345795,0.041058022528886795,0.25738441944122314,0.21305404603481293,0.018391042947769165,0.06485196948051453,0.15499673783779144,0.3548145890235901,0.39237675070762634,-0.13891127705574036,0.017159217968583107,0.26463785767555237,0.06762778013944626,-0.12276186794042587,-0.0685054212808609,0.16715171933174133,-0.26671209931373596,0.1911371499300003,0.2738228440284729,0.09707260131835938,-0.017773358151316643,-0.0865708589553833,0.143765389919281,0.163506418466568,-0.0283394455909729,-0.07421330362558365,-0.2260826826095581,0.1661987453699112,-0.08085624873638153,0.2271726131439209,0.05303868651390076,-0.1081356629729271,0.050270408391952515,0.11111611127853394,0.22368259727954865,0.06226617470383644,-0.13270024955272675,0.05372530594468117,-0.027376288548111916,-0.12488260865211487,0.18426646292209625,0.0543602891266346,-0.15629106760025024,0.04656123369932175,0.16769085824489594,0.019734608009457588,0.1816701740026474,-0.12352287024259567,-0.12158232927322388,0.40286460518836975,0.076325923204422,0.37974661588668823,-0.14256760478019714,-0.06964250653982162,0.005689926911145449,-0.1515994668006897,0.07626696676015854,0.1723235845565796,0.27834001183509827,-0.04417039826512337,0.10193118453025818,-0.10818200558423996,0.12159283459186554,-0.12133839726448059,-0.10698532313108444,-0.026468807831406593,0.10536930710077286,0.0032229097560048103,-0.010640385560691357,-0.08254446089267731,0.06732258945703506,-0.027406061068177223,0.03789026662707329,0.04364105686545372,0.0228713545948267,0.02480406127870083,0.014932644553482533,-0.053613100200891495,-0.054347213357686996,0.04449033737182617,-0.16208210587501526,0.06507287174463272,-0.03343615680932999,0.07501199841499329,-0.05366126820445061,-0.1429031640291214,0.03185267373919487,-0.08119560033082962,-0.016684764996170998,-0.02639293670654297,0.08430787920951843,0.0706721693277359,-0.14460085332393646,0.18948020040988922,-0.07052373141050339,-0.10028330981731415,0.0668502077460289,0.012369368225336075,-0.10665497928857803,-0.0889928936958313,0.03887207806110382,0.06434978544712067,-0.15189793705940247,-0.11420847475528717,0.020769977942109108,-0.059370752424001694,-0.08564107120037079,-0.0453682579100132,-0.028085583820939064,-0.2321678251028061,-0.24970896542072296,-0.11586398631334305,-0.11358609050512314,0.1715315878391266,-0.1137712150812149,-0.09090174734592438,0.09120715409517288,-0.16658934950828552,-0.15220396220684052,0.11343273520469666,-0.05742352828383446,0.012292103841900826,0.0998183935880661,-0.053822629153728485,0.05542544648051262,0.18369697034358978,0.21948842704296112,-0.14860939979553223,-0.1544521450996399,-0.016494296491146088,-0.08681907504796982,0.09856940060853958,0.1238347515463829,-0.19723251461982727,0.04898912087082863,-0.15918901562690735,0.017084473744034767,-0.11980537325143814,0.029743272811174393,-0.1752169281244278,-0.3820771276950836,0.033567674458026886,0.14723896980285645,-0.03461436554789543,-0.003716067411005497,0.14842118322849274,-0.20775701105594635,0.02493959479033947,-0.07307565957307816,0.08012574911117554,-0.08360771089792252,0.1901274472475052,0.08552384376525879,-0.1361267864704132,0.0695866197347641,0.12753885984420776,0.029452210292220116,-0.152019664645195,-0.03362268954515457,0.10681795328855515,-0.14524823427200317,0.029284629970788956,0.08031350374221802,0.03153163194656372,0.11444367468357086,0.038836780935525894,-0.12047255784273148,-0.03815974295139313,0.014645424671471119,-0.14236558973789215,-0.03863092139363289,0.09546761214733124,0.015375038608908653,-0.2062259316444397,0.03051951341331005,0.14537857472896576,0.2542768120765686,-0.1236448734998703,0.006663607433438301,-0.08125292509794235,0.121373750269413,0.11961731314659119,-0.044650714844465256,-0.0058462414890527725,0.06904285401105881,-0.029131678864359856,0.08483244478702545,-0.09585986286401749,0.31421035528182983,-0.021129271015524864,0.1134389117360115,-0.12704022228717804,-0.11255254596471786,-0.05817661061882973,0.019047949463129044,0.07903315871953964,-0.009165666997432709,-0.1585826724767685,0.005808516405522823,-0.03706912323832512,0.08052041381597519,-0.10937391966581345,-0.08307506889104843,-0.12711994349956512,0.14984041452407837,0.09264980256557465,0.02817521058022976,0.11719200760126114,0.12013757228851318,-0.1463376134634018,0.012080000713467598,-0.036962322890758514,-0.1200774684548378,0.08826707303524017,-0.07650154083967209,-0.03961055725812912,0.12363875657320023,-0.03763660788536072,-0.026548832654953003,0.007418938912451267,-0.07991081476211548,-0.11071363836526871,-0.07005127519369125,-0.031946733593940735,0.18364033102989197,0.13447384536266327,0.028856009244918823,-0.2922435402870178,-0.2045387178659439,0.046182867139577866,-0.05244234576821327,-0.0489656999707222,-0.03358720615506172,-0.12665416300296783,-0.01935652457177639,-0.014690745621919632,0.33547019958496094,0.06210795417428017,0.07331894338130951,-0.011469528079032898,0.0726250633597374,-0.0714745819568634,0.27105799317359924,0.08048317581415176,0.05216629058122635,-0.2289123386144638,0.04485449939966202,0.12524881958961487,-0.07098393887281418,0.02320793829858303,0.04246675595641136,-0.23985204100608826,-0.028246378526091576,0.04669089987874031,-0.06905679404735565,0.2158060520887375,0.0794309675693512,-0.024690063670277596,-0.12020544707775116,0.04563022032380104,-0.22433194518089294,-0.1258956789970398,-0.06377111375331879,-0.17978177964687347,0.08001116663217545,0.1401994824409485,0.17186500132083893,-0.05473979562520981,-0.11723516136407852,-0.1102716252207756,0.03404377028346062,0.08449355512857437,0.1940375566482544,-0.0510769821703434,-0.06434421241283417,-0.032902512699365616,0.012158825062215328,-0.08414194732904434,0.07591882348060608,0.16334792971611023,-0.02812863141298294,-0.01340429950505495,-0.08684894442558289,-0.09742539376020432,0.22431492805480957,-0.20003539323806763,0.11682507395744324,-0.08351203799247742,-0.03437486290931702,-0.014619473367929459,0.14303816854953766,0.07748015969991684,0.025474337860941887,0.021622946485877037,-0.02182355336844921,-0.12550568580627441,-0.14656218886375427,-0.00745010981336236,0.18175746500492096,-0.013399162329733372,0.0531533919274807,0.020350966602563858,0.2131059169769287,0.17791448533535004,-0.15990009903907776,-0.29065290093421936,0.12668435275554657,0.0005526402965188026,-0.07910924404859543,0.07334261387586594,0.032435011118650436,-0.15781691670417786,-0.059449050575494766,0.13840016722679138,-0.18605239689350128,-0.1574734002351761,-0.12507018446922302,-0.10460323840379715,-0.10760441422462463,-0.10174963623285294,0.083457812666893,0.10728329420089722,-0.1394498497247696,-0.025720110163092613,-0.09272948652505875,-0.06100580096244812,0.10679124295711517,-0.03215470910072327,-0.0779617503285408,0.051215287297964096,0.04924548417329788,0.41178029775619507,0.13099080324172974,0.13142411410808563,0.08342524617910385,-0.12441011518239975,-0.05828851833939552,0.2276967614889145,-0.02335892990231514,0.21655920147895813,0.05597110465168953,0.08705369383096695,-0.052418969571590424,0.21512065827846527,-0.023407133296132088,0.08639790117740631,-0.05211559310555458,-0.0394822359085083,-0.000633532356005162,-0.020438937470316887,-0.2760240435600281,-0.033781494945287704,0.06467779725790024,0.2296535223722458,-0.06573797017335892,-0.11711769551038742,-0.10849019140005112,0.00807647593319416,-0.13857261836528778,0.15543769299983978,-0.22355452179908752,0.12783312797546387,0.31209424138069153,-0.12144097685813904,-0.0383172333240509,0.039478082209825516,-0.046603329479694366,0.10072300583124161,0.21176712214946747,-0.06090770661830902,-0.049885500222444534,-0.11485231667757034,0.14017444849014282,0.09348564594984055,-0.08260882645845413,-0.03075096756219864,-0.07999007403850555,0.10321785509586334,-0.02642533741891384,-0.04500934109091759,-0.309995174407959,0.1163574829697609,0.1869351863861084,-0.02615363337099552,0.16074435412883759,-0.018744150176644325,0.09145719558000565,0.05066632851958275,-0.005867216736078262,-0.06750202178955078,-0.17155253887176514,0.07814142107963562,0.10149898380041122,-0.0003218954079784453,0.14493589103221893,0.011961370706558228,0.07466145604848862,0.029384570196270943,0.13598445057868958,0.007800730876624584,-0.008150996640324593,-0.1196909099817276,0.16512425243854523,-0.06475276499986649,-0.015535099431872368,-0.1785683035850525,-0.16036689281463623,-0.10962465405464172,-0.03859461098909378,-0.23855279386043549,-0.4471755623817444,0.11157120764255524,-0.22172538936138153,0.013374922797083855,0.03264262154698372,0.08315359801054001,-0.0842311680316925,-0.10842344909906387,-0.12316039204597473,0.02981014922261238,0.04750797897577286,-0.028634777292609215,-0.06515564769506454,-0.07775619626045227,0.04086391627788544,-0.0833025798201561,-0.1240229606628418,0.22474132478237152,-0.16891346871852875,0.08389865607023239,0.04203344136476517,-0.11104221642017365,0.06426660716533661,0.05437707155942917,-0.08322891592979431,0.04073697701096535,0.01257838774472475,-0.1367451548576355,0.11964084953069687,0.11125386506319046,0.12512587010860443,-0.009044874459505081,0.11941627413034439,-0.1283605694770813,-0.014846640639007092,-0.005342256277799606,-0.1406831592321396,-0.0018404581351205707,-0.0608552023768425,0.03697093948721886,-0.08007307350635529,-0.16114811599254608,-0.04544569179415703,-0.17012333869934082,0.03732462227344513,0.03204360604286194,0.0568157322704792,-0.12640047073364258,-0.032803576439619064,0.0265142060816288,0.17002427577972412,0.03568718954920769,0.015752721577882767,-0.16149161756038666,-0.09473329782485962,-0.1408151388168335,0.14418672025203705,-0.009647737257182598,0.2372569441795349,0.1143813282251358,0.003821302205324173,-0.019537825137376785,0.11131799221038818,0.05009496584534645,-0.007329551037400961,-0.17109976708889008,0.301423043012619,-0.25477951765060425,0.05312454700469971,0.03788857161998749,0.03747091442346573,-0.21297287940979004,-0.03151319548487663,-0.02179168350994587,-0.01887984573841095,-0.19561824202537537,0.25046831369400024,-0.07818891853094101,0.033637918531894684,-0.15325969457626343,0.056509800255298615,-0.10245689749717712,-0.033945661038160324,0.11936531215906143,0.036779701709747314,0.17885041236877441,-0.019762367010116577,0.11142291128635406,0.07152120023965836,-0.032105833292007446,-0.08936680108308792,-0.0728258490562439,0.013187294825911522,-0.0941028743982315,0.06525187194347382,-0.08236097544431686,0.16253598034381866,-0.2147180289030075,0.04218655452132225,0.16228367388248444,-0.017297260463237762,-0.03435840830206871,0.035157788544893265,0.1594647318124771,-0.18338042497634888,0.050482820719480515,-0.06634317338466644,-0.05400378257036209,0.12220783531665802,-0.14333948493003845,0.07617729157209396,-0.02369754947721958,-0.09040476381778717,0.08167023211717606,-0.2300959974527359,0.15232232213020325,0.08300720900297165,-0.04116665571928024,0.12231893837451935,0.011493719182908535,0.013860581442713737,0.23644885420799255,-0.06964579969644547,0.15168409049510956,-0.01343219168484211,-0.11947282403707504,-0.047001808881759644,0.11489035189151764,-0.16886426508426666,0.0021373266354203224,0.08029941469430923,-0.08416286110877991,-0.1303652971982956,-0.08683755248785019,-0.08500362187623978,-0.04497058317065239,-0.1352185755968094,-0.08845140784978867,0.06810783594846725,-0.022440072149038315,-0.09570783376693726,-0.10798478871583939,-0.003062237985432148,0.10897242277860641,0.06217168644070625,0.057131100445985794,-0.16197870671749115,0.0998576432466507,-0.2510773837566376,-0.07746204733848572,0.033829398453235626,-0.05679582431912422,-0.04725941643118858,0.09500351548194885,0.049792591482400894,-0.1508491188287735,-0.003141829278320074,-0.011508437804877758,-0.03252880647778511,-0.00011216819257242605,-0.11189594119787216,0.19944435358047485,0.028872475028038025,0.1416938751935959,-0.043179892003536224,0.10392707586288452,0.21196146309375763,0.08718136698007584,0.11060776561498642,0.09355609863996506,-0.05571993067860603,-0.03710000589489937,0.1269187480211258,-0.04286812245845795,-0.19832362234592438,-0.11731515824794769,-0.005352601874619722,-0.10179786384105682,-0.07903025299310684,-0.06411834806203842,-0.17181485891342163,-0.06960947066545486,0.015662824735045433,0.20864085853099823,0.03389152139425278,0.0568036250770092,0.011769848875701427,0.041969239711761475,-0.009439087472856045,0.12173011898994446,-0.014997913502156734,0.01623304933309555,0.135128453373909,-0.017215382307767868,0.08329697698354721,-0.06826122850179672,-0.1979130506515503,0.024597138166427612,0.02676747553050518,-0.05310014635324478,-0.1500803828239441,0.07105976343154907,-0.01188681647181511,-0.012070273980498314,0.03765114024281502,-0.009651876986026764,-0.022943321615457535,0.017514953389763832,-0.1285254806280136,0.17416135966777802,0.3761860132217407,0.18253517150878906,-0.07072467356920242,-0.07181766629219055,0.1307980716228485,0.246316060423851,0.2398405373096466,0.08917175978422165,0.09159845858812332,-0.1621243953704834,-0.09595045447349548,-0.1661662757396698,0.047918807715177536,-0.059774793684482574,-0.1602528691291809,-0.04366792365908623,-0.1038331463932991,-0.2612079381942749,-0.05085306242108345,0.03865016996860504,-0.10730935633182526,-0.04120037704706192,-0.03846406191587448,0.10612551867961884,0.025939634069800377,-0.1002255454659462,0.021600015461444855,0.019116433337330818,-0.17958322167396545,-0.01833501085639,0.2022615224123001,-0.04111373424530029,-0.022220872342586517,0.07088211923837662,-0.002985347993671894,0.1047942265868187,0.0876288190484047,-0.021315472200512886,0.0907757356762886,0.07007557898759842,0.02013506554067135,0.041148941963911057,0.028687797486782074,-0.03896818682551384,0.0945897176861763,-0.025292696431279182,-0.20336057245731354,-0.17990657687187195,-0.3337665796279907,0.08838262408971786,-0.02848045900464058,-0.0993749275803566,0.004419010132551193,-0.12051434069871902,-0.19316501915454865,0.05239717289805412,-0.012396675534546375,0.1057644784450531,0.12742255628108978,0.0038123116828501225,0.10484570264816284,-0.06694366782903671,0.14032404124736786,0.18070299923419952,0.06674908101558685,0.10768333822488785,-0.11345695704221725,-0.10868542641401291,0.0436808280646801,-0.17909325659275055,0.2270805984735489,-0.008711738511919975,-0.08506032079458237,-0.08354655653238297,0.014441946521401405,-0.2275443971157074,-0.004676150158047676,-0.06644125282764435,-0.2581948935985565,0.3214290738105774,-0.11229480057954788,-0.16772715747356415,-0.030806303024291992,0.08430644869804382,0.2173079550266266,0.11474984884262085,0.0014709853567183018,-0.2567578852176666,0.03257036581635475,-0.09638441354036331,-0.06853602826595306,0.016495194286108017,-0.020035283640027046,0.022719329223036766,0.1598401665687561,0.2012564241886139,0.27853280305862427,0.02617412433028221,0.009481869637966156,0.1689479500055313,0.09718677401542664,0.20584525167942047,0.1837863326072693,0.008748901076614857,-0.09808015823364258,-0.10522560775279999,0.01780121587216854,0.061549462378025055,-0.13672186434268951,0.08809995651245117,-0.09652586281299591,-0.05176427587866783,-0.09616660326719284,-0.01883053593337536,0.11023077368736267,0.01451251469552517,-0.20158760249614716,-0.21275559067726135,-0.06788060069084167,0.053584109991788864,0.04902065545320511,-0.10696161538362503,-0.058010250329971313,-0.09224934130907059,-0.09453845024108887,0.029528668150305748,-0.17448876798152924,0.004934790078550577,-0.11400027573108673,0.006540536880493164,-0.11008735001087189,-0.023762546479701996,0.10187777131795883,-0.08795129507780075,-0.016294047236442566,0.17331591248512268,0.05638958513736725,-0.0026820788625627756,-0.0016175929922610521,0.01520916074514389,0.028800778090953827,0.15126368403434753,0.045678991824388504,-0.015828793868422508,-0.29436439275741577,-0.02109229750931263,0.025230934843420982,0.08219583332538605,0.0982123613357544,0.01341695711016655,-0.10853974521160126,-0.08692146837711334,0.08385041356086731,-0.06528396159410477,-0.1127622202038765,-0.03962161764502525,-0.06422758847475052,0.1525019109249115,0.04860924556851387,0.2027771919965744,0.14113222062587738,0.05861170217394829,0.09607578068971634,-0.06705719232559204,0.08884619176387787,0.0887860506772995,0.1416327953338623,-0.058790769428014755,-0.03285487741231918,-0.0490853376686573,-0.17364045977592468,-0.018312599509954453,-0.16691528260707855,0.0789903774857521,-0.2046632617712021,0.15395091474056244,-0.17040784657001495,0.13252706825733185,-0.16409876942634583,0.09285685420036316,0.03891598805785179,0.15161463618278503,-0.029384177178144455,0.11830203980207443,0.02891460806131363,0.04918079450726509,0.08259250223636627,-0.22211125493049622,0.019946977496147156,0.06859865039587021,0.06378063559532166,0.14597861468791962,-0.25757724046707153,0.06766626983880997,0.044694848358631134,0.10773685574531555,-0.19363367557525635,0.16397568583488464,-0.14866289496421814,-0.016425319015979767,-0.20423834025859833,-0.0501619391143322,-0.09869730472564697,-0.07755938917398453,0.16715554893016815,0.21795769035816193,-0.09006650000810623,0.07241202890872955,-0.1601603627204895,-0.13470707833766937,-0.09624608606100082,-0.09804785996675491,-0.12013178318738937,-0.09858722239732742,-0.002882907399907708,0.03144511207938194,0.14993751049041748,-0.13240985572338104,0.0021050632931292057,-0.05034991353750229,-0.01831883378326893,0.17576149106025696,0.16624701023101807,0.2603246867656708,0.09389671683311462,0.12855428457260132,-0.03337721526622772,0.09541406482458115,-0.0782879889011383,0.08660236746072769,0.09090708196163177,0.08951589465141296,-0.051784414798021317,-0.04015899449586868,0.061834145337343216,0.09561697393655777,0.03469252586364746,0.0772901251912117,0.01587904430925846,-0.055232934653759,-0.32900360226631165,0.24961508810520172,0.29636165499687195,-0.47435393929481506,0.12416571378707886,-0.6710508465766907,-0.25151070952415466,-0.36955538392066956,0.778740406036377,-0.8431456685066223,-0.5674583911895752,-0.8336670398712158,0.12499787658452988,-0.6849018931388855,0.2198283076286316,-0.6334595084190369,-0.009784205816686153,-0.0660281628370285,-0.027270400896668434,0.17602410912513733,0.14070403575897217,0.04355235397815704,-0.22115734219551086,-0.10381289571523666,-0.2757415771484375,-0.004255680367350578,0.21165598928928375,0.2515302002429962,0.04134410247206688,0.18136148154735565,-0.040707919746637344,0.007012317888438702,0.11402997374534607,-0.09819304943084717,0.001395243569277227,0.03545982763171196,-0.27893775701522827,0.26855170726776123,-0.060111239552497864,-0.173201322555542,-0.056250039488077164,-0.1290551722049713,0.09628714621067047,0.2709934711456299,0.048570211976766586,0.21742679178714752,0.05809497460722923,0.17918682098388672,0.03776438161730766,-0.17170481383800507,0.037217848002910614,0.12356849014759064,0.028324559330940247,0.2884421646595001,0.0006256141350604594,0.14423944056034088,-0.04448089376091957,-0.007401909213513136,-0.22042995691299438,-0.26923975348472595,-0.1315162181854248,0.02401581034064293,0.2735745906829834,-0.011481068097054958,0.1746314913034439,0.16914457082748413,-0.1729620397090912,-0.21612003445625305,-0.2113814502954483,0.06651222705841064,-0.10963097214698792,-0.048411775380373,-0.04635055735707283,0.0365133173763752,-0.03567206487059593,0.22596648335456848,0.11951602250337601,-0.16652442514896393,-0.002578928368166089,0.05934832617640495,0.2598269581794739,0.05951441824436188,-0.1920650601387024,-0.16669251024723053,0.14809846878051758,-0.10075517743825912,0.07048346847295761,0.2761349678039551,0.2522313594818115,-0.2054385095834732,-0.07329457253217697,0.06616981327533722,0.0371490903198719,-0.1992294192314148,0.00414682924747467,-0.24055932462215424,-0.19857491552829742,-0.175685316324234,-0.1735636442899704,0.13243070244789124,0.07618266344070435,-0.06279201060533524,-0.07749399542808533,-0.07725541293621063,0.10804253816604614,0.21093125641345978,-0.022192923352122307,0.06981116533279419,-0.2667442858219147,-0.04846268519759178,-0.01200080569833517,0.11121034622192383,0.1912667155265808,-0.11691395938396454,0.1368711143732071,-0.21582140028476715,0.056700918823480606,0.14040015637874603,-0.2472546100616455,-0.22239947319030762,0.12609834969043732,-0.02683858387172222,-0.2797585725784302,0.08685608953237534,0.023040972650051117,-0.07565751671791077,0.02660854160785675,0.2630978226661682,0.06239071115851402,0.010654418729245663,0.010636281222105026,0.08757803589105606,0.15741261839866638,-0.07205083221197128,-0.044837091118097305,0.0972515270113945,-0.04351850226521492,0.24433927237987518,-0.08690810948610306,0.06950213015079498,-0.1882518082857132,0.08505832403898239,0.09695477038621902,-0.002953784540295601,-0.14091083407402039,0.10703111439943314,-0.18730175495147705,-0.1877618134021759,-0.11876831948757172,-0.3268757164478302,-0.010611609555780888,-0.17822612822055817,0.12358242273330688,-0.008456294424831867,0.13427452743053436,-0.0929207131266594,-0.037221312522888184,0.1749342381954193,-0.09205058962106705,0.18139421939849854,-0.10508935898542404,-0.11124702543020248,-0.011421830393373966,0.17100639641284943,0.17772412300109863,-0.2596670687198639,0.22994980216026306,-0.03229585289955139,-0.020176414400339127,0.020337142050266266,0.245821014046669,0.2631974220275879,0.0006211476866155863,0.04690968990325928,0.11229618638753891,-0.19995097815990448,-0.06499741226434708,-0.16338126361370087,-0.037133075296878815,0.21597222983837128,0.07464201003313065,-0.19002246856689453,0.017860006541013718,-0.04974473640322685,0.2243107259273529,0.17101627588272095,-0.3000333607196808,-0.007572200149297714,-0.024696948006749153,0.05919491872191429,0.22323763370513916,0.07820875942707062,0.2367876172065735,0.28943711519241333,-0.3062768578529358,-0.14965873956680298,-0.2777502238750458,-0.010679861530661583,0.05598881095647812,0.18322822451591492,-0.3124171495437622,0.18658971786499023,0.15237407386302948,-0.06302915513515472,0.03474379703402519,-0.150870680809021,0.11549144238233566,0.014768990688025951,-0.06656317412853241,-0.16780458390712738,-0.08122153580188751,0.13538408279418945,0.08679484575986862,-0.12342879176139832,-0.14871951937675476,0.04811316356062889,0.020029686391353607,-0.1712268441915512,-0.3429221212863922,-0.2831134498119354,0.04063083603978157,-0.2145150601863861,0.002529627177864313,-0.11276104301214218,0.22353670001029968,0.20363163948059082,-0.10185017436742783,0.35742950439453125,-0.16272544860839844,-0.023116884753108025,-0.015508631244301796,-0.02932082861661911,0.14592796564102173,0.07831471413373947,-0.00912073440849781,-0.050412118434906006,-0.026419131085276604,0.24352186918258667,-0.026172341778874397,-0.23100192844867706,0.0605994313955307,0.31068217754364014,0.015364300459623337,-0.10726723819971085,-0.111949123442173,-0.1543852984905243,0.10084033012390137,-0.07469454407691956,0.10130467265844345,0.019518274813890457,-0.2014160454273224,-0.07707243412733078,-0.13758070766925812,0.04858968034386635,0.12482918053865433,0.0665953978896141,0.1554456502199173,-0.2600802779197693,0.07375942170619965,0.190897136926651,-0.12054605782032013,-0.0707264244556427,-0.08015692234039307,0.06766001135110855,0.2755255401134491,-0.2842777669429779,0.1664615124464035,-0.011506238020956516,-0.2641196548938751,0.2224501520395279,-0.1323002725839615,-0.3069242238998413,-0.04647044092416763,0.004763895645737648,0.020834926515817642,-0.0680837333202362,-0.0870743840932846,-0.008842293173074722,0.0739697813987732,0.14314323663711548,0.10140156745910645,0.052911657840013504,0.05229154974222183,-0.19057835638523102,0.05641774833202362,-0.145920068025589,-0.0751379132270813,-0.022177185863256454,0.20713523030281067,0.0013664104044437408,-0.1300952434539795,0.07202872633934021,-0.1957765817642212,-0.15254716575145721,-0.016260383650660515,-0.07427255809307098,-0.08112587034702301,0.12688404321670532,-0.16284656524658203,-0.11832337081432343,0.18352992832660675,0.04637351632118225,0.00180105771869421,0.1358780860900879,0.15535074472427368,0.11408224701881409,-0.12565481662750244,-0.01807345077395439,-0.021115122362971306,0.11256276071071625,0.11184915155172348,-0.14326666295528412,-0.14852605760097504,0.05810488760471344,-0.06460094451904297,-0.057938676327466965,0.0008481187978759408,-0.07041926681995392,-0.21336598694324493,0.1066482812166214,-0.02300765924155712,-0.09100224822759628,-0.08422813564538956,-0.013571077957749367,0.009473702870309353,-0.032010290771722794,0.08600658178329468,0.028707196936011314,-0.07996844500303268,-0.17163148522377014,0.2027858942747116,0.010056954808533192,-0.20320434868335724,0.2496812343597412,-0.14187315106391907,0.05409892648458481,0.08021946251392365,-0.22234240174293518,-0.1408708095550537,0.13547545671463013,0.005079794209450483,-0.08176345378160477,0.07113059610128403,-0.11590441316366196,-0.09859976172447205,-0.018770162016153336,-0.14021974802017212,-0.11687053740024567,0.07080444693565369,-0.03705841302871704,0.05508960038423538,-0.0678454115986824,0.0946953296661377,0.05841599032282829,0.05651994049549103,-0.15251320600509644,0.13384263217449188,0.01402272004634142,-0.010852087289094925,0.0020380245987325907,0.03973234072327614,-0.01658097840845585,-0.21668891608715057,0.09004491567611694,0.21018798649311066,-0.007663221564143896,-0.04364592954516411,0.09456350654363632,-0.007029179949313402,-0.013543528504669666,-0.16169501841068268,-0.047926872968673706,-0.25034618377685547,0.14918722212314606,-0.03230438753962517,-0.24120548367500305,-0.22133155167102814,-0.3289385735988617,-0.13925932347774506,0.1353992372751236,0.014916084706783295,0.052605241537094116,-0.10120079666376114,-0.012030101381242275,0.09485208988189697,-0.009151391685009003,0.054424893110990524,0.2395595759153366,0.037126436829566956,-0.3047108054161072,0.05769319087266922,0.03325149416923523,0.2405659556388855,-0.08931243419647217,0.05676208436489105,0.17403806746006012,-0.10729435831308365,-0.15394127368927002,0.013590595684945583,0.09357555210590363,0.04201847314834595,0.04789120703935623,0.09956680238246918,0.12857691943645477,-0.11683031916618347,-0.03853354603052139,-0.03175295889377594,-0.14852754771709442,0.10329913347959518,0.05457230284810066,0.10324111580848694,0.018577756360173225,0.1032756119966507,-0.019888587296009064,-0.20335398614406586,0.11980020254850388,0.08084938675165176,0.012498334981501102,0.08916842192411423,0.12200325727462769,0.07800227403640747,0.03705691173672676,0.22564473748207092,0.060705844312906265,0.14308804273605347,0.35890546441078186,0.1754768043756485,-0.1040719747543335,0.08003853261470795,0.04667893052101135,0.1185465008020401,0.1188768669962883,-0.11506418883800507,-0.18413516879081726,0.16236792504787445,-0.17179036140441895,0.019199544563889503,0.05510871857404709,0.11206454038619995,0.1020834818482399,0.01246842835098505,0.04130931198596954,0.02602110430598259,-0.004664108157157898,0.02910074032843113,-0.054008230566978455,-0.09013962745666504,-0.17263729870319366,-0.1866813451051712,0.061125174164772034,0.08865832537412643,0.041945718228816986,-0.03922820836305618,-0.0050955358892679214,-0.011716708540916443,0.03694497048854828,0.09002561867237091,0.17447687685489655,0.15192502737045288,0.038071222603321075,-0.03514249995350838,-0.2156330645084381,-0.025219444185495377,0.11978236585855484,0.04759712144732475,0.06790415942668915,0.04672613367438316,0.018743282184004784,-0.0006028229254297912,-0.06381493806838989,-0.01664912700653076,0.22543685138225555,-0.06343304365873337,0.21672503650188446,0.027964957058429718,0.010484417900443077,0.1390017569065094,-0.022246431559324265,-0.14897334575653076,0.06328724324703217,0.04414337873458862,0.04595392569899559,-0.09167575091123581,-0.10457964241504669,0.11769639700651169,0.10629670321941376,0.042922113090753555,0.11742725223302841,-0.26082417368888855,-0.021771099418401718,0.15367883443832397,-0.11874520033597946,-0.0669080838561058,0.06224336847662926,0.02712881937623024,-0.0010723733576014638,0.0859655812382698,-0.032777197659015656,-0.07372288405895233,-0.14975190162658691,0.018573539331555367,-0.09024205803871155,-0.0296627264469862,0.16392293572425842,-0.031696613878011703,-0.2589999735355377,-0.021993620321154594,0.04362308979034424,0.062112852931022644,-0.0077139209024608135,-0.026579316705465317,-0.23982904851436615,-0.153224915266037,-0.0069202459417283535,-0.01677747070789337,-0.1416425257921219,-0.09330899268388748,-0.044611431658267975,-0.09826605767011642,-0.19526967406272888,0.004427421372383833,0.04498249664902687,-0.09913810342550278,-0.14688490331172943,0.3802001178264618,0.007713583298027515,0.09010867774486542,-0.09546281397342682,-0.007572441827505827,-0.08982643485069275,-0.08411326259374619,0.0860222578048706,-0.08533398807048798,0.0036548851057887077,-0.06356476992368698,-0.07526713609695435,0.08355554938316345,-0.0875563845038414,-0.17779850959777832,0.13948725163936615,0.04677467793226242,-0.03681528568267822,0.08651743829250336,-0.1515813022851944,-0.15220902860164642,0.05485064163804054,-0.15328291058540344,0.08428381383419037,0.08502519875764847,-0.025881819427013397,-0.06680991500616074,0.03501458093523979,0.036489009857177734,0.010844346135854721,-0.09176246076822281,-0.11200062185525894,0.08404909819364548,-0.031896911561489105,0.02572355605661869,0.13500985503196716,0.1834915727376938,0.015744848176836967,0.023972144350409508,0.010493962094187737,0.09788310527801514,0.02839352749288082,0.04386257752776146,-0.08428385853767395,-0.01997372694313526,0.20378568768501282,-0.016680920496582985,0.001984135713428259,-0.05927668884396553,0.01686950773000717,-0.14649564027786255,0.10261088609695435,-0.16648675501346588,-0.07542958110570908,-0.08979879319667816,0.16665922105312347,0.04299110546708107,-0.2037578672170639,-0.05103546008467674,-0.1403394192457199,-0.04113633558154106,-0.0651169866323471,0.13659325242042542,0.0564052015542984,0.06389275938272476,-0.038374416530132294,0.045716751366853714,-0.1171826496720314,0.14601360261440277,0.10680361837148666,0.028340447694063187,0.0771220400929451,-0.05060447379946709,0.32235902547836304,0.1356361359357834,-0.2271200567483902,-0.1317921131849289,-0.05546550452709198,0.13754063844680786,-0.0665106475353241,0.13879884779453278,-0.05860427767038345,-0.2702297866344452,0.08759509772062302,0.16208335757255554,-0.05381036922335625,-0.11523152142763138,0.015771983191370964,-0.20266403257846832,-0.07662077993154526,0.2689105272293091,-0.08168528228998184,-0.03972107544541359,0.007577045820653439,-0.06637128442525864,-0.04637521877884865,0.03438858687877655,0.15605275332927704,0.1451968550682068,0.06938963383436203,0.13612282276153564,0.029477059841156006,-0.10980520397424698,0.2546578347682953,0.049769677221775055,0.10309596359729767,-0.040590476244688034,0.06577252596616745,-0.009537340141832829,-0.13471129536628723,-0.06337154656648636,0.09103266149759293,-0.13688026368618011,0.0875706672668457,-0.03655552864074707,-0.09161468595266342,-0.0326666384935379,0.021293696016073227,-0.0003347524325363338,0.04046887904405594,0.08735349774360657,-0.02817569486796856,0.11226257681846619,-0.06291276961565018,-0.005844021216034889,0.148729145526886,-0.06345074623823166,-0.05755181238055229,0.16265586018562317,-0.11997517943382263,0.06485891342163086,0.007686716038733721,0.09499253332614899,0.002919611521065235,0.007680185604840517,-0.08409175276756287,-0.1768345832824707,0.017562147229909897,0.16285355389118195,-0.10349535197019577,-0.09575165808200836,0.08537305146455765,-0.18881423771381378,-0.005861533805727959,-0.11791285127401352,-0.058507006615400314,-0.22704283893108368,-0.009183683432638645,0.013826296664774418,-0.12473399192094803,0.23725490272045135,0.08071758598089218,-0.18788915872573853,0.14732128381729126,0.07703828811645508,0.19919225573539734,0.023227671161293983,0.10215617716312408,0.10589264333248138,0.1253122091293335,-0.10579206049442291,-0.027471622452139854,-0.07913469523191452,0.060918740928173065,-0.21260622143745422,-0.12470252066850662,0.14922159910202026,-0.047657549381256104,0.0893578976392746,-0.05780951678752899,-0.14606556296348572,0.012888630852103233,-0.02230982296168804,-0.06860391795635223,-0.006811157334595919,-0.09714417159557343,0.09608417004346848,0.06666851043701172,0.14819243550300598,0.0825318843126297,-0.21526208519935608,0.06924641877412796,0.15406174957752228,-0.008893449790775776,-0.04763743653893471,0.11993120610713959,-0.22399209439754486,0.2630816102027893,-0.1678595393896103,0.026665667071938515,0.16069811582565308,0.18972015380859375,-0.21423640847206116,0.14185106754302979,-0.38937702775001526,-0.02469616010785103,-0.18721745908260345,-0.015444603748619556,-0.4402027130126953,0.10632582753896713,0.18596255779266357,0.20323902368545532,0.019983280450105667,0.12613937258720398,-0.09026158601045609,-0.036458294838666916,-0.03038804419338703,-0.22552162408828735,0.02026524767279625,-0.005864685866981745,0.07113754004240036,-0.011664183810353279,-0.010458354838192463,-0.037828899919986725,-0.10661960393190384,-0.0006949122180230916,-0.12480642646551132,0.0025647336151450872,-0.11607208847999573,0.05851352959871292,-0.0959566980600357,-0.20425182580947876,-0.0036840327084064484,0.0030713954474776983,-0.15605181455612183,-0.08990391343832016,-0.02676023542881012,-0.19184859097003937,-0.30168625712394714,-0.11431829631328583,0.11837255209684372,-0.18680554628372192,-0.001655259053222835,-0.04992011561989784,-0.05717958137392998,-0.06784776598215103,-0.1766359806060791,-0.30673620104789734,-0.09045445173978806,-0.01882115937769413,-0.11098957061767578,0.11243128776550293,-0.08899634331464767,-0.05369963496923447,-0.1208292618393898,0.013212306424975395,0.06270073354244232,-0.12949275970458984,0.004513940773904324,0.09025860577821732,0.05002576857805252,0.0509742833673954,0.17116299271583557,0.014044955372810364,0.19234643876552582,0.16237011551856995,0.18413428962230682,-0.09929193556308746,0.03593076393008232,0.020670847967267036,-0.01950995624065399,-0.03807130828499794,0.02649029903113842,0.04954284802079201,-0.16398902237415314,-0.02061440423130989,-0.04766352102160454,-0.06673013418912888,0.02177208475768566,0.16164475679397583,0.022937381640076637,-0.023119976744055748,-0.07052857428789139,0.007113181985914707,0.1165701150894165,-0.011492752470076084,0.10011830925941467,0.10491228848695755,0.15990634262561798,0.11531362682580948,0.18206891417503357,-0.012961325235664845,0.059060461819171906,0.07087302207946777,-0.021131236106157303,0.0664447546005249,0.01886780560016632,0.22841575741767883,-0.03341196849942207,-0.11288418620824814,-0.2972677946090698,-0.08437611162662506,0.10531628131866455,-0.14836059510707855,0.17497164011001587,0.0752914696931839,-0.18140682578086853,0.06435377895832062,0.08670157939195633,0.019051378592848778,0.20077720284461975,-0.05159936845302582,0.06992080807685852,0.09163253754377365,0.01722017675638199,-0.01226486824452877,0.0008472839836031199,-0.09578432142734528,-0.10342293977737427,0.02829005941748619,0.05487890914082527,0.045627158135175705,0.1338442862033844,-0.025646017864346504,-0.1326737105846405,-0.21387159824371338,-0.09938601404428482,0.10773435980081558,-0.135929137468338,-0.1171790286898613,-0.014664540067315102,-0.07604672759771347,0.05597356706857681,0.00264785741455853,-0.03639063984155655,0.10512533783912659,-0.03208025544881821,0.03845144063234329,0.06211907044053078,0.11926794052124023,0.02124202996492386,0.01516279112547636,-0.12332179397344589,0.263680636882782,-0.10612765699625015,-0.08035555481910706,0.016853440552949905,0.018072672188282013,-0.22153353691101074,-0.004057900048792362,-0.07292942702770233,-0.17680302262306213,0.16494986414909363,0.13418857753276825,0.12510140240192413,-0.23178347945213318,-0.15967777371406555,-0.31818410754203796,0.03828275203704834,-0.01115924771875143,-0.10705477744340897,-0.04738549143075943,0.016734853386878967,0.06476613879203796,0.03812165930867195,-0.018655331805348396,0.11849988251924515,-0.004797924775630236,-0.14355957508087158,0.2526691257953644,-0.14774249494075775,0.174717977643013,-0.07665318995714188,-0.07138268649578094,0.11085924506187439,-0.13203361630439758,0.12501682341098785,-0.07944578677415848,0.016931433230638504,0.0649334043264389,-0.10968967527151108,0.15155000984668732,0.09426970034837723,0.04610781744122505,-0.14687961339950562,0.10895031690597534,-0.10695089399814606,0.04432530328631401,0.0031873632688075304,0.11243405193090439,0.03388022631406784,0.16870823502540588,0.20422853529453278,-0.07925393432378769,-0.050170160830020905,0.3022884428501129,0.3353235423564911,0.14122283458709717,-0.15066702663898468,-0.06999074667692184,-0.23055694997310638,0.16739915311336517,-0.009424962103366852,-0.0896916538476944,0.01364861149340868,-0.04582738131284714,-0.11968619376420975,-0.16455985605716705,-0.061914220452308655,0.08667438477277756,-0.017822634428739548,0.1772001087665558,0.23796367645263672,0.02502872794866562,0.10910134017467499,0.03582078218460083,-0.042592406272888184,-0.02992197312414646,-0.03649662062525749,0.1618259698152542,0.05814695730805397,-0.08036983758211136,-0.011820102110505104,-0.00162890471983701,-0.04042578116059303,0.007745387032628059,-0.03749331831932068,0.18892090022563934,-0.10804973542690277,0.047880660742521286,0.07005572319030762,-0.018705224618315697,0.028381874784827232,-0.06450974196195602,-0.12095274031162262,0.08935277163982391,0.10043522715568542,-0.16445888578891754,0.09691185504198074,-0.13911926746368408,0.03696509823203087,-0.06512576341629028,-0.015010261908173561,-0.10624340176582336,0.1841081827878952,0.07980958372354507,-0.023124422878026962,0.17682571709156036,0.17722134292125702,-0.10073986649513245,0.09535659849643707,-0.11931677162647247,-0.0847097858786583,-0.11583805829286575,0.1010618582367897,-0.11200618743896484,-0.047424424439668655,0.09173189103603363,-0.03308811038732529,-0.045049138367176056,-0.11600799858570099,0.04677136242389679,0.11916794627904892,-0.16948090493679047,-0.09801903367042542,-0.009791210293769836,-0.1782662570476532,-0.02307707816362381,-0.01384415477514267,-0.02629729174077511,0.11304217576980591,-0.1721227467060089,0.13309846818447113,0.1027388647198677,-0.06769776344299316,0.05440313369035721,0.03913429006934166,0.019471509382128716,0.17439575493335724,0.029049132019281387,0.10053851455450058,-0.06882079690694809,-0.02423243783414364,0.012535146437585354,-0.12124225497245789,-0.10211048275232315,0.21851307153701782,0.29547303915023804,0.22287578880786896,-0.07756150513887405,0.14710357785224915,-0.172630175948143,0.4282552897930145,-0.22196783125400543,-0.05209238454699516,0.021725833415985107,-0.1499076634645462,-0.03481968119740486,0.20919270813465118,0.0976058691740036,0.04248203709721565,0.023283498361706734,0.015490961261093616,-0.09389127045869827,0.07104013860225677,-0.02750500850379467,-0.03024524450302124,0.10262411087751389,0.065697580575943,0.12177641689777374,0.13464891910552979,-0.11374715715646744,0.12931859493255615,0.08607277274131775,0.0889049544930458,-0.016952600330114365,0.10797148942947388,0.19598132371902466,0.008927764371037483,-0.18142959475517273,-0.03007492423057556,-0.1365453451871872,-0.108456090092659,-0.014612133614718914,0.02748560532927513,-0.2598167955875397,0.023426208645105362,-0.10632868111133575,-0.037328172475099564,-0.02855304628610611,-0.08841574192047119,0.12427196651697159,-0.013558969832956791,-0.0318022146821022,0.23995159566402435,-0.19185349345207214,0.13069695234298706,-0.17439068853855133,0.16553467512130737,-0.15272921323776245,0.23678717017173767,0.11695310473442078,0.04423289746046066,0.0008820532239042222,0.03164069354534149,-0.05022575333714485,0.019850634038448334,-0.008682282641530037,-0.03281962126493454,-0.0278027206659317,0.03841555118560791,0.02139606885612011,0.04608577489852905,0.01745464652776718,-0.08167900890111923,0.007933489046990871,0.003983297850936651,0.044274598360061646,-0.2800865173339844,-0.3525032699108124,0.6798409223556519,0.22090235352516174,-0.35276177525520325,0.024162532761693,-0.2894611060619354,-0.10198408365249634,0.4699285924434662,-0.5945479869842529,0.8823323845863342,0.5776160955429077,0.04997240751981735,-0.2500187158584595,0.2106974720954895,-0.5847700834274292,0.003867135848850012,-0.18569576740264893,0.09305167943239212,-0.043430306017398834,0.03144413232803345,0.13160689175128937,0.4287022352218628,0.23630638420581818,-0.06457994878292084,0.12547169625759125,0.1276082694530487,0.1336136907339096,-0.29448068141937256,0.19562198221683502,-0.20982643961906433,-0.06476039439439774,-0.02444467321038246,0.043221261352300644,0.1890476942062378,0.2206278294324875,-0.035904411226511,0.10358016937971115,-0.01763281598687172,-0.2620985507965088,-0.26223626732826233,0.056067176163196564,0.01842549256980419,-0.08742348849773407,0.18222269415855408,0.21635006368160248,0.011137918569147587,-0.19437862932682037,0.16810812056064606,0.0207816194742918,0.1952625811100006,-0.3194924592971802,0.012987776659429073,0.03049457259476185,-0.12309238314628601,-0.1439177542924881,-0.16232506930828094,-0.21139539778232574,-0.193411722779274,0.19294892251491547,0.2266591340303421,-0.16530412435531616,-0.0768965408205986,-0.042867399752140045,0.2941862642765045,0.0750199481844902,0.11444861441850662,-0.06061522290110588,0.022326352074742317,-0.017724495381116867,-0.29939380288124084,0.06735983490943909,0.2240409553050995,0.03874991461634636,0.1312646120786667,0.10367722064256668,0.17617544531822205,0.10902566462755203,0.06537596136331558,-0.20723097026348114,0.03716658055782318,-0.15349940955638885,0.15193411707878113,-0.1181781217455864,0.02443109080195427,-0.01407584361732006,0.10549363493919373,-0.06269857287406921,0.22412878274917603,0.018662327900528908,-0.09458834677934647,-0.06817946583032608,-0.20879524946212769,-0.191387340426445,0.15039271116256714,-0.005259594414383173,-0.1945495903491974,-0.08911541104316711,-0.16639018058776855,-0.04072394594550133,0.0946132019162178,-0.1632833629846573,0.09373938292264938,-0.028033651411533356,-0.024460317566990852,0.018300281837582588,-0.004860506393015385,-0.14548197388648987,0.08037903159856796,0.10402967780828476,0.35492196679115295,0.19656740128993988,0.011783383786678314,0.014413468539714813,-0.053860291838645935,-0.003976913169026375,0.09128154069185257,-0.06518545001745224,0.050187189131975174,-0.038043953478336334,-0.29127010703086853,0.12880675494670868,0.17764805257320404,-0.16789454221725464,0.10138507187366486,0.16622784733772278,-0.006026523653417826,-0.1727776974439621,0.1775033324956894,0.030127139762043953,-0.13079284131526947,-0.12355808913707733,-0.029834823682904243,-0.07746370881795883,0.10996955633163452,0.029948946088552475,0.08837033808231354,-0.13646164536476135,0.026132086291909218,0.22212086617946625,0.015168514102697372,-0.04906168952584267,0.11515562981367111,-0.04705684632062912,-0.14847877621650696,0.23459672927856445,0.04731165990233421,0.003034519497305155,0.10770728439092636,-0.05498185753822327,-0.4350954294204712,-0.04107515141367912,-0.0648765116930008,0.18781761825084686,-0.04376755654811859,0.22069309651851654,-0.20660905539989471,0.12323486804962158,-0.12558190524578094,-0.09585314989089966,0.13767002522945404,-0.11277542263269424,-0.22394175827503204,0.29054102301597595,-0.005072766914963722,0.21686464548110962,-0.1242218092083931,-0.023307528346776962,-0.08649026602506638,0.022124676033854485,0.0909576490521431,-0.06420932710170746,-0.14125218987464905,-0.01739533431828022,0.20982174575328827,0.007971126586198807,0.3221460282802582,-0.25773775577545166,-0.13435710966587067,-0.09164155274629593,0.15974345803260803,-0.13988374173641205,-0.06910593062639236,-0.0878351703286171,0.19680699706077576,0.09944085776805878,-0.16755248606204987,0.0177109707146883,-0.04404756426811218,-0.24827101826667786,-0.06644875556230545,0.08136001974344254,0.06778263300657272,0.018168648704886436,-0.08687818795442581,-0.05419234558939934,-0.04722365736961365,0.09136471897363663,0.180099219083786,0.035878948867321014,-0.14265845715999603,-0.08116941899061203,-0.11820289492607117,0.15202806890010834,-0.1708003580570221,-0.09850459545850754,-0.09417980909347534,0.048341311514377594,-0.284044086933136,-0.054553329944610596,-0.05469365045428276,0.07479320466518402,-0.02063942886888981,0.04206559807062149,-0.2744361162185669,-0.08125022798776627,0.11746036261320114,-0.19569377601146698,-0.04230200871825218,0.09558038413524628,0.011424751952290535,0.08461837470531464,-0.02121608704328537,-0.19555062055587769,-0.17049254477024078,0.3090181350708008,-0.10804633051156998,0.10496746748685837,-0.12580397725105286,-0.12000986188650131,-0.014850929379463196,-0.2969141900539398,-0.08992042392492294,0.14634139835834503,0.22085066139698029,-0.004853352904319763,0.00015867546608205885,0.12072238326072693,-0.18684051930904388,-0.15575861930847168,0.01818140409886837,0.05236918479204178,-0.144147127866745,-0.02417045272886753,-0.09864656627178192,-0.10181601345539093,0.007572608534246683,-0.19985345005989075,0.15350425243377686,-0.010958237573504448,0.08261933922767639,0.10694509744644165,0.061364948749542236,-0.018038880079984665,0.0049553182907402515,-0.19245922565460205,-0.0794060081243515,0.21454168856143951,0.025555899366736412,-0.11478652060031891,-0.06861032545566559,0.03026287630200386,-0.2516012191772461,-0.1342957615852356,0.019238343462347984,-0.008538891561329365,0.20474930107593536,0.1882626861333847,-0.2542823851108551,-0.08517439663410187,0.02700137346982956,-0.050402432680130005,0.013874507509171963,0.02886435203254223,0.02818472497165203,0.09821893274784088,-0.0117721538990736,0.125131756067276,0.03842935338616371,-0.0000012254586181370541,-0.12557969987392426,-0.12183139473199844,0.007190023083239794,0.07554106414318085,0.02422129176557064,0.08010359853506088,0.01623617112636566,-0.019420435652136803,0.2551981210708618,-0.2935079336166382,0.2756003439426422,0.022051222622394562,-0.04136931151151657,0.013094945810735226,0.017580075189471245,0.0507243312895298,0.25941383838653564,-0.11253391951322556,0.14895734190940857,0.23499393463134766,0.07844702899456024,-0.12059308588504791,-0.1987570971250534,0.11110751330852509,-0.24202415347099304,0.23650647699832916,0.12407375127077103,-0.09084557741880417,-0.09367674589157104,-0.10897227376699448,0.0926373228430748,-0.13686075806617737,-0.003773611271753907,0.07383143156766891,0.12258181720972061,-0.005441123154014349,0.1343609243631363,-0.00034652341855689883,-0.09708341211080551,-0.029120532795786858,0.298382967710495,0.04943061247467995,-0.08112277835607529,-0.010620975866913795,-0.1799709051847458,0.017553435638546944,-0.09519235044717789,-0.039677731692790985,-0.014000620692968369,-0.0225201565772295,-0.10149714350700378,-0.06426380574703217,-0.25205010175704956,-0.030868060886859894,-0.07832884043455124,-0.1133548840880394,-0.030244728550314903,0.5568955540657043,0.1794288158416748,-0.019510962069034576,-0.2516408860683441,0.009317577816545963,0.05849293991923332,-0.33099284768104553,-0.055878471583127975,0.007793691009283066,0.07939741015434265,0.11155934631824493,-0.011304477229714394,0.009120466187596321,0.11113908886909485,0.04058324918150902,-0.187707781791687,-0.140859916806221,-0.1492844820022583,0.10327473282814026,0.0031884917989373207,-0.16757871210575104,-0.2121717631816864,-0.0529080331325531,0.12542200088500977,0.17828130722045898,-0.1508694589138031,0.07565136253833771,0.15773971378803253,0.08352099359035492,0.0020438702777028084,0.13492904603481293,-0.06291718780994415,0.06479567289352417,0.011002262122929096,-0.13964030146598816,0.09041600674390793,0.009477067738771439,-0.12347433716058731,-0.12564760446548462,0.12235957384109497,-0.11981477588415146,-0.008788539096713066,0.15774808824062347,0.010585893876850605,-0.06035443767905235,-0.06671838462352753,-0.14166606962680817,0.042092666029930115,-0.35062548518180847,0.1786261349916458,0.1517925262451172,-0.12127421051263809,-0.3226298689842224,-0.3640478253364563,-0.057192154228687286,0.28573524951934814,-0.177446648478508,0.09342476725578308,0.11270377039909363,0.14234453439712524,0.029088327661156654,-0.019539250060915947,-0.24904397130012512,-0.24719806015491486,0.09910143911838531,0.0027106378693133593,-0.0008888693409971893,-0.13847213983535767,0.16904324293136597,0.027136333286762238,-0.10856986790895462,-0.03007734753191471,0.20016391575336456,0.2664128541946411,0.10648858547210693,-0.00775628536939621,0.04613585025072098,-0.12177981436252594,0.08554348349571228,0.2659953534603119,-0.019019437953829765,-0.0192217119038105,0.11222998797893524,-0.12956103682518005,0.07457567751407623,-0.06219418719410896,-0.1274227648973465,-0.05081675946712494,0.09430492669343948,0.14874811470508575,-0.028923561796545982,-0.09574870020151138,-0.16024373471736908,0.05594134330749512,-0.056584347039461136,0.12278052419424057,0.28284427523612976,-0.12481654435396194,0.11853497475385666,0.21785421669483185,0.20148034393787384,0.007080005947500467,0.07286428660154343,-0.13219432532787323,-0.176838219165802,0.05122632160782814,-0.11024459451436996,0.07623577862977982,0.02544088289141655,-0.11838830262422562,0.07998450100421906,-0.07708584517240524,0.07581043988466263,0.1351577490568161,-0.057280123233795166,0.05957819148898125,0.3007533848285675,0.15978644788265228,0.19616281986236572,-0.15301474928855896,-0.30732473731040955,-0.05583438649773598,-0.20629967749118805,-0.004913671873509884,0.1213175505399704,-0.054545044898986816,0.013196640647947788,0.01034650206565857,-0.06209879741072655,0.12643083930015564,0.08786754310131073,-0.08154305070638657,0.07732965797185898,-0.05529927462339401,-0.05196698009967804,0.047100406140089035,-0.17151324450969696,-0.1355595588684082,-0.09003926068544388,-0.20040541887283325,0.040348272770643234,0.1934121549129486,0.06628744304180145,0.23587273061275482,-0.42983877658843994,-0.3770706355571747,0.2540208101272583,0.30631783604621887,-0.014615882188081741,-0.1679118275642395,0.4119606018066406,-0.0037762115243822336,-0.03877248987555504,-0.09487572312355042,0.08537349849939346,0.11867572367191315,-0.07984241843223572,-0.04413394257426262,-0.12680920958518982,0.1977670043706894,0.22213402390480042,-0.046971000730991364,-0.014723285101354122,0.03645135834813118,0.24612928926944733,0.12051725387573242,-0.08039110898971558,-0.19910874962806702,-0.01134119089692831,-0.07100867480039597,-0.16376185417175293,-0.04284500703215599,0.10845644772052765,0.005128765944391489,0.06858987361192703,0.11634160578250885,-0.01239713653922081,-0.14507223665714264,-0.05400277301669121,-0.2402275949716568,0.023161640390753746,0.08678577095270157,-0.20072172582149506,-0.14669789373874664,-0.06463984400033951,0.04566296562552452,-0.15691491961479187,0.07525639981031418,0.0712340772151947,-0.09187953174114227,0.08475068211555481,0.03955531120300293,-0.4281834661960602,-0.09175234287977219,0.09533300995826721,0.06689628958702087,-0.11950810998678207,-0.09819034487009048,0.22695761919021606,0.43089285492897034,-0.22166140377521515,0.07053223252296448,-0.04754035174846649,0.11430660635232925,-0.06999408453702927,-0.14710846543312073,-0.10582949966192245,-0.23553508520126343,-0.009780638851225376,0.008598710410296917,0.015153075568377972,0.045739613473415375,0.19609488546848297,0.049218859523534775,-0.15715572237968445,-0.2132694274187088,0.10697643458843231,0.021600650623440742,-0.0870266705751419,0.044378187507390976,0.019385332241654396,-0.1049065887928009,-0.06748591363430023,0.1316498965024948,0.08020266890525818,0.005183521192520857,0.16105803847312927,-0.09336850047111511,0.050834059715270996,-0.014099879190325737,-0.008058321662247181,-0.033014148473739624,0.08328735828399658,0.041365571320056915,0.12676899135112762,-0.007296446245163679,0.04830872640013695,0.1856689155101776,0.1423434466123581,-0.024924667552113533,0.03317176178097725,-0.04654404893517494,-0.05790761113166809,-0.24116362631320953,-0.20291495323181152,-0.06313129514455795,-0.0382709875702858,0.1290479302406311,-0.028414234519004822,0.1510918289422989,-0.13709451258182526,-0.050155702978372574,0.008847652934491634,-0.047378771007061005,-0.04396512359380722,-0.178252711892128,-0.13760532438755035,-0.06378673762083054,-0.152211531996727,-0.08261284977197647,0.13953186571598053,0.0374300591647625,-0.09338489919900894,-0.026650656014680862,0.15474294126033783,0.21631565690040588,-0.09714557975530624,-0.048758018761873245,0.024084875360131264,0.05518079176545143,-0.050154026597738266,0.04457011818885803,0.06722934544086456,0.016145145520567894,-0.031442008912563324,0.14502020180225372,-0.0078058140352368355,-0.02204228565096855,-0.10592073202133179,0.10379152745008469,-0.02914300002157688,0.06799197942018509,0.2481326311826706,0.15510183572769165,-0.02604409120976925,0.28024619817733765,-0.2728249728679657,0.07330798357725143,-0.3425350785255432,0.1004316657781601,0.033240847289562225,0.04537929221987724,0.05459894239902496,-0.09288641065359116,-0.05243602767586708,0.07343997806310654,-0.06433920562267303,0.21141162514686584,0.0002214036649093032,-0.05469564348459244,0.10541295260190964,0.13679330050945282,-0.10860491544008255,-0.30684733390808105,0.025406356900930405,0.029128525406122208,-0.1953243911266327,0.057973768562078476,0.01308066863566637,0.270438015460968,-0.09657598286867142,0.04258563742041588,0.02004207856953144,0.09107580780982971,-0.1346077024936676,-0.15908931195735931,-0.005956687033176422,-0.060396380722522736,-0.14418013393878937,0.07056830078363419,0.056049589067697525,-0.023183055222034454,0.06187116727232933,0.055276427417993546,0.12113655358552933,0.08514293283224106,0.05486786365509033,-0.1305103302001953,0.004751286935061216,0.03995390981435776,-0.029650457203388214,-0.07237976789474487,-0.10005845874547958,0.38118159770965576,0.1738065928220749,-0.015268271788954735,0.5371595621109009,0.4479803442955017,0.1184866651892662,-0.20748503506183624,0.04302409663796425,-0.02214723825454712,-0.3086610734462738,-0.09544418007135391,-0.07182541489601135,0.030918706208467484,-0.004859901033341885,-0.12222278863191605,0.03409827873110771,0.0028729490004479885,0.052490297704935074,0.0025066693779081106,-0.1886654645204544,-0.054179150611162186,-0.1616983711719513,-0.11015202850103378,-0.07695426046848297,-0.15565668046474457,-0.1300491839647293,-0.08142412453889847,0.03171601518988609,0.011661045253276825,0.11026344448328018,0.19414739310741425,-0.03742299601435661,0.012623263522982597,-0.0926852747797966,-0.0901755839586258,0.09373664110898972,0.12008274346590042,-0.01060542557388544,0.14109119772911072,-0.02428901381790638,-0.26549914479255676,-0.1619570553302765,0.0866105705499649,-0.033540140837430954,0.03425760939717293,0.19276222586631775,0.11918815970420837,0.0018257407937198877,0.01620600000023842,0.07465919852256775,-0.012962479144334793,0.2667796015739441,-0.047113969922065735,0.06112426146864891,-0.2868049144744873,-0.12920156121253967,-0.055537380278110504,-0.0619329996407032,0.2649448812007904,-0.030708475038409233,0.02446378953754902,0.10686732083559036,0.06860358268022537,0.022354528307914734,0.013788535259664059,0.14322629570960999,0.2903447449207306,-0.15583588182926178,-0.05273102968931198,-0.12005265057086945,0.08351819217205048,0.11250565946102142,-0.10446769744157791,-0.11579137295484543,0.02752474695444107,0.0756869912147522,0.1710103154182434,-0.11916642636060715,0.06845469027757645,0.024439822882413864,-0.2533344328403473,0.1383257955312729,0.09058818221092224,-0.09121972322463989,0.012254397384822369,-0.006360923871397972,0.06618640571832657,-0.15268248319625854,-0.15324248373508453,-0.156899556517601,0.0383797213435173,-0.14192520081996918,0.11453704535961151,0.0798344537615776,-0.21152310073375702,0.06756061315536499,-0.15441638231277466,-0.040099237114191055,-0.0220467709004879,-0.04844390228390694,0.24799351394176483,0.01919121854007244,0.04178594797849655,0.13339915871620178,-0.029813474044203758,-0.13390710949897766,0.05907437205314636,0.12745729088783264,0.006155287381261587,-0.22985753417015076,-0.08648700267076492,-0.09835026413202286,-0.08330417424440384,0.05257616192102432,0.08928800374269485,-0.14390525221824646,0.057190798223018646,0.07283353805541992,-0.16695885360240936,-0.05458959564566612,0.0707007572054863,0.12395787239074707,0.042857248336076736,-0.04435775801539421,-0.028279023244976997,-0.04240855202078819,0.07135820388793945,0.17992481589317322,0.06092262640595436,-0.051610659807920456,-0.1384345144033432,-0.11064586043357849,-0.03890856355428696,-0.25333812832832336,0.022929329425096512,-0.11057410389184952,0.2870010435581207,0.01340235024690628,-0.028713097795844078,0.15844382345676422,0.047411710023880005,0.070288747549057,0.01621147058904171,0.007682282943278551,0.10263857990503311,0.2764747142791748,0.0612235888838768,-0.15678688883781433,-0.042756859213113785,0.053346093744039536,0.1413526087999344,-0.2733847200870514,-0.07396373897790909,0.05151237174868584,0.2971712350845337,-0.13514496386051178,0.00929131917655468,0.18647576868534088,-0.12332961708307266,-0.11316032707691193,0.061929259449243546,-0.05045798048377037,0.008501718752086163,-0.009442925453186035,0.0021774847991764545,-0.034051313996315,-0.14477653801441193,0.16314591467380524,0.008233524858951569,-0.020143620669841766,-0.07912521809339523,0.012342814356088638,0.1987912654876709,-0.08888980001211166,0.09009522199630737,0.12244781106710434,0.0739373117685318,-0.1003616452217102,0.3125815689563751,0.13854840397834778,0.045702941715717316,0.11636751145124435,0.05635768547654152,0.14819328486919403,-0.08708623796701431,0.17397190630435944,-0.026730062440037727,0.22268307209014893,-0.03884812444448471,-0.1395217627286911,-0.1496095210313797,0.053804412484169006,-0.014524094760417938,0.08535878360271454,-0.0813567116856575,0.1599007099866867,0.022798698395490646,-0.07429730147123337,-0.039892010390758514,-0.0936104878783226,0.12792986631393433,-0.05834683030843735,-0.1043817475438118,-0.0444830060005188,-0.06188290938735008,-0.2628553509712219,0.013276087120175362,0.1335294544696808,-0.026382485404610634,0.009427794255316257,0.046736158430576324,0.04524567350745201,-0.1817994862794876,0.05578039959073067,-0.16029900312423706,-0.03566594421863556,-0.06694107502698898,0.13116610050201416,-0.06244988739490509,0.10332325100898743,-0.29465946555137634,-0.042973440140485764,0.11105282604694366,0.0288552138954401,0.008812678046524525,0.06666117161512375,-0.11012312769889832,0.03872796520590782,0.01753130555152893,0.11103186011314392,0.0012996633304283023,-0.02484959363937378,-0.006810670718550682,0.1024012640118599,-0.028590383008122444,-0.015854764729738235,-0.05809127539396286,-0.05263852700591087,-0.04116923734545708,0.08220039308071136,-0.13418523967266083,-0.05385476350784302,0.031230352818965912,-0.04269138351082802,-0.06172807514667511,0.059234872460365295,0.21639098227024078,0.07528913766145706,0.08445341140031815,0.09970884770154953,-0.13391992449760437,0.12903770804405212,-0.012461421079933643,0.009238816797733307,0.07499846816062927,-0.052421871572732925,0.1812015324831009,0.2212071269750595,0.24515406787395477,0.1508651226758957,-0.08965058624744415,0.12126106023788452,0.13690128922462463,-0.11947374790906906,0.029141591861844063,-0.013664997182786465,-0.1376313716173172,-0.18016789853572845,-0.02108718827366829,-0.05996863916516304,-0.16821281611919403,0.05532225966453552,0.13448238372802734,-0.12921908497810364,-0.07318585366010666,0.007572710979729891,-0.1296227127313614,-0.027909303084015846,0.023364035412669182,-0.07695150375366211,-0.02986626885831356,-0.053277816623449326,-0.06873640418052673,0.040394462645053864,-0.18741153180599213,-0.20925100147724152,0.1354905217885971,0.13826075196266174,0.12005499750375748,0.228001207113266,0.02252323552966118,-0.12649908661842346,0.08536513894796371,-0.11511126160621643,-0.1518208235502243,0.02100750058889389,0.1632014811038971,0.007330381311476231,0.061822302639484406,-0.027209635823965073,0.07949597388505936,0.12670819461345673,-0.09416351467370987,-0.010910775512456894,0.01172839105129242,0.0796048492193222,-0.35922718048095703,-0.036060601472854614,0.0782027542591095,-0.15407049655914307,0.08342532813549042,-0.14774812757968903,0.028307627886533737,0.04013571888208389,-0.006219837814569473,0.16104230284690857,0.0010683424770832062,-0.08888635039329529,0.008711895905435085,-0.10054565966129303,0.026863092556595802,-0.12426289916038513,-0.10987837612628937,0.05691983923316002,-0.031265467405319214,-0.12994419038295746,-0.08458540588617325,-0.005846654064953327,-0.11891302466392517,-0.01920275203883648,0.1128174290060997,-0.05732417479157448,-0.1892877221107483,0.1590614765882492,0.005618385970592499,0.07135406136512756,-0.012318403460085392,-0.06429272145032883,0.044332873076200485,0.23830029368400574,0.012572191655635834,-0.14799244701862335,-0.01657537929713726,0.05174734443426132,0.028459394350647926,-0.12068459391593933,-0.2304411232471466,0.04302725940942764,0.06410375237464905,0.010030124336481094,-0.05783286318182945,0.16714946925640106,0.156084343791008,-0.10318868607282639,-0.0025249826721847057,0.03662176802754402,-0.0015155255096033216,-0.07366024702787399,-0.1468113511800766,-0.1607765108346939,0.08721768110990524,-0.01367649994790554,0.05083072930574417,-0.0693240612745285,-0.02247217670083046,-0.018702257424592972,-0.030788786709308624,0.12115437537431717,-0.055005669593811035,0.128464475274086,-0.17018020153045654,-0.03521127998828888,-0.045862164348363876,-0.07537423074245453,-0.0756983533501625,-0.034158460795879364,-0.1039123460650444,-0.20437577366828918,-0.03485702723264694,-0.10015861690044403,0.01665465719997883,0.11308222264051437,0.10177178680896759,0.02150753140449524,0.09441538155078888,0.05320662632584572,0.02249603159725666,-0.042548906058073044,0.11303732544183731,-0.10487628728151321,0.09573381394147873,0.08694210648536682,-0.05225171893835068,-0.0877729281783104,0.018646657466888428,0.08809980005025864,-0.011215035803616047,-0.029695194214582443,0.05732433497905731,0.09730938822031021,-0.018142664805054665,0.027546780183911324,0.5236971378326416,0.2733275890350342,0.5036047697067261,-0.7520394325256348,-0.31088101863861084,0.09746347367763519,0.14507488906383514,-0.04268373176455498,0.31388059258461,0.18561765551567078,-1.0172340869903564,0.28062424063682556,-0.06515144556760788,-0.7312602996826172,0.03200630471110344,-0.10689722001552582,-0.13050802052021027,-0.1685829907655716,0.28011980652809143,-0.26008445024490356,0.03911210969090462,0.21879345178604126,-0.062373194843530655,-0.1737208366394043,-0.22359004616737366,0.08167394250631332,-0.2687428295612335,0.08403608947992325,0.05338664352893829,-0.06238144263625145,0.04221121221780777,-0.12611448764801025,-0.3380067050457001,-0.04294806346297264,0.20630384981632233,-0.09664399921894073,-0.08011633157730103,0.01503053680062294,0.204374298453331,-0.054676737636327744,-0.01323986891657114,0.003609598381444812,-0.03192593529820442,0.1517844945192337,0.08346616476774216,0.01192556694149971,-0.07221504300832748,0.14078311622142792,-0.05473613739013672,0.10713230818510056,-0.2012861967086792,-0.12983843684196472,0.022424757480621338,-0.2964889407157898,-0.0964696928858757,0.13974100351333618,0.09554476290941238,-0.1768505871295929,-0.0525624118745327,-0.09591063112020493,-0.12169011682271957,0.05997595563530922,-0.20712751150131226,0.12284301966428757,-0.1134672611951828,-0.05369972810149193,-0.060541845858097076,0.21808896958827972,0.14073893427848816,0.15498420596122742,0.2169196754693985,0.1296204775571823,-0.041704803705215454,-0.043903689831495285,0.0701398029923439,-0.13776183128356934,0.11599888652563095,0.03688069060444832,0.185652956366539,-0.08748944848775864,0.0947716012597084,0.0028250825125724077,-0.21398627758026123,0.15091757476329803,0.033043697476387024,-0.04774763807654381,-0.026676276698708534,-0.2001974880695343,0.09267539530992508,0.07617329061031342,0.16820749640464783,-0.17012161016464233,-0.029439624398946762,-0.16813425719738007,0.0684601217508316,-0.13180501759052277,-0.23437151312828064,0.15897150337696075,0.18514716625213623,0.19519561529159546,-0.15551425516605377,0.18419384956359863,0.13278985023498535,0.04619701951742172,0.1812373548746109,0.0577213279902935,-0.11013536155223846,0.27852076292037964,-0.14906571805477142,0.03752664849162102,-0.11562532931566238,0.08314493298530579,-0.12333080172538757,-0.12744472920894623,-0.08248327672481537,-0.0889962837100029,-0.12741927802562714,-0.17417997121810913,0.1507953703403473,0.20934823155403137,-0.1628754734992981,-0.026526043191552162,-0.04354169964790344,0.08188684284687042,0.060285717248916626,-0.03547914698719978,0.18932437896728516,0.016780395060777664,-0.07585959136486053,0.2187766581773758,-0.1409648358821869,0.03539513051509857,0.1841651201248169,-0.13694912195205688,-0.05568953976035118,0.2046990990638733,-0.004342341795563698,-0.00826975516974926,-0.017458705231547356,0.09074096381664276,-0.1217903345823288,0.012680302374064922,0.0629999116063118,-0.05445908382534981,-0.11928293108940125,-0.07950133085250854,-0.13905955851078033,-0.0481993667781353,0.2177974283695221,0.034085486084222794,-0.3253761827945709,-0.2815520167350769,-0.10106723755598068,0.0020721189212054014,0.05141066387295723,-0.10673562437295914,0.2301054447889328,0.18978819251060486,-0.09711006283760071,0.006695793941617012,-0.02723073773086071,0.22961050271987915,-0.019249752163887024,0.02740403264760971,-0.25751084089279175,0.03324713557958603,-0.09144910424947739,0.10486847162246704,-0.2734096348285675,-0.13066954910755157,0.05468025431036949,-0.04876522347331047,0.1278131604194641,-0.07573656737804413,0.21983352303504944,-0.012780780903995037,-0.08972345292568207,0.1716625690460205,-0.34824931621551514,-0.15837232768535614,-0.2547845244407654,-0.08087226748466492,-0.06053118035197258,-0.1335465908050537,0.11676272004842758,-0.010695144534111023,-0.0434407964348793,-0.14831703901290894,0.051945798099040985,0.06371885538101196,0.3240802586078644,-0.01723703369498253,-0.001204313593916595,0.126960888504982,-0.1920912116765976,-0.026289163157343864,-0.01908860169351101,-0.18944065272808075,-0.07132582366466522,0.03738000988960266,-0.2275133728981018,0.0671934187412262,0.26113361120224,0.12712042033672333,-0.03635547310113907,0.2461341917514801,-0.05278588831424713,-0.07761571556329727,0.05450620502233505,0.1297692209482193,0.3835362195968628,0.24104727804660797,-0.12859858572483063,0.17374898493289948,-0.08131369948387146,0.035834453999996185,0.26142895221710205,0.13462413847446442,-0.32205888628959656,-0.09007319062948227,-0.10355523228645325,0.048021841794252396,-0.07597532123327255,-0.06582729518413544,-0.13536912202835083,0.08958357572555542,0.10938401520252228,0.3333922028541565,0.049820803105831146,0.0789797380566597,-0.1377517282962799,-0.1374991536140442,-0.1077081710100174,0.4268023669719696,0.16313819587230682,0.02218690700829029,0.10143130272626877,-0.19939467310905457,-0.16974018514156342,-0.1738099306821823,0.4707918167114258,-0.07911433279514313,0.12022559344768524,0.05818435177206993,-0.06435038149356842,-0.11676397919654846,-0.06621179729700089,0.08113101124763489,-0.05894380062818527,-0.03483228385448456,-0.2261812537908554,-0.08928683400154114,0.0010874971048906446,-0.02001718245446682,0.06592997908592224,0.022008834406733513,-0.053051434457302094,0.18241028487682343,-0.1530233472585678,-0.21396905183792114,-0.19794653356075287,-0.15768633782863617,0.25922390818595886,-0.10140667110681534,-0.26701611280441284,0.13619019091129303,-0.18892566859722137,0.08587274700403214,0.11055663228034973,-0.11126365512609482,-0.00691211549565196,-0.15651477873325348,-0.1383538693189621,-0.004709397908300161,0.04649239778518677,-0.034111082553863525,0.035080548375844955,0.009296737611293793,0.008151381276547909,0.05342279002070427,-0.08652427047491074,0.11951608955860138,0.07138966023921967,0.031973667442798615,-0.003787232330068946,-0.10092176496982574,-0.03275085985660553,0.0015776670770719647,-0.13525095582008362,-0.12695501744747162,0.01056999433785677,-0.09521885961294174,-0.0045373705215752125,-0.09483923763036728,0.1750851571559906,0.15942545235157013,-0.15996035933494568,-0.14641600847244263,0.22171653807163239,0.053958892822265625,-0.030893202871084213,0.042009126394987106,-0.06412411481142044,0.0032298376318067312,0.15881679952144623,-0.01228628121316433,0.09787244349718094,0.03423444554209709,0.02720995433628559,0.15008631348609924,0.03515535965561867,-0.08874104917049408,0.07276599854230881,-0.0882483571767807,-0.009910143911838531,0.24518534541130066,-0.009945420548319817,0.13977006077766418,0.18839898705482483,0.17212392389774323,-0.09124621748924255,-0.06398241221904755,-0.0026025057304650545,-0.037898097187280655,0.014133770018815994,0.12326662987470627,0.19947856664657593,-0.12098760157823563,0.16463962197303772,0.03575805574655533,0.026004143059253693,-0.20448310673236847,-0.005687669850885868,0.04989881440997124,0.00904011819511652,-0.06784459948539734,-0.06305403262376785,-0.05841519311070442,0.06325798481702805,0.06465297192335129,-0.05086037889122963,0.09084006398916245,-0.16949045658111572,-0.09555031359195709,-0.029760856181383133,0.0587049163877964,0.11502321064472198,0.04462667554616928,0.06888000667095184,0.033280033618211746,0.015965169295668602,0.005580944009125233,-0.07276394963264465,0.1332291215658188,-0.14635390043258667,0.10134276747703552,0.10951268672943115,-0.14928464591503143,-0.046196348965168,-0.16187834739685059,-0.05509432405233383,0.09930681437253952,0.1061088964343071,-0.06139377877116203,0.03723500296473503,-0.10170173645019531,0.007066832855343819,-0.134801983833313,-0.013021924532949924,-0.016017844900488853,-0.1604461520910263,-0.10282387584447861,-0.09774699062108994,-0.12216052412986755,0.008547557517886162,-0.015611679293215275,-0.022228525951504707,-0.016848163679242134,0.14954808354377747,-0.02886461280286312,0.0027993950061500072,-0.22185517847537994,-0.10308407992124557,0.0038228039629757404,-0.1342194676399231,-0.1575736254453659,0.1497461497783661,-0.007862495258450508,0.039269596338272095,0.2836630642414093,0.04255704581737518,-0.010308685712516308,-0.13897188007831573,-0.15152744948863983,0.1518218070268631,-0.14673946797847748,-0.1509239673614502,-0.03254210948944092,-0.04443591833114624,-0.08894867449998856,0.21455086767673492,-0.01880531758069992,-0.045466966927051544,-0.12864823639392853,-0.19810862839221954,-0.06534110754728317,-0.12109924852848053,-0.032090287655591965,0.11941545456647873,-0.23004798591136932,-0.31340235471725464,0.19770441949367523,0.035304099321365356,0.007810418494045734,0.1949833184480667,0.23095399141311646,-0.0034739000257104635,-0.07565036416053772,0.02588815428316593,0.01388231385499239,-0.08280619233846664,0.17183378338813782,0.16760356724262238,-0.07463573664426804,0.3355114758014679,-0.004275254439562559,-0.11536658555269241,-0.18124361336231232,0.12304176390171051,0.13587041199207306,-0.057056132704019547,0.017860794439911842,-0.03155748173594475,-0.14320412278175354,-0.003618099959567189,0.03418373316526413,0.057439785450696945,0.020838538184762,0.10151586681604385,0.09367061406373978,-0.028797952458262444,-0.029997436329722404,0.0035109850578010082,-0.04410794377326965,-0.006190698593854904,0.06048696115612984,0.107684426009655,-0.17805935442447662,0.05594487115740776,0.11717081069946289,0.1350594013929367,-0.11932554841041565,0.006518017500638962,0.22577734291553497,-0.011784806847572327,-0.049219001084566116,0.04906893149018288,-0.1482774317264557,-0.14795224368572235,-0.026195570826530457,0.023370126262307167,0.016798950731754303,0.08642283082008362,0.16209106147289276,0.08224700391292572,-0.20302656292915344,-0.006479859817773104,0.0070037259720265865,-0.03724854812026024,0.10620072484016418,0.15029217302799225,-0.1488317847251892,0.06620018184185028,-0.260408490896225,0.021796174347400665,-0.06715898960828781,0.0009543572668917477,0.14821577072143555,-0.10553310811519623,0.06194404140114784,-0.03022012673318386,0.045009758323431015,0.09851804375648499,0.09156739711761475,0.1427861899137497,-0.20383164286613464,-0.1021258607506752,0.062466930598020554,0.3222180902957916,-0.11275449395179749,0.07116924971342087,0.31534576416015625,0.10808952897787094,-0.006537208333611488,-0.06718986481428146,0.22125522792339325,-0.050184547901153564,-0.14907899498939514,0.06525159627199173,0.011778372339904308,-0.05690852925181389,0.11680445820093155,0.13527244329452515,-0.1359340399503708,-0.07232233136892319,-0.05052119493484497,0.39138126373291016,-0.17401179671287537,0.12281379103660583,0.17114686965942383,-0.20388619601726532,0.11468647420406342,0.1423741579055786,0.06851554661989212,-0.08910743147134781,0.06758356094360352,-0.11960048973560333,0.06944025307893753,-0.13646350800991058,0.02736683189868927,-0.19710087776184082,0.013289451599121094,0.26322776079177856,0.1011149138212204,-0.16930581629276276,-0.2687218189239502,0.08514615148305893,0.0007739492575637996,-0.05624382942914963,0.06322993338108063,-0.22518493235111237,-0.06600785255432129,-0.06464839726686478,-0.19066855311393738,0.07081229239702225,-0.11370540410280228,-0.03400718420743942,0.026684457436203957,0.04290546104311943,0.11854743957519531,-0.1526559591293335,-0.1553031951189041,-0.023995298892259598,-0.1292678564786911,-0.20345750451087952,0.0785122662782669,0.16052469611167908,0.04275202751159668,-0.0856989175081253,-0.12083659321069717,0.0375160314142704,-0.07912368327379227,0.09943853318691254,-0.05534851551055908,0.17769254744052887,-0.08468254655599594,0.19647420942783356,-0.08877064287662506,0.08096691220998764,0.04544059559702873,0.06158071756362915,0.0012263491516932845,0.13196183741092682,0.07502375543117523,-0.01199398934841156,0.01990245096385479,-0.2510319650173187,-0.19619108736515045,-0.22229266166687012,0.058727581053972244,0.03004792332649231,0.30649182200431824,-0.07964829355478287,0.06802422553300858,0.0817168802022934,-0.2033989131450653,-0.24503867328166962,-0.10043129324913025,0.04093969613313675,-0.07690521329641342,-0.2389651983976364,-0.07720916718244553,0.07865697890520096,-0.14466597139835358,-0.09213389456272125,0.041729170829057693,0.13944634795188904,-0.013902002945542336,0.04657477140426636,0.16933929920196533,0.048817384988069534,0.01415544655174017,0.0829637348651886,0.15915881097316742,0.022213943302631378,0.05360032618045807,-0.007626724429428577,-0.23853814601898193,-0.2229527086019516,0.0637228935956955,0.12573763728141785,0.09762873500585556,0.05950278788805008,0.18682070076465607,0.19583924114704132,-0.05524614453315735,0.036961961537599564,0.0785139948129654,-0.1604844182729721,0.25114378333091736,0.02737828902900219,-0.0742955133318901,-0.137835294008255,0.20824818313121796,0.17499294877052307,-0.02555730566382408,0.40393033623695374,0.09623947739601135,-0.26787519454956055,-0.2250112146139145,0.0950804352760315,0.10321864485740662,-0.19541077315807343,-0.02963082492351532,0.11990910768508911,-0.02158639021217823,0.14036282896995544,0.07409633696079254,0.03708912432193756,-0.17674660682678223,-0.11155910044908524,-0.1895483285188675,0.24342095851898193,-0.03762349113821983,0.0665220096707344,0.0639614388346672,0.028935037553310394,-0.07749514281749725,-0.11741132289171219,-0.09937569499015808,0.018368268385529518,-0.13563326001167297,-0.01826334558427334,0.03768105432391167,-0.076570525765419,0.19139434397220612,-0.10612113773822784,-0.18487004935741425,-0.09581664204597473,-0.10487411916255951,0.19459295272827148,-0.033561822026968,0.08877795934677124,0.1467294692993164,-0.11603165417909622,-0.0025719902478158474,0.27108705043792725,-0.3326871991157532,-0.0757526308298111,0.2072642296552658,0.08535623550415039,0.051510125398635864,-0.08316965401172638,0.058973126113414764,-0.035934291779994965,0.048198435455560684,0.06831488758325577,0.11318337917327881,-0.18074755370616913,0.009155320934951305,-0.034071002155542374,-0.056770991533994675,0.06309904903173447,0.010350164026021957,-0.0904250293970108,0.16420967876911163,0.022987544536590576,0.005144935101270676,-0.1104353740811348,-0.039193347096443176,0.12457940727472305,-0.2503364682197571,-0.08154043555259705,0.014624410308897495,0.1613204926252365,-0.1667819768190384,0.08635631948709488,0.07547014951705933,-0.014089753851294518,0.1515577882528305,-0.06705104559659958,-0.13185590505599976,0.004126135725528002,0.1528729349374771,-0.10662854462862015,-0.09952177107334137,-0.009086809121072292,-0.13909654319286346,0.019000573083758354,-0.07456233352422714,-0.036931753158569336,0.1594950556755066,-0.18938422203063965,0.019210372120141983,0.26058229804039,-0.27013155817985535,0.046266116201877594,0.04413393884897232,0.12258996814489365,0.009331527166068554,-0.030247323215007782,-0.058195605874061584,0.016519920900464058,0.07587873935699463,0.033521994948387146,-0.1030849739909172,-0.25624880194664,-0.08319500833749771,0.10415613651275635,0.246293306350708,0.07329034805297852,0.06569075584411621,-0.07879247516393661,-0.12302425503730774,-0.05331702157855034,0.026211179792881012,0.11102323234081268,0.04657071456313133,-0.2296987920999527,0.18622806668281555,-0.06876283884048462,-0.16134347021579742,-0.0515432246029377,-0.0148776825517416,0.010645568370819092,0.03091663122177124,0.016979001462459564,0.07093970477581024,0.011340092867612839,0.004241220653057098,-0.04271349310874939,-0.01248137466609478,0.1032092273235321,0.09203623235225677,0.04403553530573845,0.16581302881240845,0.0830722525715828,-0.07704683393239975,-0.07338301837444305,-0.2597571015357971,0.11214392632246017,0.040531378239393234,-0.3008762001991272,0.22378411889076233,0.06931149214506149,-0.21318866312503815,0.06135234609246254,0.011182249523699284,-0.06955653429031372,-0.0236043743789196,-0.03930782154202461,-0.046367231756448746,-0.0031024061609059572,-0.02924078330397606,0.04938008636236191,-0.10971616208553314,0.021751750260591507,-0.09293325990438461,-0.12124564498662949,0.08206088095903397,0.07683630287647247,-0.06363017857074738,0.02842891216278076,0.08040934801101685,0.09799245744943619,0.07270178198814392,-0.20898601412773132,0.10850835591554642,0.02214355207979679,-0.038962773978710175,-0.17702148854732513,0.042215876281261444,0.24545370042324066,-0.07763662934303284,0.09652253240346909,0.052453577518463135,0.049229223281145096,-0.04578365758061409,-0.1498403549194336,-0.16291382908821106,-0.051791828125715256,-0.03734200447797775,0.18701006472110748,-0.033982209861278534,-0.10035240650177002,-0.016026193276047707,0.09719943255186081,-0.17294970154762268,0.17475196719169617,0.01837976649403572,-0.19576527178287506,0.23402133584022522,0.052328746765851974,-0.1269620954990387,-0.047633182257413864,0.08400662988424301,-0.021668720990419388,-0.1818690150976181,-0.055730365216732025,0.1290028989315033,-0.027136120945215225,-0.0789889469742775,-0.07261689007282257,-0.09745639562606812,-0.008248833008110523,-0.06676839292049408,0.10341494530439377,-0.14011842012405396,-0.04999484866857529,0.1795164793729782,-0.12098241597414017,-0.15383577346801758,0.06150810047984123,0.08571193367242813,0.07039675116539001,-0.21664460003376007,0.06706312298774719,0.12359729409217834,-0.08430451154708862,-0.018471090123057365,-0.07467880100011826,-0.07983694225549698,