{
    "version": "0.5.0",
    "architecture": "WaveNet",
    "config": {
        "layers": [
            {
                "input_size": 1,
                "condition_size": 1,
                "head_size": 8,
                "channels": 16,
                "kernel_size": 3,
                "dilations": [
                    1,
                    2,
                    4,
                    8,
                    16,
                    32,
                    64,
                    128,
                    256,
                    512
                ],
                "activation": "Tanh",
                "gated": false,
                "head_bias": false
            },
            {
                "input_size": 16,
                "condition_size": 1,
                "head_size": 1,
                "channels": 8,
                "kernel_size": 3,
                "dilations": [
                    1,
                    2,
                    4,
                    8,
                    16,
                    32,
                    64,
                    128,
                    256,
                    512
                ],
                "activation": "Tanh",
                "gated": false,
                "head_bias": true
            }
        ],
        "head": null,
        "head_scale": 0.02
    },
    "weights": [
        -0.06396739184856415,
        0.6546730399131775,
        -0.7450435161590576,
        -0.7893969416618347,
        -0.31883835792541504,
        0.24150437116622925,
        -0.002751263789832592,
        0.8296571373939514,
        -0.12073531001806259,
        0.27296802401542664,
        -0.30366507172584534,
        -0.08958450704813004,
        -0.9313375949859619,
        -0.7330750823020935,
        -0.3960607051849365,
        -0.0011978044640272856,
        0.13494513928890228,
        0.255481094121933,
        -0.23062439262866974,
        -0.1356436312198639,
        -0.12421604245901108,
        0.18981383740901947,
        0.0359535850584507,
        0.2811766266822815,
        -0.08754889667034149,
        0.0823851227760315,
        0.3019152879714966,
        -0.20429401099681854,
        -0.020433159545063972,
        0.13415300846099854,
        -0.12020288407802582,
        0.07075474411249161,
        -0.2558189034461975,
        0.004647317808121443,
        -0.014265740290284157,
        -0.0044384002685546875,
        -0.22029080986976624,
        0.057266414165496826,
        -0.10680218786001205,
        0.13912004232406616,
        0.07171931862831116,
        0.09567955136299133,
        -0.06300360709428787,
        -0.1974017322063446,
        -0.2657700181007385,
        0.008432963863015175,
        0.1539531797170639,
        0.24860909581184387,
        -0.14202651381492615,
        0.06402572244405746,
        0.24837081134319305,
        0.063786581158638,
        0.12546031177043915,
        0.19175295531749725,
        0.028943335637450218,
        -0.01652655564248562,
        0.1984138786792755,
        -0.1836308389902115,
        -0.031221244484186172,
        0.10237619280815125,
        0.002533848164603114,
        0.020570209249854088,
        -0.041607387363910675,
        0.06937752664089203,
        0.0803854763507843,
        0.006739822216331959,
        -0.09226730465888977,
        -0.006058486644178629,
        0.038322776556015015,
        0.20297814905643463,
        -0.06743861734867096,
        -0.0003749883617274463,
        9.16589779080823e-05,
        0.16202948987483978,
        0.1748192310333252,
        0.06472404301166534,
        0.06839477270841599,
        -0.07823657244443893,
        -0.04689010977745056,
        -0.1274557113647461,
        -0.17585299909114838,
        0.19093437492847443,
        0.13038291037082672,
        -0.13400381803512573,
        -0.07491602003574371,
        -0.06723523885011673,
        -0.07290246337652206,
        -0.0034888761583715677,
        0.08024326711893082,
        -0.04918341338634491,
        -0.02624354511499405,
        0.03400668874382973,
        0.0641462430357933,
        0.12938113510608673,
        -0.10180060565471649,
        -0.050608016550540924,
        0.0028281507547944784,
        0.06848268955945969,
        -0.07909432053565979,
        -0.15636374056339264,
        0.17955981194972992,
        0.14749903976917267,
        -0.12392247468233109,
        0.006797227077186108,
        -0.0882403552532196,
        -0.06776773184537888,
        -0.06895651668310165,
        -0.06105148792266846,
        -0.06722456961870193,
        -0.05224297568202019,
        -0.05402369052171707,
        0.1725190281867981,
        -0.11177849024534225,
        0.1258825808763504,
        0.2497536540031433,
        -0.07272067666053772,
        -0.013950872235000134,
        -0.1177874282002449,
        -0.033867429941892624,
        0.005060730967670679,
        0.16870294511318207,
        -0.04441475123167038,
        -0.09624524414539337,
        0.18634876608848572,
        -0.1865396350622177,
        -0.11011985689401627,
        0.07859352231025696,
        -0.01961301639676094,
        -0.023016955703496933,
        -0.23016509413719177,
        -0.05252106860280037,
        0.029952440410852432,
        0.0357583649456501,
        0.046780332922935486,
        0.13025952875614166,
        -0.13229678571224213,
        -0.031150048598647118,
        -0.024427322670817375,
        0.16491875052452087,
        0.14012856781482697,
        0.1565508395433426,
        -0.037128522992134094,
        0.08415699750185013,
        -0.034980785101652145,
        -0.008273471146821976,
        -0.11806592345237732,
        0.0737173929810524,
        0.11291004717350006,
        -0.12654513120651245,
        -0.1382075697183609,
        -0.019513117149472237,
        -0.17477604746818542,
        -0.05357397347688675,
        0.2007613182067871,
        0.025089526548981667,
        -0.1675782948732376,
        0.20415031909942627,
        -0.03999396786093712,
        0.00880264863371849,
        -0.12768472731113434,
        0.15742915868759155,
        -0.043600913137197495,
        -0.22393110394477844,
        -0.302085280418396,
        0.020040137693285942,
        0.11995905637741089,
        0.09967731684446335,
        0.01436123251914978,
        -0.23668356239795685,
        0.15795837342739105,
        0.08682352304458618,
        -0.16859044134616852,
        0.2999364733695984,
        0.015588260255753994,
        -0.24059437215328217,
        -0.06084488332271576,
        0.019963374361395836,
        0.034931816160678864,
        0.26157471537590027,
        -0.14934442937374115,
        -0.09023129194974899,
        -0.19775155186653137,
        0.14265458285808563,
        0.1504267305135727,
        0.22153246402740479,
        0.0009537587757222354,
        -0.14370308816432953,
        -0.19737151265144348,
        -0.07635609060525894,
        0.19796670973300934,
        0.2784438133239746,
        0.06022362783551216,
        -0.21343784034252167,
        0.16887101531028748,
        -0.13024784624576569,
        -0.18679575622081757,
        0.08490617573261261,
        0.011058475822210312,
        -0.19456914067268372,
        0.1660313755273819,
        -0.0367429293692112,
        -0.02108120732009411,
        0.06205896660685539,
        -0.13576115667819977,
        -0.1918342113494873,
        0.06261711567640305,
        -0.05335492640733719,
        0.2167840451002121,
        -0.00045559328282251954,
        -0.10325200855731964,
        0.16160263121128082,
        0.02849751152098179,
        0.15931853652000427,
        -0.15833912789821625,
        -0.05535711720585823,
        -0.11609703302383423,
        0.011846263892948627,
        -0.12896545231342316,
        -0.014710736460983753,
        0.012459248304367065,
        -0.06817610561847687,
        0.006087951827794313,
        0.16968098282814026,
        0.04904083535075188,
        -0.0038658147677779198,
        -0.05837877094745636,
        -0.1411326825618744,
        -0.10213488340377808,
        0.1395491510629654,
        0.032502252608537674,
        0.13332197070121765,
        -0.008782847784459591,
        -0.025395149365067482,
        0.007981760427355766,
        0.23851940035820007,
        -0.04333316162228584,
        0.1856728345155716,
        -0.2385547012090683,
        -0.10912153124809265,
        -0.07755151391029358,
        0.1853192299604416,
        0.05532766506075859,
        -0.15979784727096558,
        0.13226984441280365,
        0.01862010546028614,
        -0.2728947401046753,
        0.23077331483364105,
        -0.17275333404541016,
        -0.12870906293392181,
        0.10731658339500427,
        -0.13419021666049957,
        -0.12282302230596542,
        0.23773376643657684,
        -0.02286006696522236,
        -0.17350943386554718,
        -0.1452440470457077,
        -0.21755975484848022,
        0.07680836319923401,
        0.07858405262231827,
        -0.0008252959232777357,
        -0.08235840499401093,
        -0.03610047325491905,
        -0.01984621398150921,
        0.10564839094877243,
        0.16035698354244232,
        -0.14414067566394806,
        -0.04254434257745743,
        0.15676511824131012,
        0.02569381520152092,
        0.03323391452431679,
        0.039362628012895584,
        0.022447936236858368,
        -0.13308261334896088,
        -0.07482965290546417,
        -0.1438918560743332,
        -0.11602966487407684,
        0.25561341643333435,
        0.0029109413735568523,
        -0.01321062259376049,
        -0.07203211635351181,
        -0.07292144745588303,
        -0.0813828706741333,
        0.015479636378586292,
        0.20815125107765198,
        0.022314555943012238,
        -0.002694520866498351,
        -0.14278067648410797,
        0.04123663902282715,
        0.08407967537641525,
        -0.09529896080493927,
        -0.09453306347131729,
        0.15699167549610138,
        -0.05163560062646866,
        -0.007287306245416403,
        0.07932456582784653,
        -0.18538741767406464,
        0.09933815896511078,
        0.010654371231794357,
        -0.03736063838005066,
        -0.05515369772911072,
        0.038730766624212265,
        0.09414655715227127,
        -0.06401064991950989,
        -0.050008367747068405,
        -0.009338374249637127,
        -0.16685831546783447,
        0.21659761667251587,
        0.11526861041784286,
        0.12561172246932983,
        -0.18350031971931458,
        -0.17109480500221252,
        -0.09120737016201019,
        0.20455309748649597,
        -0.1050359457731247,
        -0.011495543643832207,
        0.2560938894748688,
        -0.1275571882724762,
        -0.06514513492584229,
        0.21807581186294556,
        0.05418279394507408,
        0.0714983344078064,
        -0.13845206797122955,
        -0.16162464022636414,
        -0.03586408123373985,
        0.2698511779308319,
        0.1827879250049591,
        0.15132492780685425,
        -0.14035539329051971,
        0.028984874486923218,
        -0.12589341402053833,
        0.053225692361593246,
        -0.07559026777744293,
        0.2027755230665207,
        -0.08114918321371078,
        -0.15057247877120972,
        -0.00620446028187871,
        0.272843599319458,
        0.09291338920593262,
        0.0664379820227623,
        0.27268385887145996,
        -0.08677329123020172,
        -0.11818300932645798,
        0.2768332362174988,
        0.027110271155834198,
        -0.15309500694274902,
        0.29234033823013306,
        0.017025981098413467,
        0.008357536979019642,
        0.06686918437480927,
        0.0893586054444313,
        -0.08500432223081589,
        0.004730775952339172,
        -0.13357174396514893,
        -0.030893096700310707,
        0.01591475121676922,
        0.17324252426624298,
        0.019975122064352036,
        0.07151775062084198,
        -0.20738376677036285,
        -0.033614933490753174,
        -0.10188644379377365,
        -0.249787837266922,
        -0.18168890476226807,
        0.11220944672822952,
        -0.030674099922180176,
        0.06605888903141022,
        0.11017095297574997,
        -0.03329269587993622,
        -0.038794565945863724,
        -0.02210015244781971,
        -0.18833430111408234,
        0.04404858127236366,
        -0.09495297819375992,
        0.03717489540576935,
        -0.07355242222547531,
        -0.08074399828910828,
        0.02751873806118965,
        0.06219109147787094,
        0.1078091710805893,
        0.21685904264450073,
        0.18949201703071594,
        -0.045435547828674316,
        -0.04167155176401138,
        0.06563980132341385,
        0.051820058375597,
        0.03816375136375427,
        0.009215423837304115,
        0.09288840740919113,
        -0.15985454618930817,
        0.001524364110082388,
        0.013140503317117691,
        -0.14299747347831726,
        -0.14621411263942719,
        -0.07997263967990875,
        -0.2207028865814209,
        0.026037631556391716,
        0.0961962342262268,
        0.010611088946461678,
        -0.08799149096012115,
        0.03607229143381119,
        0.16141603887081146,
        -0.0939381793141365,
        -0.04641351476311684,
        0.09523386508226395,
        0.167851060628891,
        -0.12288261950016022,
        0.16626335680484772,
        0.0042112660594284534,
        -0.04037166386842728,
        0.11131557822227478,
        -0.18665510416030884,
        -0.008016940206289291,
        0.15612974762916565,
        -0.09648554027080536,
        -0.09065131843090057,
        -0.07878968119621277,
        0.05249480903148651,
        -0.05098242312669754,
        0.06847716122865677,
        0.06166790425777435,
        0.03084312565624714,
        -0.11779984831809998,
        0.11203345656394958,
        0.05418587848544121,
        0.12729476392269135,
        -0.22097806632518768,
        0.010137581266462803,
        -0.1389019936323166,
        0.03785482794046402,
        0.02961738035082817,
        -0.0749490037560463,
        -0.046528663486242294,
        0.14181096851825714,
        0.0348493754863739,
        -0.18803788721561432,
        -0.03484658896923065,
        0.059285081923007965,
        -0.21598635613918304,
        0.08399525284767151,
        -0.10036861151456833,
        -0.24438385665416718,
        -0.12478266656398773,
        0.0029384330846369267,
        -0.008380448445677757,
        -0.12376836687326431,
        0.1773536056280136,
        -0.027824271470308304,
        0.01473055500537157,
        -0.08353777974843979,
        -0.1586252748966217,
        0.25973430275917053,
        0.17815649509429932,
        0.1838049292564392,
        -0.024189215153455734,
        -0.19401447474956512,
        0.07977628707885742,
        0.09688952565193176,
        -0.03006204031407833,
        -0.15358895063400269,
        0.05426984652876854,
        -0.2411886751651764,
        -0.10059931129217148,
        0.11640878766775131,
        -0.021375074982643127,
        0.08215175569057465,
        -0.013291623443365097,
        -0.049246955662965775,
        -0.1012730523943901,
        0.023405717685818672,
        0.054907191544771194,
        0.1022271066904068,
        0.04757760465145111,
        0.0031866966746747494,
        -0.03687840700149536,
        0.167735293507576,
        -0.04507148265838623,
        -0.08927957713603973,
        -0.03730699047446251,
        -0.17742852866649628,
        0.03576399385929108,
        0.00012092969700461254,
        -0.16743670403957367,
        -0.15680840611457825,
        0.16994072496891022,
        -0.11523035168647766,
        0.07080350816249847,
        0.1821250021457672,
        -0.01839391142129898,
        -0.03125549107789993,
        0.05489392206072807,
        -0.1337466537952423,
        -0.02689153514802456,
        0.15795499086380005,
        -0.021760892122983932,
        0.14410853385925293,
        -0.07850980013608932,
        -0.3527796268463135,
        -0.059341978281736374,
        0.19330772757530212,
        0.32795679569244385,
        -0.18364569544792175,
        0.04642979055643082,
        -0.11288870126008987,
        0.13534308969974518,
        0.16871413588523865,
        -0.26621076464653015,
        0.09600034356117249,
        0.11129793524742126,
        -0.2316679060459137,
        0.09266751259565353,
        0.008104825392365456,
        0.2656370997428894,
        -0.0895366296172142,
        -0.10139749199151993,
        -0.18871179223060608,
        0.07991081476211548,
        0.007846117950975895,
        0.19999516010284424,
        0.03275855630636215,
        -0.06767396628856659,
        -0.15146738290786743,
        0.016653690487146378,
        0.10156634449958801,
        0.08435871452093124,
        -0.1385107934474945,
        -0.1411060243844986,
        -0.05333421006798744,
        0.012240907177329063,
        0.058957017958164215,
        -0.26145508885383606,
        0.18452396988868713,
        0.20354732871055603,
        -0.29707667231559753,
        -0.0673469752073288,
        -0.05786340683698654,
        -0.1908491551876068,
        0.015838056802749634,
        -0.03903127834200859,
        -0.24038967490196228,
        0.07416149973869324,
        -0.026057761162519455,
        0.04451160505414009,
        -0.09547480195760727,
        -0.19315007328987122,
        -0.10912500321865082,
        0.14375780522823334,
        0.07507029920816422,
        0.13552281260490417,
        -0.08149866759777069,
        -0.02044568583369255,
        -0.25122106075286865,
        -0.11197799444198608,
        0.29188594222068787,
        -0.20750552415847778,
        0.057068221271038055,
        0.1402989625930786,
        -0.15432947874069214,
        -0.004384497180581093,
        0.2480219602584839,
        0.11087719351053238,
        -0.16726280748844147,
        -0.2233884483575821,
        -0.16959445178508759,
        0.10232418030500412,
        0.07882729172706604,
        0.251358300447464,
        -0.06114058941602707,
        -0.17695048451423645,
        -0.01373656652867794,
        0.08955860882997513,
        0.2625733017921448,
        0.19713068008422852,
        -0.07965075969696045,
        -0.25540000200271606,
        -0.11991661787033081,
        0.15133363008499146,
        0.10348523408174515,
        -0.23885522782802582,
        0.09205890446901321,
        0.2983846664428711,
        -0.1565791815519333,
        -0.09098794311285019,
        0.021320663392543793,
        -0.0819890946149826,
        0.018796605989336967,
        0.08122389018535614,
        -0.09179223328828812,
        0.07897038012742996,
        0.2668372690677643,
        0.031260956078767776,
        -0.15025776624679565,
        -0.15997247397899628,
        -0.2763476073741913,
        0.00480005843564868,
        0.2263558804988861,
        0.1898166537284851,
        -0.017299098894000053,
        -0.010669401846826077,
        0.014574311673641205,
        0.023222045972943306,
        0.014203643426299095,
        -0.17925040423870087,
        -0.206192746758461,
        0.27745237946510315,
        -0.1837828904390335,
        -0.17092348635196686,
        0.21302004158496857,
        0.046525634825229645,
        0.03010675311088562,
        -0.15389074385166168,
        -0.16612641513347626,
        -0.22223472595214844,
        0.26601722836494446,
        0.060714565217494965,
        0.1577981561422348,
        -0.01571626402437687,
        -0.04832049086689949,
        -0.08326956629753113,
        0.27428102493286133,
        0.14277957379817963,
        0.036239661276340485,
        -0.016653738915920258,
        -0.09083463996648788,
        -0.24740788340568542,
        0.10369200259447098,
        -0.2271987795829773,
        0.019680295139551163,
        0.11746449768543243,
        -0.2565881311893463,
        -0.11652221530675888,
        0.22979019582271576,
        -0.08883514255285263,
        -0.060779258608818054,
        0.15638190507888794,
        -0.06808718293905258,
        -0.14336451888084412,
        0.08177956938743591,
        -0.040083713829517365,
        -0.09017232805490494,
        0.0012515312992036343,
        -0.08044334501028061,
        0.10088668763637543,
        -0.019855432212352753,
        0.0018173687858507037,
        -0.15444818139076233,
        0.21852385997772217,
        -0.07501514256000519,
        0.18083089590072632,
        -0.18278762698173523,
        -0.024640554562211037,
        0.14066092669963837,
        -0.12891718745231628,
        0.13078753650188446,
        -0.046128273010253906,
        -0.1987997591495514,
        -0.06724835187196732,
        -0.029517002403736115,
        0.20010051131248474,
        -0.04795389249920845,
        0.10612352192401886,
        -0.09423770755529404,
        -0.041162531822919846,
        0.04488147795200348,
        -0.041613366454839706,
        0.010523108765482903,
        0.19553864002227783,
        -0.0948193296790123,
        0.10081606358289719,
        -0.09908511489629745,
        0.19388386607170105,
        -0.1279582679271698,
        0.03927944228053093,
        -0.09379734098911285,
        0.06234584003686905,
        0.10606333613395691,
        0.04183370992541313,
        -0.010123660787940025,
        0.05667949467897415,
        0.030217735096812248,
        -0.027946779504418373,
        0.18955691158771515,
        -0.16748984158039093,
        -0.009097502566874027,
        0.05030431970953941,
        -0.010848880745470524,
        0.06480547785758972,
        -0.04100190848112106,
        -0.13783837854862213,
        -0.0634097307920456,
        0.15719960629940033,
        0.03029630519449711,
        0.011790519580245018,
        -0.05426209047436714,
        0.11365070194005966,
        -0.07694710791110992,
        0.009839069098234177,
        0.1216253787279129,
        -0.20059102773666382,
        0.17641304433345795,
        0.04122914373874664,
        -0.1607113927602768,
        0.18616029620170593,
        -0.11055056005716324,
        0.12046841531991959,
        -0.2254244089126587,
        -0.02857385389506817,
        -0.09039438515901566,
        0.21939297020435333,
        -0.07592645287513733,
        0.1851397156715393,
        -0.16113890707492828,
        -0.08966175466775894,
        -0.22763565182685852,
        0.00837885495275259,
        0.144431933760643,
        0.06226716935634613,
        -0.13063673675060272,
        0.019335603341460228,
        0.00420894892886281,
        0.2607090175151825,
        0.13626538217067719,
        -0.1958891898393631,
        0.1024252399802208,
        -0.064813032746315,
        -0.17450766265392303,
        0.17751212418079376,
        0.15666954219341278,
        -0.2097964584827423,
        0.23318640887737274,
        -0.05194048583507538,
        -0.1207524910569191,
        0.25780126452445984,
        -0.013304028660058975,
        -0.09403008967638016,
        -0.22017571330070496,
        -0.03788919746875763,
        -0.11539272964000702,
        -0.09658804535865784,
        0.1554543823003769,
        0.016015036031603813,
        -0.11370754987001419,
        -0.09325094521045685,
        -0.004026893060654402,
        -0.04236742854118347,
        0.1665327101945877,
        0.0038916419725865126,
        0.09405247122049332,
        0.0246938094496727,
        -0.1309330016374588,
        -0.04944208636879921,
        -0.025841904804110527,
        0.11083539575338364,
        0.10474025458097458,
        0.021743107587099075,
        -0.1059289276599884,
        0.028006944805383682,
        0.03335997834801674,
        0.2283562421798706,
        -0.05906165763735771,
        -0.20144090056419373,
        -0.08752823621034622,
        0.0964590385556221,
        -0.02042074128985405,
        0.248810276389122,
        0.05033658817410469,
        -0.20371600985527039,
        -0.15179172158241272,
        0.12267008423805237,
        -0.01023545116186142,
        -0.1609717756509781,
        0.0403849296271801,
        -0.03464895114302635,
        -0.0415177159011364,
        0.07235439866781235,
        0.18877561390399933,
        -0.2135322242975235,
        0.14294452965259552,
        0.01781860738992691,
        0.02980521321296692,
        -0.1379774659872055,
        -0.028493240475654602,
        0.20575211942195892,
        0.05357201024889946,
        -0.021981826052069664,
        -0.04407467320561409,
        -0.17126356065273285,
        -0.05271898955106735,
        -0.13392959535121918,
        0.032350245863199234,
        0.05075908452272415,
        -0.018243560567498207,
        0.018025420606136322,
        0.08509688824415207,
        0.10892093926668167,
        -0.06375681608915329,
        -0.04302673786878586,
        -0.10465233027935028,
        0.0030921443831175566,
        -0.05036190152168274,
        0.03179977089166641,
        0.5088617205619812,
        -0.370271235704422,
        0.6850104331970215,
        -0.5941274762153625,
        -0.12044236063957214,
        0.7899735569953918,
        0.8398624658584595,
        -0.5744372010231018,
        0.16828104853630066,
        0.02810996025800705,
        -0.5182222723960876,
        -0.49601638317108154,
        0.1351676881313324,
        -0.6285659074783325,
        0.14189361035823822,
        0.335112988948822,
        -0.13408632576465607,
        0.24254736304283142,
        -0.02234203740954399,
        0.1306300312280655,
        0.19287607073783875,
        -0.08843214809894562,
        0.10418722778558731,
        -0.03524085134267807,
        -0.03664006292819977,
        -0.057405345141887665,
        0.020499583333730698,
        -0.13939693570137024,
        0.05363970994949341,
        0.016414569690823555,
        0.12631548941135406,
        -0.06328148394823074,
        0.05928061529994011,
        -0.15161673724651337,
        -0.19656577706336975,
        0.06286904215812683,
        0.008348065428435802,
        0.012209801003336906,
        -0.10644989460706711,
        0.01870040036737919,
        0.018120966851711273,
        0.20843693614006042,
        -0.12562580406665802,
        -0.07695648819208145,
        0.06070317327976227,
        -0.09157384186983109,
        0.008844043128192425,
        0.16661496460437775,
        -0.04397262632846832,
        0.15095816552639008,
        0.11599453538656235,
        0.2201433926820755,
        -0.0905679389834404,
        -0.14020760357379913,
        0.18145540356636047,
        -0.23314014077186584,
        0.029864290729165077,
        -0.16221238672733307,
        0.16375209391117096,
        -0.17769187688827515,
        0.276668906211853,
        0.18087971210479736,
        -0.006952526513487101,
        -0.001970261102542281,
        0.13255317509174347,
        -0.19636987149715424,
        -0.04119473695755005,
        -0.19067151844501495,
        0.05061086639761925,
        0.13014468550682068,
        0.006566364783793688,
        0.04493720829486847,
        -0.1743442267179489,
        0.11596919596195221,
        -0.0181305930018425,
        -0.013624833896756172,
        0.1419072449207306,
        0.2102556675672531,
        -0.22308072447776794,
        -0.004332921002060175,
        -0.17722120881080627,
        -0.292262464761734,
        -0.21091556549072266,
        0.15151149034500122,
        0.17107239365577698,
        0.11610174924135208,
        0.1598396599292755,
        -0.2308436930179596,
        0.15660744905471802,
        0.2591787576675415,
        -0.3619403839111328,
        0.1437043845653534,
        -0.0015315451892092824,
        0.04658133536577225,
        -0.31237420439720154,
        0.11007184535264969,
        -0.26105886697769165,
        -0.03203925862908363,
        0.11567120254039764,
        0.07343123108148575,
        0.3083799481391907,
        0.19122521579265594,
        0.29213854670524597,
        0.16652338206768036,
        0.1968134045600891,
        0.0169704370200634,
        -0.20808206498622894,
        -0.12874272465705872,
        -0.0005629403749480844,
        -0.1511354148387909,
        -0.0019797112327069044,
        0.03510252386331558,
        0.1229981854557991,
        0.14438825845718384,
        0.2612951695919037,
        0.19672898948192596,
        -0.2912623882293701,
        -0.16274407505989075,
        0.08077972382307053,
        -0.06436850875616074,
        0.11710046231746674,
        -0.2819843590259552,
        -0.30769655108451843,
        0.01357136107981205,
        0.19569560885429382,
        -0.19079364836215973,
        -0.04380849376320839,
        -0.25453048944473267,
        0.26240336894989014,
        0.09184474498033524,
        0.3095642328262329,
        -0.226434588432312,
        -0.21984483301639557,
        0.1921290159225464,
        0.2854877710342407,
        0.1416599452495575,
        0.11832612007856369,
        -0.17773598432540894,
        0.22827644646167755,
        -0.29302161931991577,
        0.12459386885166168,
        -0.11214178055524826,
        -0.07804667949676514,
        0.07918451726436615,
        -0.155291348695755,
        0.00506563251838088,
        -0.23766008019447327,
        -0.22556133568286896,
        0.1253696233034134,
        -0.11716807633638382,
        -0.17663447558879852,
        0.010620981454849243,
        -0.24655237793922424,
        -0.20969493687152863,
        0.29087626934051514,
        0.23657938838005066,
        0.057116929441690445,
        -0.08835595846176147,
        0.2086135447025299,
        0.01051909476518631,
        -0.3502761423587799,
        -0.09174707531929016,
        0.32128089666366577,
        -0.35775482654571533,
        -0.0020225676707923412,
        0.11654546111822128,
        0.34339410066604614,
        0.062378764152526855,
        0.09236864000558853,
        0.38292011618614197,
        0.2842812240123749,
        0.06466145068407059,
        0.3640144169330597,
        0.14761845767498016,
        -0.1774275004863739,
        0.11995410919189453,
        0.17150342464447021,
        0.26182615756988525,
        -0.26631301641464233,
        0.16291691362857819,
        -0.17268253862857819,
        -0.21262143552303314,
        -0.015594757162034512,
        -0.15364190936088562,
        0.023463377729058266,
        -0.20859652757644653,
        -0.2191130816936493,
        -0.05193273723125458,
        -0.12822432816028595,
        0.16743409633636475,
        0.0664505660533905,
        0.14727671444416046,
        0.1330435574054718,
        -0.04006582126021385,
        0.13042545318603516,
        0.07406838238239288,
        -0.18443511426448822,
        -0.03200395405292511,
        -0.11321655660867691,
        -0.23898917436599731,
        0.05689498409628868,
        -0.3020726442337036,
        -0.30572110414505005,
        -0.44473275542259216,
        -0.1973012238740921,
        0.08345029503107071,
        -0.42065051198005676,
        -0.2870473861694336,
        -0.25073549151420593,
        -0.0009056461858563125,
        0.1950824111700058,
        0.07275184988975525,
        0.31120824813842773,
        -0.21120940148830414,
        0.16228848695755005,
        0.15678445994853973,
        0.2480994313955307,
        0.019251225516200066,
        -0.10453477501869202,
        0.2242138832807541,
        0.3382945656776428,
        -0.2433256208896637,
        -0.2270556092262268,
        0.1188327968120575,
        -0.02558583766222,
        -0.14755675196647644,
        -0.18443633615970612,
        0.1484391987323761,
        -0.10948807746171951,
        0.09084634482860565,
        0.11822719871997833,
        0.0367482490837574,
        -0.049146782606840134,
        -0.14746227860450745,
        0.006082539912313223,
        0.10865215212106705,
        -0.19225651025772095,
        -0.01972118392586708,
        -0.12203465402126312,
        0.08039270341396332,
        -0.3782654106616974,
        0.27526095509529114,
        -0.039979372173547745,
        -0.13027921319007874,
        0.3021058440208435,
        -0.07980949431657791,
        0.24979928135871887,
        0.21805903315544128,
        -0.27015596628189087,
        0.13007202744483948,
        0.07024798542261124,
        0.19298863410949707,
        0.22438040375709534,
        0.1302345097064972,
        -0.11857814341783524,
        0.004509185440838337,
        0.15574993193149567,
        0.01599176786839962,
        0.21247713267803192,
        -0.15920031070709229,
        0.0010175242787227035,
        0.22949360311031342,
        0.17885686457157135,
        0.3765888810157776,
        -0.11065664887428284,
        -0.03870490938425064,
        0.1324554681777954,
        -0.15659570693969727,
        0.15307492017745972,
        0.1799434870481491,
        0.13770487904548645,
        0.06754787266254425,
        0.12261063605546951,
        -0.1185113713145256,
        0.14637430012226105,
        -0.16161881387233734,
        -0.1166689544916153,
        -0.05548281595110893,
        0.1129697635769844,
        -0.016809813678264618,
        0.06660281866788864,
        -0.15270860493183136,
        0.08064813911914825,
        0.0037105947267264128,
        -0.018641361966729164,
        0.13661544024944305,
        0.0539681501686573,
        0.008361694402992725,
        -0.0018239238997921348,
        -0.04886598140001297,
        0.001222651218995452,
        0.10518736392259598,
        -0.0685642808675766,
        0.09834008663892746,
        -0.1018347442150116,
        -0.04940379038453102,
        0.009846236556768417,
        -0.1386743187904358,
        0.0011241440661251545,
        -0.013118392787873745,
        -0.034851934760808945,
        -0.05592784285545349,
        0.06385493278503418,
        0.15741108357906342,
        -0.08307947963476181,
        0.01957840844988823,
        -0.08006958663463593,
        -0.06688281893730164,
        0.14620663225650787,
        0.07535537332296371,
        -0.051445700228214264,
        -0.1539468765258789,
        -0.09176121652126312,
        0.0901266559958458,
        -0.09370356053113937,
        -0.0859002098441124,
        0.04507693648338318,
        -0.10466897487640381,
        -0.18624310195446014,
        -0.08068184554576874,
        0.04526902362704277,
        -0.18679185211658478,
        -0.15991872549057007,
        0.036632586270570755,
        -0.18227322399616241,
        -0.047851137816905975,
        -0.09359963238239288,
        -0.11491342633962631,
        0.07977399975061417,
        -0.09252935647964478,
        -0.15090516209602356,
        0.03500453382730484,
        -0.10336122661828995,
        0.20759154856204987,
        -0.016300799325108528,
        -0.09303971379995346,
        -0.03664032742381096,
        0.035014472901821136,
        0.11693887412548065,
        -0.12201658636331558,
        -0.06349882483482361,
        -0.017100468277931213,
        -0.10602923482656479,
        -0.060277827084064484,
        0.1386532485485077,
        -0.1258377581834793,
        0.14224988222122192,
        -0.06511710584163666,
        -0.0008212205721065402,
        -0.1761746108531952,
        0.1059400886297226,
        -0.1349664032459259,
        -0.128785640001297,
        -0.11489535868167877,
        0.13787975907325745,
        -0.22886855900287628,
        -0.025569885969161987,
        0.22379323840141296,
        -0.10129974782466888,
        -0.05412422493100166,
        -0.14625342190265656,
        0.2459123134613037,
        0.006387860048562288,
        0.1333332061767578,
        0.13544797897338867,
        -0.20615652203559875,
        0.03840460255742073,
        -0.06343381851911545,
        0.07077115029096603,
        -0.07587158679962158,
        -0.3694126605987549,
        0.19506052136421204,
        -0.1442481130361557,
        0.13580554723739624,
        0.0039793867617845535,
        -0.011605228297412395,
        0.0943460538983345,
        0.06898585706949234,
        -0.2007216364145279,
        0.21578364074230194,
        -0.05757570266723633,
        0.03600296378135681,
        0.2546005845069885,
        -0.21467474102973938,
        -0.10187676548957825,
        -0.08527176082134247,
        -0.010572444647550583,
        0.14143085479736328,
        0.16734835505485535,
        -0.10842909663915634,
        -0.05550994724035263,
        0.012878254987299442,
        0.07164265960454941,
        0.1259024441242218,
        -0.006979618687182665,
        -0.051988620311021805,
        0.1460713893175125,
        0.017261451110243797,
        0.0738457590341568,
        0.03169064223766327,
        0.28130149841308594,
        0.038135625422000885,
        0.1845647096633911,
        -0.05105050653219223,
        -0.08661603927612305,
        -0.077057383954525,
        -0.051841698586940765,
        0.031224150210618973,
        -0.07479795068502426,
        -0.17430882155895233,
        0.017673872411251068,
        -0.029369454830884933,
        0.17610256373882294,
        -0.10484254360198975,
        -0.15870431065559387,
        -0.2562037706375122,
        0.1369112879037857,
        0.1255788654088974,
        -0.104390449821949,
        -0.020190782845020294,
        0.12252484261989594,
        0.17417635023593903,
        0.05907159298658371,
        -0.022125810384750366,
        -0.05012910068035126,
        0.0738181546330452,
        -0.13720156252384186,
        0.07877104729413986,
        0.13598115742206573,
        -0.09800019860267639,
        0.11546573787927628,
        0.13722489774227142,
        -0.021507680416107178,
        -0.09918535500764847,
        -0.026398276910185814,
        -0.09643878787755966,
        0.15144921839237213,
        0.16320399940013885,
        0.10706880688667297,
        -0.10496290028095245,
        -0.23666121065616608,
        0.13711681962013245,
        0.013922272250056267,
        -0.1537674218416214,
        0.008354431949555874,
        -0.10975182056427002,
        -0.08656752109527588,
        -0.07298964262008667,
        0.014108022674918175,
        0.07771958410739899,
        0.020542729645967484,
        0.25826331973075867,
        -0.04629994556307793,
        -0.21569308638572693,
        0.06924410909414291,
        0.17236894369125366,
        0.1855345219373703,
        -0.3807058036327362,
        -0.027093060314655304,
        0.16282223165035248,
        -0.2562127113342285,
        0.14121907949447632,
        0.10468370467424393,
        0.03686872124671936,
        -0.08061627298593521,
        0.04627825692296028,
        0.4081479012966156,
        0.05963131785392761,
        0.3048700988292694,
        -0.27652981877326965,
        -0.15535762906074524,
        0.11262040585279465,
        -0.2096351832151413,
        -0.210564985871315,
        0.21401362121105194,
        -0.5261951088905334,
        0.1164517030119896,
        0.025865288451313972,
        -0.039652206003665924,
        0.21121792495250702,
        -0.09364784508943558,
        -0.02583226002752781,
        0.01565634459257126,
        -0.0006360085681080818,
        0.0700925961136818,
        -0.06897789984941483,
        -0.030130572617053986,
        0.07633980363607407,
        -0.05632936581969261,
        -0.11404464393854141,
        0.08021887391805649,
        0.09519629180431366,
        0.020437918603420258,
        -0.016014276072382927,
        -0.10089989006519318,
        -0.08051718771457672,
        0.13818614184856415,
        -0.046274617314338684,
        0.13867394626140594,
        -0.1412312090396881,
        -0.06655117124319077,
        -0.04354213550686836,
        0.12101779133081436,
        0.10983347147703171,
        0.038333289325237274,
        0.02527245320379734,
        -0.05054847151041031,
        -0.13946758210659027,
        -0.09721936285495758,
        0.020646007731556892,
        0.1636039763689041,
        -0.09835276007652283,
        -0.044648703187704086,
        0.020493319258093834,
        0.0012675971956923604,
        0.026002032682299614,
        -0.09575793147087097,
        -0.11036478728055954,
        0.0863671749830246,
        0.06513389945030212,
        -0.01048098225146532,
        0.03377453610301018,
        -0.013570533134043217,
        -0.05807606875896454,
        -0.05334644019603729,
        -0.01762581430375576,
        0.007794818840920925,
        -0.01853133551776409,
        -0.059221647679805756,
        -0.08913267403841019,
        -0.08540415018796921,
        -0.09139709919691086,
        0.12478964775800705,
        0.06825155764818192,
        -0.07444706559181213,
        -0.07653922587633133,
        0.01971069909632206,
        -0.02104225754737854,
        0.11320441216230392,
        0.07091224193572998,
        -0.10495956242084503,
        0.030893301591277122,
        0.0433942973613739,
        0.05698161572217941,
        -0.03210602328181267,
        0.018569722771644592,
        0.1578681468963623,
        -0.17334342002868652,
        -0.0010262446012347937,
        0.15338343381881714,
        -0.06864292174577713,
        0.1710057109594345,
        0.1294110119342804,
        0.260574072599411,
        -0.061127133667469025,
        0.11768238246440887,
        0.024482086300849915,
        -0.01615534909069538,
        0.14332306385040283,
        -0.034665193408727646,
        0.029928889125585556,
        0.2379186451435089,
        -0.3214770555496216,
        0.052053701132535934,
        0.0004190795007161796,
        0.1924256682395935,
        0.08601371943950653,
        -0.06895961612462997,
        -0.11928419768810272,
        0.09503882378339767,
        -0.2007800191640854,
        0.21340890228748322,
        -0.16011615097522736,
        -0.019698385149240494,
        0.1425914764404297,
        0.07363893836736679,
        -0.01783459447324276,
        0.09686017036437988,
        0.020144039765000343,
        0.08577525615692139,
        0.17981989681720734,
        -0.05070542171597481,
        -0.0860857293009758,
        -0.09315821528434753,
        0.1526806652545929,
        0.1369970291852951,
        0.007675107568502426,
        -0.007119264919310808,
        -0.09113147854804993,
        0.15356573462486267,
        -0.03723322972655296,
        0.2012711614370346,
        0.1868991255760193,
        0.011411750689148903,
        0.12034936994314194,
        -0.016084641218185425,
        0.11380419880151749,
        0.004983429331332445,
        0.08729001134634018,
        -0.0783238410949707,
        -0.04568758234381676,
        -0.14441798627376556,
        -0.06070128455758095,
        0.13541771471500397,
        0.10840331763029099,
        -0.006515529006719589,
        0.012745724990963936,
        -0.11632110178470612,
        0.16510432958602905,
        -0.13185462355613708,
        0.04962240904569626,
        0.04007808864116669,
        0.017640890553593636,
        0.2257004827260971,
        0.12345246970653534,
        -0.04908543825149536,
        0.061119623482227325,
        -0.14660488069057465,
        -0.14496615529060364,
        -0.008676745928823948,
        -0.11731599271297455,
        -0.01796257682144642,
        -0.06643901020288467,
        -0.10613420605659485,
        -0.1727355271577835,
        -0.0008986150496639311,
        0.1280817985534668,
        0.10360271483659744,
        -0.03992071747779846,
        -0.09669815003871918,
        -0.16495069861412048,
        0.011773314327001572,
        0.11958394944667816,
        -0.05088832974433899,
        -0.0711582750082016,
        -0.05480989068746567,
        -0.003533916547894478,
        -0.1531423032283783,
        -0.14322124421596527,
        0.2148744910955429,
        -0.12913836538791656,
        -0.09747124463319778,
        -0.05618753656744957,
        -0.07456766813993454,
        0.06546912342309952,
        0.12274694442749023,
        -0.06669400632381439,
        -0.047058913856744766,
        -0.04704601690173149,
        -0.14765802025794983,
        0.15472781658172607,
        0.19220532476902008,
        0.06430716812610626,
        -0.05243394896388054,
        -0.027235865592956543,
        -0.08637937158346176,
        0.050631120800971985,
        -0.09347808361053467,
        0.03464355319738388,
        0.11008403450250626,
        -0.09846853464841843,
        -0.187400683760643,
        -0.03259015455842018,
        -0.18211808800697327,
        -0.025407440960407257,
        -0.11351998150348663,
        0.0963665246963501,
        -0.09131043404340744,
        0.0226228516548872,
        0.035730283707380295,
        -0.022570332512259483,
        -0.025669019669294357,
        0.1775723695755005,
        0.13301554322242737,
        -0.11996296048164368,
        -0.1983877420425415,
        -0.14401371777057648,
        -0.07668139785528183,
        0.18904727697372437,
        0.035467229783535004,
        0.13330276310443878,
        0.12239615619182587,
        -0.0279384795576334,
        -0.10318628698587418,
        0.14242984354496002,
        0.14247892796993256,
        0.07256834954023361,
        -0.17147038877010345,
        0.16588641703128815,
        0.05063701421022415,
        0.0736483782529831,
        0.05544586107134819,
        0.022452164441347122,
        -0.2535610795021057,
        -0.07066882401704788,
        0.11404477804899216,
        0.049869757145643234,
        -0.2017868012189865,
        0.0605192556977272,
        -0.06576269865036011,
        0.1257660835981369,
        -0.10082963854074478,
        0.14803527295589447,
        -0.07757364213466644,
        -0.11716888844966888,
        0.029676584526896477,
        -0.008170822635293007,
        0.06206849589943886,
        0.098309226334095,
        0.24037133157253265,
        -0.044183071702718735,
        0.02041907049715519,
        -0.10831588506698608,
        -0.1700841635465622,
        0.06389298290014267,
        -0.029882870614528656,
        -0.02089224010705948,
        -0.10658503323793411,
        -0.04620743542909622,
        -0.04257281869649887,
        0.11017493158578873,
        0.06652818620204926,
        -0.03952544927597046,
        -0.07351215928792953,
        0.08379905670881271,
        0.12963826954364777,
        -0.11465248465538025,
        -0.03613298013806343,
        -0.06171543151140213,
        -0.04352027177810669,
        0.1255544275045395,
        -0.055792488157749176,
        0.08505403250455856,
        -0.06547538191080093,
        -0.03240542486310005,
        -0.16258950531482697,
        -0.12016472220420837,
        0.0989752858877182,
        0.04681972414255142,
        -0.043476756662130356,
        0.08028965443372726,
        -0.12744025886058807,
        0.0721319168806076,
        0.1734653264284134,
        0.0651920735836029,
        0.1526707410812378,
        -0.03895087540149689,
        -0.12174137681722641,
        -0.08918236941099167,
        0.07532690465450287,
        -0.029061568900942802,
        0.0470954068005085,
        0.07180430740118027,
        0.012782417237758636,
        -0.06880661100149155,
        -0.0062440913170576096,
        -0.07843662053346634,
        -0.22132503986358643,
        -0.1949584037065506,
        -0.09978020191192627,
        0.018087703734636307,
        -0.006897332146763802,
        -0.09376044571399689,
        -0.21910300850868225,
        0.020022762939333916,
        -0.04400914907455444,
        0.0797724798321724,
        -0.04727994278073311,
        -0.035679399967193604,
        0.07772018760442734,
        -0.14831413328647614,
        -0.1417878419160843,
        0.08326869457960129,
        -0.07395514100790024,
        0.009568148292601109,
        0.015139077790081501,
        0.04754889756441116,
        -0.10076507180929184,
        -0.0553346648812294,
        -0.0008119252743199468,
        -0.056097351014614105,
        0.05829823762178421,
        -0.12453567236661911,
        -0.0010838579619303346,
        0.06576552987098694,
        0.10381004959344864,
        -0.1566621959209442,
        0.1236761063337326,
        0.06096247583627701,
        -0.10372341424226761,
        0.0971447005867958,
        0.18023890256881714,
        0.07437357306480408,
        -0.14356763660907745,
        0.05564375966787338,
        -0.05378085747361183,
        -0.20044976472854614,
        0.008549048565328121,
        0.12153127044439316,
        0.004638241603970528,
        -0.1944965124130249,
        0.04768738895654678,
        0.23626388609409332,
        -0.09791599214076996,
        0.04677584394812584,
        0.003288165433332324,
        0.00018346145225223154,
        0.05850466713309288,
        -0.08084199577569962,
        0.001205591601319611,
        0.20174536108970642,
        -0.0045400881208479404,
        0.01830858737230301,
        -0.016514655202627182,
        -0.23068879544734955,
        0.09058840572834015,
        0.19555550813674927,
        0.019473383203148842,
        -0.21615897119045258,
        -0.0663767009973526,
        0.0017363735241815448,
        -0.10298418253660202,
        0.02377881482243538,
        0.10260703414678574,
        0.009327909909188747,
        0.08607745915651321,
        0.02635352872312069,
        -0.0073957317508757114,
        0.035294365137815475,
        0.13578416407108307,
        -0.06015773490071297,
        -0.165205717086792,
        0.25079581141471863,
        0.14762099087238312,
        -0.038203444331884384,
        -0.06295356899499893,
        0.014507392421364784,
        -0.0686526969075203,
        0.19844099879264832,
        0.20842623710632324,
        0.24252857267856598,
        -0.2737897038459778,
        -0.2422064244747162,
        -0.2645204961299896,
        0.14401720464229584,
        0.05957881361246109,
        0.10390830785036087,
        -0.0004635992809198797,
        -0.22213202714920044,
        0.022476980462670326,
        0.0845416933298111,
        -0.12222711741924286,
        0.04868168383836746,
        0.11559126526117325,
        -0.09153934568166733,
        0.18201826512813568,
        -0.0153732281178236,
        -0.13970105350017548,
        0.16640283167362213,
        0.08700630813837051,
        -0.10929499566555023,
        -0.2824023962020874,
        -0.023063361644744873,
        0.22408907115459442,
        -0.06823747605085373,
        0.012342609465122223,
        -0.11460530757904053,
        0.09476923942565918,
        0.06759431213140488,
        -0.008459779433906078,
        0.11538110673427582,
        0.09043385088443756,
        -0.0939100980758667,
        0.011263172142207623,
        0.05400824174284935,
        -0.055045150220394135,
        0.12623478472232819,
        -0.06703716516494751,
        -0.09320104867219925,
        -0.17244872450828552,
        -0.23972105979919434,
        0.17790746688842773,
        -0.09120360761880875,
        -0.13160225749015808,
        -0.08021967858076096,
        -0.16591250896453857,
        -0.13242293894290924,
        0.09036503732204437,
        -0.03527233749628067,
        0.1117754727602005,
        0.04710149019956589,
        -0.07179000973701477,
        -0.010922684334218502,
        -0.09418105334043503,
        0.18715257942676544,
        0.20347847044467926,
        -0.02834138460457325,
        0.1509546935558319,
        -0.13960984349250793,
        -0.031006302684545517,
        0.047084007412195206,
        -0.19409987330436707,
        0.08630965650081635,
        -0.018037769943475723,
        -0.03223123773932457,
        -0.12233294546604156,
        0.09645340591669083,
        -0.11021655797958374,
        0.04191377013921738,
        0.02454049326479435,
        0.09946366399526596,
        0.04006059095263481,
        -0.05464520677924156,
        -0.11440502852201462,
        0.05636579170823097,
        0.03931145370006561,
        0.13749730587005615,
        0.10973401367664337,
        0.11768975853919983,
        -0.06594779342412949,
        0.0801321491599083,
        -0.018253501504659653,
        -0.08363731950521469,
        -0.005420521833002567,
        -0.008404828608036041,
        0.08251966536045074,
        0.16257226467132568,
        -0.1028849333524704,
        -0.0641598030924797,
        -0.05895736813545227,
        -0.07862065732479095,
        0.15163937211036682,
        0.042796410620212555,
        0.0506417341530323,
        0.0517721027135849,
        0.017908087000250816,
        0.1189286932349205,
        -0.249420627951622,
        0.051026057451963425,
        0.11600982397794724,
        -0.23917138576507568,
        0.17988109588623047,
        -0.03162018209695816,
        0.12574729323387146,
        -0.10732480883598328,
        -0.12039011716842651,
        0.3348403573036194,
        -0.06103832274675369,
        -0.030832823365926743,
        -0.2686309516429901,
        -0.0054631419479846954,
        0.09046400338411331,
        0.07080328464508057,
        -0.14198347926139832,
        0.1596270203590393,
        -0.28534772992134094,
        -0.05918153002858162,
        -0.023857468739151955,
        -0.20579609274864197,
        0.08605478703975677,
        -0.017614204436540604,
        0.04880177974700928,
        -0.16757994890213013,
        -0.011080664582550526,
        0.1503378003835678,
        -0.031988006085157394,
        0.09369142353534698,
        0.14744539558887482,
        0.036947451531887054,
        0.03295082226395607,
        0.02976393885910511,
        0.03238772600889206,
        -0.02353239431977272,
        0.06039620190858841,
        0.0027820896357297897,
        -0.09149843454360962,
        -0.1297333985567093,
        -0.24609066545963287,
        0.11847984045743942,
        0.08423490822315216,
        0.1204027608036995,
        -0.2043950855731964,
        -0.1544090360403061,
        -0.1829041838645935,
        0.1909187287092209,
        0.07451342046260834,
        -0.03295005112886429,
        -0.20087923109531403,
        -0.07541801035404205,
        0.0381205752491951,
        0.30417707562446594,
        0.19455008208751678,
        0.30891475081443787,
        0.36132147908210754,
        -0.04654074087738991,
        0.12983392179012299,
        0.18864724040031433,
        0.2530227303504944,
        -0.11950592696666718,
        0.006386614870280027,
        0.0066252113319933414,
        -0.03593200072646141,
        -0.24847066402435303,
        0.10816259682178497,
        -0.30452269315719604,
        -0.08750404417514801,
        -0.05317433178424835,
        -0.04704643040895462,
        -0.05643443763256073,
        0.09443291276693344,
        -0.14611776173114777,
        0.03710474073886871,
        0.06424631178379059,
        0.10879087448120117,
        0.08034641295671463,
        0.04937279596924782,
        0.03472243249416351,
        0.05135698989033699,
        0.06462834775447845,
        -0.13583487272262573,
        -0.05226226896047592,
        0.007464926224201918,
        0.04263843223452568,
        -0.159573495388031,
        -0.13539190590381622,
        0.07997317612171173,
        0.06354840844869614,
        0.09961928427219391,
        -0.18524517118930817,
        -0.03291923180222511,
        -0.14574511349201202,
        -0.06102542579174042,
        -0.024449631571769714,
        -0.012335503473877907,
        -0.07384149730205536,
        -0.16927380859851837,
        0.13229362666606903,
        0.17926329374313354,
        0.1270913928747177,
        0.10731256753206253,
        -0.18242883682250977,
        0.006698328536003828,
        -0.07847671210765839,
        -0.015288090333342552,
        -0.03477225825190544,
        -0.06776231527328491,
        0.029678326100111008,
        0.07846628874540329,
        0.13167643547058105,
        -0.1062726229429245,
        0.02672949992120266,
        -0.03597388043999672,
        0.05905276909470558,
        -0.06850331276655197,
        0.15626280009746552,
        0.16718719899654388,
        0.11449182778596878,
        0.05788387358188629,
        -0.031006786972284317,
        0.0863386020064354,
        -0.07830735296010971,
        0.09669997543096542,
        0.10678543895483017,
        0.10718338936567307,
        -0.06905874609947205,
        -0.05607534945011139,
        0.04579070582985878,
        0.06671354174613953,
        0.08506640791893005,
        0.05233018845319748,
        0.046983301639556885,
        -0.0374780036509037,
        -0.3285908102989197,
        0.23047736287117004,
        0.19268053770065308,
        -0.4727426767349243,
        0.09608269482851028,
        -0.7280765175819397,
        -0.31678372621536255,
        -0.42294323444366455,
        0.9166918396949768,
        -0.8707614541053772,
        -0.4347694516181946,
        -0.7456120252609253,
        0.25252455472946167,
        -0.7687067985534668,
        0.2391536980867386,
        -0.6129546165466309,
        -0.09344504028558731,
        -0.10667986422777176,
        -0.014262037351727486,
        0.3344629406929016,
        0.20959483087062836,
        -0.04484136402606964,
        -0.2186216562986374,
        -0.06417575478553772,
        -0.10232335329055786,
        -0.048528168350458145,
        0.14503467082977295,
        0.18563184142112732,
        0.20325207710266113,
        0.2145826667547226,
        -0.10856220871210098,
        -0.015303723514080048,
        -0.02725837007164955,
        -0.0740261822938919,
        -0.044768769294023514,
        -0.11115873605012894,
        -0.17910058796405792,
        0.15795187652111053,
        -0.08623195439577103,
        -0.26657575368881226,
        0.3268609046936035,
        -0.1433754563331604,
        0.07716520130634308,
        0.2673954963684082,
        0.13622331619262695,
        -0.19132037460803986,
        0.13608333468437195,
        0.19264893233776093,
        -0.00696944072842598,
        -0.07496333122253418,
        0.03181324526667595,
        -0.032166533172130585,
        0.006825155578553677,
        0.17320621013641357,
        0.02836231328547001,
        0.11229244619607925,
        -0.12890425324440002,
        -0.02412751503288746,
        -0.3014984428882599,
        -0.40932369232177734,
        -0.05963338166475296,
        -0.1661638468503952,
        0.11124496906995773,
        -0.046392884105443954,
        0.08412481844425201,
        0.05627412348985672,
        -0.20165297389030457,
        -0.09548080712556839,
        -0.14748966693878174,
        -0.054759055376052856,
        -0.04440129175782204,
        -0.09798210859298706,
        0.10439459979534149,
        0.03683561459183693,
        0.13522309064865112,
        0.403227835893631,
        0.16305111348628998,
        0.09231267124414444,
        -0.023760665208101273,
        0.04370134696364403,
        0.31433334946632385,
        0.015240432694554329,
        -0.24903790652751923,
        -0.15803183615207672,
        -0.05533479154109955,
        -0.10527169704437256,
        -0.07797377556562424,
        0.2900847792625427,
        0.08666028082370758,
        -0.10137683153152466,
        -0.11885300278663635,
        0.12081999331712723,
        -0.14432908594608307,
        -0.09056214988231659,
        -0.13535445928573608,
        -0.23459593951702118,
        -0.19146400690078735,
        -0.1583022028207779,
        -0.27466845512390137,
        0.10461020469665527,
        0.022328555583953857,
        -0.15951761603355408,
        -0.024952970445156097,
        -0.07049762457609177,
        0.10261471569538116,
        0.23702815175056458,
        -0.0013105359394103289,
        -0.04318742826581001,
        -0.16892677545547485,
        0.10936150699853897,
        0.07707006484270096,
        0.09146621823310852,
        -0.03801296278834343,
        -0.15238136053085327,
        0.187935471534729,
        -0.17747393250465393,
        0.2160496860742569,
        0.18684445321559906,
        -0.2718287408351898,
        -0.2661949098110199,
        0.32403528690338135,
        0.018770156428217888,
        -0.12080178409814835,
        0.2710309624671936,
        0.08052237331867218,
        0.1250515878200531,
        -0.12653179466724396,
        0.2908502221107483,
        0.04391038417816162,
        0.027466703206300735,
        0.13678351044654846,
        0.13215745985507965,
        0.16029082238674164,
        -0.0936269536614418,
        -0.05597192794084549,
        0.05751418322324753,
        0.08887622505426407,
        0.254678338766098,
        -0.27000123262405396,
        0.04223484545946121,
        -0.13230179250240326,
        -0.21157991886138916,
        0.19956780970096588,
        0.029956700280308723,
        -0.031265776604413986,
        0.09726133942604065,
        -0.2090824842453003,
        -0.10072679817676544,
        -0.20323801040649414,
        -0.1890714168548584,
        0.035252366214990616,
        -0.1381162703037262,
        0.04859599843621254,
        0.03166429325938225,
        0.2713879346847534,
        -0.04693342745304108,
        -0.04193616658449173,
        0.35952186584472656,
        -0.08959625661373138,
        0.26734447479248047,
        -0.13061046600341797,
        -0.03397906944155693,
        -0.015856225043535233,
        0.34473174810409546,
        0.03208670765161514,
        -0.15695281326770782,
        0.18250061571598053,
        -0.07941406220197678,
        0.19524896144866943,
        0.010704672895371914,
        0.19358639419078827,
        0.3714958131313324,
        0.17450012266635895,
        0.016674164682626724,
        0.17811469733715057,
        -0.12208138406276703,
        -0.15347228944301605,
        -0.07540232688188553,
        -0.19091984629631042,
        0.046954136341810226,
        0.18459835648536682,
        -0.09820713847875595,
        -0.09150310605764389,
        -0.06240025907754898,
        0.20237211883068085,
        0.26262611150741577,
        -0.1604047417640686,
        0.17086462676525116,
        0.19372226297855377,
        0.10727860033512115,
        -0.05489088222384453,
        0.13322792947292328,
        0.1902378648519516,
        0.37056443095207214,
        -0.25429248809814453,
        -0.37642839550971985,
        -0.13277143239974976,
        -0.02832886017858982,
        0.028005197644233704,
        0.2064361572265625,
        -0.34466367959976196,
        0.15961383283138275,
        0.17739802598953247,
        -0.2848317325115204,
        0.09048935025930405,
        -0.43838825821876526,
        0.040989480912685394,
        -0.13600336015224457,
        -0.14719131588935852,
        -0.16142430901527405,
        -0.2657330632209778,
        0.16687749326229095,
        0.0238704401999712,
        -0.036970898509025574,
        -0.23970606923103333,
        0.1427571326494217,
        -0.2228003889322281,
        -0.0047937785275280476,
        -0.18451543152332306,
        -0.2623646855354309,
        0.33548372983932495,
        0.034876275807619095,
        -0.06629151850938797,
        0.027563614770770073,
        0.08665845543146133,
        0.028404543176293373,
        -0.311932772397995,
        0.3063564598560333,
        -0.1934220939874649,
        -0.04606504738330841,
        -0.13322697579860687,
        -0.042853422462940216,
        -0.023562395945191383,
        0.24777814745903015,
        0.11121607571840286,
        -0.08000589162111282,
        0.3523816466331482,
        0.5582837462425232,
        -0.02672962285578251,
        -0.021104643121361732,
        0.16418875753879547,
        0.20978578925132751,
        0.06691070646047592,
        -0.006612639874219894,
        -0.24212126433849335,
        -0.061140257865190506,
        0.266588419675827,
        0.08437114208936691,
        -0.13083691895008087,
        -0.017159001901745796,
        -0.20639042556285858,
        -0.15219128131866455,
        -0.2529544234275818,
        0.1861449033021927,
        0.18685895204544067,
        0.011918374337255955,
        0.2237764149904251,
        -0.25800177454948425,
        -0.05170338973402977,
        0.12338171899318695,
        -0.23935960233211517,
        0.06196901574730873,
        -0.09059459716081619,
        0.14000017940998077,
        0.1745648980140686,
        -0.23040556907653809,
        0.19218012690544128,
        0.17659404873847961,
        -0.2553601861000061,
        0.20568417012691498,
        -0.1734142154455185,
        -0.19130605459213257,
        -0.06590839475393295,
        0.0034600284416228533,
        0.0018873083172366023,
        -0.033919356763362885,
        -0.142852783203125,
        -0.004581904504448175,
        0.09873148798942566,
        0.13850915431976318,
        0.1234227865934372,
        0.03913324326276779,
        0.04217064008116722,
        -0.17152132093906403,
        0.0633997842669487,
        -0.23966719210147858,
        -0.09904654324054718,
        -0.058035265654325485,
        -0.04105532541871071,
        -0.09292522817850113,
        -0.04796570912003517,
        0.006969640031456947,
        -0.16866645216941833,
        0.027514928951859474,
        0.008229169994592667,
        0.23437289893627167,
        -0.08675912767648697,
        0.057118844240903854,
        -0.037414662539958954,
        -0.03247195854783058,
        0.18235161900520325,
        0.028695005923509598,
        -0.027651723474264145,
        0.12669318914413452,
        -0.20553962886333466,
        0.10458068549633026,
        -0.09000435471534729,
        0.0021789714228361845,
        0.06450740993022919,
        0.05470724403858185,
        -0.06717100739479065,
        -0.13459181785583496,
        -0.18041543662548065,
        0.17304334044456482,
        -0.013971256092190742,
        0.09413546323776245,
        -0.36972224712371826,
        -0.008368980139493942,
        -0.15681509673595428,
        0.15591523051261902,
        -0.020612051710486412,
        -0.0939367264509201,
        0.3594752252101898,
        -0.002668197499588132,
        -0.12708887457847595,
        -0.007590230088680983,
        -0.05105416849255562,
        -0.21004590392112732,
        0.17147623002529144,
        -0.0257439985871315,
        0.18110953271389008,
        0.1794559806585312,
        -0.1807728111743927,
        0.18644863367080688,
        -0.2576906681060791,
        -0.07825054228305817,
        -0.16918303072452545,
        -0.04830733314156532,
        0.0586310513317585,
        -0.11948754638433456,
        0.1573125720024109,
        -0.09427940100431442,
        0.1008613184094429,
        0.14388172328472137,
        0.09311660379171371,
        -0.05746467411518097,
        -0.0902973860502243,
        -0.1316440999507904,
        0.15935254096984863,
        -0.07182144373655319,
        -0.020155394449830055,
        -0.08639533072710037,
        0.11887618899345398,
        -0.0036289074923843145,
        0.10304423421621323,
        -0.04246287792921066,
        0.10707060247659683,
        -0.018848037347197533,
        -0.04108592867851257,
        0.015414567664265633,
        0.016314677894115448,
        -0.02217942103743553,
        -0.16762162744998932,
        0.1386415958404541,
        0.08992041647434235,
        0.1734340786933899,
        0.06174130737781525,
        0.1004498079419136,
        -0.06492288410663605,
        -0.15594106912612915,
        0.12456268817186356,
        -0.15186654031276703,
        -0.042884450405836105,
        0.41175752878189087,
        0.043910589069128036,
        -0.13496527075767517,
        0.06999509781599045,
        -0.08856257796287537,
        0.019928453490138054,
        -0.09490810334682465,
        0.029806235805153847,
        0.24836261570453644,
        -0.11251281946897507,
        0.007073204964399338,
        0.2096388041973114,
        0.08643540740013123,
        -0.07114999741315842,
        0.17103295028209686,
        0.04549769312143326,
        -0.15005598962306976,
        0.19013434648513794,
        -0.22680480778217316,
        0.1271744817495346,
        -0.08066393435001373,
        -0.015973832458257675,
        0.06368419528007507,
        -0.05457137152552605,
        -0.08769155293703079,
        0.11492971330881119,
        0.07575004547834396,
        0.3419836163520813,
        -0.0027355689089745283,
        0.07938303798437119,
        0.0638279914855957,
        -0.04006081074476242,
        -0.18385520577430725,
        0.14139990508556366,
        0.04087555781006813,
        0.14728999137878418,
        -0.07074656337499619,
        -0.008763122372329235,
        -0.09983329474925995,
        0.4832130968570709,
        -0.09364450722932816,
        -0.011196831241250038,
        -0.05720154196023941,
        -0.09503781050443649,
        0.06453828513622284,
        -0.3693065047264099,
        0.015741467475891113,
        0.22546981275081635,
        -0.04338093474507332,
        0.07237140834331512,
        0.14812740683555603,
        -0.07168038189411163,
        -0.011560631915926933,
        0.1031191498041153,
        -0.16625531017780304,
        -0.0298980250954628,
        -0.2828451097011566,
        0.09176494181156158,
        0.1643640697002411,
        0.02460166998207569,
        -0.04593617841601372,
        0.061827417463064194,
        -0.11887894570827484,
        0.11096636950969696,
        -0.05094514042139053,
        0.07884030044078827,
        -0.08427169173955917,
        -0.001406889408826828,
        0.11082753539085388,
        -0.07126624882221222,
        -0.16622959077358246,
        -0.04295714572072029,
        -0.05222035199403763,
        -0.08098077774047852,
        -0.05572422221302986,
        0.22503630816936493,
        0.018277369439601898,
        0.13060663640499115,
        -0.055814582854509354,
        -0.15134362876415253,
        -0.0716235414147377,
        0.19518959522247314,
        0.11802517622709274,
        0.140158012509346,
        -0.012804323807358742,
        0.09023672342300415,
        -0.14980202913284302,
        0.3170395493507385,
        -0.19355283677577972,
        0.0665585994720459,
        -0.06451207399368286,
        -0.056374602019786835,
        0.07419194281101227,
        -0.3640906810760498,
        -0.10719674080610275,
        0.16038428246974945,
        -0.06068088114261627,
        0.13376303017139435,
        0.22542518377304077,
        -0.1029510349035263,
        0.05861417576670647,
        0.027547428384423256,
        -0.1194293275475502,
        0.217584490776062,
        -0.1327570527791977,
        0.1160120815038681,
        0.07238681614398956,
        -0.06536415219306946,
        -0.23842641711235046,
        0.01106463372707367,
        -0.07601942121982574,
        0.05129212141036987,
        0.10565485060214996,
        -0.0049547236412763596,
        0.26109033823013306,
        -0.0839424878358841,
        -0.033795665949583054,
        0.17421716451644897,
        -0.07140489667654037,
        -0.04925152286887169,
        0.03485940024256706,
        -0.04276451840996742,
        0.04336076229810715,
        -0.12745119631290436,
        0.040170978754758835,
        -0.19071908295154572,
        -0.06412302702665329,
        0.12640097737312317,
        0.033198874443769455,
        -0.17349454760551453,
        0.03070567548274994,
        -0.090692438185215,
        -0.09479905664920807,
        0.09667174518108368,
        0.15099886059761047,
        -0.2135198563337326,
        0.045473258942365646,
        -0.16451075673103333,
        0.040928974747657776,
        0.10283792018890381,
        -0.05163133144378662,
        0.32688820362091064,
        -0.11111309379339218,
        -0.1943298578262329,
        0.08303386718034744,
        -0.09075173735618591,
        -0.2116074562072754,
        -0.06285423785448074,
        0.16060316562652588,
        0.03955714404582977,
        -0.03426605463027954,
        0.09422440081834793,
        0.19060565531253815,
        -0.16565467417240143,
        -0.15288500487804413,
        -0.00308805494569242,
        -0.13301850855350494,
        -0.13684967160224915,
        0.03785151615738869,
        -0.16409200429916382,
        -0.019134851172566414,
        -0.17400914430618286,
        0.037041716277599335,
        -0.12904348969459534,
        -0.08746311813592911,
        -0.10418736189603806,
        0.12756940722465515,
        0.02159052900969982,
        -0.05723575875163078,
        0.053276173770427704,
        -0.013205948285758495,
        -0.34468939900398254,
        0.13249999284744263,
        -0.11191961169242859,
        0.0801016166806221,
        0.011733658611774445,
        0.0031661714892834425,
        -0.21354828774929047,
        0.05676817148923874,
        -0.02335052564740181,
        0.03252542018890381,
        -0.1351534128189087,
        0.024421194568276405,
        -0.3479244112968445,
        -0.03379436954855919,
        -0.072648786008358,
        0.07827547192573547,
        -0.029180428013205528,
        -0.02533513493835926,
        0.31157127022743225,
        0.06817176192998886,
        0.04123588278889656,
        0.019279932603240013,
        -0.049415357410907745,
        -0.14876466989517212,
        0.07199414074420929,
        0.08277101814746857,
        -0.03237481042742729,
        0.07290852814912796,
        -0.09224075824022293,
        0.23808564245700836,
        -0.06761453300714493,
        -0.03881718963384628,
        7.582636317238212e-05,
        -0.1631125807762146,
        0.13389849662780762,
        0.07161548733711243,
        -0.07840627431869507,
        0.06124040484428406,
        0.12136981636285782,
        -0.05504870414733887,
        -0.03095863200724125,
        -0.008638010360300541,
        0.12116795778274536,
        0.07683133333921432,
        -0.0604516938328743,
        -0.007651669438928366,
        -0.006002952344715595,
        -0.043337754905223846,
        -0.05240583419799805,
        -0.0063877166248857975,
        -0.029009778052568436,
        -0.06300453096628189,
        0.024174274876713753,
        0.12380637973546982,
        0.05442704260349274,
        -0.10688275843858719,
        -0.10201156139373779,
        -0.04869551584124565,
        0.1423327475786209,
        0.032431460916996,
        0.23246508836746216,
        -0.06491893529891968,
        -0.16721738874912262,
        -0.04353110492229462,
        0.04790639132261276,
        -0.06761012226343155,
        -0.19263671338558197,
        0.040898699313402176,
        0.09223064035177231,
        -0.3238890469074249,
        0.1250145584344864,
        0.01864216849207878,
        -0.22280560433864594,
        0.07619942724704742,
        -0.19737772643566132,
        0.1373191773891449,
        -0.28299200534820557,
        0.12183871120214462,
        0.04774885252118111,
        -0.10568177700042725,
        0.16808950901031494,
        0.1963520646095276,
        -0.13685080409049988,
        0.02949952892959118,
        0.09126325696706772,
        0.03234256058931351,
        -0.09826067835092545,
        0.14872924983501434,
        -0.04885808750987053,
        -0.10374344885349274,
        -0.00526106683537364,
        0.05199013650417328,
        -0.1174340546131134,
        0.02729148603975773,
        -0.027297761291265488,
        -0.04611516371369362,
        0.05777353420853615,
        0.021299246698617935,
        -0.05039956793189049,
        -0.0030591513495892286,
        0.01711650751531124,
        -0.16780461370944977,
        0.05344780161976814,
        -0.015887852758169174,
        0.05104547366499901,
        0.11216157674789429,
        -0.09742090851068497,
        -0.16596220433712006,
        0.0780063346028328,
        -0.10537441074848175,
        0.17808040976524353,
        -0.06849413365125656,
        -0.09707947075366974,
        -0.08031031489372253,
        -0.006173118483275175,
        -0.24201685190200806,
        0.0644945502281189,
        0.057694800198078156,
        0.17335210740566254,
        -0.07400969415903091,
        -0.05947616323828697,
        -0.08196879178285599,
        -0.005380470305681229,
        -0.21126055717468262,
        -0.031532932072877884,
        -0.11747969686985016,
        -0.12000691145658493,
        -0.018462076783180237,
        0.09666705131530762,
        0.013838411308825016,
        -0.0037831661757081747,
        0.1567370593547821,
        0.015062829479575157,
        -0.00743230851367116,
        0.06303299963474274,
        0.06336991488933563,
        -0.06154084578156471,
        0.10077638179063797,
        0.17550893127918243,
        0.0904528796672821,
        -0.19558100402355194,
        -0.051523301750421524,
        0.042766768485307693,
        -0.17288467288017273,
        -0.05182846263051033,
        -0.130507230758667,
        0.18126773834228516,
        -0.08496121317148209,
        -0.0760912299156189,
        -0.11689161509275436,
        -0.14212916791439056,
        -0.021570762619376183,
        0.20645460486412048,
        -0.054708074778318405,
        0.012896980158984661,
        -0.12984512746334076,
        0.22087019681930542,
        0.09800077229738235,
        0.17912723124027252,
        0.010275240056216717,
        -0.17744581401348114,
        0.09049763530492783,
        -0.12883061170578003,
        -0.09402137994766235,
        -0.08924028277397156,
        0.09127018600702286,
        -0.08733617514371872,
        0.1565626561641693,
        -0.020896587520837784,
        0.0010488475672900677,
        0.14227570593357086,
        0.08451887220144272,
        0.016593994572758675,
        0.029897218570113182,
        0.08824049681425095,
        0.07423986494541168,
        -0.2112303376197815,
        -0.18204902112483978,
        -0.1227550059556961,
        0.09935179352760315,
        0.07234980165958405,
        0.1593295931816101,
        -0.07416439801454544,
        0.19635725021362305,
        0.030257700011134148,
        -0.09539999812841415,
        0.003986855037510395,
        -0.10018007457256317,
        -0.008304090239107609,
        0.021257346495985985,
        0.03176106512546539,
        0.08193861693143845,
        -0.2334192842245102,
        0.03681731969118118,
        -0.09308627247810364,
        0.08289016783237457,
        -0.08317242562770844,
        0.13013285398483276,
        -0.24930605292320251,
        -0.11238214373588562,
        -0.14929454028606415,
        -0.10575069487094879,
        0.0816061943769455,
        0.24840572476387024,
        -0.42858055233955383,
        0.048974569886922836,
        -0.0298342015594244,
        0.12618201971054077,
        0.025746310129761696,
        -0.16084183752536774,
        0.39833393692970276,
        -0.1075689047574997,
        -0.14890991151332855,
        0.09697720408439636,
        -0.16002283990383148,
        -0.16519926488399506,
        -0.06948016583919525,
        0.09441561996936798,
        -0.18507258594036102,
        0.19956308603286743,
        -0.16731445491313934,
        0.18606461584568024,
        -0.08223695307970047,
        -0.131283700466156,
        0.003950371406972408,
        -0.12409073114395142,
        0.01220250315964222,
        0.010731193237006664,
        0.05234123393893242,
        0.16281293332576752,
        -0.0006618468905799091,
        -0.026358328759670258,
        0.1858457624912262,
        0.050259705632925034,
        0.05898168310523033,
        0.13023288547992706,
        0.1336146593093872,
        -0.06729384511709213,
        0.05398551747202873,
        0.09126478433609009,
        0.06654415279626846,
        -0.058120399713516235,
        0.05813019722700119,
        0.09237997233867645,
        -0.07969195395708084,
        0.0882352888584137,
        0.10571920871734619,
        -0.059314243495464325,
        -0.03964778408408165,
        0.02588881552219391,
        0.00014023912081029266,
        0.00247560883872211,
        0.08784200251102448,
        -0.0002751887368503958,
        0.03947707265615463,
        -0.1123402863740921,
        0.14596650004386902,
        0.13002663850784302,
        -0.2506457269191742,
        0.07800701260566711,
        0.15086065232753754,
        -0.19232457876205444,
        0.04160965606570244,
        0.16292095184326172,
        -0.2735511064529419,
        0.0068560452200472355,
        -0.16579295694828033,
        0.3241272270679474,
        -0.0938740074634552,
        -0.02753799967467785,
        -0.004844887647777796,
        -0.06671886146068573,
        0.09397272765636444,
        -0.19288040697574615,
        0.16888219118118286,
        0.06204375997185707,
        -0.21416281163692474,
        0.013736127875745296,
        0.003111058147624135,
        0.09189719706773758,
        0.09358759969472885,
        -0.12615717947483063,
        0.0653044730424881,
        0.11460590362548828,
        0.024611594155430794,
        0.009369831532239914,
        0.02043692208826542,
        0.06165722757577896,
        -0.13620232045650482,
        -0.010538826696574688,
        0.019818885251879692,
        0.05029245838522911,
        0.10624638944864273,
        0.15339742600917816,
        -0.15508832037448883,
        -0.2543877363204956,
        -0.16035959124565125,
        0.05148997902870178,
        -0.09002411365509033,
        -0.04372530058026314,
        -0.04008769243955612,
        -0.1870242804288864,
        -0.06627794355154037,
        -0.1883763074874878,
        0.033652693033218384,
        0.05379366874694824,
        -0.22781822085380554,
        0.13454267382621765,
        0.07171016186475754,
        0.06699348241090775,
        -0.16892948746681213,
        -0.07241813093423843,
        -0.16791126132011414,
        0.2446805089712143,
        -0.10184276849031448,
        0.2901243269443512,
        0.1324457824230194,
        -0.07404399663209915,
        -0.08314806967973709,
        -0.09720116853713989,
        0.03809817507863045,
        -0.16288481652736664,
        0.08450471609830856,
        0.13401338458061218,
        0.012220998294651508,
        -0.14771932363510132,
        0.03459014743566513,
        -0.200827494263649,
        0.022718396037817,
        -0.020585888996720314,
        -0.07575090229511261,
        -0.07897676527500153,
        0.056220099329948425,
        0.1373966485261917,
        0.08158358931541443,
        0.0058643994852900505,
        0.028854571282863617,
        -0.057467252016067505,
        -0.08094995468854904,
        0.12112639099359512,
        -0.10561952739953995,
        0.02582481876015663,
        -0.05430936440825462,
        0.0030821794643998146,
        0.07058753818273544,
        -0.22554518282413483,
        0.013876092620193958,
        -0.1842295378446579,
        0.14461711049079895,
        0.014265796169638634,
        0.2224901169538498,
        0.04813319817185402,
        -0.054198265075683594,
        0.1331561803817749,
        -0.1921587884426117,
        0.00578033272176981,
        -0.017315102741122246,
        -0.13406819105148315,
        -0.22811125218868256,
        0.25935396552085876,
        -0.03704052418470383,
        -0.06338448077440262,
        -0.1275758296251297,
        0.0804852843284607,
        -0.05587116256356239,
        -0.06976541876792908,
        0.007917969487607479,
        0.16394571959972382,
        -0.0897732526063919,
        -0.14911368489265442,
        -0.06395840644836426,
        0.10029565542936325,
        -0.11354454606771469,
        0.02853861264884472,
        0.0444495789706707,
        0.06269145011901855,
        -0.13098138570785522,
        -0.1401478797197342,
        -0.06502453982830048,
        0.1717863827943802,
        -0.092536062002182,
        0.11511629074811935,
        0.09425687789916992,
        0.031603988260030746,
        -0.033135052770376205,
        -0.08165714889764786,
        0.014411208219826221,
        -0.014126516878604889,
        0.0644080713391304,
        0.11504650115966797,
        0.05721547082066536,
        -0.05406711623072624,
        -0.057978689670562744,
        -0.030606376007199287,
        -0.018797123804688454,
        0.11399853229522705,
        -0.1281360238790512,
        0.10901486128568649,
        -0.09045672416687012,
        -0.04582053795456886,
        -0.0754137635231018,
        -0.10088066756725311,
        0.18995259702205658,
        0.0690094530582428,
        -0.10176543146371841,
        0.07043872028589249,
        -0.05629446357488632,
        -0.01416406687349081,
        0.1077478677034378,
        0.0006129539106041193,
        -0.06600865721702576,
        0.04138106107711792,
        -0.07380254566669464,
        -0.025654789060354233,
        -0.04918457567691803,
        -0.034053657203912735,
        -0.05634615570306778,
        0.041879963129758835,
        0.14221516251564026,
        0.04685642197728157,
        -0.008146397769451141,
        0.0606536790728569,
        0.002136293100193143,
        0.09549073874950409,
        0.08367505669593811,
        -0.10646460205316544,
        -0.0919923186302185,
        0.05149409547448158,
        -0.03765885904431343,
        -0.051798660308122635,
        -0.14473490417003632,
        0.1277523636817932,
        -0.022664979100227356,
        -0.02566271461546421,
        -0.09281132370233536,
        0.04953808709979057,
        -0.10419178754091263,
        0.06191560998558998,
        -0.035567477345466614,
        0.0076875751838088036,
        0.013437687419354916,
        -0.10535656660795212,
        0.06678535044193268,
        0.16019849479198456,
        -0.13686703145503998,
        0.025080353021621704,
        -0.1330067366361618,
        0.04966920614242554,
        0.09571916610002518,
        -0.0731998085975647,
        0.31801265478134155,
        -0.08118752390146255,
        -0.11421604454517365,
        -0.011885333806276321,
        0.01942834071815014,
        -0.16225972771644592,
        -0.08608754724264145,
        0.16205833852291107,
        0.04234356805682182,
        -0.018300246447324753,
        -0.025700019672513008,
        0.002638384234160185,
        -0.021372845396399498,
        -0.176685631275177,
        0.07088688760995865,
        0.12494123727083206,
        0.07748832553625107,
        0.0615321509540081,
        0.07296815514564514,
        0.1422920674085617,
        -0.10271263867616653,
        0.11659649759531021,
        0.048908818513154984,
        -0.10148224979639053,
        0.09389141947031021,
        0.08035549521446228,
        0.0025652674958109856,
        0.06558512151241302,
        0.06794147938489914,
        0.15422376990318298,
        -0.13409671187400818,
        -0.024050788953900337,
        0.14077867567539215,
        0.0407712422311306,
        0.02181728184223175,
        0.007003507111221552,
        0.028029369190335274,
        0.11141032725572586,
        -0.005122647620737553,
        0.00150388665497303,
        -0.021555297076702118,
        -0.11032482236623764,
        -0.0859590396285057,
        0.035789985209703445,
        0.07207776606082916,
        -0.013098366558551788,
        -0.020568322390317917,
        -0.1216999962925911,
        0.11457359790802002,
        0.04145261272788048,
        -0.16739313304424286,
        0.15997178852558136,
        -0.13186638057231903,
        0.002662289422005415,
        0.14356642961502075,
        -0.14288468658924103,
        -0.05128520354628563,
        -0.22367751598358154,
        0.100857675075531,
        -0.1136874333024025,
        -0.1498248428106308,
        0.1864432543516159,
        0.08379409462213516,
        0.027737082913517952,
        0.01579580269753933,
        -0.06828916817903519,
        0.08247700333595276,
        -0.0009293754701502621,
        -0.05899576470255852,
        -0.056989531964063644,
        0.11276611685752869,
        0.05537480115890503,
        0.039998020976781845,
        0.02943982370197773,
        -0.11667511612176895,
        0.03345133736729622,
        -0.008778635412454605,
        0.023240968585014343,
        -0.15596738457679749,
        -0.3888581395149231,
        0.720522940158844,
        0.2327878177165985,
        -0.3285788297653198,
        0.1809670776128769,
        -0.251101016998291,
        -0.12992598116397858,
        0.4481045603752136,
        -0.6871930360794067,
        0.8361744284629822,
        0.5165690183639526,
        -0.09080043435096741,
        -0.3042154014110565,
        0.29451194405555725,
        -0.6288919448852539,
        0.32025980949401855,
        -0.1540638506412506,
        -0.015083393082022667,
        -0.40837445855140686,
        0.1799410730600357,
        0.35338643193244934,
        0.2219158411026001,
        -0.05354994162917137,
        0.06781913340091705,
        0.2463769167661667,
        0.10970178991556168,
        0.21487070620059967,
        -0.20843364298343658,
        0.07441746443510056,
        -0.010814151726663113,
        -0.10314944386482239,
        0.3343215584754944,
        -0.051759861409664154,
        -0.018030373379588127,
        0.040259603410959244,
        0.22985903918743134,
        0.2237159162759781,
        0.0032996751833707094,
        -0.25850939750671387,
        -0.26444533467292786,
        0.22834333777427673,
        -0.018545132130384445,
        -0.09057511389255524,
        0.11084645986557007,
        0.2155797928571701,
        0.20415574312210083,
        -0.04472032189369202,
        -0.09467526525259018,
        -0.15142647922039032,
        0.18969997763633728,
        -0.21352140605449677,
        0.029539605602622032,
        -0.17606385052204132,
        0.0653243362903595,
        -0.29439669847488403,
        -0.1538500040769577,
        -0.06231451407074928,
        -0.07274862378835678,
        0.2592373788356781,
        0.2489141970872879,
        -0.0878412202000618,
        -0.0676170215010643,
        -0.03435332700610161,
        0.2915215790271759,
        -0.07891795039176941,
        0.12921971082687378,
        -0.031096676364541054,
        -0.1510324776172638,
        0.18023285269737244,
        -0.2990654408931732,
        0.2797936797142029,
        0.2722330391407013,
        -0.02239510975778103,
        0.10272199660539627,
        0.18809927999973297,
        0.05745699256658554,
        0.10179298371076584,
        -0.00908602774143219,
        -0.03372582420706749,
        -0.06943909078836441,
        -0.18841251730918884,
        0.2523634433746338,
        -0.021930817514657974,
        0.03147897869348526,
        -0.1950041800737381,
        0.20646914839744568,
        -0.05557671934366226,
        0.20569851994514465,
        -0.14841052889823914,
        0.00020030276209581643,
        0.09149647504091263,
        -0.10654689371585846,
        -0.1861385852098465,
        0.12601448595523834,
        -0.18651612102985382,
        -0.05717427656054497,
        -0.2674219608306885,
        -0.09242597967386246,
        -0.1839214563369751,
        -0.0009080324089154601,
        0.02718263678252697,
        0.14287658035755157,
        0.08255012333393097,
        -0.14227721095085144,
        -0.14611516892910004,
        0.03907766938209534,
        0.07588493078947067,
        0.02478679269552231,
        0.07700067013502121,
        0.28534170985221863,
        0.12976184487342834,
        0.24431189894676208,
        0.0695316419005394,
        -0.176736980676651,
        -0.11457334458827972,
        0.24237202107906342,
        0.05107707902789116,
        0.04162098839879036,
        -0.05726141110062599,
        -0.22856171429157257,
        0.32368382811546326,
        0.16454337537288666,
        -0.0889783650636673,
        0.1363825500011444,
        0.06740642338991165,
        0.03741171211004257,
        0.17774441838264465,
        0.30878597497940063,
        0.14575882256031036,
        -0.3130462169647217,
        -0.16554653644561768,
        0.22631186246871948,
        -0.051646728068590164,
        0.09518546611070633,
        -0.057720430195331573,
        0.038769155740737915,
        0.2483251690864563,
        0.0367516465485096,
        0.21396948397159576,
        -0.016281673684716225,
        0.08415740728378296,
        0.13078667223453522,
        -0.058764342218637466,
        -0.07175801694393158,
        0.24686765670776367,
        -0.0762510895729065,
        0.09083098918199539,
        0.13969998061656952,
        0.05750085413455963,
        -0.19862855970859528,
        0.011561447754502296,
        -0.11525902152061462,
        0.20404531061649323,
        -0.08303380012512207,
        0.2034490704536438,
        -0.24576403200626373,
        -0.01762714609503746,
        -0.024394648149609566,
        0.04178246483206749,
        0.378788560628891,
        -0.11170773953199387,
        -0.25978007912635803,
        0.037754278630018234,
        0.16799725592136383,
        0.2920368015766144,
        -0.19348996877670288,
        -0.10572846978902817,
        -0.10230302065610886,
        0.06471986323595047,
        -0.08747779577970505,
        -0.18707384169101715,
        -0.07804404199123383,
        -0.03761010617017746,
        0.2026156485080719,
        -0.020388081669807434,
        0.3338130712509155,
        -0.19846370816230774,
        -0.13606156408786774,
        -0.2658470571041107,
        0.1731884777545929,
        -0.06703562289476395,
        0.032354701310396194,
        -0.05125351622700691,
        0.23494867980480194,
        0.13763898611068726,
        -0.2258623242378235,
        0.08123961091041565,
        0.006651896983385086,
        -0.21058520674705505,
        -0.009470914490520954,
        0.2725023329257965,
        -0.03726974129676819,
        0.013421179726719856,
        0.056703876703977585,
        0.15756523609161377,
        -0.22760124504566193,
        0.0948229506611824,
        0.2623480260372162,
        0.05306652560830116,
        -0.14377105236053467,
        -0.2028800994157791,
        -0.04344430938363075,
        0.256517618894577,
        -0.20107176899909973,
        -0.10112499445676804,
        0.06816416233778,
        0.02325689233839512,
        -0.17827348411083221,
        -0.1835065633058548,
        -0.03092116303741932,
        -0.10455376654863358,
        0.0757656842470169,
        0.06720289587974548,
        -0.19253644347190857,
        -0.22276246547698975,
        0.15933498740196228,
        -0.06464910507202148,
        0.021086636930704117,
        0.22771959006786346,
        0.004002922680228949,
        0.0056311083026230335,
        -0.19770528376102448,
        -0.05868271738290787,
        -0.27697351574897766,
        -0.005392454098910093,
        -0.019683217629790306,
        0.028984693810343742,
        -0.12962666153907776,
        -0.13616347312927246,
        0.0855393037199974,
        -0.18370375037193298,
        0.08390118181705475,
        -0.04761337488889694,
        0.1715734452009201,
        -0.13671867549419403,
        0.010946061462163925,
        0.08628351986408234,
        -0.2631594240665436,
        0.04156137630343437,
        -0.05304962396621704,
        0.1373145580291748,
        -0.06478188931941986,
        -0.08676986396312714,
        -0.10430383682250977,
        -0.16792148351669312,
        0.31391313672065735,
        -0.31318363547325134,
        0.13043753802776337,
        0.13267676532268524,
        0.21526126563549042,
        0.23912984132766724,
        -0.04445115476846695,
        0.0735863670706749,
        0.05603068321943283,
        -0.31946253776550293,
        -0.16400237381458282,
        -0.11668205261230469,
        -0.11296230554580688,
        -0.10687410086393356,
        -0.13157919049263,
        -0.13203169405460358,
        -0.06066451594233513,
        -0.189406156539917,
        0.01977306790649891,
        0.007136311382055283,
        0.14953701198101044,
        0.11214171350002289,
        -0.16734257340431213,
        -0.10762176662683487,
        -0.10694842785596848,
        0.08592956513166428,
        0.0696922168135643,
        0.05987932160496712,
        0.08165644109249115,
        0.128611221909523,
        -0.07577776163816452,
        0.10151840001344681,
        0.11826646327972412,
        0.013010331429541111,
        -0.15827533602714539,
        -0.14690712094306946,
        0.03326791897416115,
        0.09001767635345459,
        0.03513273224234581,
        0.1214049831032753,
        0.050428006798028946,
        -0.00950433686375618,
        0.12187597900629044,
        -0.06867685914039612,
        0.006900724023580551,
        0.02599124237895012,
        -0.023725131526589394,
        -0.13311176002025604,
        0.1337491273880005,
        -0.028950735926628113,
        -0.051364053040742874,
        -0.015833107754588127,
        0.11115996539592743,
        0.0677461102604866,
        0.04068418964743614,
        -0.12641765177249908,
        -0.06499170511960983,
        0.057677991688251495,
        -0.018070051446557045,
        0.2903776168823242,
        0.10725711286067963,
        -0.03887731954455376,
        -0.13850656151771545,
        -0.19754965603351593,
        0.028360674157738686,
        0.047237761318683624,
        0.042543552815914154,
        -0.13502159714698792,
        -0.08268794417381287,
        -0.012648191303014755,
        0.06407636404037476,
        0.02062535099685192,
        -0.03519238159060478,
        -0.05778120458126068,
        0.07585515081882477,
        0.1151312068104744,
        -0.10170523077249527,
        -0.24973978102207184,
        -0.13161128759384155,
        0.036216143518686295,
        -0.009623555466532707,
        0.061127468943595886,
        -0.006419291719794273,
        -0.06393841654062271,
        -0.09630182385444641,
        -0.18001866340637207,
        -0.07749322801828384,
        -0.07687339931726456,
        -0.11998029798269272,
        0.12804071605205536,
        -0.03193701058626175,
        0.2768477201461792,
        -0.03771335259079933,
        0.0933779776096344,
        0.05280598625540733,
        -0.12435860931873322,
        -0.12450944632291794,
        0.21072138845920563,
        0.0001436089660273865,
        -0.06694093346595764,
        0.14117924869060516,
        0.1288270205259323,
        0.03081614524126053,
        0.015209339559078217,
        0.1672062873840332,
        0.09491171687841415,
        -0.21165426075458527,
        -0.042540907859802246,
        -0.16202512383460999,
        0.168635755777359,
        -0.05032271891832352,
        -0.02600453607738018,
        -0.16414408385753632,
        -0.09113314747810364,
        0.012868253514170647,
        0.25204625725746155,
        -0.03584957867860794,
        0.005425119306892157,
        -0.002071638125926256,
        0.10123402625322342,
        -0.014080807566642761,
        0.2310352772474289,
        0.019242268055677414,
        0.060053639113903046,
        0.2345653474330902,
        -0.07825838029384613,
        -0.0728389173746109,
        0.06625747680664062,
        0.04959698021411896,
        -0.1355411410331726,
        0.23173585534095764,
        -0.16618658602237701,
        -0.052331794053316116,
        0.16688545048236847,
        0.1229289174079895,
        -0.010104713030159473,
        -0.010347659699618816,
        -0.07012613117694855,
        -0.01224645134061575,
        -0.1966797560453415,
        0.016654618084430695,
        0.21644249558448792,
        -0.13442450761795044,
        -0.19882822036743164,
        -0.11270908266305923,
        -0.04961978644132614,
        0.15384072065353394,
        -0.08095180243253708,
        0.08534006029367447,
        -0.011550433933734894,
        0.11773450672626495,
        -0.01869962364435196,
