{"version":"0.5.4","metadata":{"date":{"year":2025,"month":8,"day":31,"hour":10,"minute":40,"second":49},"loudness":-18.902219772338867,"gain":0.8179981713369111,"name":"BM Fman BE+cab","modeled_by":"maixueguonian","gear_type":"amp","gear_make":"tz-make","gear_model":"tz-model","tone_type":"overdrive","input_level_dbu":null,"output_level_dbu":null,"training":{"settings":{"ignore_checks":false},"data":{"latency":{"manual":null,"calibration":{"algorithm_version":1,"delays":[208],"safety_factor":1,"recommended":207,"warnings":{"matches_lookahead":false,"disagreement_too_high":false}}},"checks":{"version":3,"passed":true}},"validation_esr":0.002211188345358005}},"architecture":"WaveNet","config":{"layers":[{"input_size":1,"condition_size":1,"head_size":8,"channels":16,"kernel_size":3,"dilations":[1,2,4,8,16,32,64,128,256,512],"activation":"Tanh","gated":false,"head_bias":false},{"input_size":16,"condition_size":1,"head_size":1,"channels":8,"kernel_size":3,"dilations":[1,2,4,8,16,32,64,128,256,512],"activation":"Tanh","gated":false,"head_bias":true}],"head":null,"head_scale":0.02},"weights":[0.013933639042079449,0.6643356084823608,-0.7827191948890686,-0.7861228585243225,-0.26236292719841003,0.45964428782463074,0.03753155469894409,0.8127450346946716,-0.03362986072897911,0.20990584790706635,-0.3542637526988983,-0.11264343559741974,-0.8358045220375061,-0.613728404045105,-0.2696811556816101,0.030045609921216965,0.13479594886302948,0.12988221645355225,0.11242799460887909,-0.10184931010007858,0.020947031676769257,0.04205680638551712,0.009324769489467144,0.1379987895488739,0.05069415271282196,0.0552181750535965,0.15916697680950165,-0.06172255426645279,-0.05143265798687935,-0.009649563580751419,0.019879085943102837,0.09087324887514114,-0.11559057235717773,-0.13239769637584686,-0.026022080332040787,-0.10910547524690628,0.08354027569293976,0.08242474496364594,0.03331732004880905,-0.003640016308054328,0.04834309220314026,-0.060404375195503235,0.08678127825260162,-0.1696571558713913,-0.12550027668476105,-0.1393309086561203,0.1225915178656578,0.10667884349822998,0.0022484324872493744,0.03081263042986393,0.11685855686664581,0.2244456261396408,0.09960012137889862,0.050615593791007996,0.1717458814382553,-0.04256486892700195,0.05638396367430687,-0.03877478465437889,-0.05805686488747597,-0.042468708008527756,0.14319707453250885,-0.0009278724319301546,-0.11364137381315231,-0.046468041837215424,0.0006037261919118464,-0.08729711174964905,-0.09955456107854843,0.0286168921738863,0.05366233363747597,0.16224613785743713,-0.10444226861000061,-0.017044737935066223,0.03618990629911423,0.12905557453632355,0.16421088576316833,0.10882627964019775,0.03346426784992218,-0.08412044495344162,-0.004275982268154621,-0.09857481718063354,-0.16974669694900513,0.15643802285194397,-0.030629342421889305,-0.23718956112861633,-0.07650963217020035,-0.03409020975232124,-0.06300804764032364,-0.04647355154156685,0.062240827828645706,-0.05695217102766037,0.014066850766539574,0.06306100636720657,0.06392454355955124,0.07805047929286957,-0.1418968141078949,-0.06323415786027908,0.04068061709403992,0.024032998830080032,-0.0799284353852272,-0.11490534991025925,0.14601577818393707,0.137677863240242,-0.08074931800365448,-0.024664517492055893,-0.0951608195900917,-0.018725460395216942,-0.10184957832098007,-0.07040472328662872,-0.029737714678049088,-0.029662391170859337,-0.14941763877868652,0.016886666417121887,-0.05784030258655548,0.01789185218513012,0.16860419511795044,-0.16786593198776245,0.08959733694791794,-0.12733685970306396,0.06055387482047081,-0.09357143938541412,0.18273335695266724,0.051811955869197845,-0.19407592713832855,0.2011491358280182,-0.0882987529039383,-0.19734106957912445,0.09521002322435379,-0.12162324786186218,0.07182066887617111,-0.2639906406402588,-0.02468528412282467,-0.11973775923252106,-0.02684990130364895,-0.049904365092515945,0.2265654355287552,-0.14641554653644562,0.0881258100271225,-0.07371128350496292,0.23647387325763702,0.03417162969708443,0.24128380417823792,-0.06116434931755066,0.19237732887268066,-0.1260896623134613,0.013671192340552807,-0.01471151877194643,-0.01956871710717678,0.13479410111904144,-0.03184611350297928,-0.23494505882263184,-0.006809838116168976,-0.07944966852664948,-0.14952054619789124,0.21156975626945496,0.12148312479257584,-0.25759178400039673,0.22039157152175903,-0.07975316047668457,0.04107852280139923,-0.1404956728219986,-0.044514384120702744,-0.032893650233745575,-0.2025444507598877,-0.18702630698680878,-0.04585256800055504,0.11120971292257309,0.0032668181229382753,0.08372852951288223,-0.2305450439453125,0.05710126832127571,0.1543249934911728,-0.1644047349691391,0.18588224053382874,0.07214630395174026,-0.23981089890003204,0.02568167634308338,-0.040816113352775574,0.050186388194561005,0.04009087756276131,-0.20910727977752686,-0.17362025380134583,-0.0970020666718483,0.07566750794649124,0.145267054438591,0.10411341488361359,0.039026424288749695,-0.19924840331077576,-0.08419524878263474,-0.13290074467658997,0.20229610800743103,0.16993941366672516,0.11626581847667694,-0.21860384941101074,0.04928084462881088,-0.08848650753498077,-0.20420028269290924,-0.016275763511657715,0.0785682201385498,-0.188986137509346,0.06340017169713974,0.03350859880447388,-0.013185479678213596,-0.0453822985291481,-0.07131321728229523,-0.18956419825553894,0.023871978744864464,-0.08424129337072372,0.1721087545156479,-0.02245042659342289,0.02589946612715721,-0.11118913441896439,-0.0945591926574707,-0.09506341069936752,0.08419352769851685,0.07143206894397736,0.13563930988311768,-0.2221331000328064,-0.007995253428816795,0.2294260412454605,-0.2335207313299179,0.0483812540769577,0.24588291347026825,-0.06505833566188812,-0.062225282192230225,-0.24085316061973572,0.19300515949726105,-0.03573977202177048,0.09217431396245956,-0.11376771330833435,-0.08780031651258469,-0.1104234978556633,0.2348264455795288,0.03302738070487976,0.1816471666097641,-0.09855258464813232,-0.14428715407848358,-0.03316894546151161,0.030928218737244606,-0.0037208113353699446,0.1491384208202362,-0.07632036507129669,0.16099995374679565,0.05848044157028198,-0.12315243482589722,0.14290830492973328,-0.02655595727264881,-0.00904942024499178,-0.05297970771789551,0.11198525130748749,-0.14199306070804596,-0.013797041028738022,0.12767165899276733,0.0045767612755298615,-0.10667449980974197,-0.12563499808311462,0.046614713966846466,-0.17016883194446564,0.02409481070935726,-0.05278632417321205,-0.10102938115596771,-0.0052088540978729725,-0.01807069033384323,0.0749841257929802,0.029937218874692917,0.14621247351169586,-0.04807640239596367,-0.11957912892103195,0.14082394540309906,0.12501980364322662,-0.03636809065937996,0.028022311627864838,-0.07593950629234314,-0.06369784474372864,-0.08179614692926407,-0.04254640266299248,-0.12032972276210785,0.21273447573184967,-0.09390541166067123,0.06301337480545044,-0.0564783476293087,0.025261472910642624,-0.13817578554153442,0.033071551471948624,0.10444895178079605,0.09068866074085236,0.005272975657135248,-0.03729264438152313,-0.02870297059416771,0.07546591758728027,0.011064658872783184,-0.1565966159105301,0.15909291803836823,0.04415557160973549,-0.08365792036056519,0.06283538043498993,-0.09021651744842529,0.01973806321620941,-0.010583075694739819,0.060385365039110184,-0.12789057195186615,0.02885296940803528,0.017853619530797005,-0.05376347154378891,-0.06556176394224167,0.02872900664806366,-0.23767423629760742,0.06262444704771042,-0.021919704973697662,0.17246374487876892,-0.1474463939666748,-0.04164404794573784,-0.13964471220970154,0.17296940088272095,0.028125127777457237,-0.05795760080218315,0.22528599202632904,0.006117155775427818,-0.10607064515352249,0.1835842877626419,-0.0825609564781189,0.11863373219966888,-0.12610509991645813,-0.15981946885585785,-0.18661755323410034,0.12071648240089417,0.04849051311612129,0.19635911285877228,-0.10915978252887726,0.1755577176809311,-0.13222214579582214,0.07060160487890244,-0.22182142734527588,0.2361854910850525,-0.05791306123137474,-0.009319953620433807,-0.05116129294037819,0.24406352639198303,0.23049062490463257,0.01678917184472084,0.24198274314403534,0.044584061950445175,-0.16415227949619293,0.24348294734954834,0.15963508188724518,-0.1976187825202942,0.25752630829811096,0.1495300531387329,-0.030395323410630226,0.036470673978328705,-0.04408302903175354,-0.05670507252216339,-0.04653479903936386,-0.06145292520523071,0.01774156466126442,-0.011726810596883297,0.1510738581418991,0.05225686728954315,0.08372489362955093,-0.19194737076759338,-0.06919073313474655,-0.11385276168584824,-0.23143655061721802,-0.21452012658119202,0.10349803417921066,0.00045012234477326274,0.0483412928879261,0.10757744312286377,-0.04377947747707367,-0.0024574468843638897,-0.01955900900065899,-0.14095963537693024,0.05550176650285721,-0.09322207421064377,0.020287739112973213,-0.03865010663866997,-0.06919241696596146,0.07899823039770126,0.07529918849468231,0.15338002145290375,0.19228556752204895,0.21872632205486298,-0.03543712571263313,-0.01804533414542675,0.035525739192962646,0.044444490224123,0.07159445434808731,-0.011173965409398079,0.08265402913093567,-0.1409739851951599,-0.03067612089216709,0.0023488791193813086,-0.12008260190486908,-0.17566148936748505,-0.08869873732328415,-0.19393636286258698,0.0012512989342212677,0.08912048488855362,0.0146252466365695,-0.08759879320859909,0.06650304049253464,0.10562741756439209,-0.08217030018568039,-0.019714780151844025,0.15066467225551605,0.22286564111709595,-0.21810393035411835,0.11461009085178375,-0.054937008768320084,0.049400296062231064,0.06049102172255516,-0.2437366098165512,0.08482424169778824,0.10975267738103867,-0.14540474116802216,0.0027112183161079884,-0.0383014939725399,0.11777371168136597,-0.151991605758667,-0.013534371741116047,-0.006875526160001755,0.06477218866348267,-0.06847363710403442,0.16881178319454193,-0.03678896650671959,0.08838580548763275,-0.2343946397304535,0.1527024507522583,-0.10054026544094086,0.0833059549331665,-0.07323454320430756,-0.11430183798074722,-0.10434677451848984,0.23694944381713867,0.0031605300027877092,-0.2502928376197815,0.06130216270685196,0.008113891817629337,-0.27279824018478394,0.17420850694179535,-0.1523456871509552,-0.2978542745113373,-0.03394103795289993,-0.04377434775233269,-0.05544722080230713,-0.027602627873420715,0.16906455159187317,0.021309295669198036,-0.03500170260667801,0.015178913250565529,-0.035225529223680496,0.21387392282485962,0.1754794716835022,0.17450524866580963,-0.03307567536830902,-0.20121151208877563,0.08188279718160629,0.10550864785909653,-0.03663864731788635,-0.1531895101070404,0.06048716604709625,-0.24084711074829102,-0.09347997605800629,0.12821003794670105,-0.004773905035108328,0.08530043065547943,-0.028724653646349907,0.047371264547109604,0.00032079333323054016,0.06370022147893906,0.060273267328739166,0.1019892692565918,0.042451534420251846,0.012184921652078629,-0.011405003257095814,0.2127295434474945,-0.03992225602269173,-0.08781452476978302,-0.04234765097498894,-0.1745053231716156,0.04246383160352707,0.011743130162358284,-0.160816952586174,-0.15154629945755005,0.18294143676757812,-0.11983221024274826,0.07183724641799927,0.18796539306640625,-0.023930413648486137,-0.03289765119552612,0.05780143290758133,-0.1346937119960785,-0.025842946022748947,0.16479259729385376,0.03671640157699585,0.18595919013023376,-0.024381710216403008,-0.20828965306282043,-0.03195292502641678,0.3138743042945862,0.3321733772754669,-0.18257878720760345,-0.003498649224638939,-0.13186131417751312,0.1228199228644371,0.21882861852645874,-0.27865949273109436,0.08637908101081848,0.1610749214887619,-0.23928910493850708,0.0884394496679306,0.05833471193909645,0.2963922619819641,-0.07993943989276886,-0.15265105664730072,-0.07162608206272125,0.11085819453001022,0.27267512679100037,0.21222732961177826,0.04282212629914284,-0.11387485265731812,-0.12750141322612762,0.011638072319328785,0.17662620544433594,0.09722046554088593,-0.11798182874917984,-0.1704496443271637,-0.06674046814441681,0.002824244787916541,0.09974546730518341,-0.2590193748474121,0.18401503562927246,0.2444639801979065,-0.3073093891143799,-0.07734484225511551,-0.01025162823498249,-0.19677330553531647,0.0053054592572152615,0.009050299413502216,-0.24104909598827362,0.06800610572099686,0.022617844864726067,0.11460258066654205,-0.07353471219539642,-0.1548069715499878,0.18195609748363495,0.24029110372066498,-0.0970751941204071,-0.02630811743438244,-0.26973167061805725,0.26470914483070374,-0.09861496090888977,0.08202233165502548,0.02391207031905651,-0.060263022780418396,0.2405463010072708,-0.13873444497585297,-0.007681856397539377,0.16438403725624084,-0.03359317034482956,-0.01411272119730711,-0.35115379095077515,0.0474957600235939,0.10447529703378677,0.22219133377075195,-0.16352693736553192,0.10772167146205902,-0.2433876395225525,0.09968911856412888,0.0951685756444931,0.2105267345905304,-0.061567600816488266,0.07182193547487259,-0.23467881977558136,0.04431432858109474,0.009912381879985332,0.3261200487613678,-0.177384153008461,-0.10215108841657639,0.2620343863964081,0.027539948001503944,-0.010359447449445724,0.0912390798330307,-0.2540017068386078,0.06061531975865364,0.192719504237175,-0.20234575867652893,0.05623107776045799,0.2576075792312622,-0.006776747293770313,0.15673260390758514,-0.02810702845454216,0.09448553621768951,-0.07211435586214066,0.006926483474671841,0.08616562932729721,-0.10883572697639465,0.039287008345127106,0.1465073972940445,0.29660651087760925,-0.03831257298588753,-0.14261534810066223,0.11253313720226288,-0.2625809907913208,0.1227533146739006,0.09900534152984619,-0.22228550910949707,0.06273074448108673,-0.24345071613788605,0.09506016969680786,-0.003979778382927179,0.02834504470229149,-0.27285459637641907,0.08878783136606216,-0.23082654178142548,0.21328610181808472,0.13929890096187592,0.24850831925868988,-0.10515518486499786,0.16187912225723267,-0.1614575982093811,0.07619362324476242,0.12702801823616028,0.21554642915725708,-0.2946254014968872,-0.04342832416296005,0.06374197453260422,-0.032695189118385315,-0.029175596311688423,0.030110519379377365,-0.17284150421619415,0.07457894831895828,0.20177601277828217,-0.11413375288248062,0.000968565174844116,0.20548377931118011,-0.19962263107299805,-0.07469559460878372,-0.21011094748973846,-0.03294588252902031,0.03121519275009632,-0.09201151132583618,0.10264343023300171,0.053541142493486404,0.04807072877883911,-0.1528901308774948,0.1773492693901062,-0.11798734962940216,0.17852988839149475,-0.15085066854953766,-0.06913712620735168,0.1380521059036255,-0.09650220721960068,0.07871346920728683,-0.04753423482179642,-0.16331124305725098,-0.02258390001952648,-0.027687309309840202,0.18500928580760956,-0.12439153343439102,0.08083970099687576,-0.05684133619070053,0.00035365813528187573,0.044792767614126205,-0.07600191980600357,-0.0321960374712944,0.1671229898929596,-0.1020352765917778,0.15154992043972015,-0.09573841094970703,0.16621406376361847,-0.1793464720249176,0.03451673313975334,-0.06987921893596649,-0.007520122919231653,0.10291453450918198,0.05313672870397568,-0.05255139246582985,0.05664055794477463,0.06426139175891876,-0.07035892456769943,0.18790748715400696,-0.13145005702972412,-0.0523059219121933,0.04724837467074394,0.020180994644761086,0.06561987102031708,-0.10316555202007294,-0.16244615614414215,-0.00984587799757719,-0.03603685647249222,0.046224791556596756,0.04435805603861809,0.09342173486948013,0.04101886972784996,-0.12671750783920288,-0.1423831284046173,0.18924416601657867,-0.24339622259140015,0.028391925618052483,0.11384949088096619,-0.1910981833934784,0.05116230621933937,-0.03434739634394646,0.16521862149238586,-0.0950920358300209,-0.11872653663158417,-0.08952291309833527,0.07129540294408798,0.00003098831439274363,0.23023918271064758,-0.011676657944917679,-0.15877144038677216,-0.2242555022239685,-0.10315851122140884,0.28373944759368896,0.09432058036327362,0.009312909096479416,-0.05986294895410538,-0.035635337233543396,0.11860931664705276,0.21051353216171265,-0.22062712907791138,-0.019819144159555435,0.018099496141076088,-0.21802471578121185,0.028353776782751083,0.22637052834033966,-0.24915672838687897,0.08366385102272034,0.01918785460293293,-0.1542624533176422,0.1128711923956871,0.0628516674041748,0.03617133945226669,-0.16516083478927612,-0.0005371463485062122,-0.009760414250195026,-0.0889127105474472,0.058035727590322495,-0.07752157002687454,-0.1451295167207718,-0.009408878162503242,0.08431851118803024,-0.014517068862915039,0.08184284716844559,0.09319892525672913,0.12167100608348846,-0.06189398840069771,-0.044292885810136795,-0.02661900781095028,-0.1044071763753891,0.02360270917415619,0.07232150435447693,0.09556479752063751,0.05289750546216965,0.08620750904083252,-0.0006674746982753277,0.14062726497650146,-0.08441603928804398,-0.11328443884849548,-0.015310714021325111,0.10121497511863708,-0.11084084957838058,0.15963353216648102,0.028266428038477898,-0.11925119161605835,-0.06338464468717575,0.14770226180553436,-0.09843861311674118,-0.05396050214767456,0.07781162858009338,-0.09453979879617691,0.04677600413560867,0.09696603566408157,0.10143856704235077,-0.1260630488395691,0.16387997567653656,-0.07512751966714859,0.11723347008228302,-0.11631391197443008,-0.10941735655069351,-0.019319923594594002,-0.09972983598709106,-0.11983693391084671,-0.015511040575802326,-0.07785053551197052,-0.023711130023002625,-0.08848579972982407,-0.00459035811945796,0.06248268857598305,-0.009102574549615383,0.004802473820745945,0.06524036079645157,0.08683671057224274,-0.031686749309301376,0.010034333914518356,-0.02913936972618103,-0.02440318837761879,-0.0024103797040879726,0.0008589503704570234,0.37014511227607727,-0.4119396507740021,0.6771177649497986,-0.6089274883270264,0.10795371979475021,0.8116860389709473,0.8763868808746338,-0.558564305305481,0.08351518213748932,0.02463984303176403,-0.5655816197395325,-0.2277432382106781,0.29277899861335754,-0.6695703864097595,0.08341052383184433,0.42511045932769775,-0.022479504346847534,0.2085232138633728,0.027772368863224983,0.2698647975921631,0.4091145098209381,-0.02890239655971527,0.11295413970947266,-0.34484952688217163,-0.021011196076869965,-0.21343521773815155,-0.27292096614837646,0.05083954706788063,0.3282322883605957,-0.05812951922416687,-0.14805258810520172,-0.02885124646127224,-0.04708721861243248,-0.1986420452594757,-0.20732718706130981,0.07886027544736862,0.2996755540370941,0.10596489906311035,-0.07404021173715591,-0.2769489288330078,-0.01201566495001316,0.1711069792509079,-0.3509959578514099,0.2296924740076065,0.15388493239879608,-0.15934260189533234,-0.011359390802681446,0.22538898885250092,0.022252388298511505,0.13652609288692474,0.18906919658184052,0.24545370042324066,-0.16886991262435913,-0.16121262311935425,0.20012179017066956,-0.10908890515565872,0.0981282964348793,-0.2489376962184906,0.13201817870140076,-0.3322558104991913,0.292892187833786,0.1428569257259369,0.011883128434419632,-0.01910213753581047,0.1837419718503952,-0.13420797884464264,-0.13996464014053345,-0.1484493464231491,0.15363429486751556,0.11790517717599869,-0.09806269407272339,-0.21994364261627197,-0.18927812576293945,-0.048896025866270065,-0.17543302476406097,0.18113917112350464,0.11815708130598068,0.14176863431930542,-0.3641507029533386,-0.04341467097401619,-0.08688222616910934,-0.3467249274253845,-0.14798110723495483,-0.002219637855887413,-0.0602855309844017,0.20324544608592987,0.15928462147712708,-0.058537110686302185,0.1734846830368042,0.39486458897590637,0.0755532830953598,0.1940397322177887,-0.08822711557149887,0.03859468549489975,0.08475587517023087,0.08871392160654068,-0.22743234038352966,-0.14022402465343475,0.2328234612941742,-0.01807994768023491,0.021537838503718376,0.3523500859737396,0.35593381524086,0.15072110295295715,0.2503088712692261,0.13625586032867432,-0.25748398900032043,-0.14468501508235931,0.09668049216270447,-0.23986589908599854,0.21530084311962128,0.18696559965610504,0.16100932657718658,0.1672762781381607,0.20634743571281433,0.2532040476799011,-0.04972650855779648,-0.27491793036460876,0.006081005558371544,-0.12579920887947083,0.02588985674083233,-0.3919167220592499,-0.17251154780387878,0.04111606255173683,0.1804843693971634,-0.10130740702152252,-0.07160200923681259,-0.1823587864637375,0.2414659708738327,0.11887814104557037,0.20084206759929657,-0.13690538704395294,-0.12244483083486557,0.04260873794555664,0.16009248793125153,0.00649589579552412,0.042255986481904984,-0.28669750690460205,0.014529182575643063,-0.1655357927083969,0.11247456073760986,-0.0869636982679367,-0.2032807320356369,-0.032655298709869385,0.0025905719958245754,0.07729332894086838,-0.3418218195438385,-0.10492553561925888,0.33345162868499756,-0.17369887232780457,-0.294942170381546,-0.10757956653833389,-0.3182772099971771,-0.2943818271160126,0.2823851406574249,0.0994303971529007,-0.03488948568701744,0.04009620472788811,-0.007896113209426403,-0.0647132620215416,-0.16265495121479034,-0.0510883592069149,0.162364199757576,-0.29309552907943726,-0.10504715889692307,0.04614274576306343,0.10865932703018188,-0.3091772496700287,0.04273125156760216,0.18616336584091187,-0.34548822045326233,0.2076968550682068,0.25447556376457214,0.07254239171743393,-0.29562637209892273,-0.06927776336669922,0.13612878322601318,0.24422544240951538,-0.2454971820116043,0.1808537244796753,-0.0018229411216452718,-0.2470647394657135,0.0033865859732031822,-0.052295178174972534,0.030017301440238953,-0.1917610764503479,0.04915245994925499,-0.007268356624990702,-0.1422239989042282,0.20173008739948273,0.042196277529001236,0.16044539213180542,0.03126277029514313,-0.1620001345872879,0.22341640293598175,-0.014271833933889866,0.043576136231422424,0.01507603283971548,0.03397929668426514,-0.06363293528556824,0.12117650359869003,-0.17021185159683228,0.06951960921287537,-0.1807825267314911,-0.023183252662420273,0.04377983510494232,-0.2289869338274002,-0.07068759202957153,-0.06507011502981186,-0.020524349063634872,0.14295130968093872,0.09787371754646301,0.0936431735754013,-0.09130725264549255,0.032476816326379776,-0.031682755798101425,0.23350121080875397,-0.09670815616846085,-0.3023280203342438,-0.013637188822031021,0.2914808690547943,-0.236008420586586,-0.2094554603099823,0.16987645626068115,0.060342516750097275,-0.0954573005437851,-0.24976621568202972,0.24409519135951996,0.18670345842838287,0.13281740248203278,0.027708763256669044,-0.18471744656562805,-0.17018601298332214,-0.24516978859901428,-0.062430039048194885,0.039234649389982224,-0.16239194571971893,0.041992150247097015,-0.42434701323509216,0.057909585535526276,-0.16998690366744995,0.2374781370162964,-0.0398268885910511,-0.14146646857261658,0.06005525216460228,0.06801066547632217,0.1915871798992157,0.21823062002658844,-0.21413935720920563,0.13448046147823334,-0.14477485418319702,-0.13659045100212097,0.11749651283025742,0.1383848339319229,-0.12406449019908905,0.045999206602573395,0.07491173595190048,0.014760376885533333,0.1479208618402481,-0.10003061592578888,0.028762618079781532,0.2495936155319214,0.029968341812491417,0.27444761991500854,-0.14592139422893524,-0.13875292241573334,-0.006418211385607719,-0.11301805824041367,0.11484108865261078,0.11979466676712036,0.03438590466976166,0.0006821223651058972,0.06745702773332596,-0.07481712102890015,0.09070159494876862,-0.09584595263004303,-0.06666085869073868,-0.03338891640305519,0.0676562488079071,-0.019354842603206635,0.028963636606931686,-0.08131890743970871,0.0500994510948658,0.05327784642577171,-0.013747085817158222,0.14161470532417297,0.02293582260608673,0.020008165389299393,0.07759824395179749,-0.06262364238500595,-0.08710988610982895,0.12971827387809753,-0.09163601696491241,0.11153601109981537,-0.004814202431589365,0.04548962786793709,-0.08187302201986313,-0.03406213968992233,0.07805012166500092,-0.07581882178783417,-0.17275482416152954,-0.11738000810146332,0.042188916355371475,-0.047218095511198044,-0.25120002031326294,0.14001064002513885,0.001143899979069829,-0.12374065071344376,-0.030587706714868546,-0.1509944498538971,-0.22735750675201416,-0.06499502062797546,0.016039324924349785,0.12715144455432892,-0.24284319579601288,-0.12784086167812347,-0.04577570781111717,-0.037291377782821655,0.044196322560310364,0.11310412734746933,-0.057778846472501755,-0.09838525205850601,-0.044124990701675415,-0.05640805512666702,-0.0145427156239748,0.03792870044708252,-0.20211735367774963,-0.0732555165886879,0.07862391322851181,-0.23402433097362518,-0.12101493030786514,0.10088329762220383,-0.06815273314714432,0.03880287706851959,-0.11734715849161148,-0.0742495208978653,-0.16322660446166992,0.12666426599025726,0.033695824444293976,-0.3628021776676178,0.23330292105674744,-0.10050111263990402,0.04851537570357323,-0.1798567920923233,0.27262815833091736,-0.12263308465480804,0.07736801356077194,-0.11435705423355103,0.1261812150478363,-0.321785032749176,0.04595476761460304,-0.24832665920257568,-0.09669298678636551,-0.019010968506336212,0.002074319403618574,0.0042867413721978664,-0.026694301515817642,-0.008626787923276424,0.09631950408220291,0.04317135736346245,0.01045483723282814,-0.005696306005120277,-0.10369344800710678,-0.16825585067272186,0.19253948330879211,-0.189489483833313,0.1508502960205078,-0.02391897141933441,0.00363566423766315,-0.0909326896071434,-0.18925276398658752,0.22155873477458954,-0.20532351732254028,-0.09625400602817535,0.1027621403336525,-0.027301056310534477,0.020714808255434036,-0.05938901752233505,-0.06331631541252136,-0.15463383495807648,0.0953935906291008,0.030457878485322,0.13503673672676086,0.1025000512599945,-0.09188695251941681,-0.0825396180152893,-0.07268718630075455,0.04893440753221512,0.31724533438682556,-0.2943088710308075,0.044635552912950516,-0.07298621535301208,0.09239774197340012,0.14085447788238525,-0.034704145044088364,-0.10386085510253906,0.16621287167072296,0.004935994744300842,0.14718091487884521,-0.042951736599206924,0.3072755038738251,0.18751980364322662,0.06663595885038376,-0.09900034219026566,-0.17108716070652008,-0.11555878818035126,0.10233797878026962,0.15397332608699799,0.019607840105891228,-0.20355097949504852,-0.11846169829368591,-0.11504556983709335,0.28765034675598145,-0.0815032348036766,-0.0736209899187088,-0.30950865149497986,0.03851257637143135,0.1880161315202713,-0.11387668550014496,0.13421542942523956,0.10939798504114151,0.032841019332408905,0.06947850435972214,0.03216640651226044,-0.0474926121532917,0.06504768878221512,-0.033241432160139084,-0.047907911241054535,0.07031125575304031,-0.10004870593547821,0.07364680618047714,0.22027575969696045,-0.22719694674015045,-0.07683271914720535,-0.04758339747786522,-0.4214830994606018,-0.1413111388683319,0.08506247401237488,0.21925148367881775,0.004906540270894766,-0.24158364534378052,0.1541510969400406,0.18462392687797546,-0.11581666022539139,0.08131486922502518,-0.03113022819161415,0.09906609356403351,-0.1308165043592453,0.018847830593585968,0.11767292022705078,0.009462239220738411,0.16690568625926971,-0.014970728196203709,-0.27193698287010193,-0.09325705468654633,0.12609173357486725,-0.010137824341654778,-0.15861296653747559,-0.10331126302480698,0.0805036872625351,-0.1994558423757553,0.18087080121040344,0.1653633564710617,-0.01993212103843689,-0.11364613473415375,0.15227018296718597,0.21076689660549164,0.043379046022892,0.2540772259235382,0.23769167065620422,-0.0866599977016449,0.07395774871110916,-0.10683776438236237,-0.18922019004821777,0.06875332444906235,0.024892186746001244,0.06329440325498581,0.19251686334609985,0.1325031965970993,-0.009752514772117138,-0.19684195518493652,0.013416706584393978,0.0939389318227768,0.0031025060452520847,0.1383853256702423,-0.06191173940896988,-0.11630166321992874,0.04765209183096886,0.04161874204874039,-0.22126223146915436,0.036335162818431854,0.15474063158035278,0.03962305933237076,-0.054914429783821106,-0.16975463926792145,0.013102064840495586,0.18134136497974396,-0.1830402910709381,-0.050711870193481445,-0.01967775821685791,0.10249177366495132,0.10550343990325928,0.1955372840166092,-0.00044807526865042746,-0.006695316638797522,-0.03132487088441849,0.05260244756937027,-0.10365965962409973,-0.02473888173699379,-0.03647511824965477,0.04198133572936058,-0.10367743670940399,0.12279579788446426,-0.012347993440926075,0.13477723300457,0.2621634304523468,-0.29947957396507263,-0.08105744421482086,0.22182491421699524,-0.07254102826118469,-0.07637317478656769,0.10715437680482864,0.08008072525262833,-0.0579838864505291,-0.033226966857910156,0.20944617688655853,0.049874428659677505,-0.04358912631869316,-0.06353685259819031,0.06054093688726425,-0.20651127398014069,-0.08381578326225281,0.06454283744096756,-0.052412983030080795,-0.194200798869133,0.017266351729631424,-0.03325819596648216,-0.01724161207675934,0.17427800595760345,0.005062470678240061,-0.06983152031898499,-0.003177274251356721,0.16507701575756073,0.1962428241968155,-0.21199974417686462,0.1374303698539734,-0.012377431616187096,-0.13581213355064392,-0.15882550179958344,0.1477847546339035,-0.2689976096153259,0.24112732708454132,0.006216987036168575,0.2446417510509491,-0.14190733432769775,0.2687486410140991,-0.10497359931468964,-0.0007941400981508195,-0.006768772378563881,0.21753445267677307,-0.044301409274339676,0.08289797604084015,0.09457682073116302,0.08544179052114487,0.040278807282447815,0.1969030350446701,-0.03505438193678856,-0.08658464252948761,-0.02856331691145897,0.018230613321065903,-0.08572617173194885,0.2246077060699463,-0.2881941497325897,-0.07207636535167694,-0.028620319440960884,0.01730510964989662,0.19944006204605103,0.14660045504570007,0.1160820797085762,-0.11319833248853683,0.5656546950340271,0.2458590716123581,0.3077448606491089,-0.21149572730064392,-0.0070849754847586155,0.35212501883506775,0.04123135656118393,-0.06722701340913773,-0.20660080015659332,0.07088585942983627,-0.0988561362028122,-0.1395072638988495,0.26232993602752686,0.2318650484085083,0.3963436782360077,0.1559573858976364,0.13549000024795532,-0.25211554765701294,0.34572601318359375,0.1793888509273529,0.28884902596473694,-0.21508559584617615,-0.31639647483825684,-0.07722213119268417,0.42339321970939636,0.37834662199020386,0.38672399520874023,-0.20758196711540222,-0.03792213648557663,0.1437484622001648,-0.10962517559528351,-0.018803343176841736,0.3629491627216339,0.22397644817829132,0.25885215401649475,0.2010965347290039,0.055803582072257996,-0.25945422053337097,-0.010331745259463787,-0.15885791182518005,-0.03423016890883446,-0.13114143908023834,-0.09601644426584244,0.21972960233688354,-0.16542410850524902,-0.07520727813243866,0.13854296505451202,0.07991668581962585,0.08236782252788544,-0.03260662779211998,-0.06877006590366364,-0.017691273242235184,0.11403763294219971,0.028151148930191994,-0.11063293367624283,-0.00022798792633693665,0.03530506417155266,0.017641691491007805,-0.08557786047458649,0.05127246305346489,0.04915035143494606,-0.08282206207513809,0.029561016708612442,-0.05473713576793671,0.03852631524205208,-0.044290218502283096,0.048503801226615906,-0.0750240907073021,0.05304336920380592,-0.3709912896156311,0.0942000299692154,0.11692020297050476,0.35183966159820557,0.03422410041093826,0.15563355386257172,-0.23730553686618805,0.02795623242855072,-0.012449759058654308,-0.06288562715053558,0.07367720454931259,-0.013156937435269356,0.09228413552045822,0.0643174946308136,-0.11162236332893372,-0.13175567984580994,-0.10137240588665009,0.11056240648031235,0.08845378458499908,0.19147080183029175,-0.06070413440465927,0.01814475655555725,0.059866879135370255,0.3595060110092163,0.0581943616271019,-0.00973967369645834,-0.08504747599363327,0.01015167310833931,-0.13302575051784515,0.3064406216144562,-0.10648751258850098,0.18897514045238495,0.25871503353118896,-0.06699238717556,-0.08091303706169128,-0.014401120133697987,0.10594958811998367,-0.06086676940321922,-0.22105762362480164,0.280257910490036,-0.02594221755862236,0.3181476891040802,-0.019198864698410034,-0.05639597028493881,-0.21347355842590332,0.10437215119600296,0.06061384454369545,0.1267891377210617,-0.2686535716056824,0.10738079249858856,-0.06434689462184906,0.19491590559482574,-0.12634190917015076,0.1658000349998474,-0.22421377897262573,-0.09095826745033264,0.18017737567424774,-0.10520803928375244,0.1669783741235733,0.2225094884634018,0.03401995077729225,0.11388783156871796,0.14953632652759552,-0.1646638959646225,-0.1601143479347229,0.04507560282945633,-0.279243141412735,0.10725212097167969,-0.2277320921421051,-0.10870014876127243,-0.01789264567196369,0.08568716794252396,0.03915617987513542,0.07648515701293945,-0.08876457810401917,0.021654637530446053,0.29543060064315796,-0.05280895531177521,0.11263690143823624,-0.0554027184844017,-0.06626960635185242,0.08996739238500595,-0.03404548391699791,0.20086704194545746,0.16230939328670502,0.03792939707636833,-0.10735231637954712,-0.047191645950078964,0.14697055518627167,0.016686495393514633,-0.07392095774412155,0.12658081948757172,-0.2006644308567047,-0.01752844825387001,0.17480924725532532,-0.010053341276943684,0.030807364732027054,-0.05572520196437836,-0.14989417791366577,-0.0968385711312294,0.16145844757556915,-0.10706576704978943,-0.04086891561746597,-0.007437598891556263,-0.027876771986484528,-0.05942085012793541,-0.13844119012355804,-0.038755856454372406,-0.014273392967879772,-0.059832945466041565,-0.07510355114936829,0.06289248913526535,0.07436568289995193,0.019684964790940285,-0.009981891140341759,0.13348636031150818,-0.06813675910234451,0.011343766003847122,-0.1480654776096344,-0.06586407870054245,0.016395682469010353,-0.16389331221580505,-0.2918217182159424,-0.05149150267243385,0.0716734230518341,0.12442933022975922,0.08747489005327225,-0.05002489313483238,-0.12251035124063492,-0.04278711602091789,-0.10632175952196121,-0.022878332063555717,0.10516419261693954,-0.02853114902973175,-0.006122397258877754,-0.03192691132426262,0.14083456993103027,0.10949826240539551,0.07128793001174927,0.05157509818673134,-0.06496326625347137,0.0023331730626523495,0.23133820295333862,-0.018218666315078735,0.07342386990785599,0.051551785320043564,-0.09154476970434189,-0.29009097814559937,0.05646980553865433,0.15906421840190887,0.047411222010850906,-0.2209775745868683,0.075532466173172,-0.03162587806582451,-0.2966703474521637,0.20672054588794708,-0.016314513981342316,-0.14063410460948944,0.09562428295612335,-0.0020900648087263107,-0.028554564341902733,-0.010148920118808746,0.01048365794122219,-0.10741778463125229,-0.06814640760421753,-0.24081356823444366,-0.09956232458353043,-0.06313183158636093,-0.05631853640079498,-0.04021236672997475,-0.209051713347435,0.06452104449272156,-0.05627025291323662,-0.06751011312007904,0.07714711129665375,0.09783650189638138,0.011000030674040318,0.03630749508738518,0.05509787052869797,0.00935705378651619,-0.03203438222408295,-0.20610690116882324,-0.03974231332540512,0.1902346909046173,-0.007687108591198921,-0.14708828926086426,0.0377395860850811,0.21756473183631897,0.10047698765993118,0.22814132273197174,0.029312580823898315,0.09764578193426132,-0.20209047198295593,-0.0871501937508583,-0.22185030579566956,0.2570861577987671,0.10374195873737335,-0.02457057125866413,-0.0047776466235518456,-0.025515463203191757,0.0020115228835493326,0.09794742614030838,0.07455691695213318,-0.07651230692863464,0.012359259650111198,0.24291680753231049,0.04246160015463829,-0.05533725395798683,-0.06523501127958298,0.1121273934841156,-0.03629467263817787,-0.089230976998806,0.03336899355053902,0.09027444571256638,0.1568181812763214,-0.15193863213062286,0.12764106690883636,-0.06493110954761505,0.054340362548828125,-0.030432427302002907,0.08231764286756516,-0.008751638233661652,0.1748732179403305,-0.19121038913726807,-0.027498913928866386,0.11968494951725006,-0.06744720786809921,0.16959363222122192,-0.08490055054426193,-0.14259852468967438,-0.060772862285375595,-0.3062683641910553,0.24550826847553253,-0.1673535406589508,-0.09926066547632217,-0.036925170570611954,-0.1306065171957016,-0.2482507973909378,0.19360801577568054,-0.11116857826709747,0.2068994790315628,0.0873260572552681,-0.0679183378815651,-0.04999773949384689,-0.016622772440314293,0.07999593019485474,0.2779034376144409,-0.09400719404220581,-0.06319862604141235,-0.18358244001865387,-0.2585529088973999,-0.029185526072978973,-0.022207828238606453,-0.07808556407690048,-0.07962550222873688,0.05130760371685028,-0.13625718653202057,0.0250245314091444,0.006182970479130745,-0.13001814484596252,0.10020250082015991,0.12381362915039062,-0.0004103749815840274,-0.0016909352270886302,-0.18783830106258392,0.05734866112470627,-0.24187912046909332,0.08709188550710678,0.15068167448043823,0.346741259098053,-0.1950128823518753,0.005624394863843918,0.10004527121782303,-0.056027475744485855,0.010851021856069565,-0.06465882062911987,0.06770163774490356,0.20063135027885437,-0.21769024431705475,0.17072701454162598,-0.0012791232438758016,0.13091623783111572,0.07609426230192184,-0.054763827472925186,-0.03234432265162468,0.17054688930511475,0.003704015864059329,0.08308889716863632,-0.20462271571159363,-0.010467683896422386,-0.04766041785478592,-0.07288145273923874,0.20708192884922028,0.15286272764205933,-0.08104737848043442,-0.12401024252176285,0.31506991386413574,0.19786596298217773,-0.037638891488313675,0.1509522944688797,-0.041847988963127136,0.017873378470540047,0.18345019221305847,0.005883926060050726,-0.18756821751594543,0.09637749195098877,-0.1787145733833313,-0.008946510031819344,-0.04598080739378929,-0.04810776561498642,0.03599455952644348,-0.2612808346748352,0.2128724306821823,-0.05564020201563835,-0.09541015326976776,0.29566916823387146,-0.10217619687318802,-0.15967285633087158,0.0654599741101265,0.11122073978185654,-0.1894075572490692,0.015802185982465744,0.01892274059355259,-0.014652310870587826,-0.1543794870376587,-0.16886188089847565,0.27181416749954224,-0.14784827828407288,-0.1404704451560974,-0.11417973041534424,0.27946150302886963,0.3303989768028259,0.16783134639263153,-0.016614381223917007,-0.1286349594593048,-0.006586663890630007,0.09368905425071716,0.06690553575754166,-0.14291226863861084,-0.15816476941108704,-0.01906338892877102,-0.12713636457920074,0.16995729506015778,0.22153030335903168,-0.013712224550545216,-0.027093272656202316,0.11186689883470535,-0.1927519291639328,0.0011631487868726254,0.08742362260818481,-0.2065339833498001,0.051594026386737823,0.006777919363230467,-0.2003653347492218,-0.0003161917848046869,-0.1455809473991394,0.28204795718193054,-0.13389036059379578,0.03824891149997711,-0.0916217789053917,0.12264031171798706,-0.12144892662763596,0.16454990208148956,-0.027745896950364113,0.2253226488828659,-0.0729537382721901,0.19582852721214294,-0.012793797068297863,0.022807816043496132,0.11511664092540741,-0.16295237839221954,-0.008917572908103466,0.06981375813484192,0.11401638388633728,-0.03540828451514244,-0.2626732587814331,0.11574316769838333,-0.058222729712724686,0.041752323508262634,-0.21222330629825592,0.033964477479457855,-0.3128674328327179,-0.013693340122699738,-0.10672853142023087,0.06603693962097168,-0.0628068819642067,-0.07734005898237228,0.008639137260615826,0.2580089867115021,-0.039887215942144394,0.19607575237751007,-0.2270953357219696,-0.24772290885448456,0.04263429343700409,-0.1246534064412117,-0.1719551384449005,-0.05874025076627731,-0.06441463530063629,0.04919969663023949,0.2264343947172165,-0.09136642515659332,0.005800408311188221,0.030387502163648605,-0.09665913134813309,-0.018385088071227074,0.1395254135131836,0.0142385084182024,0.04274638742208481,-0.00725556118413806,0.011237161234021187,0.05917868763208389,-0.04839545860886574,0.09099841862916946,0.09028314054012299,0.0879102274775505,-0.033644501119852066,-0.03491901978850365,0.05632971227169037,0.021121187135577202,0.04317602515220642,0.021656427532434464,0.04739636182785034,-0.05617723986506462,-0.27324533462524414,0.1970805525779724,0.18973645567893982,-0.5231794714927673,0.05769602581858635,-0.6760987639427185,-0.25451982021331787,-0.5098868012428284,0.7421723008155823,-0.8734525442123413,-0.30328941345214844,-1.0216466188430786,0.31058675050735474,-0.7179449796676636,0.27790236473083496,-0.5442468523979187,0.02623187191784382,-0.1887364387512207,0.036973875015974045,0.1044226661324501,0.18423637747764587,0.20749203860759735,-0.41826194524765015,-0.24148760735988617,-0.30513373017311096,-0.021499546244740486,0.12790857255458832,-0.13582265377044678,0.2726612985134125,-0.0873350128531456,0.0828581303358078,0.12942937016487122,0.22609220445156097,0.1380174458026886,-0.34461912512779236,-0.5163485407829285,-0.20074562728405,0.5642748475074768,-0.5918242335319519,-0.3105093836784363,-0.511793315410614,-0.06677030026912689,-0.07137169688940048,-0.31065475940704346,0.4054768681526184,-0.41539186239242554,0.45907828211784363,0.38156402111053467,-0.074201799929142,-0.12322304397821426,0.17485329508781433,0.13074177503585815,0.008144940249621868,0.13013969361782074,-0.0009759823442436755,0.10044177621603012,-0.047833576798439026,0.0640455037355423,-0.17283162474632263,-0.13610702753067017,-0.06083359941840172,0.015617684461176395,0.12164390832185745,-0.02175138331949711,0.11704764515161514,-0.0586535707116127,-0.16064704954624176,-0.2238776832818985,-0.11007465422153473,0.026908883824944496,-0.18089571595191956,-0.0761420801281929,-0.11960326880216599,0.004096594639122486,0.04892764613032341,0.08612163364887238,0.16855226457118988,-0.1555365025997162,0.060886237770318985,0.10567810386419296,0.12792159616947174,0.01943608932197094,-0.10598746687173843,-0.28484562039375305,0.3029651939868927,-0.0030923299491405487,0.03386569768190384,0.32956114411354065,0.11900285631418228,-0.24000658094882965,-0.1289607584476471,0.3326699435710907,-0.21627917885780334,-0.09065697342157364,0.08724330365657806,-0.28473174571990967,-0.29624736309051514,-0.15968136489391327,-0.1532241851091385,-0.16859708726406097,0.1882847249507904,-0.21967974305152893,0.1970977932214737,0.1124105378985405,0.21380382776260376,-0.137052983045578,-0.2088395357131958,-0.04759174957871437,-0.3949138820171356,-0.12455279380083084,0.09630054980516434,-0.2279662787914276,0.08135771751403809,-0.02865001931786537,0.13886408507823944,-0.19950611889362335,0.07502239942550659,0.09811276197433472,-0.25158482789993286,0.03157010301947594,0.1400180160999298,-0.047376494854688644,-0.15853817760944366,0.14525838196277618,-0.14402955770492554,-0.05595303326845169,-0.2490461766719818,0.037958450615406036,0.17105501890182495,-0.04820369556546211,-0.1442389041185379,0.08323012292385101,0.05283093824982643,-0.0380229577422142,-0.22179321944713593,-0.06555283069610596,-0.19807414710521698,0.2608032822608948,-0.1991274654865265,-0.18337199091911316,-0.016675159335136414,0.03338366746902466,0.05948391184210777,0.1865975707769394,0.06347203254699707,0.15807050466537476,-0.04537581279873848,-0.044386252760887146,-0.16023336350917816,-0.10790816694498062,0.008435007184743881,-0.044152747839689255,-0.02327393740415573,-0.0402173176407814,0.17658258974552155,-0.021917251870036125,-0.17201703786849976,0.21822133660316467,-0.0912439152598381,0.15966348350048065,-0.07997597754001617,0.15302099287509918,-0.28126606345176697,-0.00770709291100502,0.050042033195495605,-0.272876501083374,-0.03870247304439545,0.07471147924661636,-0.011056780815124512,-0.06511160731315613,0.03533882647752762,0.03180278465151787,0.08267267793416977,0.06964162737131119,0.037247881293296814,-0.11716597527265549,-0.07418271899223328,-0.08782549202442169,0.09188902378082275,-0.0164650771766901,0.15521404147148132,-0.0024092374369502068,0.05936843901872635,0.15862497687339783,0.09021157026290894,0.04417595639824867,-0.2516899108886719,0.19216831028461456,-0.007392407860606909,-0.09366010129451752,0.054330721497535706,0.03580809012055397,0.12059105187654495,0.020548082888126373,-0.10693620890378952,-0.0830053836107254,-0.05305762216448784,-0.07299087196588516,0.21340323984622955,0.10783098638057709,-0.11962157487869263,0.08106010407209396,0.1936195343732834,-0.22089244425296783,0.11769044399261475,-0.14038008451461792,0.1198410913348198,-0.02613380178809166,-0.04327930510044098,-0.12256082147359848,-0.04540741443634033,0.1870824545621872,0.030777504667639732,0.03927908092737198,-0.19484545290470123,-0.10309207439422607,-0.26541370153427124,-0.023505009710788727,-0.19579096138477325,-0.31051909923553467,0.38936546444892883,-0.2968343496322632,0.012180312536656857,0.24530118703842163,0.18862205743789673,0.08260536193847656,-0.16143159568309784,0.392365038394928,-0.2827502191066742,0.0030512744560837746,0.1422782689332962,-0.14971290528774261,0.2913636565208435,0.19484801590442657,0.14779387414455414,-0.03680260106921196,0.2976130545139313,0.22086645662784576,-0.0931491032242775,0.03756013512611389,-0.05333774536848068,-0.042932212352752686,0.0660167783498764,0.21326467394828796,-0.19806014001369476,-0.09780311584472656,0.21778005361557007,-0.1680888682603836,0.001960212830454111,0.10300427675247192,0.024554336443543434,-0.08651503920555115,-0.02289281226694584,0.3142934739589691,0.010093300603330135,0.11774055659770966,0.23850086331367493,-0.22319935262203217,0.041977278888225555,0.19204533100128174,-0.5617714524269104,0.04508184641599655,-0.06694420427083969,-0.11370494216680527,0.3461301028728485,-0.17521783709526062,0.2925165593624115,-0.27707111835479736,-0.01026761531829834,0.18499509990215302,-0.5241037607192993,-0.053714361041784286,-0.049993377178907394,0.021522190421819687,-0.03708451986312866,-0.015352125279605389,-0.02198413759469986,-0.00001813598100852687,0.041413843631744385,0.0882825180888176,0.05594809725880623,0.05129192769527435,0.025890829041600227,-0.06022042781114578,0.011241085827350616,-0.18523548543453217,-0.06151258572936058,-0.05977146327495575,-0.0732094794511795,-0.08862357586622238,-0.07114508748054504,-0.008180327713489532,-0.2504183053970337,-0.016045644879341125,-0.0601859986782074,-0.0439998060464859,-0.01590077020227909,-0.03024030476808548,-0.13407087326049805,-0.049943260848522186,0.1856338232755661,0.034140247851610184,-0.2078760266304016,0.2467896193265915,0.10970330983400345,-0.10573701560497284,-0.08519349992275238,0.07302815467119217,0.15988942980766296,0.10001730173826218,0.08191012591123581,-0.16818325221538544,-0.17794391512870789,0.11413543671369553,0.07889813184738159,0.0711006447672844,0.008658653125166893,-0.15405908226966858,-0.18481700122356415,0.02422528713941574,-0.032141417264938354,-0.13056667149066925,0.008554123342037201,0.13289020955562592,-0.04150518402457237,-0.05902133882045746,0.05948052927851677,-0.1924820840358734,0.11779417842626572,0.06523138284683228,0.06800101697444916,0.20389525592327118,0.022955795750021935,0.07496171444654465,-0.06047436594963074,0.25774911046028137,0.10319105535745621,-0.04999144747853279,0.1044803187251091,-0.03287956118583679,0.006129506975412369,-0.026152612641453743,0.17704832553863525,0.12773799896240234,0.09472104907035828,0.11390653252601624,-0.047896500676870346,-0.12329018115997314,0.02092236652970314,-0.04208827763795853,0.007418775465339422,-0.18184076249599457,0.09640910476446152,-0.0007400793838314712,0.0794631615281105,-0.18962633609771729,-0.05715518817305565,-0.17905041575431824,-0.0950615257024765,0.05014393851161003,0.14005613327026367,-0.06043792888522148,-0.2021934539079666,0.030817106366157532,0.283511757850647,0.2274734079837799,0.25249993801116943,0.0546221025288105,-0.02268407866358757,0.07808699458837509,-0.021449297666549683,-0.046880293637514114,0.07209445536136627,0.06877870112657547,-0.08833800256252289,0.17083710432052612,-0.03353556990623474,-0.20086678862571716,0.16740740835666656,-0.0494319312274456,-0.09336278587579727,0.16645902395248413,-0.10804574191570282,-0.03236910328269005,0.08914583176374435,-0.1647377908229828,-0.1130676195025444,0.22706596553325653,0.1585741490125656,-0.15326301753520966,0.16848580539226532,0.0713522881269455,0.19459357857704163,-0.11772522330284119,-0.07031530141830444,0.01547920797020197,0.04340657219290733,-0.0757593959569931,0.15549001097679138,0.011005706153810024,0.0596240796148777,-0.04852316901087761,0.04589809104800224,0.17792990803718567,0.18435217440128326,-0.06731617450714111,0.18819835782051086,0.09161023795604706,0.06888384371995926,-0.027033552527427673,-0.025032345205545425,0.29665157198905945,-0.07527946680784225,-0.025684121996164322,0.06399060040712357,0.014268665574491024,-0.006593799218535423,0.010536709800362587,0.014524618163704872,-0.17090176045894623,0.09267266094684601,-0.013717848807573318,0.003713953774422407,-0.013086406514048576,0.005991928279399872,-0.02298184297978878,-0.06684108078479767,-0.29037564992904663,0.1682266741991043,-0.200388103723526,-0.015440505929291248,0.0013713720254600048,-0.024802107363939285,-0.07547036558389664,0.030062871053814888,-0.09203694015741348,0.22008730471134186,-0.012747377157211304,0.1438147872686386,0.09602311253547668,-0.0850929468870163,0.1779966801404953,-0.005173202138394117,-0.18170525133609772,-0.03407461568713188,-0.018871348351240158,0.024753812700510025,-0.11692041158676147,0.02667822875082493,0.17151539027690887,0.1436091512441635,0.09416984766721725,-0.12243076413869858,-0.08223723620176315,0.15446482598781586,0.13915705680847168,0.08526939153671265,-0.0009603946236893535,-0.0307609885931015,-0.13721635937690735,0.14694330096244812,-0.20734789967536926,0.1221211701631546,-0.09273521602153778,-0.07908590883016586,0.26198631525039673,-0.19314604997634888,-0.1352621614933014,0.06128169968724251,-0.09584718942642212,-0.09392879158258438,0.2423112839460373,-0.1259993463754654,-0.0928649827837944,0.12531030178070068,-0.5131885409355164,0.2273636907339096,0.0898643359541893,-0.00571450823917985,-0.03390401229262352,-0.033710017800331116,-0.16203168034553528,-0.02812022715806961,0.0745379701256752,0.10464261472225189,-0.03316645324230194,-0.13449661433696747,-0.01770547218620777,-0.049289070069789886,-0.09552076458930969,0.1721540093421936,-0.01500994898378849,-0.07150314748287201,0.03560911864042282,-0.14359089732170105,0.19979718327522278,0.14440853893756866,-0.09076400846242905,-0.231472909450531,-0.1642412394285202,0.08530406653881073,0.04889324679970741,-0.09465241432189941,-0.14313220977783203,-0.0707576647400856,-0.12332011014223099,0.1690959334373474,0.07077144831418991,0.07383642345666885,-0.22310128808021545,-0.14258825778961182,-0.022674648091197014,0.12848645448684692,-0.05107570067048073,0.15414167940616608,0.10584355890750885,-0.15205565094947815,0.08070473372936249,0.016232728958129883,-0.14832386374473572,-0.0838283896446228,0.25299620628356934,0.00015945194172672927,0.008906114846467972,0.28899043798446655,0.06801124662160873,-0.021486084908246994,0.09450629353523254,-0.06155281141400337,-0.14141757786273956,-0.02211240492761135,-0.10908579081296921,-0.7007951140403748,0.26397576928138733,-0.061075516045093536,-0.003992678597569466,-0.028469013050198555,-0.15797986090183258,-0.14011834561824799,0.17679579555988312,0.16018100082874298,0.006766112521290779,-0.057491738349199295,-0.0014520051190629601,-0.07750432938337326,0.02241853065788746,0.0024522747844457626,0.08321867138147354,0.21048124134540558,0.05216209962964058,-0.19224882125854492,0.16443611681461334,-0.012249456718564034,0.0016113664023578167,-0.006759508978575468,0.01906203106045723,-0.06256836652755737,0.0814964547753334,-0.057892635464668274,0.1581854224205017,0.11222786456346512,-0.15069253742694855,0.0942881777882576,0.06673916429281235,0.059979286044836044,-0.1000155583024025,0.039072174578905106,-0.17085158824920654,0.053080517798662186,0.23586589097976685,-0.1267208755016327,0.21539629995822906,-0.1850724071264267,-0.020662063732743263,-0.03340604528784752,0.03224332258105278,-0.19144393503665924,-0.12546388804912567,-0.14801110327243805,-0.07148800045251846,0.36821508407592773,0.034434594213962555,-0.08608797937631607,-0.1968660205602646,-0.14513318240642548,-0.07280907034873962,0.09054823964834213,-0.0337759293615818,-0.09070996195077896,-0.10384948551654816,0.045452892780303955,-0.064730703830719,0.07711055874824524,-0.04584003984928131,-0.247381791472435,0.053493574261665344,-0.16499586403369904,0.20072683691978455,0.17801864445209503,-0.11915753781795502,-0.12742125988006592,0.008452991023659706,0.12258315831422806,0.04055734723806381,0.33638542890548706,-0.14302074909210205,-0.2125263512134552,-0.04253034293651581,-0.18778811395168304,-0.015138134360313416,-0.09131868928670883,-0.09946241229772568,-0.15727746486663818,-0.09180659055709839,-0.018117737025022507,0.04835524037480354,-0.04791266471147537,-0.011023606173694134,-0.039466287940740585,-0.045732371509075165,-0.09570696949958801,0.3791428208351135,-0.07909838110208511,0.08644543588161469,0.04125361517071724,0.17483577132225037,-0.25546571612358093,0.03216733783483505,0.8308346271514893,-0.1116066575050354,-0.12201708555221558,0.13892516493797302,-0.08760001510381699,-0.11269644647836685,0.04012318700551987,0.007952122017741203,-0.21698932349681854,-0.012381752952933311,0.07884079962968826,-0.05608218535780907,0.002373266965150833,0.04018627107143402,-0.17655768990516663,0.12269817292690277,0.029607756063342094,-0.10232353955507278,0.10044388473033905,-0.0388299897313118,0.0668744370341301,0.1080775335431099,-0.14890189468860626,-0.06977209448814392,-0.024486461654305458,-0.18343187868595123,0.097896046936512,-0.10808892548084259,-0.047873590141534805,0.07188564538955688,0.06720108538866043,-0.1699364334344864,-0.006052957382053137,0.20660404860973358,0.07641778141260147,-0.017896583303809166,-0.02483920380473137,-0.005613441113382578,0.20869377255439758,-0.2545458972454071,-0.08442870527505875,0.07658366858959198,-0.07098065316677094,-0.12245165556669235,-0.1574668437242508,-0.19986973702907562,-0.0010807092767208815,0.14915919303894043,0.07787146419286728,0.02484980784356594,-0.02433701790869236,0.054299600422382355,0.11664769798517227,-0.1243169903755188,0.07821908593177795,0.21575461328029633,-0.004768263082951307,0.03072194755077362,-0.03578395023941994,0.09920492768287659,-0.07187836617231369,-0.16253432631492615,0.25597962737083435,-0.25637850165367126,0.16460905969142914,0.19146648049354553,-0.26490482687950134,-0.08609746396541595,-0.04967891424894333,-0.10392685234546661,0.10741860419511795,0.1585536003112793,-0.20505009591579437,-0.01715322770178318,-0.13733184337615967,0.08583752810955048,0.04098985716700554,-0.17339736223220825,0.014541653916239738,0.14795160293579102,-0.17535485327243805,0.026622556149959564,-0.0037025867495685816,-0.16342885792255402,-0.09396032989025116,0.3044280707836151,-0.25799015164375305,0.08786709606647491,-0.1975768357515335,-0.1342650204896927,-0.06477169692516327,0.09875737875699997,-0.11730891466140747,-0.1087883785367012,-0.18603841960430145,-0.001422346569597721,-0.060544032603502274,0.12136416137218475,-0.28026852011680603,0.04648389294743538,0.28040897846221924,-0.19160419702529907,0.06545329838991165,0.01895640604197979,0.05900358036160469,0.05224000662565231,0.16010448336601257,0.18878306448459625,0.06611297279596329,-0.059901393949985504,-0.09675823152065277,-0.09864632040262222,-0.08243667334318161,0.30067741870880127,-0.1862080693244934,-0.28211405873298645,-0.14446508884429932,-0.1441897749900818,0.22471022605895996,0.4155574440956116,-0.1719895601272583,-0.10567150264978409,-0.13468210399150848,0.13449911773204803,0.15480925142765045,-0.29476478695869446,0.28381314873695374,0.042617615312337875,-0.064471036195755,0.1377210170030594,0.03229544684290886,-0.13315008580684662,-0.17836220562458038,0.14873197674751282,-0.18071787059307098,0.16048428416252136,-0.527479350566864,0.08432118594646454,-0.1905498504638672,-0.15063095092773438,0.1065363734960556,0.008244944736361504,-0.022900663316249847,-0.06617983430624008,0.34392639994621277,0.0823613777756691,-0.0073081995360553265,0.05416398122906685,0.15033356845378876,0.0969780683517456,0.12971442937850952,0.05755137279629707,0.07107019424438477,-0.09800980240106583,0.14720235764980316,-0.05778488144278526,0.024340810254216194,0.032663799822330475,0.12898528575897217,0.1600801944732666,-0.05455011874437332,-0.0010480022756382823,0.1059282049536705,0.03729061037302017,0.055149178951978683,0.08661316335201263,-0.08985312283039093,-0.00839261244982481,0.014681458473205566,-0.06818590313196182,0.14995674788951874,0.007497936487197876,0.052394766360521317,0.13139018416404724,-0.04576554521918297,0.10379421710968018,0.06089690700173378,0.016314327716827393,-0.06007937714457512,0.23149199783802032,-0.15817375481128693,-0.1747245192527771,0.32389816641807556,-0.08966032415628433,-0.05811883881688118,0.2014177292585373,-0.16106048226356506,-0.04545196518301964,0.01386401429772377,-0.07992434501647949,0.15815767645835876,0.10711799561977386,-0.4457102417945862,0.02833346277475357,0.08363600820302963,-0.02214827947318554,0.14798448979854584,-0.1456725299358368,-0.012773155234754086,0.11893682926893234,0.1072072759270668,-0.0005830161971971393,-0.08171296864748001,-0.061390697956085205,-0.12682683765888214,-0.08346225321292877,0.021306514739990234,-0.017417272552847862,0.15310466289520264,0.19376493990421295,-0.1736459583044052,-0.18415147066116333,-0.17251454293727875,0.07617764174938202,-0.012051708996295929,-0.04173092544078827,-0.11486541479825974,-0.14789138734340668,-0.1520167887210846,-0.03439638391137123,-0.03162361681461334,-0.010416853241622448,-0.07198600471019745,0.10276798903942108,0.05547214299440384,-0.06469254195690155,-0.011223905719816685,-0.20308393239974976,-0.07092878222465515,0.2850782871246338,-0.4696851968765259,0.21258170902729034,-0.0936153307557106,-0.36349308490753174,-0.14931918680667877,-0.10945817083120346,-0.22279034554958344,-0.1631200611591339,0.1850782185792923,0.23688939213752747,-0.1814580261707306,-0.2033228576183319,-0.02161363698542118,-0.30904796719551086,-0.06123078987002373,-0.07357802987098694,-0.11004788428544998,-0.010491641238331795,0.25942346453666687,0.06113775074481964,-0.03443516790866852,0.12389498203992844,0.08591461926698685,-0.08001892268657684,-0.25347355008125305,-0.01970287598669529,-0.0963115245103836,0.14248211681842804,-0.026224954053759575,-0.08233880996704102,-0.0656505823135376,-0.15420694649219513,0.11212226003408432,-0.15898485481739044,0.23048272728919983,0.06950371712446213,0.09586890786886215,-0.023634683340787888,0.08542431890964508,0.16814561188220978,-0.08745549619197845,0.16453443467617035,0.008987903594970703,-0.02185903675854206,-0.015222634188830853,-0.09119540452957153,0.0778072252869606,0.08650065213441849,-0.4058769941329956,-0.05213704705238342,0.027116181328892708,-0.08591368049383163,0.09172680974006653,0.22168850898742676,0.01504614669829607,-0.058248717337846756,-0.015174709260463715,0.06273570656776428,-0.24943657219409943,0.026090629398822784,0.1348004788160324,0.05349259451031685,-0.09431540966033936,-0.053254518657922745,-0.05011286213994026,0.12146341800689697,-0.006272637750953436,0.08894626051187515,0.16224810481071472,-0.06183713674545288,0.03783911094069481,0.019082220271229744,0.1899469494819641,-0.09127186983823776,-0.04772564396262169,-0.05756540969014168,0.08782755583524704,0.02703596092760563,0.02526240423321724,-0.03241134062409401,-0.09447315335273743,-0.034581515938043594,0.017018262296915054,0.11968233436346054,0.0995611697435379,-0.048417795449495316,-0.12694057822227478,-0.061410143971443176,0.08911339193582535,-0.03431116044521332,-0.07307147979736328,-0.005862608086317778,-0.0746229737997055,0.08652739226818085,0.0846216008067131,-0.1769309639930725,0.004114390350878239,0.12337697297334671,0.018406884744763374,-0.01730964705348015,0.001391577417962253,0.07735014706850052,0.042261846363544464,0.005665421485900879,0.1620100885629654,0.1393265575170517,-0.7098701596260071,0.021610155701637268,-0.025311721488833427,-0.12637223303318024,0.11446624249219894,-0.10750500112771988,-0.20983345806598663,0.041782427579164505,-0.09118900448083878,-0.05409608036279678,-0.2709489166736603,0.12079265713691711,0.05909539759159088,-0.21096323430538177,-0.17697694897651672,-0.08097448945045471,-0.07307478785514832,-0.04761194810271263,-0.0435774140059948,-0.0602957047522068,0.06840096414089203,-0.11027906090021133,0.1085992380976677,-0.028806358575820923,0.06233380734920502,-0.16463211178779602,-0.015671873465180397,-0.05520550161600113,0.11298239231109619,-0.020413149148225784,0.04089798778295517,-0.04611203446984291,0.022874340415000916,-0.22108836472034454,-0.00819848757237196,0.0041191671043634415,-0.09933234751224518,0.13246066868305206,-0.26341697573661804,0.15972359478473663,0.07721088081598282,0.053289491683244705,0.19636009633541107,0.14269328117370605,0.04325941577553749,0.003318152390420437,0.03633745387196541,0.0678635835647583,0.17552317678928375,0.0688728615641594,-0.23584991693496704,0.07911716401576996,0.03737858310341835,-0.15431258082389832,0.06119895726442337,0.09039612114429474,-0.059898629784584045,0.1112380102276802,0.1055246964097023,0.11440404504537582,-0.048522382974624634,-0.07441273331642151,-0.04977034404873848,0.08460866659879684,-0.0029713287949562073,0.06259837746620178,0.05684252083301544,0.044958632439374924,0.027126027271151543,-0.05289999768137932,0.012149465270340443,0.13599549233913422,-0.11960224062204361,0.013325490057468414,-0.07541655749082565,-0.14523044228553772,0.04779532924294472,-0.22685709595680237,0.12440796196460724,0.08262722194194794,-0.16171666979789734,0.1954142153263092,-0.13343575596809387,0.014592189341783524,0.09827844053506851,-0.006676163990050554,0.22052383422851562,0.015988856554031372,-0.06800153106451035,-0.12341056764125824,-0.09477443248033524,0.006006356328725815,0.031113678589463234,0.053303830325603485,0.059011392295360565,-0.011863100342452526,0.021038644015789032,0.00013013962598051876,-0.04068435728549957,-0.003321143565699458,0.027933821082115173,-0.005705694202333689,0.0825355127453804,-0.009751733392477036,-0.03848716989159584,-0.002732884371653199,-0.051403701305389404,-0.01179191842675209,-0.1667267382144928,-0.47543174028396606,0.664415180683136,0.3120914697647095,-0.37912678718566895,0.15477614104747772,-0.16240528225898743,-0.09480087459087372,0.41173312067985535,-0.6628556251525879,0.934319794178009,0.7454800605773926,-0.1495152711868286,-0.3187161386013031,0.10167486220598221,-0.6641031503677368,0.39196303486824036,-0.4914264976978302,-0.11290620267391205,-0.7990707159042358,0.767544686794281,0.18582095205783844,0.2583032548427582,0.055380094796419144,0.45229700207710266,0.6360326409339905,0.18181173503398895,0.31944289803504944,-0.21154290437698364,-0.3262459337711334,-0.030375706031918526,0.6997008919715881,0.2374768853187561,0.0021171339321881533,-0.04664614424109459,-0.03801065683364868,-0.023245759308338165,0.254515141248703,-0.039925575256347656,-0.4452971816062927,-0.09430326521396637,0.10439875721931458,-0.1464771330356598,0.09695088863372803,-0.01332639530301094,0.0032636639662086964,0.2468053698539734,-0.0028088248800486326,0.028871439397335052,-0.329123318195343,0.18490904569625854,-0.31141021847724915,-0.010620354674756527,-0.054708149284124374,-0.03532959520816803,0.1291399449110031,-0.22394560277462006,-0.3595792055130005,-0.45250365138053894,0.1925618201494217,0.3448147177696228,-0.33835428953170776,-0.024547461420297623,0.04119979217648506,0.24558500945568085,-0.02830781228840351,0.17566700279712677,-0.09313495457172394,-0.16500192880630493,0.04727201536297798,-0.09300260245800018,0.08069055527448654,0.1818346232175827,-0.11101873964071274,0.05574261024594307,0.1977429836988449,0.10179135948419571,0.13268648087978363,0.1716247946023941,-0.07473676651716232,0.26201143860816956,-0.01163017749786377,0.20117993652820587,-0.11901578307151794,0.13306768238544464,-0.2087171971797943,0.10999234765768051,0.019571563228964806,0.03165324404835701,-0.06340719014406204,-0.10457179695367813,0.06273926794528961,-0.1792363077402115,-0.18892711400985718,0.1576092541217804,-0.06323190033435822,0.021674463525414467,0.010029769502580166,0.14374426007270813,0.24095332622528076,-0.14448189735412598,-0.20241937041282654,0.09101646393537521,0.04895876348018646,-0.2863767147064209,-0.3538406193256378,0.11548920720815659,-0.05641787126660347,0.17485719919204712,0.24872072041034698,0.1759563535451889,-0.17848044633865356,0.01751769334077835,0.06095593050122261,-0.10215811431407928,-0.09448425471782684,0.1006595715880394,-0.06157306209206581,0.17624391615390778,0.08856125921010971,-0.31435737013816833,0.1356484293937683,0.024410847574472427,-0.15309317409992218,0.16827648878097534,-0.001465565524995327,0.1776178926229477,0.11255362629890442,0.14929434657096863,0.22649717330932617,-0.21422460675239563,-0.13893502950668335,0.11979520320892334,-0.08151228725910187,-0.06855524331331253,0.011916577816009521,0.21297337114810944,0.07346735894680023,0.04389190301299095,0.3660992980003357,-0.13425655663013458,-0.009795977734029293,0.016337290406227112,-0.018138710409402847,-0.2511204779148102,0.3863682746887207,0.04350326210260391,0.20402874052524567,0.031235460191965103,0.020329302176833153,-0.17847274243831635,-0.0963122695684433,-0.20193669199943542,-0.008583956398069859,-0.020136766135692596,0.0765150710940361,-0.35912245512008667,0.10778006166219711,0.16987726092338562,-0.07588158547878265,0.4546930491924286,-0.3845376670360565,-0.20284554362297058,0.14403918385505676,0.39076516032218933,0.08960357308387756,0.10365322977304459,0.24105755984783173,0.018694300204515457,0.20036625862121582,0.22143329679965973,-0.06727844476699829,-0.23094892501831055,-0.35040152072906494,0.10702381283044815,0.14657777547836304,0.36607497930526733,-0.20316144824028015,-0.022030044347047806,-0.28269562125205994,0.21020632982254028,-0.24298162758350372,0.2590087652206421,0.10828609019517899,0.09065227210521698,0.04784732684493065,-0.22950594127178192,0.07979468256235123,0.1195017397403717,-0.24205167591571808,0.15263468027114868,0.29526251554489136,0.0479714497923851,0.07025134563446045,0.06143191084265709,0.04031776264309883,-0.2323160469532013,0.08779092133045197,0.3024882376194,0.08870461583137512,-0.2466946840286255,-0.28714463114738464,-0.07184406369924545,0.14934444427490234,-0.26779407262802124,-0.1495337337255478,0.027397386729717255,0.0031689826864749193,-0.37390023469924927,-0.14081892371177673,-0.07824555784463882,-0.05161657929420471,-0.00518016517162323,0.06860144436359406,-0.13866756856441498,-0.21694323420524597,0.07597959786653519,-0.11515870690345764,-0.15568776428699493,0.016690554097294807,0.06370007246732712,0.12017408013343811,0.13533049821853638,-0.10728225857019424,-0.2801055908203125,0.23858585953712463,-0.25677505135536194,-0.011029021814465523,-0.030551623553037643,-0.16632360219955444,0.13368776440620422,-0.13555006682872772,-0.03461765497922897,0.059941451996564865,0.15178970992565155,-0.4197399914264679,-0.0038389635737985373,0.2174803465604782,-0.10244005173444748,0.04388853907585144,-0.033210497349500656,0.1871395707130432,0.03677625209093094,-0.13844265043735504,-0.1358671486377716,-0.07961082458496094,0.10447787493467331,0.16593234241008759,0.1727878749370575,0.2681788504123688,-0.1333295851945877,0.3605172038078308,0.12964430451393127,0.004533824976533651,0.04046542942523956,-0.15218879282474518,-0.4004721939563751,0.03229862451553345,-0.04611733555793762,-0.16641318798065186,-0.3972151279449463,0.03629657253623009,-0.20806199312210083,0.03745483607053757,0.035290077328681946,0.1299460530281067,0.201196551322937,0.2290041446685791,-0.3398846685886383,-0.033666010946035385,-0.29230809211730957,0.06992373615503311,0.003986068069934845,0.01254806574434042,0.03004806861281395,0.09292688220739365,-0.014459065161645412,0.06439769268035889,0.020182965323328972,-0.028384074568748474,-0.05163050442934036,-0.007294605951756239,0.028644122183322906,0.006676719523966312,0.06200293451547623,0.09979233890771866,0.01781989447772503,-0.017885666340589523,-0.0008554385276511312,-0.13409319519996643,-0.002607970731332898,-0.06088392436504364,-0.1504112184047699,0.10592672228813171,0.05019078776240349,0.2127152383327484,0.09368672966957092,-0.024605512619018555,0.16644056141376495,0.06707221269607544,-0.07134712487459183,-0.17551331222057343,-0.06684345006942749,0.00831854809075594,-0.05533679947257042,0.09492379426956177,0.22227701544761658,-0.06268012523651123,0.1051996722817421,-0.1680452823638916,-0.04690715670585632,-0.01765967532992363,0.09074191749095917,-0.10684885084629059,-0.07680026441812515,-0.012859882786870003,0.05902634188532829,-0.12021943926811218,-0.1662885695695877,-0.04305722564458847,0.07333523035049438,0.04242635518312454,-0.04571769759058952,-0.12691205739974976,-0.03385145962238312,0.04932714253664017,-0.061013929545879364,0.1026652604341507,-0.006278967019170523,-0.2077995240688324,-0.04124001786112785,-0.15954478085041046,-0.08566844463348389,0.11856134980916977,-0.03868132829666138,0.03902468830347061,0.022049210965633392,0.2793211042881012,-0.035992350429296494,0.06051496043801308,-0.2923171818256378,-0.17404581606388092,0.0653880164027214,-0.010379147715866566,-0.08322698622941971,0.00874181929975748,0.14034047722816467,0.02264595963060856,-0.07883326709270477,-0.01884094998240471,0.20226946473121643,-0.032389815896749496,-0.207863450050354,0.05373121052980423,-0.17005708813667297,0.21735553443431854,0.07741880416870117,-0.09252533316612244,-0.09350734204053879,0.018480779603123665,0.12901745736598969,0.17942507565021515,-0.15172189474105835,-0.09011615812778473,0.10209442675113678,0.26528045535087585,-0.01687709055840969,0.19284987449645996,-0.03338245302438736,0.18954992294311523,0.026746680960059166,-0.23699668049812317,0.021151216700673103,0.02963128685951233,-0.0834038257598877,-0.055094245821237564,0.14833149313926697,-0.21827250719070435,0.07699417322874069,0.12269877642393112,-0.022580325603485107,0.029996540397405624,0.1032051295042038,-0.19208453595638275,-0.12905822694301605,-0.10149550437927246,0.16950790584087372,0.024466359987854958,0.04420679062604904,-0.04498312249779701,-0.05939960479736328,-0.07961349189281464,0.2038847804069519,0.023153241723775864,-0.019399719312787056,-0.10043035447597504,0.08631762862205505,-0.021096032112836838,0.0014368646079674363,-0.21964623034000397,-0.11802991479635239,0.04899812489748001,0.18289272487163544,0.18211518228054047,0.07690955698490143,-0.0904577374458313,-0.043733373284339905,0.10640101134777069,0.10874537378549576,0.06482228636741638,0.0889565572142601,-0.03475498780608177,-0.030143069103360176,-0.1167723760008812,-0.07688084989786148,0.028588904067873955,-0.004872203804552555,-0.004997266922146082,-0.11464884132146835,-0.013338282704353333,0.010654176585376263,0.006425220984965563,0.05461862310767174,0.049347344785928726,0.014942464418709278,-0.1497294157743454,0.3149040639400482,-0.01875941827893257,-0.02796006388962269,0.04179176315665245,0.12657614052295685,0.21498148143291473,0.03761078044772148,0.4393763244152069,-0.15032052993774414,-0.19040708243846893,0.1221245527267456,0.1898888349533081,0.12689270079135895,0.12018460035324097,-0.30939123034477234,0.14976730942726135,0.09508965164422989,-0.23357965052127838,-0.06461403518915176,0.04828115180134773,0.027486348524689674,-0.19191715121269226,-0.19672006368637085,0.2209007889032364,0.09044088423252106,0.11092612147331238,0.0505048930644989,-0.03280716761946678,0.0714559331536293,0.294400155544281,0.16118015348911285,-0.0998435840010643,-0.2887522280216217,-0.2791370153427124,0.03238089010119438,0.26756569743156433,-0.039181072264909744,0.2546778619289398,-0.29577040672302246,0.11090987920761108,0.1342240571975708,-0.1180853396654129,0.0763527899980545,0.14026182889938354,-0.2793417274951935,0.1688837856054306,0.10332689434289932,-0.2934022843837738,-0.08790218085050583,-0.012828093953430653,-0.18488489091396332,0.07068639248609543,0.09925969690084457,-0.2969568073749542,0.20363260805606842,0.07408375293016434,0.09160514175891876,-0.01752786710858345,0.19614754617214203,0.1636008620262146,0.2207096666097641,-0.13036882877349854,0.09568790346384048,0.24650926887989044,-0.03708549961447716,-0.08300896733999252,0.051042262464761734,-0.11109508574008942,0.012419965118169785,-0.14981834590435028,-0.020167415961623192,0.21590262651443481,0.05985148623585701,0.19084173440933228,0.142637237906456,-0.16663528978824615,-0.1228535920381546,0.10647548735141754,0.07514964044094086,0.30103835463523865,-0.18194074928760529,-0.22954757511615753,0.038416001945734024,-0.04762894660234451,0.2287486046552658,0.1732313185930252,-0.00506192073225975,0.15514864027500153,-0.1506168246269226,-0.1716684103012085,-0.11400164663791656,-0.021508632227778435,-0.03694242611527443,0.0024387857411056757,0.020509891211986542,-0.28743764758110046,0.051881689578294754,0.05268459394574165,0.09609037637710571,0.18424466252326965,-0.015466144308447838,0.0528751015663147,0.09359537065029144,-0.27250540256500244,0.011200863867998123,0.005727464333176613,0.19585157930850983,-0.049903545528650284,0.1829732358455658,0.04895287752151489,0.24687762558460236,-0.009089569561183453,-0.005616614129394293,-0.13003231585025787,0.1920856088399887,0.011639349162578583,-0.03984539955854416,-0.09876208752393723,-0.15893040597438812,0.009418168105185032,-0.05911024287343025,0.18993158638477325,0.07032600045204163,0.02730192430317402,-0.15353915095329285,-0.06876244395971298,-0.12024200707674026,0.06891363114118576,-0.08321027457714081,-0.030065210536122322,0.05873160436749458,-0.13269801437854767,0.16898658871650696,-0.14971710741519928,-0.055255305022001266,0.13575507700443268,-0.10599662363529205,0.17292046546936035,-0.006700253579765558,-0.038435835391283035,-0.06539127230644226,-0.007369679864495993,-0.047059495002031326,-0.14538541436195374,-0.0743914544582367,0.14413967728614807,-0.02928350865840912,0.014005477540194988,0.0781385749578476,0.1744852066040039,-0.18170166015625,0.23401740193367004,0.05551360175013542,-0.17166468501091003,-0.19676977396011353,-0.1439269781112671,-0.20440499484539032,0.24240383505821228,0.12465209513902664,-0.3804025650024414,-0.15171478688716888,0.05077681317925453,-0.0026732105761766434,0.05895834416151047,-0.1836005449295044,0.11716185510158539,-0.09519720822572708,-0.13016334176063538,-0.32709360122680664,0.058037955313920975,0.11491433531045914,0.15783090889453888,0.04221381992101669,-0.275027871131897,-0.20740489661693573,0.07886406779289246,0.24945582449436188,0.0881715789437294,0.17080366611480713,-0.33369436860084534,-0.2212163656949997,0.2123340517282486,0.1923658549785614,-0.15779472887516022,0.006354201585054398,0.19063431024551392,0.0546703040599823,-0.11552352458238602,0.1802464872598648,-0.27056780457496643,0.053563863039016724,0.14223940670490265,-0.15211254358291626,0.13112872838974,0.0519162155687809,-0.0914725735783577,0.059859003871679306,0.13259921967983246,-0.02208726666867733,-0.005054797511547804,-0.0038450711872428656,-0.04295933246612549,-0.048563819378614426,-0.12248723208904266,-0.3183373212814331,0.022794542834162712,0.0597594752907753,-0.22874745726585388,0.06622764468193054,0.10634782165288925,-0.09297583252191544,0.180876225233078,-0.05454337224364281,-0.040149588137865067,0.005777064245194197,-0.14164851605892181,0.13159947097301483,-0.13073010742664337,0.0253208726644516,-0.05191102251410484,0.003890984458848834,-0.24307940900325775,0.04530389606952667,-0.09867706149816513,0.1561783403158188,-0.032431721687316895,-0.08661556988954544,-0.10470829159021378,-0.13053777813911438,0.09474721550941467,-0.11808763444423676,-0.18068142235279083,0.06866908818483353,0.11367753893136978,0.015644697472453117,-0.13263200223445892,0.12947650253772736,0.05037051439285278,-0.2513282597064972,0.04124215245246887,0.015294994227588177,-0.28663337230682373,-0.15166638791561127,-0.004583676811307669,-0.16976328194141388,-0.02016894891858101,-0.0002134569367626682,0.41727083921432495,-0.05968361720442772,-0.14301833510398865,-0.19643880426883698,0.06471850723028183,0.006426212377846241,0.14861103892326355,-0.1067795529961586,0.06715129315853119,0.02522541955113411,-0.23790273070335388,-0.296235591173172,-0.07055197656154633,0.1147768571972847,-0.2165394127368927,-0.006051913369446993,0.14373557269573212,-0.09137766063213348,-0.01824646256864071,-0.15907727181911469,-0.1981768161058426,-0.16065597534179688,0.01780429296195507,0.17161773145198822,0.03377665579319,-0.23868541419506073,-0.0774306207895279,0.13145685195922852,0.09385702013969421,0.11357372999191284,0.12465173006057739,-0.23293781280517578,0.2650044858455658,0.07307513058185577,-0.3028798997402191,0.24615927040576935,-0.004155455622822046,-0.275451123714447,0.0998283103108406,0.14797115325927734,-0.17889703810214996,0.17686519026756287,0.05592487007379532,-0.14674633741378784,0.16882088780403137,-0.038319800049066544,-0.04492703080177307,-0.017975615337491035,0.36664021015167236,0.05061575025320053,-0.06105298176407814,-0.15852288901805878,-0.015015742741525173,-0.06680867075920105,0.1471431702375412,-0.02541413903236389,0.18902069330215454,-0.04638119786977768,-0.2125604748725891,-0.08457151800394058,-0.005991592537611723,0.242259681224823,-0.20126782357692719,-0.04797035828232765,0.05087493732571602,0.05279195308685303,-0.06765999644994736,-0.006388027686625719,-0.16015641391277313,0.002858416410163045,0.190538227558136,0.20376919209957123,0.079025499522686,-0.14464358985424042,-0.21853019297122955,0.020896557718515396,0.14395242929458618,-0.19010917842388153,0.2638424336910248,-0.12079862505197525,0.031045423820614815,-0.1205655038356781,-0.29841068387031555,0.1209164410829544,-0.05124765634536743,-0.26870203018188477,0.0671033263206482,0.1389061063528061,-0.22266465425491333,0.14568424224853516,0.07389022409915924,-0.1833878606557846,0.22633525729179382,0.01166087482124567,-0.012205610051751137,0.123570017516613,-0.09898962825536728,0.0561370775103569,0.022505737841129303,-0.06568260490894318,0.02373727411031723,-0.013929568231105804,-0.12364009022712708,0.15136046707630157,0.2161068320274353,0.0737147182226181,-0.26127028465270996,0.034093085676431656,-0.25328341126441956,0.1552274078130722,0.0975683182477951,-0.030687663704156876,0.07822290807962418,0.2304965853691101,-0.029012855142354965,-0.2333233803510666,-0.07495208829641342,-0.23930788040161133,0.05589786916971207,0.054860107600688934,0.1786995381116867,-0.026637466624379158,-0.006304801907390356,-0.03035692684352398,-0.0958448275923729,0.16375134885311127,-0.054886650294065475,-0.01758657954633236,-0.10705255717039108,-0.028812333941459656,-0.26246052980422974,0.008854439482092857,-0.061821211129426956,0.06513307243585587,0.026241518557071686,0.050850413739681244,-0.21337932348251343,-0.08823466300964355,0.12540391087532043,0.15926142036914825,-0.05014874413609505,0.35428404808044434,-0.05261731520295143,-0.049287959933280945,0.16106699407100677,0.18264149129390717,0.022923067212104797,-0.04418110102415085,-0.020820876583456993,-0.10568957030773163,0.06099805608391762,0.08128928393125534,-0.011075612157583237,-0.026198042556643486,-0.11257952451705933,-0.20537669956684113,-0.17755068838596344,0.1746295988559723,-0.09612135589122772,-0.16031281650066376,0.06265000253915787,0.06343168765306473,-0.040440138429403305,-0.03739582747220993,-0.0030259082559496164,-0.060623057186603546,0.20770306885242462,0.024823874235153198,-0.0283653661608696,-0.04407985135912895,-0.14415858685970306,0.10832124948501587,0.12085621803998947,0.06756383180618286,-0.07332639396190643,0.09259473532438278,0.12614963948726654,-0.01687406748533249,-0.0834871307015419,0.12881283462047577,0.09629054367542267,-0.18245427310466766,0.2539050877094269,-0.016585100442171097,-0.07873284071683884,0.04479397460818291,-0.011332213878631592,-0.17627860605716705,0.14237160980701447,0.029772022739052773,0.06126083806157112,-0.014567697420716286,0.05629194527864456,0.04907303676009178,-0.05859590321779251,0.05081500485539436,-0.1296386569738388,-0.06820673495531082,0.0012099826708436012,-0.055645592510700226,-0.13995951414108276,-0.088861383497715,-0.04586584493517876,-0.01807401143014431,0.08162692189216614,-0.00464628916233778,0.0814756378531456,0.08637984842061996,-0.11476478725671768,-0.2623278498649597,-0.08291156589984894,-0.10620176792144775,0.003930435515940189,0.05814668536186218,-0.09557580202817917,-0.026753371581435204,0.009956776164472103,-0.05296254903078079,-0.18220414221286774,0.17721925675868988,-0.23990097641944885,-0.15556378662586212,-0.010847041383385658,-0.0604073703289032,-0.11673782765865326,0.21264217793941498,0.17696739733219147,0.13170351088047028,-0.007610008120536804,0.07834096997976303,0.1843625158071518,-0.1067267656326294,-0.010679105296730995,0.07962929457426071,-0.1460753232240677,-0.07610337436199188,0.190466970205307,0.05694964528083801,0.01773376390337944,0.03578734025359154,0.006761484779417515,-0.11014405637979507,0.09840299189090729,0.12430770695209503,0.007160549517720938,-0.06621468812227249,-0.07546667009592056,-0.20084679126739502,-0.0005504610599018633,0.024369966238737106,0.040643732994794846,0.16879940032958984,-0.044369544833898544,0.041443224996328354,0.16632093489170074,0.06425703316926956,0.04062695801258087,-0.10622852295637131,0.08946193009614944,-0.061372142285108566,-0.06997666507959366,0.03260708227753639,-0.08956798911094666,-0.19107772409915924,0.005251871421933174,0.0979713425040245,0.033269722014665604,-0.10058777779340744,0.18422046303749084,0.11277580261230469,-0.0470518134534359,-0.05835680663585663,0.08142503350973129,-0.09504702687263489,-0.09238278865814209,-0.089351125061512,-0.07960916310548782,-0.10746444016695023,-0.194053053855896,-0.0586279034614563,0.2179161012172699,-0.21980588138103485,-0.06855755299329758,0.0005090385093353689,-0.0689191222190857,0.09159358590841293,0.053024083375930786,-0.17618092894554138,-0.3418668806552887,0.2231147289276123,0.16207601130008698,0.20238080620765686,-0.10148816555738449,-0.09348394721746445,-0.13169978559017181,0.2791253626346588,-0.21262693405151367,-0.05188256874680519,0.2933174967765808,0.054078973829746246,-0.017954520881175995,-0.19715999066829681,0.2829729914665222,0.008369248360395432,-0.16386175155639648,0.035707902163267136,-0.2420080602169037,0.16740523278713226,0.06937506049871445,0.0714709609746933,-0.11177650839090347,-0.1670471727848053,-0.010875475592911243,0.21391364932060242,0.02605537697672844,0.07759130001068115,-0.09691371768712997,-0.12002173811197281,-0.31274867057800293,0.22457022964954376,-0.008124984800815582,-0.1704007387161255,0.02210407331585884,-0.21443502604961395,0.02800177037715912,0.1123608946800232,-0.1933182030916214,0.06530100852251053,0.10273469239473343,-0.1752195805311203,0.021145077422261238,0.03547642007470131,-0.16808263957500458,0.006944148801267147,0.19477395713329315,-0.07892390340566635,0.09894045442342758,0.200550377368927,-0.055934153497219086,0.14374223351478577,0.008471654728055,-0.1949276477098465,-0.11557423323392868,-0.09632359445095062,0.1483510583639145,0.010290916077792645,0.002600796753540635,-0.13174882531166077,0.08802913129329681,0.08915063738822937,-0.19491355121135712,0.03123224712908268,0.14710845053195953,0.034817520529031754,0.010897045023739338,-0.05250844731926918,-0.17510442435741425,0.12276453524827957,-0.07110481709241867,0.2118924856185913,-0.06814929097890854,-0.043048158288002014,-0.1929628998041153,-0.04299750551581383,0.09534747153520584,-0.11389529705047607,0.09622987359762192,-0.049721609801054,0.07281835377216339,-0.05803142115473747,-0.14604967832565308,-0.018023401498794556,-0.06202709302306175,-0.04302530735731125,-0.019468698650598526,-0.027551990002393723,-0.08454495668411255,0.2522538900375366,0.015514340251684189,-0.03729771822690964,0.05328308790922165,-0.04766745865345001,0.13411594927310944,-0.016422858461737633,-0.05331883952021599,0.030397580936551094,-0.09643646329641342,-0.0027892999351024628,0.005749075207859278,-0.029317617416381836,-0.07713419198989868,0.04095655679702759,0.06102348119020462,-0.0873703807592392,-0.07775723934173584,-0.005087521858513355,0.00024313225003425032,0.003426322713494301,0.009700370021164417,0.8165762424468994,0.3195473849773407,0.9130938053131104,-0.7110379338264465,-0.19684353470802307,0.06647983193397522,0.12575942277908325,-0.11435812711715698,0.5573355555534363,0.5009666681289673,-0.8309137225151062,0.628084123134613,-0.07335550338029861,-0.9633901119232178,-0.08914283663034439,0.011160474270582199,-0.12022249400615692,-0.29769787192344666,0.08111697435379028,-0.4636683464050293,0.04415934160351753,0.11448673903942108,-0.10358020663261414,-0.12346773594617844,-0.4390459656715393,-0.18262237310409546,-0.13242198526859283,-0.05024193599820137,-0.0637798011302948,0.027702735736966133,0.2730802893638611,-0.01646353304386139,-0.057039570063352585,-0.05664649233222008,0.12885034084320068,-0.2482779622077942,-0.10581501573324203,-0.13311117887496948,0.353423535823822,0.07205028086900711,-0.37479645013809204,-0.22602032124996185,-0.08520142734050751,0.19216124713420868,0.13789992034435272,0.017489833757281303,0.17550654709339142,0.24247530102729797,-0.25489377975463867,0.14595642685890198,-0.43100541830062866,0.1690342277288437,-0.35838043689727783,-0.383341908454895,-0.16913293302059174,0.5591129660606384,0.2779088020324707,-0.15292038023471832,-0.26180610060691833,-0.49639081954956055,0.2816752791404724,0.4483724534511566,-0.24172867834568024,0.39463740587234497,-0.23472683131694794,0.10335735231637955,-0.2278192937374115,0.15838900208473206,0.29619935154914856,0.22215574979782104,0.2622354030609131,-0.034238237887620926,-0.3181477189064026,-0.2940833270549774,0.11599520593881607,-0.3066434860229492,-0.09195607155561447,0.2652522623538971,0.09200294315814972,-0.31040480732917786,0.2207382321357727,-0.2473425418138504,0.05009505897760391,0.06120235100388527,0.17362286150455475,0.003997679799795151,-0.12838448584079742,-0.08997556567192078,0.29852932691574097,0.3953130543231964,0.18933050334453583,0.3204837143421173,-0.19238243997097015,-0.3628999590873718,-0.22618091106414795,-0.02796202339231968,-0.22171127796173096,0.17389994859695435,0.23973916471004486,0.385404497385025,0.019318444654345512,0.2653079032897949,-0.04525170102715492,-0.09549201279878616,0.4388289749622345,0.483316570520401,-0.21440920233726501,0.35236120223999023,0.032182686030864716,-0.12308415025472641,-0.4582218527793884,0.13936743140220642,-0.026050923392176628,-0.45811498165130615,-0.3201354146003723,-0.13434694707393646,-0.5453829765319824,-0.39297932386398315,0.19031444191932678,0.5348771810531616,0.11505183577537537,0.2047581821680069,0.020524784922599792,-0.01080747414380312,0.5188997387886047,0.10816427320241928,-0.19514882564544678,0.12394930422306061,-0.11587678641080856,0.3451366722583771,-0.03590284287929535,0.14675499498844147,0.11765636503696442,-0.09242431074380875,-0.050594113767147064,0.14602792263031006,-0.044788941740989685,-0.0034258957020938396,0.014469359070062637,0.17073853313922882,0.06509558856487274,-0.023245519027113914,0.2294580191373825,0.04483693838119507,-0.2845730781555176,0.0835038274526596,-0.11634519696235657,0.049262262880802155,0.0687965452671051,0.03993292897939682,-0.21553629636764526,-0.3726620078086853,0.2476503700017929,0.09416880458593369,-0.14933039247989655,-0.4042896330356598,0.07581018656492233,0.286681205034256,-0.0262027308344841,-0.18410702049732208,0.15259483456611633,0.12857945263385773,0.1733039766550064,-0.09510422497987747,-0.15178509056568146,0.08212018013000488,-0.14109757542610168,0.2939760684967041,-0.36642181873321533,-0.14663419127464294,0.2568342685699463,0.18714311718940735,0.3792317807674408,-0.4695703089237213,0.16973407566547394,0.25890496373176575,-0.1017848551273346,0.15035788714885712,-0.47193223237991333,-0.2365180402994156,-0.15473642945289612,0.12587936222553253,-0.05923018977046013,-0.10174398869276047,0.14578628540039062,-0.22599512338638306,-0.032432880252599716,-0.020889265462756157,-0.20193582773208618,0.14803297817707062,0.0454946793615818,-0.230751633644104,0.02358190342783928,0.35592085123062134,-0.40859949588775635,0.03949510306119919,-0.23104076087474823,-0.36603087186813354,-0.2039402276277542,-0.04076455160975456,-0.2005458027124405,0.22422130405902863,0.22087062895298004,-0.06834854930639267,-0.5321709513664246,0.5151429772377014,-0.16352660953998566,-0.2910052239894867,0.009165063500404358,0.07968953251838684,0.2571057677268982,0.32759493589401245,0.12489838153123856,0.24780753254890442,-0.17520949244499207,0.08357371389865875,0.14564532041549683,0.08406046032905579,-0.14754711091518402,-0.1961437165737152,-0.228841170668602,0.14669355750083923,-0.0614415742456913,-0.2733707129955292,-0.1069178655743599,-0.1923520863056183,0.10344506055116653,0.2573172450065613,0.14513219892978668,0.23407746851444244,-0.22579720616340637,-0.06598813831806183,0.12063862383365631,0.2195407897233963,0.2813326120376587,-0.16120558977127075,-0.2190546840429306,-0.27233949303627014,-0.13556291162967682,-0.0432966910302639,0.0639638602733612,0.23066897690296173,0.020052462816238403,0.38758307695388794,-0.32481494545936584,-0.2781243920326233,0.3311171233654022,0.2082277536392212,-0.261705219745636,0.009869932197034359,-0.409264475107193,0.08614923804998398,0.32870495319366455,0.19238173961639404,0.06181913614273071,0.22886218130588531,-0.1952766478061676,0.48774152994155884,-0.4008621871471405,-0.0949760377407074,-0.5137134194374084,-0.34017840027809143,0.14048747718334198,-0.16585668921470642,-0.2069731205701828,0.03579644486308098,-0.19089289009571075,-0.23870159685611725,-0.00885662529617548,0.27290984988212585,0.20177508890628815,-0.19625671207904816,-0.15069203078746796,0.021578989923000336,-0.012352474965155125,-0.005575390532612801,-0.012431799434125423,-0.028649745509028435,-0.0019541713409125805,0.06227431818842888,-0.10483381152153015,0.09029105305671692,-0.0010820652823895216,0.027395963668823242,-0.012343266978859901,-0.055911798030138016,0.06127291917800903,-0.006399078760296106,0.18403634428977966,0.2714999318122864,0.033193979412317276,0.07226431369781494,0.08751127123832703,-0.16251498460769653,-0.17019769549369812,0.2960202097892761,-0.3583269715309143,-0.14913973212242126,0.15710552036762238,0.08195125311613083,0.12894155085086823,-0.10822177678346634,-0.06802795827388763,0.22211691737174988,-0.2169390469789505,0.023283831775188446,0.02313784696161747,0.12768039107322693,0.008042472414672375,0.16643525660037994,0.08777684718370438,-0.1817353218793869,-0.12672212719917297,-0.03543469309806824,0.16812852025032043,0.250905305147171,-0.16998180747032166,-0.012060265056788921,0.025225507095456123,0.2553924024105072,-0.14993324875831604,-0.03599179536104202,0.07779889553785324,-0.1644672453403473,-0.10199731588363647,0.12685143947601318,0.15071827173233032,-0.21515071392059326,-0.04434487596154213,0.02921043522655964,0.019526083022356033,0.08175181597471237,-0.1949141025543213,-0.14248423278331757,0.2788574695587158,-0.002167943399399519,-0.05064741149544716,0.4365728795528412,0.06884241849184036,0.15541329979896545,0.12213194370269775,-0.11805342137813568,-0.2818974256515503,0.3158874809741974,-0.13004636764526367,-0.2651929557323456,0.21660806238651276,0.09253586828708649,0.2663170099258423,-0.16346943378448486,-0.025489626452326775,0.1915408819913864,-0.29659467935562134,-0.13321040570735931,-0.14441268146038055,0.3182261288166046,-0.027306213974952698,-0.014820178970694542,0.03521033748984337,-0.17448677122592926,-0.20990994572639465,0.1546909064054489,0.20858287811279297,0.13774031400680542,-0.045075591653585434,-0.08893369883298874,-0.09159523248672485,0.09538877010345459,-0.08665283769369125,-0.29335087537765503,0.03965960815548897,0.023509008809924126,-0.16776956617832184,-0.11320437490940094,0.11383461952209473,-0.12290488183498383,-0.0451669804751873,0.20342327654361725,0.09310486912727356,0.24108144640922546,-0.22253474593162537,-0.22546659409999847,0.06360547244548798,-0.0730050578713417,-0.14416249096393585,0.20095568895339966,0.02975788339972496,0.1943035125732422,0.09219013899564743,0.11354315280914307,-0.20067816972732544,0.04591580107808113,-0.2373524159193039,-0.229037806391716,0.13427546620368958,0.009834503754973412,0.024166766554117203,-0.2002565860748291,-0.05850113555788994,0.19727927446365356,-0.0502280592918396,0.08394962549209595,-0.10617420822381973,-0.089398592710495,-0.2836073935031891,0.10133355855941772,0.029560476541519165,-0.07491940259933472,-0.04302942380309105,-0.12314239889383316,-0.007864637300372124,0.15229250490665436,-0.08036656677722931,0.023104043677449226,0.12475019693374634,0.3371356725692749,0.07428980618715286,-0.04223436489701271,0.10619276762008667,-0.051555898040533066,-0.12009267508983612,0.021030809730291367,0.14360728859901428,-0.021763071417808533,0.07012239098548889,0.18799947202205658,-0.013093921355903149,0.15772488713264465,-0.0971483439207077,-0.044304169714450836,0.01591314561665058,0.029666464775800705,-0.04529258608818054,-0.504388153553009,0.14718469977378845,-0.11026943475008011,-0.2630283534526825,-0.0394364595413208,0.29079535603523254,-0.18114639818668365,0.04771368205547333,0.24848268926143646,-0.20609623193740845,0.04864928126335144,-0.11281309276819229,0.19428783655166626,0.029976731166243553,-0.21910952031612396,0.27647730708122253,0.21670524775981903,0.16266877949237823,-0.3198370337486267,0.16521012783050537,-0.03536640480160713,-0.15754450857639313,-0.11813356727361679,0.18176747858524323,-0.053336042910814285,0.01830579712986946,-0.3256078064441681,0.011638090945780277,0.048966582864522934,0.2268117517232895,-0.1593254655599594,0.00392210902646184,0.05174502730369568,-0.15892335772514343,-0.11712223291397095,0.13106656074523926,0.04402482137084007,-0.08868525922298431,0.06207370385527611,0.04709548503160477,-0.26199600100517273,0.05903889238834381,-0.34963488578796387,0.16385625302791595,0.24364067614078522,-0.09667672216892242,0.06602213531732559,-0.0870826467871666,0.47206106781959534,0.0006594767910428345,0.07971910387277603,0.17814098298549652,-0.06282160431146622,-0.07856135070323944,0.47457846999168396,-0.08759774267673492,-0.28763335943222046,0.29176631569862366,0.09367465227842331,0.18311703205108643,-0.14720340073108673,0.1438353955745697,0.2552278935909271,-0.29347825050354004,-0.15583929419517517,0.038485798984766006,0.1317049115896225,-0.2094224989414215,0.16357828676700592,0.08844447880983353,-0.028721904382109642,-0.14534063637256622,0.06576038151979446,0.22513428330421448,0.23579755425453186,0.00258838664740324,0.04218476638197899,-0.1751655489206314,0.3837706446647644,-0.0991855040192604,-0.04105130583047867,0.017304960638284683,-0.1034076139330864,-0.20878712832927704,0.18456889688968658,0.08592250198125839,-0.10792558640241623,0.10729861259460449,0.08942284435033798,-0.12214413285255432,0.21538302302360535,-0.19063179194927216,-0.21738728880882263,0.2352936863899231,0.08884216845035553,-0.0847516804933548,0.33755892515182495,-0.038599949330091476,-0.1274508535861969,-0.19400346279144287,0.12272292375564575,0.019598176702857018,-0.04503166675567627,0.18925252556800842,-0.19216741621494293,0.07575830072164536,-0.0029603720176965,0.004980687517672777,-0.21568964421749115,-0.04310208931565285,-0.0023017628118395805,-0.27606067061424255,-0.05594731494784355,0.17825615406036377,-0.13808391988277435,-0.04616255685687065,-0.2241983711719513,-0.18668152391910553,0.00954499002546072,-0.17017699778079987,-0.0923343375325203,0.02534361183643341,0.14031966030597687,0.15519066154956818,-0.1365739107131958,0.07678114622831345,0.16231411695480347,0.09536923468112946,-0.27416321635246277,0.2601732611656189,-0.02346819080412388,0.00606781430542469,-0.058652546256780624,-0.028737619519233704,-0.18041802942752838,0.00019362306920811534,0.052668843418359756,-0.2401541769504547,0.2173582911491394,-0.08976791799068451,-0.10398471355438232,0.3123776912689209,0.02413913980126381,-0.0501137375831604,0.027513617649674416,-0.0651538223028183,0.0639747753739357,-0.01506357453763485,0.030669590458273888,-0.39232248067855835,0.2636132836341858,0.05308752506971359,-0.16739094257354736,0.03069933131337166,-0.023573407903313637,0.03857408091425896,0.18462970852851868,-0.03419594094157219,0.09889162331819534,-0.03997347503900528,-0.003019444877281785,-0.18972080945968628,0.28126442432403564,0.2186671644449234,0.09157931804656982,-0.22676563262939453,-0.04950571060180664,-0.10924600809812546,-0.10336484014987946,0.08298928290605545,0.06170595809817314,0.04456370323896408,0.3279898464679718,-0.21167424321174622,-0.052809350192546844,-0.03160169720649719,-0.06993044912815094,-0.18616348505020142,-0.09993215650320053,-0.15451394021511078,0.11272325366735458,0.04010772705078125,0.04502424970269203,0.10239547491073608,0.2014802247285843,-0.16162405908107758,0.02086758241057396,0.05246911197900772,0.22306419909000397,-0.2223496437072754,-0.14309941232204437,0.0004447742539923638,0.34136995673179626,-0.014493498019874096,0.059913329780101776,0.1839807629585266,-0.0048410892486572266,-0.2908799946308136,0.2616303563117981,-0.002653298433870077,-0.050770923495292664,0.12401805818080902,-0.007186208385974169,0.10198336094617844,-0.2480241358280182,0.04597598686814308,0.07031437754631042,-0.344065397977829,-0.08329840749502182,-0.11951775848865509,0.18312330543994904,-0.08713904768228531,0.18085047602653503,0.010200174525380135,-0.04677271842956543,-0.20670291781425476,0.035247527062892914,0.0868181511759758,0.07961273193359375,-0.0005956030217930675,0.013665287755429745,-0.22728969156742096,0.13539119064807892,0.0013584827538579702,-0.23319631814956665,-0.008566568605601788,0.10318681597709656,-0.05702430009841919,0.027839694172143936,0.002112728776410222,-0.10352932661771774,0.05350957438349724,-0.018599733710289,-0.012568931095302105,0.2797750234603882,-0.11382955312728882,-0.13788150250911713,0.1250486671924591,0.03632284328341484,0.08139808475971222,0.37317007780075073,0.09371121972799301,0.15931180119514465,0.14279167354106903,0.07995914667844772,-0.16366173326969147,0.21023692190647125,-0.04845293611288071,-0.2711986005306244,0.023299576714634895,-0.048464737832546234,0.2173013687133789,-0.2452870011329651,0.20979081094264984,0.16247309744358063,-0.29882320761680603,0.06122201308608055,-0.07820277661085129,-0.07217814028263092,-0.10072855651378632,0.11704399436712265,-0.06607397645711899,0.060732513666152954,-0.048493124544620514,-0.001590595580637455,0.04393666610121727,0.08127535879611969,-0.1469980925321579,0.10515861958265305,-0.21139328181743622,0.20566557347774506,0.05713887885212898,-0.1683567464351654,0.15138912200927734,-0.14477890729904175,-0.0004157516232226044,0.10663622617721558,0.0024879479315131903,-0.21300147473812103,0.0362551175057888,0.0946461409330368,-0.038023363798856735,0.2808498740196228,-0.14885132014751434,-0.19960914552211761,0.13594882190227509,0.07211168855428696,-0.052161235362291336,0.08321982622146606,-0.06362494081258774,-0.03462794050574303,0.09687486290931702,0.03523651137948036,-0.12326230853796005,0.27732303738594055,-0.0840708464384079,0.064791239798069,0.0005496620433405042,-0.0922178104519844,-0.11729638278484344,0.04716825485229492,-0.09122689068317413,-0.018528562039136887,0.03831345587968826,-0.019019974395632744,-0.09631236642599106,0.044994913041591644,0.089975506067276,-0.0052947066724300385,0.10772967338562012,0.01501480769366026,0.05834900215268135,-0.009986268356442451,0.05401620641350746,-0.04239104315638542,0.2187398374080658,-0.027967508882284164,-0.10533802211284637,0.03558751568198204,-0.08755215257406235,0.0018087472999468446,-0.08558221906423569,-0.12810036540031433,0.09260264039039612,0.03543888404965401,-0.13409072160720825,0.11762592196464539,-0.006027514580637217,0.13465899229049683,0.007045716512948275,-0.0006499818991869688,0.09127174317836761,-0.031215636059641838,-0.19611704349517822,-0.11215591430664062,-0.06571749597787857,0.05733590945601463,0.0004302425659261644,0.06524926424026489,0.16590723395347595,-0.02351410686969757,-0.011073893867433071,0.078914575278759,0.02124742418527603,0.10522712022066116,0.035958871245384216,0.012326025404036045,-0.14933431148529053,0.17921794950962067,0.07349924743175507,-0.19439919292926788,0.13980820775032043,-0.04371172934770584,0.04602469876408577,0.011241325177252293,0.08170168846845627,-0.08232828229665756,-0.19442977011203766,-0.22049054503440857,0.16938038170337677,-0.25842705368995667,-0.0012015984393656254,-0.15227805078029633,0.27475497126579285,-0.12632113695144653,0.19056560099124908,0.028782734647393227,-0.006175089627504349,-0.008127884939312935,-0.07745583355426788,-0.024492613971233368,-0.023103460669517517,-0.11710481345653534,0.12172344326972961,-0.051558446139097214,