{"version":"0.5.4","metadata":{"date":{"year":2025,"month":11,"day":6,"hour":19,"minute":23,"second":22},"loudness":-17.59065818786621,"gain":0.2621249206856694,"name":"GK MB Fusion DI Flat","modeled_by":"markhopkinsbass","gear_type":"amp","gear_make":"tz-make","gear_model":"tz-model","tone_type":"overdrive","input_level_dbu":null,"output_level_dbu":null,"training":{"settings":{"ignore_checks":false},"data":{"latency":{"manual":null,"calibration":{"algorithm_version":1,"delays":[-23],"safety_factor":1,"recommended":-24,"warnings":{"matches_lookahead":false,"disagreement_too_high":false}}},"checks":{"version":3,"passed":true}},"validation_esr":0.0019722353858128436}},"architecture":"WaveNet","config":{"layers":[{"input_size":1,"condition_size":1,"head_size":8,"channels":16,"kernel_size":3,"dilations":[1,2,4,8,16,32,64,128,256,512],"activation":"Tanh","gated":false,"head_bias":false},{"input_size":16,"condition_size":1,"head_size":1,"channels":8,"kernel_size":3,"dilations":[1,2,4,8,16,32,64,128,256,512],"activation":"Tanh","gated":false,"head_bias":true}],"head":null,"head_scale":0.02},"weights":[-0.0032491376623511314,0.5968209505081177,-0.9138309955596924,-0.6057676672935486,-0.37270689010620117,0.2639518082141876,0.00034006263012997806,0.9886760711669922,-0.15751521289348602,0.24314814805984497,-0.407915860414505,-0.12748917937278748,-0.958638608455658,-0.6741997599601746,-0.39824193716049194,0.0002977007534354925,0.13747471570968628,0.08916481584310532,0.029920555651187897,-0.12083826214075089,-0.01817985251545906,0.09980805963277817,0.03347913175821304,0.18629828095436096,-0.003339551156386733,0.07279959321022034,0.19781926274299622,-0.11815648525953293,-0.03284643217921257,0.03719456493854523,-0.04358818009495735,0.07062673568725586,-0.1661088913679123,-0.0805836021900177,-0.07007083296775818,-0.0544184148311615,-0.14603596925735474,0.0548047237098217,-0.01655135117471218,0.044193390756845474,0.09212172031402588,0.027615603059530258,0.06067047640681267,-0.1951560378074646,-0.17462044954299927,-0.08481214940547943,0.14901317656040192,0.16714686155319214,-0.04554153233766556,0.03807933256030083,0.15318529307842255,0.15415483713150024,0.12142766267061234,0.09378951042890549,0.11620675772428513,-0.023000424727797508,0.10194168984889984,-0.09527064859867096,-0.0380939282476902,0.0024882457219064236,0.08165481686592102,0.033825334161520004,-0.13982193171977997,-0.06484894454479218,0.021058889105916023,-0.027882521972060204,-0.1091902107000351,0.21215824782848358,0.2316906750202179,0.08511453866958618,-0.2926754057407379,-0.2020188570022583,0.1046401783823967,-0.05795479193329811,-0.015410244464874268,0.1813642978668213,-0.14530865848064423,-0.2649800181388855,0.07141371816396713,0.07867010682821274,0.02686547487974167,0.10389561206102371,-0.002744836499914527,-0.231087327003479,-0.012270510196685791,0.16127997636795044,0.12626022100448608,-0.11171954870223999,-0.10584460943937302,-0.22174426913261414,0.06890680640935898,0.24065716564655304,0.23421016335487366,-0.009603363461792469,-0.3216821849346161,-0.24265314638614655,0.11246205121278763,-0.14155229926109314,-0.26363393664360046,-0.05824652686715126,-0.04552942141890526,-0.04961049184203148,-0.011242184787988663,-0.2194441258907318,-0.2810538411140442,0.049862198531627655,-0.2859842777252197,-0.26173537969589233,0.03749848157167435,0.08157467842102051,-0.08008816838264465,0.031761400401592255,-0.07129355520009995,0.07357044517993927,0.12851357460021973,-0.11192314326763153,-0.11024903506040573,0.010202649980783463,0.016017736867070198,0.11092840880155563,0.049354635179042816,0.0028626136481761932,0.003023094730451703,0.06247551739215851,-0.14349666237831116,-0.006654110737144947,-0.036918383091688156,-0.07394073903560638,-0.12844306230545044,-0.11584609001874924,0.005382891278713942,0.07768049836158752,-0.12711066007614136,-0.006878473795950413,0.02431446872651577,-0.010567702353000641,0.043677639216184616,0.09487298130989075,0.04440968856215477,0.08981424570083618,0.055806372314691544,0.08824479579925537,0.1326165795326233,0.07267351448535919,-0.13467730581760406,-0.06307473033666611,0.17960214614868164,0.003770123701542616,-0.07690853625535965,-0.03644997999072075,-0.1416042596101761,-0.12731514871120453,0.04673924669623375,0.07298126816749573,0.08164829760789871,-0.056578200310468674,0.08919104933738708,-0.13559038937091827,-0.03012191690504551,-0.23769590258598328,-0.04190562665462494,0.017269615083932877,-0.28149664402008057,-0.12228422611951828,0.0345136821269989,0.02976127900183201,-0.07033587247133255,-0.004324640147387981,-0.15494446456432343,-0.014234787784516811,0.07571500539779663,-0.08056347072124481,0.12286896258592606,-0.011136245913803577,-0.1616632640361786,0.09626742452383041,0.03632697835564613,-0.04718280956149101,0.09587148576974869,-0.21436156332492828,0.012913797982037067,-0.02167203463613987,0.16160546243190765,0.06693664193153381,0.03588015213608742,-0.01716718263924122,-0.06056948006153107,-0.01707395538687706,-0.057511135935783386,0.1104927659034729,0.11096018552780151,0.03063265234231949,-0.13214902579784393,0.004918047692626715,-0.1551695168018341,-0.0956454798579216,-0.0900021567940712,-0.005563225131481886,-0.11078536510467529,-0.008191985078155994,-0.05283249169588089,0.06801611930131912,-0.11501993238925934,-0.1559334546327591,-0.10406892746686935,0.1139984056353569,-0.08894529938697815,0.10396809875965118,-0.03377927094697952,-0.13271500170230865,-0.10547719150781631,-0.22190043330192566,0.08554593473672867,-0.06911345571279526,0.19179201126098633,-0.03973207622766495,-0.0646977350115776,0.11370709538459778,0.054642822593450546,-0.07810846716165543,0.1756565421819687,0.0769694522023201,0.08734917640686035,-0.17053022980690002,-0.08466419577598572,-0.0020137582905590534,-0.017658518627285957,-0.04586448147892952,0.15391209721565247,-0.21607738733291626,0.06287600100040436,0.07254539430141449,0.18033596873283386,0.05213575065135956,0.15738137066364288,-0.27047112584114075,0.13479115068912506,-0.13002005219459534,0.13046133518218994,-0.01761040836572647,0.10189922899007797,0.2799680829048157,-0.10022787004709244,0.06098347157239914,0.2663872539997101,-0.19993092119693756,0.1463664025068283,0.07544320076704025,-0.05964827537536621,0.018779054284095764,0.10860919952392578,-0.03613964468240738,0.167179137468338,-0.03736165165901184,-0.029877860099077225,0.045257750898599625,-0.014017614535987377,0.07723107933998108,0.003985887859016657,-0.18976937234401703,-0.2003358006477356,0.10550438612699509,0.17363424599170685,0.23612117767333984,0.03663208708167076,0.045225776731967926,0.07660014927387238,0.022831376641988754,0.20731553435325623,0.1551968902349472,-0.09598171710968018,-0.1536489874124527,-0.2718448042869568,0.03287024796009064,-0.0426582470536232,-0.048881154507398605,0.1023179292678833,-0.19664521515369415,-0.14369907975196838,0.05267968773841858,0.0978204756975174,0.03334421291947365,-0.09195678681135178,0.02884971909224987,-0.08722008019685745,0.14887946844100952,0.04547758027911186,0.16861103475093842,-0.04629170149564743,0.07884638011455536,0.03563055768609047,0.04155350849032402,0.14313699305057526,0.11934097111225128,-0.05122211202979088,0.008813878521323204,0.21952833235263824,-0.12787625193595886,0.15373735129833221,0.07867597788572311,-0.08367575705051422,0.061308592557907104,-0.08900362998247147,0.05095186084508896,0.06783618777990341,-0.19073590636253357,-0.005758230108767748,-0.05371038615703583,-0.031390782445669174,-0.04354613646864891,-0.0038660401478409767,0.07353483885526657,0.07971256226301193,0.057945169508457184,0.1454794853925705,0.12149438261985779,0.030358929187059402,0.0907718613743782,0.08083540201187134,-0.08677402883768082,-0.09098142385482788,-0.020959923043847084,-0.08616334944963455,0.11255482584238052,0.09990684688091278,0.009177064523100853,-0.01107965037226677,-0.013355293311178684,0.17438378930091858,0.02911343425512314,-0.06920424103736877,-0.22880639135837555,0.05701715126633644,0.07121670991182327,0.010840743780136108,0.15324749052524567,0.13767719268798828,0.23584876954555511,0.22005495429039001,0.1418561339378357,0.08252829313278198,0.042099904268980026,0.14586639404296875,0.19458404183387756,0.005499645601958036,0.15538561344146729,0.179319828748703,0.17577767372131348,-0.06275538355112076,0.07332576811313629,-0.13638454675674438,0.0033018882386386395,-0.022013628855347633,0.06785142421722412,0.13214005529880524,0.0366184376180172,-0.0129396952688694,0.16236940026283264,-0.079108327627182,-0.009409211575984955,-0.19626641273498535,-0.11877593398094177,-0.15490871667861938,0.022555258125066757,0.09767671674489975,0.09797613322734833,0.020948851481080055,-0.15415352582931519,-0.04989117011427879,0.0820104330778122,-0.10028589516878128,0.06769542396068573,-0.2565133273601532,-0.09520469605922699,-0.09850332885980606,0.013715473935008049,0.15095560252666473,0.07474974542856216,-0.005075830966234207,0.08792529255151749,0.16887269914150238,0.057575322687625885,0.08294203877449036,0.08536656945943832,-0.05718496814370155,0.1750696301460266,0.04643601179122925,-0.0036503777373582125,-0.0287188533693552,0.027671849355101585,-0.07924725860357285,-0.013741833157837391,-0.12053653597831726,-0.1776379942893982,-0.0889163613319397,0.05361667275428772,0.003176709869876504,-0.13770487904548645,-0.26258692145347595,-0.06202010437846184,0.11672064661979675,-0.12275958806276321,-0.1827649474143982,0.16140848398208618,0.03411361575126648,-0.1374504715204239,0.11120036244392395,0.13898113369941711,-0.027656948193907738,0.0559544563293457,-0.057498518377542496,0.00039898406248539686,0.09539759159088135,0.036765050143003464,-0.07846447080373764,-0.017565403133630753,-0.07431241124868393,-0.05131835862994194,-0.02151728980243206,0.20133835077285767,-0.015795892104506493,-0.06664339452981949,-0.02088029496371746,0.03923337534070015,0.06426572799682617,-0.08748069405555725,0.017405621707439423,-0.08399414271116257,-0.09137216955423355,0.026123089715838432,-0.13301366567611694,0.0882333442568779,0.1481758952140808,-0.020193379372358322,-0.05780719593167305,-0.021263103932142258,0.006208878941833973,-0.08465240150690079,0.0953289195895195,-0.1560695916414261,-0.11032164841890335,-0.11466274410486221,-0.05178726837038994,0.13219967484474182,-0.10824337601661682,0.20593546330928802,-0.045163944363594055,-0.02125152386724949,0.18324719369411469,-0.10340941697359085,0.17863479256629944,0.09877190738916397,0.14024022221565247,0.014615788124501705,-0.11538141965866089,0.13114871084690094,0.06337219476699829,0.04949403554201126,-0.11284025758504868,0.01496031042188406,-0.16213084757328033,-0.0463436134159565,0.07893936336040497,-0.0900137796998024,0.025621721521019936,0.02716173604130745,-0.0027712907176464796,-0.021213553845882416,-0.10542543977499008,-0.02597927488386631,0.05668487772345543,0.08012867718935013,0.05692952498793602,-0.008256866596639156,0.12716144323349,-0.11896266043186188,-0.12829646468162537,0.016876621171832085,-0.10293538123369217,0.08767563849687576,-0.04465079307556152,-0.08826585859060287,-0.09820232540369034,0.1333688497543335,-0.03412201628088951,0.11678963154554367,0.14486630260944366,0.060594990849494934,0.0112714022397995,0.011186710558831692,-0.05155880004167557,0.03312518447637558,0.12508782744407654,-0.08631595969200134,0.19420985877513885,0.040386345237493515,-0.07819332182407379,-0.05465155839920044,-0.00667664036154747,0.2843746840953827,-0.14778532087802887,0.11801979690790176,-0.08141853660345078,0.08790850639343262,0.09517170488834381,-0.22490373253822327,0.05626317858695984,0.04211824759840965,-0.18691769242286682,0.0649966225028038,-0.053072378039360046,0.2254466861486435,-0.028586003929376602,-0.004126118030399084,-0.03144818916916847,0.057409245520830154,-0.16407112777233124,0.16829469799995422,0.08051560074090958,0.012704147957265377,-0.08033382892608643,-0.03217518702149391,-0.007709675468504429,0.03334461525082588,-0.10096324235200882,-0.0662461444735527,-0.02019393816590309,-0.036768343299627304,-0.03058183379471302,-0.2038043886423111,0.15405724942684174,0.12015041708946228,-0.2614511251449585,-0.11142218112945557,-0.13169057667255402,-0.15478211641311646,-0.026281889528036118,-0.11376217007637024,-0.1979931741952896,0.02849450707435608,-0.09771668165922165,-0.00022618621005676687,-0.07084250450134277,-0.11037523299455643,0.09866607189178467,0.18200431764125824,-0.23608450591564178,0.12973202764987946,-0.07667551189661026,0.1575447916984558,-0.262002557516098,-0.1278660148382187,0.11695461720228195,-0.20856432616710663,0.043532971292734146,-0.027276163920760155,-0.14652417600154877,-0.01063909474760294,0.07749169319868088,0.11552944779396057,-0.13771378993988037,-0.03479844704270363,-0.1074976846575737,0.05595729500055313,-0.190425306558609,0.2641643285751343,-0.04230799898505211,-0.00015396036906167865,0.005540000274777412,0.06632131338119507,0.06227806210517883,0.19489379227161407,-0.06038526073098183,-0.08593014627695084,-0.13671329617500305,0.12777523696422577,-0.07952381670475006,-0.23799797892570496,0.08036626130342484,0.12832871079444885,-0.16473154723644257,-0.1069316491484642,-0.15242357552051544,-0.0887429416179657,0.00637625390663743,-0.09116892516613007,-0.0900445505976677,0.0608534961938858,0.09494978189468384,0.08059878647327423,-0.020586425438523293,-0.13500820100307465,-0.014941227622330189,0.1111159697175026,-0.039703164249658585,0.19067277014255524,-0.16255198419094086,0.05843688175082207,0.00548285199329257,0.15824970602989197,-0.05899863317608833,-0.17643257975578308,-0.06163279339671135,0.21041032671928406,-0.1853216141462326,-0.02820170670747757,0.15101920068264008,0.047104086726903915,-0.08656205981969833,-0.051265522837638855,-0.08780220150947571,-0.12121731787919998,0.06633564829826355,0.0675877034664154,0.02166110649704933,0.05876869708299637,-0.0359133742749691,0.0544656440615654,0.16142937541007996,0.13647179305553436,-0.10604717582464218,0.05527383089065552,-0.10019014030694962,-0.1166873350739479,0.013257049955427647,-0.206785649061203,0.16251671314239502,0.04572294279932976,-0.26020222902297974,0.02137407846748829,0.15931841731071472,-0.0934503898024559,0.07992037385702133,0.08488411456346512,-0.07077808678150177,-0.007197804749011993,0.011314375326037407,-0.24291568994522095,-0.2037297934293747,-0.15022458136081696,-0.09903314709663391,0.08594831079244614,-0.033418092876672745,-0.04983636736869812,0.00016219052486121655,0.1517775058746338,-0.027068566530942917,0.02297801338136196,-0.12383467704057693,0.021452557295560837,-0.01151631772518158,-0.0686887875199318,0.17480306327342987,-0.19758909940719604,-0.12891985476016998,-0.1253660023212433,0.11839446425437927,0.1339208483695984,-0.01807807758450508,-0.03964061662554741,0.045367512851953506,-0.08508763462305069,0.20292721688747406,-0.09675661474466324,0.06021571904420853,0.03778257966041565,-0.031986407935619354,0.06093423813581467,0.049898456782102585,0.1227872297167778,-0.07840553671121597,-0.11957766860723495,-0.03326587751507759,0.10475020110607147,-0.04403284564614296,0.09615575522184372,0.03380931168794632,-0.099112369120121,0.08945127576589584,0.01630936749279499,0.03025968372821808,-0.10623347014188766,0.03734351322054863,-0.10558580607175827,0.05611627548933029,0.038383934646844864,-0.07154477387666702,-0.19401299953460693,0.0997210144996643,-0.11560151726007462,-0.17197024822235107,0.07837497442960739,0.044267136603593826,0.1277497410774231,-0.1537121832370758,-0.08674969524145126,0.10309922695159912,-0.2683121860027313,0.0799858421087265,0.028271622955799103,-0.22483372688293457,0.10572411864995956,-0.11774735897779465,0.18926899135112762,-0.1380438357591629,-0.0055788736790418625,-0.06580939143896103,0.19441509246826172,-0.11475465446710587,0.25704076886177063,-0.06678888946771622,-0.07304894924163818,-0.26171553134918213,-0.06352224946022034,0.133352130651474,0.11767355352640152,-0.04882419854402542,0.024117767810821533,-0.0692564994096756,0.17641085386276245,0.11661015450954437,-0.2519461512565613,0.03528580442070961,-0.06791442632675171,-0.24697379767894745,0.07975848764181137,0.13886882364749908,-0.27870067954063416,0.13783128559589386,-0.06699003279209137,-0.18514658510684967,0.167484849691391,-0.022446848452091217,0.05374995991587639,-0.06966552883386612,0.07751204818487167,-0.02463642507791519,0.06334337592124939,0.09909138083457947,0.127609521150589,-0.6349523067474365,0.012474430724978447,-0.10921841859817505,0.4782576262950897,0.0703396201133728,-0.0978093296289444,0.6008993983268738,-0.0782545730471611,-0.23932838439941406,0.4571135342121124,-0.12180041521787643,0.2217531055212021,-0.40042078495025635,0.10199710726737976,-0.1330791860818863,0.21488110721111298,0.04745239019393921,0.3347684144973755,-0.5919593572616577,-0.10558876395225525,-0.2369304597377777,0.6342597007751465,-0.10446397215127945,0.3634586036205292,-0.45145925879478455,-0.08829449117183685,-0.26048171520233154,0.6442535519599915,-0.10650281608104706,-0.25312289595603943,0.5425013899803162,-0.08912414312362671,-0.14503198862075806,0.5929479598999023,0.08839243650436401,-0.3126147985458374,0.6561079621315002,-0.0860489159822464,-0.075498066842556,0.37172114849090576,-0.11793617904186249,0.12503668665885925,-0.2145099639892578,0.09185446053743362,-0.0968741774559021,-0.3686859905719757,-0.11063633114099503,-0.021328162401914597,0.2136375606060028,-0.005228547845035791,-0.031627263873815536,0.0009595416486263275,0.03521370887756348,0.054256368428468704,-0.09855666011571884,0.07362981140613556,-0.050508297979831696,0.029255345463752747,-0.08641435205936432,0.11409389972686768,0.42277607321739197,-0.4735940098762512,0.808290958404541,-0.6823705434799194,-0.045901138335466385,0.9129229187965393,0.9633693695068359,-0.4835023581981659,0.15424329042434692,0.059285715222358704,-0.44066157937049866,-0.3210199475288391,0.20510992407798767,-0.6848889589309692,0.16409732401371002,0.4273677468299866,-0.20432718098163605,0.26025810837745667,-0.0935986191034317,0.04270010441541672,0.20503419637680054,-0.1348191201686859,-0.0005195736885070801,-0.004081986844539642,-0.15391109883785248,0.004201611038297415,0.16724418103694916,0.08591388165950775,0.10962943732738495,0.0886799693107605,0.3906301259994507,-0.19768160581588745,-0.00896842684596777,-0.0909438356757164,-0.1868467479944229,0.098098024725914,-0.09571529924869537,-0.2145266830921173,-0.1433163434267044,0.06952525675296783,-0.007335899397730827,0.14412367343902588,0.07964764535427094,0.12696005403995514,0.13017795979976654,-0.06178756803274155,0.21267551183700562,0.18189319968223572,0.01981162838637829,0.08588823676109314,-0.008012303151190281,0.12384741753339767,-0.1868254691362381,-0.1119384616613388,0.07515358924865723,-0.07111368328332901,0.013311058282852173,-0.1091749295592308,0.2866675853729248,-0.11661800742149353,0.17772582173347473,0.2133728563785553,0.194092258810997,-0.09292130917310715,0.2871758043766022,-0.24950790405273438,-0.009105422534048557,-0.2035112828016281,0.1587202399969101,0.3135661482810974,0.12885838747024536,-0.10326118767261505,-0.13934816420078278,0.003940999042242765,-0.35571855306625366,-0.3217160701751709,0.05789778381586075,0.1111883744597435,-0.5898588299751282,0.19369642436504364,-0.16280491650104523,-0.1979951560497284,-0.164465069770813,0.06555323302745819,0.13102540373802185,0.15210004150867462,-0.016435706987977028,-0.03039994277060032,0.052026938647031784,0.1184057891368866,-0.15692263841629028,0.1461997926235199,0.017282811924815178,0.09950553625822067,-0.25787603855133057,0.027115365490317345,-0.12721912562847137,-0.12976214289665222,0.04029379412531853,0.07187318056821823,0.39419710636138916,0.2925472557544708,0.24405910074710846,0.08244708925485611,0.040258388966321945,-0.13597789406776428,-0.3495238423347473,-0.22956760227680206,-0.09803180396556854,-0.0617700070142746,-0.14431530237197876,0.2966288626194,0.08723832666873932,0.1159106194972992,0.23897334933280945,0.10789439082145691,-0.3240636885166168,-0.25158771872520447,0.1564396470785141,0.09378846734762192,0.18432778120040894,-0.10861795395612717,-0.08074206113815308,0.3108057975769043,0.2233988642692566,-0.2849176228046417,0.2889547348022461,-0.3404715061187744,0.25623655319213867,0.04018041118979454,0.3141976296901703,-0.15890760719776154,-0.20520620048046112,0.32969629764556885,0.3567064106464386,0.019504418596625328,0.09981951117515564,-0.20269764959812164,0.06234998628497124,-0.3185019791126251,0.10456976294517517,-0.15014302730560303,-0.08420361578464508,0.18922549486160278,-0.008246613666415215,0.01335743349045515,-0.22538121044635773,-0.19019246101379395,0.08082357048988342,-0.0877869576215744,-0.041912466287612915,0.0041038417257368565,-0.08996143937110901,-0.09141934663057327,0.25436168909072876,0.22698776423931122,0.017480500042438507,-0.20675645768642426,0.2731221914291382,-0.07548791915178299,-0.24163341522216797,0.015174152329564095,0.18149566650390625,-0.25951796770095825,-0.27011120319366455,-0.05704954266548157,0.1357550173997879,-0.12105181813240051,0.01969008333981037,0.22472840547561646,0.1540408730506897,0.2101617008447647,0.2634200155735016,0.19015847146511078,0.004152174573391676,-0.04622901603579521,0.19125540554523468,0.40634098649024963,-0.21770015358924866,0.03454612195491791,-0.18376663327217102,-0.18495464324951172,0.11313977837562561,-0.019894951954483986,0.11822464317083359,-0.023158499971032143,-0.10099836438894272,0.02046557143330574,-0.10905954986810684,-0.006083727348595858,0.16413386166095734,-0.031161781400442123,0.0017349604750052094,0.08069700002670288,0.21151328086853027,0.06374118477106094,0.052190348505973816,-0.16928339004516602,0.00561361201107502,-0.038783904165029526,0.07000573724508286,-0.18548940122127533,-0.14638495445251465,-0.26655828952789307,-0.18294644355773926,0.08072236180305481,-0.43535715341567993,-0.47811466455459595,0.07967586815357208,0.04109428450465202,0.22545228898525238,-0.02174275927245617,-0.02015557885169983,0.006966127082705498,0.016943158581852913,0.12680737674236298,0.2785402238368988,-0.04193858802318573,-0.14394988119602203,0.01081290002912283,0.15605296194553375,-0.30337172746658325,-0.15062393248081207,-0.08046457171440125,0.018863851204514503,-0.2108186036348343,-0.05270596593618393,-0.011733168736100197,-0.12052817642688751,0.27022138237953186,0.15714189410209656,0.09651213884353638,0.07232841849327087,-0.10168029367923737,-0.0787297785282135,-0.0366351492702961,-0.22052979469299316,-0.15103013813495636,-0.30724000930786133,-0.013068035244941711,-0.11659789830446243,0.2690233290195465,-0.037617027759552,-0.08090075105428696,0.07581326365470886,0.0036087308544665575,0.20936761796474457,0.07824349403381348,-0.09461770206689835,0.16180451214313507,-0.10218364745378494,-0.16742940247058868,0.05550756677985191,0.12126269936561584,-0.28146037459373474,-0.17924079298973083,0.16182176768779755,0.19074785709381104,0.147348091006279,-0.10286200791597366,-0.22892384231090546,0.11260995268821716,0.0768030658364296,0.13575203716754913,-0.13481734693050385,-0.05341271311044693,0.04739298298954964,-0.17618097364902496,0.08421232551336288,0.10314103215932846,0.11276214569807053,-0.3733634948730469,0.13493214547634125,-0.12310400605201721,0.21996471285820007,-0.152765154838562,-0.17189426720142365,-0.039820220321416855,0.15328045189380646,-0.0520431213080883,0.06275580078363419,-0.11964985728263855,0.0904601514339447,-0.016313595697283745,0.08579226583242416,0.17261458933353424,0.08763527125120163,-0.025648294016718864,0.06893643736839294,-0.03608135133981705,0.040504079312086105,-0.051297061145305634,-0.18500612676143646,0.06943659484386444,-0.026292042806744576,0.14651991426944733,-0.016606053337454796,-0.020320551469922066,-0.008795002475380898,-0.125892773270607,0.10317152738571167,-0.013785076327621937,-0.010038824751973152,0.2663406729698181,-0.19085834920406342,-0.04505816102027893,-0.2721402049064636,-0.0639108344912529,0.2007136195898056,-0.15283773839473724,-0.19380860030651093,-0.05802943930029869,-0.15636226534843445,0.18626153469085693,-0.14005152881145477,-0.24826134741306305,-0.020915983244776726,-0.024880187585949898,-0.09082332998514175,0.04192362353205681,0.005834394600242376,0.012110711075365543,0.0789901465177536,0.3564479649066925,-0.007710916921496391,0.160222128033638,-0.14724473655223846,0.02096063457429409,0.1510510891675949,-0.19315336644649506,-0.026071056723594666,0.17052815854549408,0.040710076689720154,0.02921135723590851,-0.0470510870218277,0.03850911930203438,-0.49116629362106323,0.14230668544769287,0.14095337688922882,0.08329944312572479,0.12207692861557007,0.1598166525363922,-0.748121976852417,0.12922106683254242,0.11351338028907776,0.09579161554574966,-0.18879640102386475,-0.06512026488780975,0.1556508094072342,-0.2911115884780884,0.11727211624383926,0.3371969163417816,-0.44117599725723267,-0.0385432094335556,-0.08789679408073425,0.26722708344459534,-0.05204015597701073,0.6850022077560425,-0.11319943517446518,0.05040312185883522,-0.5819262862205505,0.24180638790130615,-0.13866455852985382,0.19498172402381897,0.361238032579422,-0.0035622750874608755,-0.37487539649009705,0.29321417212486267,0.2737281024456024,-0.2412671446800232,0.39659419655799866,0.07924094796180725,-0.3914150297641754,-0.004510149359703064,0.12138719111680984,-0.11528164148330688,-0.3331354260444641,-0.21044766902923584,-0.3972780406475067,-0.007838502526283264,-0.10940521210432053,0.07425107061862946,0.5696241855621338,0.03338305279612541,-0.26266899704933167,-0.19000515341758728,-0.040308039635419846,0.17391479015350342,0.24991194903850555,-0.17745104432106018,-0.10429683327674866,-0.2087239921092987,0.08418706804513931,0.16017615795135498,-0.04127703979611397,-0.08068620413541794,0.041136059910058975,-0.1490977555513382,0.10464561730623245,-0.06837528198957443,0.14136458933353424,0.11725392937660217,0.15467289090156555,-0.08562448620796204,-0.11421061307191849,0.046784937381744385,0.17825205624103546,0.07384508848190308,0.0429128035902977,-0.25453290343284607,0.01725122705101967,-0.09504290670156479,0.12420462816953659,-0.1447807401418686,-0.183355912566185,-0.3047691285610199,0.0922689139842987,0.0019849417731165886,-0.020773647353053093,0.017422068864107132,0.048652783036231995,-0.19576388597488403,-0.04113517329096794,0.01391302328556776,-0.13220128417015076,0.08895625174045563,-0.1234813705086708,-0.10160329937934875,0.14400501549243927,-0.09777778387069702,0.18997423350811005,0.12541702389717102,-0.22674530744552612,-0.1704738289117813,-0.21131426095962524,-0.10727193206548691,0.05437871068716049,0.1495778113603592,0.012780571356415749,-0.4070294499397278,-0.3343474268913269,0.2335439920425415,0.10979816317558289,-0.06602084636688232,0.037373416125774384,-0.11560932546854019,-0.10454116016626358,-0.08598832041025162,0.2251897007226944,-0.04146615043282509,-0.027031026780605316,0.07571876049041748,0.04591551050543785,-0.14872358739376068,0.236979678273201,0.17123691737651825,0.0743144154548645,-0.38683125376701355,0.017382724210619926,0.065264992415905,-0.04082183912396431,0.06368131190538406,0.10351619124412537,-0.18519973754882812,-0.10234582424163818,0.13764287531375885,0.2537708580493927,0.11244364082813263,0.15431544184684753,-0.047675881534814835,-0.14251422882080078,0.16810180246829987,-0.24371637403964996,-0.16041520237922668,0.04205303266644478,-0.012952608056366444,0.02076123282313347,-0.001275771763175726,0.15887688100337982,0.09703464061021805,-0.06116523593664169,-0.06098296120762825,-0.16372257471084595,0.19216065108776093,0.23883379995822906,-0.0628407895565033,0.01668306440114975,0.03740600496530533,0.009040970355272293,-0.26618024706840515,0.14880089461803436,0.24556829035282135,-0.18330562114715576,0.013630359433591366,0.009182973764836788,-0.4283563494682312,0.13034003973007202,0.050349753350019455,0.3572310507297516,-0.21250666677951813,-0.15134431421756744,0.053836923092603683,0.13725221157073975,0.07271413505077362,0.27149635553359985,-0.038453489542007446,-0.023299528285861015,0.050440289080142975,-0.08392103761434555,-0.06388866156339645,0.25172409415245056,-0.042049258947372437,0.03249465674161911,-0.09984830021858215,-0.29363617300987244,-0.15014474093914032,-0.2261165976524353,-0.19422349333763123,0.18536242842674255,-0.1212446540594101,-0.06183244660496712,0.1188744604587555,0.011079013347625732,-0.20015481114387512,-0.004322623834013939,0.2510036826133728,-0.05012146383523941,-0.12124843895435333,-0.19656051695346832,-0.20008890330791473,-0.18207654356956482,-0.06484890729188919,0.2298126071691513,0.05667230486869812,-0.1558978408575058,-0.3247506320476532,-0.07677430659532547,0.05703333020210266,-0.000002977521944558248,0.05767231062054634,-0.05763592571020126,-0.07511112838983536,-0.039198458194732666,0.18229621648788452,0.08524802327156067,-0.06115167960524559,0.0169118233025074,-0.09812229126691818,0.05957484245300293,0.21864445507526398,0.20142494142055511,0.24075068533420563,0.08862129598855972,-0.08154518157243729,-0.032802313566207886,0.12801238894462585,0.085776686668396,0.00017049428424797952,-0.012324654497206211,-0.10633032768964767,-0.022503027692437172,0.030776822939515114,-0.03228461369872093,0.20549947023391724,0.02301555871963501,-0.18425443768501282,-0.11933155357837677,0.016663627699017525,-0.25744014978408813,0.07273174822330475,-0.07407985627651215,-0.05107993260025978,-0.02207770384848118,-0.1024332195520401,0.10460936278104782,0.09500475227832794,0.02231219783425331,-0.09402888268232346,0.11298602819442749,0.08485201001167297,0.21260115504264832,-0.22157523036003113,-0.0007001296617090702,-0.19099681079387665,0.25215476751327515,0.12539270520210266,0.027531698346138,-0.07917986065149307,-0.12616842985153198,0.09063415974378586,-0.034682828933000565,0.23138856887817383,0.16386093199253082,0.033618438988924026,0.01175569649785757,-0.10293836891651154,0.07026323676109314,-0.007290973793715239,0.18762868642807007,-0.18670791387557983,0.0761466771364212,-0.04339113458991051,-0.05626605823636055,0.042743802070617676,0.0014930445468053222,-0.03618495538830757,0.10998202860355377,-0.2880265712738037,0.20808300375938416,-0.46650460362434387,-0.19175545871257782,0.23957589268684387,0.07991132140159607,0.11692777276039124,0.17739230394363403,0.015588776208460331,0.13617318868637085,-0.14471670985221863,-0.14977635443210602,-0.297631174325943,0.20582449436187744,-0.16828647255897522,-0.17124944925308228,-0.03487580642104149,0.030661923810839653,0.0541231669485569,0.04875071346759796,0.014895484782755375,-0.1892324686050415,0.03697511926293373,0.09606822580099106,0.18423834443092346,0.04902854934334755,-0.052563656121492386,0.04053321108222008,-0.09759718179702759,0.09703321754932404,0.03181314095854759,-0.21447180211544037,0.06813458353281021,-0.09667603671550751,-0.06199092045426369,-0.05456027761101723,-0.22459907829761505,0.02390981838107109,-0.11020486801862717,-0.29220789670944214,0.12268806248903275,0.11215107887983322,-0.08064837753772736,0.1354447901248932,0.13398024439811707,0.019513217732310295,0.04233276844024658,0.30497878789901733,-0.07897564768791199,-0.0008146233158186078,-0.09244992583990097,0.03851652517914772,-0.05526049807667732,0.16376613080501556,0.16110840439796448,-0.01875772327184677,-0.10325080901384354,0.07369200885295868,-0.16797834634780884,0.13226762413978577,0.2771853804588318,0.037852201610803604,-0.030852289870381355,-0.024477437138557434,0.12266848981380463,0.10333365947008133,0.06437381356954575,-0.045760415494441986,-0.18133091926574707,-0.09709902852773666,-0.09684590995311737,0.21396565437316895,0.06269983947277069,0.2389846295118332,0.14245808124542236,0.09918863326311111,-0.0685947835445404,0.16488900780677795,0.19264541566371918,0.07140931487083435,-0.16233223676681519,0.08436723798513412,-0.031206592917442322,0.06775251775979996,-0.008039762265980244,0.05107337608933449,-0.18920987844467163,-0.10582686215639114,0.011236170306801796,-0.013690199702978134,-0.09908249229192734,0.1625276654958725,-0.05992225557565689,0.052128348499536514,-0.1267344057559967,0.21813873946666718,-0.10421997308731079,0.019656557589769363,0.1470177322626114,-0.3140143156051636,0.07659650593996048,0.07003461569547653,0.2675580382347107,0.10657808929681778,0.05207762494683266,0.032924577593803406,-0.07986190915107727,0.11296462267637253,-0.20001305639743805,0.07493878901004791,-0.058146607130765915,-0.08382371068000793,-0.09694186598062515,0.17483285069465637,0.24214224517345428,-0.04111666604876518,-0.08137978613376617,-0.12007495015859604,0.21280600130558014,-0.14485234022140503,0.17860275506973267,-0.07283397763967514,-0.0325782336294651,0.10818687081336975,-0.08353837579488754,0.1806500405073166,0.04494737088680267,-0.16374583542346954,0.03318566083908081,-0.11121413111686707,-0.0478459894657135,0.011205073446035385,-0.031207377091050148,0.22606882452964783,-0.12875531613826752,-0.19034458696842194,0.22586436569690704,-0.08763515949249268,0.20457012951374054,0.0009635604219511151,-0.13241200149059296,-0.10961920022964478,0.07547657936811447,-0.19433265924453735,0.16273516416549683,0.10495369881391525,-0.09387168288230896,0.1890290230512619,0.06558267027139664,0.009020041674375534,0.006192993372678757,-0.13636252284049988,-0.10372528433799744,0.05661747232079506,-0.02701677568256855,-0.1739560216665268,0.12426941841840744,0.010736935772001743,-0.11280270665884018,-0.024915704503655434,-0.05829238146543503,-0.11691859364509583,0.11926700174808502,-0.2284746617078781,-0.011135196313261986,0.15384966135025024,-0.10249390453100204,-0.14726237952709198,-0.10680324584245682,-0.0052879382856190205,-0.14688867330551147,-0.10405705124139786,0.054211053997278214,-0.09405631572008133,-0.07668377459049225,-0.12319397181272507,0.10776391625404358,0.05331655591726303,0.023262126371264458,-0.0609760656952858,0.1442110389471054,0.11879672110080719,0.14252139627933502,0.19692322611808777,0.16579335927963257,0.005900186486542225,0.0014583076117560267,0.1468261033296585,-0.0006007329793646932,-0.09081524610519409,-0.10322295129299164,-0.01972850225865841,-0.02505924366414547,-0.12942568957805634,-0.20534174144268036,0.12137793004512787,-0.11964794248342514,-0.06716443598270416,-0.15822069346904755,-0.016602640971541405,-0.011584082618355751,-0.1792355626821518,0.07660256326198578,-0.14143292605876923,-0.016651811078190804,-0.05719882622361183,0.03733205422759056,-0.11693961918354034,-0.046201806515455246,0.0711737796664238,-0.01574423350393772,-0.1782173216342926,-0.10737413913011551,0.01951027661561966,-0.22297003865242004,-0.15260787308216095,-0.0020455701742321253,-0.035723090171813965,0.14843161404132843,-0.049669791013002396,0.011133091524243355,0.0392586849629879,-0.08619371056556702,-0.08826914429664612,0.09653245657682419,0.15797273814678192,0.13674528896808624,-0.13936564326286316,0.07897847890853882,0.12775620818138123,0.15811724960803986,0.35365477204322815,0.19420593976974487,0.07589749246835709,-0.13124018907546997,-0.20288805663585663,-0.23587566614151,0.18547885119915009,-0.03678368404507637,-0.10754214972257614,-0.04929778724908829,-0.2679194509983063,-0.028368011116981506,0.04983677715063095,0.039483848959207535,-0.18416664004325867,-0.17752301692962646,-0.06907669454813004,0.16593807935714722,-0.029383445158600807,-0.06497534364461899,0.18407794833183289,-0.16343331336975098,-0.2402176707983017,-0.10279343277215958,0.12988261878490448,0.03900948539376259,-0.028803713619709015,0.17058049142360687,-0.026431594043970108,-0.012144668959081173,0.06529663503170013,0.0025655217468738556,0.002729518571868539,0.2546471357345581,-0.040907785296440125,0.06560437381267548,-0.0016310304636135697,-0.06029949337244034,0.17955513298511505,-0.06818229705095291,-0.13406282663345337,0.027685921639204025,-0.20537139475345612,0.13977563381195068,-0.09409796446561813,-0.07186442613601685,-0.01823056861758232,-0.11048759520053864,-0.1472303718328476,0.03156863898038864,-0.2906290590763092,0.15761220455169678,0.06221999228000641,-0.06639135628938675,0.08288858830928802,-0.08282002061605453,0.043221406638622284,0.3411746323108673,0.0034447768703103065,0.5630621314048767,-0.3414638340473175,-0.03802686929702759,0.07066896557807922,0.07368882745504379,0.07330656051635742,-0.009928852319717407,-0.012148765847086906,-0.12107562273740768,0.11445455998182297,-0.04824933782219887,-0.04390611872076988,0.043993789702653885,0.14493662118911743,0.011463328264653683,-0.13200776278972626,-0.05355101823806763,-0.09739826619625092,-0.015270394273102283,0.02796977385878563,-0.00013643533748108894,0.09148159623146057,-0.22496342658996582,-0.08042308688163757,0.04811922460794449,-0.058868587017059326,0.07873856276273727,0.02588454633951187,-0.010882891714572906,0.17047791182994843,-0.008116503246128559,0.05500118061900139,-0.07271911203861237,-0.11623581498861313,0.1460939198732376,0.053846366703510284,0.0874093696475029,0.13122005760669708,0.08085394650697708,0.0803714245557785,-0.10841579735279083,-0.01071300357580185,-0.03219930827617645,-0.11497453600168228,0.01995185948908329,-0.015498323366045952,-0.06505510210990906,-0.24692665040493011,-0.09237895905971527,0.40580523014068604,-0.02516666240990162,-0.1147298812866211,-0.1515042930841446,-0.05911899358034134,0.1879701018333435,0.053363699465990067,-0.02658993937075138,0.07257557660341263,0.03328744322061539,-0.1694118082523346,-0.13632498681545258,-0.012519596144557,-0.01942521147429943,-0.24326211214065552,0.13439838588237762,0.07526671886444092,-0.06649842113256454,0.40029940009117126,-0.07011711597442627,-0.4021441340446472,0.2493543028831482,0.013374458998441696,0.0245334655046463,-0.3305107355117798,-0.11856918036937714,-0.06729605793952942,-0.113167904317379,-0.046398673206567764,0.5465196371078491,-0.18312977254390717,0.028692636638879776,-0.06821427494287491,0.3026949167251587,0.1316392868757248,0.33771899342536926,0.03552544489502907,-0.11399615556001663,-0.2347341626882553,0.30131369829177856,-0.08424075692892075,-0.17112237215042114,0.021309394389390945,0.10554645955562592,-0.46104055643081665,0.04576600715517998,0.04243357852101326,0.04308265447616577,-0.44787925481796265,0.06264032423496246,-0.2022506296634674,0.0457129031419754,-0.047645337879657745,0.021207056939601898,-0.046868178993463516,-0.03790777549147606,-0.25969621539115906,-0.43486487865448,-0.19159232079982758,0.08174135535955429,-0.0936732143163681,-0.038436297327280045,-0.3023638129234314,0.44529035687446594,0.1748584359884262,0.24189268052577972,-0.18871304392814636,0.18637144565582275,-0.16083846986293793,0.1461503654718399,0.06673172116279602,0.15651348233222961,-0.19109611213207245,-0.3046761751174927,0.04544045031070709,-0.12784337997436523,-0.06792279332876205,0.2849062383174896,-0.34762051701545715,-0.10287870466709137,-0.20577597618103027,0.3129308819770813,-0.07792916148900986,0.21917133033275604,-0.3981572091579437,-0.16314253211021423,-0.1724388301372528,0.05112908408045769,0.047478724271059036,-0.195121169090271,0.10973091423511505,0.177651509642601,-0.2546747922897339,0.2115999162197113,-0.12536504864692688,-0.7947222590446472,1.1567938327789307,-0.05915005877614021,-0.0475907064974308,-0.2907027304172516,0.03452974557876587,0.1737348437309265,-0.011437361128628254,-0.15688054263591766,-0.42883485555648804,0.4663272500038147,-0.2121829390525818,-0.25834283232688904,0.28693529963493347,0.06983822584152222,0.12718956172466278,-0.15078683197498322,-0.00980604812502861,0.0006398268742486835,-0.15840384364128113,0.12524011731147766,0.2150726467370987,0.06294108182191849,-0.042138420045375824,-0.07468197494745255,0.04540349170565605,0.09276705235242844,0.07879160344600677,0.07152081280946732,0.1957617998123169,0.11287812143564224,-0.2673330307006836,0.21995876729488373,0.2954707145690918,-0.5237141847610474,-0.0009880202123895288,-0.6039230227470398,-0.2832961082458496,-0.36728405952453613,0.7365237474441528,-0.8558598160743713,-0.46098625659942627,-0.7745075225830078,0.12781356275081635,-0.68775874376297,0.47996124625205994,-0.6346079707145691,-0.03578346222639084,-0.1876501441001892,0.13006746768951416,0.3128053843975067,0.223465695977211,0.012451334856450558,-0.12347390502691269,-0.11903442442417145,-0.09113908559083939,0.03586234524846077,0.03924870491027832,0.19623643159866333,0.09628269821405411,0.10655824095010757,-0.1392432302236557,-0.16432981193065643,-0.07666746526956558,-0.056229934096336365,0.026068834587931633,-0.1137518435716629,-0.0745140016078949,0.20425279438495636,0.047884661704301834,-0.23613634705543518,0.1454515904188156,-0.23320633172988892,0.12635181844234467,0.3097686469554901,-0.062290728092193604,-0.10181906819343567,0.18336036801338196,0.016688421368598938,0.02324514649808407,-0.23626574873924255,-0.03283572569489479,0.12654002010822296,0.037758808583021164,0.008663847111165524,-0.2667657136917114,-0.007584136910736561,-0.3291839361190796,0.2589409351348877,-0.17377790808677673,-0.10931146144866943,0.13851571083068848,0.04133524373173714,-0.04891641438007355,-0.08101595193147659,0.0880608782172203,0.06242026388645172,-0.12372290343046188,-0.3524397313594818,-0.24219459295272827,0.039825502783060074,-0.23440763354301453,-0.1599627286195755,0.062227994203567505,-0.08763671666383743,0.0696982890367508,0.13910725712776184,0.3800167739391327,-0.2445497214794159,0.09345908463001251,0.13358427584171295,0.31275150179862976,-0.13309817016124725,-0.03949837014079094,0.054975640028715134,0.10384590923786163,0.027303120121359825,0.0447847917675972,0.19539229571819305,0.16328513622283936,0.06583334505558014,0.021457048133015633,0.2950511872768402,-0.17981529235839844,0.2044481337070465,-0.1736658215522766,-0.08075191080570221,-0.25465765595436096,-0.18965400755405426,-0.2761710286140442,-0.14856494963169098,0.2685464322566986,-0.2445187121629715,-0.08697548508644104,-0.028182167559862137,0.099977508187294,0.21996578574180603,-0.04926355183124542,-0.4407966434955597,-0.3162044882774353,-0.10151077061891556,-0.09106098115444183,0.0898873582482338,0.07145567983388901,-0.05646489933133125,0.04656875878572464,-0.1369771957397461,0.07062040269374847,0.14614102244377136,-0.33498960733413696,-0.021412106230854988,0.21150697767734528,0.025155983865261078,-0.26341354846954346,0.21116049587726593,-0.04798204451799393,-0.031064314767718315,-0.18493881821632385,0.24571314454078674,0.048815883696079254,0.17496521770954132,0.2101835012435913,0.13573075830936432,0.19988548755645752,0.08035026490688324,0.32173919677734375,0.026246894150972366,0.19422072172164917,-0.001964317634701729,-0.34263819456100464,0.0896749272942543,-0.3657071888446808,-0.0038883585948497057,0.3541944921016693,0.10415666550397873,-0.11224754899740219,0.18308202922344208,-0.24770492315292358,-0.05687468498945236,-0.2588436007499695,-0.26663485169410706,-0.1443953514099121,-0.08164032548666,0.01744666136801243,0.061852533370256424,0.12454842776060104,-0.07231806218624115,-0.01669875532388687,0.0758625939488411,-0.02047266811132431,0.2589472830295563,0.020056840032339096,0.016640013083815575,-0.15505369007587433,-0.14112518727779388,0.14907246828079224,-0.12409695237874985,0.10895666480064392,-0.0554623082280159,-0.10072274506092072,0.03577917441725731,0.18350645899772644,0.10698921978473663,0.18115240335464478,-0.032759618014097214,0.2201639860868454,-0.3109072148799896,0.07124848663806915,-0.07411933690309525,-0.06154847890138626,0.15871770679950714,-0.06899751722812653,-0.07604236900806427,-0.10120707005262375,-0.158530130982399,0.1494402140378952,0.17747922241687775,-0.31593987345695496,0.34434422850608826,0.4330452084541321,-0.13328026235103607,-0.035365741699934006,-0.057870153337717056,-0.01604142040014267,0.23470422625541687,-0.32830241322517395,-0.018618278205394745,-0.06521196663379669,-0.1997717320919037,-0.13633029162883759,0.16705487668514252,-0.1430286318063736,0.05376260727643967,0.13764695823192596,-0.19323590397834778,0.04535909742116928,-0.06444227695465088,-0.11305484175682068,-0.02228786051273346,-0.03706769272685051,-0.2219393253326416,-0.05108803138136864,0.06407260149717331,-0.023453548550605774,-0.08143896609544754,-0.06088164448738098,-0.08299065381288528,-0.18607652187347412,-0.1212613508105278,-0.266528844833374,-0.08574050664901733,0.24234621226787567,-0.4569952189922333,0.0269369725137949,-0.20057830214500427,0.1394975185394287,0.07333909720182419,-0.06109633296728134,0.37746912240982056,-0.3287995457649231,0.05286630988121033,-0.031884416937828064,-0.17647495865821838,0.012028943747282028,0.08455976843833923,0.11620466411113739,0.16830407083034515,0.3423246145248413,0.13426800072193146,0.18682897090911865,0.007949824444949627,-0.0140638193115592,0.16870109736919403,-0.05572030693292618,0.01998996175825596,-0.1889003962278366,-0.16935265064239502,0.12753711640834808,0.05979945883154869,-0.09684020280838013,0.11035501956939697,-0.11178795248270035,0.06003308668732643,-0.09921383112668991,0.15672166645526886,0.2748243510723114,0.27325746417045593,0.4239904284477234,-0.3120760917663574,-0.01185128465294838,-0.1471187174320221,-0.297713041305542,0.14517103135585785,-0.060601606965065,-0.1003258004784584,-0.026762358844280243,0.009653772227466106,0.2765378952026367,0.18614467978477478,-0.024678785353899002,0.18367283046245575,-0.029738225042819977,-0.2865011394023895,-0.11720536649227142,-0.011080978438258171,-0.04494379833340645,-0.031896039843559265,-0.23733055591583252,-0.09017331898212433,0.08291981369256973,0.13032662868499756,0.019425665959715843,0.11303526163101196,0.035936471074819565,-0.20065882802009583,0.04208914935588837,-0.25107061862945557,-0.08881615847349167,-0.05720988288521767,0.10275056213140488,0.024712201207876205,-0.2483452707529068,-0.07548622041940689,-0.1939786672592163,-0.11565057188272476,0.03607850521802902,-0.18159760534763336,-0.15954968333244324,-0.06147349253296852,0.015270309522747993,0.01909278705716133,-0.04319204390048981,0.08883325010538101,-0.02019784227013588,-0.011939404532313347,0.22004517912864685,0.10010867565870285,0.10744079947471619,-0.17617753148078918,0.1511811465024948,0.060429368168115616,0.24797016382217407,-0.006003556773066521,0.09245000034570694,-0.048182327300310135,-0.010056238621473312,0.2705141007900238,-0.042466696351766586,-0.16758529841899872,-0.1320088803768158,-0.00520638283342123,-0.0471988245844841,0.10813681781291962,0.13245037198066711,0.07298295199871063,-0.18443426489830017,-0.04869723692536354,-0.09637049585580826,-0.22507163882255554,0.183615043759346,-0.03593386709690094,0.2011115401983261,0.11333966255187988,-0.06056525185704231,-0.011446768417954445,-0.11546925455331802,0.0005428891745395958,0.23245559632778168,-0.03220268338918686,-0.02118803560733795,0.08316438645124435,0.14306147396564484,-0.13563178479671478,0.2011735737323761,0.03381257504224777,0.09687592834234238,-0.06872864812612534,-0.17661729454994202,0.07367025315761566,0.23089103400707245,-0.09386465698480606,-0.01396951638162136,-0.14325514435768127,0.08810669928789139,-0.2734638750553131,0.02177625708281994,-0.08700916171073914,0.09276121854782104,-0.08535432070493698,-0.013159212656319141,-0.10000921785831451,-0.002905678004026413,-0.059206344187259674,-0.07571519166231155,0.08527491241693497,0.13420452177524567,0.01659364067018032,0.1239086166024208,-0.10187719762325287,0.09188162535429001,-0.48234742879867554,-0.3353027403354645,0.07831787317991257,-0.027158986777067184,-0.05258719623088837,-0.036747001111507416,0.1549787074327469,-0.13430485129356384,0.06030746549367905,-0.20687751471996307,-0.06220215931534767,0.25413036346435547,0.14691586792469025,-0.05644668638706207,0.1196618303656578,0.13960467278957367,0.023539908230304718,-0.067194864153862,0.10573337227106094,0.09390362352132797,-0.034805212169885635,0.16735869646072388,0.25638312101364136,0.039993248879909515,-0.2918947637081146,-0.06316052377223969,0.06004789471626282,-0.04339031130075455,-0.09645417332649231,0.18736062943935394,-0.03973344340920448,-0.23964931070804596,-0.10190434753894806,0.08505760133266449,0.07219433784484863,-0.08448494970798492,-0.1144615188241005,-0.0740816667675972,0.08494553714990616,0.12794551253318787,0.17931883037090302,0.05080472305417061,0.0815909281373024,0.02664145827293396,-0.26369166374206543,-0.11257360130548477,0.15998294949531555,-0.036989469081163406,0.015404322184622288,-0.05318870767951012,-0.10251148790121078,0.10649221390485764,0.08577803522348404,0.022501787170767784,-0.10384895652532578,0.19133925437927246,0.3002736270427704,0.05550128221511841,0.05490410700440407,0.022760920226573944,-0.02946854755282402,-0.14974136650562286,0.19927863776683807,-0.10557983815670013,0.1161925196647644,-0.07573583722114563,0.05342600867152214,0.20617195963859558,-0.13149262964725494,0.11936010420322418,-0.026193492114543915,-0.08797747641801834,0.210764080286026,-0.13880881667137146,0.12470081448554993,0.003952942788600922,-0.03750956431031227,-0.0017771654529497027,0.03383183106780052,-0.029246224090456963,0.12953104078769684,0.0890093445777893,0.01049809344112873,-0.2211773544549942,0.040522996336221695,0.1025986596941948,-0.07064537703990936,0.076265849173069,-0.10042418539524078,0.10970751196146011,-0.024794066324830055,-0.02718135342001915,-0.23694591224193573,-0.17482684552669525,-0.18978434801101685,0.07264455407857895,0.09142767637968063,-0.12467821687459946,0.18258926272392273,-0.02887090854346752,-0.22689209878444672,-0.021434361115098,0.21850736439228058,-0.31842324137687683,0.20285248756408691,-0.0506056509912014,-0.20329302549362183,0.2617802321910858,-0.25059741735458374,-0.02089877240359783,-0.01527377963066101,0.008244934491813183,-0.3729015588760376,-0.08262457698583603,-0.24104292690753937,-0.1946474015712738,0.011420507915318012,0.08570440113544464,0.11978986859321594,-0.2807994782924652,0.04048006981611252,0.4767650067806244,-0.09211339801549911,-0.06941688060760498,0.07421878725290298,-0.06482692807912827,0.05179722234606743,0.40689313411712646,0.14471149444580078,-0.06930125504732132,-0.25921621918678284,0.042448222637176514,-0.027579957619309425,-0.3683815002441406,0.31826937198638916,0.03462759405374527,0.003788923379033804,-0.017914284020662308,0.0035330853424966335,-0.1443026065826416,0.08819598704576492,-0.11881011724472046,0.07457587867975235,-0.28197789192199707,0.15418364107608795,0.07981828600168228,-0.13528026640415192,-0.13996978104114532,0.008677328936755657,-0.1428094059228897,-0.003132842481136322,0.07781190425157547,-0.0744205042719841,0.16180753707885742,-0.10875096172094345,0.2355443388223648,0.3080955147743225,-0.5375077724456787,-0.11213980615139008,0.13982613384723663,0.023290984332561493,-0.09663067758083344,-0.022053714841604233,0.029454827308654785,0.11438265442848206,-0.0320008210837841,-0.1625647097826004,-0.03207329288125038,-0.18260665237903595,-0.20771008729934692,0.12890762090682983,-0.09485606104135513,-0.09116986393928528,0.14100652933120728,-0.2403215914964676,-0.2536555230617523,-0.23003679513931274,0.027189595624804497,0.11877918243408203,0.005315852351486683,-0.06895815581083298,-0.004391391761600971,0.009183318354189396,0.11273670196533203,0.03707388788461685,-0.07625055313110352,0.06923764944076538,0.02184814028441906,-0.10105497390031815,0.06213770806789398,-0.031887102872133255,0.27551740407943726,0.13691142201423645,0.054738178849220276,-0.031981613487005234,0.06299559772014618,-0.07557506859302521,0.011412756517529488,-0.13750095665454865,0.0828864723443985,0.2506515383720398,-0.07670510560274124,-0.06358495354652405,-0.030969802290201187,0.07646894454956055,-0.1124960258603096,0.22119779884815216,0.03958072140812874,0.026660079136490822,0.08967743068933487,0.22176656126976013,0.004924417939037085,-0.08668005466461182,0.23093940317630768,-0.07359208166599274,-0.15975569188594818,-0.06835727393627167,0.1335059404373169,-0.014959394000470638,-0.04509861022233963,-0.03461645543575287,0.09552574902772903,-0.4225843548774719,-0.18060262501239777,0.05557373911142349,0.07597310096025467,0.011517136357724667,-0.003403143025934696,-0.01712007075548172,0.026941997930407524,-0.02453254722058773,-0.05207503214478493,0.09764475375413895,0.1179807111620903,0.08837880939245224,0.08401795476675034,-0.1721651703119278,0.19435085356235504,0.27933189272880554,-0.053339965641498566,0.002583074616268277,0.0030554570257663727,-0.04207012429833412,-0.0830465629696846,-0.08425736427307129,0.034694183617830276,0.10457795113325119,0.1121901273727417,0.01725194975733757,0.009578205645084381,0.24278485774993896,0.12146240472793579,0.21453621983528137,-0.028874596580863,-0.059536173939704895,-0.005115705542266369,0.24809031188488007,-0.1730191856622696,-0.007483839988708496,0.18588218092918396,0.23289315402507782,-0.06889898329973221,0.3120034635066986,-0.05835266411304474,-0.1919037103652954,-0.2738819122314453,0.06111634522676468,-0.14594276249408722,0.01169019378721714,-0.008256991393864155,0.0008196001872420311,-0.3346562683582306,-0.19208188354969025,-0.06239081546664238,0.11035975068807602,0.08370138704776764,-0.09259028732776642,-0.021472085267305374,-0.01875937171280384,0.015831898897886276,0.24074217677116394,-0.031504519283771515,0.0020462102256715298,0.05794026330113411,-0.21752136945724487,0.11536230146884918,0.06773368269205093,0.21414831280708313,-0.03130290284752846,-0.02493881620466709,-0.2996247708797455,0.0335039421916008,0.05969933420419693,0.14579002559185028,-0.11583024263381958,-0.016328992322087288,0.24946169555187225,-0.110108382999897,0.08876591920852661,0.002266950672492385,-0.15987521409988403,0.05628093332052231,0.18466173112392426,-0.3639596402645111,-0.34871596097946167,-0.008347691036760807,0.3356578052043915,-0.11513983458280563,-0.0877254530787468,-0.24010340869426727,0.06532315909862518,0.19146621227264404,0.15033650398254395,0.40098580718040466,-0.018930669873952866,-0.2563990354537964,0.1780785173177719,0.02709639072418213,-0.11887234449386597,0.08290936797857285,0.032902155071496964,0.005034593399614096,-0.27127137780189514,0.057394858449697495,0.2652287483215332,-0.1372338831424713,-0.13155417144298553,0.15437115728855133,-0.2825499475002289,0.06631267815828323,0.05106115713715553,-0.11320724338293076,0.014998255297541618,-0.09458060562610626,-0.03260450437664986,-0.10367237031459808,-0.1338430792093277,0.03247416019439697,-0.06039132550358772,-0.2077806442975998,0.3653925955295563,0.015258015133440495,0.18907488882541656,0.09885860979557037,0.05062001571059227,0.21393325924873352,0.03564377874135971,-0.033702410757541656,-0.05179407820105553,0.14948567748069763,-0.003274537157267332,-0.30887317657470703,-0.10329896211624146,-0.2890980839729309,0.041552893817424774,0.16182300448417664,-0.0930812805891037,0.14821918308734894,-0.12826330959796906,0.21467122435569763,0.06949517130851746,-0.04889128729701042,-0.009162572212517262,0.020013149827718735,0.1269577443599701,0.040160320699214935,-0.0566452294588089,0.11499378085136414,0.05708108842372894,-0.222112238407135,-0.014132983051240444,-0.20651280879974365,-0.08855438232421875,-0.06122322380542755,-0.09181775897741318,0.12415843456983566,-0.277245432138443,0.041071824729442596,-0.050572946667671204,-0.19412557780742645,-0.02112126350402832,-0.06893932819366455,-0.002630741335451603,-0.01529768668115139,-0.11657996475696564,0.03916041553020477,-0.03084709122776985,-0.023633113130927086,-0.02738676592707634,0.026413315907120705,0.07671429961919785,-0.13885395228862762,-0.031001681461930275,0.07878964394330978,-0.026413816958665848,-0.17063523828983307,-0.055668409913778305,0.17046570777893066,-0.20339594781398773,0.05468078330159187,0.0612965002655983,0.0716925710439682,0.05954776331782341,0.10369256883859634,0.010419714264571667,0.1612982153892517,-0.06193532049655914,0.2874293625354767,-0.0021453085355460644,0.024391500279307365,0.0753995031118393,0.16339601576328278,-0.08709061145782471,0.15069158375263214,-0.12567199766635895,-0.034210529178380966,-0.16916313767433167,0.1640746295452118,0.20468664169311523,-0.13176091015338898,-0.035377588123083115,0.19575755298137665,-0.17573043704032898,0.06203894689679146,0.05337519198656082,-0.006474739871919155,-0.02878226898610592,-0.06908196955919266,-0.01064480934292078,0.2540957033634186,-0.04011044278740883,0.45906177163124084,0.05553847551345825,-0.13281559944152832,0.10929851979017258,-0.0022173721808940172,-0.0051157413981854916,0.09650673717260361,0.26234614849090576,-0.1164616122841835,0.054373811930418015,-0.01728217303752899,0.049684397876262665,-0.20460335910320282,0.13752654194831848,0.0597958005964756,0.1928882747888565,-0.05637698620557785,-0.23291270434856415,0.14609116315841675,0.014888014644384384,-0.023341525346040726,0.22073079645633698,0.0800052285194397,-0.21513372659683228,0.21793311834335327,-0.1544606238603592,0.19799989461898804,0.022752245888113976,-0.029615525156259537,0.011406447738409042,0.0807570144534111,-0.24087035655975342,-0.08043866604566574,0.10584006458520889,0.049689967185258865,0.0721340924501419,0.15478402376174927,0.08849138766527176,0.1537344753742218,-0.16075371205806732,-0.0033210227265954018,0.019073110073804855,-0.15368065237998962,-0.06836602091789246,-0.24124860763549805,-0.30944544076919556,0.024096962064504623,0.007346365135163069,-0.3036169409751892,0.19748534262180328,0.015684636309742928,-0.1711512804031372,-0.020477721467614174,0.03531285375356674,-0.07984692603349686,-0.11912509053945541,0.14970028400421143,0.06257958710193634,0.08807261288166046,0.021209947764873505,0.07002804428339005,-0.08783598244190216,0.07501697540283203,-0.24645279347896576,-0.057035740464925766,0.21624913811683655,0.21875090897083282,0.17721500992774963,0.0826433002948761,-0.062214817851781845,-0.16331689059734344,-0.05602128058671951,-0.06806333363056183,0.08223208785057068,-0.2697313129901886,0.08834898471832275,0.24310600757598877,0.038920823484659195,0.01673983782529831,0.08263080567121506,-0.16381965577602386,-0.10203786939382553,-0.20729482173919678,0.1254095435142517,-0.1452217847108841,0.17724154889583588,-0.1546075940132141,0.0010540488874539733,-0.14934897422790527,-0.19525906443595886,0.08711839467287064,-0.15184463560581207,0.23292551934719086,0.14496122300624847,0.16267962753772736,0.10927344858646393,0.1406385600566864,-0.028162965551018715,-0.060832589864730835,0.21525786817073822,-0.041658081114292145,0.02343825250864029,-0.12347989529371262,0.19844086468219757,-0.10162118077278137,0.2226915806531906,-0.08188929408788681,-0.011276333592832088,-0.04705910384654999,0.16433899104595184,-0.10310043394565582,0.117935910820961,0.0222865529358387,0.011960839852690697,0.01241050660610199,0.2326027750968933,0.10365727543830872,-0.01746010221540928,0.13606539368629456,-0.10016483813524246,-0.03473776578903198,-0.060568831861019135,-0.05107175558805466,0.08951821178197861,-0.1087283343076706,0.027726219967007637,0.07900837808847427,-0.17611061036586761,-0.222775399684906,-0.21720726788043976,0.10219181329011917,0.018852511420845985,0.07251816987991333,-0.05107841640710831,0.06349959224462509,-0.004502220079302788,0.03696230798959732,0.02769075706601143,-0.05690896511077881,-0.0067076352424919605,0.036760684102773666,0.1899099200963974,0.1720837652683258,0.009160351008176804,0.09238498657941818,-0.1535121649503708,-0.028036577627062798,0.062326040118932724,-0.0315687395632267,0.09075921028852463,0.00636319350451231,0.22004568576812744,0.08722187578678131,-0.08905068039894104,-0.04860158637166023,-0.0039496999233961105,-0.07990320026874542,0.06175637245178223,0.0432494580745697,0.20824982225894928,0.11134499311447144,0.3346264362335205,0.1363837867975235,0.14680519700050354,0.18643788993358612,-0.04000335931777954,-0.009849839843809605,0.12553608417510986,0.1401130110025406,-0.10979387909173965,-0.32101118564605713,0.04520826414227486,-0.06573108583688736,-0.0907147228717804,0.023197181522846222,-0.0002149455394828692,-0.3878715932369232,-0.16265401244163513,-0.015766141936182976,0.08027540892362595,-0.16810275614261627,0.08309154212474823,-0.14384564757347107,-0.08058173954486847,-0.03023335337638855,0.013561948202550411,0.08032465726137161,0.295881062746048,0.03769361972808838,-0.18773573637008667,-0.01672876626253128,0.16928048431873322,0.3846660256385803,-0.15257814526557922,-0.03127415105700493,-0.20433278381824493,0.029910458251833916,-0.07667691260576248,0.0029591801576316357,-0.08641945570707321,-0.14262381196022034,0.28742465376853943,-0.18283741176128387,0.010826841928064823,0.023642344400286674,0.03174290433526039,0.17875918745994568,0.2296954244375229,-0.13016396760940552,0.07972725480794907,0.1689532995223999,-0.1156284511089325,0.07262371480464935,0.20525217056274414,-0.19533781707286835,0.0737263634800911,0.30233028531074524,0.1151433140039444,-0.03486279770731926,0.12511509656906128,0.1571788787841797,0.12216354161500931,0.021779829636216164,0.3796447813510895,0.06757375597953796,-0.12499396502971649,-0.10018109530210495,0.02386605367064476,0.0716928243637085,0.16128811240196228,0.16131550073623657,-0.002190867206081748,-0.13153988122940063,-0.13006077706813812,0.03527173772454262,-0.29781773686408997,0.0069870250299572945,0.09143247455358505,-0.07612601667642593,-0.18403375148773193,0.11400872468948364,-0.20091532170772552,0.06910166889429092,0.1549738496541977,-0.009000460617244244,-0.0006553504499606788,-0.09451792389154434,0.04421192780137062,-0.028477078303694725,-0.09059103578329086,0.0060650561936199665,-0.15025092661380768,0.014397170394659042,-0.4228037893772125,-0.005230099428445101,0.19211234152317047,0.031292807310819626,0.0785277783870697,-0.00018134120909962803,-0.14581774175167084,0.08858903497457504,-0.004140642937272787,-0.1247558742761612,-0.03802162781357765,0.2032269984483719,0.12304974347352982,0.09380992501974106,-0.010621663182973862,-0.18639761209487915,0.0893755555152893,0.039609644562006,-0.10557200759649277,-0.042937543243169785,-0.46097666025161743,0.6504461169242859,0.2796345055103302,-0.2979232966899872,0.04819692671298981,-0.19151653349399567,-0.12087985128164291,0.4376817047595978,-0.8235849738121033,0.8214189410209656,0.47661101818084717,0.037081148475408554,-0.2819025218486786,0.17070627212524414,-0.779417097568512,0.19817936420440674,-0.09685266762971878,0.08867301046848297,-0.10478662699460983,-0.10248077660799026,0.13816551864147186,0.15010245144367218,-0.052380528301000595,0.19267171621322632,0.19263501465320587,0.12963174283504486,0.1362968534231186,-0.2417871505022049,0.20612597465515137,-0.2546316683292389,-0.21692612767219543,0.1544717401266098,-0.1477528065443039,0.10281413048505783,0.29324105381965637,0.18839912116527557,0.09183992445468903,0.17685449123382568,-0.30046534538269043,-0.15933682024478912,0.031272001564502716,0.2006886750459671,0.005011592525988817,0.06959261000156403,0.38156166672706604,0.1441626101732254,-0.056555088609457016,0.06591036170721054,-0.06081267446279526,-0.06617386639118195,-0.07496753334999084,-0.10024955868721008,-0.13735747337341309,-0.14648301899433136,-0.2974424362182617,-0.4265033006668091,-0.13817188143730164,-0.055512163788080215,0.22951336205005646,0.38150960206985474,-0.2861517667770386,-0.1395304948091507,0.059880129992961884,0.09637086093425751,-0.17840218544006348,0.02616928704082966,-0.046802178025245667,-0.023800961673259735,0.08648790419101715,-0.3183295726776123,0.2284265160560608,0.43365946412086487,-0.19651000201702118,0.06702519953250885,0.19453342258930206,0.0021617712918668985,-0.0012393428478389978,0.03918886184692383,0.1090645119547844,0.12075456976890564,-0.028891203925013542,0.2642364203929901,-0.2687716782093048,-0.0817006453871727,-0.03020140528678894,0.09671064466238022,-0.055644065141677856,0.31847262382507324,0.007009450811892748,-0.2908143699169159,-0.03344769403338432,-0.20329049229621887,-0.17215850949287415,0.04141588509082794,-0.2236289381980896,-0.10375597327947617,-0.016710521653294563,-0.02284770831465721,-0.16908863186836243,-0.3008615970611572,0.048308443278074265,0.2789079248905182,0.0434005968272686,-0.27218279242515564,-0.06462398916482925,0.15698887407779694,-0.03692980110645294,0.14159345626831055,0.3046613335609436,0.26785770058631897,0.0400443896651268,0.15191210806369781,0.07772941142320633,-0.020565634593367577,0.1899314969778061,0.4544912576675415,-0.03986164554953575,0.05430476367473602,0.0021688686683773994,-0.228872612118721,0.16713029146194458,0.26676371693611145,-0.16105836629867554,0.15833254158496857,-0.016749665141105652,0.3022992014884949,0.0018167449161410332,0.06538651138544083,0.10803245007991791,-0.09880029410123825,-0.0718623474240303,0.24937623739242554,-0.1497313380241394,0.14005275070667267,-0.1783599853515625,0.19265218079090118,-0.07784310728311539,0.0652209222316742,0.16080132126808167,-0.020877499133348465,-0.049117863178253174,-0.00022466880909632891,-0.015525427646934986,-0.2692178785800934,0.12896545231342316,-0.08790738880634308,0.3107622563838959,0.41246840357780457,-0.10063770413398743,-0.14243236184120178,0.0697314441204071,-0.09152443706989288,0.11454544961452484,0.003161338623613119,0.18027587234973907,-0.2018721103668213,-0.010913669131696224,0.06716068089008331,0.1014380231499672,0.37023505568504333,-0.21112774312496185,-0.04819129779934883,0.058258041739463806,-0.09735110402107239,0.24476072192192078,-0.06509198993444443,-0.12784641981124878,-0.10758835077285767,-0.005748288240283728,0.10522796958684921,0.07763296365737915,-0.25241315364837646,-0.001833195798099041,0.23146019876003265,-0.16012372076511383,0.25859618186950684,-0.2426840215921402,-0.14232438802719116,-0.05662568286061287,0.1288730800151825,-0.1516367793083191,0.08700895309448242,-0.05035899206995964,0.35224705934524536,-0.11166594922542572,-0.28726819157600403,-0.034628864377737045,0.04271944612264633,-0.22689828276634216,-0.014558263123035431,0.14105728268623352,0.15031173825263977,-0.27614298462867737,0.04561060294508934,-0.07055845111608505,-0.22018226981163025,0.16986583173274994,0.2576562166213989,0.14727425575256348,-0.10362807661294937,-0.25705790519714355,-0.22723065316677094,0.4062560498714447,-0.16044606268405914,-0.2445916086435318,-0.0051390063017606735,0.0931832417845726,-0.2662836015224457,-0.1259663850069046,-0.2763046622276306,0.18063922226428986,0.22744977474212646,0.028003524988889694,-0.24547582864761353,-0.31489241123199463,-0.03776254132390022,-0.3583243489265442,-0.14837482571601868,-0.06671127676963806,0.031401198357343674,-0.06684237718582153,-0.08891063183546066,-0.162648007273674,-0.17998097836971283,-0.03191110119223595,-0.24846503138542175,-0.010026995092630386,0.13019804656505585,-0.1642579287290573,0.16816146671772003,-0.25528377294540405,0.05894697085022926,-0.09118092060089111,0.23165343701839447,-0.15104006230831146,0.08640138059854507,0.15556266903877258,-0.3167822062969208,0.07734782248735428,0.11896689981222153,-0.029718002304434776,-0.04201586917042732,-0.05618808791041374,-0.1270265281200409,0.10379673540592194,0.2714028060436249,-0.16013950109481812,0.30732449889183044,0.2758927047252655,0.1839945763349533,0.16555748879909515,-0.07289721071720123,0.2549183666706085,0.07488211244344711,-0.2562880516052246,-0.0917145162820816,-0.2126229703426361,-0.13280156254768372,-0.17878219485282898,-0.36794182658195496,-0.10245591402053833,-0.010592538863420486,-0.33170241117477417,0.09436547756195068,-0.014181913807988167,0.13567377626895905,0.263293981552124,-0.25205281376838684,-0.13294444978237152,-0.28189191222190857,-0.015970822423696518,0.017386676743626595,0.006339930463582277,-0.0015527264913544059,0.16680504381656647,-0.17110396921634674,0.13803456723690033,0.16303470730781555,-0.03500153496861458,-0.18282203376293182,-0.09614602476358414,0.029255596920847893,0.010020622052252293,0.19587861001491547,0.09011542797088623,0.10675238072872162,0.07933473587036133,0.2585209608078003,-0.1947752684354782,-0.17317451536655426,-0.14876338839530945,0.16522285342216492,0.0991690382361412,0.23634472489356995,-0.004462418146431446,0.07721803337335587,-0.07785486429929733,-0.08769536763429642,0.176265686750412,0.13557331264019012,-0.32008951902389526,-0.076417937874794,0.07065772265195847,0.07917740941047668,0.33164456486701965,0.09706751257181168,0.09194744378328323,-0.1323971003293991,-0.3550876975059509,0.2163432240486145,0.3423311710357666,0.024358823895454407,-0.13344788551330566,-0.1397838592529297,-0.057154782116413116,0.2271689474582672,-0.14697149395942688,0.04558210447430611,-0.33231693506240845,0.17713351547718048,0.09550706297159195,-0.022153563797473907,-0.16560892760753632,-0.10307727754116058,0.011683850549161434,0.07551920413970947,0.021181052550673485,-0.1556391716003418,0.012603122740983963,-0.14440219104290009,-0.19199372828006744,-0.0444195382297039,0.14941753447055817,-0.14964063465595245,-0.04832690581679344,0.17115843296051025,0.2697164714336395,0.04596862196922302,0.27920180559158325,-0.11463060975074768,0.133968323469162,-0.10769416391849518,-0.13512930274009705,-0.0951252281665802,-0.15773457288742065,0.2651488780975342,0.19922319054603577,0.08287278562784195,0.055905647575855255,0.1298520416021347,-0.1171460896730423,-0.024126391857862473,-0.12542903423309326,-0.09115855395793915,0.12052182108163834,0.07329493761062622,0.44748109579086304,-0.025592593476176262,-0.22422505915164948,-0.11883722990751266,-0.1386261284351349,-0.03230559080839157,0.11973647028207779,-0.010908035561442375,0.16001835465431213,0.11804679781198502,0.2743854820728302,-0.016154367476701736,0.17071415483951569,0.04208352416753769,-0.03997242823243141,-0.007183021400123835,-0.024280961602926254,-0.04887687787413597,-0.2717253565788269,0.15636605024337769,-0.14105866849422455,-0.006654409226030111,0.16923533380031586,0.03279213234782219,0.13223376870155334,0.17687910795211792,-0.14909376204013824,-0.17594066262245178,-0.041932567954063416,-0.0885934978723526,0.05684686824679375,0.13641153275966644,-0.3475194573402405,-0.16372740268707275,-0.04947934299707413,0.14647038280963898,-0.029932143166661263,0.05977405607700348,0.0425102598965168,0.06057557836174965,-0.12459268420934677,0.03852604329586029,-0.11530064791440964,-0.39714741706848145,-0.17976981401443481,0.07462950795888901,0.08098867535591125,-0.2657325565814972,-0.042572736740112305,0.03043494187295437,0.07748444378376007,0.05467284098267555,0.1346200704574585,0.062207505106925964,-0.01621461659669876,-0.020267309620976448,-0.14605186879634857,-0.09981492906808853,0.08982741832733154,0.11265595257282257,-0.11499302089214325,-0.1266523003578186,0.0026120245456695557,-0.11371965706348419,-0.03374628350138664,0.047128912061452866,-0.11897147446870804,0.09348530322313309,0.04725073650479317,0.13267402350902557,-0.03632143884897232,-0.19828703999519348,-0.17206992208957672,0.1814706176519394,0.12901632487773895,-0.006815039087086916,0.28648966550827026,-0.07954546064138412,0.04678824543952942,0.16604112088680267,0.040460094809532166,0.128956139087677,0.06976518779993057,0.040837742388248444,-0.060367364436388016,0.16758140921592712,-0.07704861462116241,0.0907391831278801,0.11837349086999893,-0.029179859906435013,-0.19296512007713318,-0.3312876522541046,-0.18271024525165558,0.15169981122016907,-0.15103843808174133,0.049731865525245667,0.1562076061964035,0.08495893329381943,0.18451666831970215,0.07815276086330414,-0.12207972258329391,-0.20174285769462585,-0.15909577906131744,0.04593310505151749,0.09659888595342636,0.04326171800494194,0.3135643005371094,0.05018352344632149,-0.030934376642107964,0.1904262751340866,0.2645267844200134,-0.03387303277850151,0.03773673623800278,-0.16826984286308289,0.20612622797489166,0.19643792510032654,-0.1764514148235321,-0.1143893152475357,0.0748438686132431,-0.3412533700466156,-0.0788545310497284,0.05352732166647911,-0.07897090911865234,0.3738800585269928,-0.017429634928703308,-0.017345858737826347,0.08798645436763763,-0.18867874145507812,0.006605816539376974,-0.010643637739121914,-0.026143010705709457,-0.08599308133125305,0.0247208122164011,-0.013044308871030807,-0.009327340871095657,0.025949284434318542,-0.03161363676190376,-0.12255769968032837,0.012314106337726116,0.45037245750427246,0.18644356727600098,-0.07894618809223175,-0.08134505152702332,0.13467459380626678,0.027063800022006035,0.07632286846637726,0.03810444474220276,-0.2043784111738205,0.049281176179647446,-0.037742748856544495,-0.14115837216377258,-0.07325704395771027,0.05154239758849144,0.0436682291328907,-0.030981210991740227,-0.023350084200501442,-0.09748290479183197,0.008032112382352352,-0.15145428478717804,-0.08610384911298752,0.10107969492673874,-0.008625289425253868,-0.1710013747215271,-0.18023782968521118,0.0016993788303807378,-0.07252860069274902,-0.11701647937297821,0.10816411674022675,0.12440317869186401,-0.21027235686779022,0.1322454810142517,-0.07167325168848038,-0.0003252786409575492,-0.26094529032707214,-0.194622203707695,0.13388372957706451,-0.08033674210309982,0.0332326702773571,0.07951980084180832,0.20287677645683289,-0.12044667452573776,0.07935933023691177,-0.19105878472328186,0.07624984532594681,-0.24733848869800568,-0.06029527261853218,-0.10497403889894485,-0.13315144181251526,-0.16028781235218048,-0.010966436937451363,0.059726420789957047,0.01166713796555996,-0.1149415373802185,-0.16679483652114868,0.05604907125234604,-0.12864598631858826,0.1169486716389656,-0.020471610128879547,0.06747975945472717,0.18647795915603638,-0.18930301070213318,-0.06361526995897293,-0.06360666453838348,-0.0365443117916584,0.09636873006820679,-0.07428181171417236,-0.08774401992559433,-0.07811851054430008,0.07427921146154404,-0.06813114881515503,-0.11039964854717255,-0.04228312894701958,0.10434620827436447,0.11664486676454544,0.10742369294166565,-0.08442522585391998,-0.028549114242196083,0.17639680206775665,0.18938276171684265,0.13676989078521729,-0.07242415845394135,-0.27508100867271423,-0.20599979162216187,0.024745631963014603,-0.14594119787216187,0.11481893062591553,0.24767376482486725,0.19160574674606323,-0.22973699867725372,-0.0711749792098999,-0.3174497187137604,0.07237812876701355,-0.08422184735536575,-0.0942440927028656,-0.035783253610134125,-0.14860399067401886,0.29760420322418213,-0.1876860111951828,-0.09176532924175262,-0.004073031712323427,0.00964420847594738,-0.14320844411849976,-0.03246350958943367,-0.16516868770122528,0.16870321333408356,0.14954419434070587,-0.10326827317476273,0.22283880412578583,0.006724030245095491,0.10910452902317047,-0.11071141064167023,-0.04473248869180679,-0.26786091923713684,-0.05002410337328911,-0.046405114233493805,0.18186913430690765,-0.035798486322164536,-0.053007662296295166,0.0006329412572085857,-0.006965295411646366,-0.035420019179582596,-0.18227137625217438,0.1495981365442276,0.2629397511482239,0.08176184445619583,-0.06316202133893967,-0.08087927848100662,-0.05149530991911888,-0.09276343137025833,0.16015896201133728,-0.04470023885369301,-0.17303158342838287,0.01198990922421217,-0.0756501629948616,-0.10064072906970978,0.05581708997488022,-0.05888589471578598,0.21069777011871338,0.13554205000400543,-0.0737854391336441,0.1755831241607666,-0.010728331282734871,-0.10769855976104736,-0.228532075881958,-0.18016746640205383,0.04650136083364487,-0.241007998585701,0.08954080939292908,-0.0007289741770364344,0.09633248299360275,-0.08583097159862518,0.07720687985420227,0.05489799380302429,-0.06903119385242462,-0.10794474929571152,-0.14772765338420868,0.10192562639713287,0.017428359016776085,0.004245793912559748,0.0012021770235151052,-0.06582356244325638,-0.08013416081666946,0.17775647342205048,0.1830233484506607,-0.02076815254986286,0.12366708368062973,0.0391293466091156,-0.0763680711388588,-0.1170869767665863,-0.26873573660850525,-0.08298315852880478,-0.13072261214256287,-0.023053396493196487,0.002918504411354661,0.19079600274562836,-0.06588613986968994,0.08619771152734756,0.12103202939033508,0.15910355746746063,-0.028832634910941124,0.20612923800945282,-0.010433782823383808,-0.15833809971809387,-0.0350559763610363,-0.058543626219034195,0.10496477782726288,-0.03164713457226753,-0.2152702808380127,-0.014246721751987934,0.013372947461903095,-0.14069697260856628,0.08765856176614761,-0.06480736285448074,-0.0134122921153903,0.022012336179614067,-0.0007268344634212554,0.15584255754947662,0.04286102578043938,-0.005278513301163912,-0.14599014818668365,-0.13961735367774963,-0.0020182521548122168,0.1620240956544876,0.025741025805473328,-0.09276841580867767,0.2733272612094879,0.08769195526838303,-0.08804330229759216,0.24207784235477448,0.08692008256912231,-0.09002099931240082,0.2365872859954834,-0.012330657802522182,-0.13447964191436768,-0.22541543841362,0.21900753676891327,0.11534962803125381,-0.12114446610212326,0.0733332559466362,0.039187729358673096,-0.013604814186692238,-0.014725331217050552,0.0017660901648923755,-0.23411209881305695,0.2471024990081787,-0.0229368656873703,0.28970152139663696,0.05078237131237984,-0.06345361471176147,-0.0023965463042259216,-0.150592640042305,0.04310492053627968,0.08466114103794098,-0.03287791460752487,0.08521471917629242,-0.025829186663031578,0.1815665066242218,0.07837887108325958,-0.17380821704864502,-0.15992961823940277,-0.13353820145130157,0.04066753014922142,-0.011206931434571743,0.06324858963489532,0.08548387140035629,0.035397376865148544,-0.040890734642744064,0.20428211987018585,-0.039490677416324615,0.02680359035730362,-0.12137362360954285,-0.09115524590015411,-0.00027685778331942856,-0.10456859320402145,0.32549816370010376,-0.005882347468286753,-0.2357613444328308,-0.3155272603034973,0.1102752685546875,0.09367378056049347,-0.1410294771194458,-0.051938675343990326,-0.08641983568668365,0.271068274974823,-0.15769311785697937,0.013359819538891315,0.2478955239057541,-0.2373778522014618,-0.1446966975927353,0.1810002624988556,-0.051496174186468124,-0.008698702789843082,-0.14905449748039246,0.07834091782569885,0.08065441250801086,-0.17278772592544556,0.2685156464576721,0.06919417530298233,0.0380096398293972,0.034040652215480804,0.21939484775066376,-0.15257349610328674,-0.17478618025779724,-0.24467921257019043,-0.1254756599664688,-0.06718017905950546,0.22822678089141846,0.3551599383354187,0.2799493372440338,0.08164187520742416,0.21264320611953735,0.07758557051420212,-0.22427698969841003,-0.2361208200454712,0.32567018270492554,-0.08651440590620041,-0.044312264770269394,-0.004094984848052263,0.008401535451412201,0.17943596839904785,-0.016409246250987053,0.0471457801759243,-0.1717817187309265,-0.23104798793792725,-0.0598083920776844,0.08460385352373123,-0.2169571816921234,0.2563224732875824,0.013565299101173878,0.09846509248018265,0.07731699198484421,-0.2633149325847626,0.1223394051194191,-0.12933582067489624,-0.04333670064806938,0.2614094614982605,0.13486623764038086,-0.12042606621980667,0.005642319563776255,-0.0779523178935051,-0.07501117140054703,-0.24193088710308075,0.005469000432640314,0.264174222946167,-0.299581378698349,0.2372754067182541,0.03480253368616104,0.2452956736087799,-0.23385077714920044,-0.1975572407245636,0.007161284796893597,-0.2008037567138672,-0.37068885564804077,0.029144423082470894,0.00021021839347667992,-0.2786194682121277,-0.13729822635650635,0.11576241999864578,0.049156397581100464,-0.18963514268398285,0.08125028759241104,-0.08617744594812393,-0.040066901594400406,0.08103451877832413,0.07621843367815018,0.14129738509655,-0.23018717765808105,0.33158621191978455,-0.03498930484056473,0.15445712208747864,-0.26769953966140747,0.18179503083229065,0.049460116773843765,-0.025064781308174133,-0.03062083013355732,0.05500083789229393,0.04621994495391846,0.012513271532952785,0.15399454534053802,-0.12429381161928177,0.15919256210327148,0.04861210659146309,-0.1009053885936737,-0.08658654987812042,0.161427304148674,-0.18178658187389374,0.16150300204753876,-0.1720365583896637,-0.001996485283598304,-0.08096256852149963,-0.2085437774658203,-0.007680848706513643,-0.06941642612218857,0.18977512419223785,-0.020071562379598618,0.03055018000304699,-0.24404391646385193,-0.22195424139499664,-0.10934792459011078,0.06493980437517166,-0.024867935106158257,-0.14654728770256042,-0.08374441415071487,-0.07214191555976868,-0.2004677951335907,-0.10269325226545334,0.18364164233207703,-0.07162708044052124,0.20097209513187408,-0.05832721292972565,0.00589987076818943,0.06366699188947678,0.2558680772781372,-0.12831038236618042,-0.27202069759368896,0.18310268223285675,-0.061920396983623505,-0.006029049400240183,-0.1953413337469101,0.0686798021197319,-0.15421269834041595,0.0356026366353035,0.0862792432308197,-0.0037924915086477995,-0.015065780840814114,0.1075860783457756,0.17997391521930695,-0.19157540798187256,0.09011173248291016,-0.028606818988919258,0.004393620882183313,-0.012463818304240704,0.14516273140907288,0.045037172734737396,0.11294173449277878,-0.0716526210308075,-0.046157438308000565,-0.023827780038118362,0.23907309770584106,0.06645306199789047,-0.07324324548244476,-0.16886374354362488,-0.019121693447232246,0.01880526728928089,-0.05617741122841835,0.08931344002485275,0.2748914659023285,0.046498943120241165,0.09169501811265945,0.34540367126464844,0.06902974098920822,0.1882772445678711,0.29415363073349,-0.003983630333095789,-0.09648364782333374,-0.03700724616646767,0.03481413796544075,-0.10670357197523117,-0.039128657430410385,-0.016432246193289757,-0.047910671681165695,-0.04273226857185364,-0.05258217453956604,-0.16227921843528748,-0.11326020210981369,-0.16752605140209198,-0.12399669736623764,0.11772241443395615,0.0516635999083519,-0.01193390041589737,-0.1612938642501831,-0.19220469892024994,-0.011705485172569752,0.029607996344566345,-0.13653893768787384,-0.120115727186203,0.2411109358072281,0.006200645584613085,-0.0322117805480957,0.11918609589338303,-0.04571862518787384,-0.037019096314907074,0.12092798948287964,0.4513019621372223,0.23342587053775787,-0.021399149671196938,0.04087425023317337,-0.06074170023202896,-0.09350446611642838,-0.11833368986845016,0.01143920049071312,-0.0026173049118369818,-0.05053195729851723,0.00008346444519702345,0.17182300984859467,-0.20162765681743622,-0.132450133562088,0.015580336563289165,0.16056250035762787,-0.04435565695166588,0.04931706190109253,0.21159197390079498,-0.1640024036169052,0.038675662130117416,-0.17951589822769165,-0.02393779344856739,-0.0025197314098477364,0.15713323652744293,0.030375441536307335,0.04284600913524628,0.07115050405263901,0.11699699610471725,-0.10307935625314713,-0.0506606251001358,-0.2041415572166443,-0.16975799202919006,0.1777544468641281,-0.1307755559682846,-0.18826110661029816,-0.2870480716228485,0.015407873317599297,-0.0665636882185936,-0.11094233393669128,0.04951367527246475,-0.025633690878748894,0.2730705738067627,-0.0682416781783104,-0.08108123391866684,-0.018476510420441628,-0.0006384251173585653,-0.11100618541240692,-0.29815149307250977,0.2698248028755188,0.138139545917511,-0.10076817125082016,-0.15411899983882904,-0.28597405552864075,-0.30084168910980225,-0.5188177227973938,-0.19266967475414276,0.1420290768146515,0.4180336594581604,0.2662823796272278,-0.3145292103290558,0.3241095244884491,-0.1296069175004959,-0.25847357511520386,-0.38383758068084717,0.0006941640749573708,0.3271760642528534,0.038988109678030014,0.15095818042755127,-0.10444169491529465,0.1524210125207901,0.052778538316488266,0.4063023328781128,-0.011229646392166615,0.19597241282463074,-0.33487048745155334,-0.36813780665397644,0.012171061709523201,-0.03251205384731293,0.33995798230171204,-0.024593433365225792,-0.3012886047363281,-0.600344181060791,0.0043710810132324696,0.24060465395450592,0.29583245515823364,0.16138069331645966,0.026572247967123985,0.3564821779727936,-0.04417385160923004,0.013959071598947048,0.43246445059776306,0.01709553971886635,-0.3793385624885559,0.3367217779159546,0.13930749893188477,0.11238524317741394,-0.06662598997354507,0.09610842913389206,-0.22498200833797455,0.22023068368434906,0.07952670007944107,-0.11102671921253204,-0.10037285834550858,0.08596143871545792,0.15151900053024292,0.12779033184051514,-0.00917363166809082,0.1766730546951294,0.08173389732837677,-0.053506266325712204,0.4101422429084778,0.6995489001274109,0.18493866920471191,0.43361154198646545,-0.8209805488586426,-0.282178670167923,0.04205958917737007,0.34899553656578064,0.03814677149057388,0.3159964382648468,0.13900788128376007,-0.5942244529724121,0.3061530590057373,-0.07812190055847168,-0.8074502944946289,0.10306496918201447,-0.07528290152549744,-0.14923715591430664,-0.029504384845495224,0.25101375579833984,-0.22641149163246155,0.16071628034114838,0.25531408190727234,0.015472717583179474,-0.2667555510997772,-0.2441336214542389,-0.036889851093292236,-0.09288374334573746,-0.0241742804646492,-0.007659961003810167,-0.048425350338220596,0.5019180178642273,-0.1276891529560089,-0.09644912928342819,-0.18554846942424774,0.24643440544605255,0.07495676726102829,-0.08219823241233826,0.0017735162982717156,0.13419048488140106,-0.042729392647743225,-0.12389391660690308,0.016949312761425972,-0.281210333108902,0.19573411345481873,-0.13613095879554749,0.013096345588564873,0.1487293839454651,0.15456697344779968,-0.25701582431793213,0.43069395422935486,-0.0320475772023201,-0.14077302813529968,0.06311523169279099,-0.25122880935668945,-0.22729192674160004,-0.006322881206870079,0.1992659866809845,-0.1505948156118393,-0.07633805274963379,-0.4550868570804596,-0.16850148141384125,0.09233354032039642,0.2188536822795868,0.33988454937934875,-0.2750449776649475,-0.07682038843631744,-0.09409241378307343,0.06635965406894684,0.13725776970386505,0.28113776445388794,0.21587833762168884,0.021658053621649742,-0.12005730718374252,-0.16875363886356354,0.17561234533786774,-0.2131277322769165,0.11140526831150055,0.026866881176829338,-0.014843849465250969,-0.31032148003578186,0.12651017308235168,-0.10939555615186691,-0.07245460897684097,0.09109260141849518,0.13468806445598602,-0.0600055456161499,0.02761971391737461,-0.08522284030914307,0.05019178241491318,0.1894298791885376,0.28702685236930847,-0.0264740027487278,-0.1085791140794754,-0.052015554159879684,-0.21016593277454376,-0.12287306785583496,-0.35822102427482605,0.28408119082450867,0.2784108817577362,0.37219342589378357,-0.2901363968849182,0.16316749155521393,-0.08151751011610031,-0.06183023005723953,0.22439494729042053,0.324179083108902,-0.2768629491329193,0.22308140993118286,0.07671532034873962,0.1582600623369217,-0.15693940222263336,0.40289071202278137,-0.07250775396823883,-0.09411358088254929,-0.09392562508583069,-0.031843412667512894,-0.05060986056923866,-0.051285579800605774,0.0509013794362545,0.012272551655769348,-0.04029293730854988,0.0682879090309143,0.037146419286727905,0.17518563568592072,-0.02845599502325058,-0.09443764388561249,0.14111614227294922,-0.14821919798851013,-0.1790439635515213,0.14040371775627136,-0.22138063609600067,0.2755230665206909,0.20661500096321106,-0.09375709295272827,-0.08021114021539688,0.2167244255542755,0.07598497718572617,0.13281778991222382,-0.1460665762424469,0.005919438786804676,-0.08972898125648499,-0.22010527551174164,-0.0015752774197608232,0.13369250297546387,-0.2544168531894684,0.05929886922240257,-0.07875940203666687,0.028752848505973816,0.039000220596790314,0.047640930861234665,-0.18876247107982635,-0.07956387102603912,-0.03526636213064194,0.07663246244192123,-0.17015887796878815,-0.07217453420162201,0.11435876041650772,0.16908714175224304,0.09845753014087677,0.12532542645931244,0.07902812212705612,0.23998591303825378,0.23025134205818176,-0.19209477305412292,-0.2151351124048233,0.207927405834198,-0.32567793130874634,0.043488819152116776,0.19494132697582245,-0.115243099629879,0.12129903584718704,0.049426667392253876,0.052341800183057785,-0.2580694258213043,0.29230839014053345,0.030143816024065018,-0.17592337727546692,0.22265830636024475,-0.21928712725639343,-0.1752341091632843,-0.01959748938679695,0.08906299620866776,0.10848944634199142,-0.25611573457717896,0.3534281551837921,-0.030628086999058723,-0.005506369285285473,-0.1430942863225937,-0.29528912901878357,-0.12030662596225739,0.3647088408470154,-0.18039169907569885,0.06500466912984848,0.23069532215595245,0.033262550830841064,-0.2700950801372528,0.014428962953388691,-0.17719893157482147,0.01938699744641781,0.01730327121913433,-0.1490096002817154,-0.029867518693208694,0.3638753890991211,0.23776625096797943,-0.23478345572948456,0.2692495882511139,0.027293572202324867,-0.22212161123752594,0.12353413552045822,0.37265175580978394,0.2045699506998062,0.23959815502166748,0.03172451630234718,0.25615614652633667,-0.0007936555193737149,-0.07188279181718826,0.37748435139656067,0.019577791914343834,-0.25546178221702576,-0.3919140100479126,-0.4828393757343292,-0.04182303696870804,0.14597029983997345,-0.16257749497890472,-0.14923030138015747,0.141073077917099,-0.03876429423689842,0.3699808418750763,0.020722107961773872,0.03019666112959385,-0.03816188871860504,0.05985399708151817,-0.08128722757101059,0.23385991156101227,0.0573657788336277,-0.31246086955070496,-0.2860470712184906,-0.31176313757896423,0.06275434046983719,0.14502555131912231,0.22020211815834045,-0.05054423585534096,0.1323922574520111,0.2823908030986786,-0.1779308319091797,-0.16122068464756012,-0.0306266937404871,0.07093675434589386,-0.05966312065720558,0.08419298380613327,-0.240614116191864,0.05456742271780968,0.04248984903097153,0.01241275668144226,0.033657968044281006,0.3250645399093628,-0.19230346381664276,0.09284450858831406,-0.2978594899177551,-0.08442109823226929,-0.2597601115703583,-0.15024113655090332,0.08401618152856827,-0.09528700262308121,-0.3681124746799469,-0.12501543760299683,-0.13398560881614685,-0.18833181262016296,0.083783820271492,-0.011810910888016224,0.04637415334582329,0.06433536112308502,-0.25006166100502014,-0.0356975793838501,0.06235544756054878,0.005704328417778015,0.07594893127679825,-0.03399483859539032,0.05302780494093895,0.0052524893544614315,-0.3679157793521881,0.3256527781486511,0.11890311539173126,0.06849859654903412,0.008839655667543411,-0.2861911356449127,-0.0813763365149498,-0.014450660906732082,0.15148212015628815,-0.03298371285200119,0.08974187821149826,0.019114596769213676,-0.043820347636938095,-0.01230880431830883,-0.22654756903648376,0.16349409520626068,0.02150096371769905,-0.21012593805789948,0.07116009294986725,-0.0899587944149971,0.07572882622480392,0.08056355267763138,-0.021529216319322586,-0.07468894124031067,-0.225373774766922,-0.03903360292315483,0.045950163155794144,0.06944996118545532,0.044618044048547745,0.4011462330818176,0.07616803050041199,-0.028377290815114975,0.003920035902410746,-0.15714839100837708,0.026774175465106964,0.36738166213035583,-0.1349618136882782,-0.07445719838142395,0.24739401042461395,0.08107928931713104,0.009882384911179543,-0.13355298340320587,0.12102419883012772,-0.10685107856988907,0.054990462958812714,-0.09802357107400894,0.21474851667881012,-0.186754509806633,-0.2885167896747589,-0.005428537726402283,-0.05955701693892479,-0.24992822110652924,0.07725277543067932,0.04998176172375679,0.03618127480149269,0.06647215038537979,-0.011127199046313763,0.21894866228103638,-0.1501527726650238,-0.07141413539648056,0.01935896836221218,0.07259739190340042,0.07152503728866577,-0.2531789541244507,-0.08446463197469711,-0.0007680378621444106,0.0985475704073906,0.09439072012901306,0.12654146552085876,0.011348632164299488,0.0720684677362442,-0.09920297563076019,-0.07463998347520828,0.07161927223205566,-0.06768626719713211,0.08231167495250702,0.0930023267865181,-0.16312624514102936,-0.0955788865685463,-0.059900056570768356,0.3664100468158722,-0.012388767674565315,-0.0020667752251029015,-0.031917378306388855,0.13052785396575928,-0.11045216768980026,0.2607879340648651,-0.16571365296840668,-0.06821034848690033,-0.0014546820893883705,-0.01525299996137619,-0.15984033048152924,-0.05609450861811638,-0.4012289345264435,-0.11066987365484238,0.043117765337228775,-0.2511211633682251,0.04115074872970581,0.21782083809375763,0.08826732635498047,-0.10010705143213272,-0.21802234649658203,-0.13221199810504913,-0.024908343330025673,-0.24755701422691345,-0.07287794351577759,0.07183880358934402,0.09822879731655121,0.2848110795021057,-0.1543828696012497,-0.16376106441020966,-0.09970922768115997,-0.17332354187965393,-0.040763065218925476,-0.059114206582307816,-0.009199152700603008,-0.35862982273101807,-0.20177079737186432,-0.05327080190181732,-0.1332472860813141,0.32377368211746216,0.02518228068947792,0.24452190101146698,0.0004533567407634109,-0.060982462018728256,-0.17863355576992035,0.1073516383767128,-0.11109181493520737,0.0943402573466301,-0.19375064969062805,0.022664036601781845,0.04123017564415932,-0.22728803753852844,0.01972987689077854,0.034506652504205704,0.026335587725043297,0.06934306025505066,0.0046758889220654964,-0.18041017651557922,0.014871643856167793,0.10150014609098434,0.1402221918106079,0.07705143839120865,0.14579476416110992,0.38589608669281006,0.16047976911067963,-0.16582058370113373,0.24645835161209106,0.030925506725907326,-0.17216430604457855,0.1436469703912735,0.09317030012607574,-0.24987314641475677,0.05080261081457138,0.2335641235113144,0.19462771713733673,0.1225382536649704,-0.19747811555862427,0.24043911695480347,0.19259758293628693,-0.02590317092835903,0.06560182571411133,-0.25938084721565247,0.05389339476823807,-0.28671810030937195,0.0006925175548531115,-0.03797163814306259,-0.2287663072347641,0.22859454154968262,0.06239647418260574,0.16357266902923584,-0.040310341864824295,0.07333776354789734,-0.08471972495317459,-0.011727117002010345,-0.037995144724845886,0.07587862014770508,-0.0120570482686162,0.13963767886161804,-0.008070282638072968,-0.02060919813811779,0.05221091955900192,0.10006609559059143,-0.0889085978269577,-0.10413408279418945,-0.24161870777606964,-0.2642023265361786,-0.09752845764160156,0.1272311955690384,0.05795823037624359,0.03947126865386963,-0.0332074873149395,0.2582511007785797,-0.027345633134245872,-0.09054446220397949,0.22123681008815765,-0.061820488423109055,0.19550569355487823,-0.010928858071565628,-0.0003475838166195899,0.03233582153916359,0.1504913568496704,0.08251946419477463,-0.1353825479745865,-0.013858226127922535,0.13182011246681213,0.03092593140900135,-0.032603632658720016,0.19214047491550446,-0.22224387526512146,0.2739185690879822,-0.17746444046497345,0.2870289385318756,0.1261262744665146,0.10463085770606995,0.06931133568286896,-0.21853287518024445,0.03564666956663132,0.012361358851194382,-0.1222880408167839,-0.1201438158750534,0.29699593782424927,0.04111753776669502,-0.026808390393853188,-0.16017675399780273,0.06383947283029556,0.24920719861984253,-0.05238701030611992,0.06831494718790054,-0.11360333114862442,-0.014169230125844479,0.1418657749891281,-0.18656131625175476,0.01768588274717331,-0.010174608789384365,-0.06531356275081635,-0.21716316044330597,-0.06521522998809814,-0.08252651244401932,-0.02230258472263813,-0.1207241341471672,-0.05206431448459625,-0.3150099813938141,-0.26438087224960327,0.02994125336408615,0.029356131330132484,0.20842064917087555,0.049451153725385666,0.09576188027858734,0.08279185742139816,-0.1965358853340149,-0.09880299121141434,-0.0772542878985405,0.16219739615917206,-0.03715015575289726,-0.09082618355751038,-0.057051029056310654,0.14508675038814545,-0.0938112810254097,0.10341322422027588,0.07749433070421219,-0.09112737327814102,0.0498567633330822,0.02027876302599907,-0.2843495011329651,0.09811177104711533,0.11265750229358673,0.0722825676202774,-0.17105542123317719,-0.05216771736741066,-0.030079199001193047,-0.06642934679985046,0.024003786966204643,-0.23655006289482117,0.027366500347852707,-0.05989031121134758,0.12350333482027054,-0.17164775729179382,-0.027980679646134377,-0.14335373044013977,0.036704789847135544,-0.06288772076368332,0.30034139752388,-0.0899127945303917,-0.028272289782762527,-0.2567610442638397,-0.05409484729170799,-0.1654307246208191,-0.34749168157577515,-0.029616400599479675,0.16799597442150116,-0.023250151425600052,-0.022004537284374237,0.14447805285453796,-0.03614063933491707,0.09917236119508743,-0.0769161507487297,0.16359806060791016,-0.04211697727441788,-0.04455570876598358,0.09431105107069016,-0.12565217912197113,0.013439483009278774,-0.40594199299812317,-0.08912967890501022,-0.009386463090777397,-0.11003147810697556,0.12085366994142532,0.07618146389722824,0.08029575645923615,0.018323397263884544,0.10524040460586548,0.06256377696990967,0.08623608201742172,-0.02287023328244686,0.2618859112262726,0.01795460470020771,-0.07616064697504044,-0.07501957565546036,0.07586492598056793,0.02983693964779377,-0.18336066603660583,0.15739327669143677,0.01683013327419758,0.2767668068408966,-0.026136456057429314,-0.17651280760765076,-0.0183536596596241,-0.05057152360677719,0.017211902886629105,0.03220255300402641,0.09291989356279373,-0.1068611815571785,-0.049890633672475815,-0.03141425549983978,0.15787069499492645,-0.12282785028219223,0.00609353743493557,0.0491701140999794,-0.03552071005105972,0.010818344540894032,0.2176802158355713,-0.21611003577709198,-0.04847821965813637,0.08245397359132767,0.09436353296041489,0.1677674800157547,0.06010830029845238,-0.1683955043554306,0.15294249355793,-0.006707627791911364,-0.12679462134838104,0.14862734079360962,0.2083810567855835,0.163811594247818,0.05979767441749573,-0.08429720252752304,0.06621411442756653,0.005150307435542345,-0.04294634237885475,-0.3129456639289856,-0.08278624713420868,-0.14988745748996735,0.02532419003546238,-0.06864233314990997,0.16900451481342316,-0.27907228469848633,-0.12345520406961441,-0.2050827145576477,-0.036302149295806885,0.17337189614772797,0.1839808076620102,0.023140715435147285,-0.12095913290977478,-0.09458574652671814,0.11719361692667007,0.10607177019119263,-0.18914006650447845,-0.054405808448791504,0.11308369785547256,0.17694245278835297,-0.0018847491592168808,0.013753381557762623,0.050726842135190964,-0.0983249768614769,-0.09731876850128174,-0.046267058700323105,-0.3955458104610443,0.05208517983555794,0.23785071074962616,-0.17610080540180206,0.11137717962265015,-0.03141392394900322,0.1570964753627777,-0.01612607203423977,-0.025079600512981415,-0.1568295657634735,0.10445893555879593,-0.028635665774345398,-0.1996079534292221,-0.0044241915456950665,-0.09890148043632507,-0.07780550420284271,-0.05388931557536125,0.04003565385937691,-0.06830461323261261,0.05202518031001091,0.04115479439496994,-0.39331334829330444,0.035366661846637726,-0.04029550775885582,-0.03923753276467323,0.13194416463375092,0.0004354745615273714,-0.2934292256832123,0.036703843623399734,0.024559425190091133,-0.13804370164871216,0.05694859102368355,0.06025613844394684,0.020336538553237915,0.08746732026338577,-0.12278854101896286,0.09993743151426315,-0.012936380691826344,-0.03092363476753235,0.2365065962076187,-0.03300010785460472,0.2059715837240219,-0.03495517373085022,-0.08621696382761002,-0.10923153907060623,-0.30310001969337463,-0.02608892135322094,-0.0880686417222023,-0.1268034428358078,-0.13654285669326782,0.06074737757444382,-0.0705871507525444,-0.05790653079748154,0.1565479189157486,0.04581811651587486,0.1297892928123474,0.030335094779729843,0.15373170375823975,-0.2215423882007599,-0.15305708348751068,0.07706183195114136,-0.18085741996765137,-0.0760902613401413,-0.10548434406518936,-0.1929052472114563,0.12904368340969086,-0.03718651458621025,-0.12169016152620316,-0.05999472737312317,0.3442002832889557,0.025394588708877563,0.010517220944166183,0.05034736916422844,-0.06438961625099182,0.3250120282173157,0.19415701925754547,-0.026720378547906876,-0.047684915363788605,0.2042751908302307,0.08509256690740585,-0.1976645588874817,-0.03075423650443554,-0.06696178019046783,0.12869134545326233,0.0008911477052606642,-0.1948387324810028,0.04638926684856415,-0.0791158452630043,-0.04150901734828949,-0.1540181189775467,0.07967700809240341,-0.023503059521317482,0.055044688284397125,0.16255494952201843,0.043398622423410416,0.07663790136575699,0.05147845298051834,-0.19086600840091705,0.09579289704561234,-0.08306001871824265,-0.2237003594636917,-0.11323074251413345,0.10122574865818024,-0.21328885853290558,0.031429585069417953,0.2718214988708496,-0.13802380859851837,0.24226199090480804,-0.014034529216587543,-0.12230632454156876,0.19718420505523682,-0.08833478391170502,-0.03953903540968895,-0.11240116506814957,-0.11141586303710938,0.06442505866289139,0.02193893864750862,0.16464972496032715,0.022255582734942436,-0.03385140001773834,0.09429098665714264,-0.11609303206205368,-0.1232413724064827,0.002307061105966568,-0.04154479131102562,0.11789184808731079,-0.004480499308556318,0.08460504561662674,0.1279400736093521,0.2598561942577362,-0.0018634890438988805,0.19504320621490479,0.06751872599124908,-0.06675900518894196,0.09154888987541199,-0.039572179317474365,-0.14854487776756287,-0.03449099883437157,0.186369851231575,-0.12008407711982727,-0.26904788613319397,-0.11300071328878403,