{"version":"0.5.4","metadata":{"date":{"year":2025,"month":11,"day":7,"hour":18,"minute":36,"second":12},"loudness":-11.132761001586914,"gain":0,"name":"Ampeg SVT-6 Pro","modeled_by":"tizzy","gear_type":"amp","gear_make":"tz-make","gear_model":"tz-model","tone_type":"overdrive","input_level_dbu":null,"output_level_dbu":null,"training":{"settings":{"ignore_checks":false},"data":{"latency":{"manual":null,"calibration":{"algorithm_version":1,"delays":[-1],"safety_factor":1,"recommended":-2,"warnings":{"matches_lookahead":false,"disagreement_too_high":false}}},"checks":{"version":3,"passed":true}},"validation_esr":0.0002852922540122579}},"architecture":"WaveNet","config":{"layers":[{"input_size":1,"condition_size":1,"head_size":8,"channels":16,"kernel_size":3,"dilations":[1,2,4,8,16,32,64,128,256,512],"activation":"Tanh","gated":false,"head_bias":false},{"input_size":16,"condition_size":1,"head_size":1,"channels":8,"kernel_size":3,"dilations":[1,2,4,8,16,32,64,128,256,512],"activation":"Tanh","gated":false,"head_bias":true}],"head":null,"head_scale":0.02},"weights":[-0.06992709636688232,0.16819152235984802,-0.7270878553390503,-0.6660976409912109,-0.1311969757080078,0.04783637821674347,0.021596204489469528,0.7538127899169922,0.039910610765218735,0.16343191266059875,0.08707041293382645,-0.06774555146694183,-0.9240180253982544,-0.6563886404037476,-0.4206141233444214,0.006209894083440304,0.1700068563222885,0.10949083417654037,-0.23992109298706055,0.06165068969130516,0.013282348401844501,-0.027528073638677597,-0.15147991478443146,0.15500448644161224,0.12355336546897888,-0.10690286010503769,0.17657209932804108,0.012330186553299427,-0.20905806124210358,0.0005632764077745378,0.08193627744913101,0.24726462364196777,-0.12508761882781982,-0.20139095187187195,-0.20292694866657257,-0.1681707352399826,0.1205553486943245,0.24623191356658936,0.017059912905097008,-0.07742439955472946,-0.07264193892478943,-0.05768456682562828,0.1776537001132965,-0.016664450988173485,-0.1448766589164734,-0.2113863229751587,-0.0756613165140152,0.0113328006118536,0.0016133766621351242,-0.134249746799469,0.12790758907794952,0.30047374963760376,-0.06650806218385696,0.06542554497718811,0.24262109398841858,-0.20655201375484467,0.07566554844379425,0.03800682723522186,-0.21635623276233673,-0.02076791040599346,0.2192315012216568,0.04041590914130211,-0.10990853607654572,-0.018981752917170525,-0.14466889202594757,-0.008195851929485798,0.0459371879696846,-0.08122976124286652,0.1237882748246193,0.23593446612358093,-0.0006118820747360587,-0.085524782538414,-0.018500523641705513,0.2305263876914978,0.09456441551446915,0.05291074886918068,0.14865662157535553,-0.13961200416088104,-0.05334272235631943,-0.20411017537117004,-0.1087556704878807,0.2032623440027237,0.23392553627490997,-0.2506236732006073,-0.2581344544887543,-0.13492505252361298,0.00961870513856411,0.010085551999509335,0.18320885300636292,-0.17431028187274933,-0.0445813350379467,-0.05240161716938019,0.11028076708316803,0.10379859805107117,0.051490895450115204,-0.14522087574005127,-0.0016887214733287692,0.1565176099538803,-0.13445240259170532,-0.19573839008808136,0.24793173372745514,0.06500199437141418,-0.13763433694839478,0.07506296783685684,-0.17133116722106934,-0.07992161810398102,0.00028111928259022534,-0.1458287090063095,-0.08487052470445633,-0.08326062560081482,-0.15911541879177094,0.12236987054347992,-0.2133144736289978,0.13364973664283752,-0.055399104952812195,-0.18431591987609863,0.02979941852390766,-0.09551265090703964,0.08739627152681351,-0.031441230326890945,0.17830367386341095,0.07629229873418808,-0.1354386955499649,0.19173277914524078,-0.06542062014341354,-0.13602784276008606,0.08806002885103226,-0.14176292717456818,0.0034025749191641808,-0.24207590520381927,0.04871383309364319,0.011943845078349113,-0.08914139866828918,-0.07388675957918167,0.16956505179405212,-0.1367770880460739,0.10108927637338638,-0.02465788647532463,0.1578793078660965,0.010346298106014729,0.18144173920154572,-0.047026365995407104,0.2011742740869522,-0.05218099057674408,-0.055052272975444794,0.009571066126227379,0.047278888523578644,0.09629835188388824,-0.006363119464367628,-0.17795416712760925,-0.014249787665903568,-0.05367489159107208,-0.09432530403137207,0.20236265659332275,0.15138888359069824,-0.19818827509880066,0.21920384466648102,-0.12964479625225067,-0.06694100797176361,-0.14979201555252075,-0.05439146235585213,-0.013275610283017159,-0.003179271472617984,-0.1092304214835167,0.024939464405179024,0.0770999863743782,-0.07721742242574692,-0.0029200145509094,-0.20174884796142578,-0.021535677835345268,0.06877967715263367,-0.13250932097434998,0.11576142907142639,-0.0018443419830873609,-0.2085670679807663,0.09921432286500931,0.034605707973241806,0.015353299677371979,0.085543192923069,-0.1422327607870102,-0.17206750810146332,-0.01842580735683441,0.16091012954711914,0.11237680166959763,0.0872156023979187,0.022834382951259613,-0.1273183971643448,-0.01917966827750206,-0.06013981252908707,0.1570471078157425,0.16505557298660278,0.11300981789827347,-0.15331070125102997,-0.02121589332818985,-0.14824678003787994,-0.17262046039104462,-0.09495764970779419,-0.007415509782731533,-0.15679766237735748,-0.016250550746917725,-0.05283606797456741,0.0192406065762043,-0.12317343801259995,-0.15969690680503845,-0.1581132709980011,0.014731685630977154,-0.13905668258666992,0.1317247748374939,0.2582915425300598,-0.016016120091080666,-0.021756982430815697,0.0726676657795906,-0.07849744707345963,-0.08427711576223373,-0.10460387915372849,0.11779562383890152,-0.09077290445566177,-0.18103788793087006,0.21565908193588257,-0.09571781754493713,-0.12288947403430939,0.21993429958820343,0.0662248358130455,0.11614397168159485,-0.20842723548412323,0.053830284625291824,-0.188152015209198,0.05847121402621269,0.26209479570388794,0.0826013907790184,-0.0985625833272934,0.09692925959825516,-0.11108618974685669,0.1947215050458908,0.11077524721622467,0.032105058431625366,-0.006500563584268093,-0.09678098559379578,-0.21706722676753998,0.08683010935783386,0.07287761569023132,-0.006430193781852722,0.03202890232205391,0.07612419873476028,-0.030047884210944176,-0.039610907435417175,0.1259496510028839,-0.22409836947917938,0.10241224616765976,-0.0011133711086586118,-0.1821226328611374,0.1159290298819542,0.13818912208080292,-0.06013915315270424,-0.06172238662838936,-0.04305178299546242,-0.07471394538879395,0.04382951930165291,-0.23093411326408386,-0.059542056173086166,-0.14074453711509705,-0.05810776725411415,0.03326389938592911,0.17544251680374146,0.172818124294281,-0.09207990765571594,0.025392377749085426,0.16527868807315826,0.06833994388580322,0.0898917019367218,0.05331258848309517,-0.019923703745007515,-0.1940723955631256,-0.09994830936193466,-0.06210672855377197,-0.10694114863872528,0.5040600299835205,-0.051084551960229874,-0.08221778273582458,-0.07991030812263489,-0.04518790543079376,-0.04896608740091324,-0.012496186420321465,0.17322036623954773,-0.027837509289383888,0.006135947071015835,-0.11266664415597916,0.06419668346643448,0.042438022792339325,-0.029821224510669708,-0.034118834882974625,0.2326745241880417,0.002198341768234968,0.06212308630347252,0.08749477565288544,-0.1313800811767578,0.16612984240055084,0.015283158048987389,0.01599702797830105,0.016577279195189476,0.05013873055577278,0.002347612753510475,-0.05745989456772804,-0.09001610428094864,-0.05559564754366875,-0.1034974530339241,-0.11482878774404526,0.009826232679188251,0.020718973129987717,-0.1474200040102005,-0.07411234825849533,0.01966487243771553,0.19112510979175568,-0.006788104772567749,0.09744083881378174,0.23984630405902863,-0.02924156002700329,0.04271868243813515,0.19790548086166382,-0.046773891896009445,-0.03575143218040466,-0.13241387903690338,-0.05627656355500221,-0.020081304013729095,0.14821618795394897,0.0854816734790802,0.042600709944963455,-0.12233754247426987,0.14632509648799896,-0.0021928874775767326,0.029262525960803032,-0.18056727945804596,0.08770722895860672,-0.06491337716579437,-0.03993775323033333,0.07593540102243423,0.20201320946216583,0.20569150149822235,0.17164508998394012,0.23999851942062378,0.011664802208542824,-0.008500290103256702,0.26015812158584595,0.12626692652702332,-0.044870525598526,0.2714131474494934,0.11348941922187805,0.1217387244105339,0.05052073299884796,0.07437490671873093,0.017007995396852493,0.09667236357927322,0.21407434344291687,-0.029385391622781754,0.07127409428358078,0.1774008870124817,-0.14569340646266937,0.12297657877206802,-0.21749287843704224,0.13320742547512054,-0.18009595572948456,-0.2605235278606415,-0.014957108534872532,0.03145891800522804,-0.04309716075658798,0.2185446321964264,0.03269284963607788,-0.008719505742192268,-0.1930573433637619,0.054364901036024094,-0.18931959569454193,0.2742157578468323,0.14204972982406616,0.046608611941337585,-0.24053652584552765,0.0006769578903913498,-0.025348618626594543,0.2231864035129547,0.05314083769917488,0.24301283061504364,0.05077086389064789,0.06588957458734512,-0.11982446908950806,0.199772447347641,0.003409727942198515,0.027751849964261055,0.15575799345970154,0.05859720706939697,-0.1688009351491928,0.16953019797801971,-0.06721840053796768,-0.1529814749956131,0.020287716761231422,-0.1628899723291397,-0.22876960039138794,0.19597142934799194,0.017264598980545998,-0.16453221440315247,-0.20279084146022797,-0.02413289062678814,0.12312360107898712,0.06801311671733856,-0.17792785167694092,0.16805949807167053,0.17810232937335968,-0.16828544437885284,0.10581495612859726,-0.009768552146852016,0.02072540484368801,0.0495331846177578,-0.20094174146652222,0.0520126074552536,0.09718949347734451,-0.10115216672420502,-0.02744247578084469,-0.0189985278993845,0.07195328176021576,-0.10071845352649689,-0.05263226851820946,0.05786138400435448,0.011308512650430202,-0.05662253499031067,0.12734603881835938,-0.0043203760869801044,0.055475711822509766,-0.18124347925186157,0.07519567012786865,-0.08922707289457321,0.04072687402367592,-0.033862292766571045,-0.16989657282829285,-0.04028961807489395,0.15829232335090637,-0.015899833291769028,-0.2047988772392273,0.005524546839296818,-0.002267611213028431,-0.23134121298789978,0.14384421706199646,-0.16225643455982208,-0.25755321979522705,-0.06521297246217728,-0.05439138412475586,-0.01526134368032217,-0.05514456331729889,0.19985590875148773,0.01521987747400999,0.07402048259973526,0.07073785364627838,-0.32446011900901794,0.27634456753730774,0.042676448822021484,0.007078939117491245,0.10659592598676682,-0.06345017999410629,0.25222712755203247,-0.04920673370361328,0.09880299121141434,0.017046550288796425,-0.09957848489284515,-0.12258646637201309,0.06604117900133133,-0.02852194756269455,-0.13754910230636597,-0.08623699843883514,0.1363249570131302,0.08728358894586563,0.18693126738071442,0.0032630586065351963,-0.07717370241880417,-0.07004495710134506,0.19936594367027283,0.06839628517627716,0.14756542444229126,-0.07111301273107529,-0.15157270431518555,-0.23639509081840515,0.14177200198173523,-0.07531820982694626,0.2724562883377075,-0.18823234736919403,-0.04217590391635895,0.009567097760736942,0.06489317119121552,0.01837310381233692,0.24469301104545593,0.03257419168949127,0.11130081117153168,0.1371343433856964,-0.1031763106584549,-0.0053915707394480705,0.14448444545269012,0.006622703745961189,-0.07872846722602844,0.07767478376626968,0.05972538888454437,-0.08903563022613525,-0.22428420186042786,0.35225099325180054,0.09375495463609695,-0.26942571997642517,0.22662431001663208,0.10238207131624222,0.21591487526893616,-0.02911805920302868,-0.048634473234415054,0.17802684009075165,-0.09342184662818909,-0.022784071043133736,0.16889865696430206,-0.19013549387454987,0.06666267663240433,-0.16532860696315765,0.09733927249908447,0.10463761538267136,0.24073825776576996,-0.04113445803523064,-0.018770119175314903,-0.049069877713918686,0.13634470105171204,0.044684845954179764,0.0709473267197609,-0.14158764481544495,-0.11269551515579224,-0.19594648480415344,0.0913853719830513,0.17004983127117157,0.11062230169773102,-0.15039314329624176,-0.03791600838303566,0.2653796374797821,0.04497560113668442,-0.07704497873783112,0.01578211970627308,-0.2602742612361908,0.02979244850575924,0.09460529685020447,-0.24674054980278015,-0.02661633864045143,0.1514493077993393,-0.23281405866146088,0.009703116491436958,-0.06540314108133316,0.029534894973039627,0.2286771684885025,0.26992252469062805,0.0013187829172238708,0.0722547173500061,-0.020955337211489677,0.0990370512008667,-0.18305356800556183,-0.1651286631822586,0.19375748932361603,-0.13880690932273865,-0.001913947518914938,0.03668800741434097,-0.07548585534095764,-0.06295982748270035,0.127862349152565,0.05437071993947029,-0.10631801933050156,-0.11623704433441162,-0.2817547917366028,-0.056188929826021194,-0.16225570440292358,0.184028759598732,-0.003941997420042753,-0.07675868272781372,0.08027201890945435,0.0639704167842865,0.18664859235286713,0.11839759349822998,-0.01634705811738968,-0.13518640398979187,-0.09848379343748093,0.08027519285678864,-0.007963115349411964,-0.22147291898727417,0.016790904104709625,0.16394837200641632,-0.08935130387544632,-0.14767375588417053,-0.07991574704647064,-0.012387187220156193,-0.03881128504872322,-0.02053667977452278,-0.013356345705688,0.03127112239599228,0.1711297333240509,0.1679408848285675,0.018721118569374084,0.009965452365577221,-0.32464104890823364,0.1306372433900833,0.12249431014060974,-0.06599051505327225,-0.14474062621593475,0.2161092609167099,0.2559013366699219,0.1463785320520401,-0.20771856606006622,0.06497903913259506,-0.08334961533546448,0.051009587943553925,0.05558750778436661,-0.045460522174835205,0.0014971616910770535,-0.1894513964653015,-0.09330844134092331,0.05715009197592735,0.12193042784929276,-0.15833531320095062,-0.018838047981262207,-0.18463286757469177,0.03414035215973854,0.2108287811279297,0.1834588348865509,-0.0070496816188097,0.0033692156430333853,-0.0956551730632782,-0.08752173185348511,0.2083001434803009,0.23105929791927338,-0.0926121398806572,-0.08797864615917206,0.03879305720329285,0.1507004350423813,-0.09975657612085342,-0.009574932046234608,0.008987250737845898,0.006170537788420916,0.15786023437976837,0.061070505529642105,-0.07436128705739975,0.1683482676744461,-0.02370925433933735,-0.14899538457393646,-0.15596908330917358,-0.13122886419296265,0.023408744484186172,-0.10746907442808151,0.031009631231427193,0.17576360702514648,-0.04199269041419029,-0.13340942561626434,0.24640697240829468,-0.0351715050637722,0.15136916935443878,-0.2332492470741272,0.013421643525362015,0.11026669293642044,-0.17904473841190338,0.16245336830615997,-0.07386366277933121,-0.2415977418422699,-0.11028937250375748,-0.005788710433989763,0.2501319348812103,-0.005311942659318447,0.09973052144050598,-0.10265901684761047,-0.08030668646097183,0.073317751288414,0.0067499540746212006,0.035764917731285095,0.13044998049736023,-0.12470880150794983,0.07565590739250183,-0.06407622992992401,0.24472573399543762,-0.07396051287651062,0.02286531589925289,-0.06841586530208588,0.08870082348585129,0.08820861577987671,-0.007034070324152708,0.028845788910984993,0.028571439906954765,-0.018316270783543587,0.008680484257638454,0.15816043317317963,-0.2165318876504898,0.025832651183009148,0.017187971621751785,-0.06202477589249611,-0.022877052426338196,-0.14511987566947937,-0.1862907111644745,0.12333332002162933,0.06278367340564728,-0.03423421457409859,0.019937554374337196,0.12500379979610443,0.09326665848493576,-0.09400546550750732,-0.15720094740390778,0.14359185099601746,-0.21360789239406586,0.010784096084535122,0.06368117034435272,-0.16969957947731018,0.02451889030635357,-0.0859995186328888,0.1372154802083969,-0.06280015408992767,-0.058023206889629364,-0.06845351308584213,0.026563744992017746,0.04463513195514679,0.1994912177324295,0.004066667053848505,-0.11068578064441681,-0.18314968049526215,-0.14669975638389587,0.2141473889350891,0.06267892569303513,0.025377070531249046,-0.00678755808621645,-0.012184666469693184,0.05302872508764267,0.13111336529254913,-0.21143324673175812,-0.055091433227062225,-0.023688049986958504,-0.19081522524356842,0.010577540844678879,0.17626455426216125,-0.2214551866054535,0.06615279614925385,-0.030518045648932457,-0.12823162972927094,0.09923627227544785,0.0165574848651886,0.011930402368307114,-0.07762118428945541,0.08649810403585434,0.02671186625957489,-0.19196386635303497,0.14203648269176483,-0.10634206235408783,-0.198276087641716,0.009522631764411926,0.11003226041793823,0.03759725019335747,0.04578440636396408,0.11879261583089828,0.17549759149551392,-0.09797640144824982,-0.02972378395497799,0.02274683304131031,-0.139762282371521,0.009640836156904697,0.0343838669359684,0.14434923231601715,0.05690562725067139,0.15540704131126404,0.0369650162756443,0.11253710091114044,-0.13992810249328613,-0.07866154611110687,0.0005207867361605167,0.15519876778125763,-0.2162894755601883,0.15555313229560852,-0.007049993146210909,-0.06326283514499664,-0.016883423551917076,0.23664645850658417,-0.1618359535932541,-0.04548792541027069,0.11927424371242523,-0.106972336769104,0.07613275200128555,0.1554623395204544,0.0681692361831665,-0.09676771610975266,0.22228646278381348,-0.10858932882547379,0.1337261199951172,-0.06684674322605133,-0.1577569842338562,0.10138500481843948,0.02078256383538246,0.048359643667936325,-0.1282871514558792,-0.1329858899116516,0.006967518944293261,-0.09780862927436829,0.0013112507294863462,0.02105613984167576,-0.01546427235007286,-0.06875934451818466,0.14672188460826874,0.17797976732254028,-0.09478753060102463,-0.04039120674133301,0.002729317406192422,-0.013015057891607285,0.04648363217711449,-0.029094157740473747,0.3027782440185547,-0.3516838848590851,0.683242678642273,-0.6339467167854309,-0.022803394123911858,0.778695285320282,0.8551061749458313,-0.4981924295425415,0.11297932267189026,0.16775549948215485,-0.3242497742176056,-0.3946931064128876,0.3519592583179474,-0.5850587487220764,0.13028666377067566,0.44710350036621094,-0.09083344787359238,0.19327053427696228,0.11815965175628662,0.08748649060726166,0.18600639700889587,0.17268340289592743,0.09660432487726212,-0.135700985789299,-0.0022182627581059933,-0.021364888176321983,0.01942252926528454,-0.34336042404174805,0.23971302807331085,-0.050493597984313965,0.06534729897975922,0.11678683757781982,-0.0199732668697834,-0.1364445686340332,-0.3381931781768799,0.04968218132853508,0.11852802336215973,-0.03627555072307587,-0.10719799250364304,0.1191546693444252,-0.1406673789024353,0.2880547046661377,0.07255476713180542,0.05737980455160141,0.10003682971000671,0.01663077436387539,0.10022370517253876,0.30856332182884216,0.059796471148729324,0.1926269233226776,0.08426762372255325,0.1596393883228302,-0.19725744426250458,-0.07788175344467163,0.007355258334428072,-0.24684032797813416,0.01266178023070097,-0.15994209051132202,0.26649466156959534,-0.29813602566719055,0.15779273211956024,0.1742449402809143,0.07277195155620575,0.08119174093008041,0.3067879378795624,-0.21644632518291473,-0.007798639591783285,-0.3246145248413086,0.0841049775481224,-0.007838897407054901,0.06399039924144745,0.11162561178207397,-0.13021212816238403,0.07768918573856354,-0.038564231246709824,0.15124253928661346,0.06154893338680267,0.1316709965467453,0.05634678155183792,-0.17465855181217194,-0.08679291605949402,-0.25676867365837097,-0.23278988897800446,0.01090246345847845,0.19535493850708008,0.06778204441070557,0.21731306612491608,-0.037667810916900635,0.11926165223121643,0.04919641092419624,-0.2748391330242157,0.23271676898002625,-0.16589897871017456,0.14138208329677582,0.013448036275804043,-0.1951882690191269,-0.21614818274974823,-0.10504884272813797,0.032680146396160126,0.10220258682966232,0.2779207229614258,0.1873359978199005,0.08560475707054138,0.13993953168392181,0.1345801055431366,-0.027492566034197807,-0.24212145805358887,0.020283499732613564,-0.1076640859246254,-0.07313807308673859,0.10537564754486084,0.038224197924137115,-0.1324537694454193,0.2288699746131897,0.19889308512210846,0.12792207300662994,-0.20306551456451416,-0.37495172023773193,-0.08610761165618896,0.02440948784351349,0.10103868693113327,-0.36082643270492554,-0.2509816288948059,0.23117220401763916,0.18492601811885834,-0.11894866824150085,-0.05755286291241646,-0.31687870621681213,0.13648712635040283,0.10292410105466843,0.19394110143184662,-0.20906957983970642,-0.16931161284446716,0.11347319930791855,0.23672419786453247,0.07245880365371704,0.11079917103052139,-0.17396609485149384,0.1153077706694603,-0.24422112107276917,0.08704131096601486,-0.07240118086338043,-0.15722158551216125,0.03996884450316429,-0.086810402572155,0.0267518050968647,-0.20478935539722443,-0.30705928802490234,0.03200612962245941,-0.01984184980392456,-0.008833786472678185,-0.13838157057762146,-0.20375292003154755,-0.2012237310409546,0.12315499782562256,0.01676490344107151,0.05631939694285393,-0.14233669638633728,0.08425833284854889,0.017288794741034508,-0.18139730393886566,-0.009798815473914146,0.3530544936656952,-0.23575592041015625,-0.2156112790107727,0.18953368067741394,-0.00726938946172595,-0.37667277455329895,0.17963217198848724,0.1453874260187149,-0.009318300522863865,-0.04228520393371582,0.2697103023529053,0.0406007394194603,-0.1843695044517517,0.0437471866607666,0.1819206178188324,0.27380087971687317,-0.16065172851085663,0.0687456727027893,0.03466974198818207,-0.061697881668806076,0.13087564706802368,-0.13979634642601013,0.08177398890256882,-0.17013420164585114,-0.21460014581680298,-0.09511863440275192,-0.08890432119369507,0.042850740253925323,0.08917348831892014,0.2244798243045807,-0.10429628938436508,-0.006352120544761419,0.2521458864212036,-0.09423524141311646,-0.014302290976047516,-0.20864003896713257,0.019660023972392082,-0.14271879196166992,0.12460021674633026,-0.2908831834793091,-0.1349901407957077,-0.104880191385746,-0.11645244061946869,0.08791130036115646,-0.2170284390449524,-0.3772495985031128,-0.010705308057367802,0.03228546306490898,0.10087977349758148,0.014537018723785877,0.03664575517177582,-0.1573074758052826,-0.008766571059823036,0.1654377579689026,0.24982714653015137,-0.06212203577160835,-0.0837978795170784,0.11431984603404999,0.10396793484687805,-0.22286079823970795,-0.08437282592058182,0.11898216605186462,0.004275564569979906,-0.1632900834083557,-0.12084999680519104,0.07910210639238358,-0.1952919363975525,0.19341973960399628,0.12527236342430115,0.057954128831624985,-0.021530698984861374,-0.11155091971158981,0.08031219989061356,0.036479637026786804,-0.1876361221075058,-0.09745030105113983,-0.19266770780086517,0.19401153922080994,-0.19938968122005463,0.35077691078186035,-0.08616940677165985,-0.13312512636184692,-0.0787963718175888,0.09099802374839783,0.07594024389982224,-0.03176797181367874,-0.2954255938529968,0.25569725036621094,0.10964135080575943,-0.26401305198669434,0.2813040018081665,0.18155068159103394,-0.287259966135025,0.16798995435237885,0.2709988057613373,-0.1273026168346405,0.1788996011018753,-0.10778342187404633,0.16602124273777008,0.14605772495269775,0.055056288838386536,0.37695780396461487,-0.058351121842861176,-0.26913684606552124,-0.10926509648561478,0.14072799682617188,-0.152018740773201,0.1063341274857521,0.17896036803722382,-0.2408628612756729,0.08356469124555588,-0.036274220794439316,0.1572999209165573,-0.10721785575151443,-0.1112360805273056,-0.07973252981901169,0.08883896470069885,-0.01740080863237381,0.09857375919818878,-0.12819094955921173,0.06005903333425522,0.01206063013523817,-0.0017993721412494779,0.11722032725811005,0.10744448751211166,-0.008768879808485508,-0.01685038022696972,-0.0020978969987481833,0.054726798087358475,0.1946381777524948,-0.21270400285720825,0.19129280745983124,-0.09327813237905502,-0.09551145881414413,0.06395092606544495,-0.14980611205101013,-0.16918545961380005,-0.03270644322037697,-0.019110193476080894,-0.17597399652004242,-0.08965020626783371,0.06759361922740936,0.010829513892531395,0.07100550830364227,-0.21791282296180725,0.1573273092508316,-0.09200707823038101,0.06095220521092415,0.09667079150676727,-0.12521618604660034,-0.038589950650930405,-0.020468449220061302,-0.14153943955898285,-0.05204717814922333,0.22503040730953217,-0.026216454803943634,-0.11363687366247177,-0.05054203420877457,-0.04312882944941521,-0.23388062417507172,0.2538674771785736,-0.025910047814249992,-0.2391655445098877,-0.09050299227237701,-0.0522567443549633,-0.09024415910243988,-0.03700333461165428,-0.07009125500917435,-0.07480135560035706,-0.057099778205156326,0.08247607201337814,0.032751914113759995,-0.05656253546476364,-0.18347565829753876,0.24321091175079346,0.22184424102306366,-0.19496917724609375,0.09283216297626495,0.23279869556427002,0.41606593132019043,0.048815201967954636,-0.10604431480169296,0.07215885818004608,-0.17693589627742767,-0.09482027590274811,0.14541147649288177,0.018122509121894836,-0.5799791216850281,0.5164603590965271,-0.1629227101802826,-0.03738625347614288,0.001388979610055685,0.07538355886936188,-0.5647236704826355,-0.3598630130290985,0.19172696769237518,0.18112745881080627,-0.14580051600933075,-0.14186972379684448,-0.16407319903373718,0.07295072078704834,0.2666156589984894,0.39787858724594116,-0.5990111231803894,-0.028066739439964294,-0.06855689734220505,-0.34781622886657715,-0.27189192175865173,-0.7194741368293762,-0.26176851987838745,-0.17935781180858612,-0.3570614159107208,0.14148148894309998,-0.019580112770199776,-0.10152279585599899,0.20309902727603912,0.11456647515296936,-0.03801204636693001,0.0012123235501348972,-0.0894353836774826,0.09284183382987976,0.0994146540760994,-0.09806499630212784,-0.19898894429206848,-0.10645581781864166,0.06327533721923828,0.2083239108324051,-0.0853041484951973,-0.031738098710775375,0.1235307902097702,0.04050327092409134,0.16654908657073975,0.2044692188501358,0.015583404339849949,0.04213888943195343,0.11118601262569427,0.1884046494960785,0.07107383012771606,-0.03955283388495445,0.08538748323917389,0.1877932846546173,-0.30216342210769653,-0.15466611087322235,-0.017181584611535072,-0.23370632529258728,0.12476519495248795,-0.08308389782905579,-0.07404208183288574,-0.011651018634438515,-0.026632685214281082,-0.03252192214131355,-0.13707832992076874,-0.162356898188591,-0.02552301622927189,0.13026560842990875,0.1614309698343277,-0.2675726115703583,-0.06801651418209076,0.13196448981761932,0.07966642826795578,-0.062129393219947815,-0.06503713130950928,0.02763517200946808,0.04036106914281845,-0.17573699355125427,0.19381223618984222,0.08760291337966919,0.010251653380692005,0.15374962985515594,0.1807064265012741,-0.08674886077642441,-0.1585443913936615,-0.03156127780675888,-0.23316194117069244,0.20491912961006165,0.05052212253212929,0.1558685302734375,-0.08384237438440323,-0.293442964553833,0.1360786259174347,0.17458902299404144,-0.16019289195537567,-0.020478438585996628,-0.1225065141916275,-0.08861325681209564,-0.0965103805065155,0.03567395731806755,0.058803968131542206,0.1279873102903366,-0.13012652099132538,0.0446336455643177,-0.2042267620563507,-0.020354321226477623,0.15255334973335266,0.11321430653333664,-0.07619494199752808,-0.03906866908073425,0.040999189019203186,-0.3250778019428253,0.045501645654439926,0.14839287102222443,-0.18108540773391724,-0.0816902369260788,0.21091735363006592,-0.28867918252944946,0.10031186044216156,0.2600038945674896,0.18043453991413116,-0.1766166239976883,0.1532704085111618,-0.041658855974674225,-0.2636813223361969,-0.039011240005493164,0.042342573404312134,-0.011467202566564083,0.06726500391960144,0.05362953618168831,0.24956797063350677,-0.10319864749908447,0.13035838305950165,0.09099770337343216,-0.044015444815158844,0.13756008446216583,-0.03314408287405968,-0.1577553153038025,0.0986805334687233,0.05135713517665863,-0.20364156365394592,0.034814510494470596,0.11945715546607971,-0.03631829097867012,-0.09362137317657471,-0.0729549303650856,-0.026318244636058807,0.05012792721390724,-0.1621100753545761,0.3170861601829529,-0.17303237318992615,-0.027987832203507423,0.07905818521976471,0.09256438910961151,0.018837716430425644,0.011106079444289207,0.0628279522061348,0.0445888489484787,-0.036909617483615875,-0.018089326098561287,-0.039121609181165695,0.11977847665548325,-0.10781823843717575,0.05430613085627556,0.08158382028341293,-0.15256726741790771,0.0007039595511741936,-0.2608794569969177,-0.19722580909729004,0.16176897287368774,-0.06527204066514969,-0.04506918415427208,0.11206097900867462,-0.11844711005687714,-0.05423559248447418,-0.0023398571647703648,0.21108567714691162,-0.0497564934194088,-0.13279685378074646,-0.17939493060112,-0.017718054354190826,0.1245313212275505,-0.14057481288909912,0.08654078096151352,0.11217595636844635,-0.21950922906398773,-0.0703408345580101,0.04188375920057297,-0.04992256686091423,0.02545793540775776,0.008167159743607044,0.006170815322548151,-0.06326887011528015,-0.14643509685993195,0.24235297739505768,-0.038111526519060135,0.013845409266650677,0.20101554691791534,-0.1616128832101822,-0.11008578538894653,0.17850250005722046,-0.04165615141391754,0.1938290148973465,0.09315875172615051,0.09207343310117722,-0.01265226025134325,0.08180229365825653,0.1339465081691742,0.14872930943965912,-0.04357142001390457,-0.0015122548211365938,-0.07648254185914993,0.16591516137123108,-0.14461266994476318,-0.05614667385816574,-0.015448097139596939,0.01828838884830475,-0.019017202779650688,-0.12163229286670685,-0.14005538821220398,0.06238613650202751,-0.2362833023071289,0.11393742263317108,-0.12108603864908218,0.13610993325710297,-0.021713027730584145,0.005548679269850254,0.11616671830415726,0.03791825845837593,-0.07866938412189484,0.16598902642726898,0.18641632795333862,-0.027098892256617546,0.08491822332143784,-0.0006913592224009335,0.0242965966463089,0.2257317304611206,0.10461103171110153,-0.05351587012410164,-0.21302369236946106,0.11226079612970352,-0.00725596584379673,0.07124867290258408,0.033237118273973465,0.1944461166858673,-0.09592050313949585,-0.27986711263656616,-0.002922472544014454,-0.11765608936548233,0.015102557837963104,0.07833933085203171,0.09656615555286407,-0.06351533532142639,-0.12730929255485535,-0.011757617816329002,-0.07743895798921585,-0.03970887139439583,-0.01149729173630476,0.047337744385004044,-0.022209232673048973,-0.20991434156894684,-0.13774843513965607,-0.05594436824321747,0.19760777056217194,0.18753428757190704,0.023701051250100136,0.09534374624490738,0.162506565451622,-0.22258353233337402,-0.007877275347709656,0.0779087245464325,-0.11284046620130539,-0.19325244426727295,-0.07345399260520935,0.07281830906867981,-0.4169613718986511,-0.08824404329061508,0.24417994916439056,0.19015315175056458,-0.05040150135755539,-0.011415823362767696,-0.2922784090042114,-0.05156446248292923,0.19619713723659515,-0.09777668863534927,-0.14903953671455383,-0.04893345385789871,0.14839297533035278,-0.11865402013063431,-0.2547338604927063,0.218197762966156,-0.03229080140590668,-0.09156934916973114,-0.08037427812814713,0.05137893557548523,-0.14344851672649384,0.125235915184021,-0.011635548435151577,-0.07377178221940994,0.00008148580673150718,-0.09740143269300461,0.13678798079490662,0.052594516426324844,0.15594853460788727,0.0762849971652031,0.07003314048051834,-0.14341366291046143,0.012660117819905281,-0.1588013619184494,0.041667260229587555,-0.11254360526800156,-0.23122642934322357,-0.055299244821071625,0.03399737551808357,-0.23917050659656525,-0.07786091417074203,-0.07107110321521759,-0.06097801774740219,-0.003913079854100943,0.26812759041786194,0.07622727751731873,-0.027039173990488052,-0.15304356813430786,0.2429954558610916,0.13547351956367493,-0.1987510770559311,-0.07630076259374619,-0.2051137238740921,0.030659670010209084,0.19201722741127014,-0.011958646588027477,0.20369915664196014,0.08681083470582962,-0.09060409665107727,0.028154637664556503,0.08290032297372818,0.052519723773002625,0.14813309907913208,-0.17909272015094757,0.19199036061763763,-0.07408619672060013,-0.0351567342877388,0.23657621443271637,-0.0696767270565033,-0.11814180761575699,0.019240472465753555,-0.028970636427402496,-0.023880258202552795,-0.16151787340641022,0.17812752723693848,0.04559431970119476,0.03183415159583092,-0.39017820358276367,0.05645661801099777,-0.25975266098976135,-0.1733233779668808,-0.023430977016687393,0.24136924743652344,0.12293574213981628,-0.02900795452296734,0.07913484424352646,0.1740884929895401,-0.005152370780706406,-0.14330346882343292,-0.021600211039185524,0.07944313436746597,-0.23502159118652344,0.029522929340600967,-0.09390193223953247,0.07304754108190536,-0.11454734951257706,0.11913641542196274,0.09536772221326828,0.03574332967400551,-0.2334432601928711,0.16575099527835846,0.10698671638965607,-0.06729952991008759,0.040168482810258865,-0.08340001106262207,-0.02018560841679573,0.21730542182922363,-0.09269388020038605,0.13460953533649445,-0.01057171355932951,-0.1469089686870575,-0.07867804169654846,-0.17588388919830322,0.12943345308303833,0.21832403540611267,-0.26394227147102356,0.09965787827968597,-0.1774447113275528,-0.06863192468881607,0.26068001985549927,-0.009927905164659023,0.1658124029636383,-0.011116382665932178,-0.13291561603546143,-0.10444282740354538,0.12830837070941925,-0.015583218075335026,-0.004810660611838102,0.02605007216334343,0.23181582987308502,-0.35124343633651733,-0.10862234979867935,0.041829913854599,-0.08919147402048111,-0.2576788067817688,-0.08630158007144928,0.09975311905145645,-0.046187639236450195,-0.07125117629766464,0.020598378032445908,0.015377013012766838,-0.04937732592225075,-0.0922311320900917,-0.08179309964179993,-0.003218819387257099,0.022431477904319763,-0.013785398565232754,-0.014052635990083218,0.06616088002920151,-0.07855266332626343,0.037614792585372925,-0.10227647423744202,0.08459596335887909,-0.1554940789937973,-0.10370467603206635,-0.08942950516939163,-0.08082567900419235,0.042983487248420715,-0.26695477962493896,-0.068914495408535,0.1365843564271927,-0.0005765374517068267,-0.16597844660282135,0.2724186182022095,0.13535572588443756,-0.03119589574635029,0.16226796805858612,0.1287744641304016,-0.03229089453816414,-0.04142671450972557,0.01647176779806614,0.05550285428762436,-0.1474638283252716,0.13499365746974945,0.17646799981594086,-0.09210365265607834,-0.017654161900281906,-0.02785748429596424,0.2785254418849945,-0.017570698633790016,-0.013096509501338005,-0.04239105060696602,0.007244369480758905,0.029217012226581573,-0.1644732803106308,-0.0261516235768795,0.1823515146970749,-0.11852086335420609,-0.03481534495949745,-0.15308906137943268,-0.07410912215709686,-0.11451287567615509,0.05789417028427124,-0.043971218168735504,-0.05466542765498161,0.10907352715730667,-0.10620991140604019,0.045958537608385086,-0.13326631486415863,0.061180230230093,0.10279431939125061,0.06770316511392593,0.002527916105464101,0.01023770123720169,0.01944621279835701,0.03953038528561592,-0.2606053650379181,-0.1011100634932518,0.16631728410720825,0.03301873058080673,-0.13297098875045776,0.2204074263572693,-0.0765736922621727,0.16061817109584808,0.22976580262184143,0.0979050025343895,0.11394476145505905,-0.18992534279823303,-0.11416298151016235,-0.07560868561267853,0.25127044320106506,0.09745890647172928,0.0017647775821387768,0.14795511960983276,-0.10222841799259186,-0.2485964298248291,0.4035571217536926,-0.13745112717151642,-0.16199491918087006,-0.10756232589483261,0.028473755344748497,0.08663209527730942,-0.10089058429002762,-0.1003541648387909,0.09887447208166122,-0.12879906594753265,-0.11476311087608337,-0.1535620093345642,0.0688801184296608,0.0006048725335858762,0.008437183685600758,0.026820993050932884,-0.11916104704141617,-0.08539288491010666,0.0938665047287941,-0.04995539039373398,0.15481224656105042,0.13346301019191742,-0.13542871177196503,0.04209405556321144,0.15569710731506348,-0.0607505701482296,0.22877193987369537,0.01789025589823723,-0.09932386130094528,-0.08977490663528442,-0.2037142515182495,0.15743444859981537,0.03872138261795044,-0.2748580276966095,-0.004961341619491577,-0.17861023545265198,-0.19348935782909393,0.10979931801557541,-0.08932464569807053,0.09935378283262253,0.07037593424320221,-0.0323161706328392,-0.14392639696598053,-0.10958970338106155,0.18853659927845,0.12737159430980682,-0.06999729573726654,0.30854177474975586,-0.32899248600006104,-0.026210419833660126,0.1826755851507187,-0.018660999834537506,0.03109494224190712,0.025158269330859184,0.06820794939994812,-0.16190771758556366,0.06382335722446442,-0.015353652648627758,-0.09979892522096634,0.04425504803657532,0.09946125745773315,0.0951787531375885,-0.12453942745923996,-0.1542106568813324,0.08240517228841782,-0.010758367367088795,0.25935277342796326,0.1151343360543251,0.23838527500629425,-0.059995099902153015,-0.048215772956609726,0.04098575562238693,0.061410851776599884,-0.07986343652009964,-0.05845478177070618,-0.00806272029876709,0.003460561390966177,-0.17522478103637695,-0.0210134144872427,-0.005019892938435078,-0.022929785773158073,-0.11047385632991791,0.047573454678058624,0.015814239159226418,0.004072287119925022,0.13764280080795288,0.1573246270418167,0.03275395557284355,-0.011142290197312832,-0.1381106972694397,-0.3547225594520569,0.24035267531871796,-0.006456712260842323,-0.0778498575091362,-0.17501996457576752,0.017820363864302635,-0.25995901226997375,-0.12711134552955627,0.05822385847568512,0.014195284806191921,-0.20302380621433258,0.25700169801712036,0.21603383123874664,-0.28220126032829285,0.06403748691082001,0.025807475671172142,-0.23467959463596344,-0.12835821509361267,-0.12178853154182434,0.1576172560453415,0.08459237217903137,-0.034755807369947433,-0.23092961311340332,0.018072346225380898,0.17053428292274475,-0.03732253983616829,-0.1017831414937973,-0.07849595695734024,-0.3500942587852478,-0.16049982607364655,-0.16105501353740692,-0.18655182421207428,-0.32424208521842957,-0.05146407335996628,0.04247049242258072,0.22555840015411377,0.10546405613422394,0.28500768542289734,-0.08541090041399002,-0.018598012626171112,0.11050247400999069,0.18805848062038422,0.20410872995853424,0.25268325209617615,0.08036503195762634,-0.12284642457962036,-0.20015168190002441,0.06387694180011749,-0.16931389272212982,0.018255814909934998,-0.06842027604579926,0.07196662575006485,-0.08821651339530945,-0.05437147989869118,-0.19151213765144348,-0.190023735165596,-0.0717618390917778,-0.13537512719631195,-0.3088880777359009,-0.12290940433740616,-0.10115441679954529,-0.287362664937973,-0.21587905287742615,-0.19377580285072327,-0.5158420205116272,0.025747746229171753,0.04227481037378311,0.27510011196136475,-0.19634561240673065,0.14852659404277802,-0.12025634944438934,-0.11803111433982849,0.1338159143924713,0.11076973378658295,0.10646333545446396,0.13085155189037323,-0.0544973686337471,0.14807915687561035,0.15177038311958313,-0.18700702488422394,0.0912928655743599,-0.07024627178907394,-0.056580644100904465,-0.05082923546433449,-0.18751130998134613,0.10681816190481186,0.15510740876197815,-0.1128467321395874,-0.14009085297584534,-0.011847883462905884,-0.17861387133598328,0.03864624351263046,-0.0955798551440239,-0.033104244619607925,-0.061535097658634186,-0.20856556296348572,0.0900440663099289,0.2163848727941513,0.08724445104598999,0.1262599229812622,-0.16341935098171234,0.1873646080493927,-0.2583448886871338,0.01784415915608406,0.07398448139429092,-0.07359996438026428,-0.12932080030441284,0.11939559876918793,0.1944168657064438,-0.228121817111969,0.030636431649327278,0.015071080066263676,-0.10925605893135071,0.0995955541729927,0.10380703210830688,0.27269959449768066,0.11854412406682968,0.07300300151109695,-0.1109398752450943,0.04748609662055969,-0.06230331212282181,0.0882844626903534,0.14753878116607666,0.03506545349955559,-0.03449364751577377,-0.08479797840118408,0.07916915416717529,0.04022108018398285,0.0883142277598381,0.03739682585000992,0.169772207736969,-0.11093643307685852,-0.3609512746334076,0.15706020593643188,0.3012830913066864,-0.509871780872345,0.08739758282899857,-0.7083984613418579,-0.24128907918930054,-0.4681617319583893,0.7312060594558716,-0.7383414506912231,-0.512480616569519,-0.9282024502754211,0.2485344558954239,-0.6625702381134033,0.6291111707687378,-0.5517585873603821,-0.1380355805158615,-0.18605829775333405,0.09972436726093292,0.27639830112457275,0.2895675599575043,0.2766856253147125,-0.19296663999557495,-0.04609522596001625,0.03085755929350853,-0.05981346219778061,-0.1527530401945114,-0.13916155695915222,0.1940506100654602,0.02357795089483261,-0.12162806838750839,-0.02908984199166298,-0.0959579274058342,-0.2165067046880722,-0.02975398302078247,-0.010573792271316051,-0.3752257823944092,-0.0011075654765591025,-0.03923526406288147,-0.3695361614227295,0.21324282884597778,-0.09412168711423874,0.1762973815202713,0.31385916471481323,0.004642617888748646,0.06798165291547775,0.20794247090816498,0.20601308345794678,-0.14062882959842682,-0.2090163677930832,0.10581529140472412,0.33730873465538025,0.09518979489803314,0.3365824818611145,0.05009448155760765,-0.052703857421875,-0.0817771852016449,0.08140107244253159,-0.45734038949012756,-0.4422953426837921,0.08886349946260452,0.11827626079320908,0.24759547412395477,0.09402443468570709,0.1631203144788742,-0.10892093926668167,-0.3482939600944519,-0.27653494477272034,-0.2609201967716217,-0.3461545705795288,-0.2858988046646118,0.09780745953321457,-0.036453068256378174,-0.014442714862525463,0.32254818081855774,0.3964082598686218,-0.01041678711771965,-0.14819982647895813,0.13163332641124725,-0.04828987643122673,0.410896897315979,-0.08117521554231644,-0.29162442684173584,-0.1969599425792694,0.10574422776699066,-0.20324483513832092,-0.1361968070268631,0.49944955110549927,0.06458071619272232,-0.08549672365188599,0.15000197291374207,0.3838183879852295,-0.2964256703853607,-0.055203504860401154,-0.11288520693778992,-0.16152535378932953,-0.17079506814479828,-0.06330008804798126,-0.31621837615966797,-0.10303952544927597,0.09652599692344666,-0.1742449253797531,-0.06949935108423233,-0.11404017359018326,0.28399285674095154,0.16485804319381714,0.04092114046216011,-0.2141665667295456,-0.17452380061149597,-0.17379328608512878,0.10273805260658264,0.009147067554295063,0.07722914963960648,0.011503901332616806,0.22000610828399658,-0.1197928860783577,0.027451291680336,0.3220936954021454,-0.22890600562095642,-0.2727368175983429,0.28938260674476624,0.004335529170930386,-0.17161442339420319,0.16328954696655273,0.006024633068591356,0.020022660493850708,-0.16493898630142212,0.29431524872779846,0.11934460699558258,0.12993796169757843,0.03536941483616829,0.0983879417181015,0.18148812651634216,-0.046502433717250824,-0.015050227753818035,0.034172218292951584,-0.10898641496896744,0.2445778250694275,-0.2875661849975586,-0.11872339993715286,-0.11416322737932205,0.09649936109781265,0.1351909637451172,0.04852538928389549,-0.09128516167402267,0.17431116104125977,-0.1994096040725708,-0.14968092739582062,-0.43265876173973083,-0.7422065138816833,-0.026729602366685867,-0.22788216173648834,0.20502087473869324,-0.05551992356777191,0.4476970434188843,0.20514748990535736,-0.08638521283864975,0.1085771918296814,-0.1198386549949646,0.22918643057346344,-0.13669759035110474,-0.016020601615309715,-0.027996636927127838,0.14888344705104828,0.15813304483890533,-0.024341588839888573,0.09990347921848297,-0.16165189445018768,0.1735232174396515,0.044904712587594986,-0.0440775603055954,-0.06210596114397049,0.20591716468334198,-0.030886350199580193,0.0796787366271019,-0.09385723620653152,-0.18453684449195862,-0.0019108107080683112,0.021612364798784256,0.11027015745639801,0.11991934478282928,-0.11473323404788971,0.15398767590522766,-0.18212957680225372,0.1177792027592659,0.19927878677845,-0.5250825881958008,-0.12350533902645111,0.3377755582332611,0.02043520100414753,-0.07062359899282455,0.06923724710941315,0.11199062317609787,0.3414568305015564,-0.1684277504682541,-0.06291937828063965,-0.13100218772888184,0.16410614550113678,0.10639093071222305,0.16922825574874878,-0.13529445230960846,0.1937166005373001,0.05066196992993355,-0.2309272736310959,0.03600656986236572,-0.08204193413257599,-0.026267869397997856,-0.059178080409765244,-0.11202841252088547,-0.08361377567052841,-0.18295465409755707,0.21371710300445557,-0.015983210876584053,0.08326223492622375,-0.23198089003562927,0.15593740344047546,-0.09413939714431763,-0.053635839372873306,-0.12813884019851685,-0.0065878466702997684,0.06340343505144119,-0.2025918960571289,0.14519545435905457,0.021390404552221298,0.09629086405038834,0.07428848743438721,-0.24031375348567963,0.2514682114124298,-0.26362481713294983,-0.12382543087005615,-0.06515400856733322,-0.07363404333591461,0.22769731283187866,0.17748042941093445,0.29130783677101135,0.12653301656246185,0.08606930822134018,0.13374532759189606,0.14833422005176544,-0.11147502809762955,-0.02723710611462593,0.0009117112495005131,0.12636718153953552,0.09376345574855804,-0.26282963156700134,-0.08074399083852768,0.28061383962631226,-0.07076467573642731,-0.11597298830747604,0.17769542336463928,-0.16853803396224976,-0.048204824328422546,0.021435163915157318,0.2021992951631546,0.18299569189548492,0.22128547728061676,0.29724326729774475,-0.09560368210077286,-0.2789866328239441,-0.130859836935997,-0.1785764992237091,-0.08283568918704987,-0.3412955403327942,0.26042184233665466,0.22250893712043762,-0.32793620228767395,0.37577158212661743,0.2999274730682373,-0.4274113178253174,0.13006837666034698,-0.2175332009792328,-0.28449496626853943,-0.011733387596905231,0.03467452898621559,-0.010221189819276333,-0.03287065029144287,-0.08827702701091766,-0.05271244794130325,0.08569113910198212,0.14392703771591187,0.16021743416786194,0.0009023883612826467,0.04674934968352318,-0.15381421148777008,0.015731535851955414,-0.20977994799613953,-0.09009522199630737,-0.08338519185781479,0.11824774742126465,0.0468268021941185,-0.012448900379240513,-0.30438125133514404,0.053843315690755844,-0.10017172992229462,-0.0163110438734293,-0.11376655101776123,0.0018706169212237,-0.10809251666069031,-0.10713095963001251,-0.13698922097682953,0.1997460573911667,0.031003888696432114,-0.11733316630125046,0.19671115279197693,0.1562814563512802,-0.13622790575027466,0.26966214179992676,-0.008469313383102417,0.016177119687199593,0.10714443773031235,0.09154969453811646,-0.2312985360622406,-0.27723410725593567,0.12595106661319733,0.16386139392852783,0.1479167342185974,0.003148147137835622,-0.12265421450138092,-0.10098940134048462,0.05632017180323601,0.030908195301890373,0.05856207013130188,-0.1300775408744812,-0.09279531240463257,-0.003913662396371365,-0.19587503373622894,-0.1007443517446518,-0.24687275290489197,0.06187878176569939,-0.0007324047037400305,-0.033983297646045685,-0.00646310206502676,0.004915550351142883,0.19341491162776947,-0.06449928134679794,-0.06958408653736115,-0.012707909569144249,-0.01805344969034195,0.08142030239105225,-0.06271538138389587,0.04396775737404823,-0.03188680484890938,0.15301117300987244,0.10000453144311905,0.001382152084261179,0.030196819454431534,-0.11204327642917633,-0.015067260712385178,0.08021380007266998,-0.0349593386054039,0.13118840754032135,-0.14438585937023163,0.013717121444642544,0.03829750418663025,-0.15334106981754303,-0.2127397656440735,0.06585066765546799,-0.18991822004318237,-0.051084812730550766,0.10942627489566803,0.12214354425668716,-0.11969223618507385,-0.31497013568878174,-0.030660385265946388,0.0019384442130103707,0.1674780398607254,0.21347671747207642,-0.02084684744477272,-0.1387719213962555,-0.19795335829257965,-0.1159418448805809,0.015118846669793129,0.012958270497620106,0.104029081761837,-0.11124604940414429,0.06583093106746674,-0.0669221356511116,-0.2704644501209259,0.14868149161338806,0.1536862999200821,-0.06438037753105164,-0.004016607999801636,-0.017222460359334946,0.17162464559078217,-0.2529609501361847,-0.18984724581241608,-0.09014544636011124,0.23105286061763763,0.4279058873653412,-0.14904072880744934,0.25121450424194336,0.0643714889883995,0.43426069617271423,0.004054888151586056,0.22655825316905975,0.02766941301524639,0.10353327542543411,-0.14865542948246002,-0.09466516226530075,0.1061670333147049,0.2079756259918213,-0.11612273752689362,0.11435524374246597,-0.11550125479698181,-0.10135537385940552,-0.0246136412024498,0.10162186622619629,-0.003924974240362644,0.09049321711063385,0.09831098467111588,0.038902293890714645,0.13990172743797302,0.21122205257415771,-0.009078864008188248,-0.17017583549022675,0.04662149399518967,0.22588467597961426,0.22768989205360413,-0.13658253848552704,0.029577117413282394,0.03953429311513901,0.029320932924747467,0.5295060276985168,0.03133215010166168,0.07500859349966049,0.19801072776317596,0.14231248199939728,-0.12550541758537292,0.13966305553913116,0.030045272782444954,-0.13073350489139557,-0.23494912683963776,-0.14522303640842438,-0.10323527455329895,0.42745864391326904,-0.1813001036643982,-0.1972816437482834,-0.14456261694431305,0.16362914443016052,-0.025104058906435966,-0.20093904435634613,0.24364158511161804,0.09905721247196198,-0.265870600938797,0.13793131709098816,0.14574243128299713,-0.0732562318444252,-0.13776730000972748,-0.1504540741443634,0.06867662817239761,0.10832294821739197,0.40538737177848816,-0.17793600261211395,-0.08746305108070374,-0.10944273322820663,0.14220282435417175,0.05265842005610466,0.1331261396408081,0.02358388528227806,-0.0974673181772232,-0.1718442589044571,-0.06654882431030273,-0.08826147764921188,0.06058579310774803,0.054991092532873154,0.12795595824718475,0.059181779623031616,-0.1792849898338318,0.30384060740470886,-0.15669427812099457,-0.3861638605594635,0.20514856278896332,0.01916983537375927,0.07982034981250763,0.13064692914485931,-0.10016413778066635,0.08959268033504486,-0.02290857769548893,0.2885861396789551,0.07535791397094727,0.14540426433086395,-0.03477509319782257,-0.09859416633844376,-0.05219137668609619,-0.004018191713839769,-0.08522485196590424,-0.015599986538290977,0.1013021245598793,-0.20302030444145203,0.028075868263840675,0.06025964394211769,-0.11521007120609283,-0.05311275273561478,-0.03038623183965683,-0.06289690732955933,-0.00108096853364259,0.032234396785497665,-0.0055433339439332485,-0.37863683700561523,0.07932637631893158,0.12703196704387665,-0.05426214262843132,-0.2347559928894043,0.004484283737838268,-0.12207367271184921,-0.28433287143707275,0.06744325906038284,-0.14104633033275604,0.05451178178191185,-0.0420304611325264,-0.12570488452911377,0.09768816828727722,-0.15165911614894867,-0.25880399346351624,0.028813567012548447,0.04604008048772812,-0.01590842753648758,0.0858951061964035,-0.33528244495391846,-0.22135627269744873,-0.07885647565126419,0.10477325320243835,-0.1829547882080078,-0.15457244217395782,0.15816228091716766,-0.003555723000317812,-0.1052648052573204,-0.013715350069105625,0.17511878907680511,-0.044764451682567596,-0.02884656749665737,0.001956184161826968,0.05621914938092232,0.14767403900623322,0.0751938447356224,-0.18444684147834778,-0.07558125257492065,-0.0353846438229084,-0.056386739015579224,0.14454248547554016,-0.029283253476023674,-0.02393798902630806,0.0856444388628006,-0.06617113947868347,0.04979225620627403,0.012051543220877647,0.21975085139274597,0.09896214306354523,-0.11184792220592499,-0.17697055637836456,-0.07739268988370895,0.04259869456291199,0.14347726106643677,-0.02821383811533451,-0.08871670812368393,0.14850249886512756,0.11528672277927399,0.013303454034030437,0.10856766253709793,-0.008513680659234524,0.051698315888643265,0.1831754893064499,0.11589937657117844,-0.03983737528324127,0.27048757672309875,-0.08211163431406021,-0.10822870582342148,0.10225249081850052,0.03406909480690956,0.1258184015750885,0.09785381704568863,-0.08558961749076843,-0.056089915335178375,0.17941704392433167,0.038813699036836624,-0.04382254183292389,-0.06887968629598618,-0.06682722270488739,0.01242101937532425,0.03838031366467476,-0.10864904522895813,0.004619850777089596,0.02582506276667118,-0.1331915408372879,-0.0780140832066536,-0.24996940791606903,0.11864285916090012,-0.045908451080322266,-0.04180644825100899,-0.026879671961069107,-0.07073508203029633,0.01903310790657997,0.11703000217676163,-0.07980874180793762,-0.0061143808998167515,0.08992011845111847,-0.18080732226371765,0.20577870309352875,0.06292060017585754,-0.21144233644008636,-0.22079643607139587,0.05789763852953911,0.2725432217121124,-0.026260927319526672,0.2135762870311737,-0.17315839231014252,-0.1480553150177002,0.12861031293869019,0.016650034114718437,-0.05153658613562584,-0.05463036149740219,-0.18281038105487823,-0.22953076660633087,-0.1755032241344452,0.029759278520941734,-0.11922045797109604,-0.07001414895057678,0.1031554639339447,-0.25631430745124817,-0.01003219559788704,0.18225739896297455,0.20592829585075378,-0.011298234574496746,-0.07598205655813217,0.0002336374600417912,0.08524782955646515,-0.042285289615392685,-0.023309441283345222,0.19247308373451233,0.1915806531906128,-0.07208742201328278,-0.05547201633453369,0.12037143111228943,-0.11131099611520767,-0.031735341995954514,0.06641028821468353,-0.03794771432876587,0.007034574635326862,-0.11382008343935013,0.0458722859621048,0.26597797870635986,-0.09900790452957153,0.1514890044927597,-0.07266003638505936,0.032199032604694366,-0.0866800919175148,0.11647403985261917,-0.12998853623867035,0.04960042983293533,0.24442581832408905,0.04121926799416542,-0.13499648869037628,0.36841925978660583,-0.10693242400884628,0.055894024670124054,-0.10625278204679489,0.11831638962030411,0.14453071355819702,0.024565236642956734,-0.2447984516620636,0.17070014774799347,-0.05526882782578468,0.3368202745914459,-0.09200223535299301,-0.0992528423666954,0.17217081785202026,-0.02114773355424404,-0.17638087272644043,-0.030191609635949135,0.0526559092104435,0.057600364089012146,-0.03925492614507675,0.030743835493922234,-0.025428229942917824,0.00039036606904119253,0.05078800022602081,0.13036684691905975,-0.11876493692398071,-0.07104772329330444,0.10080501437187195,-0.01694653369486332,-0.06859169900417328,0.0695294514298439,0.0941217690706253,-0.04997342824935913,-0.07563776522874832,-0.02033309079706669,0.07391506433486938,-0.07646388560533524,-0.11852170526981354,0.14002378284931183,-0.34402763843536377,0.24885933101177216,0.07453978061676025,-0.16604584455490112,-0.2077198475599289,-0.04995041713118553,-0.19376786053180695,0.002219873946160078,0.05745045468211174,-0.025557314977049828,-0.07747947424650192,0.03331932798027992,-0.08203304558992386,-0.0744163990020752,-0.005041336175054312,-0.05828414112329483,0.051352277398109436,-0.16452442109584808,0.14229092001914978,0.21246570348739624,-0.14153341948986053,-0.04483890160918236,0.08895525336265564,-0.06602293998003006,0.14624278247356415,-0.012167222797870636,0.24176490306854248,-0.05623072758316994,-0.019640328362584114,-0.017632998526096344,-0.01277663093060255,-0.13889789581298828,0.1308901458978653,0.03737591207027435,-0.09285205602645874,-0.0009258854552172124,0.08059680461883545,0.050080496817827225,-0.14438435435295105,-0.07884714752435684,-0.2777886986732483,0.005520138423889875,0.0661085918545723,0.010438652709126472,-0.05652771145105362,-0.11616604030132294,-0.019855234771966934,-0.2752739489078522,-0.0009138331515714526,-0.11337664723396301,0.05589267238974571,-0.19081372022628784,0.01382866408675909,-0.11380628496408463,-0.2105342000722885,-0.005524932872503996,0.13834837079048157,-0.16927970945835114,0.17221146821975708,0.08202946186065674,0.014553490094840527,-0.10609549283981323,-0.24926500022411346,0.16359256207942963,-0.03847876191139221,-0.1338401436805725,0.008519324474036694,-0.30479198694229126,-0.15452909469604492,-0.13828560709953308,-0.1707017570734024,-0.10619629919528961,0.1329716295003891,-0.14557403326034546,0.14864301681518555,0.01757563278079033,-0.05072629079222679,-0.136285662651062,-0.2042543888092041,0.11507698893547058,0.061177659779787064,0.18709678947925568,0.10786155611276627,0.061025720089673996,0.05892119184136391,0.48181289434432983,-0.014937852509319782,0.21533755958080292,-0.05747350677847862,0.08741479367017746,-0.08621376007795334,-0.11833623051643372,0.03153714910149574,0.05361117050051689,-0.1457964926958084,0.20998743176460266,0.00619270745664835,-0.29917529225349426,0.04354485124349594,0.09351018816232681,-0.01302870362997055,0.06864646077156067,0.2152705043554306,-0.027668362483382225,0.055482301861047745,-0.016761742532253265,0.11870086193084717,0.239370197057724,0.032603710889816284,0.34142419695854187,0.2522258758544922,0.03936287388205528,0.09158796817064285,-0.10554394125938416,0.0012147026136517525,0.28199008107185364,0.18267621099948883,-0.0733874961733818,0.02881939336657524,-0.0003690199228003621,0.16045595705509186,0.04500220715999603,-0.00013634788047056645,-0.17264381051063538,-0.2792986035346985,-0.26290541887283325,-0.04907708987593651,-0.11126293987035751,0.11013316363096237,0.46151018142700195,0.26443180441856384,0.18563413619995117,0.0049954731948673725,0.23681186139583588,0.1519947648048401,0.10686632245779037,0.3876480460166931,0.10382717102766037,-0.10711438953876495,0.08828719705343246,-0.16799341142177582,-0.054398514330387115,-0.18329614400863647,-0.1359715759754181,0.009956388734281063,0.045370183885097504,0.06495725363492966,-0.07983361184597015,-0.32847583293914795,-0.10499000549316406,0.15008018910884857,0.07151754200458527,-0.09728039056062698,0.07093320786952972,-0.33324965834617615,-0.02966919355094433,0.060354579240083694,0.0645439624786377,0.231532022356987,-0.2851752042770386,0.14625953137874603,0.36915290355682373,-0.03580725938081741,0.18109585344791412,-0.01489553414285183,-0.04179082065820694,0.3740729093551636,0.04789641499519348,-0.09153939038515091,0.3298701047897339,-0.08202920854091644,-0.20708110928535461,-0.19884788990020752,-0.00891187321394682,-0.1537911742925644,0.2431412637233734,0.09336283802986145,0.011330331675708294,-0.32834839820861816,0.12490175664424896,0.0717417299747467,0.17995832860469818,-0.07896549999713898,0.1258779615163803,-0.06981983035802841,0.052169010043144226,0.1736246645450592,0.061612941324710846,0.05847158282995224,-0.07401963323354721,-0.08200966566801071,-0.13904184103012085,0.16243764758110046,-0.11945641785860062,0.24744822084903717,-0.11466140300035477,-0.07840397208929062,-0.07060202211141586,-0.15774449706077576,0.019509725272655487,-0.12140937149524689,0.09560626745223999,-0.026016507297754288,0.1283162236213684,0.13522407412528992,-0.01303532999008894,0.09711215645074844,0.09464788436889648,0.07464613020420074,-0.07822192460298538,0.14333638548851013,-0.014418103732168674,0.057112786918878555,0.18536008894443512,0.1475083827972412,-0.1405661255121231,0.1177477240562439,0.006498604081571102,0.11847428977489471,0.008920557796955109,0.030755357816815376,0.03353783115744591,-0.0070085893385112286,-0.042038124054670334,0.28715774416923523,-0.21706634759902954,0.13437409698963165,0.09368695318698883,0.18873491883277893,-0.12719611823558807,0.07755257934331894,0.19031007587909698,0.09495840966701508,-0.07488670200109482,0.26986047625541687,0.18271173536777496,-0.06103876605629921,-0.1639881283044815,-0.02422913908958435,0.04529300704598427,-0.12068531662225723,-0.049929965287446976,-0.022231575101614,-0.004729561507701874,0.0415826216340065,0.12656322121620178,-0.046252284198999405,-0.12050189822912216,0.03223045542836189,-0.20025993883609772,0.26396822929382324,0.05028393492102623,-0.08554206788539886,-0.1664953976869583,-0.055225860327482224,0.0935162827372551,0.00004405300933285616,-0.13013988733291626,0.27895286679267883,-0.08091473579406738,0.16760969161987305,0.1814263015985489,-0.1406140923500061,-0.041252829134464264,0.036963194608688354,-0.08921465277671814,-0.03532200679183006,0.004980145022273064,0.042633216828107834,0.01336868666112423,0.1531185805797577,0.07813552767038345,-0.052499182522296906,0.2808360755443573,0.16028445959091187,0.00484653702005744,-0.17108042538166046,0.017819838598370552,-0.003462686901912093,-0.0957115963101387,0.2590559422969818,-0.003025676589459181,-0.14684318006038666,-0.06102900207042694,0.07552462816238403,0.12142142653465271,-0.1599203646183014,0.2596319019794464,0.1518370360136032,-0.12323589622974396,-0.04228334501385689,0.017094209790229797,-0.0774570181965828,0.05205092579126358,-0.003309093415737152,0.17860490083694458,0.01832134835422039,0.16240732371807098,-0.04144914448261261,-0.042167939245700836,0.10464948415756226,0.04246756434440613,0.04967069998383522,0.05171726644039154,-0.009872287511825562,0.16447767615318298,-0.17129530012607574,-0.14111633598804474,-0.037637270987033844,-0.14144261181354523,0.16465583443641663,-0.003727948060259223,-0.18087352812290192,0.08316073566675186,0.013689413666725159,0.10587196797132492,-0.04139989987015724,0.03705677390098572,0.061818987131118774,0.09507870674133301,-0.024158615618944168,-0.29142671823501587,0.041153568774461746,-0.06100594624876976,0.12626655399799347,-0.006778555456548929,-0.08219431340694427,-0.0692579597234726,-0.04734531044960022,0.06679265201091766,0.17179346084594727,0.056663449853658676,0.09004010260105133,-0.1520967185497284,-0.07209638506174088,0.05366513505578041,0.2882302701473236,0.15333180129528046,-0.02310444787144661,-0.0511588379740715,0.06368822604417801,-0.05520579218864441,-0.03981521725654602,0.025368589907884598,-0.20452836155891418,-0.039435017853975296,-0.04555156081914902,-0.12634491920471191,-0.052693337202072144,-0.002563270041719079,-0.21078181266784668,0.2533508539199829,0.007769772317260504,0.053593214601278305,0.14259718358516693,-0.5188372135162354,-0.03545333817601204,0.1535026878118515,-0.0665760412812233,0.07355044037103653,-0.03603733703494072,-0.06480209529399872,0.011654249392449856,0.09431994706392288,0.2692345678806305,0.02346559427678585,0.011282053776085377,-0.008357624523341656,-0.02694983407855034,0.09461674839258194,-0.006698885932564735,-0.06749504059553146,-0.06426837295293808,0.054743994027376175,0.023714449256658554,0.009547890163958073,-0.021860670298337936,-0.13024857640266418,0.05341027304530144,-0.0632297694683075,0.03475897014141083,-0.21573828160762787,-0.5155621767044067,0.7811875939369202,0.3654680550098419,-0.5456269979476929,0.11436380445957184,-0.15435640513896942,-0.030005406588315964,0.2840915620326996,-0.7395754456520081,0.834976851940155,0.49604567885398865,-0.04511537402868271,-0.4243279695510864,0.20325101912021637,-0.6532343029975891,0.2720641493797302,-0.3596479296684265,-0.019872790202498436,-0.15107661485671997,0.19494256377220154,0.06296081095933914,0.5264042615890503,-0.0598357729613781,0.2692304253578186,0.3531268835067749,0.06726565957069397,0.19376075267791748,-0.03817448765039444,0.12320566177368164,-0.09168379008769989,-0.040074124932289124,-0.050349388271570206,0.14894196391105652,0.22721655666828156,0.016677288338541985,-0.042275961488485336,0.003995654638856649,-0.24460825324058533,-0.20363759994506836,-0.25591158866882324,-0.18765266239643097,0.12461638450622559,-0.18397635221481323,0.0484946072101593,0.28322741389274597,0.04218117147684097,-0.17101415991783142,0.1256810575723648,-0.37032246589660645,0.011634530499577522,-0.0965578556060791,0.30047890543937683,-0.1769377738237381,0.2846856117248535,-0.24915499985218048,-0.10501109808683395,0.19425909221172333,-0.16445690393447876,0.23307299613952637,0.36793991923332214,-0.10238359868526459,-0.12431351095438004,0.09533695131540298,0.48105621337890625,0.07610143721103668,0.18460729718208313,0.1231774091720581,-0.15289583802223206,0.0714639276266098,-0.12408365309238434,0.14155343174934387,0.1580115109682083,0.04214436560869217,0.19420284032821655,0.093349888920784,0.14875264465808868,0.08199135959148407,0.17011424899101257,-0.043495409190654755,0.12668311595916748,-0.12037687748670578,0.24894306063652039,0.10447797924280167,0.11026319116353989,-0.22986213862895966,0.22924643754959106,-0.056539881974458694,0.010679158382117748,0.1486111432313919,-0.03538929298520088,0.08650995790958405,-0.11658649146556854,-0.146464005112648,-0.04985443875193596,0.013315070420503616,-0.3636055290699005,-0.009575866162776947,0.16144029796123505,-0.1683424413204193,-0.2311771661043167,0.10307291150093079,-0.04965365305542946,0.26665371656417847,0.06810551881790161,-0.3308371603488922,0.0456889346241951,0.09220844507217407,0.004663999192416668,0.14401093125343323,0.09370864182710648,-0.03894393891096115,0.01605118066072464,0.22378981113433838,-0.20197013020515442,0.061909496784210205,0.17170390486717224,0.006758750416338444,0.11527691781520844,-0.06968294084072113,-0.30219754576683044,0.21749863028526306,-0.006775390822440386,-0.0054435995407402515,0.13498079776763916,-0.014171860180795193,0.306277334690094,0.18073949217796326,0.16130799055099487,0.08543723076581955,-0.17596277594566345,0.02497403882443905,0.08030010759830475,-0.14010421931743622,0.1583380401134491,-0.11028104275465012,0.04604652523994446,0.15972135961055756,0.10072267800569534,0.27848634123802185,0.0011767519172281027,0.20086170732975006,0.030504191294312477,-0.022921355441212654,-0.21934853494167328,0.3949991762638092,0.02312137931585312,0.10858919471502304,0.017771979793906212,0.15151675045490265,-0.47961580753326416,0.13019533455371857,-0.24566197395324707,-0.06425591558218002,-0.03177627921104431,0.1281638741493225,-0.23890145123004913,0.010434063151478767,0.052062612026929855,0.14145062863826752,0.2228730469942093,-0.341556191444397,-0.1356145441532135,0.18567053973674774,0.1999920904636383,0.17175577580928802,0.08093731105327606,-0.1571902185678482,-0.014622610062360764,0.10896360129117966,-0.004549422767013311,-0.15481552481651306,0.04376693814992905,-0.0463881641626358,0.20178985595703125,0.1302025020122528,0.2164999544620514,-0.18301713466644287,-0.21365989744663239,0.005520424339920282,0.25040391087532043,-0.15440744161605835,0.12532751262187958,-0.11618437618017197,0.21267372369766235,0.1364046335220337,-0.2594596743583679,0.016744347289204597,0.13829955458641052,-0.2047189623117447,0.04038107022643089,0.1832507699728012,0.11697030067443848,-0.08362314105033875,-0.21520961821079254,0.3421573340892792,-0.167220801115036,0.22114117443561554,0.3191715180873871,-0.03756719082593918,-0.1515054553747177,-0.0331168957054615,-0.07298306375741959,0.3038240671157837,-0.08728346228599548,-0.1026965007185936,0.0629107803106308,0.2971583306789398,-0.3158617913722992,-0.14403589069843292,0.2029241919517517,-0.0974774956703186,0.09410720318555832,0.18317940831184387,-0.2106853425502777,-0.0462682843208313,0.10034304857254028,-0.16092099249362946,-0.11062666773796082,-0.02133454941213131,0.043730661273002625,0.15871350467205048,0.18404532968997955,-0.123161680996418,-0.14570073783397675,0.23386800289154053,-0.13067634403705597,-0.04925224184989929,0.08958280086517334,-0.04815073311328888,0.02870064787566662,-0.04591056704521179,0.017107363790273666,-0.03768111765384674,0.044584013521671295,-0.3662789762020111,0.014752855524420738,0.03327756002545357,-0.14000970125198364,0.0348992757499218,-0.04676968231797218,0.24290616810321808,-0.07798624038696289,-0.024674713611602783,-0.1155569925904274,-0.08756284415721893,-0.0079665407538414,-0.23605458438396454,0.12296946346759796,0.2925569415092468,0.03604630380868912,0.11823522299528122,-0.02268858253955841,0.10575305670499802,-0.05841375142335892,-0.032909076660871506,-0.11863542348146439,0.06341320276260376,0.049083393067121506,-0.049371879547834396,-0.21100997924804688,0.035005975514650345,-0.17684586346149445,-0.1882687360048294,-0.10065922141075134,0.04603705555200577,0.26386919617652893,0.1974494904279709,-0.22328239679336548,-0.14020809531211853,-0.03334981948137283,-0.07516860216856003,0.011424973607063293,0.026442941278219223,0.059655021876096725,0.09193965792655945,-0.04604989290237427,0.08182192593812943,0.0795842707157135,-0.008587036281824112,-0.15151314437389374,-0.15748231112957,0.02870124578475952,0.047923535108566284,0.06262732297182083,0.13345472514629364,0.09988255798816681,-0.024920623749494553,-0.05242353677749634,-0.12747657299041748,-0.041721537709236145,-0.026538902893662453,0.009068762883543968,0.09169630706310272,0.15528081357479095,-0.017836160957813263,0.1183510273694992,-0.09014749526977539,-0.018915271386504173,0.4324321746826172,-0.02510470151901245,-0.12905578315258026,-0.16684870421886444,0.04528701305389404,0.0629589632153511,-0.14193114638328552,0.04214365780353546,-0.10037755966186523,-0.1338902711868286,-0.18393917381763458,0.08186029642820358,-0.1394483745098114,0.03872884437441826,-0.09779316931962967,0.19184190034866333,-0.033919189125299454,0.11358430981636047,-0.25925469398498535,-0.1394823044538498,-0.12114337831735611,0.042640600353479385,-0.014588937163352966,-0.0801064744591713,-0.15034793317317963,-0.10934377461671829,-0.07629537582397461,-0.07868397980928421,0.05218496546149254,-0.22704632580280304,0.019079716876149178,-0.08945374190807343,-0.17393706738948822,0.2373514175415039,-0.0846334770321846,0.07597988098859787,0.06133483722805977,0.21334686875343323,0.1890958547592163,0.027927298098802567,-0.1391540765762329,-0.035829365253448486,0.03492821007966995,-0.06606261432170868,-0.04592113569378853,0.03339243307709694,0.07301546633243561,0.08095306903123856,0.2669452726840973,0.05440816655755043,-0.014594275504350662,0.2531759738922119,-0.07722160965204239,-0.23759610950946808,0.10088463127613068,-0.05021493136882782,0.1919454038143158,0.06441152840852737,-0.007634881418198347,-0.16863644123077393,0.04818078503012657,-0.029812172055244446,0.13378390669822693,-0.19551773369312286,-0.03602311387658119,0.07571699470281601,0.19430938363075256,0.09864435344934464,0.11593847721815109,0.10363259166479111,0.24836444854736328,-0.03267033398151398,-0.11492039263248444,-0.07849278301000595,0.053473640233278275,0.06078872084617615,-0.1985800564289093,0.2018042504787445,-0.14844341576099396,0.062328994274139404,0.19918709993362427,-0.13366150856018066,0.041105661541223526,-0.026154212653636932,0.09728939086198807,-0.3503323793411255,-0.20197799801826477,0.01334318146109581,0.027860863134264946,0.16006016731262207,-0.2176191806793213,-0.17081564664840698,-0.0680043026804924,0.21939986944198608,-0.0018849630141630769,-0.12177189439535141,-0.026281023398041725,0.10639418661594391,-0.053189560770988464,-0.087472103536129,-0.16871359944343567,0.09719094634056091,-0.186998188495636,0.03864824026823044,0.13809582591056824,-0.048703450709581375,-0.0676591545343399,0.014700217172503471,-0.031000643968582153,0.001701957080513239,0.09783273190259933,0.15756343305110931,0.05293460935354233,0.12576882541179657,-0.018250353634357452,-0.03509486839175224,0.19684694707393646,0.23827515542507172,-0.039337072521448135,0.04606115072965622,0.24717044830322266,-0.08133645355701447,-0.05138843506574631,-0.030015887692570686,-0.028873080387711525,-0.02510402351617813,0.08627542108297348,0.09925559163093567,-0.24090805649757385,0.099541574716568,-0.17738966643810272,0.031132876873016357,-0.17550452053546906,-0.04341747611761093,0.19410045444965363,0.03820231929421425,0.009294883348047733,0.180764302611351,0.24825474619865417,0.23522616922855377,0.031208354979753494,-0.14284929633140564,0.013126440346240997,0.12319087237119675,-0.12610431015491486,-0.05703098699450493,0.10880918800830841,0.05788649618625641,-0.11905956268310547,-0.2229451984167099,0.17280369997024536,0.061760421842336655,-0.000438986491644755,0.12194295227527618,-0.0734703466296196,-0.07538971304893494,0.226223424077034,0.13789360225200653,-0.14806503057479858,-0.2788447439670563,-0.23035332560539246,-0.03486420214176178,0.23706082999706268,-0.12279283255338669,0.12089253962039948,0.05625971406698227,-0.08191981166601181,-0.08779913187026978,0.12004394084215164,0.011312881484627724,0.18432292342185974,-0.11442331224679947,0.16110152006149292,0.2246313989162445,-0.1888001263141632,0.014177341014146805,0.10582926124334335,-0.20109863579273224,-0.1312272548675537,0.06337930262088776,-0.10614398866891861,0.054066747426986694,0.16795557737350464,0.005895545240491629,-0.07901567965745926,-0.16483357548713684,0.0482746884226799,-0.12233532965183258,0.08530113101005554,-0.02563437446951866,-0.3332460820674896,-0.0991339460015297,0.054209429770708084,0.04367018863558769,-0.10334429144859314,-0.0451856292784214,-0.11265003681182861,-0.05895264819264412,0.22917768359184265,-0.01079276017844677,-0.08968524634838104,0.11366082727909088,0.06924672424793243,0.03891756758093834,-0.05575549602508545,-0.0738091766834259,0.12592603266239166,-0.20644398033618927,-0.1136607751250267,-0.07256541401147842,0.12180978804826736,0.018116500228643417,0.33845090866088867,0.0438019335269928,-0.02977387234568596,-0.3012012541294098,-0.1925319880247116,-0.1542598009109497,-0.0219761710613966,-0.010311280377209187,-0.20780201256275177,-0.017780328169465065,-0.08279132097959518,-0.04976062849164009,-0.0024889782071113586,-0.13933852314949036,0.09387673437595367,0.14053787291049957,0.2785349190235138,-0.06692017614841461,-0.07503385096788406,-0.04995395615696907,-0.1898675262928009,-0.030709950253367424,0.08576714247465134,-0.06655484437942505,0.2762053608894348,0.11737311631441116,-0.2776205837726593,0.07126126438379288,-0.010558775626122952,0.16112127900123596,-0.10653106123209,-0.0022931559942662716,-0.1506199836730957,-0.22332029044628143,-0.05148312821984291,-0.10829772055149078,0.10974503308534622,0.01794293150305748,0.16755886375904083,-0.14163875579833984,-0.0543670579791069,-0.1652536690235138,0.12334132194519043,-0.09246324002742767,-0.054888367652893066,0.0493619404733181,0.01271484699100256,-0.06637904793024063,-0.11641749739646912,-0.10861659795045853,-0.08557960391044617,-0.13025905191898346,0.08018048852682114,-0.051694031804800034,0.17179393768310547,-0.15679524838924408,-0.07997757941484451,0.06154082342982292,0.03964841738343239,-0.055653467774391174,0.14582319557666779,-0.15526849031448364,0.06978917866945267,0.2309674322605133,0.3012303411960602,0.10889306664466858,-0.13369612395763397,-0.16731078922748566,0.1269286870956421,-0.0962703675031662,-0.11363949626684189,-0.09484213590621948,0.08010714501142502,0.02233331836760044,-0.10446001589298248,-0.09631549566984177,-0.1459656059741974,0.15212272107601166,0.05822785943746567,-0.0161898173391819,0.012940723448991776,-0.2239675223827362,-0.059401724487543106,-0.09161383658647537,-0.013638226315379143,-0.053640060126781464,0.3322708308696747,0.03764353692531586,-0.13621532917022705,-0.14423538744449615,0.16820402443408966,0.04796631634235382,0.1679779440164566,-0.013718871399760246,-0.012837687507271767,0.1286972314119339,-0.01522859651595354,0.005480444058775902,-0.03611082211136818,-0.2014061063528061,-0.02030305564403534,0.189651221036911,0.101102314889431,0.0932677611708641,-0.2780757546424866,0.08814924955368042,-0.010754711925983429,-0.17931756377220154,0.19153203070163727,0.0841812714934349,0.13514693081378937,-0.0013685461599379778,-0.13062633574008942,0.025377556681632996,0.01803610287606716,-0.0764615461230278,0.05248784273862839,-0.05318937078118324,0.09137827157974243,0.07199198752641678,-0.12250208109617233,0.07587385177612305,-0.019162235781550407,0.012135284952819347,-0.04630357399582863,-0.3661913573741913,0.03244024142622948,-0.07744009792804718,-0.00800229236483574,-0.017320262268185616,0.027303986251354218,-0.009848498739302158,-0.20009580254554749,0.01664905436336994,-0.22509345412254333,0.09883023053407669,-0.04472237080335617,0.15622876584529877,-0.06312485784292221,0.03914570435881615,-0.1855451613664627,-0.07749832421541214,0.04017646610736847,-0.18187400698661804,0.00617716321721673,-0.11041851341724396,-0.08547252416610718,-0.10997947305440903,0.13460704684257507,0.20795616507530212,-0.021737858653068542,0.05858023464679718,0.2879880964756012,-0.12420297414064407,-0.06415053457021713,0.11593106389045715,-0.14300179481506348,0.02453799732029438,-0.07709712535142899,-0.14966514706611633,-0.08311472088098526,-0.24120163917541504,0.12298840284347534,0.1084359809756279,-0.11793859302997589,-0.12013543397188187,-0.036137908697128296,0.030490553006529808,-0.04898013919591904,0.10769479721784592,-0.14009490609169006,0.04952171817421913,0.1285492181777954,-0.23382166028022766,-0.005085317883640528,0.10883151739835739,-0.1386314481496811,-0.010235504247248173,0.15088334679603577,-0.024427002295851707,-0.10431718081235886,-0.032610803842544556,-0.14552158117294312,-0.13333803415298462,-0.03258847817778587,0.0274798683822155,-0.04493553191423416,-0.2292053997516632,-0.007062732707709074,0.08207914233207703,0.013100778684020042,0.042060308158397675,0.023685328662395477,-0.15365943312644958,0.0313011072576046,0.1039859727025032,0.17261265218257904,0.1313006430864334,-0.021807631477713585,-0.0747385248541832,-0.02791997790336609,0.12756966054439545,-0.09425975382328033,0.17654354870319366,0.12841442227363586,-0.19390273094177246,0.1353686898946762,-0.08383838087320328,0.29973161220550537,-0.11663229018449783,0.002855780301615596,-0.011903204955160618,0.07527666538953781,0.025681469589471817,0.05617533251643181,-0.05969080701470375,-0.06193993240594864,0.3269274830818176,0.0354413166642189,0.19597294926643372,-0.49412021040916443,0.09201499819755554,0.03576622158288956,-0.05613522231578827,-0.23569151759147644,0.0058045038022100925,-0.2394738644361496,0.05169244855642319,-0.21580570936203003,0.2201295793056488,-0.08763130009174347,-0.0152996014803648,0.04776342213153839,0.06771479547023773,0.00704909348860383,-0.13501842319965363,-0.06665986031293869,0.014240198768675327,-0.033899713307619095,-0.12635493278503418,-0.049080926924943924,0.12856455147266388,-0.09801193326711655,-0.03977378085255623,-0.08075279742479324,-0.19563202559947968,0.03988854959607124,0.22160115838050842,-0.31089791655540466,0.040682364255189896,0.0032493167091161013,0.042387958616018295,0.06309173256158829,-0.1286652535200119,0.04804542288184166,-0.128686785697937,-0.10315745323896408,0.18088839948177338,0.06317967176437378,-0.04256873577833176,0.06553962826728821,-0.13540038466453552,0.07877794653177261,-0.19950705766677856,-0.21877190470695496,0.0045769973658025265,-0.006331974174827337,-0.10125434398651123,-0.2925913631916046,-0.06875225901603699,-0.05639764666557312,-0.18273642659187317,0.12254369258880615,0.1848989576101303,0.08814665675163269,0.18226183950901031,0.024641582742333412,-0.12811118364334106,-0.02175612561404705,0.06634841859340668,0.019107230007648468,-0.06240495666861534,-0.05296061933040619,0.18614211678504944,0.11496526747941971,0.13246309757232666,-0.04715758189558983,0.10226486623287201,0.028719782829284668,-0.02348308451473713,0.037924330681562424,0.08608616143465042,-0.2616838812828064,0.04280943423509598,-0.15275076031684875,0.13164326548576355,-0.06028636172413826,-0.20344066619873047,0.02265631966292858,-0.13134968280792236,-0.09609225392341614,0.10626696050167084,-0.021424675360322,-0.04859910532832146,-0.05235060304403305,0.011291488073766232,0.24488171935081482,-0.14927023649215698,0.03040783852338791,0.006909809075295925,-0.03588489443063736,-0.11287298053503036,-0.012073107995092869,0.1999906450510025,-0.025339022278785706,0.0936969593167305,0.15956686437129974,-0.08537618070840836,-0.13359175622463226,-0.04698662459850311,-0.011808328330516815,-0.12288831919431686,-0.2283215969800949,0.04653706029057503,-0.08250270783901215,-0.03941274434328079,0.1275717318058014,-0.06314153969287872,-0.03868446499109268,-0.13431689143180847,0.00958364550024271,0.2473202645778656,-0.08993148803710938,0.04003708064556122,-0.07635963708162308,0.12061808258295059,-0.038893923163414,0.0032175222877413034,-0.0759095773100853,0.05911318212747574,0.057379379868507385,0.07737191766500473,0.11509188264608383,-0.07437577843666077,0.04579240456223488,-0.03154581040143967,0.3320452868938446,-0.15629693865776062,-0.08527766913175583,0.06444820016622543,0.03775668144226074,0.09793766587972641,0.32860612869262695,0.06722752749919891,-0.07610548287630081,0.04903499782085419,0.11046060174703598,0.04928530752658844,0.05439315363764763,0.11536223441362381,0.1183503046631813,-0.056938860565423965,-0.1302538812160492,0.0385613888502121,-0.5752922892570496,-0.04005968198180199,0.10293169319629669,-0.04170393943786621,0.18240433931350708,-0.10800021886825562,-0.08250964432954788,-0.10223586857318878,0.11075202375650406,-0.12549246847629547,-0.09378189593553543,0.011376318521797657,0.04591676592826843,-0.044717252254486084,0.10805252194404602,-0.23239576816558838,-0.03641168400645256,0.08739043772220612,-0.06730817258358002,0.058614812791347504,-0.0393269807100296,0.2974745035171509,0.14977897703647614,-0.00697321118786931,0.18613876402378082,-0.002876882441341877,0.08129504323005676,0.06804405152797699,0.1711532473564148,0.062123678624629974,0.017913363873958588,0.03650929033756256,0.11642646044492722,-0.024176396429538727,0.10728593915700912,-0.05906829982995987,-0.3861314654350281,0.023654647171497345,0.2045765370130539,0.5784657597541809,0.20958147943019867,-0.06145735830068588,-0.6698606610298157,-0.12844911217689514,0.22144535183906555,0.5527798533439636,-0.1256975382566452,0.563625156879425,-0.4590842127799988,0.12880003452301025,0.214401513338089,0.16586410999298096,0.5453034043312073,-0.09388566017150879,-0.4690123200416565,-0.1236351877450943,-0.2601091265678406,0.6131344437599182,0.06741506606340408,0.2532290816307068,-0.15215584635734558,-0.24250473082065582,-0.3415856659412384,0.022151628509163857,0.12210643291473389,-0.21420222520828247,0.07403478771448135,-0.053780946880578995,-0.3154217302799225,1.0368361473083496,-0.2308662086725235,-0.3892918825149536,0.8380538821220398,0.2643837332725525,0.1055430993437767,-0.16251975297927856,-0.024449102580547333,-0.2009645253419876,0.14373180270195007,-0.2913663685321808,-0.07904794067144394,0.173051655292511,0.08864692598581314,-0.2969668209552765,-0.49689170718193054,0.1918826550245285,0.0267105121165514,0.148650124669075,0.03485878184437752,-0.24339228868484497,-0.2886834144592285,0.10782274603843689,0.10451848059892654,0.03756336867809296,0.08070532977581024,0.16324415802955627,0.4971533417701721,0.01521025039255619,-0.171102374792099,0.12081913650035858,0.13825246691703796,-0.005226069130003452,0.01725492812693119,0.07636240124702454,-0.22641822695732117,-0.0036705266684293747,-0.023092297837138176,0.0543973334133625,0.026092087849974632,-0.07746275514364243,0.09394419193267822,0.003661227645352483,-0.11127699166536331,0.05296832323074341,-0.11954046785831451,0.10984065383672714,-0.172297865152359,-0.1636388897895813,-0.013181083835661411,-0.08121328055858612,0.014218837022781372,-0.11419588327407837,-0.05404641106724739,-0.10339292883872986,-0.01988268457353115,0.1587919294834137,-0.1262403279542923,-0.07925179600715637,0.08875351399183273,-0.1673324555158615,-0.12319719046354294,-0.3078610599040985,-0.02612491510808468,-0.12238809466362,0.08832608163356781,0.16881221532821655,-0.08731693774461746,-0.03291478753089905,-0.17367175221443176,-0.010679226368665695,-0.2085726112127304,-0.18732872605323792,-0.06238164007663727,0.015227685682475567,-0.11788507550954819,-0.21065084636211395,0.06688094139099121,0.08720789104700089,-0.21000374853610992,-0.07157721370458603,0.17021051049232483,0.053402096033096313,-0.11730944365262985,-0.07219298183917999,-0.20753543078899384,0.08274880051612854,0.038249220699071884,0.20027439296245575,-0.058059241622686386,-0.18038472533226013,-0.15643088519573212,-0.03712091222405434,0.2634889781475067,-0.05954290181398392,0.2327350527048111,0.07736673951148987,-0.0618089959025383,-0.11101594567298889,-0.011732188984751701,-0.0999607965350151,-0.1300715208053589,0.04087510332465172,-0.030147472396492958,0.08633279800415039,-0.11564921587705612,0.23514395952224731,0.12858356535434723,-0.052027590572834015,-0.009757135063409805,-0.07293993979692459,-0.03603305667638779,-0.005410991609096527,-0.031493835151195526,0.08030929416418076,-0.05421149358153343,0.1050073429942131,0.0899856686592102,0.012253420427441597,-0.05587271973490715,0.07234301418066025,0.11891373991966248,0.03333757072687149,-0.07310876995325089,0.08703668415546417,0.08200404047966003,-0.026801349595189095,0.10661932080984116,0.630692183971405,0.16926050186157227,0.5110804438591003,-1.028241753578186,-0.6230067610740662,-0.0963846892118454,0.25061699748039246,0.0001394707796862349,0.2624521851539612,0.252593994140625,-0.6945267915725708,0.3107365369796753,-0.2882462441921234,-0.8532112240791321,-0.02061135321855545,-0.27912718057632446,-0.11201281100511551,-0.09293006360530853,0.20523731410503387,-0.34156858921051025,0.12885072827339172,0.16230030357837677,0.11084484308958054,-0.2384500950574875,-0.20971256494522095,0.0003568702086340636,-0.05153483897447586,-0.09060979634523392,0.04936224967241287,-0.3082299828529358,0.2455521821975708,-0.14168037474155426,-0.21213924884796143,-0.13961470127105713,0.06819833070039749,-0.0350910983979702,-0.08214884251356125,0.10250534117221832,0.23369494080543518,-0.2627620995044708,-0.324710875749588,-0.06705554574728012,-0.16370904445648193,0.14331680536270142,0.014488761313259602,0.21340088546276093,0.18887439370155334,0.0918782576918602,0.09092995524406433,0.186799556016922,-0.05142947658896446,-0.21007905900478363,0.04671003669500351,-0.46117445826530457,-0.14477919042110443,0.015690116211771965,0.05905262753367424,-0.12328404933214188,0.2917960286140442,-0.17054803669452667,-0.20035868883132935,-0.16806219518184662,-0.014672204852104187,0.1573835164308548,-0.26969975233078003,-0.22980862855911255,0.05533301457762718,0.38342246413230896,0.023739727213978767,0.10034013539552689,0.11731167137622833,0.03980746865272522,-0.22382234036922455,-0.08591831475496292,0.2506183087825775,-0.2063736468553543,0.2799336016178131,0.1958293318748474,-0.05721506476402283,-0.2431943565607071,0.06088795140385628,0.03892248496413231,0.012509068474173546,0.07939253747463226,-0.04289693757891655,-0.0008025782881304622,0.1531299352645874,-0.17768287658691406,0.1180124580860138,0.24105320870876312,0.1770402044057846,0.06263358145952225,-0.007629661820828915,-0.10082880407571793,-0.25816649198532104,-0.17628376185894012,-0.23914611339569092,0.3231090307235718,0.15433862805366516,0.1405981183052063,-0.05679803341627121,0.23950453102588654,-0.05174442008137703,-0.16867487132549286,0.12883907556533813,0.05074923858046532,0.017716819420456886,0.36765819787979126,0.0803278461098671,-0.05818253010511398,-0.08670561760663986,0.0494212880730629,-0.04365954548120499,-0.24231593310832977,-0.306277334690094,-0.0012949738884344697,-0.12203750759363174,-0.2552035450935364,0.10184307396411896,0.2789093554019928,-0.08720555901527405,-0.020612776279449463,-0.06637905538082123,-0.07273901998996735,0.0011041405377909541,-0.0005498946411535144,0.21587957441806793,-0.12040860205888748,-0.08316019922494888,0.0802893340587616,-0.0556156300008297,-0.007826908491551876,0.21408532559871674,-0.24838851392269135,-0.12822790443897247,0.29481878876686096,-0.018069960176944733,0.026275834068655968,0.013488865457475185,-0.007364253979176283,-0.03870346024632454,0.089084193110466,0.06713668256998062,-0.011153111234307289,-0.25245755910873413,0.14448530972003937,-0.030718019232153893,0.17096221446990967,0.14619459211826324,0.1517345905303955,-0.17770883440971375,-0.11103001236915588,0.07070942968130112,0.05395438149571419,0.0010151638416573405,-0.16395466029644012,0.21689192950725555,0.18164536356925964,0.0237597543746233,0.19572021067142487,0.10043193399906158,0.17879323661327362,0.051202442497015,-0.1406521201133728,-0.04284662380814552,0.05139729753136635,-0.0704774409532547,-0.02087126486003399,-0.2111905813217163,-0.1168263852596283,0.13072983920574188,-0.13116368651390076,0.17086458206176758,-0.15419723093509674,0.11674768477678299,-0.039834972470998764,-0.00840332917869091,0.08323051035404205,-0.32454895973205566,-0.25471487641334534,-0.03858902305364609,0.05266847833991051,0.1508110612630844,-0.09373260289430618,0.31920117139816284,-0.02875456027686596,-0.10873603075742722,-0.01889842562377453,-0.1828813999891281,-0.055434975773096085,0.18625466525554657,-0.18137626349925995,0.07135964930057526,0.04605100303888321,-0.2969761788845062,-0.1734102964401245,0.1023130789399147,0.008732846938073635,0.2289341539144516,-0.1416175216436386,-0.21336881816387177,0.0009967380901798606,0.26400241255760193,0.17207860946655273,-0.10264010727405548,0.3554575741291046,0.04676944762468338,-0.2890625298023224,0.2588854432106018,-0.12215116620063782,0.26660865545272827,0.261625736951828,-0.39512237906455994,0.14266271889209747,-0.4475056529045105,0.19662760198116302,0.1693137139081955,0.021462231874465942,-0.4263821542263031,-0.19778864085674286,-0.02701917290687561,0.2636498808860779,0.07767772674560547,-0.11433357745409012,-0.1338687539100647,0.19632352888584137,-0.0013651474146172404,0.3391420245170593,0.07932860404253006,0.16612637042999268,-0.0313429981470108,-0.06004657223820686,0.08046745508909225,0.20678801834583282,0.15219464898109436,-0.018925875425338745,-0.27910861372947693,-0.4769247770309448,0.056643206626176834,0.06185612082481384,0.23924024403095245,-0.0401897057890892,0.018526801839470863,0.20657198131084442,-0.21078765392303467,-0.35292670130729675,0.14545416831970215,0.16982582211494446,-0.029529260471463203,0.04204375669360161,-0.18303993344306946,-0.051363904029130936,-0.057127393782138824,-0.023968013003468513,-0.003973489161580801,0.19080542027950287,-0.1625303030014038,0.1687815636396408,-0.012239727191627026,-0.056392934173345566,-0.2719777524471283,-0.13767573237419128,0.1101054847240448,-0.09515716880559921,-0.22039856016635895,0.12701639533042908,-0.2928302586078644,-0.06950739771127701,0.2725227177143097,-0.003141840221360326,0.12085062265396118,0.08024489879608154,-0.18556520342826843,-0.02259683795273304,0.05674982815980911,-0.01693810522556305,-0.02678823284804821,-0.03428875654935837,-0.01782701537013054,0.028651053085923195,-0.16950058937072754,0.14838699996471405,0.05055311694741249,0.02735135704278946,0.011959093622863293,-0.16707196831703186,-0.03724399581551552,-0.01591128297150135,0.019774986431002617,-0.11763925105333328,-0.051956657320261,-0.1571492850780487,-0.12287715077400208,-0.15513209998607635,-0.035071149468421936,0.12741506099700928,-0.11452707648277283,-0.004974475130438805,-0.10203713923692703,0.3263992965221405,0.11398172378540039,0.1104198545217514,-0.0958472490310669,0.06747883558273315,-0.17299018800258636,-0.0783616378903389,-0.01782732456922531,-0.05843692645430565,0.02947600744664669,0.1857781708240509,0.21787524223327637,-0.18510933220386505,-0.09550347924232483,-0.14603941142559052,0.2013489305973053,0.05516562610864639,-0.054315049201250076,-0.07360828667879105,0.047465402632951736,0.1020931825041771,-0.38110655546188354,0.10104041546583176,-0.07910648733377457,-0.19592738151550293,-0.09762832522392273,-0.008972369134426117,0.18639902770519257,-0.0947747603058815,-0.09504562616348267,-0.029837217181921005,-0.024088187143206596,-0.10040317475795746,0.09480690956115723,-0.03333689272403717,0.11472678184509277,0.19946327805519104,0.14319144189357758,0.051417313516139984,0.037603288888931274,-0.014725547283887863,-0.18440134823322296,-0.11294453591108322,-0.16246183216571808,-0.10162682831287384,-0.02944890409708023,0.05122958496212959,0.12113559246063232,0.06063331291079521,0.16783899068832397,0.11968956142663956,-0.056754592806100845,0.1015358418226242,-0.0026047788560390472,-0.15415289998054504,-0.04728895053267479,0.0850890502333641,0.0069465842097997665,-0.06968816369771957,0.02910674922168255,-0.1864416003227234,-0.1715480536222458,-0.015601311810314655,0.19132186472415924,0.025617117062211037,0.15920019149780273,-0.20752660930156708,0.11466939002275467,-0.011541898362338543,0.05265657231211662,0.030090292915701866,-0.0456257238984108,-0.2858215272426605,-0.07244998961687088,-0.0854569524526596,0.06810136884450912,-0.10014484077692032,-0.11920910328626633,0.19848425686359406,0.00939670205116272,-0.12276288866996765,0.0653541088104248,-0.22191902995109558,-0.15638293325901031,-0.054058779031038284,-0.18501795828342438,-0.11501719802618027,0.15627197921276093,0.0045635574497282505,0.07229585945606232,-0.3710906207561493,-0.09478896856307983,-0.1659286767244339,0.25679242610931396,0.028122618794441223,0.0739152804017067,-0.23158663511276245,-0.15714894235134125,-0.047132451087236404,-0.15077689290046692,-0.1197105124592781,0.019957328215241432,-0.0017064375570043921,-0.034077540040016174,-0.13326731324195862,-0.23784978687763214,-0.0490180067718029,0.012408238835632801,-0.17060726881027222,0.10343378782272339,-0.1745828539133072,-0.147440105676651,0.07800514996051788,0.04011393338441849,0.052996136248111725,-0.02117029018700123,0.16169321537017822,0.23359037935733795,-0.09279843419790268,0.1943771243095398,0.13481004536151886,0.1757458597421646,0.02563217654824257,0.011516868136823177,0.0416032150387764,-0.06982611864805222,0.14174389839172363,0.05217794328927994,-0.07061732560396194,0.1464674323797226,0.10580210387706757,-0.036056939512491226,-0.26102709770202637,-0.03564010187983513,0.06317666172981262,0.15283255279064178,-0.03682902827858925,-0.016918398439884186,0.03087545372545719,0.08653292059898376,0.2705581784248352,0.09050394594669342,0.04751269146800041,-0.016767479479312897,-0.13718852400779724,-0.081731878221035,-0.014205120503902435,0.08135650306940079,-0.05050770938396454,-0.026753360405564308,0.15582996606826782,0.06603216379880905,-0.0857175886631012,-0.0563984289765358,0.07898490875959396,-0.04863037168979645,-0.04633001983165741,0.11479539424180984,0.004923058673739433,-0.08177307993173599,-0.13739249110221863,0.00018269498832523823,0.1250540167093277,-0.005703113041818142,0.08413165807723999,0.013691125437617302,-0.2095107138156891,-0.09539765119552612,0.08259536325931549,-0.03133551776409149,0.04578111693263054,-0.012928146868944168,0.03732793405652046,0.167842835187912,-0.2718222141265869,0.17044994235038757,0.0022555156610906124,-0.026073087006807327,0.15485872328281403,-0.02986898273229599,-0.1884385496377945,-0.02873961813747883,0.01763644814491272,0.032807476818561554,-0.07515282183885574,0.06345023214817047,-0.11418244987726212,0.052778247743844986,0.027335451915860176,0.09777669608592987,0.027025360614061356,0.0731310248374939,0.3795476257801056,0.15758062899112701,0.10666053742170334,-0.008233013562858105,0.13132119178771973,-0.0029048596043139696,-0.23462115228176117,0.09311079978942871,-0.0014137367252260447,0.0017983069410547614,0.17169871926307678,0.14474843442440033,-0.0783710703253746,-0.11632980406284332,-0.06260981410741806,0.3118019700050354,0.07837416976690292,0.10068392008543015,-0.055381014943122864,-0.10609322786331177,0.07025070488452911,-0.17375487089157104,0.1028398722410202,-0.16385406255722046,-0.2191060334444046,-0.11528700590133667,0.100003682076931,0.04593023285269737,-0.08439488708972931,-0.01705212891101837,0.04831485077738762,-0.1384558230638504,-0.11675062775611877,0.11522086709737778,-0.08062184602022171,0.06440875679254532,0.2851499021053314,-0.2973770201206207,-0.18559788167476654,-0.0900326520204544,-0.12007395923137665,0.279265820980072,-0.2669045925140381,0.05365836247801781,-0.37505385279655457,0.04320601001381874,0.02824530191719532,0.057003069669008255,-0.12392565608024597,-0.11584130674600601,-0.11756876111030579,-0.05552706867456436,-0.23558568954467773,-0.15943901240825653,0.08244593441486359,0.19936344027519226,0.08086495846509933,-0.23236186802387238,0.008223053999245167,0.093756765127182,-0.056686658412218094,0.01652008295059204,-0.07621920108795166,0.03733402118086815,-0.12466636300086975,-0.03310750797390938,-0.09036879986524582,0.22811459004878998,-0.004913812503218651,-0.34824106097221375,-0.001638799556531012,0.3172098398208618,-0.41443967819213867,0.34699779748916626,-0.13256818056106567,-0.20183394849300385,-0.20722655951976776,-0.36569303274154663,0.14619238674640656,-0.009254617616534233,0.05856110528111458,-0.07252203673124313,0.07833578437566757,0.17483842372894287,0.25491663813591003,0.012462714686989784,-0.017304709181189537,-0.014595712535083294,0.0022125167306512594,-0.10993792861700058,-0.1432982236146927,-0.03606100380420685,-0.09242352843284607,0.13070061802864075,-0.09551875293254852,-0.18961426615715027,0.06555269658565521,0.040421679615974426,0.16733336448669434,-0.26211869716644287,0.034000467509031296,0.028384651988744736,-0.04592345654964447,0.052840039134025574,0.11156754940748215,-0.005921043921262026,-0.038002703338861465,0.031221622601151466,-0.09789523482322693,-0.13340546190738678,-0.14441169798374176,0.2148074209690094,0.0570228211581707,0.2160165160894394,-0.16355766355991364,-0.043004054576158524,0.09639596194028854,-0.1117025688290596,-0.01175703015178442,-0.07618583738803864,-0.20520903170108795,-0.07582206279039383,0.19064612686634064,0.17838887870311737,-0.009742183610796928,0.004814976826310158,0.2015828639268875,-0.08884882181882858,-0.21338672935962677,0.1406078040599823,0.01843821443617344,-0.09386216849088669,-0.00856519490480423,0.026344237849116325,-0.07768601179122925,0.23620416224002838,0.09948796033859253,-0.022579830139875412,-0.15857939422130585,-0.07400660216808319,-0.1311061680316925,0.020131953060626984,0.014666185714304447,0.13017286360263824,0.23386834561824799,0.144711434841156,-0.07680594176054001,0.07095619291067123,-0.0647759735584259,-0.2637097239494324,-0.0940914899110794,-0.11341668665409088,-0.09062633663415909,-0.059376686811447144,0.13309265673160553,-0.06994250416755676,-0.10140150040388107,-0.22653058171272278,0.009347666054964066,0.14976318180561066,0.009764867834746838,-0.04806152358651161,0.023530755192041397,-0.05808497592806816,0.023569175973534584,-0.12493152916431427,0.06234933063387871,-0.07983710616827011,0.20832113921642303,0.03902259096503258,-0.09601489454507828,-0.010090669617056847,-0.06998757272958755,0.041323207318782806,-0.06346672773361206,-0.17364589869976044,-0.012641080655157566,-0.03544225916266441,-0.0991261750459671,0.03295303136110306,0.20427538454532623,0.0042819613590836525,0.00022678218374494463,0.1962658017873764,0.19340039789676666,0.2479369193315506,-0.017840076237916946,-0.030493663623929024,-0.24647264182567596,0.04718363285064697,0.04245942085981369,0.5053414106369019,-0.1596715748310089,0.17219066619873047,-0.21720637381076813,0.3261583745479584,-0.039406225085258484,-0.10781210660934448,0.24300873279571533,0.06671362370252609,-0.06426361948251724,-0.07953421026468277,0.03520271182060242,-0.29010096192359924,0.05555305257439613,0.10472742468118668,0.16660548746585846,-0.06609968096017838,-0.06605824083089828,-0.25570425391197205,0.3692793548107147,-0.09251047670841217,-0.05457668751478195,0.009210779331624508,0.15656480193138123,0.17084285616874695,-0.09615712612867355,0.17303705215454102,-0.037746865302324295,-0.0824308767914772,-0.061835262924432755,0.0982806533575058,0.08282312750816345,0.0048323823139071465,0.18966875970363617,-0.24988533556461334,-0.14355643093585968,0.03522057458758354,0.13577879965305328,0.06350265443325043,0.10158650577068329,0.09489719569683075,0.038193944841623306,0.07122035324573517,-0.07886465638875961,0.07115110009908676,0.042564745992422104,-0.0683121308684349,0.027674660086631775,0.014104824513196945,-0.34879282116889954,-0.05497744306921959,-0.04768255725502968,-0.02286088652908802,0.14080025255680084,0.1085628792643547,0.04886159673333168,-0.03929586336016655,0.04753587767481804,-0.09615034610033035,0.05480797588825226,0.07423451542854309,0.0478266105055809,0.06452547013759613,0.11939805001020432,-0.07136942446231842,-0.040681395679712296,-0.03898903355002403,-0.05446067824959755,-0.028841625899076462,0.0890493169426918,0.12407633662223816,0.050727374851703644,-0.07852541655302048,-0.02820153906941414,0.03175957873463631,0.1291196495294571,-0.0822271928191185,0.033116742968559265,0.07577122747898102,-0.049257293343544006,0.17905282974243164,-0.00657274667173624,-0.06788302958011627,0.15277282893657684,-0.0068258256651461124,-0.36282557249069214,-0.015173071064054966,-0.06602919101715088,-0.0737161859869957,-0.02313852496445179,-0.08430173248052597,-0.2138747125864029,-0.0008021070389077067,-0.0735289677977562,0.13104821741580963,0.02693948708474636,0.004403617698699236,-0.17999008297920227,-0.07441359013319016,0.10903631895780563,-0.1402049958705902,-0.07426601648330688,-0.08929385989904404,-0.2656288146972656,-0.09250611066818237,0.017524510622024536,-0.038006268441677094,-0.12119327485561371,0.00602814881131053,-0.2686378061771393,0.1450725495815277,-0.12398672103881836,-0.07164335250854492,-0.18272359669208527,0.2180056869983673,-0.07272729277610779,0.11554444581270218,0.00834320392459631,-0.09794500470161438,0.0313953161239624,0.103483647108078,-0.0911528542637825,0.10641790181398392,0.073557049036026,0.07801898568868637,0.08743884414434433,-0.18421117961406708,0.09942532330751419,0.13659673929214478,