{"version": "0.5.1", "metadata": {"date": {"year": 2023, "month": 6, "day": 25, "hour": 20, "minute": 3, "second": 14}, "loudness": -17.357873916625977, "gain": 0.7582409836623958, "name": "Marshall JCM800 2203", "modeled_by": "Jesco", "gear_type": "amp", "gear_make": "Marshall", "gear_model": "JCM800 2203", "tone_type": "hi_gain"}, "architecture": "WaveNet", "config": {"layers": [{"input_size": 1, "condition_size": 1, "head_size": 8, "channels": 16, "kernel_size": 3, "dilations": [1, 2, 4, 8, 16, 32, 64, 128, 256, 512], "activation": "Tanh", "gated": false, "head_bias": false}, {"input_size": 16, "condition_size": 1, "head_size": 1, "channels": 8, "kernel_size": 3, "dilations": [1, 2, 4, 8, 16, 32, 64, 128, 256, 512], "activation": "Tanh", "gated": false, "head_bias": true}], "head": null, "head_scale": 0.02}, "weights": [-0.04500465467572212, 0.8492773771286011, -0.8081909418106079, -0.8211661577224731, -0.5210188627243042, 0.4789411425590515, -0.0007260061684064567, 0.8970259428024292, -0.18162855505943298, 0.2283121943473816, -0.18296144902706146, -0.39852941036224365, -1.2362408638000488, -0.8717308044433594, -0.6424278020858765, 0.2323547601699829, 0.07341174781322479, 0.28565892577171326, -0.35450279712677, -0.02694471925497055, -0.137285977602005, 0.29962262511253357, -0.06861709803342819, 0.28328001499176025, -0.195996955037117, -0.02092650905251503, 0.3096800446510315, -0.31213417649269104, -0.1210799366235733, 0.15572741627693176, -0.21756072342395782, 0.15728482604026794, -0.27705806493759155, 0.11386353522539139, -0.04175543412566185, 0.07494964450597763, -0.2658883333206177, 0.15793970227241516, -0.1153552457690239, 0.24190470576286316, -0.008020216599106789, 0.12416944652795792, -0.17890769243240356, -0.08721083402633667, -0.2683548033237457, 0.1280011087656021, 0.044491108506917953, 0.2416882961988449, -0.25357624888420105, -0.042040493339300156, 0.27681371569633484, -0.05826336890459061, 0.02267937734723091, 0.20118415355682373, -0.07652131468057632, -0.11738421767950058, 0.2103976011276245, -0.28291162848472595, -0.13288600742816925, 0.11649168282747269, -0.11068067699670792, 0.13110750913619995, -0.3304743468761444, 0.1875048130750656, -0.018163949251174927, 0.05610615015029907, -0.1686377227306366, 0.06615212559700012, -0.06384085863828659, 0.26157617568969727, -0.1398332267999649, 0.09727521985769272, -0.05649285390973091, 0.0902876928448677, 0.2777594029903412, 0.01360941119492054, -0.002666136482730508, 0.02783621847629547, -0.10539892315864563, -0.06388407200574875, -0.2919304072856903, 0.24733605980873108, 0.08309870213270187, -0.05504096299409866, -0.015835769474506378, 0.001923732808791101, -0.17948110401630402, 0.04503098502755165, 0.02040879614651203, 0.05978205427527428, -0.07019946724176407, 0.10856600850820541, -0.03604571893811226, 0.1694810539484024, -0.17895886301994324, 0.04379263147711754, -0.03838096931576729, -0.007981442846357822, 0.0335901603102684, -0.2117028534412384, 0.10908887535333633, 0.25438064336776733, -0.17698583006858826, -0.06239333376288414, 0.021170295774936676, -0.11552786082029343, -0.1390136331319809, 0.043850138783454895, -0.12917335331439972, 0.06295062601566315, -0.20258931815624237, 0.28639423847198486, -0.08941122144460678, -0.0113568976521492, 0.28567633032798767, -0.0555340051651001, 0.13293319940567017, -0.11749449372291565, -0.058648765087127686, -0.12943419814109802, 0.171534463763237, -0.06773977726697922, -0.23488233983516693, 0.18599936366081238, -0.2025309056043625, -0.24297943711280823, 0.08147837221622467, 0.0032071154564619064, 0.09921857714653015, -0.24907004833221436, -0.028768429532647133, -0.01654633693397045, 0.0030654279980808496, 0.0705687627196312, 0.26403188705444336, -0.13046184182167053, -0.03697682544589043, -0.1544075459241867, 0.19348271191120148, 0.1623540222644806, 0.2918613851070404, -0.052472807466983795, 0.05640939623117447, -0.1612548828125, -0.0034868093207478523, -0.12863689661026, -0.07109229266643524, 0.14121776819229126, -0.1505071073770523, -0.27511656284332275, -0.02188493311405182, -0.19873405992984772, -0.18983742594718933, 0.19277967512607574, 0.011714537627995014, -0.3101097345352173, 0.2123708873987198, -0.11390003561973572, 0.13038653135299683, -0.2519298195838928, -0.03150259703397751, 0.14271003007888794, -0.34301647543907166, -0.11467590928077698, -0.16272523999214172, 0.19563892483711243, -0.07796075940132141, 0.17801959812641144, -0.31369471549987793, -0.023084787651896477, 0.2543810307979584, -0.2441844791173935, 0.11805189400911331, 0.18623869121074677, -0.3114113509654999, 0.1051134243607521, -0.14097186923027039, 0.11613176763057709, 0.07752729207277298, -0.017273636534810066, -0.15632115304470062, -0.013529734686017036, -0.02044103294610977, 0.22025969624519348, 0.06743089109659195, 0.19727736711502075, -0.23409034311771393, -0.00939776562154293, -0.23382596671581268, 0.2884410619735718, 0.07633108645677567, 0.1955520063638687, -0.2969133257865906, -0.004030488431453705, 0.04168303683400154, -0.28397491574287415, -0.0994805246591568, 0.1760396510362625, -0.2660263478755951, -0.02078993245959282, 0.1311856061220169, -0.08409637957811356, -0.1166885495185852, 0.04430481418967247, -0.2727299928665161, 0.10106466710567474, -0.22064532339572906, 0.35958048701286316, -0.19201679527759552, 0.07130590826272964, 0.1233551874756813, 0.18989917635917664, -0.06159641593694687, -0.16613779962062836, -0.21443212032318115, 0.09212002158164978, 0.013725241646170616, -0.2887810170650482, 0.19273222982883453, 0.011044966988265514, -0.2295941263437271, 0.2162022590637207, 0.17865543067455292, 0.2176465094089508, -0.19868101179599762, -0.04939068853855133, -0.1383466273546219, 0.0981326475739479, 0.17840754985809326, 0.18968765437602997, -0.07460707426071167, -0.007191674783825874, -0.20619559288024902, 0.19999614357948303, 0.21559558808803558, 0.12150413542985916, -0.011684555560350418, -0.23667465150356293, -0.2623600959777832, 0.12180195748806, 0.18216469883918762, -0.11696427315473557, 0.03088390827178955, 0.13394109904766083, -0.13859723508358002, -0.06295015662908554, 0.23208081722259521, -0.33126500248908997, 0.07851995527744293, 0.10211658477783203, -0.295392781496048, 0.09692662954330444, 0.2503053545951843, 0.1812063455581665, -0.12245282530784607, -0.06224843114614487, -0.052896492183208466, -0.08309757709503174, 0.12104548513889313, -0.13372591137886047, 0.09527065604925156, -0.046201616525650024, 0.10155037045478821, -0.05801041051745415, 0.1734873205423355, -0.020068682730197906, -0.2110367715358734, 0.16593042016029358, 0.15841400623321533, -0.1284317523241043, 0.053665436804294586, -0.10049359500408173, 0.021306365728378296, -0.10416451841592789, -0.0006923831533640623, -0.15533757209777832, 0.26988551020622253, -0.12082473933696747, 0.15118126571178436, -0.0790918841958046, 0.059558890759944916, -0.25430458784103394, 0.04551375284790993, 0.08544392138719559, 0.18586207926273346, -0.02732900343835354, -0.02511131949722767, -0.11133729666471481, 0.09788021445274353, 0.03720824047923088, -0.2630491852760315, 0.19731535017490387, 0.07318741083145142, -0.1738024801015854, 0.08664528280496597, -0.05948977917432785, -0.06768286228179932, 0.011598842218518257, 0.09614424407482147, -0.2288575917482376, 0.05767928436398506, -0.06684204190969467, 0.11936495453119278, -0.16868659853935242, 0.25436457991600037, -0.44040825963020325, 0.16674362123012543, -0.11696477234363556, 0.3859000504016876, -0.11992069333791733, 0.043498553335666656, -0.32526981830596924, 0.15012016892433167, 0.11123645305633545, -0.2540408968925476, 0.19715069234371185, 0.09948572516441345, -0.31735867261886597, 0.15358810126781464, -0.1602616012096405, 0.31072285771369934, -0.0929591953754425, -0.008142879232764244, -0.25340455770492554, 0.1653277426958084, -0.029222290962934494, 0.3896099627017975, -0.07885613292455673, 0.2652181088924408, -0.38539791107177734, 0.008762366138398647, -0.3045344352722168, 0.4339955747127533, -0.03494660556316376, 0.061982352286577225, -0.21997717022895813, 0.22127947211265564, 0.3378138840198517, -0.19947034120559692, 0.23046386241912842, 0.12779387831687927, -0.36190906167030334, 0.21504133939743042, 0.24206599593162537, -0.39620673656463623, 0.22551089525222778, 0.2447306513786316, -0.2528572082519531, 0.009084010496735573, -0.24991315603256226, 0.32191202044487, -0.029207104817032814, 0.003700703615322709, -0.16048550605773926, 0.06496462970972061, 0.07283169776201248, 0.18916603922843933, 0.06305497884750366, -0.11428562551736832, -0.18776892125606537, -0.09108920395374298, -0.15435753762722015, -0.3393918573856354, 0.11979116499423981, 0.07144572585821152, -0.09505356103181839, 0.11838552355766296, -0.12388741225004196, 0.11881361156702042, -0.035500649362802505, -0.06340499222278595, -0.02368236519396305, -0.1029532253742218, -0.06089438125491142, 0.08032386004924774, -0.08653856813907623, 0.12164578586816788, -0.10780823230743408, 0.12709204852581024, 0.11570028215646744, 0.33383169770240784, -0.06550655514001846, 0.06875209510326385, -0.05868091806769371, 0.07155249267816544, 0.1359841525554657, -0.1629827320575714, 0.10672701150178909, -0.06168430671095848, -0.15650665760040283, 0.01915847510099411, -0.042572133243083954, -0.3045160472393036, -0.07901608943939209, -0.12429549545049667, -0.14478641748428345, 0.10683160275220871, 0.004717682488262653, 0.2117166817188263, 0.0717155709862709, 0.20573924481868744, -0.35964903235435486, -0.1118253543972969, 0.05929507687687874, 0.44114670157432556, -0.021726451814174652, 0.20804262161254883, -0.24893911182880402, -0.13556045293807983, 0.1518687605857849, -0.4461822509765625, -0.10604014992713928, 0.19592532515525818, -0.36582469940185547, -0.19467352330684662, -0.12395882606506348, 0.3177291452884674, 0.04756344109773636, 0.07389173656702042, -0.08461359888315201, -0.00404948927462101, -0.15595103800296783, 0.37085071206092834, 0.15652403235435486, 0.16690441966056824, -0.49412351846694946, -0.08012870699167252, -0.18718481063842773, 0.2888007164001465, 0.11247286200523376, -0.03425953537225723, -0.2901255190372467, 0.04632953554391861, 0.09987984597682953, -0.4709446132183075, -0.11963029950857162, 0.09708311408758163, -0.48022162914276123, -0.02049580216407776, -0.0643363744020462, -0.5066801309585571, -0.23240527510643005, 0.043982069939374924, -0.2861081659793854, -0.22409184277057648, 0.01348915696144104, 0.3425423204898834, 0.062110476195812225, 0.12353242933750153, -0.32181882858276367, 0.32118546962738037, -0.0061981771141290665, 0.3269360363483429, -0.07255038619041443, -0.019277390092611313, -0.04614977166056633, 0.14219112694263458, 0.14695928990840912, -0.2864348292350769, 0.09621742367744446, -0.0629255399107933, -0.23564566671848297, 0.1610725075006485, -0.19196809828281403, 0.21520407497882843, -0.060118965804576874, 0.12853890657424927, -0.20707967877388, 0.04596374183893204, -0.12031460553407669, 0.23276899755001068, 0.011278297752141953, 0.16653411090373993, -0.202701598405838, 0.21302016079425812, -0.2325781285762787, 0.03356074169278145, -0.09624754637479782, 0.008379396982491016, -0.07515290379524231, 0.043627068400382996, 0.020124707370996475, -0.3018420338630676, 0.23798856139183044, 0.062213242053985596, -0.061229027807712555, 0.22102436423301697, 0.15690822899341583, -0.16748180985450745, 0.08446906507015228, 0.04729966074228287, -0.1681838035583496, 0.21212255954742432, -0.21579696238040924, 0.34297966957092285, -0.2049064040184021, -0.3652871251106262, 0.03452802821993828, 0.3942410945892334, 0.3758220970630646, -0.23827941715717316, -0.1543646901845932, -0.1687636524438858, 0.17666076123714447, 0.3647260069847107, -0.3174293041229248, 0.14317621290683746, 0.3084374666213989, -0.29094770550727844, 0.14106565713882446, 0.20590132474899292, 0.3351249694824219, -0.13223017752170563, -0.301556795835495, -0.12593930959701538, 0.1250002682209015, 0.12638597190380096, 0.2506957948207855, -0.013599012047052383, -0.2651805877685547, -0.20779328048229218, 0.06393441557884216, 0.3009065091609955, 0.12765324115753174, -0.18741494417190552, -0.32156094908714294, -0.0882503017783165, 0.0651036947965622, 0.25439009070396423, -0.3208746314048767, 0.24433265626430511, 0.3937356173992157, -0.34819287061691284, -0.01794997602701187, 0.14490003883838654, -0.24124599993228912, 0.060959283262491226, 0.15967826545238495, -0.29802754521369934, 0.12761043012142181, 0.1773933321237564, 0.2792285680770874, -0.11518759280443192, -0.22314707934856415, 0.307142436504364, -0.0002826436539180577, -0.15047311782836914, -0.27600595355033875, 0.06042082607746124, 0.16067443788051605, 0.14478647708892822, -0.2411039173603058, 0.1298724114894867, 0.189281165599823, -0.0800904631614685, -0.02956821769475937, 0.242668017745018, -0.15075469017028809, 0.0712842047214508, -0.26827579736709595, -0.01781931146979332, -0.05679074674844742, 0.08399298787117004, -0.10958307236433029, -0.2221740037202835, -0.13933183252811432, 0.08104445785284042, -0.005122186616063118, 0.38237524032592773, -0.064644455909729, 0.06424795091152191, -0.20449896156787872, 0.056693803519010544, -0.06839311867952347, 0.27096712589263916, 0.01942359283566475, -0.0716598704457283, 0.15928205847740173, -0.04999445751309395, 0.1180577427148819, 0.2374405413866043, -0.23264235258102417, -0.14877933263778687, 0.31093400716781616, -0.12865741550922394, -0.09412462264299393, 0.3110498785972595, -0.06078936532139778, 0.09479688107967377, -0.11355675756931305, 0.10759652405977249, -0.17143020033836365, -0.26844513416290283, 0.04170404374599457, 0.19007062911987305, 0.2356846183538437, -0.007735897786915302, 0.037106968462467194, -0.04396342486143112, 0.010031145066022873, -0.03198391571640968, -0.23141853511333466, -0.21675948798656464, 0.23007874190807343, -0.23178303241729736, -0.18121448159217834, 0.16489675641059875, 0.10906288772821426, 0.0401112399995327, -0.11157288402318954, -0.08021298050880432, -0.1586722731590271, 0.173399418592453, 0.11082006245851517, 0.16515694558620453, 0.031950779259204865, -0.08868579566478729, -0.08469825983047485, 0.2365882694721222, 0.18901942670345306, 0.03705974668264389, 0.021165095269680023, -0.13303625583648682, -0.23940697312355042, 0.06900577247142792, -0.2765883207321167, 0.004633583594113588, 0.07803060114383698, -0.3085483908653259, -0.12580016255378723, 0.18270999193191528, -0.1369042992591858, -0.06867921352386475, 0.10543476790189743, -0.12249892204999924, -0.1573011726140976, 0.033280838280916214, 0.005568275228142738, -0.0058037294074893, -0.019008493050932884, -0.24546946585178375, 0.15070800483226776, 0.05395649001002312, 0.13637709617614746, -0.24511052668094635, 0.10652165114879608, -0.20320183038711548, 0.2597827613353729, -0.08788861334323883, -0.15547038614749908, 0.22268645465373993, -0.029957236722111702, -0.00796420220285654, 0.04364298656582832, -0.09004377573728561, 0.058594588190317154, -0.11270678043365479, 0.11195579171180725, -0.15592513978481293, 0.14263296127319336, -0.02024221047759056, 0.08701319992542267, -0.03823883831501007, -0.1441449373960495, -0.1227877289056778, 0.2738911807537079, -0.006651328410953283, 0.2328815758228302, -0.18477874994277954, 0.10079646855592728, -0.25443562865257263, 0.11617513000965118, 0.00040952974813990295, -0.09083982557058334, 0.19815056025981903, 0.1284904032945633, -0.14031006395816803, 0.14123675227165222, 0.13405366241931915, -0.159661203622818, 0.2711178958415985, -0.06145627051591873, -0.14343953132629395, 0.14259245991706848, 0.09562956541776657, 0.2404244840145111, -0.1487274467945099, -0.03472491353750229, 0.14217275381088257, 0.010989080183207989, -0.11004766821861267, -0.1494864821434021, 0.09548740833997726, 0.2832450568675995, 0.06620757281780243, -0.13659121096134186, -0.043804366141557693, -0.051560502499341965, 0.030796991661190987, -0.12482239305973053, 0.00024184361973311752, 0.062444236129522324, -0.2664404511451721, -0.02693270519375801, -0.10200345516204834, 0.12448862940073013, 0.13931001722812653, 0.1898002326488495, -0.12824374437332153, 0.035276442766189575, -0.021395361050963402, 0.07419215142726898, -0.0560358501970768, -0.13358591496944427, 0.0021526000928133726, -0.07842504233121872, 0.030037788674235344, 0.19508236646652222, 0.1395137757062912, 0.10844111442565918, -0.038213010877370834, -0.04557715356349945, -0.033831894397735596, -0.2356177121400833, -0.024289490655064583, 0.03836146742105484, -0.009220833890140057, -0.054695844650268555, 0.09612193703651428, -0.216739222407341, 0.03665928170084953, 0.11562992632389069, -0.1756143420934677, -0.034718140959739685, -0.13291767239570618, 0.1707637757062912, 0.2516552209854126, -0.3432093560695648, -0.11856770515441895, -0.3371826708316803, 0.16803684830665588, 0.2136077880859375, 0.3376399278640747, -0.30496522784233093, -0.12400615960359573, 0.3484644889831543, -0.17160724103450775, -0.27066126465797424, 0.2197912633419037, -0.32014304399490356, -0.32159510254859924, -0.23147690296173096, 0.3647930324077606, 0.3099239468574524, 0.19929835200309753, -0.11155730485916138, -0.1513255387544632, -0.11280619353055954, 0.20637953281402588, 0.0982259064912796, 0.2654029130935669, -0.17424741387367249, -0.3093980848789215, -0.09082915633916855, 0.312217116355896, 0.07434114813804626, 0.17967064678668976, -0.12746883928775787, -0.2963266968727112, 0.20510269701480865, -0.21837814152240753, -0.3142765462398529, 0.30344095826148987, -0.1956637054681778, -0.11458803713321686, 0.1336814910173416, -0.12431282550096512, -0.28964492678642273, 0.37870094180107117, -0.41839972138404846, -0.33335208892822266, -0.1886337697505951, 0.3214157223701477, 0.11888524144887924, -0.03368033468723297, 0.018517909571528435, -0.12584473192691803, -0.10907118022441864, 0.1355692595243454, 0.01289807353168726, -0.09790794551372528, -0.054447855800390244, 0.09664950519800186, 0.026880012825131416, 0.01555519737303257, -0.013197395019233227, -0.08577755838632584, 0.009119214490056038, -0.04689895734190941, 0.002311909571290016, 0.6155351400375366, -0.3182699978351593, 0.6919795870780945, -0.5235997438430786, -0.12413781881332397, 0.7871588468551636, 0.9012185335159302, -0.5796332955360413, 0.2708759307861328, -0.010118437930941582, -0.7193918824195862, -0.3352551758289337, 0.18235322833061218, -0.7320468425750732, 0.31185346841812134, 0.6341090798377991, -0.01111820712685585, -0.06167349964380264, -0.04057500883936882, 0.05027539283037186, 0.15631361305713654, -0.036530010402202606, 0.011483474634587765, -0.11676666885614395, -0.0542132593691349, -6.850210047559813e-05, 0.03602243587374687, -0.15540191531181335, 0.040738292038440704, 0.07284915447235107, 0.20586594939231873, -0.11860667169094086, 0.28980085253715515, 0.023185640573501587, -0.3046397268772125, 0.1737462878227234, 0.0971597358584404, -0.1395767331123352, -0.16312137246131897, -0.013625258579850197, -0.14646711945533752, 0.032388992607593536, -0.19132402539253235, 0.051219094544649124, 0.08197032660245895, 0.007926061749458313, 0.10053925216197968, 0.16421286761760712, 0.20017977058887482, 0.04296630248427391, -0.06476671248674393, 0.24770674109458923, 0.010443947277963161, -0.18838141858577728, -0.04412180557847023, -0.23772010207176208, -0.044429466128349304, -0.2800029516220093, 0.3677159547805786, -0.29258808493614197, 0.14323541522026062, 0.443818062543869, 0.08186491578817368, -0.1663428097963333, 0.20737779140472412, -0.22834335267543793, -0.06490840762853622, -0.23788297176361084, 0.08942162245512009, 0.1918625384569168, -0.0042821671813726425, 0.1042298749089241, -0.2458413988351822, 0.2211945801973343, 0.03616446629166603, -0.10567843168973923, 0.1302706003189087, 0.18438689410686493, -0.1643153578042984, -0.16548077762126923, -0.34966617822647095, -0.1858934909105301, -0.14842331409454346, 0.009304088540375233, 0.2566015422344208, 0.15161748230457306, 0.21941882371902466, -0.19609016180038452, 0.25479719042778015, 0.27322331070899963, -0.2402317076921463, 0.12955833971500397, -0.02986927516758442, 0.053587693721055984, -0.18651364743709564, 0.22395409643650055, -0.08747732639312744, -0.0033499777782708406, 0.07877982407808304, 0.08716495335102081, 0.2872832417488098, 0.15665793418884277, 0.24038591980934143, 0.08729405701160431, 0.13297811150550842, -0.04479759559035301, -0.21238505840301514, -0.10906317830085754, 0.045169901102781296, -0.10788033902645111, 0.13434921205043793, 0.09138067811727524, 0.07443146407604218, 0.13623106479644775, 0.1056947186589241, 0.2518521249294281, -0.570926308631897, -0.18044085800647736, 0.14019593596458435, -0.17097745835781097, 0.06167863681912422, -0.1952151656150818, -0.44844478368759155, 0.5559649467468262, -0.013493780046701431, -0.24451857805252075, 0.07047045975923538, -0.033391423523426056, 0.22983767092227936, -0.040073245763778687, 0.39591193199157715, -0.34308376908302307, -0.13961724936962128, 0.18788693845272064, 0.3659879267215729, 0.18620066344738007, 0.19697090983390808, -0.0486995093524456, 0.08247869461774826, -0.35658347606658936, 0.22341550886631012, -0.2007426917552948, 0.026274308562278748, 0.21403762698173523, -0.17185643315315247, -0.028369231149554253, -0.23994159698486328, -0.19505192339420319, 0.027302494272589684, -0.05783572047948837, -0.21593257784843445, -0.036405351012945175, -0.2730942666530609, -0.24190513789653778, 0.2342422753572464, 0.2311108559370041, -0.04843812435865402, -0.061111584305763245, 0.06363104283809662, -0.1119004487991333, -0.36921966075897217, -0.07674381136894226, 0.2778145372867584, -0.31220945715904236, -0.16584835946559906, 0.018544970080256462, 0.19234226644039154, -0.08766741305589676, 0.03235941752791405, 0.2892867624759674, 0.1557755023241043, 0.10011778026819229, 0.20960107445716858, 0.11313735693693161, -0.2116173952817917, 0.020674636587500572, 0.1882304847240448, 0.2460516393184662, -0.35209816694259644, 0.2657001316547394, -0.3460226058959961, -0.1946994811296463, 0.011864768341183662, -0.2588273286819458, 0.13566045463085175, -0.2822151780128479, -0.30003297328948975, 0.14456455409526825, -0.2584473490715027, 0.11025670915842056, 0.13785120844841003, 0.29837578535079956, 0.03843358904123306, -0.08999519050121307, -0.16010341048240662, -0.006198251619935036, 0.309674471616745, -0.2346624881029129, -0.2802834212779999, -0.04187692701816559, -0.16044718027114868, -0.2586604952812195, 0.3978436589241028, -0.18374381959438324, -0.14507564902305603, 0.42110899090766907, -0.4567025899887085, -0.5801199674606323, -0.31697380542755127, 0.08731826394796371, 0.042505014687776566, 0.009940626099705696, -0.0020537273958325386, -0.13380439579486847, -0.005691953469067812, 0.17552104592323303, 0.3036384880542755, 0.00018807991000358015, -0.0850929319858551, 0.12804336845874786, 0.09266725182533264, -0.2020891308784485, -0.05024231970310211, 0.17106054723262787, -0.5551188588142395, -0.3503580391407013, -0.023297743871808052, 0.025098169222474098, -0.37464120984077454, 0.34196585416793823, 0.40378960967063904, 0.07443279027938843, 0.0961206927895546, 0.15787050127983093, -0.17364120483398438, 0.2469159960746765, -0.20945072174072266, -0.28996530175209045, -0.1696106642484665, 0.34018898010253906, -0.4197913706302643, 0.15908586978912354, -0.016053875908255577, -0.3050785958766937, 0.07212256640195847, 0.029166270047426224, 0.2336113303899765, 0.2513176202774048, -0.2816181778907776, 0.21271675825119019, 0.06750189512968063, 0.02093827724456787, 0.16329848766326904, 0.13145390152931213, -0.12708613276481628, -0.08281370997428894, 0.44425106048583984, -0.057521723210811615, 0.12059630453586578, 0.06665688008069992, -0.274929404258728, 0.20779448747634888, 0.04200473055243492, 0.208910271525383, -0.18956291675567627, -0.23296420276165009, -0.1023441031575203, -0.20487548410892487, 0.05529945343732834, 0.21596668660640717, 0.03483476862311363, -0.05126165598630905, 0.1822083741426468, -0.13302156329154968, 0.1838657408952713, -0.12986505031585693, -0.11637929826974869, -0.010004119016230106, 0.07167117297649384, 0.14774087071418762, 0.046666570007801056, -0.07637108862400055, -0.03212760388851166, -0.08369442820549011, -0.020887097343802452, -0.02786840684711933, 0.12600496411323547, -0.009141188114881516, -0.0657544955611229, -0.1266694962978363, -0.08751759678125381, 0.1367902010679245, -0.07714822888374329, 0.09424314647912979, -0.27598580718040466, 0.13103845715522766, -0.007295636460185051, -0.22345009446144104, 0.1946277767419815, 0.04237401485443115, 0.2865161597728729, -0.4187954366207123, 0.28180813789367676, 0.24006745219230652, -0.26747825741767883, 0.013048174791038036, 0.16354884207248688, -0.25910452008247375, -0.0396663062274456, 0.12576261162757874, -0.24836817383766174, -0.22684447467327118, -0.21894226968288422, 0.22279822826385498, -0.0736989974975586, 0.09417790919542313, 0.05481613799929619, -0.0013190105091780424, -0.005018771626055241, -0.1932254582643509, -0.0008499816176481545, -0.3481840491294861, 0.14489561319351196, 0.09296419471502304, 0.3962444067001343, -0.012837155722081661, 0.17952173948287964, 0.25992336869239807, -0.08270598948001862, -0.033243294805288315, -0.35429754853248596, 0.2914098799228668, 0.12075875699520111, 0.19196388125419617, -0.05659453198313713, -0.11714852601289749, 0.07700634002685547, 0.03281935304403305, 0.28819864988327026, -0.27767786383628845, -0.13355150818824768, -0.11455953866243362, -0.12453082203865051, -0.13166899979114532, 0.4244398772716522, -0.2311331182718277, -0.05340699478983879, 0.06372848153114319, 0.15636472404003143, -0.19156008958816528, 0.06642088294029236, -0.05837727710604668, 0.030329277738928795, -0.3165375292301178, 0.0714680477976799, 0.034537747502326965, -0.05084516108036041, 0.17403095960617065, 0.06750169396400452, -0.27692627906799316, -0.1935649961233139, -0.13791796565055847, 0.267575204372406, 0.1378566324710846, 0.08476655185222626, -0.3737761080265045, -0.09690529108047485, 0.0391242578625679, 0.1701623797416687, -0.157868430018425, -0.24129408597946167, 0.4602775275707245, 0.16390614211559296, -0.042288657277822495, 0.24834297597408295, -0.000618489517364651, 0.10533465445041656, 0.1345236897468567, -0.07117471098899841, -0.10861779004335403, 0.32212090492248535, -0.09743113070726395, 0.07540218532085419, -0.18593189120292664, -0.1378203183412552, -0.04488614946603775, 0.08484672755002975, 0.15689076483249664, 0.1257638931274414, -0.07753243297338486, -0.08648200333118439, -0.0965985655784607, 0.10006415098905563, 0.12293554842472076, -0.010369263589382172, -0.07423842698335648, 0.08350818604230881, -0.029270609840750694, 0.08990155905485153, -0.004112554714083672, 0.0806971937417984, 0.10403416305780411, -0.014642374590039253, -0.17040985822677612, -0.02736927568912506, 0.026382241398096085, -0.06090109795331955, 0.11041852831840515, -0.06397917866706848, -0.11051066964864731, -0.01645634137094021, -0.009854442439973354, 0.17634665966033936, -0.13734792172908783, -0.3384513258934021, -0.23460115492343903, 0.11517041176557541, 0.052142076194286346, -0.09236744791269302, 0.08478943258523941, -0.07277613878250122, 0.054640088230371475, 0.19937317073345184, -0.12288545817136765, 0.11542967706918716, 0.11367706954479218, 0.01731458492577076, 0.3505513072013855, 0.08517830818891525, -0.026170698925852776, 0.2686668336391449, 0.1424587368965149, -0.08657649159431458, 0.03916165232658386, 0.02834537997841835, 0.017386123538017273, 0.21085582673549652, 0.0978625938296318, 0.1588592678308487, -0.11274753510951996, -0.413300096988678, 0.12862011790275574, 0.0508551262319088, -0.3142198920249939, -0.09163936972618103, -0.2073754519224167, 0.21438048779964447, -0.2469898760318756, -0.05006474256515503, 0.24808967113494873, 0.24994342029094696, 0.22331295907497406, -0.005605402868241072, -0.27253496646881104, -0.024861395359039307, 0.3520282208919525, 0.22623559832572937, -0.07226751744747162, -0.18482281267642975, 0.04191885143518448, -0.1792084127664566, 0.290541410446167, 0.5137094259262085, 0.19461782276630402, -0.21049244701862335, 0.23128068447113037, 0.22663365304470062, -0.17160093784332275, -0.13644208014011383, -0.17624402046203613, -0.13331569731235504, 0.2827301621437073, -0.1326822191476822, -0.018530135974287987, -0.04877666011452675, -0.14740227162837982, -0.08609695732593536, 0.13045403361320496, 0.24429187178611755, 0.19916433095932007, -0.21276794373989105, -0.06790588796138763, 0.006521983537822962, 0.19526450335979462, 0.3105265200138092, 0.15628330409526825, -0.10796616971492767, 0.02884605899453163, -0.07365424931049347, -0.10176432877779007, 0.08895113319158554, 0.11168242245912552, -0.11982697248458862, -0.10889056324958801, -0.15577532351016998, -0.10844700783491135, -0.009650452062487602, -0.07048193365335464, 0.06731031835079193, -0.06873481720685959, -0.008921162225306034, 0.06530086696147919, 0.03483675792813301, 0.13433748483657837, 0.05365002155303955, 0.09322718530893326, -0.06122608855366707, 0.004583291709423065, -0.05193963274359703, 0.05418292433023453, 0.045420631766319275, -0.018575964495539665, -0.021704290062189102, -0.11078421771526337, 0.14882144331932068, 0.11286049336194992, -0.47387486696243286, -0.42818859219551086, -0.0305787343531847, -0.13532383739948273, -0.00572983268648386, -0.06610597670078278, -0.09088994562625885, -0.055030401796102524, -0.20684638619422913, 0.09097497165203094, 0.09343326836824417, -0.019765643402934074, -0.02851151116192341, -0.01016286388039589, -0.03352157399058342, -0.268297404050827, 0.15845155715942383, 0.047978732734918594, -0.15224149823188782, 0.0898112803697586, -0.06457030028104782, -0.09233281761407852, 0.12958942353725433, -0.03092270903289318, 0.4592878222465515, -0.27984029054641724, -0.09094113111495972, 0.13693448901176453, -0.2906346321105957, 0.08371172845363617, -0.06904269009828568, -0.17680151760578156, -0.040978554636240005, 0.14247380197048187, -0.2283497154712677, 0.2415728121995926, 0.11381065845489502, 0.2868076264858246, -0.15491580963134766, 0.3016015887260437, -0.21054334938526154, 0.020818617194890976, -0.17679084837436676, 0.23679803311824799, 0.17278531193733215, 0.13483719527721405, 0.18648239970207214, -0.04391804710030556, 0.506532609462738, 0.032600320875644684, 0.08486378937959671, 0.16627158224582672, -0.3025967478752136, 0.06963689625263214, 0.011567163281142712, 0.07108476758003235, -0.19109956920146942, -0.10446912795305252, 0.029136400669813156, 0.04512326419353485, 0.03307907655835152, 0.050247758626937866, 0.027903219684958458, 0.07484088093042374, 0.09186286479234695, -0.07235681265592575, -0.09065434336662292, -0.18929004669189453, 0.2360825091600418, 0.07244919240474701, -0.07650389522314072, 0.04713142663240433, 0.1621863692998886, 0.4435368478298187, 0.2014036774635315, 0.25368255376815796, 0.28325989842414856, -0.009747556410729885, 0.13440635800361633, -0.09701991081237793, 0.012737433426082134, 0.04771384969353676, 0.19796808063983917, -0.15414747595787048, -0.07563956081867218, -0.22713333368301392, 0.011998748406767845, 0.06598720699548721, 0.1532965451478958, -0.06522240489721298, 0.1414789855480194, -0.1432199329137802, 0.056111060082912445, -0.20842033624649048, -0.20726856589317322, 0.10744638741016388, 0.06937135010957718, 0.16826437413692474, 0.2332647740840912, 0.02745026908814907, 0.17680510878562927, -0.14688001573085785, -0.18831859529018402, 0.036962542682886124, 0.04356822371482849, -0.05025386065244675, -0.06103876233100891, -0.06957051157951355, -0.1257885992527008, -0.06429508328437805, 0.07918167114257812, 0.15919260680675507, -0.0011485520517453551, 0.05515022203326225, -0.12099318206310272, -0.09295392781496048, 0.18132786452770233, -0.04235075041651726, -0.0836029052734375, 0.008197952061891556, -0.17239050567150116, 0.1731409728527069, -0.3399723172187805, 0.19182567298412323, 0.05595262348651886, -0.170662522315979, -0.017591901123523712, -0.014580031856894493, 0.24160747230052948, 0.09121015667915344, 0.037489358335733414, -0.12476794421672821, -0.036401908844709396, -0.22916187345981598, 0.22813859581947327, 0.10669857263565063, 0.20295462012290955, -0.16283883154392242, 0.1269412636756897, -0.16427461802959442, 0.40220606327056885, -0.058840375393629074, -0.22532230615615845, 0.19296042621135712, -0.12341330200433731, 0.09063953161239624, -0.2109779566526413, -0.43503302335739136, 0.06422609835863113, -0.13886815309524536, -0.018894802778959274, -0.028927475214004517, 0.027609575539827347, 0.026367373764514923, 0.039293911308050156, 0.12925280630588531, 0.16086585819721222, 0.19829659163951874, -0.061394836753606796, -0.17873261868953705, -0.23709596693515778, -0.1540217101573944, 0.15383535623550415, 0.21034619212150574, 0.03114386275410652, 0.08472894877195358, 0.05586543679237366, -0.19361306726932526, 0.2630736827850342, 0.12523876130580902, 0.01833556592464447, -0.15104272961616516, -0.09902465343475342, 0.17467772960662842, 0.29039740562438965, -0.20886985957622528, -0.0010850877733901143, -0.17510521411895752, -0.24480187892913818, 0.24775481224060059, 0.011639428324997425, 0.03440938517451286, -0.014377876184880733, -0.07213079184293747, -0.009790624491870403, -0.039463989436626434, 0.45584744215011597, -0.21234288811683655, -0.2634076476097107, -0.002580813830718398, 0.2162964791059494, -0.09196299314498901, 0.14887283742427826, 0.26001203060150146, 0.039477333426475525, 0.2654121220111847, -0.22901466488838196, -0.10784976184368134, -0.06455496698617935, 0.01786785013973713, -0.044554710388183594, -0.1092258095741272, -0.14267411828041077, -0.13272732496261597, 0.164200559258461, 0.135519340634346, -0.03751092404127121, -0.2326718419790268, 0.01595175638794899, 0.02837321348488331, -0.0037299192044883966, 0.04181157425045967, -0.10963363200426102, -0.00012026957847410813, 0.08549795299768448, -0.10425054281949997, 0.196590855717659, -0.3025442063808441, -0.25874897837638855, -0.04359061270952225, 0.012057258747518063, 0.13856478035449982, -0.35063624382019043, -0.09508006274700165, 0.13611602783203125, -0.10093270242214203, 0.04996245354413986, 0.2458391636610031, -0.006327060051262379, 0.1364128291606903, -0.044698700308799744, -0.1064567118883133, -0.14327818155288696, 0.19139541685581207, -0.5088808536529541, -0.01988997496664524, -0.24340437352657318, 0.10485421866178513, -0.077336885035038, -0.07796546071767807, 0.21224015951156616, -0.08363993465900421, -0.41207656264305115, -0.26969435811042786, -0.12614430487155914, -0.049722447991371155, 0.21539568901062012, 0.01387860719114542, 0.12647603452205658, -0.10475581139326096, -0.03131585195660591, -0.06677664071321487, -0.05949776992201805, -0.1431015580892563, -0.24370720982551575, -0.15402448177337646, 0.20521767437458038, -0.16025638580322266, -0.00855658482760191, -0.2766413688659668, 0.275571346282959, -0.08785397559404373, -0.15839317440986633, 0.2041337490081787, -0.002703737933188677, 0.7111436724662781, -0.2589280605316162, 0.0698925107717514, 0.2584587037563324, -0.1921221762895584, 0.014546908438205719, 0.6142010688781738, -0.14261607825756073, -0.08144882321357727, 0.25353822112083435, -0.12953287363052368, -0.024801233783364296, -0.20007897913455963, 0.3246220052242279, -0.018886344507336617, -0.01954718492925167, -0.1280861794948578, 0.22723093628883362, 0.36567649245262146, -0.2122250348329544, 0.09924300760030746, -0.3161540925502777, 0.16959473490715027, 0.21468083560466766, 0.22259745001792908, -0.11960916221141815, 0.17826317250728607, 0.5178037881851196, -0.16783511638641357, 0.06193367391824722, -0.40477830171585083, 0.10888411849737167, 0.042085200548172, -0.03854691609740257, -0.006679351907223463, 0.08460694551467896, -0.01910659670829773, -0.07032078504562378, 0.0006080228486098349, -0.017215309664607048, -0.088435098528862, -0.1250244677066803, 0.06945821642875671, 0.17052510380744934, 0.07782310247421265, 0.10102921724319458, 0.06643351167440414, 0.009874007664620876, 0.012821067124605179, -0.023112604394555092, -0.06399590522050858, 0.12566377222537994, -0.018031924962997437, 0.09191453456878662, 0.025095397606492043, 0.20128405094146729, 0.12042516469955444, 0.1777496337890625, 0.025529971346259117, 0.1704401671886444, -0.11381401121616364, -0.05327474698424339, -0.12486918270587921, 0.14752809703350067, -0.11319092661142349, -0.00018772034673020244, -0.03692745789885521, 0.08984590321779251, -0.13870838284492493, -0.047159407287836075, -0.0005101997521705925, -0.18409179151058197, -0.19804982841014862, 0.23750503361225128, 0.3053312301635742, 0.21945150196552277, 0.03376195579767227, 0.0828249529004097, 0.0651681125164032, -0.2401745319366455, -0.08976060897111893, 0.06363549828529358, 0.03459663316607475, 0.16731610894203186, 0.21581003069877625, -0.01528831385076046, -0.058794595301151276, -0.16011102497577667, -0.22893372178077698, 0.3725452125072479, 0.21142803132534027, -0.050243426114320755, -0.049307651817798615, -0.11396108567714691, -0.14770947396755219, 0.1601085066795349, 0.15481486916542053, -0.09755930304527283, -0.15730321407318115, -0.10917507112026215, 0.1691097468137741, 0.023380959406495094, -0.1686914563179016, -0.11881886422634125, -0.2148704081773758, -0.03963475674390793, 0.11133022606372833, 0.053227122873067856, 0.11379148811101913, 0.10298977792263031, -0.3428623080253601, -0.06183523312211037, -0.1293426901102066, 0.31281837821006775, 0.17619246244430542, -0.12973962724208832, 0.21807315945625305, -0.16009078919887543, -0.03644787520170212, 0.43651318550109863, 0.21195869147777557, 0.017636112868785858, 0.08209214359521866, -0.007052501663565636, -0.06839235126972198, 0.07546363025903702, -0.09104147553443909, 0.13079342246055603, -0.11508473753929138, -0.1570766568183899, -0.08496372401714325, -0.0069509996101260185, -0.08352366089820862, 0.08843782544136047, 0.02768830582499504, 0.1614421010017395, 0.046143144369125366, 0.15570546686649323, -0.23592904210090637, 0.1781935840845108, -0.024338172748684883, -0.10301163792610168, 0.07982949912548065, -0.1694292277097702, 0.3610144555568695, -0.021123653277754784, -0.11642566323280334, 0.1111646369099617, -0.1734245866537094, -0.18534092605113983, 0.3725687861442566, -0.006357915699481964, 0.07538338005542755, 0.13703346252441406, -0.08506783843040466, 0.0744953602552414, -0.11564576625823975, 0.19762806594371796, 0.029348719865083694, -0.08385167270898819, 0.03168361634016037, -0.19926977157592773, 0.3227901756763458, -0.08478201925754547, 0.0350106880068779, -0.12606236338615417, -0.019416354596614838, -0.2670309245586395, -0.005794157274067402, -0.14013783633708954, -0.2682318389415741, 0.48054763674736023, -0.33867478370666504, 0.029597247019410133, -0.1956930309534073, -0.07327817380428314, -0.001602390082553029, -0.014570601284503937, 0.03485836461186409, -0.13496792316436768, -0.06206025183200836, -0.12364986538887024, 0.08132216334342957, 0.22629961371421814, -0.024568632245063782, -0.041973430663347244, 0.005388191901147366, 0.11015349626541138, -0.03650423511862755, -0.0677594244480133, 0.10067076981067657, -0.314777135848999, 0.15358178317546844, 0.4341067671775818, 0.1940363198518753, 0.11175704002380371, -0.15013079345226288, -0.12334038317203522, 0.20217140018939972, 0.0529518686234951, 0.08725087344646454, 0.14978456497192383, -0.22062799334526062, 0.006806572433561087, -0.23993957042694092, 0.060063909739255905, -0.09981177747249603, -0.05793668329715729, 0.06301993876695633, -0.13692791759967804, 0.17689567804336548, 0.13296304643154144, 0.073740154504776, -0.14787277579307556, 0.12618254125118256, -0.41898930072784424, -0.045730993151664734, 0.1717342883348465, -0.49019402265548706, -0.11823045462369919, 0.024508098140358925, -0.20496831834316254, -0.12745168805122375, -0.037634436041116714, 0.15901532769203186, -0.008911078795790672, -0.042477063834667206, -0.34552255272865295, -0.23664267361164093, -0.41035401821136475, 0.16449476778507233, 0.17543913424015045, 0.22051343321800232, 0.034014347940683365, -0.057134345173835754, -0.12374521791934967, 0.38958939909935, 0.34000760316848755, 0.016362948343157768, -0.11048338562250137, 0.2554008960723877, -0.09340269863605499, -0.23697257041931152, -0.21011407673358917, 0.10015978664159775, 0.07457487285137177, 0.019149823114275932, -0.16608771681785583, -0.2485579401254654, -0.3002873361110687, -0.09882032126188278, 0.022842878475785255, -0.06373082101345062, -0.17396296560764313, -0.04449211061000824, 0.29079118371009827, 0.3770267963409424, 0.19027499854564667, 0.10989560931921005, -0.06073863059282303, 0.17929111421108246, 0.11280487477779388, -0.09481028467416763, 0.013752494938671589, 0.014813151210546494, -0.02776038460433483, 0.10134474188089371, 0.13362428545951843, -0.19789472222328186, 0.2721749246120453, -0.11323946714401245, -0.01793523319065571, 0.06929904967546463, 0.18918205797672272, 0.2454366832971573, 0.045294661074876785, 0.156587615609169, -0.01566067710518837, 0.1521809846162796, -0.16716456413269043, 0.13687795400619507, 0.13383662700653076, 0.0791664570569992, 0.00508455466479063, -0.010614375583827496, -0.05460955947637558, 0.07026652991771698, 0.2884843349456787, 0.04118077829480171, 0.03732404112815857, -0.3329954743385315, -0.4550955593585968, -0.1477278172969818, 0.2884324789047241, -0.20151463150978088, 0.40678441524505615, -0.6186782121658325, -0.48493334650993347, -0.4736463129520416, 1.1015955209732056, -0.8591774702072144, -0.8978487253189087, -0.950015664100647, 0.220733642578125, -0.9026051759719849, 0.1545933187007904, -0.723256528377533, -0.2018934041261673, -0.09561634063720703, 0.039705440402030945, 0.06740695238113403, 0.20213721692562103, -0.12635022401809692, -0.18337048590183258, 0.10414604097604752, -0.06342140585184097, 0.19544801115989685, 0.15314166247844696, -0.08252643793821335, 0.24950161576271057, 0.4189203381538391, 0.07962669432163239, 0.14929185807704926, -0.14704465866088867, -0.029084444046020508, -0.3431083559989929, 0.192697212100029, -0.4028070569038391, 0.0998815968632698, 0.0794718936085701, -0.26952654123306274, 0.41098058223724365, -0.3160507380962372, 0.18707449734210968, 0.15775686502456665, 0.2899955213069916, 0.17661364376544952, 0.1794334053993225, 0.1742541790008545, -0.1619851142168045, -0.0940825566649437, -0.1430567353963852, 0.13599742949008942, 0.4367760121822357, 0.1505311280488968, -0.23154298961162567, -0.14556512236595154, -0.09320053458213806, 0.09438694268465042, -0.12195021659135818, -0.48259735107421875, -0.14091233909130096, 0.08940903842449188, 0.2554340958595276, 0.1812092363834381, 0.09338290989398956, 0.33823707699775696, -0.22443780303001404, -0.347258985042572, -0.07361333817243576, 0.01312998402863741, -0.08423476666212082, -0.017639780417084694, -0.16360817849636078, 0.05283127352595329, 0.20208331942558289, 0.3079909384250641, 0.16573841869831085, 0.10833960771560669, 0.06598349660634995, 0.08861039578914642, 0.2896270155906677, 0.12568815052509308, -0.2319403886795044, -0.1159612163901329, 0.3699442744255066, 0.12541043758392334, -0.2044786512851715, 0.10510196536779404, 0.23667721450328827, -0.379690021276474, -0.24421246349811554, 0.3026124835014343, -0.19962096214294434, -0.03759382665157318, -0.1414957195520401, -0.2974547743797302, 0.08332373201847076, -0.010720795020461082, -0.22570480406284332, -0.11455502361059189, 0.1686762273311615, -0.22415438294410706, 0.08434488624334335, 0.018639227375388145, 0.0727483481168747, 0.2787110209465027, -0.039389997720718384, -0.25401052832603455, -0.18750393390655518, -0.12383311241865158, 0.13575012981891632, -0.1634206473827362, 0.12331189215183258, -0.035825248807668686, 0.006737998221069574, -0.1519840806722641, -0.05221984535455704, 0.3674965500831604, -0.3149392604827881, -0.29677045345306396, 0.37707170844078064, 0.0405980683863163, -0.2514561712741852, 0.037570562213659286, 0.18446701765060425, -0.1769677847623825, -0.207511305809021, 0.32716652750968933, -0.008120236918330193, -0.31603333353996277, -0.0021725783590227365, 0.25036460161209106, 0.06911755353212357, -0.12291490286588669, -0.11626149713993073, 0.01896699331700802, -0.07249752432107925, 0.2845601737499237, -0.031146857887506485, -0.05382084473967552, -0.12657788395881653, 0.24282698333263397, 0.1891300082206726, 0.06767217069864273, -0.17914621531963348, 0.19540123641490936, -0.2393207997083664, -0.07703819125890732, -0.30579525232315063, -0.13675615191459656, -0.032920047640800476, -0.1330617070198059, 0.054427120834589005, 0.13307932019233704, 0.43377435207366943, -0.026633068919181824, -0.04878394305706024, 0.20153552293777466, -0.17406952381134033, 0.5247223377227783, -0.08720588684082031, -0.15099157392978668, -0.14057031273841858, 0.12195237725973129, 0.046449415385723114, 0.04053790494799614, 0.12736791372299194, -0.10357807576656342, -0.041103292256593704, -0.0957883819937706, 0.20447947084903717, 0.19728393852710724, 0.17707601189613342, 0.1653062105178833, 0.09798979014158249, -0.185013547539711, -0.19938600063323975, -0.26603537797927856, -0.20932959020137787, 0.1740104854106903, 0.03444117680191994, -0.10704843699932098, 0.04443524405360222, -0.06393858045339584, 0.3947470486164093, 0.4584786891937256, -0.499654084444046, -0.12955455482006073, 0.27499762177467346, 0.08471333235502243, -0.026905298233032227, 0.1781691014766693, 0.3566834628582001, 0.8726763725280762, -0.19481633603572845, -0.36453375220298767, -0.04881427064538002, -0.25042733550071716, 0.20306396484375, 0.3170289397239685, -0.35514676570892334, -0.046862415969371796, 0.365723580121994, -0.013929812237620354, -0.11899889260530472, -0.04678655415773392, 0.11510459333658218, -0.19021114706993103, -0.16168662905693054, -0.015896523371338844, -0.14860723912715912, 0.1819630265235901, -0.04107440635561943, -0.1071968600153923, -0.09520358592271805, 0.12471076101064682, -0.046388305723667145, 0.1485336571931839, -0.13264504075050354, -0.5213358998298645, 0.4525408148765564, -0.019680669531226158, -0.07323332875967026, 0.2018507719039917, 0.15704967081546783, 0.10403990745544434, -0.188822939991951, 0.19750069081783295, -0.3620486855506897, 0.12250127643346786, -0.07261897623538971, -0.18102513253688812, 0.4561309814453125, 0.20229172706604004, 0.017566930502653122, -0.13356027007102966, 0.3889772891998291, -0.13556835055351257, -0.11617517471313477, 0.005623667035251856, 0.07062577456235886, 0.11636336892843246, 0.39009714126586914, -0.2584162950515747, -0.08843135088682175, -0.1551174819469452, 0.23595769703388214, 0.14166273176670074, -0.4629225432872772, 0.1748315393924713, -0.13492685556411743, 0.3092384934425354, -0.4648507237434387, 0.08194047957658768, 0.2512568533420563, 0.02751380391418934, -0.22220852971076965, -0.24639524519443512, -0.37895718216896057, -0.0789734274148941, -0.29342761635780334, 0.15822060406208038, -0.12930071353912354, 0.03739389404654503, 0.20520244538784027, -0.01334712840616703, 0.21882183849811554, 0.009258917532861233, -0.01997869275510311, 0.49926984310150146, -0.11358291655778885, -0.3153248429298401, -0.0197712704539299, -0.03818853572010994, 0.03290726989507675, 0.03665895387530327, -0.040315769612789154, 0.042158953845500946, 0.1373528242111206, 0.3148025870323181, 0.09861890971660614, 0.04668479040265083, -0.03210921958088875, -0.1969369798898697, -0.15493544936180115, -0.40116870403289795, 0.13937042653560638, -0.09942258149385452, -0.0023132632486522198, 0.08695061504840851, -0.023100197315216064, -0.17611368000507355, 0.0038380578625947237, -0.01893625035881996, 0.2056511640548706, 0.163137748837471, 0.043505243957042694, -0.0003581719647627324, -0.1470983922481537, -0.05111546441912651, 0.12363741546869278, -0.059522002935409546, -0.11571282893419266, 0.13306671380996704, 0.027872959151864052, -0.019381871446967125, -0.05851360410451889, -0.028808491304516792, -0.029820222407579422, 0.06506900489330292, 0.07527586817741394, -0.12273409217596054, -0.05078694969415665, 0.14413130283355713, 0.05870581790804863, -0.08910659700632095, 0.0069233085960149765, -0.025853963568806648, -0.05822279676795006, 0.11397227644920349, -0.23454461991786957, -0.18770910799503326, 0.09211269021034241, -0.10183485597372055, -0.06725563108921051, 0.0024024546146392822, 0.106047123670578, -0.2331930696964264, 0.1314893215894699, -0.02980554662644863, 0.21645070612430573, -0.12416601181030273, -0.20936861634254456, -0.03938501700758934, 0.07294607162475586, 0.05513065308332443, -0.02224230021238327, -0.08379553258419037, -0.007600842975080013, -0.009832601062953472, 0.10660465061664581, -0.17675995826721191, 0.15925642848014832, 0.080641970038414, 0.11928179860115051, 0.019722888246178627, -0.13272111117839813, -0.10826347023248672, 0.31122133135795593, 0.09466243535280228, 0.021412285044789314, -0.07099694758653641, 0.06720907241106033, -0.12197017669677734, 0.11371973156929016, -0.10700887441635132, 0.11868726462125778, -0.17134550213813782, -0.06498421728610992, -0.05416981875896454, 0.07498306035995483, -0.07454977929592133, -0.1456829160451889, 0.08609885722398758, 0.18072184920310974, 0.09238096326589584, 0.19972284138202667, 0.0050709182396531105, 0.1529252678155899, 0.15983906388282776, -0.3646998107433319, 0.02928386814892292, -0.04098471999168396, 0.09331697970628738, -0.093920037150383, 0.006143008824437857, -0.01734422706067562, -0.15665791928768158, -0.010456719435751438, 0.11354898661375046, 0.2613029479980469, 0.29543471336364746, -0.08043039590120316, 0.13795067369937897, 0.12363959103822708, -0.02913501113653183, -0.09875152260065079, 0.4116955101490021, 0.11663039773702621, -0.09781869500875473, 0.17274141311645508, -0.08760732412338257, -0.11704044044017792, -0.13254790008068085, -0.03089083917438984, 0.19464926421642303, 0.14124630391597748, -0.3270927369594574, -0.015200270339846611, 0.07222874462604523, 0.15719279646873474, 0.04513827711343765, 0.06451651453971863, 0.06983663141727448, 0.05784580856561661, -0.10087251663208008, 0.21848562359809875, 0.01700708083808422, 0.03887190297245979, -0.17252637445926666, 0.08975373953580856, -0.019849006086587906, 0.16515663266181946, -0.19040293991565704, -0.05698650702834129, -0.026662273332476616, -0.12925636768341064, 0.05917992815375328, -0.0824507400393486, 0.08252129703760147, 0.06031987816095352, -0.06240002065896988, -0.04082811251282692, 0.030041690915822983, -0.0793883427977562, 0.06427255272865295, -0.18540331721305847, -0.23633261024951935, 0.06859561800956726, 0.1803055703639984, 0.10416212677955627, 0.13652977347373962, -0.05922441557049751, -0.01433740183711052, -0.0493633858859539, 0.07557058334350586, 0.26520076394081116, -0.04890358820557594, 0.20982055366039276, 0.19416479766368866, -0.2262485921382904, 0.31048139929771423, -0.08582153171300888, -0.20030076801776886, -0.0778612345457077, -0.08985956013202667, 0.22254782915115356, -0.16164229810237885, -0.01571449637413025, 0.22688032686710358, 0.2975934147834778, 0.11612693965435028, -0.23637431859970093, -0.20364375412464142, 0.09501346945762634, 0.19871263206005096, 0.15956127643585205, -0.06173652037978172, -0.0739377811551094, -0.22884680330753326, -0.042583487927913666, 0.052243780344724655, 0.1253911703824997, 0.2965462803840637, -0.1004302054643631, 0.49751052260398865, -0.792141318321228, -0.22839869558811188, 0.1565406620502472, 0.036502011120319366, -0.15398679673671722, 0.27816498279571533, 0.06201072037220001, -0.019348734989762306, -0.10107037425041199, -0.29133906960487366, 0.2918318808078766, -0.17017358541488647, 0.24624058604240417, 0.1505066156387329, -0.020455876365303993, -0.10240867733955383, 0.14156608283519745, -0.3259832262992859, 0.08970900624990463, 0.16186317801475525, -0.019111640751361847, 0.15527679026126862, 0.027087848633527756, -0.07444611936807632, 0.2447892129421234, 0.02537344954907894, 0.03507666289806366, 0.16758257150650024, -0.2165650874376297, 0.0860193520784378, 0.009731803089380264, -0.0941595509648323, -0.2768472135066986, -0.08922557532787323, 0.11799953132867813, 0.04305613040924072, -0.21116149425506592, -0.05794183164834976, -0.06984046846628189, -0.0072973622009158134, 0.21910060942173004, 0.15058408677577972, -0.016431910917162895, -0.02950889803469181, -0.2350778728723526, 0.042702384293079376, -0.01957213319838047, -0.08753268420696259, 0.4843885898590088, 0.0685529112815857, -0.13210506737232208, 0.06904260814189911, 0.11674805730581284, -0.15727828443050385, -0.045085083693265915, 0.24233876168727875, 0.1894727349281311, -0.13493113219738007, -0.027594327926635742, -0.09735292196273804, 0.18254199624061584, -0.08929739147424698, 0.008476792834699154, -0.062145791947841644, -0.12166578322649002, 0.0008996897377073765, -0.05625397711992264, -0.002191685140132904, -0.1762153059244156, -0.11392147839069366, -0.2067316174507141, -0.047435320913791656, -0.12734121084213257, 0.012935907579958439, 0.12091753631830215, -0.1778169572353363, 0.14249157905578613, -0.14876112341880798, -0.17029930651187897, 0.16465170681476593, -0.09831296652555466, 0.08764844387769699, -0.19394151866436005, -0.1440398246049881, -0.3537538945674896, 0.16432440280914307, 0.09323007613420486, 0.09499974548816681, -0.2471446841955185, -0.0007892616558820009, -0.1042313501238823, 0.2487434595823288, 0.03491472080349922, 0.15288002789020538, 0.028877511620521545, -0.00943470373749733, 0.2093716859817505, 0.08325440436601639, 0.14443489909172058, -0.19738946855068207, -0.22021766006946564, 0.0073442538268864155, -0.025853997096419334, -0.12007717043161392, 0.15768775343894958, 0.038897283375263214, 0.00984053872525692, 0.10392919182777405, 0.16769148409366608, 0.010950314812362194, -0.2206987887620926, -0.14925216138362885, -0.03716690093278885, 0.10843002051115036, -0.055077966302633286, -0.025831766426563263, 0.1137797087430954, 0.0006411185022443533, -0.010633871890604496, -0.04355240985751152, 0.0813426822423935, 0.05469159409403801, -0.0656743049621582, 0.1536063849925995, 0.20835994184017181, -0.06731369346380234, 0.07834315299987793, -0.04689044505357742, 0.01790422759950161, -0.07202090322971344, -0.025445496663451195, 0.1723862886428833, 0.18074439465999603, -0.14430555701255798, -0.19443204998970032, -0.12801676988601685, 0.09803806990385056, -0.04833780974149704, 0.3037800192832947, -0.14639613032341003, -0.2921242117881775, -0.07138247787952423, -0.13821473717689514, 0.04838293790817261, 0.010988781228661537, -0.05872607231140137, -0.18878315389156342, -0.05620688945055008, 0.01950039714574814, -0.02545028179883957, -0.09836949408054352, 0.06017623096704483, -0.3792048394680023, -0.0624244250357151, -0.1347591131925583, 0.5751201510429382, -0.17970004677772522, 0.14763599634170532, 0.12144945561885834, 0.14122162759304047, -0.22726601362228394, 0.20339858531951904, 0.16409802436828613, -0.01307491771876812, 0.0128542585298419, 0.13621340692043304, -0.17092248797416687, -0.056440647691488266, -0.07511990517377853, 0.03715064376592636, 0.03833802416920662, -0.08945266902446747, 0.027908140793442726, -0.14270007610321045, 0.03768230229616165, 0.10310015827417374, -0.04719260334968567, 0.06947985291481018, -0.11948758363723755, -0.33205464482307434, -0.0625983476638794, -0.030530834570527077, 0.1276809126138687, 0.06774793565273285, -0.1317015439271927, -0.010353024117648602, 0.1471947729587555, 0.055041391402482986, 0.2541550397872925, 0.17373843491077423, -0.06096058711409569, 0.1456974297761917, -0.16916073858737946, -0.038704171776771545, 0.3243078291416168, 0.1542438566684723, 0.001520688645541668, 0.1313399076461792, 0.11072198301553726, -0.11044640839099884, -0.05286943539977074, -0.21538086235523224, 0.075966015458107, 0.10166370868682861, 0.27004748582839966, -0.15221838653087616, -0.40806546807289124, -0.15013369917869568, -0.07107603549957275, -0.045186255127191544, -0.09542721509933472, 0.0879230946302414, -0.1628188192844391, 0.17045922577381134, -0.08057666569948196, 0.004970071371644735, 0.2044859528541565, 0.17045727372169495, -0.2098463773727417, 0.5400320887565613, 0.046951163560152054, 0.000936216558329761, -0.14739900827407837, -0.11715923994779587, -0.03809889778494835, -0.14139597117900848, -0.005738290958106518, 0.03224342316389084, -0.1714947521686554, -0.10245947539806366, 0.032444801181554794, -0.08986326307058334, 0.05784966051578522, 0.070633664727211, 0.14700043201446533, 0.053525906056165695, -0.05719175189733505, -0.14067749679088593, -0.10470770299434662, 0.008315151557326317, 0.3769766092300415, 0.11909765750169754, -0.2889738976955414, 0.1876814216375351, -0.03377227485179901, -0.05166255310177803, 0.05026332288980484, 0.16583369672298431, 0.36707526445388794, 0.015630599111318588, -0.2486128807067871, 0.1711709052324295, 0.2694184482097626, 0.10884836316108704, -0.10835105180740356, -0.2053431272506714, -0.04771003499627113, -0.02339545078575611, 0.009469506330788136, 0.18760348856449127, -0.08012892305850983, -0.021244341507554054, 0.19216305017471313, -0.21229982376098633, 0.07886268943548203, -0.060213424265384674, -0.4073415994644165, 0.3901321589946747, 0.07981976121664047, 0.035917479544878006, -0.06929662078619003, -0.15661261975765228, -0.2148638218641281, -0.059019535779953, -0.03820185363292694, 0.19860272109508514, -0.22836615145206451, -0.12775520980358124, -0.14930418133735657, -0.0451509952545166, 0.18600964546203613, 0.21359138190746307, -0.1557164043188095, -0.0902271568775177, -0.01843811757862568, -0.09414266794919968, -0.03024139255285263, -0.4352484941482544, 0.7955634593963623, -0.22061942517757416, -0.0683286115527153, -0.06998220086097717, 0.06912348419427872, -0.15904517471790314, -0.1744711846113205, 0.160233736038208, -0.007919134572148323, 0.26871389150619507, -0.2988220751285553, 0.19152745604515076, -0.154154971241951, -0.07554318755865097, -0.023630104959011078, -0.0031060907058417797, 0.13778690993785858, 0.04850595071911812, 0.21461813151836395, 0.2648336887359619, -0.022160617634654045, -0.2118561714887619, 0.15278470516204834, -0.028165621683001518, -0.06879296898841858, 0.20411837100982666, -0.10800836235284805, -0.5644820332527161, -0.09681329876184464, 0.10463918000459671, 0.056812725961208344, -0.210148885846138, 0.08890741318464279, 0.19314327836036682, 0.08992217481136322, 0.19250214099884033, 0.32124119997024536, -0.02511552721261978, -0.028332209214568138, 0.1795787215232849, 0.3250396251678467, -0.12090834975242615, -0.04583246633410454, -0.12173406779766083, -0.015347723849117756, -0.04316818714141846, 0.09726065397262573, 0.03433622419834137, -0.40543732047080994, 0.03472281992435455, 0.04526587203145027, 0.002924448810517788, 0.24800121784210205, -0.0015695177717134356, -0.18347442150115967, 0.11860940605401993, -0.12969651818275452, 0.13957221806049347, -0.08659926056861877, -0.34788838028907776, -0.2820420265197754, 0.00952123012393713, 0.10985185205936432, 0.1192343533039093, 0.2990076243877411, 0.07392223179340363, 0.01484766136854887, 0.23989929258823395, 0.08112338930368423, -0.018628928810358047, 0.15097194910049438, -0.11834872514009476, 0.014123884961009026, 0.14246521890163422, -0.1448565274477005, -0.16742005944252014, -0.03952312469482422, 0.024231532588601112, -0.00977927166968584, -0.014161329716444016, -0.08336499333381653, 0.03138911351561546, 0.07549293339252472, 0.20221103727817535, 0.01883649080991745, -0.1430913805961609, -0.25531142950057983, -0.07148976624011993, -0.14357222616672516, -0.1128523126244545, 0.004319503903388977, -0.0927959680557251, -0.24888823926448822, -0.059043046087026596, -0.21270491182804108, -0.08092481642961502, 0.026160940527915955, 0.006990509107708931, -0.050199683755636215, -0.039679039269685745, 0.004878419917076826, -0.15597233176231384, -0.29035913944244385, 0.1597781479358673, -0.18408183753490448, -0.25757765769958496, 0.0018270676955580711, 0.031510934233665466, -0.08093089610338211, 0.13137632608413696, -0.007345039863139391, -0.20721882581710815, 0.09866892546415329, 0.3799675405025482, -0.000406364822993055, -0.14146459102630615, -0.006408429704606533, -0.20097649097442627, -0.018230756744742393, 0.021012136712670326, -0.07784544676542282, -0.018552420660853386, 0.1858106255531311, 0.5600535869598389, 0.05932743847370148, -0.0610026977956295, 0.10919038206338882, 0.06939157098531723, -0.010798174887895584, 0.2007165402173996, -0.045011524111032486, 0.01153276301920414, -0.03411984443664551, 0.029615579172968864, 0.061082758009433746, -0.26245248317718506, 0.029505569487810135, -0.19655515253543854, -0.014402005821466446, -0.025432294234633446, 0.1865002065896988, 0.12196754664182663, 0.01620578207075596, 0.09205262362957001, -0.27596035599708557, 0.14745928347110748, -0.04118494316935539, 0.05142279341816902, -0.05142379179596901, 0.17444342374801636, 0.08143331855535507, 0.0553610734641552, -0.27786019444465637, -0.01364137977361679, -0.06639786064624786, 0.3727093040943146, -0.30871498584747314, 0.06138914078474045, 0.03811652585864067, -0.19253326952457428, -0.0049361842684447765, 0.41753894090652466, -0.08684873580932617, -0.018219992518424988, 0.026477288454771042, -0.1567729115486145, -0.059824518859386444, 0.00059550377773121, -0.052775789052248, 0.1084078922867775, 0.021925577893853188, -0.542998731136322, -0.24716703593730927, -0.16701239347457886, -0.008332054130733013, -0.0934695228934288, 0.08264239132404327, -0.007726998999714851, 0.060748688876628876, -0.11397114396095276, 0.06096932664513588, -0.02032376639544964, 0.09426001459360123, 0.032196566462516785, 1.187995349027915e-05, 0.05059557408094406, 0.0006881420267745852, 0.12886415421962738, 0.0826973244547844, -0.178382009267807, 0.15510070323944092, 0.14633837342262268, -0.1586471050977707, -0.08676727861166, 0.01492309756577015, 0.00474226288497448, -0.05235559493303299, 0.2186846137046814, 0.11019742488861084, -0.13892823457717896, -0.2563244104385376, 0.18299175798892975, 0.10632184892892838, 0.19361670315265656, -0.25288036465644836, 0.07902217656373978, 0.0021249577403068542, 0.15800198912620544, 0.053149498999118805, 0.08785513043403625, 0.08144589513540268, -0.01400433573871851, 0.06339815258979797, -0.021731311455368996, 0.0587712861597538, -0.09725659340620041, -0.1902630776166916, -0.014822477474808693, 0.14682139456272125, 0.003027323167771101, -0.21093697845935822, 0.07023346424102783, 0.09899503737688065, -0.06078227236866951, -0.06574941426515579, 0.0024274152237921953, -0.1254732310771942, -0.04373466968536377, 0.07705873996019363, 0.0051174708642065525, 0.041165199130773544, -0.2931329309940338, -0.034257758408784866, 0.073482945561409, 0.1310112327337265, -0.12745656073093414, 0.129167839884758, -0.047279275953769684, 0.12875844538211823, 0.11538209766149521, -0.06787338852882385, -0.13338981568813324, -0.06900838762521744, -0.023863535374403, -0.21087497472763062, -0.033592671155929565, -0.06970560550689697, -0.07101698219776154, -0.10014680027961731, -0.31147530674934387, 0.127348855137825, 0.16595730185508728, 0.0558864027261734, -0.04141399636864662, -0.04316747933626175, 0.10641005635261536, 0.20428051054477692, -0.2154875099658966, 0.012932826764881611, 0.20304130017757416, -0.10665364563465118, 0.24121913313865662, 0.18311841785907745, -0.19507119059562683, 0.13663852214813232, 0.13852950930595398, -0.31627944111824036, 0.19984070956707, -0.11751750856637955, 0.1739988625049591, -0.11867775768041611, -0.12714628875255585, 0.047977447509765625, 0.06681833416223526, 0.11435059458017349, 0.13393625617027283, -0.015492738224565983, 0.08477389812469482, 0.006083495914936066, 0.13889075815677643, 0.1314702332019806, -0.09737920016050339, -0.15863992273807526, -0.0846988633275032, -0.10160539299249649, -0.03853664919734001, 0.03540496900677681, -0.2534857392311096, 0.2776993215084076, 0.027443857863545418, -0.14445115625858307, 0.19835273921489716, 0.08693646639585495, -0.13067013025283813, 0.11378438025712967, 0.08627635985612869, 0.3388250470161438, -0.014070957899093628, -0.1377733200788498, -0.39337560534477234, -0.08339112251996994, 0.018717393279075623, 0.11167588084936142, 0.007068073842674494, -0.06313733011484146, -0.12987960875034332, 0.059385113418102264, 0.08714304864406586, -0.020893478766083717, -0.02660321071743965, 0.05297575518488884, 0.01840732991695404, -0.008065605536103249, -0.16833209991455078, -0.18287697434425354, -0.023566443473100662, 0.023301951587200165, 0.021558711305260658, -0.24574622511863708, -0.655189573764801, 0.8540844321250916, 0.39180436730384827, -0.48284709453582764, 0.2735177278518677, -0.06772556900978088, -0.18078820407390594, 0.5995928049087524, -0.7116008996963501, 0.6344751119613647, 0.6892135143280029, 0.14154760539531708, -0.3991171419620514, 0.34049192070961, -0.6906909942626953, 0.19057105481624603, -0.22082819044589996, -0.0642085075378418, -0.3392980694770813, 0.300994873046875, 0.25392836332321167, 0.17553125321865082, 0.09729734063148499, 0.30891454219818115, 0.22616423666477203, 0.18978281319141388, 0.19225063920021057, -0.4816851317882538, -0.0953906774520874, -0.21150150895118713, 0.09669521450996399, 0.25845617055892944, -0.08206651359796524, -0.07405129075050354, 0.1678560972213745, 0.13413968682289124, -0.03928648307919502, 0.009146448224782944, -0.1871519684791565, -0.3939931392669678, 0.19129645824432373, 0.01267921645194292, -0.11115873605012894, -0.2768712639808655, 0.06502466648817062, 0.20299778878688812, 0.053045403212308884, 0.10859385132789612, -0.11471989750862122, 0.2592373192310333, -0.5279129147529602, 0.3561922311782837, -0.5912273526191711, 0.19283388555049896, -0.19254402816295624, -0.07577522099018097, 0.38731634616851807, -0.03736734390258789, 0.37767112255096436, 0.2858083248138428, -0.2616366744041443, 0.047896094620227814, 0.1072685569524765, 0.21060144901275635, 0.15936113893985748, 0.4465353190898895, -0.3219867944717407, -0.08196195214986801, 0.03551355004310608, -0.11119347810745239, 0.148647278547287, 0.09216948598623276, -0.04747257009148598, 0.19092673063278198, 0.21204884350299835, 0.13165412843227386, 0.22142040729522705, 0.16525651514530182, -0.22859393060207367, 0.129679873585701, -0.142033189535141, 0.30677464604377747, -0.26152467727661133, 0.22148282825946808, -0.41782325506210327, 0.2776833474636078, -0.10779397934675217, 0.05860966444015503, 0.18326562643051147, 0.2090226113796234, 0.2896021604537964, -0.3618461787700653, -0.18545718491077423, 0.09908632189035416, -0.13602584600448608, -0.14047864079475403, -0.09910500794649124, 0.17388801276683807, -0.028463900089263916, -0.1938842236995697, -0.020907454192638397, 0.2839430868625641, -0.12097106128931046, -0.15706582367420197, -0.16481401026248932, -0.23693804442882538, 0.23050931096076965, 0.19519416987895966, 0.13704624772071838, 0.2939514219760895, -0.0940270721912384, 0.020212508738040924, 0.02025669813156128, -0.14077061414718628, -0.04229675978422165, 0.1556444764137268, 0.06255608052015305, 0.0788818746805191, -0.022092511877417564, -0.28443998098373413, 0.24784278869628906, -0.05311764031648636, -0.1184910237789154, 0.12163686752319336, 0.062465082854032516, 0.059670742601156235, 0.20473769307136536, 0.2201615273952484, 0.34125766158103943, 0.02161766216158867, 0.11838317662477493, 0.01305273175239563, -0.3197368085384369, -0.022338343784213066, -0.014306116849184036, -0.07745704799890518, -0.01382630504667759, 0.29114341735839844, 0.17681089043617249, 0.12222471088171005, 0.11672826111316681, 0.0654534250497818, -0.1882852166891098, -0.18531079590320587, 0.24337607622146606, -0.24699968099594116, 0.024446114897727966, 0.16020649671554565, -0.015876151621341705, -0.17094619572162628, 0.07586647570133209, -0.12417947500944138, 0.08683033287525177, 0.13572809100151062, 0.060440659523010254, -0.18048681318759918, 0.028264978900551796, -0.05473429337143898, 0.10730575770139694, 0.20344161987304688, -0.10983192175626755, 0.12208521366119385, 0.21062031388282776, -0.046710219234228134, 0.17335569858551025, -0.317582368850708, -0.13739816844463348, -0.3267701268196106, 0.030880426988005638, 0.3874274492263794, -0.21642151474952698, 0.008406184613704681, 0.005497043952345848, 0.3516785204410553, -0.2388959378004074, 0.316692054271698, -0.31900811195373535, -0.18248681724071503, -0.253235787153244, 0.2745305001735687, -0.020481815561652184, 0.10379323363304138, 0.018899105489253998, 0.2975243926048279, 0.20605404675006866, -0.4157986640930176, 0.08355163037776947, -0.03043179400265217, -0.3877784013748169, -0.010798709467053413, 0.41862350702285767, 0.24069887399673462, -0.071187324821949, -0.20275276899337769, 0.17256112396717072, -0.09821940213441849, 0.11442842334508896, 0.26148247718811035, 0.08277030289173126, -0.013044537045061588, -0.4490925073623657, -0.30370065569877625, 0.17225347459316254, -0.4414648711681366, -0.41148003935813904, -0.0046705701388418674, 0.12457651644945145, -0.5615849494934082, -0.17644764482975006, -0.1752164661884308, -0.13768525421619415, 0.24816922843456268, 0.24993498623371124, -0.31798967719078064, -0.13659538328647614, 0.2914711534976959, 0.013143975287675858, -0.4581940174102783, 0.007870025001466274, -0.11710293591022491, 0.002837760141119361, 0.04336082190275192, 0.05148544907569885, -0.5059783458709717, 0.1226724237203598, 0.003915774170309305, -0.20776866376399994, -0.13131149113178253, 0.13138315081596375, 0.18516725301742554, -0.1502501219511032, -0.12999074161052704, 0.18359924852848053, -0.1850365549325943, -0.17412874102592468, 0.15978246927261353, 0.31376636028289795, -0.2928384840488434, -0.08571227639913559, 0.3298516571521759, -0.07862265408039093, -0.13454607129096985, -0.1321612298488617, -0.008490214124321938, -0.2967076897621155, 0.30661097168922424, -0.41351810097694397, 0.2440568059682846, 0.23451106250286102, 0.21377427875995636, 0.3223525881767273, -0.06315100938081741, -0.21411214768886566, 0.1003953292965889, -0.24429406225681305, -0.0773148462176323, -0.32203617691993713, -0.048774294555187225, -0.5412555932998657, -0.015925787389278412, 0.07037284970283508, 0.03569558635354042, -0.1381533294916153, 0.02261553332209587, 0.5871903300285339, 0.24567899107933044, 0.2812289595603943, -0.28325626254081726, -0.1362590789794922, -0.16171866655349731, 0.15249626338481903, 0.09810549020767212, 0.10076485574245453, 0.10608319193124771, 0.11290120333433151, 0.03868266940116882, 0.05692888796329498, 0.15487176179885864, 0.1719937026500702, -0.1994604915380478, -0.06357178837060928, 0.043744299560785294, 0.14729875326156616, 0.03164028376340866, 0.053803540766239166, 0.03207884356379509, -0.023411275818943977, -0.0499589666724205, -0.07945919781923294, -0.31501778960227966, -0.010981378145515919, 0.09907297044992447, 0.008588330820202827, -0.20101088285446167, 0.12447608262300491, -0.10674654692411423, 0.021980905905365944, 0.19195865094661713, -0.17965158820152283, -0.09697021543979645, -0.20543740689754486, 0.049569737166166306, 0.008613024838268757, -0.03414103388786316, 0.27297472953796387, 0.15660721063613892, -0.04220077767968178, -0.20229654014110565, -0.32399025559425354, 0.00447987811639905, 0.15709364414215088, 0.10080549865961075, -0.10481637716293335, -0.28729912638664246, -0.06399010866880417, 0.05988544598221779, 0.14061398804187775, -0.22453440725803375, 0.06175306811928749, -0.03328041359782219, -0.13683918118476868, -0.0800609439611435, -0.1281101405620575, -0.011829381808638573, 0.07214396446943283, -0.23449558019638062, 0.2785625755786896, -0.041153136640787125, -0.35241010785102844, -0.21826030313968658, -0.1346314549446106, 0.14702942967414856, 0.021716075018048286, 0.12699246406555176, -0.140230193734169, 0.13960926234722137, 0.5085182785987854, 0.01216623280197382, 0.46450528502464294, 0.21072843670845032, 0.08129754662513733, 0.1543227583169937, 0.49159684777259827, -0.18755578994750977, -0.0694679543375969, 0.31097912788391113, 0.23505882918834686, 0.1425001174211502, 0.15479449927806854, 0.04022529348731041, 0.09936375170946121, -0.28871214389801025, -0.09194659441709518, -0.1802528351545334, 0.18701434135437012, -0.027467548847198486, -0.03528078272938728, -0.2373942881822586, -0.1412000209093094, 0.032401371747255325, 0.2958184778690338, 0.09545782953500748, 0.08227316290140152, 0.0010330281220376492, 0.1726737916469574, 0.12361355125904083, 0.444099485874176, -0.04695753753185272, 0.24346283078193665, 0.07396804541349411, -0.023652877658605576, -0.14974664151668549, 0.13163749873638153, -0.039265647530555725, -0.27414071559906006, 0.17516247928142548, -0.14952029287815094, 0.23430542647838593, 0.1922643780708313, -0.0065202959813177586, 0.16356676816940308, 0.5595014691352844, -0.25777870416641235, -0.04708247259259224, 0.008544661104679108, -0.2135327011346817, 0.03136193007230759, 0.10599416494369507, -0.15117141604423523, 0.0345299057662487, -0.05037028342485428, -0.10006977617740631, 0.23800484836101532, -0.09560944139957428, -0.13516153395175934, 0.19086423516273499, -0.14503997564315796, 0.011285079643130302, -0.2159808874130249, -0.21145093441009521, 0.17283695936203003, 0.05725046247243881, 0.13779383897781372, -0.2261108160018921, -0.12694686651229858, -0.09544175118207932, 0.17268900573253632, 0.07694856077432632, 0.12420781701803207, -0.04365145042538643, 0.0009839836275205016, -0.056123584508895874, 0.2250087410211563, -0.0008801402873359621, 0.264713317155838, -0.2836647629737854, 0.25202614068984985, 0.033949922770261765, -0.04441864788532257, -0.0623934343457222, 0.09299719333648682, -0.21365973353385925, -0.06328073143959045, -0.01704082079231739, -0.22321105003356934, 0.12357155233621597, -0.23694150149822235, 0.09726933389902115, -0.06958239525556564, 0.027493080124258995, -0.1386447548866272, 0.1701633185148239, 0.4485659599304199, -0.14725548028945923, 0.0846100002527237, 0.0746651440858841, 0.12557506561279297, 0.03380690515041351, 0.4310204088687897, -0.7956154942512512, -0.01840396784245968, 0.21019239723682404, -0.28968334197998047, 0.035260554403066635, 0.12821519374847412, -0.14555127918720245, -0.053748950362205505, -0.16136664152145386, 0.1823917180299759, 0.2391488403081894, 0.0855385959148407, 0.027305664494633675, 0.09973812103271484, 0.03471709042787552, 0.31482696533203125, 0.00297438632696867, -0.1945541948080063, -0.32670754194259644, -0.18815144896507263, -0.0984363928437233, 0.22987976670265198, 0.13442862033843994, 0.41354885697364807, -0.1428646445274353, 0.2504417896270752, 0.4897802174091339, 0.33755072951316833, -0.004627625457942486, 0.19235600531101227, -0.2203301638364792, 0.1447441428899765, 0.12303975969552994, -0.25860467553138733, -0.1566026359796524, 0.08537871390581131, 0.030553540214896202, -0.10698973387479782, 0.2554861307144165, -1.122684359550476, 0.15085862576961517, 0.097417913377285, -0.03305847570300102, 0.13313886523246765, 0.10178112983703613, 0.006637988146394491, 0.21501204371452332, 0.2464117705821991, 0.11155737936496735, 0.08474985510110855, -0.17862212657928467, -0.002542383735999465, 0.09914353489875793, -0.15283572673797607, 0.03105240873992443, -0.2326073944568634, 0.032742939889431, 0.18811295926570892, -0.03879070281982422, -0.04181354492902756, 0.006731875706464052, -0.023876918479800224, -0.03244021534919739, -0.052462104707956314, 0.027368946000933647, 0.23866359889507294, -0.09327387809753418, -0.23483972251415253, -0.06208518519997597, 0.07015138864517212, 0.05878214165568352, 0.18715789914131165, -0.04358066990971565, -0.007645061705261469, -0.0036945545580238104, -0.07053092867136002, -0.1342747062444687, 0.03774479776620865, -0.07886527478694916, -0.18602803349494934, -0.11269405484199524, -0.12233816087245941, -0.07084930688142776, -0.05398368835449219, 0.20025597512722015, -0.13593074679374695, -0.1152196004986763, 0.10177604109048843, 0.024912722408771515, -0.004400438163429499, -0.017298944294452667, 0.1071629598736763, 0.12832163274288177, 0.02478199265897274, 0.3076225519180298, 0.05582379177212715, 0.028683550655841827, -0.19905038177967072, -0.1624630093574524, -0.2651551365852356, 0.10767217725515366, 0.01778625324368477, -0.0862407460808754, -0.056683190166950226, -0.22570882737636566, 0.042283765971660614, -0.052410148084163666, 0.10635087639093399, -0.00026788157992996275, 0.03056933730840683, -0.20283035933971405, -0.11644800752401352, -0.12583039700984955, 0.1351129561662674, -0.04954524710774422, -0.028406910598278046, 0.06129084527492523, 0.09948590397834778, 0.006343876011669636, -0.014379186555743217, -0.07402987778186798, 0.10744395107030869, 0.06773333996534348, 0.08757972717285156, 0.012601419351994991, 0.09615529328584671, -0.070673368871212, -0.1208801120519638, 0.11548451334238052, -0.032050199806690216, -0.08640430867671967, 0.07369346916675568, 0.03327612206339836, -0.09061367809772491, 0.027642613276839256, 0.005185174755752087, 0.07077275216579437, 0.1424480825662613, -0.03824542090296745, -0.20990629494190216, 0.047572266310453415, -0.08326011896133423, 0.21855458617210388, -0.10196926444768906, -0.01626025140285492, 0.09768664836883545, 0.14504361152648926, -0.43130552768707275, -0.20108598470687866, -0.19844560325145721, -0.19957251846790314, -0.17617186903953552, -0.009359807707369328, 0.08579745143651962, 0.05728801712393761, -0.13054898381233215, 0.04458604380488396, 0.14343339204788208, 0.14728596806526184, 0.028980545699596405, 0.05857902020215988, -0.13542526960372925, -0.1025252640247345, -0.07296125590801239, 0.05513221397995949, -0.0740581527352333, -0.1843903511762619, -0.023818055167794228, 0.09136904776096344, -0.23810790479183197, -0.5895665287971497, 0.22198280692100525, 0.4016011655330658, -0.006369955372065306, 0.013766277581453323, 0.15242701768875122, 0.013290432281792164, -0.022721705958247185, -0.03145139291882515, -0.06908765435218811, 0.022715779021382332, -0.3288037180900574, 0.3085334300994873, -0.17461314797401428, 0.06062581017613411, 0.021085523068904877, -0.14965447783470154, 0.10318199545145035, 0.10289041697978973, 0.16429752111434937, -0.16047833859920502, -0.1733642965555191, 0.2713654041290283, 0.09211528301239014, 0.07548155635595322, 0.07018618285655975, -0.0697106197476387, 0.023986414074897766, 0.12604008615016937, -0.2056652158498764, -0.19646598398685455, -0.006930543575435877, 0.04378613457083702, -0.11375849694013596, 0.04755481332540512, -0.19561158120632172, 0.0035439019557088614, -0.009638886898756027, 0.1255413442850113, 0.041289880871772766, -0.0901249498128891, -0.10280819982290268, -0.10265303403139114, 0.13256260752677917, -0.009256977587938309, 0.09955129772424698, -0.14299876987934113, 0.18230551481246948, 0.024052148684859276, 0.12130749970674515, 0.14323683083057404, 0.08012920618057251, 0.011121159419417381, 0.09593416005373001, -0.13477995991706848, -0.09778055548667908, -0.0013855306897312403, -0.18365302681922913, 0.21654826402664185, 0.08359189331531525, -0.1789529174566269, 0.15714824199676514, -0.10060537606477737, 0.053023215383291245, 0.03537582606077194, 0.2587832808494568, -0.0044969962909817696, 0.07810372859239578, -0.12349855899810791, -0.19330373406410217, 0.22492292523384094, 0.1179765909910202, 0.038361188024282455, -0.15466740727424622, -0.18114180862903595, 0.0012094699777662754, 0.06086288020014763, -0.11697205901145935, 0.06794831901788712, 0.09503772854804993, 0.06934099644422531, -0.04685100540518761, -0.21803411841392517, -0.19884778559207916, -0.1950863152742386, -0.04031786695122719, 0.08498791605234146, 0.004035625606775284, -0.16316503286361694, 0.07728633284568787, 0.13998451828956604, 0.09014108777046204, 0.06677528470754623, -0.0921211689710617, -0.07255561649799347, 0.1317121684551239, 0.23124824464321136, 0.08688986301422119, 0.1447673738002777, -0.09786435961723328, -0.20904971659183502, 0.14491939544677734, 0.20924727618694305, -0.17343910038471222, -0.09751836955547333, 0.02908908762037754, 0.1353413313627243, 0.12536807358264923, 0.014736904762685299, 0.3139902651309967, -0.06008246913552284, 0.09289158880710602, 0.1639605611562729, -0.0016750488430261612, 0.019826490432024002, 0.025843268260359764, 0.20775043964385986, -0.05985020101070404, 0.15378615260124207, 0.12991118431091309, -0.21488581597805023, -0.2617509067058563, -0.06840912252664566, -0.09416712820529938, 0.10826611518859863, -0.17397351562976837, -0.050163935869932175, -0.012671194970607758, 0.07687480002641678, -0.04013993963599205, 0.05933019518852234, -0.03457523137331009, 0.16837430000305176, 0.23973916471004486, 0.31076523661613464, 0.04196866974234581, -0.058795589953660965, -0.2096494436264038, 0.04803815111517906, 0.02194606140255928, -0.24913892149925232, 0.01408050674945116, 0.0008467499865218997, -0.1763688623905182, -0.49095025658607483, -0.2904311418533325, 0.1017836481332779, -0.17064090073108673, -0.16164837777614594, -0.019807731732726097, 0.0478457547724247, -0.19825853407382965, 0.03432362526655197, -0.05646760016679764, 0.002311895601451397, -0.2630845308303833, -0.08594253659248352, 0.38083186745643616, 0.04606277495622635, -0.060673605650663376, 0.027699874714016914, 0.11607494950294495, 0.040468133985996246, 0.09281586855649948, 0.2618964612483978, 0.09334158152341843, 0.033939894288778305, 0.12955082952976227, 0.1359158307313919, -0.2356400191783905, -0.26721200346946716, -0.09187392145395279, -0.11154882609844208, 0.0596683993935585, 0.013048109598457813, 0.08790622651576996, 0.12022458761930466, 0.1054517850279808, -0.08522983640432358, -0.06474796682596207, 0.008824294432997704, 0.016633516177535057, 0.13966721296310425, 0.0910525843501091, 0.08695502579212189, 0.005883525125682354, 0.09301017969846725, 0.11310609430074692, -0.11365161836147308, 0.08347579836845398, -0.10093041509389877, -0.14660772681236267, 0.00018702885427046567, -0.1369943618774414, 0.1126418188214302, -0.0912560522556305, 0.037482164800167084, -0.07655464857816696, -0.13333402574062347, -0.02938961423933506, -0.2576114237308502, -0.061430674046278, 0.3050031065940857, -0.3119913637638092, 0.059357769787311554, 0.06426621228456497, -0.10874760150909424, 0.06629534065723419, 0.08705664426088333, 0.2805403769016266, 0.7252963781356812, -0.2677699327468872, -0.05662933737039566, -0.10370396822690964, 0.1906670778989792, 0.27844688296318054, -0.5112373232841492, 0.25628861784935, -0.22935980558395386, -0.22473806142807007, 0.18882526457309723, -0.10623221099376678, -0.15693794190883636, 0.17142464220523834, 0.19117754697799683, 0.21015432476997375, -0.212726429104805, 0.00017186571494676173, 0.08321809768676758, 0.3770758807659149, 0.049561064690351486, -0.13709929585456848, -0.2847985029220581, -0.18982325494289398, 0.11248812824487686, 0.14461062848567963, -0.10332775861024857, 0.15044444799423218, 0.029551850631833076, 0.11146245151758194, -0.2927067279815674, -0.14914089441299438, 0.19430318474769592, 0.15990141034126282, -0.11060749739408493, 0.43689969182014465, 0.037102099508047104, 0.07834314554929733, -0.09266374260187149, -0.24610142409801483, 0.11251559853553772, 0.03890958055853844, 0.04488527402281761, 0.23182761669158936, 0.09671575576066971, 0.14230750501155853, -0.10244260728359222, 0.1334807127714157, 0.22374919056892395, 0.33837559819221497, 0.07946011424064636, -0.28018927574157715, -0.23179976642131805, -0.5842636823654175, 0.00897199846804142, -0.1696307510137558, 0.046044282615184784, -0.026226337999105453, -0.028281912207603455, 0.24816763401031494, -0.010410428047180176, -0.14353351294994354, -0.284563809633255, 0.003541497513651848, 0.03898271918296814, 0.19559945166110992, 0.044380269944667816, -0.05066099762916565, -0.21399667859077454, 0.1570592224597931, -0.03709463030099869, -0.00942520797252655, 0.1013403907418251, -0.14005090296268463, -0.0722183957695961, -0.10471659153699875, -0.13098403811454773, -0.024085108190774918, -0.16254322230815887, 0.05926542729139328, -0.04282175004482269, 0.07316690683364868, 0.07982900738716125, -0.22453546524047852, -0.07615263015031815, 0.15622478723526, 0.15238869190216064, -0.18429483473300934, -0.19109800457954407, 0.04059693217277527, -0.05184495821595192, -0.10749944299459457, -0.001520985271781683, -0.13375744223594666, 0.42773139476776123, 0.1639041006565094, 0.07652608305215836, 0.08750694990158081, -0.06320590525865555, -0.186396524310112, 0.0819673016667366, 0.2581354081630707, 0.3366420865058899, 0.21204455196857452, 0.03363225236535072, 0.019698595628142357, -0.020615369081497192, 0.22138793766498566, 0.2050507366657257, -0.032328058034181595, -0.14563815295696259, 0.006826870609074831, 0.26460736989974976, 0.057267699390649796, 0.1555328667163849, -0.056902576237916946, -0.2055944800376892, -0.14285752177238464, 0.1577390730381012, 0.02771623805165291, -0.009871892631053925, -0.034336525946855545, -0.0055713290348649025, -0.2930823564529419, 0.2402801215648651, -0.13785497844219208, -0.2383173555135727, 0.048480577766895294, 0.013984773308038712, -0.10197323560714722, 0.11601284146308899, -0.01363183744251728, -0.08614914864301682, 0.252020001411438, -0.10067399591207504, -0.05292782559990883, -0.08451228588819504, 0.02526388131082058, 0.043013814836740494, 0.32297182083129883, 0.031498610973358154, 0.04119265452027321, 0.34151491522789, -0.10459917038679123, -0.17845673859119415, 0.012962192296981812, 0.12209915369749069, 0.19342006742954254, 0.2119419425725937, -0.20741353929042816, -0.043853193521499634, 0.4254677891731262, -0.043492529541254044, 0.07652469724416733, -0.17524321377277374, 0.24956685304641724, -0.0686841532588005, -0.24780331552028656, -0.021258221939206123, -0.12316854298114777, 0.16641558706760406, 0.14976389706134796, 0.051983144134283066, -0.08383335173130035, -0.17969375848770142, 0.06055614724755287, 0.32892894744873047, 0.04026936739683151, 0.07004877179861069, -0.09995300322771072, 0.0363532155752182, -0.15269431471824646, 0.1472707837820053, 0.04749650880694389, -0.09216590970754623, -0.12083663791418076, -0.18239618837833405, 0.024485822767019272, 0.13802796602249146, -0.2042558193206787, 0.1472402960062027, 0.1671917587518692, -0.0042807538993656635, 0.14706219732761383, -0.22518056631088257, 0.0685289278626442, 0.05663466081023216, 0.07572842389345169, -0.03255267068743706, 0.3954191505908966, 0.09201289713382721, -0.01477384939789772, 0.08260851353406906, 0.06620963662862778, -0.3264872133731842, 0.04454224184155464, -0.12253179401159286, 0.09912099689245224, 0.16518472135066986, 0.10664238035678864, -0.11856923252344131, 0.0553949810564518, 0.12580160796642303, -0.13609084486961365, -0.09070391952991486, 0.19207999110221863, 0.10705722868442535, 0.03369772434234619, -0.14567719399929047, -0.11476986110210419, 0.09457677602767944, 0.016630608588457108, 0.12436921149492264, -0.01800311915576458, -0.1180586889386177, -0.15455009043216705, -0.14686647057533264, 0.22116981446743011, -0.08016057312488556, 0.33295804262161255, -0.05924663320183754, 0.18787628412246704, 0.3590083718299866, 0.2901325225830078, -0.08285447955131531, 0.08014737069606781, 0.001726804650388658, -0.04816221445798874, 0.04866161197423935, -0.06686510890722275, 0.03306436166167259, 0.09083953499794006, 0.2800917327404022, -0.06447760760784149, 0.18569186329841614, 0.5300753712654114, 0.01711774803698063, -0.06532597541809082, 0.0938742458820343, 0.028232943266630173, 0.09893433749675751, 0.0761629194021225, 0.012138539925217628, -0.12732639908790588, 0.10208710283041, 0.13695769011974335, -0.019511336460709572, 0.26595234870910645, 0.008132992312312126, 0.13177938759326935, -0.028149036690592766, 0.22740572690963745, 0.7141132354736328, -0.1377190500497818, 0.5358752608299255, -0.9930227994918823, -0.7763965129852295, -0.2207891345024109, 0.18216508626937866, -0.37810543179512024, 0.4417959749698639, 0.6631256937980652, -1.1990703344345093, 0.762790322303772, -0.3364735245704651, -0.545685887336731, -0.017274782061576843, -0.2961249053478241, -0.10745586454868317, -0.24617570638656616, 0.17098823189735413, -0.22333380579948425, 0.10528808832168579, 0.27385661005973816, -0.07904115319252014, -0.14731642603874207, -0.26178351044654846, -0.05039859563112259, -0.07882106304168701, -0.06889711320400238, 0.2971441447734833, -0.03291473910212517, 0.23961584270000458, -0.056079309433698654, -0.11966826766729355, -0.08603092283010483, -0.018953317776322365, -0.3872016370296478, 0.055844344198703766, 0.0947798565030098, 0.22403952479362488, -0.12396857142448425, 0.062494587153196335, -0.012636743485927582, 0.012594439089298248, 0.07296398282051086, -0.1688092052936554, 0.20621879398822784, 0.24031811952590942, -0.044948287308216095, 0.25142890214920044, 0.11408206075429916, 0.20356492698192596, -0.02936113253235817, 0.06262092292308807, 0.04498794674873352, -0.3753809630870819, -0.034735307097435, -0.025861706584692, -0.5826590657234192, -0.36343905329704285, -0.38541996479034424, 0.31111085414886475, -0.18837594985961914, -0.1542980968952179, 0.22333183884620667, -0.012603606097400188, -0.06547543406486511, -0.07226568460464478, 0.32574746012687683, 0.28738003969192505, 0.18440918624401093, 0.2946234941482544, -0.010236677713692188, -0.30309927463531494, 0.09987921267747879, 0.08596952259540558, -0.2970038950443268, 0.23392702639102936, 0.27384763956069946, -0.009065014310181141, -0.05277916043996811, 0.2568533718585968, -0.09822257608175278, -0.025899527594447136, 0.13161858916282654, 0.05319506302475929, -0.08210931718349457, 0.16084380447864532, -0.1552586704492569, 0.4328673779964447, 0.1937313973903656, 0.16425655782222748, 0.06154651194810867, -0.2709444761276245, -0.21611380577087402, -0.35881850123405457, -0.1817217469215393, -0.372805655002594, -0.0533917173743248, 0.1479986608028412, 0.23650728166103363, -0.253433495759964, 0.0700404942035675, -0.030134396627545357, -0.09882666170597076, 0.10519138723611832, 0.1477474868297577, -0.13182231783866882, 0.24782651662826538, -0.1250467598438263, -0.02816028520464897, -0.017478737980127335, 0.1530771553516388, 0.04046812281012535, -0.08291719108819962, -0.1663927435874939, -0.20785397291183472, -0.05016745999455452, -0.138437882065773, 0.16936641931533813, 0.06860838085412979, -0.26583877205848694, 0.015292502008378506, 0.11790694296360016, -0.10305196046829224, 0.12579293549060822, 0.14581634104251862, -0.0069813053123652935, -0.27588769793510437, -0.316296249628067, 0.30171459913253784, -0.07094856351613998, 0.16703079640865326, 0.0742356926202774, -0.2103257179260254, -0.21498550474643707, 0.3403805196285248, 0.09138898551464081, 0.034175485372543335, 0.058629103004932404, -0.13029667735099792, -0.1029820665717125, 0.0005298962350934744, 0.19405995309352875, -0.04167919233441353, -0.2925242781639099, 0.024263743311166763, -0.1154189333319664, 0.05718262866139412, 0.22873128950595856, 0.03715527802705765, -0.26267415285110474, -0.1683303564786911, -0.16315755248069763, -0.17966413497924805, -0.1960793435573578, -0.15131640434265137, 0.24603460729122162, 0.19415554404258728, 0.06941908597946167, 0.178989976644516, -0.19911633431911469, 0.19953206181526184, 0.02006247453391552, -0.11748755723237991, 0.07477203011512756, 0.05666961893439293, -0.2700630724430084, 0.07403811812400818, -0.2873104512691498, 0.18864251673221588, -0.016841378062963486, -0.2758149206638336, 0.3966858386993408, -0.011616123840212822, 0.08430413156747818, 0.032441575080156326, -0.10965022444725037, 0.1412157267332077, -0.36487847566604614, -0.2767700254917145, -0.16180431842803955, 0.014961467124521732, 0.03608107939362526, -0.18295696377754211, 0.17791315913200378, 0.02273804508149624, -0.0465661846101284, -0.14369545876979828, -0.03404233604669571, 0.2574338912963867, 0.12712101638317108, -0.10851726680994034, 0.15161213278770447, 0.04830301180481911, -0.14211638271808624, -0.29985344409942627, -0.15521882474422455, -0.17876209318637848, 0.1261579692363739, 0.05876447260379791, 0.03488081321120262, 0.27584215998649597, 0.3797171115875244, 0.09934817999601364, -0.06709729880094528, 0.12231279164552689, -0.17363087832927704, -0.19689609110355377, 0.08565157651901245, 0.16635346412658691, 0.18752999603748322, 0.37294572591781616, -0.22284117341041565, 0.10324883460998535, -0.17252656817436218, -0.023959273472428322, 0.4110434949398041, -0.004542873241007328, -0.3174073398113251, -0.082023024559021, 0.004919850267469883, 0.05986489728093147, 0.017194855958223343, 0.01903531700372696, 0.0339893102645874, 0.03110465221107006, 0.03979606553912163, 0.2518918812274933, 0.026221932843327522, 0.06608648598194122, -0.10806300491094589, 0.10587596893310547, 0.027707496657967567, 0.27859583497047424, 0.22137846052646637, -0.14652317762374878, -0.46279001235961914, -0.1803005188703537, -0.2143602967262268, 0.07388076186180115, 0.3643478453159332, -0.1908593475818634, 0.042451269924640656, 0.10513947159051895, -0.16237887740135193, -0.29764991998672485, 0.27098405361175537, -0.09414087980985641, -0.33473020792007446, -0.0769902840256691, -0.35967615246772766, -0.06992201507091522, 0.19907839596271515, -0.027371354401111603, -0.3079676628112793, -0.01910783350467682, -0.05155937001109123, 0.23183411359786987, -0.1542310267686844, -0.14475709199905396, -0.2777545750141144, -0.2552393078804016, -0.004195880144834518, -0.06472668796777725, -0.15354599058628082, -0.04714292660355568, -0.2497914880514145, -0.16059347987174988, 0.18427541851997375, 0.08800118416547775, 0.09832454472780228, 0.0515088252723217, -0.18001805245876312, 0.0864306092262268, 0.25183436274528503, -0.05606092885136604, -0.028242632746696472, -0.13168510794639587, 0.017767461016774178, -0.015993770211935043, -0.1310059130191803, 0.23561865091323853, 0.08774726837873459, 0.0091231819242239, -0.0017991217318922281, -0.1460568755865097, -0.09967582672834396, 0.07302530854940414, 0.11535048484802246, 0.10025517642498016, -0.25652235746383667, 0.10263702273368835, 0.29077744483947754, 0.07297338545322418, 0.22534291446208954, 0.24717696011066437, -0.28518417477607727, 0.14704130589962006, 0.44650810956954956, -0.04836925491690636, -0.0883290022611618, -0.2840680181980133, -0.09886179119348526, 0.16919994354248047, 0.008475912734866142, 0.24017703533172607, 0.06328181177377701, -0.05970977619290352, 0.13947825133800507, 0.25584742426872253, 0.38683536648750305, -0.04386438801884651, -0.008839131332933903, 0.027981963008642197, -0.0636025071144104, 0.2810954749584198, -0.011920076794922352, 0.2302311360836029, 0.10296554863452911, 0.5922043919563293, -0.053784485906362534, 0.2038189172744751, -0.441023588180542, 0.2474229484796524, 0.1947311908006668, 0.3665267527103424, 0.15373463928699493, -0.09350898861885071, 0.0022752024233341217, -0.16390614211559296, -0.036147087812423706, -0.3333043158054352, 0.02418147586286068, -0.2199934720993042, 0.761543333530426, 0.024401502683758736, -0.06386691331863403, -0.016894366592168808, 0.1467558592557907, 0.026208477094769478, -0.07510608434677124, 0.07466039806604385, -0.12704746425151825, -0.05197552219033241, 0.009707685559988022, -0.12475694715976715, 0.11860635876655579, 0.06123540550470352, 0.20027020573616028, -0.021657120436429977, -0.1480361819267273, 0.12776286900043488, 0.029362685978412628, -0.24020422995090485, -0.18921007215976715, 0.029134850949048996, 0.23038166761398315, -0.07463635504245758, -0.03739909827709198, -0.25373324751853943, -0.19375938177108765, 0.04552191123366356, 0.2278246283531189, 0.05107012391090393, 0.011578167788684368, -0.1676284670829773, 0.14365869760513306, -0.025775203481316566, 0.2758651375770569, -0.20202623307704926, 0.01231603603810072, 0.09356566518545151, -0.03946476802229881, -0.09691929817199707, 0.1727786362171173, -0.10382258892059326, -0.13212226331233978, 0.16884863376617432, 0.2360321283340454, 0.030722439289093018, -0.22642205655574799, 0.0988556444644928, 0.04858715459704399, -0.08532559871673584, 0.05283346027135849, 0.18266353011131287, 0.0683060735464096, -0.26048028469085693, 0.37767452001571655, -0.28045937418937683, -0.13991929590702057, 0.4132267236709595, 0.021419990807771683, -0.00560987601056695, -0.1000542864203453, 0.13938389718532562, -0.0676715299487114, 0.11672089993953705, -0.10330605506896973, 0.05923144146800041, 0.011451163329184055, 0.1154317706823349, -0.006647409405559301, -0.038204342126846313, 0.16272014379501343, -0.05275161936879158, 0.2730374336242676, -0.13937799632549286, -0.0656728520989418, -0.199131041765213, -0.008302677422761917, 0.24750077724456787, 0.13089226186275482, -0.031249530613422394, 0.09709952771663666, 0.09548386186361313, 0.026110496371984482, 0.07367327809333801, 0.10855204612016678, 0.28936561942100525, -0.1553802490234375, -0.059080641716718674, 0.16986006498336792, 0.0803302526473999, 0.191873699426651, 0.12464272230863571, 0.0553794763982296, -0.034503430128097534, 0.0027847588062286377, 0.11118805408477783, -0.35954150557518005, -0.06225552409887314, 0.1756468564271927, 0.05440271273255348, 0.08350447565317154, -0.013815457001328468, 0.3555458188056946, -0.12603536248207092, 0.14686524868011475, 0.20503205060958862, 0.08478783071041107, 0.2704608142375946, -0.12009860575199127, 0.05123657360672951, -0.06332232803106308, 0.12912054359912872, 0.03868834301829338, -0.10210905224084854, 0.013844132423400879, 0.2784160375595093, 0.11524271965026855, -0.06471271812915802, 0.11342307180166245, -0.24332813918590546, -0.13349241018295288, -0.16041575372219086, 0.12823157012462616, 0.006469234358519316, 0.10317748785018921, -0.30461934208869934, -0.3823264241218567, 0.22306770086288452, 0.05294940620660782, 0.028632907196879387, 0.03258240595459938, -0.417963445186615, -0.08815095573663712, -0.14052920043468475, 0.22183234989643097, 0.12217436730861664, -0.015653900802135468, 0.11333207786083221, 0.15367698669433594, -0.24959203600883484, 0.03996539115905762, -0.025430599227547646, 0.15280848741531372, 0.03898828476667404, -0.33272597193717957, -0.012161070480942726, -0.05042266100645065, 0.1114594042301178, 0.12587137520313263, 0.05333840847015381, 0.07331515848636627, 0.14426292479038239, 0.1772029995918274, 0.11188285797834396, 0.2425697147846222, -0.13218817114830017, 0.21592845022678375, -0.0412076935172081, 0.05652359873056412, 0.0031994907185435295, 0.15269525349140167, 0.07464687526226044, -0.01531151868402958, 0.008534201420843601, 0.14309106767177582, -0.0809275209903717, -0.20268091559410095, 0.09864387661218643, -0.029209371656179428, -0.04089707136154175, 0.045161012560129166, 0.046416494995355606, 0.06912309676408768, -0.011810909025371075, 0.08885764330625534, 0.25269976258277893, -0.038851264864206314, -0.024530090391635895, -0.1555279791355133, 0.1898631751537323, 0.02691740356385708, -0.10052789002656937, -0.05183574557304382, 0.11864394694566727, -0.040155116468667984, 0.13189710676670074, 0.08386372774839401, -0.2370845377445221, -0.14683601260185242, -0.13657987117767334, 0.11932103335857391, -0.2125665843486786, -0.09677644819021225, 0.29349780082702637, -0.13029126822948456, 0.06938399374485016, -0.07460697740316391, -0.1512230634689331, -0.0044981930404901505, 0.09538417309522629, 0.10265767574310303, 0.02026430331170559, -0.2529039680957794, 0.04206298664212227, 0.09007556736469269, -0.06593125313520432, -0.0018203775398433208, 0.02147175744175911, -0.1250993013381958, -0.016288993880152702, -0.09935561567544937, -0.09710162878036499, -0.025302384048700333, -0.09585998207330704, -0.09924593567848206, -0.03421998396515846, -0.012041304260492325, -0.1720004826784134, -0.0815482884645462, -0.1285722404718399, 0.06655576080083847, -0.12175397574901581, -0.18611128628253937, -0.403059720993042, 0.031465161591768265, 0.05066065862774849, 0.021671196445822716, -0.244893878698349, -0.09933353215456009, 0.15124621987342834, 0.07236060500144958, -0.015588853508234024, -0.026198117062449455, -0.2642253339290619, -0.11151786148548126, 0.172663152217865, 0.1736813336610794, 0.23335117101669312, -0.2478502243757248, 0.10550273209810257, -0.06337932497262955, -0.14443345367908478, -0.08094266802072525, -0.04528981074690819, 0.25230979919433594, 0.05712604895234108, -0.09890340268611908, 0.08072655647993088, 0.034836940467357635, -0.1016293615102768, 0.36768579483032227, -0.027783537283539772, -0.1619565188884735, 0.12143999338150024, 0.15316978096961975, 0.2732192873954773, -0.26947760581970215, 0.16636821627616882, 0.23354414105415344, -0.06669384986162186, -0.02454681694507599, 0.06263580173254013, 0.26330623030662537, -0.0479293130338192, -0.016191722825169563, -0.03430786356329918, -0.14291588962078094, -0.24645854532718658, 0.2607191801071167, 0.12192326039075851, 0.03761371597647667, -0.07499490678310394, -0.012765144929289818, 0.10963940620422363, 0.3517105281352997, -0.005899837706238031, 0.44688284397125244, 0.12464150041341782, -0.12448187172412872, 0.0804780051112175, 0.19068634510040283, -0.0756230354309082, 0.011429528705775738,