{"version":"0.5.4","metadata":{"date":{"year":2025,"month":10,"day":25,"hour":1,"minute":26,"second":28},"loudness":-26.314603805541992,"gain":0.015261624482917626,"name":"Mesa Subway WD-800 DI Mark Settings","modeled_by":"markhopkinsbass","gear_type":"amp","gear_make":"tz-make","gear_model":"tz-model","tone_type":"overdrive","input_level_dbu":null,"output_level_dbu":null,"training":{"settings":{"ignore_checks":false},"data":{"latency":{"manual":null,"calibration":{"algorithm_version":1,"delays":[-63],"safety_factor":1,"recommended":-64,"warnings":{"matches_lookahead":false,"disagreement_too_high":false}}},"checks":{"version":3,"passed":true}},"validation_esr":0.0010303514170093295}},"architecture":"WaveNet","config":{"layers":[{"input_size":1,"condition_size":1,"head_size":8,"channels":16,"kernel_size":3,"dilations":[1,2,4,8,16,32,64,128,256,512],"activation":"Tanh","gated":false,"head_bias":false},{"input_size":16,"condition_size":1,"head_size":1,"channels":8,"kernel_size":3,"dilations":[1,2,4,8,16,32,64,128,256,512],"activation":"Tanh","gated":false,"head_bias":true}],"head":null,"head_scale":0.02},"weights":[-0.00015761418035253882,0.43260571360588074,-0.6626917123794556,-0.5436844825744629,-0.19625794887542725,0.2849695682525635,-0.0001408398966304958,0.8120413422584534,-0.04009102284908295,0.038686878979206085,-0.21894073486328125,-0.07243981212377548,-0.94227534532547,-0.5125213265419006,-0.39211350679397583,0.0006670335424132645,0.09521223604679108,0.08435571938753128,0.07880724221467972,-0.2260487824678421,0.12236299365758896,0.05747077241539955,0.14343315362930298,0.035961974412202835,0.043842948973178864,0.18381911516189575,0.05557231232523918,-0.0664505884051323,0.06441503018140793,-0.11470326781272888,0.004148820415139198,-0.03935055434703827,-0.014206786639988422,-0.11406334489583969,-0.12538570165634155,-0.3146438002586365,-0.18823054432868958,-0.05315184220671654,0.14130593836307526,0.008516350761055946,0.12822996079921722,-0.14122220873832703,0.09635739028453827,-0.2509455382823944,-0.05208746716380119,-0.041466571390628815,0.2491511106491089,0.0138379642739892,0.008466335944831371,0.13495603203773499,0.03296154364943504,0.20298518240451813,0.23513086140155792,-0.05665896460413933,0.15881399810314178,0.08670993894338608,-0.04898873344063759,-0.051764026284217834,0.07118023186922073,-0.1540917307138443,0.12678509950637817,0.11207093298435211,-0.05547776073217392,0.13749447464942932,0.08729000389575958,-0.03143160790205002,-0.15479829907417297,0.17130066454410553,0.003440456697717309,0.18002663552761078,-0.257975310087204,0.031048143282532692,0.007133145816624165,-0.026123685762286186,0.21365584433078766,0.07782108336687088,-0.10460449010133743,-0.03894658759236336,-0.037929803133010864,0.044639039784669876,-0.21170729398727417,0.16758334636688232,0.02827623300254345,-0.17079059779644012,-0.0657539814710617,0.12556812167167664,-0.11162091791629791,-0.02224414423108101,-0.0315425768494606,-0.0497288778424263,-0.03897475451231003,0.17076848447322845,0.04156104847788811,0.012254448607563972,-0.27467775344848633,-0.02523285523056984,0.0066005573607981205,-0.07832662761211395,-0.06134168803691864,-0.14407232403755188,-0.014995762147009373,0.18601743876934052,-0.10646406561136246,-0.18229219317436218,-0.05176391825079918,-0.047099191695451736,-0.25331535935401917,-0.027812253683805466,-0.0586128830909729,-0.00021638681937474757,-0.09777037054300308,0.01946805603802204,-0.03602539747953415,0.11023557186126709,0.12435564398765564,-0.08103469759225845,0.0786670669913292,-0.17057058215141296,-0.023930558934807777,-0.0836644396185875,0.23141159117221832,-0.03152957558631897,-0.1837226152420044,0.24263034760951996,-0.16513298451900482,-0.18265102803707123,0.14765270054340363,-0.038016900420188904,0.05490719527006149,-0.3108106851577759,0.007951956242322922,0.04421886056661606,-0.1284397393465042,0.03508061543107033,0.22161445021629333,-0.19411349296569824,0.012214339338243008,-0.051688432693481445,0.2568376958370209,0.12563547492027283,0.2317458987236023,-0.08500130474567413,0.10256781429052353,-0.11145403236150742,0.06127684935927391,-0.0999440848827362,0.01036727987229824,0.18653035163879395,-0.1151881068944931,-0.2300610989332199,0.04222927615046501,-0.16108635067939758,-0.14226368069648743,0.2573203146457672,0.04314373433589935,-0.24786007404327393,0.2764148414134979,-0.0657302588224411,-0.044072799384593964,-0.07273413240909576,-0.13492898643016815,-0.10136979073286057,-0.19791431725025177,-0.2018257975578308,0.06505396962165833,0.06756413727998734,0.011740201152861118,-0.037841394543647766,-0.1937008947134018,0.07087879627943039,0.0361587330698967,-0.11617868393659592,0.1993311047554016,-0.0347965843975544,-0.18330581486225128,0.021997099742293358,0.07015682756900787,0.005910355597734451,0.18500615656375885,-0.01576673425734043,0.09142093360424042,-0.11240850389003754,0.19886508584022522,0.10919567942619324,0.08760510385036469,0.00236924784258008,-0.04332416504621506,-0.07313903421163559,-0.05472876876592636,0.18577086925506592,0.17672526836395264,0.017400583252310753,-0.14944975078105927,0.04270004481077194,-0.16332289576530457,-0.1182415783405304,-0.0008311900310218334,-0.04706258326768875,-0.1551472395658493,0.07427886873483658,-0.08730627596378326,0.026945142075419426,-0.03229407221078873,-0.1909606009721756,-0.14405745267868042,0.17815056443214417,-0.0012351437471807003,-0.04019375517964363,0.07159891724586487,0.030235804617404938,0.0048320721834897995,-0.17167018353939056,-0.036358993500471115,0.03609082102775574,0.15017782151699066,0.07766079157590866,-0.17237624526023865,0.07091857492923737,0.169830784201622,-0.17779633402824402,0.12008174508810043,0.18400786817073822,-0.018317243084311485,-0.13604986667633057,-0.17463140189647675,0.1517663449048996,0.02297079935669899,0.10625487565994263,0.14546369016170502,-0.17284312844276428,-0.055262088775634766,0.18432828783988953,0.10989661514759064,0.14055871963500977,-0.007230984512716532,-0.20746411383152008,0.016230907291173935,0.023275315761566162,0.07856418192386627,0.09278303384780884,-0.01843605563044548,0.23373007774353027,0.00401877099648118,-0.07025192677974701,0.22650602459907532,-0.08190667629241943,0.040267251431941986,0.027976656332612038,0.056338973343372345,-0.09023158997297287,0.06845264136791229,0.06924188137054443,0.050905514508485794,-0.058746352791786194,-0.08428172767162323,-0.03774476796388626,-0.15532200038433075,0.003227213164791465,0.03477901965379715,-0.09668103605508804,0.075930655002594,-0.06043734401464462,0.07866279035806656,-0.047032393515110016,0.19521865248680115,-0.042501769959926605,-0.1964009553194046,0.18375472724437714,0.13290442526340485,-0.1015588790178299,0.08017753064632416,-0.0785536989569664,0.00710233673453331,-0.12321370840072632,-0.004225830547511578,-0.0780089795589447,0.17478694021701813,-0.0998038575053215,0.14311645925045013,-0.10359854996204376,0.03652466833591461,-0.17106446623802185,0.07836117595434189,0.13268347084522247,0.15948697924613953,0.006117088720202446,-0.040846243500709534,-0.09483755379915237,0.12612491846084595,-0.00612239632755518,-0.2083648294210434,0.20670895278453827,0.05063995346426964,-0.16404953598976135,0.11107596009969711,-0.08215632289648056,-0.054474424570798874,0.036427661776542664,0.07124277949333191,-0.19724075496196747,0.08210507780313492,0.02520129643380642,-0.11841613054275513,0.12498611211776733,0.006064531393349171,-0.12618480622768402,0.08266344666481018,0.17513611912727356,0.05456402525305748,-0.15444883704185486,-0.23831294476985931,-0.021564947441220284,0.18031197786331177,-0.16836491227149963,0.06049326807260513,0.22401896119117737,-0.17577706277370453,0.014695310033857822,0.19384197890758514,0.12010149657726288,0.0009988441597670317,-0.1347123086452484,-0.0974164679646492,-0.032126784324645996,0.04357322305440903,0.2510513961315155,0.08061441034078598,-0.1173681989312172,0.010034719482064247,-0.03152193874120712,0.03764597699046135,-0.037255462259054184,0.1483967900276184,-0.0953189879655838,-0.2062724530696869,0.06695768982172012,0.24651187658309937,0.05387118458747864,0.12777622044086456,0.24943116307258606,-0.15478764474391937,-0.04755055904388428,0.2538336217403412,-0.03545674681663513,-0.08226640522480011,0.2647245228290558,-0.043665796518325806,0.08937251567840576,0.04879766330122948,0.0392204225063324,-0.06604477763175964,0.15317396819591522,-0.00667839078232646,0.06495042145252228,0.041790589690208435,0.03519530966877937,0.007513489108532667,0.17340347170829773,-0.070163294672966,-0.02016947604715824,-0.19682802259922028,-0.11265186220407486,-0.17254310846328735,0.014315039850771427,0.10502484440803528,0.07839979976415634,0.02321549691259861,-0.1493823230266571,-0.049930132925510406,0.08047748357057571,-0.04995180666446686,0.09551067650318146,-0.08637452125549316,-0.09923882782459259,-0.08600252866744995,0.023720400407910347,0.13051676750183105,0.08428133279085159,0.041045431047677994,0.09708162397146225,0.19192633032798767,0.08193022757768631,0.0848873108625412,0.08375997841358185,-0.041058361530303955,0.16256527602672577,0.025174492970108986,0.0026119425892829895,-0.020442087203264236,0.01460839994251728,-0.08918516337871552,-0.005012158770114183,-0.13675148785114288,-0.18334142863750458,-0.08569304645061493,0.04517187178134918,0.0016241432167589664,-0.002004491165280342,-0.12942618131637573,0.10276468843221664,0.08856730163097382,-0.042368724942207336,-0.05847976356744766,0.15710793435573578,0.21038402616977692,-0.19838343560695648,0.11419333517551422,-0.04357603192329407,0.03432006016373634,0.062086332589387894,-0.23155538737773895,0.06479785591363907,0.11462729424238205,-0.1276300698518753,-0.005103384144604206,-0.03602117672562599,0.09960632026195526,-0.1291116327047348,0.02562825381755829,0.13850601017475128,-0.05337843298912048,-0.06918594241142273,0.16164469718933105,-0.0200014840811491,0.08858950436115265,-0.20072147250175476,0.12435703724622726,-0.07607623934745789,0.06513851881027222,-0.025479884818196297,-0.12023555487394333,-0.08155254274606705,0.226429283618927,-0.01030329056084156,-0.21368201076984406,0.05481439828872681,0.010382482782006264,-0.2657034397125244,0.15936164557933807,-0.14874368906021118,-0.28733107447624207,-0.050622276961803436,-0.04171960800886154,-0.046713605523109436,-0.03902938961982727,0.0957653671503067,-0.07013396918773651,0.07830896973609924,0.05088826268911362,-0.10422832518815994,0.11353977024555206,0.18162836134433746,0.08383204787969589,0.015859032049775124,-0.20637521147727966,0.18011635541915894,0.05975666642189026,-0.04062802717089653,-0.05264785885810852,0.006577577907592058,-0.24000707268714905,0.0034610985312610865,0.07543870061635971,-0.008856344036757946,-0.01163927186280489,0.012863385491073132,0.15000072121620178,0.07192038744688034,-0.01863674633204937,0.07097159326076508,0.00005250087269814685,0.0839071050286293,0.020683659240603447,0.017509451135993004,0.06774378567934036,-0.07422186434268951,-0.15568415820598602,-0.048082802444696426,-0.17660127580165863,0.12580564618110657,-0.05911345034837723,-0.1466657668352127,-0.07947082072496414,0.11953986436128616,-0.13063445687294006,0.17483176290988922,0.14784877002239227,-0.030928853899240494,0.06625969707965851,0.011936190538108349,-0.14213646948337555,0.08096157759428024,0.12379858642816544,-0.07506297528743744,0.16444143652915955,0.09301499277353287,-0.11947959661483765,-0.12609776854515076,-0.021815147250890732,0.23273371160030365,-0.15853936970233917,0.12109052389860153,-0.037232883274555206,0.10688319802284241,0.0930856317281723,-0.18405795097351074,0.07212310284376144,0.031139323487877846,-0.1347910463809967,0.08234874159097672,-0.05928219482302666,0.18709507584571838,-0.06830401718616486,-0.0439651720225811,-0.004308355040848255,0.1402662992477417,0.001104295370168984,0.12335950136184692,0.05709466338157654,0.008286276832222939,-0.010691064409911633,-0.007478755433112383,0.023848485201597214,-0.035851676017045975,-0.10094740241765976,-0.1426263153553009,0.037797123193740845,-0.014967823401093483,-0.03167380392551422,-0.14969773590564728,0.15435752272605896,0.1169549897313118,-0.22030329704284668,-0.09108226001262665,-0.1326414793729782,-0.1075894832611084,-0.010745021514594555,-0.11623740941286087,-0.15596893429756165,0.057293858379125595,-0.09783005714416504,0.009557678364217281,-0.05778956785798073,-0.13198363780975342,0.13074497878551483,0.1422392576932907,-0.21926888823509216,0.04480326920747757,-0.1399104744195938,0.195268452167511,-0.18081803619861603,-0.05107267573475838,0.0826907679438591,-0.13586348295211792,0.11719811707735062,-0.07236097007989883,-0.06719599664211273,0.05185926705598831,0.027341464534401894,0.03911653161048889,-0.22467100620269775,-0.0363096185028553,-0.09184654802083969,0.10995710641145706,-0.16618937253952026,0.18290531635284424,-0.12423598021268845,0.027604179456830025,0.11423848569393158,0.10935509949922562,0.016263291239738464,0.08449383080005646,-0.10977159440517426,-0.11898330599069595,-0.03925548121333122,0.19395455718040466,-0.12247452139854431,-0.13808293640613556,0.11971919983625412,0.07088003307580948,-0.08892371505498886,-0.02679753676056862,-0.18414419889450073,-0.00715853413566947,0.07854682207107544,-0.12731508910655975,-0.012635292485356331,0.1428460329771042,0.0552087277173996,0.12502421438694,-0.019681131467223167,-0.08513226360082626,-0.09792886674404144,0.1528635025024414,0.05282974615693092,0.2054041028022766,-0.2090826779603958,0.08912769705057144,-0.016353027895092964,0.21387477219104767,-0.08404280245304108,-0.20565012097358704,-0.012260363437235355,0.1718011200428009,-0.20132780075073242,0.01678142324090004,0.10462677478790283,0.08165815472602844,-0.14796803891658783,-0.06190691515803337,0.007262963801622391,-0.12144501507282257,0.06340217590332031,0.09446626901626587,-0.03678448870778084,0.08066937327384949,-0.030665498226881027,0.0525883249938488,0.10977385938167572,0.11964233964681625,-0.12528163194656372,0.01984589174389839,-0.10257080942392349,-0.06847220659255981,-0.01881171576678753,-0.21402676403522491,0.17803901433944702,-0.0014772408176213503,-0.2899969518184662,0.07977060973644257,0.13567988574504852,-0.11671113222837448,0.13104477524757385,0.056134823709726334,-0.10010108351707458,0.0484926737844944,-0.02072439342737198,-0.15243759751319885,-0.15564373135566711,0.09533751010894775,-0.03215855732560158,0.053123604506254196,-0.00901956856250763,0.06779766082763672,-0.24082984030246735,0.2365037500858307,-0.1450129598379135,0.26641589403152466,-0.21288910508155823,-0.10018199682235718,0.22494405508041382,-0.15877066552639008,0.054401662200689316,0.03311542049050331,-0.22916239500045776,-0.001241782563738525,-0.10902089625597,0.23577451705932617,0.0016292171785607934,0.08627782016992569,-0.001175105688162148,0.035803522914648056,-0.043850649148225784,-0.01428210735321045,-0.037970006465911865,0.197468563914299,-0.17875106632709503,0.13994300365447998,-0.15963076055049896,0.16866886615753174,-0.19169634580612183,0.10704193264245987,-0.14055274426937103,0.006420796271413565,0.16107460856437683,-0.006138659548014402,-0.08838418126106262,0.14585120975971222,0.002297403058037162,-0.10614632815122604,0.27080410718917847,-0.19408677518367767,-0.084515780210495,0.13215287029743195,-0.041532739996910095,0.09937309473752975,-0.020531004294753075,-0.1596609652042389,0.06845240294933319,-0.018898582085967064,0.04880039766430855,-0.11900147050619125,0.27666550874710083,0.056711919605731964,0.04242728650569916,-0.3230113685131073,0.17858830094337463,-0.07204711437225342,-0.15031974017620087,0.10046730935573578,-0.023930521681904793,-0.11626939475536346,-0.04048030078411102,-0.009294306859374046,0.0823797956109047,-0.1065196543931961,-0.015959814190864563,0.04931867867708206,-0.19990503787994385,0.05683392286300659,0.1713150143623352,-0.14832942187786102,-0.06937903165817261,-0.23749683797359467,0.27732688188552856,-0.05744323879480362,0.15678896009922028,-0.027121737599372864,0.12968461215496063,-0.048034701496362686,0.21103116869926453,-0.07820124179124832,-0.17056937515735626,0.012219471856951714,-0.04779159277677536,-0.15658539533615112,0.21381565928459167,-0.07861193269491196,-0.09547185897827148,0.005613149609416723,0.013592448085546494,-0.06506974995136261,0.055484235286712646,-0.006127862725406885,-0.12582331895828247,0.1240711435675621,-0.02877899818122387,-0.09311781078577042,0.09212177991867065,-0.036775536835193634,-0.2397957146167755,0.014157160185277462,0.044292960315942764,0.0833883285522461,0.06231091916561127,0.05244780704379082,0.2190016210079193,-0.08333776146173477,-0.09594117850065231,0.06040127947926521,-0.13697820901870728,0.07359697669744492,-0.0038918687496334314,0.13026097416877747,-0.05496984347701073,0.02943728305399418,0.01613674871623516,0.18384383618831635,-0.18746411800384521,-0.0975358784198761,-0.05783230811357498,0.12797237932682037,-0.19996747374534607,0.1710067242383957,-0.04123787209391594,-0.10722425580024719,-0.09867054224014282,0.22843164205551147,-0.13462214171886444,-0.10047680139541626,0.1359628289937973,-0.15276722609996796,0.004547813441604376,0.2041321098804474,0.08784767985343933,-0.16754025220870972,0.26539090275764465,-0.09129275381565094,0.0657150000333786,-0.021351441740989685,-0.1398269087076187,0.10633113980293274,0.08096236735582352,0.13490450382232666,-0.053145699203014374,-0.1232616975903511,-0.13612335920333862,-0.16500577330589294,0.05488024279475212,0.06989114731550217,-0.12039107084274292,-0.011844530701637268,0.04659917578101158,0.17728526890277863,-0.09299543499946594,0.01176732312887907,-0.08574048429727554,0.18613269925117493,-0.06677832454442978,0.04382654279470444,0.38189274072647095,-0.38720524311065674,0.6274259090423584,-0.6287487149238586,0.06064797565340996,0.7625900506973267,0.8649965524673462,-0.4707660377025604,0.0986294075846672,0.05763367563486099,-0.4429681897163391,-0.2964678108692169,0.22187532484531403,-0.6063575744628906,0.09463077783584595,0.42859482765197754,-0.030701307579874992,0.18204990029335022,-0.000816923682577908,0.10312975198030472,0.2244403064250946,-0.08603682368993759,0.15188062191009521,0.019424835219979286,-0.07433680444955826,-0.019293077290058136,-0.005406256299465895,-0.07538077980279922,0.0834730863571167,-0.014300634153187275,0.11640139669179916,-0.019533082842826843,-0.04470527172088623,-0.1302017867565155,-0.26057523488998413,0.07174661755561829,0.026076005771756172,-0.17912009358406067,-0.17672917246818542,0.08470666408538818,-0.0023981430567801,0.22880688309669495,-0.030224086716771126,0.030122853815555573,0.008229372091591358,-0.025726046413183212,0.1742117702960968,0.004816728178411722,0.09621737152338028,0.11362341046333313,0.06577547639608383,0.1935943067073822,-0.17046034336090088,-0.06711795181035995,0.2693878710269928,-0.13383521139621735,-0.062041301280260086,-0.18863382935523987,0.2566555440425873,-0.15250976383686066,0.26254037022590637,0.2724783420562744,0.05964130908250809,0.19393976032733917,0.217034250497818,-0.2647368013858795,-0.010096111334860325,-0.17139112949371338,-0.052551232278347015,0.27940601110458374,0.14289547502994537,-0.09564390033483505,-0.09670139104127884,0.11822164803743362,-0.07123788446187973,-0.01895107328891754,0.13589707016944885,0.13412563502788544,-0.10257943719625473,0.0005263490020297468,-0.18937745690345764,-0.33454883098602295,-0.16384898126125336,0.14821557700634003,0.07576382160186768,0.26750436425209045,0.19882982969284058,-0.1668822467327118,0.13715021312236786,0.3280065059661865,-0.11562377959489822,0.17749761044979095,0.01800023764371872,0.08080445975065231,-0.10025942325592041,0.07858889549970627,-0.3636811673641205,0.097874715924263,0.18295863270759583,0.09094048291444778,-0.005962735507637262,0.23730626702308655,0.3798559308052063,0.029603898525238037,0.23317541182041168,0.18986070156097412,-0.030766744166612625,0.13139045238494873,0.18307261168956757,-0.057337645441293716,0.24037113785743713,0.07072662562131882,0.13134528696537018,0.10131926834583282,0.20588211715221405,0.08916746079921722,-0.053978487849235535,-0.2868718206882477,0.01953156106173992,-0.01538109127432108,-0.0014854494947940111,-0.3165062963962555,-0.3100876808166504,0.1829148530960083,0.22586308419704437,-0.13165470957756042,0.032891351729631424,0.022679848596453667,0.21943369507789612,0.08779481053352356,0.32488635182380676,-0.15671300888061523,-0.3118758797645569,0.13096243143081665,0.2835030257701874,0.030728233978152275,0.1656607836484909,-0.18893320858478546,0.1873350292444229,-0.1570621132850647,0.1381259560585022,-0.1132192611694336,-0.01966630108654499,0.05636529251933098,-0.027702532708644867,-0.029008997604250908,-0.25587400794029236,-0.20513926446437836,0.15270301699638367,-0.055280059576034546,-0.13277778029441833,-0.044770095497369766,-0.21791638433933258,-0.19839797914028168,0.1599433422088623,0.08718085289001465,0.11381971836090088,-0.13347026705741882,0.06664914637804031,0.13478177785873413,-0.28179052472114563,0.16983956098556519,0.08688094466924667,-0.18177364766597748,-0.45495691895484924,-0.18632416427135468,0.2202960103750229,-0.014876763336360455,-0.06544149667024612,0.3031836152076721,0.33114418387413025,0.2806813418865204,0.390011727809906,0.4096637964248657,-0.17769484221935272,0.07728960365056992,0.14914220571517944,0.22403208911418915,-0.31733691692352295,0.11655962467193604,-0.10748220235109329,-0.237345889210701,0.09408866614103317,-0.002419286174699664,-0.02422206476330757,-0.10329118371009827,-0.10428547859191895,0.027164284139871597,-0.02717171236872673,0.19154895842075348,-0.006625327747315168,0.2871868312358856,0.030682560056447983,-0.12443801760673523,0.17180666327476501,-0.014924578368663788,0.10267084091901779,-0.010661225765943527,0.008175112307071686,-0.06316471844911575,0.005983221810311079,-0.1112767681479454,-0.021861005574464798,-0.20001621544361115,-0.037668097764253616,0.11754085123538971,-0.19884005188941956,-0.0938698798418045,0.04766419157385826,-0.05739150941371918,-0.0035066846758127213,-0.0014122994616627693,0.22471581399440765,-0.12307368963956833,-0.06613456457853317,0.09358424693346024,0.1662534475326538,-0.15391883254051208,-0.1700967699289322,0.031927477568387985,0.1424957513809204,-0.18509259819984436,-0.20699691772460938,0.22800010442733765,0.03523121401667595,-0.16188834607601166,-0.061252281069755554,0.14635595679283142,-0.02837677299976349,0.2825841009616852,0.2541365325450897,-0.027358204126358032,-0.007751963566988707,-0.15309056639671326,0.022071151062846184,0.04140801727771759,-0.09799186885356903,-0.15029281377792358,-0.1923358291387558,0.20587973296642303,-0.14423058927059174,0.24417546391487122,-0.15197458863258362,-0.1434601992368698,0.16244426369667053,0.03154386579990387,0.13246452808380127,0.16578251123428345,-0.2879311144351959,0.05953444540500641,-0.03614450991153717,-0.11221110075712204,0.12183414399623871,0.18893131613731384,-0.2400500476360321,-0.005554329138249159,0.12138815224170685,0.0869566947221756,0.16145585477352142,-0.10154713690280914,-0.03571295738220215,0.15547846257686615,0.0055879526771605015,0.15042626857757568,-0.13071750104427338,-0.1259153038263321,-0.051503293216228485,-0.16188570857048035,0.0711972564458847,0.183447927236557,-0.029174214228987694,0.0590096041560173,0.08290829509496689,-0.10047280788421631,0.15056093037128448,-0.09446268528699875,-0.14614363014698029,0.02400919608771801,0.14807948470115662,0.02365604229271412,0.008473174646496773,-0.08427656441926956,0.05334647372364998,0.001829918590374291,0.02975935861468315,0.07296103984117508,0.04456942528486252,0.006302370689809322,0.19924511015415192,-0.009406092576682568,0.13900035619735718,-0.05795693024992943,-0.03790672868490219,0.03583911806344986,0.09224478155374527,0.15493550896644592,0.019111772999167442,-0.20198078453540802,0.062294863164424896,-0.07559406757354736,-0.011778346262872219,-0.02843378111720085,0.08558756113052368,0.2029145509004593,-0.26538214087486267,0.21898436546325684,-0.14572864770889282,-0.12128177285194397,-0.021450817584991455,0.04195409268140793,-0.2486649751663208,-0.04714061692357063,-0.0816381499171257,0.1938125342130661,-0.10228267312049866,-0.08202517032623291,0.103275366127491,0.028579939156770706,-0.10299345850944519,0.18412669003009796,-0.02128722332417965,-0.2034987211227417,0.03994258493185043,-0.12741267681121826,-0.07720815390348434,0.18175330758094788,-0.12390642613172531,-0.0037916861474514008,0.15414157509803772,-0.1283927708864212,-0.11645957827568054,0.3103727102279663,0.006582935340702534,0.043636519461870193,-0.07299064099788666,-0.1547785848379135,0.09047141671180725,0.029991095885634422,0.28393256664276123,-0.1526433378458023,-0.12407702207565308,-0.12373273074626923,-0.036555320024490356,0.07023343443870544,0.1805785447359085,-0.20960992574691772,0.0807417556643486,-0.04851677268743515,0.13368704915046692,-0.08799540251493454,0.15684446692466736,-0.06629963219165802,-0.13960018754005432,-0.026178592815995216,0.11455612629652023,-0.08447804301977158,-0.2059985250234604,0.17508874833583832,-0.13201981782913208,-0.049251072108745575,-0.1844428926706314,-0.09371805936098099,-0.039885539561510086,0.15738210082054138,0.09580791741609573,-0.06557166576385498,-0.028980370610952377,0.022981325164437294,-0.014474606141448021,-0.08305322378873825,-0.01850353181362152,0.03146200627088547,-0.10187686234712601,0.04529498517513275,0.06774011999368668,-0.012219134718179703,0.07074986398220062,0.10280037671327591,-0.11013565212488174,-0.028701530769467354,0.016352476552128792,0.020274754613637924,0.11340153217315674,-0.1864900290966034,-0.0381302684545517,-0.11601860821247101,-0.0655260980129242,0.14548958837985992,0.12179930508136749,-0.1547982096672058,0.005381197668612003,0.19886229932308197,0.10162822902202606,0.13239292800426483,0.10486557334661484,0.005877855699509382,0.11541619151830673,0.00023193717061076313,0.09081949293613434,-0.07382120937108994,-0.0314333550632,0.1800563782453537,0.03740106523036957,-0.15604297816753387,-0.10973113775253296,-0.09118927270174026,-0.22667814791202545,0.12710873782634735,0.002224923577159643,-0.07472290843725204,-0.06147070974111557,0.05246896669268608,0.2226404845714569,-0.04252595826983452,-0.06928335130214691,0.009365372359752655,0.11298470944166183,-0.0010978110367432237,-0.0803300216794014,0.0977267473936081,0.0669303685426712,0.1003495380282402,-0.011948867700994015,-0.05092170462012291,-0.03586753085255623,0.03410311043262482,-0.09240010380744934,0.17087990045547485,0.06571121513843536,-0.0834362730383873,0.07805707305669785,0.1298912763595581,-0.02950974926352501,-0.05057224631309509,-0.12603512406349182,-0.22903768718242645,0.13213737308979034,0.09767942130565643,0.2889481484889984,-0.25276485085487366,-0.21906612813472748,0.17209915816783905,0.06142210587859154,-0.11340886354446411,0.07426241040229797,-0.08944112807512283,-0.0788322389125824,-0.2157106250524521,0.03168439865112305,-0.03784561902284622,-0.03637859597802162,0.018754661083221436,0.13704505562782288,-0.29388102889060974,0.039346277713775635,0.06888841837644577,0.16685619950294495,-0.03932931274175644,0.032422907650470734,0.27388522028923035,-0.2675850987434387,-0.11291476339101791,0.24547059834003448,-0.1339235007762909,-0.02985437773168087,-0.12331109493970871,0.10667839646339417,0.22682833671569824,0.16619102656841278,0.04660468176007271,-0.11508960276842117,0.11326344311237335,-0.08723782747983932,-0.11084722727537155,0.17673982679843903,-0.05555380508303642,0.11043591052293777,-0.08568153530359268,0.11934713274240494,0.1678682565689087,-0.17401626706123352,-0.06465990096330643,-0.03267993405461311,0.1376010626554489,0.2222699075937271,-0.03094838745892048,-0.037831585854291916,-0.0772172287106514,0.012383202090859413,-0.054725777357816696,0.02335255779325962,0.12887634336948395,0.020024875178933144,-0.07029879838228226,-0.07649850100278854,-0.13974301517009735,0.11616073548793793,-0.1267671138048172,0.1047608032822609,-0.13071545958518982,-0.03713144734501839,0.01056691538542509,0.18932154774665833,0.09562655538320541,0.1350925862789154,0.08545981347560883,-0.035834405571222305,-0.007947411388158798,-0.27056553959846497,0.017221111804246902,0.20055162906646729,-0.0812193751335144,0.057034969329833984,-0.16500325500965118,0.06067795306444168,0.16318446397781372,-0.16775918006896973,-0.21570025384426117,0.14997102320194244,-0.043306928128004074,-0.06546439230442047,0.04970366880297661,0.051910150796175,-0.199021577835083,-0.0686648041009903,0.04155731573700905,0.05019383132457733,-0.030757812783122063,0.07808557897806168,-0.052683036774396896,-0.015399360097944736,-0.13474225997924805,0.16976569592952728,0.11184503883123398,-0.04732327163219452,0.09766585379838943,-0.05250478908419609,-0.0870441272854805,0.1690940409898758,0.013694502413272858,-0.0942191481590271,0.1081361249089241,0.015665791928768158,0.12716352939605713,-0.19000287353992462,0.15683765709400177,0.07331015914678574,-0.14702817797660828,-0.02161831222474575,0.1219821572303772,-0.24973078072071075,0.26872196793556213,0.06742456555366516,0.19658204913139343,-0.09168565273284912,0.24990974366664886,0.10764706134796143,0.12498847395181656,0.04317731782793999,0.1983599215745926,-0.03455439582467079,0.09462293982505798,0.06060660257935524,-0.050705309957265854,0.021199578419327736,0.1966930627822876,-0.10766446590423584,-0.02897576615214348,-0.06267727166414261,-0.05057341605424881,-0.110712431371212,0.26909971237182617,-0.25545722246170044,0.023559635505080223,-0.010938558727502823,0.08214820176362991,-0.10227587074041367,0.01613020896911621,-0.049148909747600555,0.050149548798799515,0.14547358453273773,0.0657767578959465,-0.0336085744202137,-0.1412803679704666,-0.010994798503816128,0.181240051984787,-0.023348478600382805,-0.10246732085943222,-0.08211861550807953,0.09338298439979553,-0.03850435093045235,0.11455176770687103,0.16372685134410858,-0.008723612874746323,0.1689104288816452,-0.10810338705778122,0.02735140360891819,-0.06815927475690842,0.16117143630981445,-0.056438662111759186,-0.001375283463858068,-0.10149157792329788,-0.0729544460773468,-0.03959176316857338,-0.09598150849342346,-0.14218273758888245,0.05979669466614723,-0.1652350127696991,0.04238779470324516,0.02421179786324501,0.021162213757634163,0.06166103482246399,0.1272575706243515,0.07926591485738754,0.11101210862398148,0.00022453405836131424,0.04992369934916496,-0.14146479964256287,-0.11014291644096375,-0.07569094002246857,-0.026813868433237076,-0.06954947113990784,0.005947904195636511,0.08301013708114624,-0.1430361419916153,0.005696467589586973,0.13299280405044556,0.08076636493206024,-0.0801258459687233,-0.013787375763058662,-0.14483371376991272,0.05519220232963562,-0.029286446049809456,-0.03617015480995178,-0.022264469414949417,-0.07323496043682098,-0.0772814154624939,-0.22386226058006287,-0.25027772784233093,0.11686456203460693,-0.1853800266981125,-0.014843783341348171,-0.0736428052186966,-0.087112195789814,-0.1102532371878624,0.04208969324827194,-0.14763666689395905,0.0558168925344944,0.011662980541586876,-0.17292220890522003,0.1665744185447693,0.09849001467227936,0.10357750207185745,0.035662028938531876,0.060434553772211075,-0.09802381694316864,-0.037117909640073776,0.00017001453670673072,0.013420827686786652,-0.05531127005815506,-0.041430938988924026,0.06112366169691086,-0.15100817382335663,-0.16227838397026062,-0.0396416150033474,-0.19961625337600708,-0.017443956807255745,0.039879653602838516,0.05684449151158333,-0.08119658380746841,-0.06463801860809326,0.02377314493060112,0.1641705334186554,0.10242932289838791,-0.03323822841048241,-0.11579917371273041,-0.07417431473731995,-0.24444004893302917,0.22570183873176575,0.04646961763501167,0.36677053570747375,0.08650071918964386,0.013548745773732662,-0.02960018813610077,0.21096087992191315,0.12106000632047653,0.08374074846506119,0.04198288545012474,0.08377886563539505,0.08605299144983292,0.08867806941270828,0.05755559355020523,0.04739396274089813,-0.03634870797395706,-0.09780561923980713,0.037337396293878555,-0.05255158618092537,-0.056886740028858185,0.09909295290708542,0.12468194216489792,0.13933351635932922,0.029732700437307358,0.04525855556130409,0.031110603362321854,-0.03040163964033127,-0.20051568746566772,0.027355333790183067,-0.038646578788757324,-0.07399068772792816,0.14766928553581238,0.17351017892360687,-0.037726499140262604,-0.061114247888326645,-0.08256807923316956,-0.006247697863727808,-0.029287030920386314,0.08980479091405869,-0.0490385927259922,-0.016206111758947372,-0.19716162979602814,0.07057890295982361,0.03800128027796745,-0.03189459070563316,-0.13001154363155365,0.11560395359992981,0.2383139282464981,-0.06653702259063721,-0.22425590455532074,-0.1703527867794037,0.0066221230663359165,0.050910584628582,-0.10194265842437744,0.1620679497718811,-0.1108185425400734,-0.07929451763629913,0.060272350907325745,0.09836224466562271,-0.056331079453229904,0.11035149544477463,-0.018257932737469673,0.12464164942502975,-0.009212215431034565,0.22931967675685883,0.12304739654064178,-0.1374131292104721,0.076282799243927,-0.013995815068483353,-0.08149795234203339,-0.30485957860946655,-0.09767688065767288,-0.14388690888881683,-0.1520308554172516,0.07219956815242767,0.016280949115753174,0.0061064246110618114,0.07881052792072296,-0.08226091414690018,-0.2030767798423767,-0.1354142427444458,-0.19767947494983673,-0.039400286972522736,0.015372853726148605,-0.09879439324140549,-0.33233842253685,-0.019185461103916168,-0.09540919214487076,0.11655011773109436,0.027505794540047646,-0.10559207946062088,0.12526507675647736,-0.1736602485179901,-0.16320034861564636,0.10181667655706406,0.05702590569853783,-0.10758408904075623,-0.0969461053609848,-0.0035832831636071205,-0.09373923391103745,-0.06497179716825485,-0.021289346739649773,-0.10312925279140472,0.012927263975143433,-0.08505230396986008,-0.0812443420290947,0.07616715878248215,-0.08261317759752274,-0.053928304463624954,0.06718265265226364,0.18308047950267792,-0.12292435020208359,0.1554194986820221,0.09935959428548813,-0.011061713099479675,-0.012240705080330372,0.181721493601799,-0.19397017359733582,-0.2289838045835495,-0.14541396498680115,0.0884876698255539,-0.12943679094314575,-0.06235472857952118,0.19938333332538605,0.019561538472771645,-0.07923287153244019,0.09473741054534912,-0.0676622986793518,-0.016250642016530037,0.04995663836598396,-0.1091916412115097,-0.05047209560871124,0.0031205301638692617,-0.0800514668226242,-0.0777270495891571,-0.014905625954270363,-0.12651164829730988,0.05651167035102844,0.0514347143471241,-0.11068504303693771,-0.04904419928789139,-0.07726828753948212,-0.026313941925764084,0.026527516543865204,-0.01666335016489029,0.04428335651755333,-0.04380068928003311,0.08286140859127045,0.03032306395471096,-0.11524635553359985,0.05717650428414345,-0.04917105287313461,-0.15810921788215637,0.08467733860015869,0.18007439374923706,-0.11816363781690598,-0.045945677906274796,-0.0855783149600029,0.005924412980675697,0.20155805349349976,0.20047162473201752,0.01645301654934883,0.07658121734857559,-0.10590674728155136,0.017334703356027603,-0.1497311145067215,-0.09306690096855164,-0.1561308056116104,-0.10808892548084259,-0.02806773968040943,-0.03749042749404907,-0.08581837266683578,0.07948269695043564,0.061689555644989014,-0.06214653328061104,-0.07728616148233414,0.05340280383825302,0.12593688070774078,0.012302936986088753,-0.03774889558553696,0.04539104178547859,-0.07108574360609055,-0.15540404617786407,-0.12505128979682922,0.08406611531972885,0.18107208609580994,-0.13960468769073486,0.016657842323184013,-0.28393831849098206,0.07399744540452957,0.02024676464498043,-0.011128377169370651,0.048300597816705704,0.16884282231330872,-0.013634385541081429,0.05318988859653473,0.12495900690555573,0.07890931516885757,0.08929453045129776,0.04177273437380791,-0.0063032060861587524,-0.11573698371648788,-0.12774524092674255,0.2063174843788147,-0.046729475259780884,-0.04090803861618042,0.11190465837717056,-0.14515192806720734,-0.11108556389808655,0.10751128196716309,-0.08539868891239166,0.010322139598429203,0.044917259365320206,-0.10137205570936203,0.1447976976633072,-0.04904181882739067,0.11598946154117584,0.11586611717939377,-0.003892428707331419,0.15013650059700012,-0.14855779707431793,-0.07996340841054916,0.06439201533794403,-0.09556923061609268,0.04871656000614166,0.010065143927931786,-0.0024634436704218388,-0.16908644139766693,0.07563352584838867,-0.06728684902191162,-0.02106354758143425,0.07122870534658432,0.009530306793749332,-0.025114452466368675,-0.07349906861782074,-0.04676418378949165,0.04358476400375366,0.10568688064813614,0.06167944148182869,0.1524708867073059,0.10066862404346466,-0.16385141015052795,-0.049868468195199966,-0.07882314920425415,-0.07023128867149353,-0.04409293830394745,0.02525322325527668,0.036841243505477905,0.06400609761476517,-0.022892123088240623,0.11097486317157745,-0.22518151998519897,-0.017057253047823906,0.05068843811750412,0.01417295541614294,0.19690480828285217,0.13097868859767914,-0.04580239579081535,0.02537383697926998,-0.0731947273015976,0.1535600870847702,0.14667364954948425,-0.18587005138397217,-0.038173213601112366,-0.03373406082391739,-0.08792778849601746,-0.07153823226690292,-0.14447398483753204,-0.025735236704349518,0.017825165763497353,-0.19648917019367218,-0.10905953496694565,-0.05722847953438759,0.0075148288160562515,0.06506501138210297,-0.0875251293182373,0.003067717421799898,-0.10510392487049103,-0.11231434345245361,0.014207947999238968,-0.06802863627672195,0.16760052740573883,-0.20667974650859833,-0.07171560823917389,-0.11396247893571854,0.0713154599070549,0.1650342047214508,-0.04150668531656265,-0.05807499960064888,-0.0564391165971756,0.03493102267384529,0.005966899450868368,-0.12580060958862305,-0.014294956810772419,0.05411625653505325,0.06651472300291061,0.026512693613767624,0.17037250101566315,0.09655259549617767,-0.19740252196788788,0.05734947323799133,0.09466180205345154,0.05722515657544136,0.060439106076955795,0.1555507779121399,-0.21515344083309174,0.05011450871825218,-0.19296830892562866,-0.06038934737443924,-0.0646781250834465,-0.2421274483203888,0.029791254550218582,-0.01785917393863201,-0.0943208560347557,0.13296449184417725,0.1138913631439209,0.06055951863527298,0.08115280419588089,0.02445332147181034,-0.0680290088057518,0.12198104709386826,-0.09052674472332001,-0.06313876062631607,0.03633473813533783,-0.12500697374343872,-0.1685236096382141,-0.10218480974435806,0.1508413404226303,0.0021952600218355656,-0.010567044839262962,-0.02735181339085102,0.10637102276086807,-0.0018840214470401406,0.07828442007303238,0.09149300307035446,0.09127207100391388,-0.012797616422176361,0.08932872116565704,0.02285311184823513,-0.01191801205277443,0.06470929086208344,-0.1607014387845993,-0.05998442322015762,-0.019427185878157616,-0.028939886018633842,0.10129369795322418,-0.15379811823368073,0.04660084471106529,0.04269353672862053,0.13926288485527039,-0.20318008959293365,0.18700850009918213,-0.17280256748199463,-0.08117781579494476,-0.19060687720775604,-0.02159290388226509,-0.03876372054219246,-0.11343870311975479,0.15648721158504486,0.12433706969022751,-0.09333650022745132,0.1703096181154251,-0.1772238314151764,0.06906671822071075,-0.025134393945336342,0.025544703006744385,-0.13824346661567688,-0.04782280698418617,-0.0017241454916074872,0.03505025804042816,0.08947563916444778,-0.06453479081392288,-0.09494040906429291,-0.053221430629491806,-0.07317278534173965,0.07260241359472275,0.20648011565208435,0.14830631017684937,0.16137295961380005,0.05861346423625946,-0.06978621333837509,0.16824714839458466,-0.08473549783229828,0.09868799895048141,0.1187395229935646,0.06990931183099747,-0.06302127242088318,-0.12879499793052673,0.03995203226804733,0.050101350992918015,-0.02029586210846901,0.07108728587627411,0.07756754755973816,-0.059864263981580734,-0.30090561509132385,0.14751049876213074,0.17312942445278168,-0.5138079524040222,0.1345682293176651,-0.6615363359451294,-0.1967671662569046,-0.24525973200798035,0.5626367926597595,-0.7855755090713501,-0.4661616086959839,-0.8059304356575012,0.14031001925468445,-0.6457319259643555,0.2553318738937378,-0.6198118925094604,-0.2163720279932022,0.001664825831539929,0.02481948398053646,0.36904215812683105,0.1685883104801178,-0.1222909539937973,-0.23087643086910248,-0.020656663924455643,-0.004810151644051075,-0.12200050801038742,0.027992917224764824,0.03689945861697197,0.08364414423704147,0.0804949402809143,-0.10888746380805969,-0.057652879506349564,0.05847463011741638,-0.13961072266101837,-0.164896622300148,0.04937957227230072,-0.15454865992069244,0.2731933891773224,-0.05900103971362114,-0.08038455247879028,0.20343761146068573,-0.18506957590579987,0.029659288004040718,0.304033488035202,-0.1710350215435028,0.3275584280490875,0.06188404932618141,0.1535969227552414,-0.19153955578804016,-0.08964049071073532,-0.023465672507882118,0.10484745353460312,0.17240795493125916,0.214315727353096,-0.10779602080583572,0.014910136349499226,0.09402826428413391,0.026427993550896645,-0.3331543505191803,-0.31302762031555176,-0.05157380923628807,0.05050436034798622,0.12265187501907349,-0.028891660273075104,0.06401508301496506,-0.08538635820150375,-0.09853896498680115,-0.33323654532432556,-0.09584391117095947,-0.08740527182817459,-0.05119864270091057,-0.12911711633205414,-0.15182341635227203,0.15953131020069122,0.20566658675670624,0.24514177441596985,0.19409708678722382,-0.19645269215106964,0.11662351340055466,0.0307877566665411,0.26852044463157654,0.15087418258190155,-0.3995024561882019,-0.1107616275548935,0.2015751302242279,0.03335125371813774,-0.06366734206676483,0.263110876083374,0.3035968244075775,-0.13697417080402374,-0.22956903278827667,0.10198261588811874,-0.21936705708503723,0.1640131175518036,-0.061881255358457565,-0.2853144407272339,-0.2786460816860199,-0.11864136159420013,-0.2982150912284851,-0.07916273921728134,0.1757252812385559,-0.2875698506832123,0.03384929895401001,-0.14427536725997925,0.12268544733524323,0.3044189214706421,0.028222665190696716,-0.20541995763778687,-0.12780551612377167,-0.11506719142198563,0.14228592813014984,-0.007184155751019716,0.1419094204902649,-0.034948207437992096,0.015800582244992256,-0.2835853695869446,0.10025619715452194,0.3850569427013397,-0.2606043517589569,-0.18984360992908478,0.26091068983078003,-0.06486158818006516,-0.22988079488277435,0.1537625938653946,0.022235235199332237,0.05523882806301117,-0.06179659068584442,0.1901806741952896,0.10244186967611313,0.0343158021569252,-0.05639690160751343,-0.02191566675901413,0.20079143345355988,-0.13373109698295593,-0.09404627978801727,0.11703135818243027,-0.0637783408164978,0.2732907831668854,-0.2509602904319763,0.06703309714794159,-0.15325435996055603,0.11682283133268356,0.2326289415359497,0.12507890164852142,-0.009195983409881592,0.03703701123595238,-0.13770858943462372,-0.21484196186065674,-0.13704724609851837,-0.15742261707782745,-0.024174977093935013,-0.09715758264064789,0.04302021116018295,0.027713550254702568,0.16329672932624817,-0.10899584740400314,-0.1271459460258484,0.10871744155883789,0.003412689082324505,0.17159846425056458,-0.1904984712600708,-0.011948882602155209,-0.05332602933049202,0.09115931391716003,0.13155998289585114,-0.27331307530403137,0.11175660043954849,-0.02087031863629818,-0.09265688806772232,0.12480305135250092,0.24378237128257751,0.23568210005760193,0.10279932618141174,0.12142554670572281,0.16223114728927612,-0.12089820951223373,-0.008304533548653126,-0.05347421392798424,-0.12473312020301819,-0.04954321309924126,0.07577960938215256,0.03970835357904434,-0.09091989696025848,0.012340011075139046,0.175454244017601,0.23532240092754364,-0.1803942620754242,0.11653810739517212,-0.03961215913295746,0.11898563802242279,-0.025635574012994766,0.017778581008315086,0.19630378484725952,0.23887142539024353,-0.20560427010059357,-0.022563740611076355,-0.26210424304008484,-0.05264465510845184,0.1622273027896881,0.1567346453666687,-0.23021669685840607,0.13960570096969604,0.29718607664108276,-0.028811151161789894,-0.062099725008010864,-0.017316794022917747,0.07380813360214233,-0.12373672425746918,-0.20857013761997223,-0.2806928753852844,-0.09344177693128586,0.14550773799419403,0.06100163981318474,-0.1954379826784134,-0.06906836479902267,-0.11722572892904282,-0.042688846588134766,-0.03461757302284241,-0.2106911838054657,-0.15624232590198517,0.22465035319328308,-0.42312756180763245,0.017278870567679405,-0.05090879648923874,0.13152675330638885,0.13376112282276154,-0.18576748669147491,0.3053267002105713,-0.2961699962615967,0.02847738191485405,0.08557570725679398,-0.0423770397901535,0.24676178395748138,0.2010417878627777,0.003300693351775408,-0.03288528323173523,0.0964476689696312,0.1722656637430191,0.05424940213561058,-0.08182810246944427,0.028679879382252693,0.10265139490365982,0.10933878272771835,-0.20316222310066223,-0.1616882085800171,-0.09392137825489044,0.06678846478462219,0.051488496363162994,-0.08980655670166016,0.09911208599805832,-0.16060341894626617,-0.005545800551772118,-0.15357476472854614,0.07706785202026367,0.1720416396856308,0.13445258140563965,0.15667033195495605,-0.33224356174468994,-0.013489614240825176,-0.07239151746034622,-0.20003429055213928,-0.10468094050884247,-0.06337356567382812,0.10289774090051651,0.01599258929491043,-0.11267878860235214,0.3129892349243164,0.13190273940563202,-0.20719943940639496,0.13578470051288605,-0.12517833709716797,-0.1369580179452896,-0.05087434872984886,-0.0544673427939415,0.02328069880604744,-0.034851424396038055,-0.08244293183088303,0.04787416011095047,0.10515865683555603,0.13032150268554688,0.09853450208902359,0.055581796914339066,0.10277010500431061,-0.12448334693908691,0.0331883579492569,-0.1461050808429718,-0.07224834710359573,-0.043263088911771774,0.1784588098526001,-0.03387870639562607,-0.05174747854471207,0.060063231736421585,-0.10251401364803314,-0.18974588811397552,-0.0017272733384743333,-0.06371695548295975,0.04544216766953468,0.03181566298007965,-0.09234871715307236,0.03231792151927948,0.12173809856176376,0.009441128000617027,-0.11001279205083847,0.10323020815849304,0.19340001046657562,-0.06576043367385864,-0.17578501999378204,-0.050949905067682266,-0.033624015748500824,-0.02825395204126835,0.1573585420846939,-0.15896520018577576,-0.1014622151851654,0.09251313656568527,0.027286093682050705,-0.047993212938308716,0.23780281841754913,0.05326378718018532,-0.09276985377073288,0.0296859759837389,-0.08143740892410278,0.05751070752739906,0.04503878951072693,-0.028063958510756493,0.03686453774571419,-0.13494578003883362,0.06445839256048203,0.09346810728311539,0.03308730199933052,-0.069278784096241,0.007040298078209162,0.04258684068918228,-0.021835146471858025,0.09558364748954773,-0.03127988427877426,0.1426371932029724,-0.057732727378606796,-0.22306980192661285,0.022967034950852394,-0.11739639192819595,0.1881045699119568,-0.20917832851409912,-0.06389285624027252,-0.0029553642962127924,0.16190166771411896,-0.11971309036016464,-0.10905477404594421,-0.097862608730793,0.024995407089591026,-0.0608820766210556,-0.06219746544957161,0.08926223963499069,0.01788933016359806,-0.099570132791996,0.11264686286449432,-0.0740184634923935,0.03472818434238434,0.09180118888616562,-0.023116376250982285,-0.023297924548387527,-0.0550360269844532,0.055257007479667664,-0.12647700309753418,-0.006040122825652361,0.2685939073562622,0.07654643058776855,-0.12752830982208252,0.12170097231864929,0.031539186835289,0.003154204459860921,-0.03979317471385002,-0.19502022862434387,-0.08811608701944351,0.056606847792863846,0.07553266733884811,-0.02090040035545826,-0.07860758155584335,-0.15964911878108978,-0.3476804494857788,0.17611008882522583,0.01960892602801323,0.051625631749629974,0.09491534531116486,0.0476301908493042,0.16804032027721405,-0.10701152682304382,-0.00004953370807925239,-0.005678483750671148,0.08663617074489594,-0.08779046684503555,0.23392519354820251,0.02289789728820324,0.20450623333454132,-0.09021705389022827,0.002734907902777195,0.13599596917629242,-0.13145120441913605,-0.0992293655872345,0.027331339195370674,0.02800026722252369,0.10416413098573685,-0.0638870820403099,-0.023861393332481384,0.15054862201213837,0.007580319885164499,-0.2680337429046631,0.12181476503610611,-0.02690436691045761,0.0061135380528867245,-0.032755933701992035,-0.0003776258381549269,0.056132588535547256,0.12717293202877045,0.04759947210550308,-0.2055875062942505,-0.07938816398382187,-0.07530374079942703,-0.04415294900536537,-0.09788300842046738,0.046196937561035156,0.1823790818452835,-0.10357077419757843,0.03919475898146629,0.16598743200302124,-0.12453240156173706,0.15743732452392578,0.13426673412322998,-0.13514389097690582,0.16699816286563873,-0.07313381880521774,-0.027133924886584282,0.2478167712688446,-0.24322272837162018,-0.12115227431058884,0.12344003468751907,-0.1004428118467331,0.03324243053793907,0.09808776527643204,-0.02026675082743168,0.04919357970356941,-0.07590941339731216,0.15031278133392334,0.01113166380673647,-0.18962696194648743,0.05111834779381752,-0.07287682592868805,0.016481025144457817,0.025404732674360275,-0.07076074928045273,0.07056528329849243,0.1509368121623993,0.0029616800602525473,-0.0634709894657135,0.05410371720790863,0.01975879818201065,0.04746471717953682,0.03359436243772507,-0.00848337635397911,0.0188298299908638,-0.017118126153945923,-0.26302316784858704,-0.1977282464504242,0.049001701176166534,-0.06300657987594604,0.07905037701129913,0.15524259209632874,-0.028816573321819305,-0.01293390803039074,-0.13375023007392883,-0.028403716161847115,-0.051299985498189926,0.05450839921832085,0.051468223333358765,0.24429847300052643,0.11020000278949738,-0.2476285696029663,0.10025995969772339,-0.0207352377474308,0.012924098409712315,0.016093159094452858,0.2224092185497284,-0.1381407231092453,0.01233992725610733,0.028072727844119072,0.2016417384147644,-0.07969960570335388,0.12782283127307892,0.08922404795885086,-0.16547703742980957,-0.02704647183418274,0.17403680086135864,0.029839061200618744,-0.05836109444499016,0.06403464078903198,-0.17942266166210175,-0.014766729436814785,0.2047796994447708,-0.005547486245632172,-0.23019105195999146,-0.03287433087825775,0.052907951176166534,-0.12806056439876556,-0.03787849098443985,0.056400686502456665,-0.03357920050621033,-0.19236135482788086,0.0612296387553215,0.023724554106593132,0.3070720136165619,0.062287669628858566,-0.088993601500988,0.005293461959809065,-0.12631237506866455,0.04371613636612892,0.017545711249113083,-0.1017143726348877,0.09849200397729874,0.003298885188996792,0.040603894740343094,0.07903420925140381,-0.18651579320430756,0.05852079764008522,-0.08910812437534332,-0.04232354834675789,0.13159729540348053,-0.003962856251746416,-0.04770851880311966,0.003997523337602615,-0.006287101190537214,-0.11501471698284149,-0.0732700526714325,0.04183366522192955,-0.006000968627631664,0.06391548365354538,-0.1006448045372963,-0.14198313653469086,-0.09901916235685349,0.0034486567601561546,-0.11839446425437927,0.022220155224204063,-0.006358702201396227,-0.03343554586172104,0.1209731474518776,-0.09688559174537659,-0.09976408630609512,0.05299052968621254,-0.07181037962436676,0.11089281737804413,0.05132153630256653,-0.06659305840730667,-0.10227075219154358,0.0952044203877449,0.0437980592250824,0.00363177596591413,-0.10092712193727493,-0.025233296677470207,-0.11898283660411835,0.005491734016686678,0.06765659898519516,0.08608373999595642,0.1053592786192894,0.06084528565406799,0.11907646805047989,0.08833935111761093,0.06007779762148857,-0.06580604612827301,-0.12889878451824188,-0.07109761983156204,0.08302208036184311,0.10979368537664413,0.09920872747898102,-0.0332157202064991,-0.07473251223564148,0.16204413771629333,-0.0658799260854721,-0.054497864097356796,0.1719488799571991,0.06528959423303604,0.0013407232472673059,0.03449404984712601,-0.21005894243717194,-0.1465311050415039,0.2568713128566742,0.07339789718389511,-0.11675573885440826,0.04817638546228409,0.23467671871185303,0.19733533263206482,-0.025885842740535736,-0.06112082675099373,-0.04094997048377991,-0.009349034167826176,0.2353004366159439,0.07358088344335556,-0.15176230669021606,-0.028579963371157646,-0.09241265058517456,0.07672934979200363,0.11062024533748627,-0.05278971791267395,-0.10155460238456726,-0.11715137213468552,0.06866265088319778,0.05413908138871193,0.33968299627304077,-0.07124081254005432,-0.08055589348077774,0.012415136210620403,-0.24450814723968506,-0.02875375747680664,-0.12262286990880966,-0.1300077587366104,0.05263179540634155,-0.13012829422950745,0.11915940791368484,0.10543061792850494,-0.08913554251194,-0.09656667709350586,-0.19739453494548798,0.001061176648363471,0.10536681860685349,0.08175516128540039,-0.09973136335611343,-0.06096319481730461,-0.1162700280547142,-0.10358477383852005,-0.05398014560341835,-0.09047623723745346,0.16157330572605133,0.13782797753810883,-0.11627417802810669,0.08786497265100479,0.05995915085077286,-0.027511833235621452,0.0015443980228155851,-0.061842482537031174,-0.1982390135526657,0.07593335956335068,0.02057630382478237,0.05287274718284607,0.04380238056182861,0.03445611894130707,-0.03222273662686348,0.07949306815862656,0.031047699972987175,-0.08244357258081436,0.04910004884004593,-0.0036061559803783894,-0.07439419627189636,0.08500323444604874,-0.11335870623588562,-0.034716568887233734,-0.18075531721115112,0.014746828004717827,0.04573971405625343,-0.13005393743515015,0.054891277104616165,0.10538849234580994,0.09390027821063995,-0.21699678897857666,-0.04880411922931671,0.05486004427075386,0.09500237554311752,-0.029141057282686234,0.04991697892546654,0.06862293928861618,0.02844136580824852,-0.08773619681596756,-0.13131433725357056,-0.08365903049707413,-0.03704120218753815,-0.06542270630598068,-0.2007017284631729,-0.1594906747341156,-0.03583148494362831,0.07410939037799835,-0.07711124420166016,0.15412132441997528,-0.013460238464176655,0.0728474110364914,0.013156569562852383,0.08571586012840271,0.17067725956439972,0.09010179340839386,-0.09046776592731476,0.007772577926516533,0.14176422357559204,-0.027282120659947395,-0.182740718126297,-0.05882948637008667,0.16788806021213531,0.0071855634450912476,0.07395943254232407,0.08591791242361069,-0.128665491938591,0.04254636541008949,0.08492384850978851,-0.06166037544608116,0.03386880084872246,-0.016987469047307968,-0.12150933593511581,0.11226394772529602,0.04586726054549217,-0.018480923026800156,0.029626846313476562,0.04880550503730774,0.11663977801799774,-0.06875399500131607,-0.16303089261054993,0.19332255423069,-0.056552089750766754,-0.09172181785106659,-0.010579678229987621,0.03534732758998871,0.2172965705394745,0.12648923695087433,0.07787787914276123,0.1319025605916977,-0.026206808164715767,-0.1569902002811432,-0.11785469204187393,0.09989116340875626,-0.11810170859098434,0.14550897479057312,0.08291992545127869,0.028375405818223953,-0.009521554224193096,0.04795081913471222,0.05829776078462601,-0.1146390438079834,-0.09513894468545914,-0.15827010571956635,0.020189745351672173,-0.002790391445159912,0.0499274842441082,-0.022304952144622803,0.0465223602950573,0.013059851713478565,-0.028590330854058266,0.014571068808436394,-0.23494099080562592,0.13532671332359314,-0.12481416016817093,-0.05453593656420708,-0.03908061981201172,-0.21649853885173798,0.04514129087328911,0.026076922193169594,-0.05572506785392761,-0.04741009697318077,-0.09397539496421814,-0.05169835314154625,-0.1479293704032898,-0.20910590887069702,-0.03667249158024788,-0.10791465640068054,-0.1071251630783081,0.025012962520122528,-0.03180314227938652,-0.30813315510749817,-0.2400180846452713,-0.10624167323112488,-0.13214778900146484,0.048367321491241455,-0.18332356214523315,0.03807373717427254,-0.05954977124929428,-0.187577486038208,-0.10127910226583481,0.017135988920927048,0.043335720896720886,-0.08103825896978378,0.09980539977550507,0.1729891151189804,-0.10976218432188034,-0.0705026239156723,0.15871953964233398,0.12549450993537903,0.06626372784376144,0.11525001376867294,0.11383216083049774,-0.1563449651002884,0.0906219333410263,0.11295109987258911,-0.007115237880498171,-0.09063360095024109,0.12716905772686005,0.11449751257896423,-0.13939927518367767,0.1602981984615326,0.0359688326716423,-0.14608247578144073,-0.06582646071910858,0.06464898586273193,-0.019683832302689552,-0.0004289529751986265,-0.1833762675523758,-0.008343645371496677,-0.04147636890411377,-0.16055431962013245,0.19236218929290771,0.08981235325336456,-0.08735620230436325,0.17243792116641998,-0.08766274899244308,0.023553984239697456,0.0528562068939209,-0.00283305742777884,-0.08496994525194168,0.06598152220249176,-0.04571060836315155,-0.055269088596105576,-0.010072373785078526,-0.0011642645113170147,-0.15253321826457977,-0.0386832132935524,-0.08444767445325851,-0.05238223448395729,0.2817531228065491,-0.051340676844120026,-0.03391178697347641,0.04292498528957367,0.08916637301445007,-0.040488388389348984,0.230735182762146,0.024783611297607422,0.032263126224279404,-0.029963143169879913,0.07515920698642731,0.013672424480319023,0.10367944836616516,-0.10785951465368271,-0.0964285284280777,-0.004652783740311861,0.029935281723737717,0.13680697977542877,0.06293085217475891,0.07449730485677719,-0.049823034554719925,-0.16074836254119873,-0.12447141110897064,-0.005611066706478596,-0.1699986755847931,-0.03280683234333992,-0.2178964465856552,-0.08575665950775146,0.08316967636346817,-0.24100831151008606,-0.022282741963863373,0.14466089010238647,-0.1045963391661644,0.007532069925218821,-0.07152698934078217,-0.014609596692025661,-0.031781766563653946,-0.13312621414661407,-0.04682985693216324,0.1559581160545349,0.22188329696655273,-0.3288058936595917,0.14904281497001648,0.003042949363589287,-0.12782518565654755,-0.18588238954544067,0.06146750971674919,-0.025004848837852478,0.1914968341588974,0.11528906971216202,-0.09630172699689865,-0.054797764867544174,-0.037102293223142624,-0.11502998322248459,-0.024712590500712395,-0.06361563503742218,-0.00699622742831707,-0.02029036357998848,0.07912956178188324,0.06389529258012772,0.07160264998674393,-0.01576240360736847,0.03410959243774414,0.044408153742551804,-0.19529323279857635,0.13546182215213776,-0.023157624527812004,0.06659755110740662,-0.08568567782640457,0.022439641878008842,0.08975613117218018,-0.1876198947429657,0.07472056895494461,-0.01714971661567688,0.009879752062261105,-0.103038489818573,0.11660061031579971,0.014028637669980526,-0.028268227353692055,-0.07598039507865906,0.017728062346577644,0.25942671298980713,-0.08605901896953583,0.00751747889444232,-0.20686210691928864,-0.02955358289182186,0.13665127754211426,0.12445612996816635,0.024739690124988556,-0.04909450188279152,-0.19367431104183197,0.2312285155057907,-0.059369370341300964,0.15154436230659485,-0.1103680431842804,0.03921973332762718,0.05759734660387039,0.06223378702998161,-0.0926952064037323,-0.009365224279463291,-0.02185038849711418,-0.007183796726167202,-0.1329452097415924,-0.050964877009391785,-0.06164906173944473,0.06556297838687897,-0.10252068191766739,0.07295934855937958,0.16039788722991943,0.056307628750801086,-0.05156368762254715,-0.02352498658001423,0.12270744889974594,-0.055731404572725296,-0.027500765398144722,0.16187724471092224,0.013733849860727787,-0.06276502460241318,-0.07611571252346039,-0.02089705504477024,-0.07431960850954056,0.008198614232242107,-0.1609913557767868,0.05243682861328125,-0.12674283981323242,-0.05607771873474121,-0.13835039734840393,0.0017594952369108796,0.04509928449988365,-0.018285872414708138,-0.22503961622714996,0.09024502336978912,-0.0263302493840456,-0.07871580123901367,0.1836184561252594,-0.09738155454397202,-0.10420797765254974,-0.11442204564809799,-0.184629425406456,-0.037581879645586014,-0.03501589968800545,-0.06326204538345337,0.10040765255689621,0.15267528593540192,0.09177618473768234,0.07589336484670639,0.014789951033890247,-0.000309364142594859,0.045041415840387344,-0.0760587751865387,0.0814947560429573,-0.056283801794052124,-0.1431468278169632,-0.0023102075792849064,0.0216053519397974,-0.06666522473096848,-0.19302010536193848,0.034376081079244614,0.14311102032661438,-0.17529907822608948,-0.20154275000095367,0.009120821952819824,0.007257799617946148,-0.10534809529781342,0.0861169695854187,-0.003496503224596381,0.11359511315822601,-0.23062612116336823,0.013127429410815239,0.09621412307024002,0.08063898235559464,0.03784233704209328,0.22028619050979614,-0.0961407944560051,-0.04088177531957626,0.11119609326124191,0.07298164069652557,-0.09828969091176987,0.025691170245409012,-0.13044890761375427,-0.051291972398757935,0.1330934464931488,-0.17022500932216644,0.10560895502567291,0.19057415425777435,-0.34860318899154663,-0.003553706221282482,-0.04387163370847702,0.04879536107182503,-0.043449316173791885,0.11385244131088257,-0.050719503313302994,0.1484391689300537,0.019759388640522957,0.13726317882537842,0.053421467542648315,-0.19879679381847382,0.07530951499938965,-0.14358776807785034,-0.06794355809688568,0.0434688925743103,0.11398729681968689,-0.0076621766202151775,0.10171584784984589,0.022608548402786255,0.3805915117263794,0.008319461718201637,0.15992726385593414,0.25648364424705505,0.09151635318994522,-0.03427930548787117,0.2270604819059372,0.04855520278215408,0.21990559995174408,-0.24255794286727905,-0.14262373745441437,-0.15982092916965485,-0.07133860141038895,0.06052219867706299,0.019740799441933632,-0.46630337834358215,-0.1243290975689888,-0.07892471551895142,-0.05111197382211685,0.026749396696686745,-0.11999063193798065,-0.3231711983680725,0.06311079859733582,-0.22074447572231293,-0.12101750820875168,0.056666161864995956,-0.3021308183670044,-0.2705479860305786,0.02349870651960373,-0.13697287440299988,-0.03877628967165947,-0.13768628239631653,0.06364718079566956,0.105692058801651,0.12241736799478531,-0.004204318393021822,-0.11136654764413834,0.019377263262867928,-0.0005409049335867167,-0.1932128220796585,-0.04096367582678795,0.07244348526000977,0.007534109987318516,0.03635895624756813,-0.02137376181781292,-0.12840333580970764,-0.011923871003091335,-0.010740590281784534,-0.14504073560237885,-0.17612943053245544,-0.22394774854183197,0.6360146403312683,0.07643348723649979,-0.24349412322044373,-0.057424917817115784,0.026554321870207787,-0.05636600777506828,0.3787301480770111,-0.5666880011558533,0.7447963356971741,0.45915210247039795,-0.08113230019807816,-0.3112061619758606,0.22874274849891663,-0.3919948637485504,0.11707614362239838,0.026103021577000618,0.22074724733829498,-0.19674494862556458,0.16107915341854095,0.1846730262041092,0.19615361094474792,0.15856318175792694,0.07171143591403961,0.016785889863967896,0.3456471264362335,0.1081089973449707,-0.14087161421775818,0.129572793841362,-0.13597233593463898,0.05325016379356384,0.2866324484348297,0.008498585782945156,0.03706345707178116,-0.01302067656069994,0.24028699100017548,0.1090642511844635,0.08691082149744034,-0.13360686600208282,-0.4002596437931061,0.02183368057012558,-0.017574481666088104,-0.26829269528388977,0.07758310437202454,0.2723453640937805,0.1992538720369339,-0.10909746587276459,-0.061851199716329575,-0.13517014682292938,0.28980281949043274,-0.21404963731765747,0.17737822234630585,0.0778643935918808,0.0677238181233406,-0.012790602631866932,-0.28754642605781555,-0.10355114191770554,-0.24354791641235352,0.02128477394580841,0.1694497913122177,-0.19170314073562622,0.032029442489147186,-0.032903723418712616,0.06117028743028641,-0.16930781304836273,0.16394296288490295,0.1807587593793869,-0.17375226318836212,0.15772220492362976,-0.31385838985443115,0.2335541546344757,0.19431869685649872,-0.0336843803524971,0.0761382207274437,0.33440086245536804,0.15386506915092468,0.15574534237384796,0.11979777365922928,-0.04454987123608589,0.15921764075756073,-0.04064810276031494,0.39659804105758667,-0.2911946475505829,0.2585825026035309,-0.08041172474622726,0.20916397869586945,-0.002705056918784976,0.012959323823451996,-0.13299261033535004,-0.1798900067806244,0.017969468608498573,-0.24425578117370605,-0.2197784185409546,0.2486010491847992,-0.20043255388736725,-0.24976828694343567,-0.1075265035033226,0.12704803049564362,-0.014907663688063622,-0.0887475311756134,0.0486673079431057,0.06740003824234009,0.07485157251358032,-0.025696678087115288,-0.20295065641403198,-0.03480850160121918,0.05785692483186722,-0.005612476263195276,0.06058434024453163,0.18340589106082916,-0.10758978873491287,0.14520086348056793,-0.022464804351329803,-0.051174815744161606,-0.08049988746643066,0.22279851138591766,-0.10850811004638672,0.16798053681850433,-0.02859346568584442,-0.23747803270816803,0.13278241455554962,0.12803344428539276,-0.13366807997226715,0.17192327976226807,-0.011473492719233036,0.19092455506324768,0.017744075506925583,0.14839135110378265,0.06770224869251251,-0.1579083502292633,-0.07121903449296951,0.08168454468250275,-0.13896486163139343,0.031093910336494446,-0.15967053174972534,0.12176339328289032,0.07153350114822388,0.021403562277555466,0.1663127988576889,0.018263589590787888,0.010222653858363628,0.05927369371056557,-0.20380741357803345,-0.23486869037151337,0.3162950277328491,-0.02204003557562828,0.14389777183532715,0.08005272597074509,-0.00858180969953537,-0.28953561186790466,0.0512368381023407,-0.11356362700462341,-0.006096683908253908,-0.045211438089609146,0.23165680468082428,-0.1333361119031906,0.0451645702123642,-0.03356905281543732,0.10458456724882126,0.11419858783483505,-0.13410645723342896,-0.1332569420337677,0.1533394157886505,0.060965292155742645,0.14247672259807587,-0.15263459086418152,-0.12017134577035904,-0.05358745902776718,0.12875546514987946,-0.00026561281993053854,-0.12882213294506073,0.004535404033958912,-0.05396757274866104,0.1173546090722084,-0.17530769109725952,0.2272619903087616,-0.09139678627252579,-0.241324320435524,-0.22813448309898376,0.189605250954628,-0.13095201551914215,0.16847999393939972,0.009338822215795517,0.2857261598110199,0.018844803795218468,-0.22136364877223969,0.003462178399786353,0.054015450179576874,-0.09508607536554337,0.10721316933631897,0.261699914932251,0.1530025750398636,-0.036795880645513535,-0.05765899643301964,0.059728480875492096,-0.05300828441977501,0.22816242277622223,0.28060948848724365,0.14945188164710999,-0.1633472740650177,-0.218097984790802,-0.24668146669864655,0.16613584756851196,-0.23232971131801605,-0.17476962506771088,-0.017271876335144043,0.1502780318260193,-0.3575390875339508,-0.3418084979057312,-0.16893017292022705,0.021920576691627502,0.04772802069783211,0.10625118017196655,-0.21462957561016083,-0.21526820957660675,0.1701652705669403,-0.1170373484492302,-0.19813328981399536,0.0796499103307724,0.0689186155796051,0.04451601952314377,0.1288091540336609,-0.018869075924158096,-0.11975155025720596,0.10212194174528122,-0.10384780168533325,-0.026455778628587723,0.02018824592232704,-0.11592686176300049,0.23884651064872742,-0.07122993469238281,0.05257628858089447,0.01628483645617962,0.1567796915769577,-0.1914639174938202,0.03607429936528206,0.15298992395401,-0.1734331101179123,0.11293186247348785,0.049219921231269836,0.19303496181964874,-0.07787737250328064,0.06634499132633209,-0.14789234101772308,-0.13276322185993195,0.1585415005683899,-0.06731534004211426,0.10173186659812927,0.0628109723329544,0.2509065568447113,0.15352588891983032,0.03934723138809204,0.07378698140382767,-0.016834460198879242,-0.09764836728572845,-0.20106041431427002,-0.17092354595661163,-0.08859068900346756,0.015094959177076817,-0.2543621063232422,0.000609176408033818,-0.12787263095378876,-0.16823093593120575,-0.04076728597283363,0.18028904497623444,0.202621191740036,0.31142619252204895,-0.1385830044746399,0.03210248798131943,-0.04425837844610214,0.1104918122291565,0.06888871639966965,0.036837074905633926,0.07744226604700089,0.06990646570920944,-0.02576233632862568,0.16849073767662048,0.11337976157665253,-0.0028767073526978493,-0.12140346318483353,-0.12113033980131149,0.0614776685833931,0.11476024240255356,0.05493230000138283,0.12989896535873413,0.026690909639000893,-0.025354376062750816,-0.06940815597772598,-0.10430032014846802,0.027119426056742668,-0.09098861366510391,-0.013903455808758736,0.11143657565116882,0.23883724212646484,-0.2719714641571045,0.16382914781570435,-0.015650002285838127,-0.1367885321378708,0.16513174772262573,0.16126076877117157,-0.1654418706893921,-0.014822577126324177,-0.004122165031731129,0.22134654223918915,0.035601288080215454,-0.083110511302948,0.0964985340833664,-0.2405029982328415,-0.3800033628940582,0.3221570551395416,-0.0319046676158905,0.1956501007080078,-0.48994171619415283,-0.054951261729002,-0.010833529755473137,-0.045733142644166946,0.0593479685485363,-0.26379597187042236,-0.4625484049320221,0.14891435205936432,0.17056165635585785,-0.024582456797361374,-0.27973973751068115,-0.07976428419351578,-0.2231103479862213,0.0333121083676815,-0.0856722742319107,-0.12011364847421646,-0.03617127239704132,-0.19390633702278137,-0.5877432823181152,-0.020846785977482796,-0.019624540582299232,-0.1446421891450882,0.024767544120550156,-0.06159783527255058,-0.0021381962578743696,-0.0059922258369624615,0.12720301747322083,0.09013032913208008,0.030284836888313293,-0.19655932486057281,-0.055499281734228134,-0.08137248456478119,-0.09829314798116684,0.27988994121551514,-0.06131000816822052,-0.03585599362850189,0.08525609225034714,0.10655175894498825,0.12248291820287704,-0.3238498270511627,-0.03629664331674576,-0.1254507154226303,0.03421790152788162,0.12801493704319,-0.0016169222071766853,-0.3623184263706207,-0.034909456968307495,0.11450184136629105,0.3363468050956726,-0.13680820167064667,-0.03770575672388077,0.1721745729446411,0.07263560593128204,-0.0529247522354126,0.2424992173910141,0.08200004696846008,-0.03308725357055664,-0.020338507369160652,-0.03530673310160637,-0.06392323970794678,0.08419880270957947,-0.11892719566822052,-0.15097850561141968,0.05626790598034859,-0.07920954376459122,0.104646697640419,0.3751973509788513,0.003103428753092885,-0.03971013054251671,0.08797729760408401,-0.1721399873495102,-0.09218861907720566,-0.06954933702945709,-0.08656268566846848,0.06745284050703049,0.029330605641007423,-0.06696818768978119,-0.2252294272184372,0.009074799716472626,0.23042307794094086,-0.06850243359804153,0.10527078807353973,-0.00016109579883050174,0.05872904881834984,-0.006892424076795578,0.03755908086895943,0.03921946510672569,0.032791513949632645,-0.1917894184589386,0.011057926341891289,0.005436645820736885,-0.09805657714605331,0.07632747292518616,-0.020479900762438774,-0.03387931361794472,-0.09308753162622452,0.0032050013542175293,0.15570272505283356,0.1071673184633255,0.04686199501156807,0.04461650177836418,-0.11120003461837769,0.07290342450141907,0.004010908305644989,-0.1640917956829071,-0.041100237518548965,0.009224478155374527,-0.1091238334774971,0.005111966747790575,-0.0008315182640217245,-0.13479259610176086,-0.10894811153411865,-0.13799956440925598,0.047499772161245346,-0.14016877114772797,-0.019884247332811356,-0.0568820983171463,-0.009093143045902252,-0.010116396471858025,0.007170198950916529,0.1230592355132103,0.0011000060476362705,-0.13198404014110565,0.16188304126262665,0.155771866440773,0.07439492642879486,0.08097581565380096,-0.1702161580324173,0.02696821466088295,0.17441418766975403,-0.07187463343143463,0.01589229330420494,0.17573322355747223,-0.1424694061279297,0.06550470739603043,-0.2412118762731552,0.11624028533697128,0.042781803756952286,-0.04835260659456253,0.10609160363674164,0.02687593176960945,-0.20341311395168304,0.19852398335933685,-0.003589940955862403,0.1343148648738861,0.0006426030304282904,-0.06803099811077118,0.10019434243440628,0.08148618787527084,0.08078456670045853,0.2679770290851593,0.04645751789212227,-0.05049903318285942,0.01943518966436386,0.1070748120546341,0.01160337496548891,0.15814173221588135,-0.21424828469753265,0.07811614125967026,-0.07874555885791779,-0.158929705619812,-0.14330308139324188,0.28189724683761597,-0.03140082582831383,0.02902572974562645,0.14272066950798035,-0.060007743537425995,0.08038074523210526,-0.12342611700296402,-0.10876936465501785,0.006900680251419544,-0.046007394790649414,0.15219494700431824,-0.010389771312475204,0.06815306842327118,-0.04287145659327507,0.12932424247264862,0.05713893473148346,0.02805503085255623,0.037808891385793686,-0.1761910617351532,-0.04286500811576843,-0.13675229251384735,0.12211799621582031,0.12318563461303711,-0.05384281277656555,0.06946125626564026,0.030988501384854317,0.025520794093608856,0.10030144453048706,0.005713684484362602,-0.13580796122550964,0.12701910734176636,-0.09820228815078735,-0.13189955055713654,-0.13993968069553375,0.06534424424171448,-0.09167734533548355,-0.007904745638370514,0.04026384279131889,-0.031451866030693054,-0.030322330072522163,-0.14869655668735504,-0.08496058732271194,0.024334898218512535,-0.037117112427949905,-0.16437678039073944,-0.09197019040584564,-0.13135606050491333,-0.1188175156712532,-0.15986154973506927,0.036621782928705215,0.13295061886310577,0.005798452068120241,0.011477719992399216,-0.1347474753856659,-0.2511102259159088,0.015006441622972488,-0.22541551291942596,0.11399011313915253,-0.04199227690696716,0.06490273773670197,0.08610238134860992,0.010739412158727646,-0.0544905923306942,0.1330723911523819,-0.2533659040927887,0.10532929003238678,-0.21243329346179962,-0.17722654342651367,-0.1778046190738678,-0.17161774635314941,0.022647852078080177,-0.1309501826763153,0.13273954391479492,0.09039454162120819,-0.08091669529676437,-0.09050403535366058,0.017551317811012268,-0.061555519700050354,0.11771078407764435,-0.031033309176564217,0.01377873495221138,0.14209674298763275,0.08539596199989319,-0.23430348932743073,-0.0284940917044878,-0.025706613436341286,0.17256753146648407,0.11505840718746185,0.027718033641576767,0.08794904500246048,-0.034378595650196075,-0.25715920329093933,-0.06534012407064438,-0.027070363983511925,-0.04951135069131851,-0.07361552119255066,0.07421784847974777,0.025186210870742798,0.023207589983940125,0.15663035213947296,0.03598862513899803,-0.11140314489603043,-0.20313872396945953,0.06547891348600388,-0.24744608998298645,-0.10287973284721375,-0.0808449387550354,0.1460908204317093,-0.01028902642428875,-0.08854612708091736,-0.03317974880337715,0.05444609373807907,-0.2436080425977707,0.05444382131099701,-0.14312182366847992,-0.15470047295093536,-0.3530370593070984,-0.20976367592811584,0.07241731137037277,-0.1472318470478058,0.06063656508922577,-0.06026405841112137,0.0836896002292633,-0.00948225799947977,0.03050239197909832,0.19021953642368317,0.09729187935590744,0.07794304192066193,0.015562226064503193,-0.12594105303287506,0.17878414690494537,-0.0026972040068358183,-0.09196487814188004,0.2545998692512512,-0.21223865449428558,0.05785507708787918,-0.1183662861585617,0.25069981813430786,-0.07467953860759735,-0.11780229955911636,-0.12792524695396423,0.13403208553791046,0.049683503806591034,0.17948728799819946,0.06303408741950989,0.1853194683790207,0.21678051352500916,0.1299002766609192,-0.1609327346086502,-0.18684183061122894,0.07040033489465714,0.1600009649991989,0.12720777094364166,0.17614684998989105,0.1595594584941864,-0.2046983540058136,-0.08074947446584702,0.20324406027793884,-0.14723223447799683,0.14356426894664764,0.09703262150287628,-0.1273246705532074,0.30351608991622925,0.11499843746423721,0.14691491425037384,-0.0037290877662599087,-0.012573882937431335,0.14895860850811005,-0.16065651178359985,-0.06055115908384323,0.17038898169994354,0.1345568299293518,-0.07922680675983429,-0.056534942239522934,0.03772931545972824,0.021739432588219643,-0.08268053829669952,-0.019396411255002022,-0.10287809371948242,0.08600520342588425,-0.09083625674247742,-0.20025525987148285,-0.29350101947784424,-0.2159317284822464,0.22557222843170166,-0.01867940090596676,-0.02313537336885929,0.15788157284259796,0.024003615602850914,-0.298999160528183,-0.15284904837608337,-0.018116453662514687,-0.006843624170869589,-0.06328300386667252,0.19561856985092163,-0.07874386012554169,0.01671713963150978,-0.010474544018507004,0.20285825431346893,0.06501105427742004,0.18102456629276276,-0.15159328281879425,0.04432656988501549,0.03961174935102463,-0.10377578437328339,-0.07109415531158447,-0.10944514721632004,-0.25895771384239197,-0.0047875745221972466,-0.10321907699108124,-0.06389956176280975,-0.04916337877511978,-0.1539400964975357,-0.1501184105873108,0.0073542227037250996,-0.13310137391090393,-0.11986653506755829,-0.03153698518872261,-0.13651207089424133,-0.16814136505126953,-0.03355545178055763,-0.08827294409275055,0.011282486841082573,-0.021388767287135124,0.20999369025230408,0.16020603477954865,0.03380582481622696,0.13232305645942688,0.039444271475076675,-0.027312828227877617,0.3147933781147003,-0.16763000190258026,-0.21311262249946594,0.16833706200122833,0.017978020012378693,-0.17859141528606415,0.06410785019397736,0.3613496422767639,0.03860117867588997,0.07078735530376434,0.10979852825403214,0.022750629112124443,-0.058542221784591675,-0.07026529312133789,0.24642325937747955,0.1643485724925995,0.07764999568462372,-0.05201764032244682,0.12260887771844864,-0.22371290624141693,-0.07962401956319809,0.06771215796470642,-0.019574251025915146,0.05430178716778755,0.03179750218987465,-0.08410865813493729,0.038402386009693146,-0.007375023793429136,-0.004273851867765188,0.025695068761706352,-0.07587628066539764,-0.015925917774438858,-0.143884539604187,-0.030990079045295715,-0.07449103146791458,0.1006336435675621,-0.11937551945447922,0.0028693033382296562,0.01654616929590702,0.10572884231805801,0.14957986772060394,0.1113160029053688,-0.07137551158666611,-0.0847507119178772,0.0658622458577156,0.04816487058997154,0.18477080762386322,0.07711035013198853,0.09335901588201523,-0.016719883307814598,-0.1079486683011055,0.029785310849547386,-0.08104496449232101,-0.07093946635723114,-0.08745117485523224,0.09634328633546829,-0.03755296394228935,0.07351095974445343,0.04856156185269356,-0.10629229247570038,-0.0025768387131392956,0.07055756449699402,0.17729783058166504,0.010905277915298939,-0.1545809954404831,-0.13472995162010193,0.1517113894224167,-0.058051083236932755,0.13096682727336884,-0.24533964693546295,-0.012203920632600784,0.2660134732723236,0.026306824758648872,-0.0024183050263673067,0.010714150965213776,-0.23207548260688782,-0.05943680927157402,0.09921716153621674,0.28410574793815613,0.17152917385101318,0.06290868669748306,0.2835177779197693,0.12356828153133392,-0.13886000216007233,0.11810585111379623,0.07341402024030685,0.0030203612986952066,-0.08024340122938156,-0.05370068550109863,0.07583584636449814,-0.05916675552725792,-0.057634223252534866,-0.09485098719596863,0.3076914846897125,0.05692179873585701,-0.09362372010946274,-0.21271681785583496,0.14893338084220886,0.001378104672767222,-0.02751883864402771,-0.09450718760490417,0.17617177963256836,0.22936391830444336,0.014155537821352482,-0.10137572884559631,-0.01749991625547409,-0.050518620759248734,0.014682280831038952,0.1827307641506195,0.006542111746966839,-0.004517111461609602,-0.020610403269529343,0.06478959321975708,-0.07963520288467407,0.06368647515773773,-0.06219077110290527,-0.14586830139160156,-0.0125900162383914,0.04483291506767273,0.18383397161960602,-0.02104385569691658,-0.11177979409694672,0.08846759051084518,-0.1926748901605606,-0.25495192408561707,-0.0034860253799706697,0.09387100487947464,-0.03787767142057419,-0.13859839737415314,0.012813222594559193,-0.10828918218612671,-0.1427375227212906,0.09787917882204056,-0.01519683375954628,0.06692273914813995,-0.20182111859321594,-0.23036164045333862,0.14888198673725128,0.012398634105920792,0.11561498790979385,0.19256019592285156,0.14752045273780823,0.029269086197018623,0.19349384307861328,0.08795692026615143,0.048455651849508286,-0.1031937301158905,0.047538626939058304,0.18052469193935394,-0.04315837100148201,0.32983678579330444,0.22438687086105347,0.14839953184127808,-0.08589674532413483,-0.25957417488098145,0.09954765439033508,0.10827207565307617,-0.10895262658596039,0.21406923234462738,-0.07937914878129959,-0.15336136519908905,0.09219411015510559,-0.022339899092912674,0.058689482510089874,-0.004033397883176804,0.043804630637168884,-0.011196990497410297,-0.06343310326337814,-0.2170778214931488,0.3145381808280945,-0.22223645448684692,0.023111777380108833,0.15445439517498016,-0.018474072217941284,0.2300649732351303,0.017929881811141968,-0.08658014237880707,-0.09865657240152359,0.10506201535463333,-0.14794865250587463,0.13621775805950165,-0.07256390899419785,0.045787036418914795,-0.08594892919063568,0.24658215045928955,-0.23171819746494293,-0.2656853199005127,0.10854645073413849,-0.017499485984444618,-0.2658686637878418,-0.04432198405265808,-0.09014740586280823,-0.20996418595314026,0.10958044230937958,0.2129533439874649,0.004825720097869635,-0.009546151384711266,-0.02906252071261406,-0.08371428400278091,-0.1677308827638626,0.043238695710897446,-0.1139972060918808,0.07275908440351486,-0.023635905236005783,0.144832044839859,0.21381251513957977,-0.07098505645990372,-0.009059866890311241,-0.15544269979000092,0.0971498116850853,-0.011097578331828117,0.08909373730421066,-0.17233048379421234,-0.02659621834754944,0.0020456481724977493,0.04219235107302666,0.11288418620824814,0.1297464221715927,-0.05070551484823227,0.07734822481870651,-0.1516544222831726,0.08680440485477448,0.06019581854343414,0.16293072700500488,0.16922549903392792,-0.10825802385807037,0.15014459192752838,0.10832717269659042,-0.1443760097026825,-0.006855843588709831,-0.08201862871646881,-0.03678479045629501,-0.08387145400047302,-0.10035481303930283,-0.029710082337260246,-0.1513195037841797,0.05261406674981117,-0.01895657740533352,-0.010061626322567463,0.04173910617828369,0.1754966676235199,0.27063387632369995,-0.2868664264678955,0.02951003983616829,-0.0503358393907547,0.006016648840159178,0.06227286159992218,0.13293510675430298,0.07878269255161285,-0.120564766228199,-0.16721613705158234,-0.022246094420552254,-0.005617326591163874,0.0915042906999588,0.094119593501091,-0.1139511987566948,-0.06698061525821686,0.0942566767334938,0.0002575629041530192,0.11185646057128906,0.10183174908161163,-0.09077900648117065,0.11991677433252335,0.16552917659282684,-0.011985361576080322,0.04971706122159958,0.19701561331748962,-0.0472528375685215,0.04765894263982773,-0.011437032371759415,0.16674041748046875,-0.09701637178659439,-0.09966336190700531,0.16333501040935516,-0.06813212484121323,0.08250463753938675,0.010299304500222206,0.025491133332252502,-0.016755754128098488,0.0019047220703214407,0.07047883421182632,0.1876893788576126,-0.13740979135036469,0.01608671434223652,-0.02029220387339592,0.0021107846405357122,-0.14124232530593872,0.04380662739276886,-0.14905023574829102,-0.18302808701992035,-0.060296881943941116,-0.18007391691207886,0.030745668336749077,-0.02294134721159935,-0.08220021426677704,0.046876125037670135,-0.07516492903232574,-0.037908654659986496,0.03337215259671211,-0.038957979530096054,0.06483785063028336,-0.0037094030994921923,-0.010379575192928314,0.07732218503952026,0.18601742386817932,0.09893554449081421,-0.1712217926979065,-0.006110076792538166,0.11988740414381027,-0.011858026497066021,-0.1529330313205719,-0.18653729557991028,-0.025071265175938606,-0.002019702224060893,0.03513004258275032,0.0520966574549675,0.1274547576904297,0.13187067210674286,-0.08935674279928207,-0.030668962746858597,0.03877980634570122,-0.07034002989530563,-0.04721083119511604,-0.11408474296331406,-0.033117473125457764,0.17656202614307404,-0.05917787179350853,0.01955813355743885,-0.19362105429172516,-0.15147395431995392,0.07497315853834152,0.046766433864831924,0.09041456878185272,-0.10013234615325928,-0.1906682401895523,-0.24108919501304626,-0.006207474507391453,-0.14608612656593323,0.0055402833968400955,-0.1354949176311493,-0.05873451381921768,0.004445405676960945,-0.22234533727169037,-0.07273801416158676,-0.026389118283987045,0.092401884496212,0.06823761016130447,-0.003931231331080198,-0.15050962567329407,-0.033724334090948105,-0.07420025765895844,-0.08730263262987137,-0.005594088230282068,0.07638885080814362,-0.13267947733402252,0.12597909569740295,0.09939094632863998,-0.015368924476206303,-0.07074187695980072,0.050490036606788635,0.0773797556757927,0.030231408774852753,-0.030272601172327995,0.04573236033320427,0.03376387432217598,-0.008388814516365528,0.0663808137178421,0.33667662739753723,0.4098311960697174,0.4166254997253418,-0.7126345038414001,-0.4206443130970001,0.08596192300319672,0.2087574154138565,-0.02955826185643673,0.28764015436172485,0.20396161079406738,-0.7880322933197021,0.32050326466560364,0.003518638899549842,-0.47776734828948975,0.03876648470759392,-0.19011667370796204,-0.3757099509239197,-0.22196240723133087,0.15777263045310974,-0.2287936955690384,0.17465105652809143,0.07957351952791214,-0.06453017145395279,-0.24073953926563263,-0.18828311562538147,0.17874738574028015,-0.15203729271888733,0.06629282981157303,-0.10467648506164551,-0.056917183101177216,0.09669764339923859,-0.034014660865068436,-0.07558747380971909,-0.24590520560741425,0.04348069801926613,-0.0920005738735199,0.004532125312834978,0.14674915373325348,0.25000354647636414,-0.12392525374889374,-0.07486139237880707,-0.06891395151615143,-0.2577763795852661,0.07122858613729477,-0.12130966037511826,0.16102167963981628,0.08375672996044159,0.0887165516614914,-0.016864316537976265,0.1796395480632782,-0.26450785994529724,0.05963180214166641,0.06782925128936768,-0.045667435973882675,0.04707294702529907,0.06839334964752197,0.39370080828666687,-0.13225790858268738,-0.2024991810321808,-0.10069052129983902,0.07423476129770279,-0.0502811037003994,-0.06703224778175354,0.19936692714691162,-0.10575690865516663,-0.08362787216901779,-0.25661522150039673,0.1721653938293457,0.10033992677927017,0.32569894194602966,0.3770758807659149,-0.01653429865837097,-0.039081428200006485,-0.10872523486614227,0.024957893416285515,-0.11835186183452606,0.10384044051170349,0.10931024700403214,-0.11243174970149994,-0.17014944553375244,0.08995325118303299,-0.06409819424152374,-0.007012284826487303,0.2171931266784668,-0.06212357059121132,-0.015133294276893139,0.039992302656173706,-0.16534270346164703,0.21498380601406097,0.18888813257217407,0.1434512436389923,0.102993905544281,-0.13593854010105133,-0.047677576541900635,-0.22229640185832977,-0.1989755928516388,-0.23057445883750916,0.22006012499332428,0.15383940935134888,0.18879434466362,-0.019489582628011703,0.2264130711555481,0.160872682929039,-0.14436212182044983,0.13249178230762482,0.18237057328224182,-0.18003299832344055,0.2293345034122467,-0.11414209008216858,0.11304700374603271,-0.19411565363407135,0.0191239845007658,-0.13525071740150452,-0.10430767387151718,-0.01767442375421524,0.035708218812942505,-0.08889275789260864,-0.041599683463573456,0.2024902105331421,0.17720431089401245,-0.11487802863121033,-0.011167613789439201,-0.06919138878583908,-0.058835502713918686,0.06493522971868515,-0.08960402011871338,0.023333938792347908,-0.06324414908885956,-0.17591038346290588,0.19021981954574585,-0.039107538759708405,0.05553272366523743,0.08711250126361847,-0.18327748775482178,-0.058614782989025116,0.16546474397182465,0.028719354420900345,0.024554267525672913,0.028969960287213326,0.004358351230621338,-0.08534232527017593,0.001209247624501586,0.08966083079576492,-0.06951797008514404,-0.23160147666931152,-0.2566896677017212,-0.3461184799671173,-0.29192373156547546,0.1709735095500946,0.13153155148029327,-0.001187982619740069,-0.23996983468532562,0.11354505270719528,-0.021084176376461983,-0.09088435024023056,-0.0854639932513237,0.11620058119297028,0.25950440764427185,-0.28137853741645813,0.03712626174092293,-0.07365663349628448,0.10051027685403824,0.03514951467514038,-0.037647441029548645,-0.19032901525497437,-0.08373826742172241,-0.29023247957229614,0.11120302230119705,-0.24091413617134094,-0.0885893926024437,0.13588160276412964,-0.2705230712890625,0.10716170072555542,-0.16485898196697235,0.226313516497612,0.026585601270198822,-0.05857392027974129,0.1675887107849121,-0.33379679918289185,-0.05148692429065704,-0.17895196378231049,0.1523960828781128,0.011125112883746624,-0.14359241724014282,0.3982250392436981,-0.09081307053565979,-0.31959855556488037,-0.05359925329685211,-0.05264502018690109,-0.04733777046203613,0.15460100769996643,-0.14877018332481384,0.14280150830745697,0.19587786495685577,-0.055300042033195496,0.034485407173633575,-0.10042169690132141,-0.02477979101240635,-0.10182035714387894,0.019271045923233032,-0.12188004702329636,0.060927897691726685,0.3213790953159332,0.10294313728809357,0.008183508180081844,0.1993696391582489,0.027091598138213158,-0.13975882530212402,0.19314266741275787,0.3722950518131256,0.1861872524023056,0.33759835362434387,-0.07728283107280731,0.08624183386564255,-0.0975969210267067,-0.016639787703752518,0.19489756226539612,0.15691782534122467,-0.29532963037490845,-0.10175272822380066,-0.14210577309131622,-0.020050061866641045,0.026970721781253815,-0.07576676458120346,-0.0555722750723362,0.11707700788974762,-0.014609303325414658,0.24655020236968994,0.07787147909402847,0.15876664221286774,-0.09325448423624039,0.051927465945482254,0.08581625670194626,0.321426123380661,0.06254628300666809,-0.16829290986061096,-0.21124546229839325,-0.16462042927742004,-0.11284297704696655,0.13833630084991455,0.18927159905433655,-0.05260058864951134,0.06674402207136154,0.043058332055807114,-0.21984384953975677,0.00034215475898236036,-0.11959178000688553,0.03566378727555275,-0.07664167135953903,0.019247956573963165,-0.293409526348114,-0.25377798080444336,0.183603435754776,0.03054797649383545,-0.22936595976352692,0.11992092430591583,-0.0031068522948771715,0.257802814245224,-0.12243068218231201,-0.16769300401210785,-0.2542456388473511,-0.17956842482089996,0.2570302188396454,-0.04651016369462013,-0.1261250078678131,0.09409425407648087,-0.17664052546024323,0.014247164130210876,0.11077486723661423,-0.19194193184375763,0.14814136922359467,0.09756747633218765,-0.1235256940126419,-0.0260982196778059,0.021938689053058624,-0.04072452709078789,0.01444235909730196,-0.03545163571834564,-0.013478298671543598,0.01550394855439663,-0.11542027443647385,0.08711446076631546,0.023930637165904045,0.039626166224479675,0.007043161895126104,-0.0398796945810318,0.025579573586583138,0.02652081847190857,0.020799290388822556,-0.036513399332761765,0.19855965673923492,-0.2462306022644043,0.07006251066923141,-0.048597827553749084,-0.04164305701851845,0.13723377883434296,-0.1614646017551422,-0.11030344665050507,0.17067882418632507,-0.0947217121720314,-0.05796268954873085,0.0835661068558693,-0.07277930527925491,-0.03983772546052933,-0.10310569405555725,0.07692021131515503,0.174907848238945,-0.05448152869939804,0.10604049265384674,0.09285828471183777,-0.014246512204408646,-0.10432828962802887,0.059132471680641174,0.023628022521734238,-0.036022212356328964,0.08929980546236038,-0.04008104279637337,0.067904531955719,0.07820406556129456,0.12679223716259003,-0.03236902877688408,0.07816499471664429,0.033132404088974,-0.048625294119119644,0.0087131941691041,0.09582579135894775,0.03655482456088066,0.07566585391759872,-0.0003061748866457492,0.159305602312088,0.15976695716381073,-0.1858682781457901,-0.09908918291330338,0.07470154017210007,0.1259402632713318,-0.07692606747150421,-0.055454276502132416,-0.1781768500804901,-0.13371579349040985,-0.14731885492801666,0.05322477966547012,0.14514128863811493,-0.2586666941642761,-0.08522580564022064,0.05268973857164383,-0.22227056324481964,0.04261583462357521,0.16430959105491638,0.0828637033700943,-0.03391231968998909,0.1474662870168686,0.047397077083587646,0.07331216335296631,0.04762200638651848,-0.00004076955883647315,0.14289550483226776,-0.09183365851640701,0.04034982994198799,0.07740037888288498,-0.16723604500293732,-0.12427199631929398,0.09831800311803818,0.19688954949378967,-0.009727580472826958,-0.04533493518829346,-0.1784384399652481,0.12659655511379242,-0.08319346606731415,0.06643545627593994,-0.10657560080289841,-0.37951183319091797,-0.1196906715631485,-0.19309374690055847,-0.23225745558738708,0.13084028661251068,-0.023305242881178856,-0.012059152126312256,0.08587534725666046,-0.024977367371320724,0.07977579534053802,0.011599645018577576,0.14524616301059723,0.028716353699564934,-0.061477094888687134,-0.01820569857954979,-0.08915102481842041,-0.05501776933670044,0.10939522832632065,0.1294855773448944,0.16241252422332764,0.03174162283539772,0.03216603398323059,-0.0006024735630489886,-0.16868573427200317,0.16445258259773254,-0.05128903687000275,-0.11655121296644211,-0.03579648956656456,-0.07050953060388565,-0.017239976674318314,0.003502995241433382,0.07522821426391602,0.10569790005683899,-0.213907852768898,-0.05001740902662277,-0.010987727902829647,-0.0902833566069603,-0.051195595413446426,0.09100789576768875,-0.14624731242656708,-0.009073900058865547,0.11279095709323883,-0.059141963720321655,0.03764144331216812,0.241101935505867,0.21699117124080658,0.0877731665968895,-0.11678249388933182,0.25343388319015503,0.03812173381447792,-0.058056723326444626,0.03706403449177742,-0.0073418570682406425,0.17409053444862366,0.11044996976852417,-0.020610574632883072,-0.007363252807408571,-0.10061463713645935,0.21117979288101196,0.17355763912200928,-0.09636584669351578,0.11971364915370941,0.048118531703948975,-0.010399197228252888,0.1492987871170044,-0.002355788601562381,0.08200614154338837,-0.11590365320444107,0.09610610455274582,0.12177548557519913,-0.03286995366215706,-0.041621703654527664,-0.046114731580019,-0.027659891173243523,0.10243022441864014,0.08677253127098083,-0.0073358663357794285,-0.029422834515571594,-0.029444636777043343,0.07271429896354675,0.10831832140684128,-0.15621915459632874,0.17487575113773346,0.1396459937095642,-0.02071988210082054,-0.06848882883787155,0.03491709381341934,0.028848953545093536,0.008172250352799892,-0.08760834485292435,0.04181620478630066,0.02689613401889801,0.08432187885046005,0.09035219997167587,-0.00417134165763855,-0.11415376514196396,0.07811418175697327,-0.003632115665823221,0.05285095423460007,0.044067054986953735,-0.0911034494638443,-0.014668380841612816,0.034344520419836044,-0.05797959864139557,0.07287082821130753,-0.21799787878990173,-0.1283825933933258,0.07907775044441223,0.030019115656614304,0.09458296746015549,-0.0696800947189331,-0.05316736176609993,0.12131047993898392,-0.017012836411595345,0.03368569537997246,0.04518846794962883,-0.026522424072027206,-0.026941906660795212,0.19230441749095917,-0.04760093241930008,0.13004356622695923,0.11657965928316116,-0.10283143073320389,-0.029875805601477623,0.1842120736837387,0.0963018536567688,-0.03884740546345711,-0.2289125919342041,0.22163644433021545,-0.050572168081998825,-0.09875961393117905,0.14929483830928802,0.05436241626739502,-0.035293810069561005,-0.06483955681324005,-0.06043104827404022,0.20470111072063446,0.10159792006015778,0.012483586557209492,0.136149063706398,-0.28958022594451904,0.036955323070287704,-0.05743388459086418,0.15614275634288788,0.03280002996325493,-0.030916931107640266,-0.2289726287126541,0.08775629103183746,0.07079407572746277,-0.05434751883149147,0.06756573170423508,0.14800098538398743,-0.031537946313619614,0.1143091470003128,0.189341738820076,0.06144610792398453,-0.022515535354614258,0.08678947389125824,-0.1709657907485962,-0.03864887356758118,-0.3106229305267334,-0.044532645493745804,-0.14160975813865662,0.05084388330578804,0.16365379095077515,-0.03822680562734604,-0.007875451818108559,0.1596718281507492,0.02549557015299797,0.012376397848129272,-0.186428040266037,-0.10143108665943146,-0.05853155255317688,-0.061713818460702896,-0.03865120932459831,-0.058578602969646454,-0.013380435295403004,-0.061897728592157364,-0.05061311274766922,-0.16011042892932892,-0.04394598305225372,-0.04550750553607941,0.022443411871790886,-0.1694427728652954,0.049201805144548416,-0.12939466536045074,0.003919828683137894,0.09064885973930359,-0.03429205343127251,-0.0954294204711914,-0.018929941579699516,-0.21037429571151733,0.25792187452316284,0.13971714675426483,0.1346888244152069,0.03162435442209244,-0.10638397932052612,-0.09361305832862854,-0.0831179991364479,0.09388753771781921,0.04164265841245651,0.09402241557836533,0.13540011644363403,0.08171679824590683,0.004501407500356436,0.023754263296723366,0.08313649147748947,0.035808321088552475,0.06984224915504456,-0.1058693379163742,0.044377461075782776,0.02886994555592537,-0.1790682077407837,-0.062464065849781036,0.0887397974729538,-0.27114495635032654,-0.1164465993642807,-0.005166875664144754,0.1556645929813385,0.17305627465248108,-0.1443472057580948,0.04214079678058624,-0.023902639746665955,0.08178729563951492,-0.022031428292393684,0.04623224586248398,-0.04257575795054436,0.03247582167387009,-0.06582538038492203,-0.08852964639663696,-0.18841561675071716,0.046660538762807846,0.209819033741951,0.30898067355155945,-0.015769444406032562,-0.2073269486427307,-0.23877239227294922,0.08343096822500229,0.030409034341573715,0.21339038014411926,-0.09219153225421906,0.039563681930303574,-0.15726155042648315,0.1304321140050888,0.1541294902563095,0.049668461084365845,0.1807064265012741,0.22978046536445618,0.039686139672994614,-0.03559693321585655,0.07823926955461502,0.03880329057574272,-0.1252589225769043,0.007304611150175333,0.13589021563529968,-0.10440693795681,0.07998345047235489,-0.09226702898740768,0.08960742503404617,-0.020486151799559593,0.038503073155879974,-0.04609723389148712,0.12861160933971405,0.10352015495300293,0.0982634425163269,0.032501496374607086,-0.06875184178352356,-0.062476031482219696,0.10002158582210541,-0.05912927910685539,-0.009024560451507568,-0.1310802400112152,0.04422663152217865,0.03235077112913132,-0.15961001813411713,0.16040034592151642,-0.09089196473360062,-0.1484476625919342,-0.03668249398469925,-0.033430133014917374,0.06728875637054443,0.009627844206988811,0.003479152452200651,0.08530506491661072,-0.11465467512607574,-0.06194225698709488,0.0173946563154459,-0.2768024504184723,-0.06192144379019737,0.28682130575180054,-0.031220823526382446,-0.058902449905872345,0.06634433567523956,0.013054342940449715,0.09928987175226212,-0.13896293938159943,-0.034278504550457,-0.04290895164012909,0.09660013765096664,0.040664561092853546,-0.06603889912366867,-0.05920576676726341,0.08248330652713776,-0.14595910906791687,0.14395731687545776,-0.03975476324558258,0.03406855836510658,0.01992332749068737,-0.06895904242992401,-0.1284826248884201,-0.13800838589668274,0.05784628540277481,0.11240068078041077,-0.18147341907024384,0.047186944633722305,-0.05581086874008179,0.18737027049064636,0.05256778374314308,-0.0636274591088295,0.08100998401641846,-0.0392032116651535,0.018514996394515038,0.0446215495467186,-0.04765521362423897,-0.23352393507957458,-0.016183679923415184,0.04453615844249725,-0.024828115478157997,-0.0961962342262268,-0.04642098397016525,-0.16985785961151123,0.1285688281059265,-0.21890349686145782,0.022349894046783447,-0.017965564504265785,-0.12372922152280807,0.1413693130016327,0.020409593358635902,0.15046952664852142,0.05947347357869148,-0.0892968475818634,-0.08747921139001846,0.025893306359648705,0.1287112832069397,-0.2306344360113144,-0.08220452070236206,-0.17517617344856262,0.026365499943494797,0.11861726641654968,0.05831950157880783,-0.008215604349970818,0.10586511343717575,-0.02842622436583042,-0.16754832863807678,-0.04312878102064133,-0.10232938081026077,0.09833366423845291,0.07579657435417175,-0.1185976043343544,0.03732220456004143,-0.003270041896030307,-0.1338280439376831,0.0008386176778003573,-0.05249748006463051,-0.038700170814991,-0.03349119424819946,-0.067666195333004,0.09735962003469467,-0.08595442026853561,0.0730181410908699,-0.06591375917196274,-0.009385603480041027,0.11530223488807678,0.07370474934577942,0.06990356743335724,0.1353953331708908,-0.02644990012049675,-0.19337601959705353,-0.0014641706366091967,-0.14936254918575287,0.1353193074464798,0.07627109438180923,-0.16796502470970154,0.15464289486408234,0.06471110135316849,-0.14918918907642365,0.09893269836902618,0.019214926287531853,-0.07077579945325851,0.09427633136510849,0.0871226042509079,-0.036033403128385544,-0.0019412419060245156,-0.008817344903945923,-0.2157892882823944,-0.09065882861614227,0.17224359512329102,-0.1674928367137909,-0.014125010930001736,0.16296181082725525,-0.11824488639831543,-0.03749646991491318,0.05895455554127693,0.019590210169553757,0.14869123697280884,0.07894646376371384,-0.14635363221168518,-0.022521255537867546,0.007624301128089428,-0.04413514584302902,-0.052158284932374954,0.06793441623449326,0.07709696888923645,0.04891500249505043,0.003632080741226673,0.005191863048821688,0.022875141352415085,0.030897554010152817,-0.027494199573993683,-0.06532558798789978,-0.030074870213866234,-0.03734225779771805,0.19860687851905823,-0.03715106099843979,-0.1190960481762886,-0.09151023626327515,