{"version":"0.5.3","metadata":{"date":{"year":2024,"month":10,"day":7,"hour":12,"minute":54,"second":18},"loudness":-14.89324951171875,"gain":0.27282626109743324,"name":"Roland JC-120 Jazz Chorus","modeled_by":"tonezone3000","gear_type":"amp_cab","gear_make":"tz-make","gear_model":"tz-model","tone_type":"overdrive","training":{"settings":{"fit_cab":true,"ignore_checks":false},"data":{"latency":{"manual":null,"calibration":{"algorithm_version":1,"delays":[-240,-243],"safety_factor":4,"recommended":-247,"warnings":{"matches_lookahead":false,"disagreement_too_high":false}}},"checks":{"version":3,"passed":true}},"validation_esr":0.0033016919970469227}},"architecture":"WaveNet","config":{"layers":[{"input_size":1,"condition_size":1,"head_size":8,"channels":16,"kernel_size":3,"dilations":[1,2,4,8,16,32,64,128,256,512],"activation":"Tanh","gated":false,"head_bias":false},{"input_size":16,"condition_size":1,"head_size":1,"channels":8,"kernel_size":3,"dilations":[1,2,4,8,16,32,64,128,256,512],"activation":"Tanh","gated":false,"head_bias":true}],"head":null,"head_scale":0.02},"weights":[-0.0005891171749681234,0.5919761657714844,-0.7359861135482788,-0.7940170168876648,-0.07087645679712296,0.27353784441947937,-0.0008509278413839638,0.8072380423545837,-0.012805290520191193,0.19175492227077484,-0.04801636561751366,-0.19025276601314545,-0.9387832283973694,-0.573398768901825,-0.23821376264095306,0.009960864670574665,0.07963565737009048,0.2219438999891281,-0.007100728340446949,-0.05352361500263214,-0.06010727211833,0.11656209081411362,-0.03221231326460838,0.22340257465839386,-0.016944531351327896,0.006039225030690432,0.23637056350708008,-0.1385469287633896,-0.10248453170061111,0.0553135871887207,-0.05701476335525513,0.1504615992307663,-0.18590179085731506,-0.05615999922156334,-0.11094053089618683,-0.16996996104717255,-0.05012428015470505,0.12886661291122437,-0.04225557669997215,0.07830403000116348,0.02614443562924862,0.005697039887309074,0.05647772550582886,-0.12936615943908691,-0.1976899951696396,-0.05153808742761612,0.07127364724874496,0.14177532494068146,-0.10643453150987625,-0.03795212134718895,0.18897412717342377,0.14549307525157928,0.05414322763681412,0.12869887053966522,0.09210716933012009,-0.0893620029091835,0.13526317477226257,-0.11053884029388428,-0.10824112594127655,0.023636648431420326,0.05762403458356857,0.000582584529183805,-0.23799514770507812,-0.10291285812854767,0.01697755977511406,0.037150848656892776,-0.16735520958900452,0.15213944017887115,-0.09312795847654343,0.2790619134902954,-0.21941356360912323,0.13318979740142822,-0.079270139336586,0.0025397809222340584,0.3044128119945526,-0.014887784607708454,-0.07897023111581802,0.03386971354484558,-0.12354384362697601,0.03424439579248428,-0.30106091499328613,0.2794940173625946,0.2161671221256256,-0.06005809083580971,0.008645457215607166,0.08438607305288315,-0.20613382756710052,0.0745709016919136,-0.017238108441233635,0.02524515613913536,-0.09264615923166275,0.15699198842048645,-0.07648544758558273,0.18555283546447754,-0.2530698776245117,0.044808488339185715,-0.09675214439630508,-0.09638779610395432,0.044647060334682465,-0.23055008053779602,0.027831949293613434,0.28198322653770447,-0.1998925507068634,-0.14265842735767365,0.04423278942704201,-0.13480569422245026,-0.22552111744880676,0.0513283871114254,-0.16486117243766785,-0.0026833012234419584,-0.04348897561430931,0.05665142461657524,-0.015391271561384201,0.15874424576759338,0.2661573588848114,-0.14226751029491425,0.061257150024175644,-0.16554872691631317,0.03116036020219326,-0.06714379042387009,0.22423401474952698,0.0244453102350235,-0.16575422883033752,0.24509088695049286,-0.10153991729021072,-0.15045268833637238,0.14421510696411133,-0.0987362340092659,0.033624183386564255,-0.29771244525909424,-0.08103000372648239,-0.031810954213142395,-0.03922906145453453,-0.02023598924279213,0.19760076701641083,-0.1995428055524826,0.09287258237600327,0.00013997952919453382,0.26984789967536926,0.06881533563137054,0.2039770483970642,-0.11819479614496231,0.16409794986248016,-0.06008343771100044,0.09050226211547852,-0.015042495913803577,0.021939875558018684,0.1733718067407608,-0.06005105376243591,-0.20789004862308502,0.04462555795907974,-0.10497301816940308,-0.12351204454898834,0.2537529468536377,0.102455735206604,-0.2183218002319336,0.2812628448009491,-0.18191111087799072,-0.11961396783590317,-0.09162089228630066,-0.10600220412015915,0.023193657398223877,-0.2508499324321747,-0.07381047308444977,-0.08433014154434204,0.09763167798519135,-0.11055584251880646,0.11807187646627426,-0.22418834269046783,-0.05535034090280533,0.18841652572155,-0.15834803879261017,0.075721375644207,0.09109026938676834,-0.23762206733226776,0.14326612651348114,-0.07303628325462341,0.03500717878341675,0.14015351235866547,-0.1483154296875,-0.005031104199588299,0.013705105520784855,0.04317830502986908,0.14653289318084717,0.01619400456547737,0.0313594788312912,-0.14619210362434387,0.021955708041787148,-0.15727895498275757,0.2080100029706955,0.0786316767334938,0.1306060254573822,-0.23156355321407318,-0.06486036628484726,-0.05364872142672539,-0.17530782520771027,-0.12769463658332825,0.11093573272228241,-0.1892549991607666,-0.050527337938547134,0.06506089121103287,-0.006053576711565256,-0.15649810433387756,-0.05121912434697151,-0.1932617425918579,0.30189213156700134,0.14669854938983917,0.13922180235385895,-0.11303377896547318,-0.11082140356302261,-0.2392265349626541,-0.13597822189331055,-0.1551133543252945,0.08075548708438873,0.11364895105361938,0.19333714246749878,-0.2269793450832367,0.037135977298021317,0.28812795877456665,-0.2349434792995453,0.06786669045686722,0.2812931537628174,-0.07385693490505219,-0.09458576887845993,-0.28525248169898987,0.1906701922416687,-0.026353416964411736,0.028494292870163918,-0.06257732957601547,-0.13271009922027588,-0.16514208912849426,0.24800856411457062,-0.043658386915922165,0.11773707717657089,-0.14727169275283813,-0.1734909564256668,-0.0602601133286953,0.06340435147285461,0.028614094480872154,0.1687922328710556,-0.10950537770986557,0.1756974160671234,0.10264871269464493,-0.11590630561113358,0.18633762001991272,0.029431741684675217,-0.02043437771499157,-0.013254008255898952,0.16756729781627655,-0.1443312019109726,0.018239343538880348,0.16941723227500916,-0.01535136066377163,-0.046700309962034225,-0.05662543326616287,-0.061300747096538544,-0.07996691018342972,-0.05943000316619873,0.10683445632457733,-0.17585647106170654,0.08961524814367294,-0.1173771470785141,0.14345131814479828,-0.06814048439264297,0.242525115609169,0.02422383800148964,-0.21463362872600555,0.2431652843952179,0.1939893364906311,-0.10771190375089645,0.12578025460243225,-0.15081939101219177,0.022530701011419296,-0.17943929135799408,-0.05266622453927994,-0.1588016301393509,0.18699420988559723,-0.15781646966934204,0.1620899885892868,-0.16075250506401062,0.07281932979822159,-0.17342112958431244,0.1028141975402832,0.06507927924394608,0.1903933435678482,-0.09101475775241852,0.006810393184423447,-0.10331226885318756,0.18052421510219574,0.09601066261529922,-0.22856159508228302,0.2611546516418457,0.11011447757482529,-0.18299412727355957,0.164902925491333,-0.020192774012684822,-0.07329118996858597,0.08607125282287598,0.12793996930122375,-0.2102426141500473,0.13821575045585632,-0.0012973464326933026,-0.2652314305305481,-0.05729298293590546,0.15124860405921936,-0.10401454567909241,0.19995547831058502,0.026559311896562576,0.16235752403736115,-0.19022656977176666,-0.09293381124734879,-0.12989449501037598,0.2179958075284958,-0.023667532950639725,-0.04914194718003273,0.2726901173591614,-0.026574019342660904,-0.07364723086357117,0.23816967010498047,-0.034329116344451904,0.10129690170288086,-0.16430369019508362,-0.0473906584084034,0.014774232171475887,0.15979918837547302,0.103141650557518,0.18644565343856812,-0.16620685160160065,0.19033314287662506,-0.04000229761004448,0.12924320995807648,-0.16621993482112885,0.2143687903881073,-0.12249386310577393,-0.07111435383558273,-0.010157778859138489,0.31946125626564026,0.2152501344680786,0.043695900589227676,0.28813236951828003,-0.00697778956964612,-0.15477582812309265,0.2994346618652344,0.11233555525541306,-0.18783067166805267,0.30511152744293213,0.10590007156133652,-0.008727136068046093,0.09966621547937393,0.0991780161857605,-0.028915196657180786,0.20739781856536865,-0.020500481128692627,0.03436816856265068,-0.06388792395591736,0.10505002737045288,-0.10441131144762039,0.2028133124113083,-0.13871368765830994,0.0923224538564682,-0.22693435847759247,-0.18287700414657593,-0.05995529145002365,-0.018163060769438744,0.04164157807826996,0.1667971909046173,-0.013344822451472282,-0.08525189012289047,-0.14778973162174225,0.11198050528764725,-0.03388386592268944,0.04601258784532547,-0.1541803479194641,-0.03366760164499283,-0.19844460487365723,0.04922293871641159,0.12177883833646774,0.13571293652057648,0.0014784840168431401,0.13723450899124146,0.07367506623268127,0.08368007093667984,0.036894541233778,0.160721555352211,-0.08860072493553162,0.09479569643735886,0.11156920343637466,-0.04303065687417984,-0.08766622096300125,0.1280185580253601,-0.1132519319653511,-0.07140552252531052,-0.025548400357365608,-0.20641283690929413,-0.14965039491653442,0.14203855395317078,-0.033995892852544785,-0.11485803872346878,-0.21874843537807465,-0.05433286353945732,0.12528619170188904,-0.07643143832683563,-0.018532030284404755,0.047622229903936386,0.21261054277420044,-0.21844376623630524,0.21122151613235474,-0.05064490810036659,0.048335831612348557,0.1595230996608734,-0.23523227870464325,0.08975252509117126,0.2063603699207306,-0.12044589966535568,0.01534278504550457,-0.13914726674556732,0.09614308178424835,-0.1504463404417038,0.00004553555845632218,0.07195109128952026,0.02948593534529209,-0.1588657647371292,0.16538624465465546,-0.04727530479431152,0.1298299878835678,-0.22820954024791718,0.111370749771595,-0.16390211880207062,0.08605297654867172,-0.08058252185583115,-0.03953613340854645,-0.06968589127063751,0.27304989099502563,0.12148582935333252,-0.21833018958568573,0.07011573761701584,0.10134587436914444,-0.27036771178245544,0.1830870509147644,-0.056640420109033585,-0.2936633229255676,-0.03334501385688782,0.04831022024154663,-0.04286258667707443,-0.008909196592867374,0.07557627558708191,-0.1184108555316925,0.050282012671232224,0.08258471637964249,-0.18008477985858917,0.19844670593738556,0.0037817442789673805,0.29055315256118774,-0.010371076874434948,-0.03185536712408066,-0.03129596263170242,0.08336840569972992,0.13876080513000488,-0.25974735617637634,0.0454750657081604,-0.07351669669151306,-0.18032187223434448,0.11887462437152863,-0.1952759176492691,0.1799348145723343,-0.013661523349583149,0.11500478535890579,-0.05421009287238121,0.04405280575156212,-0.11084482073783875,0.20837703347206116,0.05173686146736145,0.1625642031431198,-0.0858113169670105,0.1783854365348816,-0.20431722700595856,0.005562106147408485,-0.03746488690376282,-0.011054877191781998,-0.030818624421954155,0.02325628511607647,0.02205040119588375,-0.24865232408046722,0.16404452919960022,0.049773406237363815,-0.03639034926891327,0.17602619528770447,0.1454319953918457,-0.1402539163827896,0.037543993443250656,0.036526840180158615,-0.11608907580375671,0.16803188621997833,-0.07530863583087921,0.15610478818416595,0.13071967661380768,-0.0804625004529953,-0.09510504454374313,0.24176551401615143,0.3211406171321869,0.02993268333375454,-0.054592691361904144,-0.12280163913965225,-0.07738404721021652,0.27940040826797485,-0.26831546425819397,-0.11286088079214096,0.2224951684474945,-0.190096914768219,-0.08137468248605728,0.1159583181142807,0.2662234902381897,0.11192090809345245,-0.21413415670394897,0.05183323845267296,0.05100357159972191,0.03872595727443695,0.19932138919830322,0.23623444139957428,-0.18866175413131714,0.018846387043595314,-0.07198274880647659,0.25836747884750366,0.047608938068151474,0.030558360740542412,-0.2767186164855957,-0.0013194656930863857,-0.1384456753730774,0.1987587809562683,-0.22537174820899963,-0.007932132109999657,0.29098790884017944,-0.2981279492378235,-0.27277490496635437,0.06028629466891289,-0.18646322190761566,-0.19167035818099976,0.06842584162950516,-0.2176135927438736,-0.11224096268415451,0.09814003109931946,0.027939418330788612,-0.05922277271747589,-0.0792771726846695,0.08937186747789383,0.12602923810482025,-0.12206561863422394,-0.06213507428765297,-0.05630152300000191,0.20492881536483765,-0.06788832694292068,-0.13275779783725739,0.08171962946653366,-0.020254259929060936,0.036960236728191376,-0.06952767074108124,0.03845782205462456,-0.022234724834561348,0.04718253016471863,-0.0735531821846962,-0.1541401892900467,-0.028984444215893745,-0.09637954831123352,-0.034972161054611206,-0.24610741436481476,0.06174026057124138,-0.044054336845874786,0.025798941031098366,0.15765847265720367,0.05773099884390831,0.08133966475725174,0.001076097716577351,-0.06632823497056961,-0.06004359945654869,0.06517568230628967,0.14376744627952576,-0.0699736475944519,-0.0539902038872242,0.06462719291448593,0.07836385071277618,0.031177131459116936,-0.10879955440759659,-0.18402709066867828,0.10450276732444763,-0.003559394273906946,-0.1310701221227646,0.10482857376337051,0.06923404335975647,0.06908519566059113,0.15153434872627258,0.07516731321811676,-0.04928763210773468,-0.11411833763122559,0.07549624890089035,0.140823632478714,0.07074955850839615,-0.036864809691905975,0.02301679365336895,0.12118466198444366,0.04052507132291794,-0.014074153266847134,-0.0637241080403328,-0.18349900841712952,0.253004252910614,-0.055237580090761185,-0.12995344400405884,0.1915425956249237,-0.06689076870679855,0.008899214677512646,-0.12635207176208496,-0.02466852404177189,-0.18210743367671967,0.15022236108779907,-0.057682640850543976,0.1303742676973343,-0.00017268657393287867,0.10458073019981384,-0.014939856715500355,0.26046061515808105,-0.001636148663237691,-0.016751153394579887,-0.014464909210801125,0.042458705604076385,-0.18228305876255035,0.11318324506282806,-0.08129973709583282,0.04390358924865723,0.08013719320297241,-0.14019884169101715,-0.09111384302377701,0.2123711109161377,0.030439311638474464,-0.036758244037628174,0.1294013112783432,0.05114760994911194,-0.10839390009641647,0.0679401159286499,-0.26675888895988464,-0.17031292617321014,0.11018839478492737,-0.26280999183654785,0.14435778558254242,0.04712022468447685,0.30010971426963806,-0.23693428933620453,0.13658247888088226,-0.3646806478500366,0.26835766434669495,-0.10136937350034714,-0.31697267293930054,0.22585080564022064,-0.05351591482758522,-0.1508462280035019,0.029176780954003334,-0.1342875063419342,0.2231508493423462,-0.10717243701219559,0.15072792768478394,-0.16212299466133118,0.1412055641412735,0.017963415011763573,0.2378314584493637,-0.05138680711388588,-0.12554341554641724,-0.17911256849765778,0.27299952507019043,-0.010857958346605301,0.3425133526325226,-0.2161148488521576,0.09553434699773788,-0.37390774488449097,0.13172759115695953,-0.022205393761396408,-0.25769418478012085,0.1638488918542862,0.06917779892683029,-0.29321175813674927,0.15113207697868347,0.113521046936512,-0.3149304687976837,0.27618154883384705,-0.08433661609888077,-0.2864091098308563,0.13421812653541565,0.058756161481142044,0.05066993460059166,0.01839076541364193,-0.08858571201562881,0.19754362106323242,0.023909013718366623,0.0057670497335493565,-0.34533438086509705,0.06505081802606583,0.25925177335739136,0.26651355624198914,-0.111653171479702,-0.028343327343463898,0.14448533952236176,0.05482801795005798,-0.10996140539646149,0.15393252670764923,0.058865536004304886,-0.25202518701553345,-0.21041077375411987,-0.11485784500837326,0.10463026165962219,0.10195155441761017,0.1160823330283165,-0.08452723920345306,-0.14855583012104034,-0.03152443468570709,0.07371930032968521,-0.007512220181524754,-0.18559497594833374,-0.013474115170538425,-0.229636088013649,0.02362743578851223,0.20544546842575073,0.2889942228794098,0.09439949691295624,-0.04514085128903389,0.13557882606983185,0.014893656596541405,-0.1859150230884552,0.16263969242572784,0.05016624927520752,-0.0034512963611632586,0.13075384497642517,0.10679274052381516,-0.20654910802841187,0.2026454508304596,0.12306720018386841,-0.16883090138435364,0.11637803912162781,-0.11834772676229477,0.16109316051006317,0.02420693449676037,-0.2332281470298767,-0.013615681789815426,-0.25979185104370117,0.016144409775733948,0.0437019020318985,0.2654286324977875,-0.1767437756061554,0.024706879630684853,0.27389025688171387,-0.0412822850048542,-0.11725921183824539,0.11707362532615662,-0.17170259356498718,-0.14453625679016113,-0.1543656289577484,0.23130932450294495,0.14324191212654114,0.08115899562835693,-0.01227538101375103,-0.07827093452215195,-0.029505247250199318,0.08675093948841095,-0.04886571317911148,0.07766623795032501,-0.06997568905353546,-0.1961219161748886,0.030685026198625565,0.21786612272262573,-0.03096158429980278,0.06545887887477875,-0.03521499037742615,-0.17094865441322327,0.11818327009677887,-0.059966109693050385,-0.1330677568912506,0.2201179713010788,-0.07034744322299957,0.03855086863040924,0.052195027470588684,0.0038590645417571068,-0.13281653821468353,0.27933627367019653,-0.2762662172317505,-0.1663111448287964,0.1432010680437088,-0.02440120466053486,-0.0006166372331790626,-0.10894154757261276,-0.21856361627578735,-0.08592193573713303,-0.11844094097614288,0.048146817833185196,0.07006775587797165,0.0033888036850839853,0.03221931681036949,-0.06748273968696594,0.04256456345319748,-0.056283120065927505,0.008120718412101269,-0.07937999069690704,-0.08147190511226654,-0.002828398020938039,-0.02955109067261219,0.44691622257232666,-0.2915666699409485,0.6259258985519409,-0.6036322712898254,0.11828220635652542,0.7075085639953613,0.8221642971038818,-0.4478519856929779,0.07328527420759201,0.03704405575990677,-0.6314204931259155,-0.29029566049575806,0.1551303267478943,-0.7134059071540833,0.3002600073814392,0.4812982976436615,-0.06178316846489906,0.17525309324264526,-0.02059417963027954,0.09615233540534973,0.2972942888736725,-0.050094977021217346,0.11868565529584885,-0.016261057928204536,-0.11551938951015472,-0.10501840710639954,-0.08448252826929092,-0.09619395434856415,0.014594749547541142,0.01692524179816246,0.2037699967622757,-0.02947983518242836,0.197503924369812,-0.2298867404460907,-0.14526398479938507,-0.06197037920355797,0.3462064862251282,0.15640489757061005,-0.08439520746469498,-0.19316624104976654,-0.03732238709926605,0.172947958111763,-0.5585869550704956,-0.037288010120391846,-0.02440079115331173,-0.6508304476737976,0.5848096013069153,0.4747973084449768,0.017192982137203217,0.021953269839286804,0.16192902624607086,0.00994210783392191,-0.344825804233551,0.0431356281042099,0.2464974969625473,-0.209480881690979,0.1804284155368805,-0.049458421766757965,0.447103351354599,-0.1379074603319168,0.23267903923988342,0.2818591296672821,-0.023587588220834732,-0.028950614854693413,0.1040145605802536,-0.13516975939273834,-0.0740755945444107,-0.12509599328041077,-0.0018406338058412075,0.10871346294879913,0.004527899902313948,0.09672670811414719,-0.16372036933898926,0.049271613359451294,0.004816272761672735,0.0071354638785123825,0.12080354988574982,0.3322693407535553,-0.14344005286693573,-0.03524482622742653,-0.18934030830860138,-0.28928127884864807,-0.21678519248962402,0.08002376556396484,0.15013357996940613,0.1448381394147873,0.12426512688398361,0.038469549268484116,0.06688761711120605,0.17683178186416626,-0.14993329346179962,0.17117132246494293,-0.021362168714404106,0.23265568912029266,-0.10285667330026627,0.21906685829162598,-0.17428730428218842,0.032919373363256454,0.15792207419872284,0.010780539363622665,0.14979690313339233,0.17536786198616028,0.28915318846702576,0.20269088447093964,0.09487311542034149,-0.061066798865795135,-0.19639445841312408,-0.09316384047269821,0.058758459985256195,-0.2600235044956207,0.00999880488961935,0.036996662616729736,0.14634446799755096,0.284219354391098,0.3020266592502594,0.12337388098239899,-0.07950135320425034,-0.1913212686777115,0.10123598575592041,-0.08632273972034454,0.11262676119804382,-0.21407903730869293,-0.30718985199928284,0.1471489667892456,0.24874842166900635,0.026337189599871635,0.12937985360622406,-0.1661279946565628,0.17596398293972015,0.09357761591672897,0.23974303901195526,-0.1263381689786911,-0.3090910315513611,0.07829775661230087,0.248831644654274,0.055714379996061325,0.15599237382411957,-0.1785988062620163,0.2512112855911255,-0.1432052105665207,0.12981899082660675,-0.18445220589637756,-0.18688024580478668,0.09316778928041458,-0.03505782410502434,0.03948172554373741,-0.13940805196762085,-0.2830638885498047,0.10204476118087769,-0.01973799616098404,-0.10682928562164307,-0.024052301421761513,-0.20500436425209045,-0.13683484494686127,0.1371970921754837,0.11106836795806885,0.12281344085931778,-0.14715804159641266,0.030701370909810066,-0.014976839534938335,-0.21690349280834198,-0.08405458182096481,0.17946426570415497,-0.05258156731724739,-0.3369837701320648,-0.06080997362732887,0.16481932997703552,-0.0076185292564332485,0.09005121141672134,0.2431613951921463,0.2724205553531647,0.1941167563199997,0.2234625369310379,0.27074018120765686,-0.29367315769195557,0.01732795685529709,0.2447587549686432,0.2853463888168335,-0.20153644680976868,0.15128445625305176,0.021711314097046852,-0.12806081771850586,0.03376257047057152,-0.00877226609736681,0.07459969818592072,-0.1709458976984024,-0.24547231197357178,0.01726095750927925,-0.05274685099720955,0.17056812345981598,0.020248886197805405,0.27931657433509827,0.12409178167581558,0.03224800527095795,0.028398919850587845,0.04364728555083275,0.15938811004161835,-0.05592487007379532,-0.10288510471582413,-0.021337492391467094,-0.1292830854654312,-0.3267189562320709,-0.09137121587991714,-0.24826984107494354,-0.16698630154132843,0.22279959917068481,-0.007693550083786249,-0.19487248361110687,-0.03162050619721413,0.09337421506643295,0.1218644380569458,-0.049942515790462494,0.0009231989388354123,-0.07039444893598557,0.08249480277299881,0.1946030557155609,0.20675700902938843,0.010952113196253777,-0.028901003301143646,0.0672004446387291,0.2043745070695877,-0.07316514849662781,-0.1525515615940094,0.08571718633174896,-0.07781407982110977,-0.3520987033843994,0.0796077698469162,0.021281367167830467,-0.2698116898536682,0.41148582100868225,0.3476516604423523,-0.2108704149723053,0.2940870523452759,0.29180678725242615,0.10360676050186157,-0.0008987420587800443,-0.08488967269659042,-0.3519738018512726,-0.15121914446353912,0.31867679953575134,-0.022140273824334145,0.16690294444561005,-0.06139953061938286,-0.10586421191692352,0.06952762603759766,0.08762742578983307,0.13989956676959991,0.11508845537900925,-0.1781105399131775,0.0817926749587059,0.07600036263465881,0.023873260244727135,0.1113065779209137,0.22260703146457672,-0.14635345339775085,0.037727054208517075,0.22511135041713715,0.22493410110473633,0.11802683025598526,0.04504622891545296,-0.06720568239688873,0.055458199232816696,0.05246817693114281,0.15217457711696625,-0.20486722886562347,-0.25614163279533386,-0.16348960995674133,0.04881101846694946,-0.03831764683127403,0.24702878296375275,0.05406048893928528,0.08926261216402054,0.08327149599790573,-0.13686852157115936,0.11940588802099228,-0.04905178025364876,-0.06409409642219543,-0.05823221802711487,0.10844451934099197,0.01029103621840477,-0.055351439863443375,-0.10184226930141449,0.10462203621864319,0.03500707447528839,0.039870161563158035,-0.008925364352762699,0.06232552230358124,0.10067188739776611,-0.020646875724196434,-0.3558495342731476,0.14416581392288208,0.07255832105875015,-0.3812410533428192,0.04901479557156563,-0.16033853590488434,0.32298988103866577,0.056021999567747116,-0.300756573677063,0.01089335884898901,0.04873146489262581,-0.21412207186222076,0.025706520304083824,0.061523810029029846,0.23891937732696533,-0.0017363970400765538,-0.05486953258514404,0.14094442129135132,-0.5445403456687927,0.3946005403995514,0.2553381025791168,0.11124937981367111,-0.33586257696151733,-0.08324387669563293,-0.09465619921684265,0.08602593094110489,0.022775733843445778,0.3786243796348572,-0.23584811389446259,-0.19667428731918335,-0.3713892102241516,0.2519327402114868,-0.16968503594398499,-0.3233504891395569,0.2206559032201767,-0.3860914707183838,0.02537531591951847,0.027113383635878563,-0.3622869551181793,0.6059253215789795,-0.5223659873008728,-0.19870740175247192,0.004373771604150534,0.13571816682815552,0.3937430679798126,-0.6342958211898804,0.3486783802509308,0.04546418413519859,-0.10094665735960007,0.23410376906394958,-0.16477112472057343,-0.03514537960290909,0.1599440574645996,-0.03319251909852028,0.09309820085763931,0.1209397166967392,-0.12539038062095642,0.027133120223879814,-0.0503140389919281,0.16324570775032043,0.016703011468052864,0.057197242975234985,-0.16472867131233215,-0.025177564471960068,-0.0765439122915268,0.15353429317474365,-0.124141626060009,-0.06572090834379196,0.21926414966583252,0.04411005228757858,-0.1598169356584549,-0.052337389439344406,-0.11551075428724289,0.09719093888998032,0.17420318722724915,0.15382297337055206,-0.2962127923965454,0.10413660854101181,-0.06284075230360031,0.13242682814598083,-0.007294300477951765,-0.15334099531173706,0.20432570576667786,-0.18335029482841492,-0.02199096977710724,0.06648138910531998,-0.05759109929203987,0.24375095963478088,-0.016884559765458107,0.011104067787528038,-0.19436268508434296,-0.046864137053489685,0.12428239732980728,-0.00897560827434063,-0.0475931242108345,-0.011700661852955818,-0.12835676968097687,0.15628322958946228,0.2657572031021118,0.17023730278015137,-0.01198203768581152,-0.11014195531606674,0.08337990939617157,0.06363284587860107,0.2594277560710907,0.0976116880774498,-0.02656305581331253,0.17457793653011322,0.06662432104349136,0.1889616847038269,-0.06953813135623932,0.06781216710805893,0.06326261162757874,0.0957096517086029,-0.2635692059993744,-0.030793938785791397,-0.23047837615013123,-0.10303638130426407,0.06014910712838173,0.08836130797863007,-0.014610255137085915,0.18511426448822021,-0.17883098125457764,0.1140100434422493,-0.19813686609268188,-0.15144111216068268,-0.22275187075138092,0.22093458473682404,0.1798279881477356,-0.11338909715414047,0.22096970677375793,0.2688385248184204,0.043175406754016876,0.019318366423249245,-0.06645958125591278,0.005700389854609966,0.12824733555316925,-0.02765389159321785,0.11807285249233246,0.18372832238674164,-0.03084024041891098,0.10753884166479111,0.34549325704574585,-0.2189333587884903,-0.20552003383636475,-0.07451099157333374,-0.09083545207977295,0.03702738136053085,0.032917410135269165,0.07247728109359741,-0.04299987480044365,-0.3544940650463104,0.06927551329135895,0.09022259712219238,-0.04601401090621948,-0.2727561593055725,-0.09876670688390732,-0.07502121478319168,-0.03188502416014671,0.16270595788955688,-0.0643690675497055,0.05315571278333664,0.026753829792141914,0.12978863716125488,-0.05342499539256096,0.1297997683286667,0.12703904509544373,0.10652987658977509,-0.1631428599357605,0.1566925197839737,0.21209242939949036,-0.044897135347127914,0.11929063498973846,0.06938929855823517,-0.3037446141242981,-0.02702028863132,-0.09105931967496872,-0.08358702063560486,0.10886477679014206,0.05587611347436905,0.09279622882604599,-0.1321307122707367,0.10123767703771591,-0.09093520790338516,-0.22882555425167084,-0.07364586740732193,-0.08314327150583267,0.15081796050071716,0.0678156167268753,-0.026784032583236694,0.10185466706752777,-0.05774524062871933,-0.09279447793960571,0.09462185949087143,0.03284813463687897,0.2188093215227127,-0.126737579703331,-0.0508590005338192,0.1001148521900177,0.07641830295324326,-0.004643961787223816,0.019381655380129814,0.1851096749305725,0.12420756369829178,-0.024329738691449165,-0.10687191039323807,-0.18719623982906342,0.1716403365135193,-0.23172618448734283,0.007095522712916136,-0.08305761963129044,0.21396151185035706,-0.15571756660938263,0.1763393133878708,0.05577472597360611,0.1521943360567093,0.043137744069099426,0.028924288228154182,-0.17490756511688232,-0.07668793201446533,0.04329494759440422,0.10851850360631943,-0.16350425779819489,0.11519751697778702,-0.04469343647360802,-0.10012929886579514,0.2857045829296112,-0.01915046200156212,-0.1691656857728958,0.20744110643863678,0.029265113174915314,0.04897209629416466,0.02831048145890236,0.04832492396235466,-0.22059758007526398,-0.012506377883255482,-0.08944385498762131,-0.19433078169822693,0.03925332799553871,-0.30667033791542053,0.06344099342823029,-0.14463654160499573,-0.07115740329027176,-0.29724520444869995,0.05049075931310654,-0.030664099380373955,0.03564668446779251,0.06663721799850464,-0.2808869481086731,0.27845698595046997,-0.00579174654558301,-0.33860015869140625,-0.03619636222720146,0.09196128696203232,0.3656840920448303,-0.367049902677536,0.10780670493841171,0.0016682619461789727,-0.05566113069653511,-0.16310948133468628,0.46263086795806885,-0.22093278169631958,0.19562816619873047,-0.12919065356254578,0.22986114025115967,-0.166592076420784,0.4251135289669037,-0.0858125314116478,0.05071929097175598,-0.21885453164577484,0.3003139793872833,0.021640462800860405,-0.1263837367296219,0.18278467655181885,-0.08416090160608292,-0.15822003781795502,0.13832737505435944,0.03236591815948486,0.012015691958367825,-0.42587602138519287,0.04888656362891197,-0.3774677813053131,0.4419499933719635,-0.21150174736976624,-0.28418007493019104,0.32367658615112305,-0.1714245229959488,0.018358461558818817,-0.2343510240316391,0.060729965567588806,-0.15107634663581848,0.15001808106899261,-0.07775970548391342,0.004223791416734457,0.025172045454382896,0.11089940369129181,0.1965063065290451,-0.12462946772575378,0.038661736994981766,-0.117898128926754,0.1322358101606369,-0.17885881662368774,0.04402922838926315,0.27086323499679565,-0.05565670132637024,0.2663905620574951,-0.0035988620948046446,0.43476131558418274,-0.060506608337163925,0.3025960922241211,-0.10071618109941483,0.09031163901090622,-0.2625761032104492,0.05929327756166458,0.11204832047224045,0.2996920049190521,-0.06458724290132523,0.14724527299404144,-0.3754766285419464,0.15389500558376312,0.014384242706000805,-0.244145005941391,0.14566917717456818,0.03729558363556862,0.02760767936706543,0.12027698755264282,-0.20183515548706055,0.24849578738212585,-0.3091680407524109,0.07769429683685303,-0.16750547289848328,0.03570181131362915,0.13732463121414185,-0.2304515838623047,0.28429239988327026,-0.14382417500019073,-0.14535826444625854,0.26862743496894836,0.08095929026603699,-0.1385161429643631,0.03923869505524635,-0.16656829416751862,0.1769975870847702,-0.00894922949373722,-0.1179557591676712,-0.09023212641477585,-0.05128547176718712,-0.05673851817846298,-0.08374962955713272,-0.16403988003730774,0.18576136231422424,0.01853227987885475,-0.06774961203336716,-0.01508369855582714,-0.1712283343076706,0.09481726586818695,0.20325079560279846,0.04059804975986481,-0.21502387523651123,0.05427051708102226,-0.14951132237911224,0.3588869869709015,0.2718510329723358,0.3012673258781433,-0.2164819985628128,0.0545269213616848,-0.24982990324497223,0.19830437004566193,-0.03929970785975456,-0.1955554038286209,0.2137778103351593,-0.2370554655790329,0.019932623952627182,-0.001870025647804141,-0.18794186413288116,0.23003439605236053,-0.25845515727996826,0.03608856350183487,-0.06129947304725647,0.08201310783624649,0.03366618603467941,-0.21406809985637665,0.10847439616918564,0.25994011759757996,0.24284906685352325,-0.12968876957893372,-0.15878750383853912,-0.13405846059322357,-0.22561520338058472,0.15212894976139069,0.0032457264605909586,0.1268511861562729,0.1633482575416565,0.012785658240318298,-0.13164196908473969,-0.005783719476312399,-0.027242587879300117,-0.012705487199127674,-0.1905653029680252,-0.004655430093407631,0.00957106426358223,0.046253059059381485,-0.12739473581314087,0.07421943545341492,-0.4171280264854431,-0.21137897670269012,0.2562613785266876,0.10014914721250534,-0.0061425939202308655,0.000009568232599121984,-0.23150573670864105,-0.02936643548309803,0.02582843229174614,0.10036123543977737,-0.059593282639980316,-0.21855835616588593,0.09453947842121124,0.07191106677055359,0.08973240852355957,0.2437298595905304,0.15669037401676178,-0.002976881805807352,0.12523531913757324,-0.013142789714038372,-0.1417330652475357,0.06000649929046631,-0.009184070862829685,0.0433955155313015,-0.11337973177433014,-0.03963717445731163,-0.09663108736276627,0.050115980207920074,0.17281955480575562,-0.1316305249929428,-0.22545787692070007,0.3515569865703583,0.034599121659994125,0.0640091523528099,-0.24638482928276062,-0.08700190484523773,0.08422103524208069,0.0020735308062285185,-0.03560420870780945,0.17765377461910248,-0.11861609667539597,-0.06367994844913483,-0.17853164672851562,0.051056452095508575,0.05459906905889511,-0.1259385645389557,0.10710873454809189,0.23677293956279755,-0.21221211552619934,0.09015955030918121,0.3081650137901306,0.016103457659482956,0.1569288671016693,-0.09737803041934967,-0.12056547403335571,-0.23386481404304504,0.18530866503715515,-0.1122884452342987,0.10549898445606232,0.03742852061986923,0.037076517939567566,-0.022932440042495728,-0.04084841161966324,0.12860457599163055,-0.21984180808067322,-0.20630234479904175,0.053396761417388916,-0.028673885390162468,-0.0256874468177557,0.11568018049001694,-0.1719040721654892,0.17089489102363586,-0.09726365655660629,0.3063525855541229,0.07929854094982147,-0.17678137123584747,0.09282016009092331,-0.07787321507930756,-0.3828889727592468,-0.08876246958971024,-0.03493020683526993,0.11493207514286041,0.1756095588207245,0.08355669677257538,-0.12848322093486786,0.05842173472046852,0.026758402585983276,-0.08218032866716385,0.0799771174788475,-0.02730371244251728,-0.11363497376441956,-0.10568089038133621,0.02444310113787651,-0.03357865661382675,0.1925651580095291,0.11582942306995392,0.2239094227552414,0.030039485543966293,-0.06979381293058395,-0.10401950031518936,0.07667531818151474,0.24759654700756073,0.1854807287454605,-0.14617253839969635,-0.1751810610294342,0.02801968716084957,0.08443054556846619,0.033480267971754074,0.05179615691304207,0.1424742043018341,-0.06973236054182053,-0.1712893545627594,0.08011801540851593,0.05355392023921013,0.010139684192836285,0.0008821750525385141,0.07915686070919037,0.23294280469417572,0.20851565897464752,-0.03882095590233803,0.06325969845056534,-0.10337217152118683,-0.03748399019241333,0.2514566481113434,-0.027314377948641777,-0.17250476777553558,0.18041343986988068,0.5319891571998596,-1.0287953615188599,-0.3380523920059204,-0.4956152141094208,0.8676247000694275,-0.0997818112373352,-0.42378073930740356,0.36640292406082153,0.0017896899953484535,-0.238345667719841,0.01759893074631691,0.04553848132491112,0.5629999041557312,-0.34582382440567017,-0.12771020829677582,0.12344391644001007,-0.16084903478622437,0.14151042699813843,0.45988383889198303,-0.08252476155757904,0.263392835855484,-0.18484283983707428,-0.04686379432678223,-0.19802282750606537,0.17340649664402008,0.22157368063926697,-0.06445163488388062,-0.05906808376312256,-0.12487666308879852,-0.005704077426344156,-0.23703864216804504,0.12153870612382889,-0.20930014550685883,-0.4676670432090759,0.30764684081077576,0.03494210168719292,-0.4936528205871582,0.4670208692550659,-0.005798461847007275,-0.4860635995864868,0.30667975544929504,-0.11377444863319397,0.2732088267803192,-0.33365458250045776,-0.1621658205986023,-0.02186308056116104,-0.1156592145562172,0.03597070649266243,-0.018521282821893692,0.0422210730612278,0.14890724420547485,0.17289511859416962,-0.23586396872997284,0.01766124926507473,0.10315709561109543,-0.005004843696951866,0.018447674810886383,-0.0063950070179998875,-0.10574603080749512,-0.055027853697538376,-0.10899719595909119,0.15908335149288177,0.04275164753198624,-0.047383759170770645,0.05680441856384277,0.010586363263428211,-0.04286283999681473,0.0573984794318676,-0.15843656659126282,0.01723627932369709,0.15354633331298828,0.07431387156248093,0.12323091179132462,-0.11278286576271057,0.09798943996429443,0.10231148451566696,0.08893552422523499,0.09723301976919174,-0.17773284018039703,0.03037736378610134,0.0011115118395537138,-0.032887186855077744,0.020223984494805336,-0.05794951692223549,-0.005392781458795071,-0.2459738403558731,0.04575679823756218,-0.056541476398706436,0.044127993285655975,0.13308295607566833,0.08750730007886887,0.1325499564409256,-0.10061168670654297,-0.07926750928163528,0.07696586847305298,0.16169263422489166,0.055940672755241394,0.22825731337070465,0.08030451089143753,-0.059136778116226196,-0.12549491226673126,-0.14358267188072205,0.037151746451854706,-0.04527406767010689,-0.2330760508775711,0.012312086299061775,0.1162504255771637,-0.03707510977983475,-0.05265568569302559,0.0020081636030226946,-0.02015758492052555,0.09623660892248154,0.04364870861172676,0.20937411487102509,0.010699921287596226,-0.030354125425219536,0.04155345633625984,-0.05615582689642906,0.12538550794124603,0.10297087579965591,-0.08715704828500748,0.08381687849760056,0.030604755505919456,0.06878400593996048,0.06669547408819199,-0.07893417775630951,0.07556482404470444,-0.12072118371725082,-0.2189921736717224,0.02198130264878273,-0.10217060893774033,0.057190291583538055,0.11256714165210724,-0.21117480099201202,-0.15593980252742767,-0.018377741798758507,-0.22528767585754395,-0.008780761621892452,-0.16435477137565613,-0.07294761389493942,-0.0976145938038826,-0.04546114802360535,-0.12931862473487854,-0.032471198588609695,0.15686216950416565,-0.20692099630832672,0.022440489381551743,0.09301870316267014,0.18199147284030914,0.020238114520907402,-0.08041160553693771,0.06756209582090378,0.020766692236065865,0.08528977632522583,-0.008348441682755947,0.1272604614496231,-0.01416336465626955,-0.1951892375946045,0.1180017814040184,0.11133226007223129,0.18607065081596375,-0.12888434529304504,0.05802053585648537,-0.042088400572538376,0.039431143552064896,-0.20371197164058685,-0.18724219501018524,-0.14857175946235657,-0.07763758301734924,0.19965790212154388,-0.04490119591355324,-0.0017655196134001017,0.01959831267595291,0.09014254063367844,0.007094161584973335,0.05093824118375778,0.23267590999603271,0.0025941464118659496,0.14441043138504028,-0.03310007601976395,-0.07770814001560211,-0.032459575682878494,-0.16888916492462158,-0.09117210656404495,-0.09032797813415527,-0.0005126366741023958,-0.09976988285779953,-0.05938028171658516,-0.15999720990657806,0.21266740560531616,-0.24944572150707245,0.04032604768872261,0.07288196682929993,0.029175395146012306,0.09398414194583893,-0.0065767294727265835,-0.003193875774741173,0.04738115891814232,0.12038971483707428,-0.197124645113945,-0.005056135822087526,-0.043740130960941315,-0.02080027014017105,0.001415060251019895,-0.20770399272441864,0.11600211262702942,-0.10641997307538986,-0.09044039994478226,-0.3963562846183777,0.11967974156141281,-0.22509759664535522,0.07106244564056396,-0.24935951828956604,-0.04385143890976906,-0.2646186649799347,-0.0776820182800293,-0.01989717409014702,0.28467950224876404,-0.08140066266059875,0.19299234449863434,-0.243315190076828,-0.13380150496959686,0.14685672521591187,-0.12870244681835175,-0.06701494008302689,-0.13110756874084473,-0.11286410689353943,0.23620258271694183,0.04834175482392311,-0.17141608893871307,0.019426163285970688,0.015019468031823635,-0.011599426157772541,0.026879211887717247,0.4093133509159088,0.22200514376163483,-0.005764568690210581,0.02885737456381321,-0.05640336498618126,0.061803609132766724,-0.08937805891036987,0.054156724363565445,0.09804632514715195,0.005962709430605173,0.025698821991682053,-0.01747719943523407,0.07674071192741394,0.056828055530786514,0.04711500555276871,0.00271037919446826,0.05899373069405556,0.019550122320652008,-0.468039870262146,0.11754202842712402,0.3387027978897095,-0.5245320200920105,0.061644844710826874,-0.7400051951408386,-0.3242597281932831,-0.4707968533039093,1.033132553100586,-0.7850024104118347,-0.6548389196395874,-1.16951322555542,0.2037583291530609,-0.6965191960334778,0.2360219955444336,-0.5375287532806396,-0.2513181269168854,0.2142975777387619,-0.1921883523464203,0.03237421065568924,0.07818181812763214,-0.035150934010744095,-0.054831698536872864,-0.013261241838335991,-0.22886189818382263,-0.03108050301671028,0.06283103674650192,0.25771453976631165,0.0031134586315602064,-0.02009062096476555,-0.22599001228809357,0.06315211951732635,0.43190547823905945,-0.2438412606716156,0.11320573091506958,-0.1807420253753662,-0.1263922154903412,0.33681967854499817,0.1435357630252838,-0.1852979212999344,0.28318220376968384,-0.34912198781967163,0.06677860766649246,0.21500998735427856,-0.12756779789924622,-0.21997274458408356,0.25603508949279785,-0.018019158393144608,-0.18857958912849426,-0.0681268721818924,-0.16390873491764069,0.0659567341208458,0.019527876749634743,0.09362644702196121,0.14625215530395508,-0.07817095518112183,0.06236526742577553,0.0004809027013834566,-0.341310054063797,-0.36913537979125977,0.01975344493985176,-0.17965684831142426,0.13323289155960083,-0.08378413319587708,0.1998032182455063,0.18228177726268768,-0.18726062774658203,-0.01472735870629549,-0.16147032380104065,-0.12245314568281174,-0.038520894944667816,0.17911189794540405,-0.2884959578514099,0.18180091679096222,0.060289472341537476,0.4670332968235016,0.12943890690803528,0.21443434059619904,-0.06148124113678932,-0.06733693182468414,0.30904287099838257,-0.045770324766635895,-0.10711797326803207,-0.11001335829496384,0.30179232358932495,-0.21242506802082062,-0.05538494884967804,0.31242161989212036,0.24667498469352722,-0.055672142654657364,-0.05015892907977104,0.241602823138237,-0.1696852445602417,-0.20860156416893005,-0.10789486765861511,-0.15537577867507935,-0.44243770837783813,-0.13475462794303894,-0.29058825969696045,-0.08716640621423721,0.04282331094145775,-0.22357968986034393,-0.1567876785993576,-0.2684442698955536,0.2853447496891022,0.2547415494918823,0.04935796186327934,-0.24882425367832184,-0.1016346737742424,-0.07509486377239227,0.012887457385659218,-0.06473180651664734,0.10189398378133774,-0.34727469086647034,0.02127682790160179,-0.17400264739990234,-0.11706239730119705,0.6349261403083801,-0.6359785795211792,-0.261661559343338,0.2807084321975708,0.08214940130710602,-0.11546710133552551,0.06948218494653702,0.09077347815036774,0.19704505801200867,-0.1265583634376526,0.34129223227500916,0.005018056835979223,-0.019532252103090286,0.24131004512310028,-0.024490198120474815,0.14463849365711212,-0.2272597998380661,0.07877828925848007,-0.016863996163010597,-0.010103671811521053,0.2920210063457489,-0.10057821124792099,0.014658373780548573,-0.1794116497039795,0.1403052657842636,0.2292279601097107,0.010210493579506874,-0.11699000746011734,0.10021667927503586,-0.08186176419258118,-0.07285133004188538,-0.26170551776885986,-0.06842699646949768,0.053399957716464996,-0.14738762378692627,0.07695169001817703,0.023242011666297913,0.1693761795759201,0.003798109944909811,-0.07478740811347961,0.18738232553005219,-0.149552121758461,0.10778432339429855,-0.13200339674949646,-0.08214922249317169,0.35509705543518066,0.14166393876075745,0.08811981976032257,-0.3429153561592102,0.06152541562914848,0.03083999827504158,0.04635109007358551,0.05911043658852577,0.216493159532547,0.18325796723365784,0.26426634192466736,0.28464561700820923,0.04600188136100769,-0.15297336876392365,0.2397814840078354,-0.05474016070365906,0.054768066853284836,0.2733934819698334,0.21132779121398926,-0.1879839450120926,0.08033718913793564,0.05269068107008934,0.12606678903102875,0.16606931388378143,-0.35233360528945923,0.0856454148888588,0.06394487619400024,-0.008616885170340538,0.09694818407297134,-0.033457573503255844,0.16853991150856018,0.30497509241104126,-0.2724614441394806,-0.0007093835156410933,-0.10516028851270676,-0.07375246286392212,0.1801440417766571,0.3023316562175751,-0.3814767599105835,0.12066853791475296,0.2985458970069885,0.06519903242588043,-0.17268586158752441,-0.08623071759939194,0.0695807933807373,-0.10383941978216171,-0.0005299547920003533,-0.07303805649280548,-0.3215978443622589,0.17953047156333923,0.018198847770690918,-0.08691735565662384,-0.10783480852842331,0.27031993865966797,-0.3104107975959778,-0.2357228845357895,-0.3665207028388977,-0.22947226464748383,0.14489364624023438,-0.19821837544441223,-0.01724356785416603,-0.04773496091365814,0.0490708202123642,-0.08355186879634857,-0.04480644688010216,0.17989851534366608,-0.02635720558464527,0.22338084876537323,0.05369763448834419,-0.1615295708179474,0.27497240900993347,0.181056946516037,0.006410238333046436,0.07544118911027908,0.3608641028404236,-0.14714457094669342,-0.02561638504266739,-0.36713799834251404,0.10208677500486374,0.10204437375068665,0.0343811921775341,0.07958302646875381,-0.1746240109205246,-0.12229494750499725,0.08067018538713455,0.015544273890554905,-0.05920290946960449,0.09031017124652863,-0.08117156475782394,0.17601697146892548,0.03371695056557655,0.1886356621980667,0.12131089717149734,0.19582852721214294,0.12050358206033707,-0.2550547122955322,-0.14497557282447815,0.14191201329231262,-0.2580490708351135,0.24943602085113525,-0.0762816071510315,0.09512234479188919,0.09555888175964355,-0.09828948974609375,0.3333892822265625,0.13604550063610077,0.05712131783366203,0.3589648902416229,-0.2605421245098114,-0.008341184817254543,-0.02200075052678585,0.001984456554055214,0.001722677145153284,-0.014426262117922306,-0.08047255128622055,-0.058592382818460464,0.04198547452688217,0.07263051718473434,0.056665293872356415,0.08487999439239502,0.04456312581896782,-0.09325677901506424,0.0668194442987442,-0.07671729475259781,-0.07798983156681061,0.002445920603349805,-0.0036677755415439606,-0.05105534940958023,0.05905122682452202,0.16012871265411377,-0.400034099817276,0.02610098011791706,0.10473709553480148,0.13270539045333862,-0.0008827330311760306,0.14862486720085144,-0.3276657462120056,-0.10958115756511688,0.07746082544326782,-0.1427326798439026,-0.0009960776660591364,0.05353553220629692,0.3271540105342865,0.021367991343140602,-0.1298610121011734,-0.42587366700172424,-0.3434433043003082,-0.18442465364933014,0.11719507724046707,-0.0017874856712296605,0.023366251960396767,0.1403992921113968,0.04796569049358368,-0.030924776569008827,0.08532128483057022,0.13032811880111694,-0.07446388900279999,0.21480070054531097,-0.03805513679981232,-0.015513268299400806,-0.12259085476398468,0.014667455106973648,-0.004747690167278051,-0.010076631791889668,-0.13805821537971497,-0.1613689512014389,-0.4352918267250061,0.20542432367801666,0.11976854503154755,0.1362566202878952,-0.17139215767383575,0.19605302810668945,-0.27895382046699524,0.06220556050539017,-0.3077995777130127,-0.21315614879131317,0.17785434424877167,-0.06748571991920471,-0.1500927060842514,0.17989882826805115,0.5934247374534607,0.1823575794696808,0.04955321550369263,-0.375013142824173,-0.07417334616184235,-0.0708293542265892,0.0602593757212162,-0.1016993373632431,-0.026148781180381775,0.5201850533485413,-0.056850749999284744,-0.14251463115215302,0.37720364332199097,-0.12458913028240204,0.30500224232673645,0.01574847474694252,0.050908900797367096,-0.04166458174586296,-0.0362701453268528,-0.07206740975379944,-0.21328400075435638,0.22756583988666534,0.21281538903713226,0.07657240331172943,0.6158849000930786,0.04294309392571449,0.02692958153784275,-0.6741988658905029,0.047227583825588226,-0.09125134348869324,-0.11309226602315903,0.053929366171360016,-0.05537828803062439,0.44987428188323975,0.11973560601472855,-0.23868970572948456,0.020222747698426247,0.13050395250320435,-0.058754537254571915,0.006535133346915245,0.18207953870296478,0.16917820274829865,0.22825711965560913,-0.1623004972934723,-0.08721529692411423,-0.14403381943702698,-0.3843039274215698,-0.09998878091573715,0.4471786916255951,0.29164671897888184,0.20369277894496918,0.006977143697440624,-0.2292083501815796,0.10222459584474564,-0.08378160744905472,-0.28952938318252563,0.1295737773180008,0.01520353090018034,0.5558714270591736,0.043573275208473206,-0.2159603387117386,0.08290877193212509,-0.23841822147369385,-0.447639524936676,0.14982540905475616,0.08054093271493912,0.1982349157333374,0.0908450111746788,0.08226408064365387,-0.2628421187400818,0.18089093267917633,-0.03521650284528732,-0.05482681468129158,0.1774216592311859,0.12984363734722137,0.21482625603675842,-0.29039430618286133,-0.01175028458237648,0.17835859954357147,-0.2958265542984009,-0.012088838033378124,0.03146595507860184,0.01426068414002657,0.2222280651330948,0.3631719648838043,-0.15225152671337128,0.14226844906806946,0.1568639874458313,-0.45830264687538147,0.28273311257362366,0.17312464118003845,-0.095850870013237,0.07361721247434616,-0.2356395274400711,0.03402642160654068,-0.07481122761964798,0.12376841902732849,0.4007672667503357,0.15693968534469604,0.2653030753135681,-0.25070813298225403,-0.0794340968132019,-0.008350199088454247,-0.4005659222602844,-0.09145526587963104,-0.10448573529720306,0.3809155523777008,0.02000935934484005,-0.07848913222551346,1.019826054573059,-0.40292486548423767,-0.15279550850391388,0.09511660039424896,0.029893435537815094,0.05207843706011772,0.10640904307365417,0.13384711742401123,-0.12165319919586182,-0.011010989546775818,-0.13627129793167114,0.045829351991415024,0.008573134429752827,0.026401719078421593,0.20092438161373138,-0.45568138360977173,0.03391916677355766,0.16178138554096222,-0.3342985510826111,-0.045222967863082886,0.08694697916507721,0.2704505920410156,0.23546330630779266,0.19301383197307587,-0.13702243566513062,0.26680228114128113,-0.013894491828978062,0.09809600561857224,0.3935619294643402,0.018444038927555084,-0.2227257341146469,-0.0711224153637886,-0.26143142580986023,0.12534111738204956,-0.09555117040872574,-0.24788755178451538,-0.043850257992744446,-0.1623580902814865,-0.09218890964984894,0.09061014652252197,0.04499634727835655,-0.03338049352169037,0.054554060101509094,0.003153106663376093,-0.12298711389303207,-0.07833850383758545,-0.20178794860839844,-0.23551341891288757,-0.013225014321506023,0.2563515901565552,0.10089179128408432,-0.025637412443757057,0.06826644390821457,-0.11030363291501999,-0.28170812129974365,-0.02504831552505493,0.11213722079992294,0.13926614820957184,0.1250317394733429,-0.309989333152771,-0.17214666306972504,0.01123766228556633,0.1843661218881607,0.10931112617254257,-0.0688522532582283,0.072125144302845,0.05373232439160347,0.06439486891031265,-0.260813444852829,-0.1808292716741562,-0.0013958108611404896,-0.21439555287361145,-0.2243683934211731,0.3926416039466858,0.022205352783203125,-0.10650856792926788,0.09351207315921783,-0.9810867309570312,-0.7102736830711365,-0.24600422382354736,0.8061109185218811,0.13595883548259735,-0.40988799929618835,-0.24993248283863068,-0.02142488770186901,0.20927760004997253,-0.034020401537418365,-0.22002345323562622,-0.006981308106333017,0.2864118814468384,0.04074469581246376,-0.05906917154788971,-0.6273045539855957,-0.15388426184654236,0.13367770612239838,-0.7206466794013977,0.21780556440353394,-0.7270016074180603,-0.2983608543872833,-0.007742098066955805,0.261701762676239,-0.03813272714614868,-0.0882720798254013,-0.027155373245477676,-0.5258939266204834,-0.010756208561360836,0.21490006148815155,0.32940948009490967,0.09719347208738327,0.27069059014320374,0.32833725214004517,0.051110804080963135,-0.028258047997951508,0.6813881397247314,-0.057450223714113235,-0.21670912206172943,-0.38271820545196533,0.29531195759773254,0.05873161181807518,0.061928942799568176,-0.06603299826383591,-0.06187310814857483,0.07006726413965225,-0.061995528638362885,-0.2721877098083496,-0.1542368233203888,0.48944371938705444,-0.08186250180006027,-0.18385517597198486,0.02577977441251278,-0.17689518630504608,0.2464742809534073,-0.16725566983222961,-0.050495050847530365,0.050545595586299896,0.2417798936367035,-0.04132614657282829,0.03418293967843056,-0.0984724685549736,0.008790651336312294,-0.11937803775072098,0.368565171957016,0.003526010550558567,0.039568256586790085,0.5219100117683411,-0.29866594076156616,0.1488618552684784,0.16580231487751007,-0.11949632316827774,-0.08627067506313324,0.00035132994526065886,0.1039089635014534,0.07386651635169983,0.4134405851364136,-0.0975271686911583,-0.05489255115389824,0.2599525451660156,-0.23498965799808502,-0.059686001390218735,-0.37172913551330566,-0.10197027772665024,-0.07804925739765167,-0.6555474996566772,0.18705891072750092,0.07786692678928375,0.09823343902826309,-0.5116363763809204,0.07179554551839828,0.04260147362947464,-0.018701884895563126,0.22428369522094727,-0.12241413444280624,-0.061644453555345535,0.33066800236701965,0.29551824927330017,-0.22508110105991364,0.08896183222532272,-0.09727354347705841,0.05638117715716362,-0.19256407022476196,-0.2170407772064209,0.05709875747561455,-0.0874863713979721,0.0039487374015152454,0.05345318466424942,-0.34323135018348694,0.31945642828941345,-0.055803924798965454,0.016706878319382668,0.12461786717176437,-0.1574663519859314,-0.08077426999807358,-0.7851932048797607,0.07486557960510254,-0.2930735647678375,0.3847525119781494,0.1163894310593605,0.2137341946363449,-0.14523020386695862,-0.17397065460681915,-0.34465348720550537,0.5324112176895142,-0.02608462981879711,0.09909005463123322,-0.021140553057193756,-0.05026449263095856,0.16033689677715302,-0.2168426662683487,-0.1322430521249771,-0.0478341169655323,-0.1862735003232956,0.09790472686290741,-0.10560455918312073,-0.23236310482025146,0.04079854488372803,0.08127189427614212,0.006436152849346399,0.0169870313256979,0.0358465351164341,-0.6335219144821167,0.18629246950149536,0.034354910254478455,-0.16912409663200378,0.10494078695774078,0.5126850008964539,-0.9680825471878052,-0.08650133013725281,0.05884259194135666,0.4488326907157898,-0.06506672501564026,0.04967750608921051,0.24910418689250946,0.1425553262233734,0.031238149851560593,0.05170402675867081,-0.04841599985957146,-0.09636348485946655,-0.1634499579668045,0.09804628044366837,0.15563108026981354,-0.8982649445533752,-0.6076563000679016,-0.031044846400618553,-0.13277621567249298,-0.039316821843385696,0.015395144931972027,-0.08397915214300156,0.2253253161907196,-0.061498627066612244,0.07547782361507416,0.1310272514820099,0.44238218665122986,0.26749151945114136,-0.05175657197833061,-0.14430227875709534,0.3639353811740875,0.058481309562921524,-0.09290201216936111,0.4417153298854828,0.06759868562221527,0.3314706087112427,-0.893556535243988,0.3674619495868683,0.37069517374038696,0.30176329612731934,-0.153955340385437,-0.061210181564092636,-0.20097613334655762,-0.5429771542549133,-0.2017696499824524,-0.2453390657901764,-0.10149871557950974,0.09291866421699524,0.5305696725845337,-0.0332600474357605,0.0075015597976744175,-0.07404623180627823,-0.13967978954315186,-0.2871832549571991,0.10808777809143066,-0.1154811829328537,-0.15926717221736908,0.1891530603170395,-0.0070143514312803745,0.014914634637534618,-0.27621209621429443,-0.014759046956896782,0.015341410413384438,0.11977453529834747,0.13684049248695374,0.23567639291286469,-0.28011858463287354,-0.09118983894586563,-0.16941434144973755,-0.15758387744426727,0.07935763895511627,0.15008318424224854,-0.32426679134368896,0.007064491044729948,0.15502993762493134,-0.3436182737350464,0.005934480112046003,-0.2885283827781677,0.3749966323375702,-0.1642233282327652,-0.02113923989236355,0.36096519231796265,-0.1125536635518074,-0.3543909788131714,0.022317111492156982,-0.5058029890060425,-0.14511297643184662,-0.10108044743537903,-0.03318857401609421,0.05648393556475639,0.2386404275894165,-0.263349711894989,0.10124420374631882,-0.030666030943393707,-0.19903075695037842,0.04228794574737549,-0.030597683042287827,-0.0939769521355629,-0.03403887525200844,0.03259287029504776,0.4281449317932129,0.10234624147415161,0.1473759561777115,0.03159836679697037,0.15394346415996552,-0.06304612755775452,-0.08292148262262344,-0.044099725782871246,-0.054906681180000305,0.005712376907467842,-0.02315736748278141,-0.05120782181620598,-0.5539024472236633,0.15040190517902374,-0.006032636854797602,-0.2409232258796692,-0.08717463910579681,0.056821998208761215,0.1372525542974472,0.05681119114160538,-0.039696622639894485,-0.21748416125774384,-0.044245049357414246,-0.10332760959863663,-0.06584963202476501,0.1434648334980011,0.0036599140148609877,0.26054200530052185,-0.0724867731332779,0.24233666062355042,0.35919055342674255,0.03906945511698723,-0.3386920988559723,0.15702153742313385,0.0187788438051939,0.24266082048416138,0.00809624046087265,0.1404391974210739,-0.16584321856498718,-0.12591756880283356,0.05776260420680046,0.03703802451491356,0.21518981456756592,-0.07755845785140991,0.22330182790756226,0.058452703058719635,0.2300882786512375,-0.005472173914313316,-0.02922096848487854,-0.30327504873275757,0.08939157426357269,0.11090797185897827,-0.04034604877233505,-0.0605011023581028,0.01965784840285778,0.008679361082613468,-0.19959357380867004,0.08756821602582932,-0.10325054079294205,0.565889298915863,0.08065321296453476,0.20818385481834412,-0.2812107801437378,-0.21143437922000885,-0.21906082332134247,0.16577665507793427,-0.006324472837150097,-0.06025693193078041,-0.20009635388851166,-0.1957511454820633,0.07196125388145447,-0.22804418206214905,0.043288785964250565,-0.03601010888814926,0.04393015801906586,0.061848655343055725,0.04183872044086456,-0.01750720851123333,0.1790548712015152,-0.07632666081190109,0.10015992075204849,0.19926531612873077,-0.08768033236265182,-0.19888074696063995,0.14609599113464355,-0.005918649956583977,0.31882423162460327,-0.3644193708896637,0.363476425409317,-0.2108534276485443,0.37094244360923767,0.058324310928583145,-0.031631093472242355,0.04749276116490364,0.05631279572844505,-0.021995317190885544,-0.2665548026561737,0.193330317735672,-0.022719522938132286,0.016986578702926636,-0.05759047344326973,0.05291333049535751,0.2155817151069641,-0.03203599900007248,0.1802791953086853,-0.012139052152633667,-0.01569741778075695,0.016534162685275078,-0.08800378441810608,-0.14151714742183685,0.018518047407269478,0.03926617652177811,0.22768811881542206,-0.21276281774044037,0.026159588247537613,-0.18985506892204285,0.1596911996603012,0.031876109540462494,0.33282479643821716,0.36479949951171875,-0.2092360407114029,0.03127772733569145,-0.25872093439102173,0.09030517190694809,-0.02456405572593212,-0.18364916741847992,-0.10019232332706451,0.23862908780574799,0.057302117347717285,0.14045843482017517,0.23060381412506104,-0.08551374077796936,-0.12752489745616913,0.3848201036453247,-0.12210795283317566,0.19004693627357483,0.16894741356372833,-0.23305492103099823,-0.2905285060405731,-0.06567846983671188,-0.20986442267894745,0.008820061571896076,0.08336587995290756,-0.1643541008234024,-0.13855302333831787,-0.09081650525331497,-0.025932660326361656,0.02729610539972782,-0.11989003419876099,0.15954294800758362,0.16432373225688934,-0.245961993932724,-0.20282411575317383,-0.053463175892829895,0.17836880683898926,0.05069402605295181,0.07391276210546494,0.08966951072216034,0.06432560831308365,-0.0005326361279003322,-0.04682864621281624,-0.04821495711803436,-0.06280101835727692,-0.03768762946128845,-0.04442492499947548,-0.013370075263082981,-0.24962814152240753,-0.16994407773017883,-0.2158193737268448,0.09027338027954102,0.16900941729545593,-0.06150937080383301,0.023011762648820877,0.002631846582517028,0.10321294516324997,0.18453586101531982,-0.15733681619167328,-0.4337129592895508,0.25521597266197205,-0.0024091966915875673,0.004639281425625086,0.2048535794019699,0.06207495555281639,-0.03523700311779976,-0.15104717016220093,0.40262269973754883,0.4141184389591217,0.05444332957267761,-0.1280728578567505,0.10200158506631851,0.011775363236665726,-0.035765908658504486,-0.10749749094247818,0.0033035525120794773,-0.09418357908725739,0.07954031229019165,0.035915058106184006,-0.10140952467918396,-0.13083627820014954,-0.010956902988255024,0.0061379349790513515,-0.1749010980129242,0.05994196608662605,-0.21070225536823273,-0.40119561553001404,0.07214675843715668,-0.20156367123126984,-0.08340105414390564,0.010136507451534271,-0.08193987607955933,0.06853437423706055,0.19254443049430847,-0.00908429455012083,0.04076278582215309,0.022101374343037605,-0.1534431427717209,0.005160653963685036,-0.021602312102913857,0.14473295211791992,-0.003440991509705782,-0.10530108958482742,0.10377171635627747,-0.06553906947374344,0.07235564291477203,-0.21232390403747559,0.30157551169395447,-0.2123057097196579,-0.2574152648448944,-0.14384675025939941,0.18205206096172333,0.10512908548116684,0.23211447894573212,0.04243754222989082,0.4267794191837311,-0.004515294451266527,0.3980863690376282,-1.0258514881134033,0.2632059156894684,-0.32803717255592346,-0.021254537627100945,-0.1312599778175354,-0.2349122315645218,0.520689845085144,-0.03618113696575165,0.15753273665905,0.2657613456249237,0.16000834107398987,0.11989137530326843,-0.3522188663482666,0.10482530295848846,-0.042039453983306885,-0.6421858072280884,-0.4422527551651001,0.1513378769159317,0.09572335332632065,0.11405304074287415,-0.05135871097445488,-0.0743718221783638,0.0033644430804997683,-0.10235085338354111,0.18111635744571686,-0.07437733560800552,0.037576690316200256,0.08951528370380402,0.008696033619344234,-0.2167685627937317,0.3779285252094269,-0.03593527153134346,-0.15120700001716614,0.03173813968896866,-0.19494904577732086,0.20658357441425323,-0.5401108860969543,0.15963613986968994,0.05095259100198746,0.4228239059448242,-0.17937153577804565,-0.1448497325181961,-0.2140558958053589,-0.2980934679508209,0.1701980084180832,-0.038649965077638626,-0.00632247980684042,-0.03219418600201607,0.026254450902342796,0.07038548588752747,-0.0032761129550635815,-0.0041489615105092525,0.07633894681930542,0.0032682830933481455,0.030011823400855064,-0.0033480171114206314,-0.022891780361533165,0.020349210128188133,-0.004270547069609165,0.04403562471270561,-0.16670629382133484,-0.38458019495010376,0.803040623664856,0.26862311363220215,-0.45973068475723267,0.08394496142864227,-0.12210479378700256,0.04940842464566231,0.37085720896720886,-0.7150137424468994,0.7095909714698792,0.6017504930496216,0.1044306606054306,-0.2863140106201172,0.04415871575474739,-0.6167608499526978,-0.014138953760266304,0.08284235000610352,0.14820553362369537,-0.020522097125649452,0.46318912506103516,0.09257976710796356,-0.10405905544757843,0.3038780987262726,0.1482025384902954,-0.1927889883518219,0.3698590397834778,0.3998540937900543,-0.7789326906204224,0.38994964957237244,0.3268985152244568,-0.15315422415733337,-0.005739730317145586,0.2358158975839615,0.0669306144118309,-0.09563158452510834,0.2545633018016815,0.18989843130111694,0.10056781023740768,-0.282598614692688,0.048160843551158905,0.06171732768416405,-0.101407490670681,-0.2166668027639389,-0.0743829756975174,0.1143428385257721,-0.1473250687122345,-0.10659722238779068,-0.011046547442674637,-0.15570709109306335,0.16609536111354828,-0.31263864040374756,-0.03550232946872711,-0.06940656155347824,0.016031285747885704,-0.2897287607192993,-0.10987967252731323,0.22206038236618042,-0.08235739916563034,0.2357179820537567,0.19785450398921967,-0.16738773882389069,0.17819035053253174,0.21679425239562988,0.010869943536818027,-0.13499212265014648,0.21532347798347473,0.006074177101254463,-0.4185657203197479,-0.020269157364964485,-0.23279772698879242,0.10030075162649155,0.16468335688114166,-0.009525558911263943,0.20037400722503662,0.5282994508743286,-0.2964634299278259,0.16928274929523468,-0.44145169854164124,0.008588525466620922,0.05746516212821007,-0.14235855638980865,0.3087277412414551,-0.024644121527671814,0.07287552952766418,-0.12774188816547394,-0.06137344613671303,0.12015785276889801,0.21961773931980133,-0.1513248085975647,-0.023128531873226166,0.1975874900817871,-0.21492770314216614,-0.15042786300182343,-0.07426690310239792,-0.23794500529766083,-0.029762888327240944,-0.12110462039709091,0.1045563593506813,0.13113310933113098,0.11096055805683136,-0.09529922157526016,-0.0555134117603302,0.29918181896209717,-0.0016610876191407442,-0.21752408146858215,0.30567046999931335,0.20949900150299072,-0.07275769859552383,0.5797907710075378,0.3818347752094269,-0.08705181628465652,0.22581039369106293,-0.16639411449432373,0.03545195981860161,0.19936804473400116,-0.06597243249416351,-0.23550960421562195,0.33512407541275024,-0.26586097478866577,-0.009398400783538818,0.17696110904216766,0.9659997820854187,-0.114143006503582,0.2056128978729248,0.08023066818714142,0.2874278724193573,-0.14218582212924957,0.2066950649023056,0.17148925364017487,-0.14868107438087463,-0.05040362477302551,0.44014012813568115,-0.09175867587327957,0.20730483531951904,-0.08644285798072815,-0.13579300045967102,-0.02973797358572483,0.06537153571844101,0.19353365898132324,0.07325991243124008,-0.023862184956669807,0.15246611833572388,0.1152098998427391,-0.0032897640485316515,0.13754136860370636,0.11176564544439316,0.12740744650363922,0.12969544529914856,0.006005701143294573,-0.1687336564064026,0.15468595921993256,0.06395044922828674,0.020260419696569443,0.233462393283844,0.3131100833415985,-0.2985774576663971,0.16466893255710602,-0.00330912577919662,-0.03269090875983238,0.11413265764713287,-0.321257084608078,-0.2595359683036804,0.027904482558369637,-0.1121218204498291,-0.05649441108107567,0.20565669238567352,-0.17941096425056458,-0.30636945366859436,0.06880664080381393,0.027675330638885498,-0.23046863079071045,0.24849726259708405,0.09940135478973389,0.029956238344311714,0.16492486000061035,0.012838783673942089,-0.2624279856681824,-0.10166508704423904,-0.31598955392837524,0.0786079540848732,-0.14688090980052948,0.22231578826904297,-0.21623782813549042,-0.15468516945838928,0.12893134355545044,-0.15203320980072021,0.04773937910795212,0.1384677141904831,-0.21986080706119537,0.08353529125452042,0.3636617064476013,0.1528983861207962,-0.016500333324074745,-0.22297927737236023,0.013947774656116962,-0.06483522057533264,-0.013974771834909916,0.06179938465356827,0.08120089769363403,-0.08719820529222488,-0.08032591640949249,-0.1945699155330658,-0.06500179320573807,0.04901517555117607,-0.2209489643573761,-0.18905016779899597,-0.01135769858956337,-0.3764003813266754,-0.03603710979223251,0.2843260169029236,-0.08380783349275589,-0.13258853554725647,0.1423870027065277,-0.2556247115135193,-0.03264831006526947,0.15058155357837677,-0.01077813096344471,-0.3181426227092743,0.040698181837797165,0.14036157727241516,0.06106434762477875,0.20950059592723846,0.054147765040397644,-0.23620261251926422,0.18309707939624786,-0.19401633739471436,-0.15984247624874115,0.2811676263809204,-0.011207398027181625,0.2543689012527466,-0.0441008098423481,-0.12384255975484848,0.03660641983151436,0.058350998908281326,-0.37030380964279175,0.1219630166888237,0.0958615317940712,-0.21656465530395508,0.24870122969150543,0.018382158130407333,0.13867074251174927,0.19261670112609863,-0.01743222214281559,-0.22358833253383636,-0.025089113041758537,0.031025270000100136,-0.12387972325086594,0.107905812561512,0.3542506992816925,0.07235458493232727,0.23588983714580536,0.1547774374485016,0.20032621920108795,-0.0009231629665009677,0.07872658222913742,-0.13177385926246643,-0.13102121651172638,0.025638943538069725,-0.2746589481830597,-0.22088249027729034,-0.03187854215502739,0.07406723499298096,-0.296122282743454,-0.0014279837487265468,0.2684987485408783,0.170060396194458,0.2590819299221039,-0.05289800092577934,-0.09262669086456299,-0.15941229462623596,0.2920752763748169,0.03798317536711693,0.03543815016746521,0.011823311448097229,0.05897457152605057,-0.030170753598213196,0.023681212216615677,0.04097309336066246,-0.003689175471663475,-0.10633061081171036,-0.09554386138916016,0.006446043029427528,0.09757069498300552,0.10143770277500153,0.18320754170417786,0.05545610934495926,-0.004261000547558069,0.4180451035499573,-0.391471266746521,0.24429170787334442,0.004951602779328823,0.2048969864845276,-0.10562783479690552,0.005284793674945831,-0.20150674879550934,0.10284870862960815,0.0035528200678527355,-0.16020803153514862,0.36807581782341003,0.06845696270465851,-0.13869071006774902,-0.11281421035528183,0.07276176661252975,-0.3261961042881012,-0.09634540230035782,0.24442414939403534,0.23745429515838623,0.23796696960926056,-0.1612960398197174,0.10994843393564224,-0.026787791401147842,0.06360267847776413,-0.24582724273204803,-0.12175990641117096,0.02564706839621067,0.22769463062286377,0.03887857124209404,0.04128172621130943,-0.30474063754081726,0.10533568263053894,0.11312836408615112,0.07632630318403244,-0.019870946183800697,0.0004368644149508327,-0.3482416570186615,-0.13701844215393066,-0.11054882407188416,-0.10764957219362259,-0.08418629318475723,-0.06845462322235107,-0.36768871545791626,-0.35080891847610474,0.10369411110877991,-0.3019619286060333,0.13593241572380066,-0.3170221447944641,0.1482650488615036,0.06733180582523346,0.26991006731987,-0.14258161187171936,0.16608276963233948,-0.12147260457277298,-0.023859096691012383,0.1214742362499237,0.19254876673221588,-0.003933918662369251,0.2373373955488205,0.022330164909362793,0.0005048735765740275,0.13813944160938263,-0.5051753520965576,0.05949771776795387,0.004035686142742634,0.12061595916748047,0.2338348776102066,0.018156640231609344,-0.47890520095825195,-0.21075108647346497,-0.25754860043525696,0.21714578568935394,-0.04703691601753235,-0.0920662209391594,-0.6275940537452698,0.24734412133693695,-0.10277476906776428,-0.356436550617218,0.15025441348552704,0.04130430519580841,0.5334789752960205,-0.18029579520225525,-0.06063319742679596,0.018051862716674805,0.29519930481910706,-0.25761792063713074,0.215103879570961,0.0025302062276750803,-0.015305552631616592,-0.14268608391284943,0.07883165031671524,-0.14243008196353912,0.14098693430423737,-0.11958757042884827,-0.0017797141335904598,0.1381245106458664,-0.5813251733779907,-0.036916278302669525,-0.1548362672328949,-0.11708787083625793,-0.01402350328862667,0.04257824271917343,-0.3194720149040222,0.1441756933927536,-0.0069562396965920925,0.011933241970837116,-0.0507170744240284,0.12779010832309723,0.08286256343126297,-0.04182571917772293,-0.08573311567306519,-0.16022825241088867,-0.08609551191329956,0.2309916913509369,0.14302806556224823,-0.005043208599090576,-0.01787596009671688,-0.06677966564893723,-0.005773733835667372,0.10381297767162323,-0.057040851563215256,0.16493460536003113,-0.06834564357995987,-0.0009603766375221312,0.08397672325372696,-0.10037154704332352,-0.23809809982776642,0.07164951413869858,-0.06403080374002457,0.3823239803314209,0.1862487941980362,0.27005988359451294,-0.41143307089805603,-0.06782420724630356,0.00937406811863184,-0.16957879066467285,0.06362702697515488,0.03833727166056633,-0.17775191366672516,-0.12899285554885864,0.07457800209522247,-0.2826051712036133,0.03826268017292023,0.06319224089384079,-0.019398536533117294,0.25626271963119507,-0.003710069926455617,-0.4614023268222809,0.11791951954364777,0.11333083361387253,-0.23228594660758972,0.03726552426815033,0.24530573189258575,0.47407016158103943,-0.28952404856681824,0.021952051669359207,0.19445285201072693,-0.10785079002380371,-0.06115149334073067,-0.8395565748214722,-0.012099900282919407,0.014052626676857471,-0.2048352211713791,0.03636062145233154,-0.036507584154605865,0.11692198365926743,0.2363692969083786,0.027483578771352768,-0.3783222734928131,-0.19452911615371704,-0.1548827886581421,0.09076480567455292,-0.07957448810338974,-0.030593637377023697,-0.005990874953567982,0.049652110785245895,0.12949255108833313,0.6415596008300781,-0.042499251663684845,-0.2273181676864624,0.28819555044174194,-0.16265329718589783,-0.028323477134108543,-0.1574617326259613,-0.2693338096141815,-0.08699530363082886,0.18748895823955536,-0.11462663859128952,-0.147579163312912,-0.18954703211784363,-0.10635004937648773,0.009629021398723125,-0.1061897948384285,-0.09234745800495148,0.16448019444942474,-0.1849173754453659,-0.09843940287828445,-0.05212687700986862,0.3193260133266449,-0.10174112766981125,0.039827119559049606,-0.07511913031339645,-0.019564297050237656,0.15886984765529633,-0.1311526596546173,-0.053495895117521286,-0.14235544204711914,0.07162634283304214,0.15624314546585083,-0.050469424575567245,-0.1907380223274231,0.0018895721295848489,0.05047440901398659,0.11970916390419006,-0.020685503259301186,-0.1473652571439743,0.12769970297813416,-0.0787511095404625,-0.08210797607898712,-0.06905952095985413,0.13525564968585968,-0.008626819588243961,0.24779708683490753,-0.1532384306192398,0.012511923909187317,-0.14068754017353058,-0.09700458496809006,-0.14838920533657074,-0.19307194650173187,0.08579952269792557,-0.2416645884513855,0.06660362333059311,-0.11391351372003555,-0.11819707602262497,0.06786306947469711,0.12810489535331726,0.03678317368030548,0.10627711564302444,0.059227392077445984,-0.4438202977180481,0.13024058938026428,-0.24982887506484985,-0.1022622138261795,0.04891706258058548,0.0017455107299610972,0.08815177530050278,0.4023441970348358,0.14009292423725128,-0.12662775814533234,0.3804768919944763,-0.1348159909248352,0.06403011083602905,-0.14687615633010864,-0.061461031436920166,-0.18405050039291382,-0.13358177244663239,-0.10670414566993713,-0.22353753447532654,-0.11834434419870377,-0.10469979792833328,-0.06456193327903748,-0.08147095888853073,-0.048680130392313004,-0.17895881831645966,0.26196858286857605,-0.0056510912254452705,0.04393822327256203,-0.10174786299467087,0.01076266448944807,-0.0435660295188427,0.08375730365514755,-0.08866505324840546,0.11257651448249817,-0.34034502506256104,0.06529247760772705,-0.190891832113266,0.3657762110233307,-0.2197047919034958,-0.03661853075027466,-0.16757521033287048,-0.03343202918767929,0.08134927600622177,0.3635985553264618,0.26822078227996826,0.042377881705760956,0.4240085482597351,0.06225363165140152,0.17412322759628296,-0.21974080801010132,0.0804213434457779,0.3000427484512329,-0.11083480715751648,-0.07028061896562576,0.2874668836593628,-0.056579336524009705,0.04290689155459404,-0.38453367352485657,-0.015444131568074226,-0.1362183690071106,-0.34556102752685547,0.029765745624899864,-0.026321936398744583,0.6593022346496582,-0.07449515163898468,-0.01750229112803936,0.06469208747148514,-0.2846325933933258,-0.022428158670663834,0.11909711360931396,-0.0227208212018013,0.025221724063158035,0.1815248280763626,0.1116895079612732,0.26612332463264465,-0.11557884514331818,-0.14334900677204132,0.08335979282855988,-0.13140295445919037,-0.13195455074310303,-0.09249521046876907,-0.5864009857177734,0.046724215149879456,0.12245867401361465,-0.1703472137451172,-0.011789130046963692,0.0907132551074028,0.1831216961145401,0.17277954518795013,0.09824854135513306,-0.3781803548336029,0.04354489967226982,0.12478809058666229,0.12208055704832077,0.037129178643226624,-0.08978262543678284,0.1653933972120285,-0.11227970570325851,0.1906089037656784,0.2245033234357834,-0.029606899246573448,0.30701708793640137,-0.16519953310489655,-0.03464663401246071,0.1430991142988205,0.09388572722673416,0.07790455222129822,-0.017217570915818214,-0.14861276745796204,0.0718117281794548,0.0020795303862541914,-0.006091385614126921,-0.1575925499200821,-0.12774980068206787,0.0875738114118576,0.08398845791816711,0.17199407517910004,-0.04693470522761345,0.09137869626283646,0.006147056818008423,-0.06637485325336456,0.09198611229658127,0.04469846561551094,0.03730396553874016,0.021867338567972183,-0.1684996485710144,0.00853601936250925,-0.2423964887857437,-0.20374321937561035,-0.0616283193230629,-0.142663836479187,0.09430059045553207,0.09833640605211258,0.2579065263271332,-0.20229962468147278,0.06450700759887695,-0.2902878522872925,0.02540617622435093,-0.1005614772439003,-0.11440388113260269,-0.22611357271671295,0.019046032801270485,-0.13284410536289215,0.034392889589071274,-0.22701525688171387,0.4124871790409088,0.5521460771560669,0.13230040669441223,-0.05188871920108795,-0.09376314282417297,0.10331719368696213,-0.054770585149526596,-0.07735967636108398,0.1285344511270523,0.061194851994514465,0.20639976859092712,-0.16874748468399048,-0.010403734631836414,-0.041849084198474884,0.018940867856144905,0.19165228307247162,0.11527904868125916,-0.03136501833796501,-0.07073155045509338,-0.10997997224330902,-0.13612274825572968,-0.11102087050676346,-0.370999276638031,-0.10625365376472473,0.11500956863164902,0.12516610324382782,0.11899808049201965,-0.02139529027044773,-0.16827505826950073,0.15327155590057373,0.018617482855916023,-0.12176595628261566,-0.14159460365772247,-0.2143871784210205,-0.1633838266134262,0.10696007311344147,-0.0727376937866211,-0.4159819483757019,-0.15455301105976105,0.25590038299560547,-0.06264016032218933,0.0807168260216713,0.06107044592499733,-0.04709278419613838,-0.04208303987979889,-0.0204848051071167,0.17537343502044678,0.02113339491188526,0.027132272720336914,-0.04163341224193573,-0.1415351927280426,0.027382493019104004,-0.11182530969381332,0.11196475476026535,-0.0403408445417881,0.15754060447216034,0.22877341508865356,0.2003961056470871,0.0370878241956234,-0.0001315818662988022,0.22624675929546356,0.1939508467912674,-0.04388575628399849,0.13090720772743225,-0.27931004762649536,0.03915800154209137,-0.1975371390581131,-0.01820131205022335,-0.06912912428379059,0.2538314163684845,0.11751492321491241,-0.09224925935268402,-0.1347634494304657,0.13406500220298767,0.11625231802463531,0.49738311767578125,-0.1283130943775177,0.021990934386849403,0.2375277578830719,-0.003445372451096773,-0.04868829622864723,-0.478793740272522,-0.07863003760576248,0.058244939893484116,-0.016547614708542824,-0.01199309527873993,0.09015583246946335,-0.34518545866012573,-0.033618684858083725,-0.021236548200249672,0.12422940135002136,-0.31370535492897034,0.08098100870847702,-0.28036564588546753,0.1531999409198761,0.14234283566474915,-0.5940561294555664,0.3088448643684387,-0.11448204517364502,0.16764487326145172,0.22117264568805695,-0.08556356281042099,-0.11421114206314087,-0.04576791077852249,0.1238684132695198,-0.22821930050849915,-0.43978747725486755,0.0025239463429898024,-0.24702003598213196,0.10093145817518234,0.009281739592552185,-0.034430451691150665,0.10200650990009308,0.12837377190589905,-0.014541474170982838,-0.03101097233593464,-0.24066922068595886,0.17753474414348602,0.2525577247142792,-0.07831526547670364,-0.2907097637653351,-0.20149701833724976,-0.10127247124910355,0.18029247224330902,0.0016097972402349114,-0.011944262310862541,0.18406067788600922,-0.09027136862277985,0.18946953117847443,0.12388909608125687,-0.0788842961192131,0.16370278596878052,-0.21974843740463257,0.04176894575357437,0.1771380454301834,0.18906599283218384,-0.10460657626390457,0.01634260080754757,-0.07298126816749573,0.0929190143942833,0.21417677402496338,0.05740025267004967,0.05286542326211929,0.15545208752155304,-0.15994375944137573,0.06520292162895203,0.6224721074104309,-0.06193293258547783,0.05857973173260689,-0.22030164301395416,-0.1542113572359085,0.05381538346409798,-0.29892683029174805,-0.4467013478279114,0.08199688792228699,-0.23087720572948456,-0.15984877943992615,0.020652802661061287,0.510169267654419,-0.410129189491272,-0.04243987426161766,0.04409807547926903,-0.21011273562908173,-0.03282826393842697,0.06001224368810654,0.06483890861272812,0.011325321160256863,0.20182883739471436,-0.23085612058639526,-0.04308118298649788,-0.27963024377822876,0.022936975583434105,0.07346902042627335,0.23444189131259918,-0.1287660002708435,0.05539959669113159,0.010382507927715778,-0.062177907675504684,0.022572675719857216,0.05849526822566986,-0.011512579396367073,-0.008415290154516697,-0.12097425013780594,0.13615214824676514,0.017626717686653137,-0.03736452758312225,-0.31752902269363403,-0.3360912501811981,0.20707274973392487,-0.32412445545196533,0.03820294886827469,-0.0649927631020546,0.24425256252288818,0.16938021779060364,-0.204937145113945,0.0022552022710442543,0.31077757477760315,0.09259964525699615,-0.04519205540418625,0.013273390009999275,-0.14968590438365936,0.12892043590545654,-0.2628519535064697,0.02961977943778038,-0.021767452359199524,0.033690642565488815,-0.028694910928606987,-0.08179467916488647,-0.01843925192952156,-0.31220686435699463,0.10791578888893127,-0.335114449262619,0.05332194268703461,0.04596339911222458,-0.004873828496783972,-0.05007275938987732,0.08600258082151413,-0.24334636330604553,-0.26259493827819824,0.11149284988641739,-0.0937320664525032,-0.022194737568497658,-0.2284466177225113,0.02311728149652481,0.018834317103028297,0.09982190281152725,0.14016655087471008,-0.05382612720131874,-0.04315628111362457,0.10976383090019226,0.2703975439071655,0.023781588301062584,0.1280660331249237,-0.13128697872161865,0.014383082278072834,-0.09740647673606873,0.29868847131729126,-0.019711516797542572,0.07306748628616333,-0.07396901398897171,-0.2440282255411148,0.17260412871837616,-0.10469839721918106,0.15779636800289154,0.026203934103250504,0.132748544216156,-0.02960163913667202,0.145940363407135,0.030333584174513817,0.16210582852363586,-0.10315151512622833,-0.028068605810403824,0.04368458688259125,0.25029435753822327,0.1959093064069748,0.1836685687303543,0.22657160460948944,-0.04922286421060562,0.07969996333122253,0.0155226681381464,-0.28295668959617615,-0.10101275146007538,0.008757449686527252,-0.057986803352832794,-0.09782594442367554,-0.12395347654819489,0.025411849841475487,0.09807992726564407,0.08975481241941452,0.2682960331439972,-0.1414647251367569,-0.03660642355680466,0.02107960544526577,0.04856128245592117,-0.07064295560121536,0.043553683906793594,-0.07659511268138885,-0.12836284935474396,0.010688540525734425,-0.5167950391769409,-0.007105940021574497,0.014889604412019253,-0.04575278237462044,-0.13846269249916077,0.056435905396938324,-0.22866606712341309,0.0060368492268025875,0.02593935839831829,0.2620009779930115,0.06501100957393646,-0.09228058904409409,0.08938166499137878,-0.19929729402065277,0.022022780030965805,0.12692973017692566,-0.03219101205468178,-0.04342065006494522,-0.11160622537136078,0.0055020591244101524,-0.018188638612627983,-0.16263306140899658,-0.10670652240514755,0.04423971846699715,-0.147126242518425,-0.039918914437294006,0.04731942340731621,-0.2360704392194748,0.1810893416404724,-0.12027518451213837,0.08273259550333023,0.051897868514060974,0.013520347885787487,0.24475857615470886,0.07966623455286026,-0.10543125867843628,-0.1915927529335022,0.09395448118448257,-0.05384238809347153,0.06682400405406952,-0.0015074008842930198,0.10233691334724426,-0.25710585713386536,-0.027053525671362877,-0.10462275892496109,-0.02304469607770443,-0.02393471449613571,-0.29424580931663513,0.37110283970832825,0.018596528097987175,0.13424935936927795,0.18040356040000916,-0.0030973595567047596,-0.1140386089682579,0.2505943775177002,-0.03977839648723602,-0.4952491223812103,0.6401243805885315,-0.0926114097237587,-0.1783488392829895,-0.22945798933506012,-0.030040917918086052,-0.12433633953332901,-0.1375017613172531,-0.12078476697206497,-0.013315405696630478,0.33548542857170105,0.07170701771974564,-0.042467035353183746,0.1470167338848114,-0.0549769252538681,-0.2013280689716339,0.22706438601016998,0.01778995431959629,-0.16566996276378632,-0.1947428435087204,-0.22064867615699768,0.10934823751449585,-0.00826955121010542,-0.1275993436574936,-0.05712076649069786,0.3311257064342499,-0.006047262344509363,0.005071651190519333,-0.5292332172393799,0.0544419027864933,-0.01518756989389658,-0.19272774457931519,-0.08438621461391449,-0.06626376509666443,-0.26600271463394165,-0.10649310797452927,-0.11198556423187256,0.17797626554965973,-0.017032260075211525,-0.08125703781843185,-0.1545536071062088,0.029604902490973473,0.008131886832416058,0.1107311025261879,-0.19838649034500122,-0.04945448786020279,-0.07821276783943176,-0.019437694922089577,-0.06364704668521881,-0.08745516836643219,0.09933280199766159,-0.027487607672810555,0.055811963975429535,0.012495797127485275,-0.06260602921247482,-0.06188899278640747,-0.08896049112081528,0.10065468400716782,-0.03354495391249657,-0.0719243735074997,0.035997793078422546,0.04124772921204567,0.02953513339161873,0.0014984809095039964,0.6195687055587769,0.11345578730106354,0.37356001138687134,-0.761785626411438,-0.4293053448200226,0.02046428620815277,0.22546757757663727,0.042372945696115494,0.07037165760993958,0.3225594460964203,-0.4051441252231598,0.22702516615390778,-0.027610018849372864,-0.6338438987731934,0.08166900277137756,-0.2572553753852844,-0.2065100520849228,-0.031427133828401566,0.21627332270145416,-0.21920910477638245,0.1110634133219719,0.20435987412929535,-0.052242573350667953,-0.13132724165916443,-0.5194857716560364,0.07324264198541641,-0.2914265990257263,-0.16233451664447784,0.11186332255601883,-0.19508078694343567,0.1560981273651123,-0.18885572254657745,0.08481921255588531,-0.32483500242233276,0.24881881475448608,-0.011983077973127365,0.13163809478282928,-0.043717075139284134,0.256587415933609,-0.06223977357149124,0.11316955089569092,-0.0678686648607254,-0.0859266072511673,0.06951786577701569,-0.34416067600250244,0.16639161109924316,0.1988653689622879,0.2023060917854309,-0.012371217831969261,0.1289031207561493,-0.2650178372859955,-0.1106894388794899,0.012177453376352787,-0.35937750339508057,0.031443364918231964,-0.010352724231779575,0.23107466101646423,-0.32081204652786255,-0.10048611462116241,-0.07558557391166687,0.20826701819896698,-0.13816316425800323,-0.0647539496421814,0.034929387271404266,-0.19365248084068298,-0.09599076956510544,-0.15777823328971863,0.32534894347190857,0.23506340384483337,0.37133538722991943,0.27600035071372986,0.1267649233341217,-0.12322533875703812,-0.17273476719856262,0.33434218168258667,-0.2415352314710617,0.24754799902439117,-0.014043118804693222,0.18554016947746277,-0.3017224669456482,0.09846321493387222,-0.18060405552387238,-0.05968862026929855,0.03635460138320923,0.010802623815834522,0.0364084392786026,0.04849041998386383,-0.24287568032741547,0.29800987243652344,0.11629210412502289,0.28323808312416077,0.10046430677175522,-0.1470210999250412,-0.3466651439666748,-0.1433250606060028,-0.12330898642539978,-0.301256000995636,-0.014274035580456257,0.04830623418092728,0.001304891426116228,-0.20005355775356293,0.11995059996843338,0.18033522367477417,-0.10019955039024353,-0.053631119430065155,0.20656907558441162,0.11465141177177429,0.18842577934265137,-0.15418295562267303,-0.03800582513213158,-0.07600130885839462,0.01465925294905901,-0.057260941714048386,-0.08694854378700256,-0.024351971223950386,0.12348499149084091,0.05790681019425392,-0.03078380785882473,0.0898299291729927,-0.10486190021038055,0.1815275102853775,-0.010921603068709373,0.19348865747451782,-0.11587856709957123,0.2009897232055664,0.041242245584726334,0.0330258347094059,-0.006261338479816914,-0.06519832462072372,0.3224150240421295,-0.2492208629846573,-0.010226848535239697,0.04910445585846901,-0.17470698058605194,-0.14409737288951874,0.288335382938385,-0.08302078396081924,-0.15245315432548523,-0.12352120876312256,0.055151358246803284,-0.1505228728055954,-0.06681005656719208,0.09618577361106873,-0.16074074804782867,-0.26943594217300415,0.13364531099796295,-0.12417574226856232,-0.1557525247335434,0.09065878391265869,0.04541153088212013,-0.3031052052974701,-0.10022879391908646,-0.05702529847621918,-0.015323488041758537,0.09069105982780457,-0.11695050448179245,0.0818854495882988,0.1548154652118683,-0.04714358225464821,-0.37217652797698975,-0.04813135415315628,0.23359273374080658,-0.02604120969772339,0.2727053761482239,-0.13351744413375854,0.24089641869068146,-0.17742662131786346,0.16240240633487701,0.1117810383439064,-0.034640129655599594,0.3290815055370331,-0.0973745733499527,0.4270450472831726,-0.1788303554058075,0.23412801325321198,-0.11604273319244385,-0.09594864398241043,0.14172840118408203,-0.23093281686306,0.03538352996110916,-0.11427224427461624,0.026330461725592613,-0.09139374643564224,0.01887120120227337,0.14503684639930725,-0.07796742022037506,0.034373607486486435,-0.04667774587869644,-0.32518765330314636,0.1238994151353836,0.04012172296643257,-0.30362650752067566,-0.06518349051475525,-0.09275241196155548,-0.07078281790018082,-0.16104242205619812,-0.022557297721505165,-0.10778922587633133,0.00438648508861661,-0.13519082963466644,0.21942955255508423,0.12199752032756805,0.3024771809577942,0.07984834164381027,-0.19430290162563324,0.28997448086738586,-0.26408901810646057,-0.03382883220911026,-0.06435870379209518,0.07343772053718567,-0.019273603335022926,0.31568416953086853,-0.3357807695865631,-0.05613113194704056,-0.2182188779115677,0.05840534716844559,0.2005940079689026,-0.220703586935997,-0.1563584953546524,0.045463476330041885,-0.5358233451843262,0.08515524119138718,0.19104422628879547,-0.21724160015583038,-0.07352909445762634,0.10286305099725723,-0.10452336817979813,0.2383224219083786,0.02996819280087948,0.22081224620342255,-0.1948174089193344,-0.007710163947194815,-0.14710122346878052,0.11678247153759003,0.07183203101158142,-0.15966100990772247,-0.20229677855968475,-0.270023375749588,0.06909262388944626,-0.42313867807388306,0.40618395805358887,-0.008464725688099861,0.23089081048965454,0.15132786333560944,-0.32248929142951965,-0.4277362525463104,0.1923418641090393,0.24702182412147522,-0.14250913262367249,0.18969164788722992,-0.3356640338897705,0.27415332198143005,0.19950726628303528,0.21769292652606964,-0.2429160475730896,0.44227728247642517,-0.1027519479393959,0.10849757492542267,-0.1657693237066269,0.19314594566822052,-0.21868450939655304,-0.03452964499592781,0.2683311998844147,-0.11609958112239838,-0.1755606085062027,0.007905642502009869,0.04822394996881485,-0.062943235039711,0.03137710317969322,-0.07925132662057877,0.3253214657306671,0.1710430234670639,-0.15875838696956635,-0.024203594774007797,-0.0038189725019037724,-0.03256208822131157,0.12009883671998978,-0.025408150628209114,-0.07110048085451126,0.004965984262526035,-0.008694753982126713,0.12793876230716705,0.04755905270576477,-0.003758493345230818,0.0394517257809639,-0.10698252171278,-0.05670569837093353,-0.008733142167329788,0.15867537260055542,-0.048994652926921844,0.08390588313341141,-0.1073109433054924,0.30059951543807983,-0.1278553456068039,-0.07591785490512848,-0.0367044173181057,-0.10916119068861008,-0.16256247460842133,0.004473822191357613,0.050909433513879776,0.00004533651372184977,-0.0699947327375412,-0.16859203577041626,-0.062233176082372665,0.07879196107387543,-0.030006330460309982,0.04317716881632805,0.2526657283306122,-0.12419692426919937,0.2005721926689148,0.10138845443725586,0.06547906994819641,0.008464501239359379,-0.022191446274518967,0.047714877873659134,0.12103229016065598,-0.1958501636981964,0.1080072894692421,-0.07090073823928833,0.19207780063152313,-0.27249494194984436,0.3230299949645996,0.021302834153175354,-0.09513683617115021,0.09518911689519882,0.08673639595508575,0.2975742220878601,0.24859587848186493,0.02661443129181862,0.06080135703086853,-0.009676449000835419,-0.12841808795928955,-0.05792009457945824,0.14857114851474762,0.31956925988197327,0.06535926461219788,0.029097052291035652,-0.19643227756023407,0.017633279785513878,-0.05622518062591553,-0.01427425630390644,0.0027059491258114576,-0.07057929784059525,0.011263659223914146,0.14808103442192078,-0.1893366575241089,0.13241048157215118,0.03678044676780701,-0.005128658376634121,0.12408927828073502,0.1428264081478119,-0.04554407671093941,-0.015347595326602459,-0.0366910845041275,0.08236891031265259,0.04923192039132118,0.055270444601774216,0.0035392644349485636,-0.0841979831457138,-0.17827381193637848,0.11507011204957962,0.08133070170879364,0.04758008196949959,0.1771700084209442,0.10209078341722488,0.13448971509933472,0.0022408992517739534,-0.020208735018968582,0.05149832367897034,-0.12971524894237518,-0.26447945833206177,-0.09348641335964203,0.051470451056957245,-0.014841278083622456,-0.17256490886211395,0.009874310344457626,-0.2710857689380646,0.005554312840104103,0.11029867082834244,-0.082808718085289,-0.1264416128396988,0.03370693698525429,-0.22955024242401123,-0.04331604018807411,-0.15608684718608856,0.10560758411884308,0.24043498933315277,0.11294301599264145,-0.010902655310928822,0.1675792932510376,0.1173240914940834,-0.048167768865823746,0.07019136846065521,-0.02373611554503441,0.1709408313035965,-0.1376645714044571,0.07253298908472061,-0.10607948899269104,0.07843921333551407,0.01060835737735033,-0.00788634642958641,0.124495729804039,0.0023590766359120607,-0.022702859714627266,-0.047137562185525894,-0.16667044162750244,-0.13114695250988007,0.13027119636535645,0.028791580349206924,-0.046408820897340775,-0.04129968211054802,0.22398240864276886,-0.05726538971066475,0.17151124775409698,0.07053009420633316,0.20065458118915558,-0.21396079659461975,-0.037404101341962814,0.03443953022360802,0.03682693466544151,0.0047400170005857944,-0.007802694570273161,0.1487882286310196,0.016212530434131622,0.17165979743003845,0.10312797874212265,0.02727384679019451,-0.08718126267194748,0.017798809334635735,0.08830206096172333,0.07200867682695389,0.02548433654010296,0.01031799428164959,0.14348231256008148,0.3297225832939148,-0.08350850641727448,-0.050241317600011826,-0.08744605630636215,0.016524573788046837,0.030285177752375603,-0.134538933634758,0.07159150391817093,-0.165192648768425,0.02431677281856537,0.06954613327980042,-0.015896370634436607,-0.14489507675170898,-0.016401300206780434,-0.21447326242923737,0.06153038516640663,-0.007446113508194685,-0.08596932888031006,-0.18978463113307953,-0.029042504727840424,0.15527969598770142,-0.15081408619880676,-0.06415155529975891,0.17941434681415558,-0.02585851028561592,-0.16015586256980896,0.01527426578104496,0.01989428512752056,-0.08976618200540543,0.06072614714503288,-0.1675877869129181,-0.017656318843364716,0.197259783744812,-0.05536650866270065,0.1389947086572647,-0.25649550557136536,0.12443637102842331,0.09707289934158325,0.10978783667087555,-0.07197781652212143,0.007910412736237049,-0.11682961136102676,-0.04796014353632927,0.19417248666286469,0.1634201854467392,-0.015380749478936195,0.009134700521826744,-0.16976775228977203,0.15850712358951569,-0.03060143068432808,-0.061739906668663025,-0.2087324857711792,0.0794336199760437,-0.05831601843237877,0.00436664093285799,-0.06880656629800797,0.3084195852279663,0.1510254293680191,0.08623336255550385,-0.1301986277103424,-0.10085901618003845,0.06744285672903061,0.08783089369535446,-0.22902531921863556,0.12250639498233795,0.18020835518836975,-0.0895226001739502,0.015466640703380108,0.045328691601753235,0.11156441271305084,0.047669149935245514,-0.07248660176992416,0.23797820508480072,0.008536330424249172,0.2826836407184601,0.4480762779712677,0.0088239386677742,-0.03440791368484497,-0.18640311062335968,0.0399315282702446,-0.10698068141937256,-0.04237940162420273,-0.13261406123638153,0.3478643000125885,-0.10751336067914963,0.04178238287568092,-0.026622334495186806,-0.007582392543554306,0.06131100282073021,0.09219005703926086,0.04581940919160843,-0.028656668961048126,0.12518808245658875,0.2895973324775696,-0.1480589509010315,0.028008731082081795,-0.19921210408210754,-0.12778718769550323,0.02317837066948414,0.07214239239692688,-0.03374720737338066,0.0556524358689785,-0.2266223281621933,0.028596777468919754,0.20790407061576843,-0.03272325545549393,-0.08178865909576416,-0.025265179574489594,-0.0015192353166639805,-0.10625974088907242,0.069327712059021,0.1498553305864334,0.05252845957875252,0.00800743605941534,-0.06224983558058739,-0.028659971430897713,0.003036526497453451,0.07089704275131226,-0.04346829652786255,-0.1337934285402298,0.007923459634184837,0.1582709699869156,0.21921411156654358,0.001266282401047647,0.14514169096946716,0.002819567220285535,-0.13903436064720154,0.17009125649929047,-0.10781096667051315,-0.013810181058943272,0.07759734243154526,0.07511314749717712,-0.02167782559990883,-0.05693865939974785,-0.11310020834207535,-0.031984858214855194,0.05862284451723099,0.03251029923558235,-0.05790168419480324,0.10858047008514404,0.19868013262748718,0.1269603669643402,0.039027366787195206,-0.09565050899982452,-0.06022114306688309,0.09087144583463669,-0.0038575222715735435,-0.14424674212932587,-0.09902986139059067,-0.2513221502304077,-0.03501171991229057,-0.04673845320940018,-0.17883309721946716,0.16690734028816223,0.12360218912363052,0.18006277084350586,-0.1450556218624115,0.07650885730981827,0.2619251310825348,-0.027442077174782753,-0.11142438650131226,0.18354059755802155,-0.1802763044834137,-0.09871992468833923,-0.08292832225561142,-0.42811623215675354,-0.1062646135687828,-0.0852714329957962,0.13233931362628937,0.11303141713142395,0.20651301741600037,-0.025349993258714676,-0.01079036295413971,-0.012976176105439663,-0.06898094713687897,-0.03507467731833458,-0.1662382334470749,0.16964508593082428,-0.05324134603142738,0.32802388072013855,0.23162169754505157,0.0774991363286972,0.04566672444343567,0.005551621783524752,-0.004224527161568403,0.18764638900756836,0.009030034765601158,0.1759655922651291,0.23914676904678345,-0.016521450132131577,-0.07784586399793625,-0.005687965080142021,0.1835278421640396,0.03716077283024788,-0.04445964843034744,0.1747327744960785,0.004308605566620827,0.06347070634365082,0.14008674025535583,0.1332850307226181,-0.02341858483850956,-0.027727724984288216,0.007447161711752415,-0.09573258459568024,0.011435057036578655,-0.04153668135404587,0.0004545620467979461,-0.1412489265203476,-0.08602263033390045,-0.0981416404247284,-0.05384726822376251,-0.07935942709445953,-0.1144241914153099,0.11932945251464844,-0.014440692029893398,-0.11320286989212036,-0.022065846249461174,-0.08734598010778427,-0.12547902762889862,0.1743728071451187,0.012112949974834919,0.09550981223583221,0.22915157675743103,0.1121862456202507,0.07511107623577118,0.35391905903816223,0.023689502850174904,-0.1367061883211136,0.23491056263446808,-0.06353365629911423,0.08221785724163055,-0.18506327271461487,0.005760953761637211,-0.15919612348079681,-0.07047379016876221,-0.1235625296831131,-0.005089337006211281,0.04581422731280327,0.04670684039592743,0.12183143198490143,-0.017117882147431374,0.19028204679489136,-0.04087577015161514,0.13731372356414795,-0.09685196727514267,-0.2381688505411148,-0.18460267782211304,-0.03258311748504639,-0.06658772379159927,-0.09989559650421143,0.16541381180286407,-0.19695736467838287,0.11799225956201553,-0.12708529829978943,-0.24937650561332703,0.02134259231388569,0.025098484009504318,-0.32272374629974365,-0.13404636085033417,-0.04953093081712723,-0.22628895938396454,0.08448773622512817,-0.1309255063533783,-0.03285646438598633,0.017693962901830673,0.11292798817157745,-0.023182425647974014,0.03871064633131027,-0.19623945653438568,-0.013849605806171894,0.13327579200267792,-0.034260716289281845,0.10351591557264328,-0.07741983234882355,-0.07387537509202957,-0.10983525216579437,0.18319711089134216,-0.04651006683707237,-0.03569274768233299,0.08632464706897736,-0.08627254515886307,-0.03538243845105171,-0.17310327291488647,-0.09058482944965363,0.021741343662142754,0.06446392089128494,-0.07368966192007065,-0.046808067709207535,-0.026142261922359467,0.12158676981925964,0.06575676798820496,-0.15030412375926971,-0.018046652898192406,0.17562547326087952,0.07710165530443192,0.2650023102760315,-0.16192756593227386,-0.13083499670028687,-0.10694320499897003,-0.08691410720348358,-0.17199766635894775,0.08446930348873138,-0.09142114222049713,-0.019541656598448753,-0.033388812094926834,-0.05860893428325653,-0.2303178757429123,-0.04126334190368652,0.020777594298124313,0.26995590329170227,-0.06940004229545593,0.3056490123271942,0.057563137263059616,-0.11687474697828293,-0.01096375472843647,-0.18252016603946686,0.11430782079696655,0.04311888664960861,-0.13631512224674225,-0.12423344701528549,-0.03306132182478905,-0.013229215517640114,0.04407409578561783,0.08811653405427933,-0.07733497768640518,-0.10171617567539215,-0.018477967008948326,0.14412248134613037,-0.14636243879795074,0.029091155156493187,-0.046086106449365616,-0.13082389533519745,0.029119065031409264,-0.1142158955335617,-0.15677374601364136,-0.023241577669978142,-0.05851402133703232,0.11293620616197586,-0.008998958393931389,-0.12485554814338684,-0.041203394532203674,0.08875225484371185,0.1540299504995346,0.16506020724773407,0.10836705565452576,-0.1781042367219925,0.010017093271017075,-0.07697826623916626,0.18878324329853058,-0.2780870497226715,0.0963248535990715,0.0368262454867363,0.018692821264266968,0.0020207930356264114,0.010082555003464222,-0.1257707178592682,-0.35145485401153564,0.0763649120926857,0.05285896733403206,0.059161651879549026,-0.024770578369498253,-0.003780907718464732,0.040554165840148926,0.10230865329504013,0.09360890835523605,0.0764780342578888,-0.1288091391324997,0.08250611275434494,0.072199746966362,-0.3280465602874756,0.0902220755815506,0.026241445913910866,-0.13971877098083496,-0.08031975477933884,0.009717707522213459,-0.11902547627687454,-0.041414760053157806,-0.12654227018356323,0.13333940505981445,-0.13936129212379456,0.07519698888063431,0.24520765244960785,-0.128760427236557,-0.0430864579975605,0.2320602834224701,0.029012111946940422,