{"version": "0.5.2", "metadata": {"date": {"year": 2023, "month": 10, "day": 1, "hour": 23, "minute": 23, "second": 50}, "loudness": -16.8753662109375, "gain": 0.8409672913870183, "name": null, "modeled_by": null, "gear_type": null, "gear_make": null, "gear_model": null, "tone_type": null}, "architecture": "WaveNet", "config": {"layers": [{"input_size": 1, "condition_size": 1, "head_size": 8, "channels": 16, "kernel_size": 3, "dilations": [1, 2, 4, 8, 16, 32, 64, 128, 256, 512], "activation": "Tanh", "gated": false, "head_bias": false}, {"input_size": 16, "condition_size": 1, "head_size": 1, "channels": 8, "kernel_size": 3, "dilations": [1, 2, 4, 8, 16, 32, 64, 128, 256, 512], "activation": "Tanh", "gated": false, "head_bias": true}], "head": null, "head_scale": 0.02}, "weights": [-0.05164898559451103, 0.4777161777019501, -0.8947547674179077, -0.7217177152633667, -0.194283589720726, 0.47388559579849243, -0.112734854221344, 0.8517376780509949, -0.20085442066192627, 0.163926899433136, -0.21157188713550568, -0.19137994945049286, -1.0472800731658936, -0.6061638593673706, -0.2930808365345001, 0.04989729821681976, 0.03545132651925087, 0.08556685596704483, 0.10614753514528275, -0.021099839359521866, 0.0057390774600207806, 0.016150930896401405, -0.06575693935155869, 0.15461492538452148, 0.08153464645147324, -0.022804228588938713, 0.17470651865005493, -0.03252033889293671, -0.13252344727516174, 0.00022286495368462056, 0.03947853296995163, 0.17567355930805206, -0.1247735470533371, -0.1623205542564392, -0.1325536072254181, -0.11965326964855194, 0.051395755261182785, 0.1631481796503067, 0.01623591035604477, -0.02843858115375042, -0.04937714338302612, -0.06360865384340286, 0.11056943237781525, -0.08496146649122238, -0.136864572763443, -0.15981195867061615, 0.045845258980989456, 0.12093491107225418, 0.03056921251118183, -0.05678950250148773, 0.1221068799495697, 0.24003274738788605, 0.01948370784521103, 0.07045610249042511, 0.19840572774410248, -0.12267667800188065, 0.07288829237222672, -0.014006379060447216, -0.12937381863594055, -0.030824273824691772, 0.15711866319179535, -0.059759773313999176, -0.2580453157424927, -0.15984304249286652, -0.02850164659321308, -0.0768677294254303, -0.011959850788116455, 0.03184320032596588, 0.025888236239552498, 0.16520842909812927, -0.10649193823337555, 0.01191349234431982, 0.02648215740919113, 0.12433172762393951, 0.18764814734458923, 0.09551149606704712, 0.021794449537992477, -0.07289517670869827, -0.026868624612689018, -0.08605669438838959, -0.18858659267425537, 0.16604255139827728, 0.07034940272569656, -0.14035244286060333, -0.017700493335723877, -0.02717648632824421, -0.08849392086267471, -0.029162554070353508, 0.03553178161382675, -0.058413244783878326, -0.009061905555427074, 0.07295060157775879, 0.046180833131074905, 0.09445718675851822, -0.1522834748029709, -0.042992569506168365, 0.028341099619865417, 0.010521843098104, -0.0737835243344307, -0.12645858526229858, 0.1397262066602707, 0.16487626731395721, -0.09690354764461517, -0.033178988844156265, -0.07324312627315521, -0.03983006253838539, -0.10514150559902191, -0.05742594227194786, -0.05741260573267937, -0.12361609190702438, -0.16126444935798645, -0.030216297134757042, -0.04749668762087822, 0.07063858956098557, 0.19952496886253357, -0.11860314756631851, 0.06098496913909912, -0.1418287754058838, 0.0001765596680343151, -0.07543053478002548, 0.2086515873670578, -0.0056608994491398335, -0.17312969267368317, 0.22381235659122467, -0.12916600704193115, -0.16837182641029358, 0.12569540739059448, -0.06481434404850006, 0.043813154101371765, -0.29499727487564087, -0.019506705924868584, -0.06934931129217148, 0.07316865772008896, 0.0038712061941623688, 0.20606255531311035, -0.17803847789764404, 0.028591642156243324, -0.0647442489862442, 0.24854284524917603, 0.08267905563116074, 0.21133357286453247, -0.09454915672540665, 0.13629651069641113, -0.10164566338062286, 0.040286432951688766, -0.057406116276979446, 0.016859102994203568, 0.16671432554721832, -0.08528972417116165, -0.21868717670440674, 0.022358935326337814, -0.13275285065174103, -0.13168743252754211, 0.2398877590894699, 0.07007387280464172, -0.2280707061290741, 0.26171085238456726, -0.044255297631025314, -0.0332271009683609, -0.05299760773777962, -0.12001070380210876, -0.0192119050770998, -0.13391676545143127, -0.1108040064573288, -0.10923910140991211, 0.02189338393509388, -0.06733604520559311, 0.14893732964992523, -0.1492920070886612, -0.014619064517319202, 0.2171715646982193, -0.08221827447414398, 0.10461857169866562, 0.12095455080270767, -0.16926908493041992, 0.10604867339134216, -0.09815257787704468, -0.02679402008652687, 0.06979276239871979, -0.05835958942770958, -0.02464931458234787, -0.023371264338493347, 0.013447589240968227, 0.07148876786231995, 0.033439356833696365, 0.09465809911489487, -0.11010852456092834, -0.00963246263563633, -0.191681370139122, 0.12698803842067719, 0.09593280404806137, 0.17490796744823456, -0.14272847771644592, -0.026605188846588135, -0.03657613322138786, -0.12130923569202423, -0.08851134777069092, 0.1439877450466156, -0.11113463342189789, -0.009473811835050583, 0.09483207017183304, 0.06201344355940819, -0.11697413772344589, -0.02351667359471321, -0.1280081421136856, 0.05961393937468529, -0.0631057620048523, 0.12795111536979675, 0.08249743282794952, 0.09578558802604675, -0.06844139844179153, -0.10602927207946777, -0.12112357467412949, 0.06157302483916283, 0.09669928252696991, 0.16928540170192719, -0.2103859782218933, 0.015122829005122185, 0.2606324553489685, -0.21596035361289978, 0.05426589772105217, 0.2647308111190796, -0.0571555495262146, -0.08594696968793869, -0.2642185091972351, 0.1843644380569458, -0.021359067410230637, 0.0877775326371193, -0.13265001773834229, -0.10918402671813965, -0.14168813824653625, 0.2270890325307846, 0.08015568554401398, 0.2257171869277954, -0.05808690935373306, -0.1602412611246109, -0.05333513766527176, 0.02114487811923027, 0.018133385106921196, 0.17472031712532043, -0.06456329673528671, 0.1753261685371399, 0.07516884803771973, -0.10849816352128983, 0.16347908973693848, 0.00782616063952446, 0.0010998038342222571, -0.03255340829491615, 0.1438048630952835, -0.13040569424629211, 0.005824863910675049, 0.14742933213710785, 0.004666812252253294, -0.17270343005657196, -0.15864577889442444, -0.09724608063697815, -0.07936614006757736, 0.07395149767398834, -0.03363047167658806, -0.07779036462306976, -0.03538469597697258, 0.03325766697525978, 0.0490008145570755, 0.058257024735212326, 0.10062401741743088, -0.07249946147203445, -0.08896680176258087, 0.09538312256336212, 0.105497807264328, -0.0013813877012580633, -0.010305137373507023, -0.0556483119726181, -0.09843792021274567, -0.03606349229812622, -0.058173783123493195, -0.1451050043106079, 0.2115553319454193, -0.0702747106552124, 0.03252942115068436, -0.01573777198791504, 0.010807412676513195, -0.10679975152015686, -0.01900777593255043, 0.13047929108142853, 0.0646083801984787, 0.04971993342041969, -0.060496993362903595, 0.0036919640842825174, 0.031539708375930786, -0.003755411831662059, -0.11662890762090683, 0.11800498515367508, 0.020168637856841087, -0.055682260543107986, 0.020258275792002678, -0.1129380539059639, 0.05072114244103432, -0.05020544305443764, 0.03455464541912079, -0.08892327547073364, -0.002934612100943923, -0.06072550639510155, -0.24023793637752533, -0.1973034292459488, 0.1070789247751236, -0.17221520841121674, 0.04613965377211571, 0.0005095105152577162, 0.14214438199996948, -0.10617371648550034, -0.07436781376600266, -0.11812607198953629, 0.13681161403656006, -0.0021653668954968452, -0.0350913368165493, 0.18724362552165985, -0.008688406087458134, -0.07387486845254898, 0.15631891787052155, -0.05239766463637352, 0.09129706770181656, -0.08912758529186249, -0.04895608499646187, -0.0806608647108078, 0.18695183098316193, 0.07661042362451553, 0.17436882853507996, -0.0781797245144844, 0.16031457483768463, -0.11279977858066559, 0.020753318443894386, -0.19904054701328278, 0.2079206258058548, -0.027953945100307465, -0.037173740565776825, -0.022718317806720734, 0.2116454392671585, 0.2181503027677536, 0.05336516350507736, 0.21242965757846832, 0.018316956236958504, -0.14441528916358948, 0.21141685545444489, 0.13308033347129822, -0.17607304453849792, 0.2261355221271515, 0.12010785937309265, -0.0031509625259786844, 0.01317563559859991, 0.07889841496944427, -0.05849923938512802, 0.07699927687644958, -0.09754329174757004, 0.08983083069324493, 0.05547230318188667, 0.10035989433526993, -0.08415140956640244, 0.10514470189809799, -0.13075317442417145, 0.07772523909807205, -0.12604103982448578, -0.17528997361660004, -0.07910498231649399, 0.07977617532014847, 0.03779860958456993, 0.1635681688785553, 0.07632049173116684, -0.09393653273582458, -0.13940311968326569, 0.009408628568053246, -0.11501876264810562, 0.14178821444511414, -0.11186212301254272, -0.034905411303043365, -0.17784170806407928, -0.044068723917007446, 0.07217775285243988, 0.1326656937599182, 0.05452282726764679, 0.14964249730110168, 0.10173098742961884, 0.010783523321151733, 0.02347700484097004, 0.1603909730911255, 0.008613349869847298, 0.09150919318199158, 0.09740983694791794, 0.04653371870517731, -0.08578064292669296, 0.10895344614982605, -0.019267672672867775, -0.06987831741571426, -0.046288780868053436, -0.1209711804986, -0.14145739376544952, 0.1225777268409729, 0.05524294450879097, -0.04398928955197334, -0.05068482831120491, 0.18819279968738556, 0.08517889678478241, -0.0045441375114023685, -0.09556702524423599, 0.1671840250492096, 0.12238019704818726, -0.1318630427122116, 0.08600511401891708, 0.03667685389518738, -0.02905244007706642, 0.03656870499253273, -0.14887957274913788, 0.0066210259683430195, 0.10182062536478043, -0.04506326839327812, -0.0653950423002243, -0.012840485200285912, 0.016290856525301933, -0.07346458733081818, -0.015717187896370888, 0.06957172602415085, 0.05183621495962143, -0.04757986590266228, 0.0749773383140564, 0.03456367179751396, 0.06615321338176727, -0.14931462705135345, 0.06086767092347145, -0.08455395698547363, -0.014683946035802364, -0.006934214849025011, -0.1347576379776001, -0.004601321183145046, 0.16342900693416595, -0.007344391662627459, -0.14129048585891724, -0.0074348836205899715, -0.012366421520709991, -0.1827329844236374, 0.100616954267025, -0.17046380043029785, -0.20504233241081238, -0.10595035552978516, -0.06567414849996567, 0.04183509200811386, -0.0877276137471199, 0.17679323256015778, -0.07417608052492142, 0.07372632622718811, 0.09838397800922394, -0.12829460203647614, 0.07367171347141266, 0.0641588419675827, 0.22086305916309357, 0.0843718945980072, -0.08851466327905655, 0.038901880383491516, -0.005487421061843634, 0.07823984324932098, -0.19202639162540436, -0.049716535955667496, -0.1254522055387497, -0.12595021724700928, 0.026260746642947197, -0.1358635276556015, 0.11424785852432251, 0.0789739117026329, 0.06901304423809052, -0.1265791803598404, -0.10791444778442383, -0.05666634067893028, 0.14134086668491364, 0.14663660526275635, 0.12685926258563995, -0.052362795919179916, 0.07576929777860641, -0.1610712856054306, -0.056082434952259064, 0.05979899317026138, -0.058133188635110855, 0.003923312295228243, -0.10023093223571777, -0.03678937628865242, -0.17532198131084442, 0.0787602961063385, -0.0038322301115840673, 0.03033028356730938, 0.08194911479949951, 0.09228603541851044, -0.07078716903924942, -0.04717002063989639, -0.02550148218870163, -0.050148505717515945, 0.07697364687919617, -0.11570778489112854, 0.07939889281988144, -0.048645250499248505, -0.3846568465232849, 0.04312681406736374, 0.20068563520908356, 0.4688631296157837, -0.20222827792167664, 0.0001380482572130859, -0.29467689990997314, 0.14295771718025208, 0.22567135095596313, -0.43162277340888977, 0.11014647036790848, 0.16476619243621826, -0.3616926074028015, 0.129146009683609, 0.07354754954576492, 0.4492417871952057, -0.11324987560510635, -0.1728658676147461, -0.27573442459106445, 0.14611485600471497, 0.029993053525686264, 0.367277592420578, 0.01720014400780201, -0.12973612546920776, -0.2814837396144867, 0.08188953250646591, 0.20309214293956757, 0.21642138063907623, -0.16470803320407867, -0.19887876510620117, -0.2041834145784378, 0.03789406642317772, 0.12070409953594208, -0.3888377547264099, 0.22851993143558502, 0.25661587715148926, -0.46616432070732117, -0.055090975016355515, 0.0006202597869560122, -0.35014379024505615, 0.030899442732334137, 0.02000458352267742, -0.3899381458759308, 0.10520277917385101, 0.04733460023999214, 0.17192377150058746, -0.14051686227321625, -0.06248248741030693, 0.06324353069067001, 0.2052762508392334, -0.06406766921281815, -0.04829024523496628, -0.1608850657939911, 0.17001177370548248, -0.06470245122909546, -0.02310018241405487, 0.11593636870384216, -0.02661558985710144, 0.137812539935112, -0.04292280972003937, 0.012650687247514725, 0.06258423626422882, 0.05196904391050339, -0.050113826990127563, -0.24008283019065857, -0.0427510030567646, -0.02256666123867035, 0.15217892825603485, -0.13543008267879486, 0.07421297580003738, -0.14152583479881287, 0.010327226482331753, 0.14480547606945038, 0.1407518982887268, 0.052355196326971054, 0.03931103274226189, -0.13527227938175201, -0.04342007637023926, 0.04063129797577858, 0.21785295009613037, -0.09004887193441391, -0.09227695316076279, 0.15385976433753967, 0.1010914146900177, 0.023971494287252426, -0.004733332432806492, -0.16174672544002533, 0.09610360115766525, 0.0973462462425232, -0.10982408374547958, 0.08547986298799515, 0.1523989588022232, 0.06719395518302917, 0.33729973435401917, 0.20291976630687714, 0.15232907235622406, -0.07124372571706772, 0.010874975472688675, 0.1009405329823494, 0.029704643413424492, 0.019519135355949402, 0.053512368351221085, 0.15365688502788544, -0.02879755198955536, -0.04172855243086815, -0.031651560217142105, -0.24982179701328278, 0.2195397913455963, -0.023998001590371132, -0.19897405803203583, 0.1659526228904724, -0.09610795229673386, 0.07794147729873657, -0.108281709253788, 0.019190330058336258, -0.24915331602096558, 0.1923709362745285, -0.09007279574871063, 0.2024191915988922, 0.03422720357775688, 0.12374415248632431, -0.09365038573741913, 0.24580791592597961, -0.023137537762522697, 0.05561646446585655, 0.028654128313064575, 0.06801524013280869, -0.28139472007751465, 0.05518564209342003, -0.05574588105082512, -0.0071668378077447414, 0.06611959636211395, -0.10656961053609848, -0.16369155049324036, 0.17776863276958466, 0.06346357613801956, -0.10317673534154892, 0.10356231778860092, 0.07663602381944656, -0.17404717206954956, 0.03714922443032265, -0.04804844409227371, -0.08680541068315506, 0.13179178535938263, -0.1295427531003952, 0.010931731201708317, 0.017418401315808296, -0.00048446626169607043, -0.13648639619350433, 0.1875024139881134, -0.062018681317567825, 0.16860222816467285, -0.16302873194217682, -0.016086850315332413, 0.12487677484750748, -0.1106027364730835, 0.11938054859638214, -0.07079550623893738, -0.18877774477005005, -0.07596447318792343, -0.013401458971202374, 0.19915588200092316, -0.07271133363246918, 0.08159680664539337, -0.09154745191335678, -0.05064414069056511, 0.05845402553677559, -0.05482201278209686, 0.009721270762383938, 0.14299577474594116, -0.11727239936590195, 0.10598816722631454, -0.08171992003917694, 0.18663395941257477, -0.13014887273311615, 0.017124608159065247, -0.08957530558109283, 0.03803103789687157, 0.07864166051149368, 0.03789924457669258, -0.00036676478339359164, 0.045380692929029465, 0.04705521836876869, -0.02022431790828705, 0.17348574101924896, -0.15247200429439545, -0.0011713691055774689, 0.028078988194465637, -0.005911907646805048, -0.07332929968833923, -0.18144206702709198, -0.2850223183631897, -0.06456371396780014, 0.026932669803500175, 0.10482777655124664, 0.04244362190365791, 0.1113448441028595, 0.02372928149998188, -0.14540863037109375, -0.16299492120742798, 0.21630585193634033, -0.25341200828552246, 0.011680777184665203, 0.13970841467380524, -0.18755283951759338, 0.04110434651374817, -0.0072305635549128056, 0.17885836958885193, -0.07859939336776733, -0.14716656506061554, -0.1279677301645279, 0.09276197850704193, 0.03850579634308815, 0.23770704865455627, 0.0018683422822505236, -0.19374898076057434, -0.24072366952896118, -0.10706274956464767, 0.3035832345485687, 0.08609610050916672, 0.016019804403185844, -0.09852644056081772, -0.03913705423474312, 0.10803348571062088, 0.24329540133476257, -0.22180187702178955, -0.026786554604768753, 0.04368310049176216, -0.22934405505657196, 0.011082038283348083, 0.2567081153392792, -0.25583580136299133, 0.07071937620639801, 0.05054887756705284, -0.16095392405986786, 0.10529356449842453, 0.10141788423061371, -0.018436908721923828, -0.15168720483779907, 0.051635295152664185, 0.07104574143886566, -0.10762718319892883, 0.010202845558524132, -0.1143011674284935, -0.03908495977520943, 0.0413174144923687, 0.12200310081243515, -0.12019512802362442, 0.03446974232792854, 0.1331472098827362, 0.02059946395456791, -0.10591097176074982, 0.003138952422887087, -0.11058981716632843, -0.1375492662191391, -0.021706320345401764, 0.17409972846508026, 0.14171455800533295, 0.06440474092960358, 0.00842121709138155, -0.06434870511293411, 0.0984310582280159, 0.016911396756768227, -0.07299654185771942, 0.05681542679667473, 0.044997066259384155, -0.131987065076828, 0.1161399707198143, 0.12092743068933487, -0.08218709379434586, -0.011682343669235706, 0.05834808945655823, -0.13221289217472076, -0.008600165136158466, -0.007666898425668478, -0.14167732000350952, 0.08710143715143204, -0.005630255211144686, 0.05810229480266571, -0.08272697031497955, 0.06771258264780045, -0.11191726475954056, 0.15273207426071167, -0.20480267703533173, -0.14561143517494202, -0.04834548756480217, -0.1421625316143036, -0.1997143030166626, -0.05168415233492851, -0.17259714007377625, -0.07701389491558075, -0.0771392360329628, 0.07963798195123672, 0.0023731200490146875, -0.00041446374962106347, 0.01548068132251501, 0.13993771374225616, 0.05551031604409218, -0.1486901193857193, 0.005728046875447035, -0.02637958712875843, -0.05771258473396301, -0.13447606563568115, 0.02306273579597473, 0.3413552939891815, -0.39803123474121094, 0.6480121612548828, -0.6838606595993042, 0.09937548637390137, 0.8526569604873657, 0.9085656404495239, -0.5475314855575562, 0.15632471442222595, 0.1306193321943283, -0.572304904460907, -0.31955453753471375, 0.18927815556526184, -0.6502905488014221, 0.05062669888138771, 0.4674420654773712, -0.05323481559753418, 0.28241029381752014, 0.0007580044330097735, 0.16382402181625366, 0.10264026373624802, -0.26575610041618347, 0.09102898836135864, 0.15744136273860931, -0.05620719864964485, -0.1090846061706543, 0.19002868235111237, -0.07998630404472351, 0.0687246024608612, 0.15174439549446106, 0.2763589322566986, -0.20287343859672546, 0.17880629003047943, -0.04097640514373779, -0.45748171210289, 0.25178763270378113, 0.3316647410392761, -0.032826054841279984, -0.3609650135040283, -0.025817500427365303, -0.2290496528148651, 0.02984529919922352, -0.08410188555717468, 0.2613712549209595, -0.22083939611911774, 0.06722500175237656, -0.07111246883869171, 0.10206824541091919, 0.27112868428230286, 0.26559072732925415, -0.2186373621225357, 0.41568684577941895, 0.13445499539375305, -0.33616554737091064, -0.1461726278066635, 0.1947517842054367, -0.26015704870224, -0.38120099902153015, -0.06324997544288635, 0.06610487401485443, -0.1131930872797966, 0.5187909603118896, -0.16004018485546112, -0.24305054545402527, 0.07565165311098099, -0.0656987726688385, 0.01348880771547556, -0.15873056650161743, -0.048027314245700836, 0.0622497983276844, 0.06779558956623077, -0.02964397706091404, -0.210343599319458, 0.06595388799905777, -0.06950206309556961, -0.03004830703139305, 0.24421651661396027, 0.19166342914104462, -0.1674949675798416, 0.024211915209889412, -0.1688300520181656, -0.34817641973495483, -0.11214333772659302, 0.08810821920633316, 0.10267943143844604, 0.23642826080322266, 0.23018349707126617, -0.11780320107936859, 0.1721624732017517, 0.322689950466156, -0.17901957035064697, 0.10845998674631119, 0.10354337096214294, 0.02319629304111004, -0.016947690397500992, 0.18238723278045654, -0.20391727983951569, -0.15026718378067017, 0.02253103442490101, 0.0029050151351839304, 0.2753354012966156, 0.3807865083217621, 0.18749970197677612, -0.06383144110441208, 0.19050106406211853, 0.07383839040994644, -0.28099682927131653, -0.07883662730455399, -0.0759156122803688, -0.1967419683933258, 0.007271678186953068, 0.22026881575584412, 0.16865000128746033, 0.22180584073066711, 0.19896122813224792, 0.20852087438106537, -0.27639278769493103, -0.40535256266593933, -0.02144767716526985, 0.24803116917610168, -0.0035685484763234854, -0.4250071346759796, 0.009646312333643436, 0.22006820142269135, 0.12554872035980225, -0.04546751454472542, 0.18575003743171692, -0.3886550962924957, 0.12523706257343292, -0.0033623860217630863, 0.3536348342895508, -0.26036158204078674, -0.4224172532558441, 0.1523188352584839, 0.32071834802627563, 0.028365958482027054, 0.2484610676765442, -0.12336239963769913, 0.3730922043323517, -0.3044242560863495, 0.1846853643655777, -0.23533125221729279, 0.08323044329881668, 0.12946218252182007, 0.05035928264260292, 0.2172560840845108, -0.4929066300392151, -0.03635156527161598, 0.46789678931236267, -0.2718384265899658, -0.4162784516811371, 0.09667155891656876, -0.4169255495071411, -0.43437397480010986, -0.32520535588264465, 0.4044959247112274, -0.2433520406484604, 0.1093430146574974, -0.4147317111492157, -0.19249115884304047, -0.3836236000061035, -0.14191484451293945, 0.45549285411834717, -0.4719257652759552, -0.5377768874168396, 0.1532454490661621, 0.4222182333469391, -0.3722657561302185, 0.2792019844055176, 0.4112195074558258, 0.34436219930648804, -0.1267162561416626, 0.4617716073989868, -0.1251424103975296, 0.13546952605247498, 0.2191966474056244, 0.11313916742801666, 0.31028178334236145, -0.3224923014640808, 0.1806737184524536, 0.027865281328558922, -0.19654372334480286, -0.0169388335198164, -0.049713168293237686, -0.09047671407461166, -0.1975879967212677, -0.229583740234375, 0.02089281752705574, -0.1513502299785614, 0.23528733849525452, -0.09873979538679123, 0.21876227855682373, 0.18505115807056427, 0.03755832463502884, 0.12942637503147125, 0.1290128380060196, -0.05129467323422432, -0.1970960646867752, -0.14131934940814972, 0.32004794478416443, -0.10843934118747711, -0.3282665014266968, 0.20654667913913727, -0.03486242890357971, -0.12473131716251373, 0.3312554955482483, -0.0730869397521019, -0.3045245110988617, -0.06434668600559235, 0.005372851621359587, 0.007276544813066721, 0.054895371198654175, 0.15647850930690765, -0.24376316368579865, -0.04209975525736809, 0.13440197706222534, 0.19536936283111572, -0.06896131485700607, -0.19780659675598145, 0.09596159309148788, 0.12280304729938507, -0.09810100495815277, -0.190799281001091, 0.014938983134925365, 0.08682770282030106, -0.10836997628211975, -0.21358869969844818, 0.23043937981128693, 0.013632410205900669, 0.13413715362548828, 0.10063716769218445, 0.003967854660004377, -0.1251441091299057, -0.16076330840587616, -0.08768436312675476, 0.06274615973234177, -0.2742652893066406, 0.06472239643335342, -0.211665078997612, 0.11131753027439117, -0.01698736473917961, 0.25553807616233826, -0.09871987998485565, -0.10101160407066345, 0.1907735913991928, 0.11897607147693634, 0.07281259447336197, 0.10978465527296066, -0.3143496513366699, 0.09114928543567657, -0.1470351219177246, -0.09564907103776932, 0.052896805107593536, 0.20772448182106018, -0.2550346851348877, 0.00972757302224636, 0.20098444819450378, 0.20929399132728577, 0.13583125174045563, 0.053417548537254333, -0.11188986897468567, 0.11933036893606186, -0.0018948951037600636, 0.15228481590747833, -0.20604348182678223, -0.2790001928806305, -0.09800528734922409, -0.128120556473732, 0.01259327121078968, 0.2706770598888397, -0.005801564548164606, -0.12699821591377258, 0.10825922340154648, -0.14152298867702484, 0.2632731795310974, -0.26817283034324646, -0.1524689495563507, 0.01744692772626877, 0.1177508682012558, 0.08081485331058502, 0.12361451983451843, -0.12881934642791748, 0.023595862090587616, -0.035075683146715164, 0.08074775338172913, 0.08452699333429337, 0.016590764746069908, -0.08331212401390076, 0.11383707821369171, -0.1213328018784523, 0.1407148391008377, 0.0619497075676918, -0.17771507799625397, 0.14535489678382874, -0.15256370604038239, -0.114071786403656, 0.15988461673259735, -0.28912606835365295, -0.05822405591607094, 0.017138618975877762, -0.08641665428876877, 0.1201489046216011, -0.04548919200897217, 0.23916399478912354, 0.08001475781202316, -0.05225658789277077, -0.1818971186876297, -0.25525227189064026, 0.1269223690032959, 0.09329098463058472, -0.013455859385430813, -0.29841387271881104, -0.10885623097419739, -0.016993338242173195, 0.034734323620796204, -0.1009405180811882, 0.08086103200912476, -0.2911662459373474, -0.2124178260564804, -0.132570281624794, 0.14390304684638977, -0.24165818095207214, -0.23218990862369537, 0.15573149919509888, -0.21441519260406494, 0.04877135157585144, 0.10926375538110733, -0.10347433388233185, 0.06439732760190964, 0.05949868634343147, -0.24960409104824066, 0.039477963000535965, 0.09040822088718414, 0.005935226567089558, -0.24493274092674255, -0.03253064677119255, 0.26992204785346985, -0.09928152710199356, 0.09051112085580826, -0.24727654457092285, 0.07059940695762634, 0.15429620444774628, -0.14253166317939758, -0.1077745258808136, 0.13719604909420013, -0.24885866045951843, -0.05548424273729324, -0.12482710927724838, -0.050414662808179855, -0.038704026490449905, 0.00656488910317421, -0.10135997831821442, -0.016916688531637192, -0.08516791462898254, 0.07308739423751831, -0.24964331090450287, -0.038470808416604996, 0.20585580170154572, -0.05816636607050896, -0.037141572684049606, -0.19700632989406586, 0.035519734025001526, 0.060241151601076126, 0.18464119732379913, 0.019135138019919395, -0.1897938847541809, -0.016786707565188408, 0.03365219011902809, 0.04679444432258606, -0.13721349835395813, -0.1100124716758728, 0.19417697191238403, -0.12844593822956085, -0.10691556334495544, 0.050720926374197006, -0.08266843855381012, 0.07437609136104584, 0.05387662351131439, -0.2079230546951294, -0.05035514757037163, 0.052042607218027115, -0.11299368739128113, 0.07956637442111969, -0.0894823968410492, -0.046544671058654785, -0.32285815477371216, 0.12271169573068619, 0.1809072047472, 0.17557568848133087, -0.2108088731765747, 0.10983192920684814, -0.10283203423023224, 0.06739676743745804, 0.11194655299186707, -0.12901192903518677, -0.15241692960262299, 0.11134020984172821, 0.07578222453594208, -0.06266512721776962, -0.04037194699048996, 0.2319357693195343, 0.11320623010396957, 0.2538921535015106, -0.2507629990577698, 0.0353715680539608, -0.19724611937999725, 0.017051661387085915, 0.20203809440135956, 0.10206733644008636, -0.1420052945613861, -0.0982719138264656, -0.1926111876964569, 0.15802007913589478, -0.06611455976963043, -0.005531880538910627, -0.2337261140346527, 0.047832097858190536, 0.13842087984085083, -0.18751181662082672, 0.04341417923569679, 0.23850387334823608, -0.12027857452630997, -0.029829444363713264, 0.11902711540460587, -0.033356208354234695, 0.056549765169620514, 0.06502643972635269, 0.0766141340136528, 0.02182300016283989, -0.04386063292622566, 0.07189266383647919, 0.12828445434570312, -0.18051230907440186, -0.3328627049922943, 0.07270675897598267, -0.0594995953142643, 0.10339827835559845, -0.16630229353904724, 0.234200119972229, -0.15627102553844452, -0.335957407951355, 0.33866098523139954, 0.16692028939723969, -0.14490748941898346, 0.08484437316656113, 0.10052631050348282, 0.15846464037895203, -0.24890227615833282, 0.1233016848564148, 0.1506485790014267, 0.10827751457691193, 0.017520228400826454, -0.13674503564834595, -0.342401921749115, 0.011532940901815891, 0.2282225638628006, 0.24253331124782562, -0.1644647717475891, -0.16695280373096466, 0.00903593935072422, -0.12909190356731415, 0.23237797617912292, 0.3074955642223358, -0.08924853056669235, -0.15717822313308716, 0.22141173481941223, 0.05323932319879532, -0.04640145227313042, 0.26218342781066895, 0.09832428395748138, -0.21099455654621124, 0.20219852030277252, -0.18729513883590698, -0.2911117970943451, 0.16292031109333038, -0.010990348644554615, -0.10032512992620468, 0.11251399666070938, 0.04046213626861572, -0.08478990942239761, -0.1416751742362976, -0.23550991714000702, 0.22836023569107056, 0.028748296201229095, 0.32228225469589233, -0.10309004038572311, -0.04283299669623375, -0.04705667495727539, -0.04581424221396446, 0.11043449491262436, 0.1326264888048172, 0.208759143948555, 0.010156931355595589, -0.05264972895383835, -0.296922504901886, -0.20144429802894592, 0.030952855944633484, -0.21927201747894287, 0.12313775718212128, -0.20675353705883026, 0.12844935059547424, -0.015409882180392742, 0.10795280337333679, 0.19029845297336578, 0.061653684824705124, 0.07182706147432327, -0.1953967660665512, -0.05287208408117294, -0.1054147407412529, 0.1540326327085495, 0.16714027523994446, -0.05006393790245056, 0.009181786328554153, -0.0458998903632164, 0.13285024464130402, 0.19228041172027588, -0.14619792997837067, -0.41458943486213684, -0.007591163273900747, -0.05710059031844139, -0.12571974098682404, -0.1558980494737625, -0.015307341702282429, -0.148277148604393, -0.32267579436302185, 0.231007918715477, 0.22188958525657654, 0.14075139164924622, -0.11943606287240982, 0.09204012155532837, -0.10046642273664474, -0.0038057968486100435, -0.03158129006624222, 0.18173719942569733, -0.15649297833442688, -0.13321608304977417, 0.07475632429122925, -0.17129498720169067, 0.07198292762041092, 0.08377428352832794, -0.08838585019111633, 0.1493453085422516, 0.10742907971143723, 0.22534391283988953, 0.03272758051753044, -0.014512776397168636, -0.10254687070846558, -0.3252304792404175, -0.16379624605178833, 0.16658948361873627, 0.01301741972565651, 0.04270539432764053, 0.12510992586612701, 0.0022147037088871002, 0.06577678769826889, 0.11114256829023361, 0.032339006662368774, -0.18423137068748474, 0.015334222465753555, -0.05648693069815636, 0.13312162458896637, 0.11682488024234772, -0.14110895991325378, 0.16030125319957733, -0.15440820157527924, 0.058300986886024475, 0.07899639755487442, -0.07969463616609573, -0.19357416033744812, 0.22018320858478546, -0.1866532564163208, -0.033421363681554794, -0.0960468277335167, -0.08245217800140381, -0.10420944541692734, 0.053193382918834686, 0.11840546876192093, 0.17791202664375305, -0.07600373029708862, -0.029230862855911255, 0.3116060793399811, -0.02345253899693489, 0.04039480909705162, 0.0548141710460186, 0.014746438711881638, 0.17214833199977875, -0.00781940296292305, -0.12032578140497208, -0.04393163323402405, -0.04073496535420418, 0.08580581098794937, 0.06601982563734055, -0.036266352981328964, 0.24583622813224792, 0.214591845870018, 0.08260109275579453, 0.03385942056775093, -0.07528001815080643, -0.007119921036064625, 0.11115216463804245, 0.008232404477894306, 0.05857807770371437, -0.1666054129600525, 0.08040673285722733, -0.09551261365413666, 0.10219711065292358, 0.12945900857448578, 0.058039527386426926, -0.04275279492139816, -0.04919840767979622, 0.12776516377925873, -0.14484216272830963, 0.2124200463294983, 0.13575704395771027, -0.002781548537313938, -0.029256274923682213, 0.12692895531654358, -0.2541121244430542, -0.09058088064193726, 0.07067657262086868, -0.04832296445965767, -0.0520615316927433, 0.09975780546665192, -0.05711985379457474, -0.28480327129364014, -0.12382739782333374, 0.14592593908309937, 0.25634023547172546, -0.06117241457104683, 0.0336395762860775, -0.12549813091754913, -0.13599500060081482, 0.17208492755889893, -0.11548316478729248, -0.15608420968055725, -0.09854193031787872, -0.042765259742736816, -0.03278270363807678, -0.27149060368537903, 0.2008504718542099, 0.14140287041664124, -0.01721370778977871, 0.009626033715903759, -0.1641821712255478, 0.09431787580251694, 0.0023118185345083475, 0.054264530539512634, -0.07422908395528793, 0.09388583898544312, -0.2054663598537445, 0.20690613985061646, 0.05085652321577072, 0.18888257443904877, -0.12992680072784424, 0.11799944192171097, -0.24174295365810394, 0.03665352240204811, -0.026396598666906357, -0.22104156017303467, 0.07610153406858444, -0.06453660875558853, -0.07975897192955017, 0.02636054903268814, -0.05035370960831642, -0.029620232060551643, -0.015834378078579903, 0.12759947776794434, -0.0037170415744185448, 0.1534392535686493, -0.012883796356618404, -0.07704083621501923, 0.08844020217657089, 0.14510829746723175, 0.3743884861469269, -0.42937910556793213, -0.10456680506467819, -0.2895514965057373, 0.20099106431007385, 0.077839195728302, 0.09079959988594055, 0.11900828033685684, 0.0012665174435824156, -0.03647071495652199, -0.1955498903989792, 0.013658000156283379, -0.053505100309848785, 0.04347235709428787, -0.022458970546722412, 0.07026427984237671, 0.04873766005039215, 0.0679275244474411, 0.1446966677904129, 0.034174200147390366, -0.05521731078624725, -0.011954556219279766, 0.031445883214473724, -0.015731284394860268, -0.14511770009994507, 0.2965313792228699, -0.003629316808655858, 0.16411982476711273, -0.21028642356395721, 0.0008879820234142244, -0.06694024801254272, -0.035551462322473526, -0.08006144315004349, -0.0610598661005497, 0.10929878056049347, -0.1704401820898056, 0.13887952268123627, -0.009969973936676979, -0.12261828780174255, -0.12524192035198212, -0.09010230749845505, -0.12262685596942902, -0.20945453643798828, 0.09979865700006485, -0.07857877016067505, -0.08140384405851364, -0.12748467922210693, -0.0697178840637207, -0.017459148541092873, -0.07369855046272278, 0.017009368166327477, 0.006595529615879059, 0.2920238673686981, -0.2736205756664276, -0.13223008811473846, -0.0018161957850679755, -0.030285097658634186, 0.2067444622516632, 0.05527496337890625, 0.16133667528629303, 0.11880496889352798, -0.07970618456602097, -0.02745126187801361, -0.0006930116796866059, -0.019859107211232185, -0.050360728055238724, -0.12382517755031586, 0.11218513548374176, 0.006811666768044233, 0.15837091207504272, 0.06674565374851227, -0.08014361560344696, -0.018215959891676903, 0.07367637753486633, -0.036011211574077606, 0.04731515049934387, -0.03315987437963486, -0.17057763040065765, -0.08987701684236526, 0.17250986397266388, -0.02236790582537651, -0.08623252063989639, 0.11988852918148041, -0.2570061683654785, -0.17900896072387695, -0.13998736441135406, -0.23003524541854858, -0.09872224181890488, 0.015568618662655354, -0.17342494428157806, -0.27620068192481995, 0.010559707880020142, -0.01961197331547737, -0.00017791660502552986, 0.00548183498904109, 0.08463795483112335, 0.1081293374300003, -0.09190264344215393, -0.37552499771118164, 0.037693172693252563, -0.29201751947402954, -0.02627754956483841, 0.100178062915802, 0.0022153700701892376, -0.015520145185291767, 0.09551303833723068, 0.07290826737880707, 0.025689011439681053, 0.008886766619980335, 0.06404876708984375, -0.06631540507078171, -0.12264706939458847, 0.06554163247346878, -0.03884001821279526, 0.15045593678951263, 0.012295838445425034, 0.007325492333620787, -0.06997125595808029, 0.11448770016431808, -0.19267652928829193, 0.04888138547539711, 0.011232924647629261, 0.10895734280347824, -0.20616672933101654, 0.06733813136816025, 0.05756833776831627, 0.07463321089744568, -0.15399987995624542, 0.09029876440763474, 0.1719561666250229, -0.15738119184970856, 0.1600642204284668, 0.1602093130350113, 0.06327977031469345, -0.02806859463453293, -0.005908908788114786, 0.0047609093599021435, -0.05551862344145775, 0.09965734928846359, -0.0823422223329544, -0.08885588496923447, -0.1740177869796753, -0.16046690940856934, -0.07920172065496445, -0.21214407682418823, 0.04476068168878555, 0.13919417560100555, 0.1920030117034912, 0.08592423051595688, -0.2329443246126175, -0.058049432933330536, 0.2807793617248535, 0.0318380668759346, -0.014533545821905136, 0.13220512866973877, -0.014904680661857128, 0.16514882445335388, -0.3044619858264923, 0.06043000519275665, 0.2835988402366638, -0.22817298769950867, -0.12509740889072418, -0.27445492148399353, 0.2579110860824585, 0.1812436580657959, 0.21911394596099854, -0.14800845086574554, 0.04350985586643219, -0.20528870820999146, 0.07681234925985336, -0.09023487567901611, 0.20207053422927856, -0.14542117714881897, -0.14227230846881866, -0.07406552135944366, 0.15120919048786163, -0.07875894010066986, -0.04497373476624489, 0.24739716947078705, -0.2453237920999527, -0.34197568893432617, 0.14681175351142883, 0.032605450600385666, -0.08405478298664093, -0.018310170620679855, -0.07774247974157333, -0.06866391003131866, -0.08126557618379593, 0.03939887881278992, 0.06282558292150497, 0.35849812626838684, -0.12290716171264648, 0.14560402929782867, 0.05776572972536087, 0.089030422270298, 0.01419044565409422, -0.1425108015537262, 0.05864235758781433, 0.14818203449249268, -0.09448626637458801, 0.04869917780160904, 0.12125556915998459, -0.0014952484052628279, 0.210602805018425, -0.0006522902403958142, 0.035505250096321106, -0.08909429609775543, -0.22963877022266388, 0.15083013474941254, -0.1169201135635376, -0.12284974753856659, -0.1429831087589264, -0.10883469134569168, -0.1542760133743286, 0.08820704370737076, -0.1271754950284958, 0.06184662878513336, 0.02090158872306347, 0.001830955734476447, 0.021952154114842415, -0.03470572829246521, 0.09740971028804779, 0.19434651732444763, 0.011215719394385815, 0.13006336987018585, -0.0804792270064354, -0.06846968829631805, 0.06720741838216782, -0.03929956629872322, 0.08216618746519089, -0.010460728779435158, -0.014423533342778683, -0.15184283256530762, 0.0800100564956665, -0.05695551261305809, -0.04415006563067436, 0.03293721005320549, 0.08659736067056656, -0.06881757825613022, -0.10862112790346146, -0.1557142287492752, 0.035368017852306366, 0.115574412047863, -0.08195484429597855, 0.01346743106842041, 0.10625381022691727, -0.20553778111934662, 0.10039912164211273, -0.10374505817890167, -0.015494500286877155, 0.04432648420333862, -0.06154921278357506, 0.27506116032600403, 0.08999498933553696, -0.0730341449379921, 0.2069946676492691, -0.14702008664608002, 0.0072410861030220985, -0.034766197204589844, 0.10170305520296097, 0.07217205315828323, 0.1152723953127861, -0.08859153091907501, 0.07125087827444077, -0.18175409734249115, 0.16281834244728088, 0.030807550996541977, 0.0035037174820899963, 0.052129004150629044, 0.01189878024160862, -0.09065896272659302, -0.015960557386279106, 0.014152837917208672, -0.08790389448404312, 0.02553281933069229, -0.186708465218544, -0.011254987679421902, 0.04150823876261711, 0.13460834324359894, 0.07920034974813461, 0.0033063646405935287, -0.02093355730175972, -0.09925035387277603, -0.12053152173757553, -0.09957940876483917, -0.31090569496154785, -0.006619704887270927, 0.20034004747867584, 0.13887539505958557, -0.16285160183906555, 0.038029324263334274, 0.475543349981308, -0.34990063309669495, -0.06730927526950836, 0.49869897961616516, -0.2305249720811844, -0.09018000960350037, 0.017291124910116196, -0.04998883605003357, -0.14544741809368134, -0.16820725798606873, 0.21430964767932892, 0.1392499953508377, -0.2681303024291992, 0.14347383379936218, 0.1285773515701294, 0.42141303420066833, 0.002618186641484499, 0.1693982481956482, -0.3125413954257965, 0.2291407734155655, -0.017731424421072006, 0.2966538667678833, -0.3487761616706848, -0.017853738740086555, -0.5075475573539734, 0.4352554678916931, -0.09242701530456543, 0.3980131447315216, -0.17691117525100708, 0.011882955208420753, 0.3167112171649933, -0.25406989455223083, -0.08577139675617218, 0.25067636370658875, -0.03392095863819122, -0.1822841912508011, 0.22687968611717224, -0.2799091339111328, -0.2992916703224182, 0.21503828465938568, -0.3985709846019745, 0.21163621544837952, 0.27755942940711975, -0.06618550419807434, -0.15260793268680573, 0.01600920408964157, -0.1551792323589325, -0.03424544259905815, -0.07504761219024658, 0.2949996590614319, -0.10420641303062439, -0.021671174094080925, 0.17848894000053406, 0.013338879682123661, 0.14497755467891693, -0.0036290299613028765, -0.03488016873598099, 0.14788804948329926, 0.022368524223566055, 0.006688190624117851, -0.07586227357387543, -0.10173966735601425, -0.11327264457941055, -0.08834316581487656, -0.2721463143825531, 0.18880824744701385, -0.06653142720460892, -0.26743441820144653, -0.20832234621047974, -0.1351853609085083, 0.15985620021820068, 0.00358725618571043, 0.21226397156715393, -0.03638583794236183, -0.1128905788064003, 0.01597396470606327, 0.036022644490003586, -0.1358543038368225, -0.0659584328532219, 0.15678729116916656, -0.26595038175582886, -0.15183411538600922, 0.05763921141624451, -0.061952389776706696, 0.06797333806753159, 0.039450328797101974, -0.11534550786018372, -0.1513025462627411, 0.09642297029495239, -0.0677826926112175, 0.06455699354410172, 0.24334394931793213, 0.15928378701210022, 0.10009871423244476, 0.043407637625932693, 0.0644746944308281, -0.27334198355674744, 0.09316416829824448, 0.16213302314281464, 0.18372026085853577, -0.0024752214085310698, -0.16259825229644775, 0.0032400430645793676, -0.05703717842698097, 0.04548725485801697, 0.08587136119604111, 0.10675055533647537, -0.16152691841125488, -0.514196515083313, 0.3332672715187073, 0.28895026445388794, -0.5016728043556213, 0.08282468467950821, -0.7893359661102295, -0.05764181539416313, -0.4097725450992584, 1.1486579179763794, -0.8323866128921509, -0.72820645570755, -1.076377034187317, 0.11916393786668777, -0.8268049359321594, 0.3779299557209015, -0.7275902032852173, -0.2956237196922302, -0.3334229588508606, 0.524728000164032, 0.4431757628917694, 0.38340991735458374, -0.37516140937805176, -0.047384295612573624, 0.21235020458698273, -0.14873075485229492, -0.20001932978630066, -0.01782173290848732, 0.34500887989997864, 0.15631814301013947, -0.010182938538491726, -0.719740629196167, -0.2237020879983902, 0.3001231849193573, 0.02662951871752739, -0.22630678117275238, -0.06556853652000427, -0.25132545828819275, 0.34545713663101196, -0.25947579741477966, 0.02392948977649212, 0.15822447836399078, 0.007387885358184576, -0.1344890296459198, 0.1362801045179367, -0.2140684872865677, 0.1855747401714325, 0.5266364812850952, 0.35183656215667725, 0.11680559813976288, -0.14985543489456177, -0.07744485884904861, 0.19856064021587372, -0.07118717581033707, 0.19295433163642883, -0.07297259569168091, 0.10554064810276031, -0.1295032799243927, 0.12004484981298447, -0.13016033172607422, -0.2796710729598999, -0.04349479824304581, 0.1292329728603363, 0.21986475586891174, 0.08900309354066849, 0.31211593747138977, 0.1560390591621399, -0.23499631881713867, -0.37936919927597046, -0.3376670777797699, 0.1385517120361328, -0.168098583817482, 0.11275948584079742, 0.05284551531076431, 0.1803111881017685, -0.0668577253818512, 0.262905091047287, 0.04696253314614296, 0.03145743906497955, 0.2554969787597656, 0.16990233957767487, 0.16484478116035461, 0.031669165939092636, -0.029895657673478127, -0.22617454826831818, 0.15647020936012268, -0.0639849305152893, -0.1215820461511612, 0.23365755379199982, 0.35993289947509766, -0.030415911227464676, -0.3600631654262543, 0.34006452560424805, -0.07466929405927658, -0.052135489881038666, -0.07667925208806992, -0.16360032558441162, -0.23710320889949799, -0.07647740840911865, -0.26443684101104736, -0.08011356741189957, 0.04807073995471001, -0.11519965529441833, -0.10240896046161652, -0.13048146665096283, 0.19837616384029388, 0.07778322696685791, -0.06697488576173782, -0.13278315961360931, -0.07685744762420654, -0.10344018787145615, -0.05401591956615448, 0.04288920387625694, 0.361885130405426, 0.04115369915962219, -0.05435377359390259, -0.2785789966583252, 0.022088423371315002, 0.3538600206375122, -0.3245644271373749, -0.017769964411854744, 0.08837006241083145, 0.028055865317583084, -0.1591988205909729, 0.218344584107399, -0.09770713746547699, 0.11406435817480087, 0.14327576756477356, 0.2519764304161072, 0.06071237474679947, 0.035913705825805664, -0.055643849074840546, 0.17007265985012054, 0.06270860135555267, -0.06312642991542816, -0.0985320508480072, -0.019785482436418533, -0.07186155021190643, 0.29268917441368103, -0.2200317233800888, 0.05832826718688011, -0.03246866911649704, 0.11717298626899719, 0.04825364798307419, 0.07551272958517075, -0.09235478192567825, -0.1676492691040039, -0.24461162090301514, 0.17956635355949402, -0.18296028673648834, -0.23863808810710907, 0.09662051498889923, -0.46023741364479065, -0.3806765377521515, -0.20339669287204742, 0.8074609041213989, -0.5144819617271423, 0.2368498146533966, 0.05314616486430168, -0.1626766175031662, 0.2853552997112274, -0.20271781086921692, 0.08925587683916092, -0.07171875983476639, 0.029050501063466072, 0.14376847445964813, -0.20076416432857513, 0.2595239281654358, -0.02833511307835579, -0.01917809620499611, -0.1078224629163742, 0.18124541640281677, 0.26251280307769775, 0.10454145073890686, -0.06877630949020386, -0.06938322633504868, -0.23820659518241882, -0.03482485190033913, -0.061795275658369064, -0.1038612499833107, 0.13974560797214508, -0.08553139865398407, -0.11702326685190201, -0.00824105553328991, 0.11571142077445984, 0.2502703368663788, 0.244427889585495, -0.23002102971076965, 0.12476363033056259, -0.023914581164717674, 0.048887573182582855, 0.1286550760269165, 0.09548579156398773, 0.224881112575531, 0.33852100372314453, -0.2819620370864868, -0.20800787210464478, -0.21777836978435516, -0.005219831131398678, 0.08730676770210266, 0.26192718744277954, -0.33048951625823975, 0.20905464887619019, 0.30672410130500793, -0.09331103414297104, -0.07428541779518127, -0.08476836234331131, 0.24366465210914612, -0.04218295216560364, -0.14148390293121338, -0.34842294454574585, -0.1458890289068222, 0.39217162132263184, 0.05077335983514786, -0.09011012315750122, -0.11656904965639114, 0.11724448949098587, -0.13140682876110077, -0.14549800753593445, -0.07619758695363998, -0.2627396285533905, 0.28382888436317444, -0.24634025990962982, -0.2760208249092102, -0.00570240244269371, 0.030933594331145287, -0.14386776089668274, -0.17470553517341614, 0.3909754753112793, -0.06217591464519501, -0.017275918275117874, 0.011696182191371918, -0.1687431037425995, -0.030141036957502365, 0.11027543991804123, 0.13015532493591309, -0.24001795053482056, 0.1951235830783844, -0.000277064653346315, 0.33286744356155396, -0.01570259965956211, 0.20536278188228607, 0.11108620464801788, 0.13492584228515625, 0.07259175926446915, -0.238662451505661, -0.0659249871969223, -0.030589498579502106, 0.1989440768957138, -0.008055360056459904, 0.19323602318763733, -0.29269734025001526, -0.11803457885980606, -0.14290541410446167, 0.33530399203300476, 0.49112826585769653, 0.20550188422203064, 0.3580341339111328, -0.23232275247573853, -0.08080697804689407, 0.14334486424922943, -0.3406626582145691, 0.18822471797466278, -0.28784263134002686, 0.11699406802654266, 0.2538125216960907, 0.008910402655601501, 0.07372172176837921, -0.05895762890577316, -0.1678636074066162, 0.21427109837532043, -0.005477236583828926, 0.08471733331680298, -0.1733328104019165, 0.01542691420763731, 0.045425835996866226, -0.1311800479888916, -0.20204658806324005, 0.09149966388940811, 0.15893109142780304, 0.34724152088165283, 0.13754020631313324, 0.07877583056688309, 0.020301511511206627, -0.22399261593818665, 0.04891569912433624, -0.296234667301178, -0.20009435713291168, -0.14268183708190918, -0.17729133367538452, 0.07474195212125778, -0.09166747331619263, 0.023979319259524345, -0.19285021722316742, 0.02609867975115776, -0.0905136689543724, -0.08911886066198349, 0.08854429423809052, 0.09438683092594147, -0.288234680891037, -0.06017912179231644, 0.16784027218818665, -0.0018082773312926292, -0.16490812599658966, 0.15718692541122437, 0.1853862702846527, -0.14328809082508087, -0.002305087633430958, -0.13552503287792206, 0.044211819767951965, 0.10398510843515396, 0.13155826926231384, -0.23396600782871246, -0.1685459315776825, 0.07321955263614655, 0.15310963988304138, 0.11917930096387863, 0.11679430305957794, -0.137306347489357, -0.21600161492824554, -0.023663202300667763, 0.037940096110105515, -0.040089551359415054, -0.10602062195539474, 0.20196907222270966, -0.084896020591259, -0.04762157052755356, 0.1373114138841629, -0.15081395208835602, 0.09666836261749268, 0.09057614207267761, 0.09151654690504074, 0.020554065704345703, 0.023240478709340096, 0.15636155009269714, -0.11861313879489899, 0.14060957729816437, 0.2988876700401306, 0.07538580149412155, 0.25353097915649414, -0.4304307699203491, 0.07893238961696625, -0.1808120161294937, 0.09209397435188293, 0.233099564909935, 0.008733837865293026, 0.12597903609275818, 0.040380481630563736, 0.04527717083692551, 0.09246612340211868, -0.2246202826499939, 0.1333630234003067, -0.08932057023048401, -0.058788690716028214, -0.09092047065496445, 0.0667349249124527, -0.12162784487009048, 0.3382781147956848, -0.08426691591739655, -0.1376112848520279, -0.0025262455455958843, -0.007959585636854172, 0.11867418885231018, -0.27400365471839905, 0.3311688303947449, 0.1065467894077301, 0.13121619820594788, 0.1705055832862854, 0.12857508659362793, 0.08225966989994049, 0.1048976331949234, 0.17008624970912933, 0.08684439957141876, -0.009129240177571774, 0.18947678804397583, -0.2242024689912796, -0.0421111099421978, 0.1408475637435913, -0.20196865499019623, -0.4093386232852936, 0.03877320513129234, -0.1044963151216507, -0.282853901386261, -0.18036867678165436, -0.09239400178194046, 0.051902588456869125, -0.14339704811573029, -0.016101449728012085, -0.05793796852231026, 0.0281786248087883, -0.162284716963768, -0.013653277419507504, 0.03433675691485405, 0.12918351590633392, -0.2319565713405609, 0.040248628705739975, 0.10606760531663895, -0.16709871590137482, -0.17354096472263336, -0.03401099145412445, 0.17900869250297546, -0.06712187826633453, -0.0973113551735878, -0.09575292468070984, 0.1836366355419159, 0.027413668110966682, 0.06865333765745163, 0.16862095892429352, 0.009985304437577724, 0.09811996668577194, -0.10537956655025482, 0.0597086027264595, 0.24674087762832642, 0.03803755342960358, -0.12484624236822128, -0.45871543884277344, 0.15419167280197144, -0.06176196411252022, -0.10841484367847443, 0.08502257615327835, 0.0844234973192215, 0.1414821743965149, -0.0774664655327797, 0.16494296491146088, 0.028605692088603973, 0.08941996842622757, 0.1535664051771164, -0.0764731839299202, 0.04055026173591614, -0.10586309432983398, -0.2127208709716797, 0.07304070144891739, 0.1663985401391983, 0.18902799487113953, -0.23780368268489838, 0.12130865454673767, -0.003730512224137783, 0.09869662672281265, -0.03358321636915207, 0.15458416938781738, 0.19222821295261383, -0.2459469586610794, 0.2542085349559784, 0.3262147903442383, 0.002152849454432726, 0.012605253607034683, -0.06261926144361496, 0.06566400080919266, -0.08827511221170425, -0.13246332108974457, 0.26389503479003906, 0.12693803012371063, -0.011340415105223656, -0.19369958341121674, -0.09067880362272263, 0.0032002332154661417, 0.26625123620033264, 0.05371394008398056, 0.06339387595653534, -0.11567320674657822, -0.1239948645234108, -0.08785273879766464, 0.07125339657068253, 0.11416634917259216, 0.04711100459098816, -0.16359028220176697, 0.24977795779705048, 0.22610589861869812, -0.14275071024894714, 0.06663249433040619, -0.06627514213323593, -0.19657142460346222, 0.19284597039222717, 0.03302112966775894, -0.01053351629525423, 0.06087848171591759, -0.052440095692873, -0.03381352499127388, 0.005015109665691853, -0.0698573887348175, -0.11892431229352951, 0.04849456995725632, 0.12992464005947113, 0.09838832914829254, -0.22766205668449402, 0.010103873908519745, 0.09253556281328201, -0.05201619118452072, 0.005729627795517445, 0.0011856595519930124, -0.08642261475324631, -0.09170062094926834, -0.11377887427806854, -0.10069848597049713, 0.07174722105264664, -0.08226347714662552, 0.0922471284866333, 0.17029935121536255, -0.05960844084620476, -0.3011387288570404, -0.16320301592350006, 0.09004885703325272, 0.0047113290056586266, -0.03640510514378548, -0.05647740140557289, 0.005325744394212961, -0.18134881556034088, 0.20527327060699463, 0.1404024213552475, 0.14640256762504578, -0.05080937221646309, -0.16187000274658203, -0.02065671794116497, 0.1584443897008896, -0.061429642140865326, -0.13417939841747284, -0.10452748090028763, -0.07647723704576492, 0.054386600852012634, 0.08644387125968933, -0.07242635637521744, -0.13854430615901947, 0.1890459805727005, -0.4857358932495117, -0.21705517172813416, 0.14224103093147278, -0.14353995025157928, -0.09528312087059021, -0.10236427932977676, 0.0901019498705864, -0.3913424611091614, -0.18900974094867706, 0.17715418338775635, 0.027868350967764854, -0.16217462718486786, 0.09205802530050278, 0.015446769073605537, -0.1634051650762558, -0.0012660648208111525, 0.057418473064899445, -0.06994707137346268, -0.04303562641143799, -0.12121952325105667, 0.15449626743793488, -0.24253380298614502, -0.1585407257080078, 0.15998418629169464, 0.024289967492222786, 0.236542746424675, -0.0635138526558876, -0.20366060733795166, -0.1518678516149521, 0.18574248254299164, 0.15147937834262848, 0.04078087955713272, -0.2313401997089386, -0.18666933476924896, -0.045261505991220474, 0.12780021131038666, 0.14449653029441833, 0.03111220896244049, -0.11857017874717712, 0.09754464775323868, 0.26651859283447266, -0.10335741937160492, 0.18158182501792908, -0.03213193640112877, -0.17775456607341766, -0.028262292966246605, 0.025156620889902115, -0.1160433366894722, 0.19034413993358612, -0.10847987979650497, -0.23735396564006805, 0.19314517080783844, -0.08088182657957077, -0.247966468334198, -0.26915112137794495, 0.1981465220451355, 0.16952356696128845, 0.0949319377541542, -0.0479305274784565, -0.050974078476428986, 0.04873189330101013, -0.17529544234275818, 0.008638803847134113, -0.016276422888040543, 0.10320337861776352, 0.05076676979660988, 0.054403163492679596, 0.06927434355020523, -0.06832561641931534, -0.03937060758471489, 0.19276484847068787, -0.12313134968280792, 0.015370168723165989, -0.08428560197353363, -0.1438864767551422, 0.2165987640619278, 0.11169406026601791, -0.195884570479393, -0.23623213171958923, -0.11445961892604828, 0.22132977843284607, -0.011342337355017662, 0.2027168720960617, -0.1395954191684723, -0.2080782651901245, 0.05896063894033432, -0.04028855636715889, -0.07146221399307251, -0.2183719128370285, 0.08464767783880234, -0.1281232088804245, -0.08318085223436356, 0.28238385915756226, 0.035373128950595856, -0.09664933383464813, 0.2191769927740097, -0.021533725783228874, 0.12914635241031647, 0.03491542488336563, 0.31332358717918396, 0.052510667592287064, 0.13858099281787872, 0.1939675509929657, 0.27050167322158813, -0.5822571516036987, 0.0729571282863617, -0.19541943073272705, 0.07800000160932541, 0.12518252432346344, 0.13188348710536957, -0.17634202539920807, -0.24289695918560028, -0.13931889832019806, 0.15820564329624176, -0.20782923698425293, 0.08236651122570038, 0.16501642763614655, -0.11401508748531342, 0.14578628540039062, 0.07231557369232178, -0.23013779520988464, -0.1658649742603302, 0.10271130502223969, -0.25622883439064026, 0.1301245540380478, 0.11202631890773773, 0.13708166778087616, 0.03855707123875618, -0.27829933166503906, -0.25357383489608765, 0.14457708597183228, -0.021946100518107414, 0.25847992300987244, -0.21445882320404053, -0.14489556849002838, 0.024196704849600792, -0.13006094098091125, -0.14184902608394623, 0.2234278917312622, 0.1189064234495163, -0.13773156702518463, 0.10053344815969467, -0.08699008822441101, -0.1711384654045105, 0.13857142627239227, -0.5005638003349304, 0.05587155371904373, -0.09298673272132874, -0.14134860038757324, -0.09510140120983124, -0.3789639472961426, -0.11283295601606369, -0.1030130684375763, 0.4593318700790405, -0.05656732618808746, 0.07209523022174835, 0.14070074260234833, -0.07543732225894928, -0.07450716197490692, -0.024873575195670128, 0.10440109670162201, 0.1461186408996582, -0.024182099848985672, 0.1974082887172699, 0.012730770744383335, 0.00758129870519042, 0.008824012242257595, -0.14360293745994568, 0.10922574996948242, -0.08277896791696548, 0.04840711131691933, -0.08451378345489502, -0.14591637253761292, 0.07860956341028214, 0.11183379590511322, -0.08628841489553452, -0.03144232556223869, -0.3448573350906372, 0.057233016937971115, 0.12052440643310547, 0.22520144283771515, -0.13805577158927917, -0.10255498439073563, -0.052656207233667374, 0.008226118050515652, -0.04824697598814964, -0.22108514606952667, 0.0048493798822164536, -0.11711334437131882, 0.14879506826400757, -0.23888295888900757, 0.013974504545331001, 0.6999229192733765, -0.15681730210781097, 0.07129354774951935, 0.3743082284927368, 0.024925172328948975, 0.08902164548635483, -0.4906005859375, -0.09271261841058731, 0.10226847231388092, -0.09274813532829285, 0.06543482840061188, 0.01061081513762474, -0.259772390127182, -0.05217916518449783, 0.24901925027370453, 0.12743568420410156, 0.14389953017234802, -0.15615613758563995, 0.14577701687812805, 0.024796713143587112, -0.17125962674617767, 0.160672128200531, -0.06007545441389084, -0.20657382905483246, -0.15499034523963928, 0.14575675129890442, -0.27454814314842224, 0.2295195758342743, -0.1765407770872116, -0.30956095457077026, -0.24091218411922455, -0.16605541110038757, 0.32860586047172546, 0.3294200599193573, -0.08061381429433823, -0.13338707387447357, -0.17964009940624237, 0.07015235722064972, 0.09009537845849991, -0.2252858430147171, 0.27796676754951477, 0.04028439521789551, -0.24212029576301575, -0.02381741814315319, 0.20687206089496613, -0.27706605195999146, -0.1455814242362976, 0.25673866271972656, -0.2195751816034317, 0.09695997089147568, -0.5363726019859314, -0.14287619292736053, -0.06364966183900833, -0.07831508666276932, -0.03133320063352585, -0.2891049087047577, 0.15100038051605225, -0.19257867336273193, 0.06009775400161743, 0.06035221740603447, -0.05793921276926994, 0.060454949736595154, 0.1545848548412323, -0.07996905595064163, 0.009594584815204144, 0.06702865660190582, 0.07226608693599701, -0.19210192561149597, -0.08757716417312622, 0.07220876216888428, 0.07563595473766327, -0.13903594017028809, 0.05771999806165695, 0.13831113278865814, -0.059828296303749084, 0.33959800004959106, 0.12165942788124084, -0.026030922308564186, -0.1051923856139183, 0.1121017187833786, 0.07604662328958511, 0.24875059723854065, -0.04189213737845421, 0.019310764968395233, -0.1895829290151596, 0.004475449211895466, 0.09349939227104187, -0.05062846839427948, -0.11887470632791519, 0.09910975396633148, 0.09607160836458206, 0.052976686507463455, 0.3031812310218811, 0.02027486450970173, -0.05406983941793442, 0.021757591515779495, -0.11053285747766495, 0.358166366815567, -0.14638614654541016, -0.12952543795108795, -0.15268637239933014, 0.10342142730951309, -0.15063320100307465, 0.08773435652256012, 0.11041998863220215, -0.13349992036819458, -0.17220009863376617, 0.2628435492515564, -0.15492908656597137, -0.10787659138441086, 0.27703121304512024, -0.1773999184370041, -0.17088256776332855, 0.31523191928863525, 0.17583347856998444, 0.04808643460273743, -0.08059360831975937, 0.0893222913146019, -0.08457069844007492, -0.19431358575820923, -0.15845797955989838, -0.04830298200249672, 0.45059019327163696, 0.2525651454925537, -0.03472491353750229, -0.27992236614227295, -0.2825179994106293, 0.022188642993569374, 0.045424334704875946, 0.02608325704932213, -0.04280761629343033, -0.3592226207256317, -0.23180727660655975, -0.07940592616796494, 0.13437974452972412, -0.012552101165056229, -0.1701478213071823, 0.32716864347457886, -0.16163323819637299, -0.04024285078048706, 0.13809987902641296, -0.23195330798625946, -0.11342855542898178, 0.2975665330886841, -0.0819433405995369, -0.12377500534057617, 0.36266469955444336, -0.13732466101646423, -0.13202305138111115, 0.09942910820245743, 0.14443044364452362, -0.01578865759074688, 0.2604907751083374, -0.08483564853668213, 0.05443454533815384, -0.055554602295160294, -0.2632037103176117, -0.032161179929971695, 0.0264117494225502, -0.3090357780456543, -0.0713464617729187, -0.006057971157133579, 0.0002575708494987339, 0.03816866874694824, 0.09066382050514221, 0.5720202922821045, 0.007684734649956226, 0.02575301006436348, -0.6116791367530823, 0.04444136470556259, -0.13382121920585632, 0.08941333740949631, 0.034210216253995895, -0.05999388173222542, 0.18897812068462372, -0.23828157782554626, 0.10781741887331009, 0.040698692202568054, -0.003732504788786173, -0.05923542380332947, -0.09370817989110947, 0.31149721145629883, 0.07853112369775772, -0.41881486773490906, -0.04273267462849617, 0.09574269503355026, 0.15655216574668884, 0.03126712888479233, -0.10983806848526001, 0.35045126080513, 0.3639254570007324, 0.25146499276161194, -0.44412961602211, 0.05667663365602493, -0.1614818274974823, -0.12824119627475739, -0.2157374769449234, 0.009913362562656403, -0.14374876022338867, -0.08599798381328583, 0.01585288532078266, 0.04507356509566307, -0.0555899441242218, -0.021194709464907646, 0.10787118226289749, 0.19341443479061127, -0.23198209702968597, -0.05166671797633171, -0.08193223178386688, 0.05994849279522896, -0.10252328962087631, -0.017194094136357307, 0.17383481562137604, -0.0854259580373764, -0.09079573303461075, 0.08088292181491852, 0.07570979744195938, -0.022265465930104256, -0.08400218933820724, -0.0022153144236654043, -0.0025359655264765024, 0.012787641026079655, 0.06597056984901428, 0.19263097643852234, 0.00042539648711681366, 0.019383519887924194, -0.2029043734073639, 0.18790283799171448, -0.08716452121734619, 0.017279211431741714, -0.14920875430107117, 0.11051720380783081, 0.15417082607746124, -0.20679102838039398, -0.11284211277961731, 0.15681159496307373, -0.06328786164522171, -0.050417136400938034, 0.1269025057554245, -0.1587217152118683, -0.36367952823638916, -0.2956903576850891, -0.10221543163061142, -0.23725958168506622, 0.027855653315782547, 0.051251910626888275, -0.16601724922657013, 0.1495668590068817, 0.34917429089546204, 0.061736200004816055, -0.06513580679893494, 0.026870205998420715, -0.12703238427639008, -0.05234576389193535, 0.13158053159713745, -0.030940942466259003, -0.2575974464416504, -0.0744737759232521, -0.06356573104858398, -0.15523658692836761, -0.36225637793540955, 0.12391531467437744, 0.0031633710023015738, -0.19479085505008698, 0.09517545998096466, 0.06855292618274689, -0.04696580395102501, 0.1643214374780655, 0.04037241265177727, -0.0017362480284646153, -0.02352694794535637, -0.09708516299724579, 0.17796066403388977, 0.20599637925624847, 0.024587634950876236, 0.03675195947289467, -0.24152222275733948, 0.010589261539280415, 0.043512012809515, 0.013968401588499546, -0.0002480720286257565, -0.09125048667192459, -0.1404787302017212, 0.008849005214869976, 0.17185665667057037, -0.2128317654132843, -0.09076876193284988, 0.19671180844306946, -0.14316613972187042, -0.11498239636421204, -0.033781055361032486, 0.0589139349758625, 0.15823538601398468, 0.04852592945098877, -0.11395157128572464, 0.18490490317344666, -0.03763263672590256, 0.08184173703193665, -0.1784488707780838, 0.1318742334842682, -0.05576933175325394, -0.005223709624260664, 0.14126333594322205, -0.09290261566638947, 0.015435841865837574, 0.012510662898421288, -0.005861711222678423, 0.1344790756702423, -0.05675549432635307, -0.025909673422574997, 0.01260614488273859, 0.07138172537088394, 0.1045018658041954, -0.06020421162247658, -0.15617643296718597, 0.010686921887099743, 0.1292503923177719, 0.05410149693489075, 0.042113013565540314, -0.07322943210601807, 0.1428425908088684, -0.1518690288066864, 0.1582985818386078, -0.042086340487003326, 0.004873556084930897, -0.21392355859279633, -0.022619277238845825, -0.08760567009449005, -0.1829073280096054, -0.11749666929244995, -0.20220211148262024, 0.18375827372074127, 0.029688699170947075, -0.00870452355593443, 0.026878327131271362, 0.09952344000339508, 0.18727876245975494, -0.4726335108280182, -0.010443317703902721, -0.1368979513645172, -0.061990976333618164, 0.009196523576974869, 0.14843882620334625, -0.04012434184551239, 0.008448285982012749, -0.2860057055950165, 0.12396997958421707, 0.07865451276302338, -0.1170516312122345, -0.11436047405004501, 0.16617338359355927, 0.06278833001852036, 0.15252187848091125, 0.0006133399438112974, -0.2711765170097351, 0.1371176540851593, 0.12643760442733765, 0.059567082673311234, -0.3358096182346344, -0.4979208707809448, 0.7749466896057129, 0.5456302165985107, -0.5237723588943481, 0.15811507403850555, -0.2504892349243164, 0.04001525044441223, 0.5401034355163574, -0.9585579633712769, 0.846464991569519, 0.4445195198059082, 0.04650130867958069, -0.24792686104774475, 0.18655462563037872, -0.5525153875350952, 0.16253302991390228, -0.23240461945533752, -0.18399620056152344, -0.22504213452339172, -0.31670889258384705, 0.13678650557994843, 0.31284937262535095, 0.008970624767243862, 0.728653609752655, 0.16718003153800964, -0.03078431449830532, 0.05688260868191719, -0.5213739275932312, -0.037022821605205536, -0.3988858163356781, -0.1419566571712494, 0.34050723910331726, -0.11319123953580856, 0.19150416553020477, -0.06555752456188202, 0.22813332080841064, -0.25584566593170166, 0.06892523914575577, -0.3848373293876648, -0.5881555080413818, 0.2655285596847534, 0.19516605138778687, 0.3084361255168915, 0.25150349736213684, 0.2572877109050751, 0.3421373665332794, -0.18955211341381073, 0.08496204763650894, -0.3247501850128174, 0.28951138257980347, -0.35262057185173035, 0.06436757743358612, -0.20255200564861298, -0.03387409448623657, -0.3949472904205322, -0.37917792797088623, 0.2681804299354553, 0.04455789551138878, 0.44316357374191284, 0.2264706790447235, -0.26509878039360046, 0.09147896617650986, -0.1724293977022171, 0.2388097643852234, -0.07735434174537659, 0.17682434618473053, -0.1534317284822464, 0.02470189705491066, -0.03799401596188545, -0.13497373461723328, 0.42969560623168945, 0.12634031474590302, -0.0981144979596138, -0.022641459479928017, 0.2575500011444092, 0.23625700175762177, 0.2411596179008484, 0.10763435810804367, 0.023371176794171333, 0.11893149465322495, -0.35270261764526367, 0.4124157130718231, -0.09983549267053604, 0.1659546047449112, -0.28925594687461853, 0.3729511499404907, -0.09189793467521667, 0.02796216495335102, -0.06094451993703842, 0.06838659942150116, 0.1456204056739807, 0.05652184039354324, -0.43232300877571106, 0.32065531611442566, -0.17238609492778778, -0.05619056895375252, -0.10093682259321213, 0.06691550463438034, -0.029747802764177322, -0.04025721177458763, -0.09898678213357925, 0.3458821177482605, 0.06315094232559204, 0.04359838366508484, -0.33375826478004456, 0.2180948108434677, 0.02683309279382229, -0.1248701736330986, -0.0031671219039708376, 0.32306843996047974, 0.16932667791843414, 0.03628258407115936, 0.05817154794931412, 0.024278461933135986, -0.1693200320005417, 0.3580681085586548, -0.31434565782546997, 0.0837545171380043, 0.12254995852708817, -0.3061021566390991, 0.23692049086093903, 0.09904304146766663, 0.01584772579371929, 0.1456933617591858, 0.08828233927488327, 0.06235061213374138, 0.13110549747943878, -0.0250017661601305, 0.434790700674057, -0.37358152866363525, -0.06508716940879822, 0.1366593837738037, -0.13711951673030853, -0.17274028062820435, -0.10441212356090546, -0.026488296687602997, 0.18842533230781555, -0.03800172358751297, 0.34023433923721313, -0.10252208262681961, 0.24628455936908722, 0.11354388296604156, 0.03255603462457657, -0.19865237176418304, 0.4713449478149414, -0.1748383343219757, 0.2287558615207672, 0.12342650443315506, -0.07097908109426498, -0.294565349817276, -0.0535021610558033, -0.10926150530576706, 0.23122847080230713, -0.16076987981796265, 0.319342702627182, -0.37161147594451904, -0.06881067901849747, -0.019244471564888954, -0.0202894676476717, 0.2723005712032318, -0.10126303136348724, -0.034971684217453, 0.2111852616071701, 0.08195240050554276, 0.1811479926109314, -0.12327395379543304, -0.16952034831047058, -0.19461095333099365, -0.14057742059230804, 0.25176915526390076, -0.22319617867469788, 0.08694924414157867, 0.019026797264814377, 0.3754886984825134, -0.1720832735300064, 0.2712344229221344, -0.34684139490127563, -0.14413347840309143, -0.35962674021720886, 0.06899137794971466, -0.34269413352012634, 0.23655885457992554, -0.061666782945394516, 0.32882121205329895, 0.18681515753269196, -0.32496604323387146, 0.08992724865674973, 0.028249895200133324, -0.24189379811286926, 0.044778890907764435, 0.3278968632221222, 0.14515158534049988, -0.06308074295520782, -0.14361432194709778, -0.23365828394889832, -0.20455817878246307, 0.03121986798942089, 0.3564775586128235, 0.31465643644332886, 0.04094918817281723, -0.23313210904598236, -0.23477856814861298, 0.24641075730323792, -0.2624588906764984, -0.17696711421012878, -0.10360516607761383, 0.23542198538780212, -0.4228580594062805, 0.018535898998379707, -0.281378835439682, 0.17134980857372284, 0.05647643283009529, 0.22389046847820282, -0.4774162173271179, -0.20090141892433167, 0.22400419414043427, 0.036873865872621536, -0.5998328328132629, 0.05119067057967186, -0.07060564309358597, 0.15432032942771912, -0.2686820924282074, 0.1380762755870819, -0.21637165546417236, 0.10902564227581024, 0.09224332123994827, -0.003561469493433833, -0.028594257310032845, -0.13410678505897522, 0.13049151003360748, -0.007674466352909803, 0.21466419100761414, 0.012362753972411156, 0.09227985888719559, -0.3051815927028656, -0.18699711561203003, 0.05893518403172493, -0.22465290129184723, -0.12530329823493958, 0.08952497690916061, 0.09943829476833344, 0.1230611726641655, -0.08992385864257812, -0.09757436066865921, -0.31998372077941895, 0.1507704257965088, -0.3282938301563263, -0.04108765348792076, 0.5773940086364746, 0.21885791420936584, 0.46967753767967224, 0.018075186759233475, 0.028108814731240273, 0.14857511222362518, -0.3047744333744049, -0.11953295767307281, -0.10703618824481964, 0.013357443735003471, -0.24764227867126465, -0.07176719605922699, -0.2550871968269348, -0.02571331523358822, -0.6454741358757019, -0.18546167016029358, 0.6208057999610901, 0.36712586879730225, 0.4880354702472687, -0.06183253228664398, -0.2086353898048401, -0.0444902665913105, -0.06157124787569046, -0.11850546300411224, 0.09936236590147018, 0.1794700026512146, -0.06549611687660217, -0.17986960709095, 0.37088173627853394, 0.1669899970293045, 0.18628554046154022, -0.1605539172887802, -0.10619213432073593, -0.0013595983618870378, -0.06620139628648758, 0.17244666814804077, 0.027625663205981255, 0.00849888101220131, -0.12855878472328186, -0.061595045030117035, 0.15004496276378632, -0.03906354680657387, -0.10505026578903198, -0.20303137600421906, 0.18056078255176544, 0.2464800924062729, -0.2487785965204239, 0.10435865819454193, -0.15268510580062866, -0.08093762397766113, 0.1442231386899948, -0.18929404020309448, -0.21210229396820068, -0.13044162094593048, -0.012870794162154198, 0.12989455461502075, 0.20804636180400848, 0.0927886813879013, -0.051355425268411636, 0.011955486610531807, -0.3043505847454071, 0.11800961941480637, 0.15841829776763916, 0.2004076987504959, -0.20973628759384155, -0.12297229468822479, -0.15659849345684052, 0.17753401398658752, 0.03255780041217804, -0.1412138193845749, -0.2968233525753021, 0.1325310319662094, 0.05406375974416733, -0.2368108034133911, -0.12555068731307983, 0.0606396459043026, 0.015141102485358715, -0.10897359251976013, 0.16959938406944275, -0.06864744424819946, -0.16638149321079254, -0.26270726323127747, -0.3414379954338074, 0.013764229603111744, 0.05624883621931076, -0.4738341271877289, 0.10010968148708344, 0.18026965856552124, -0.11179167777299881, -0.06650090217590332, 0.21553173661231995, 0.1990344375371933, -0.03130711615085602, -0.01786833256483078, 0.1959252953529358, -0.008350415155291557, 0.015834158286452293, 0.2129424661397934, 0.13001658022403717, 0.16564318537712097, 0.13754092156887054, 0.28062957525253296, 0.08460316061973572, -0.2773769795894623, -0.058636415749788284, -0.0976848229765892, 0.23239977657794952, -0.049136724323034286, 0.09549160301685333, -0.15711763501167297, -0.04805627837777138, -0.01979949325323105, 0.32031434774398804, -0.096385158598423, -0.05285654589533806, -0.14587807655334473, 0.09610656648874283, 0.07255353778600693, 0.4552460014820099, 0.13871635496616364, 0.03299667313694954, 0.07480419427156448, -0.1354193538427353, -0.09008762985467911, 0.02325088158249855, -0.039257943630218506, -0.2138216644525528, 0.1875544786453247, -0.1773814857006073, 0.05215825140476227, 0.4494990408420563, -0.02879747375845909, 0.04842999950051308, 0.49065321683883667, -0.11641674488782883, -0.19518837332725525, -0.032483991235494614, -0.007027058862149715, -0.22210727632045746, 0.19240280985832214, -0.13456937670707703, -0.29857689142227173, 0.1697807013988495, 0.15305934846401215, -0.210548996925354, -0.09898621588945389, 0.04403231292963028, -0.02046377584338188, 0.020197439938783646, -0.005459039472043514, -0.157767653465271, 0.018314996734261513, 0.008568735793232918, -0.08922871202230453, 0.14020296931266785, -0.059442345052957535, -0.05954999104142189, 0.15740087628364563, 0.03559226542711258, 0.01496835332363844, -0.05602244287729263, -0.0004632845229934901, -0.030869843438267708, 0.03730142116546631, -0.13376696407794952, -0.3828325569629669, 0.13959051668643951, -0.011995985172688961, -0.28546369075775146, -0.1760476678609848, -0.0523068867623806, 0.08949841558933258, -0.004284985829144716, -0.07251311838626862, -0.006112820468842983, -0.0928056389093399, -0.040651991963386536, -0.2283444106578827, -0.03699617460370064, -0.07691890001296997, -0.4806176722049713, 0.006141933146864176, 0.06006791815161705, -0.07942895591259003, 0.1328127682209015, -0.05327337607741356, -0.09214894473552704, 0.1772841513156891, 0.2331225425004959, 0.13121329247951508, 0.014841576106846333, -0.02923986315727234, -0.09005854278802872, 0.014075915329158306, -0.2846914529800415, -0.165673166513443, 0.07648716866970062, 0.056629765778779984, -0.16548295319080353, -0.1476607769727707, 0.1584864854812622, 0.22339704632759094, 0.0076066311448812485, 0.028077514842152596, 0.05609797686338425, 0.007472083903849125, 0.2781625986099243, 0.18184827268123627, -0.06240091845393181, -0.17680281400680542, -0.248092919588089, 0.011069445870816708, 0.18427173793315887, -0.03371509537100792, 0.01516694389283657, 0.05630694702267647, -0.16328072547912598, -0.10721731185913086, -0.06333231925964355, 0.22331123054027557, 0.1763712465763092, -0.16198639571666718, 0.11053801327943802, 0.09092442691326141, -0.19573891162872314, -0.25245052576065063, 0.14965017139911652, 0.09630151838064194, -0.08191628754138947, 0.07941362261772156, -0.052453238517045975, 0.32039356231689453, 0.2562220096588135, -0.04872050881385803, 0.344178706407547, 0.05414212495088577, 0.001231281436048448, -0.031079266220331192, 0.13814234733581543, -0.02687387727200985, 0.22414304316043854, -0.46805539727211, 0.039479877799749374, 0.20091335475444794, -0.24366816878318787, -0.1817682683467865, -0.059034738689661026, 0.0032395522575825453, 0.13107435405254364, -0.045291852205991745, -0.09578092396259308, -0.035822320729494095, 0.2565033733844757, -0.02087564393877983, -0.011928364634513855, -0.2235592156648636, 0.2799778878688812, -0.013425473123788834, -0.06444660574197769, -0.12578709423542023, -0.03164009377360344, 0.17839574813842773, -0.34184908866882324, -0.17442253232002258, -0.11847976595163345, -0.6744775772094727, 0.04636808857321739, -0.25426897406578064, 0.20028790831565857, 0.051580969244241714, -0.25378116965293884, 0.0638759434223175, -0.0505475215613842, 0.2622576057910919, 0.17977453768253326, 0.09863117337226868, 0.09231840819120407, 0.4531027376651764, -0.0208990927785635, 0.09007774293422699, -0.07850413024425507, -0.16780029237270355, -0.013526282273232937, 0.06559865176677704, -0.09943713992834091, -0.08064111322164536, 0.32754790782928467, 0.08972335606813431, -0.05419660359621048, 0.1062929630279541, -0.07712716609239578, 0.27349853515625, -0.1904846876859665, -0.11185189336538315, -0.014358501881361008, -0.25824326276779175, -0.02001705951988697, 0.015765534713864326, 0.053286101669073105, -0.04887489601969719, 0.16173586249351501, -0.07856573909521103, -0.1437644511461258, -0.2875031530857086, 0.19453029334545135, -0.04110606014728546, 0.07750222086906433, -0.0581829659640789, -0.11956973373889923, -0.07128393650054932, 0.038896720856428146, -0.044798266142606735, 0.005724188406020403, 0.04253266751766205, 0.11591469496488571, -0.13011451065540314, 0.06311226636171341, -0.11574199050664902, -0.12310945242643356, 0.07351803034543991, -0.07707705348730087, -0.058032646775245667, 0.12147344648838043, -0.15324760973453522, -0.1379355490207672, 0.2715848386287689, -0.0004106874985154718, -0.04627629369497299, 0.029957523569464684, -0.005069089122116566, -0.06525550037622452, 0.02488800138235092, 0.2926836311817169, 0.06863696873188019, -0.04467395693063736, 0.3272917568683624, -0.1914626955986023, 0.05439145490527153, 0.17479053139686584, -0.14378482103347778, 0.10051897913217545, -0.1704498827457428, -0.08164791017770767, 0.09006108343601227, -0.015115278773009777, -0.16143810749053955, -0.11391103267669678, 0.13766485452651978, 0.1349363476037979, 0.03358856961131096, -0.04649675264954567, -0.18308348953723907, -0.058339960873126984, 0.17053472995758057, 0.14363518357276917, 0.23325063288211823, -0.23078876733779907, 0.09993260353803635, -0.08376065641641617, 0.5224312543869019, 0.07105287164449692, -0.19883130490779877, 0.14044100046157837, 0.09740058332681656, -0.1437542587518692, 0.03070083074271679, -0.09462439268827438, -0.14062684774398804, -0.05024182051420212, 0.1307404786348343, 0.24025991559028625, 0.43065932393074036, 0.24098454415798187, 0.09903532266616821, 0.5075778365135193, -0.2307438850402832, -0.3646811544895172, -0.4117509424686432, -0.00029747874941676855, -0.34058529138565063, 0.23598943650722504, -0.020891131833195686, -0.44118914008140564, 0.07177415490150452, 0.15222543478012085, -0.09995834529399872, 0.08834344148635864, -0.14397184550762177, 0.1611817479133606, 0.048694949597120285, -0.22948123514652252, -0.06119054928421974, -0.14096398651599884, -0.006562480702996254, -0.35654595494270325, 0.12092866748571396, -0.18333756923675537, 0.06977847963571548, -0.02388322539627552, 0.15188606083393097, -0.07686492055654526, -0.05123046413064003, -0.09232323616743088, 0.13662618398666382, 0.15355455875396729, -0.018944954499602318, -0.5078396201133728, -0.357922226190567, 0.1269245147705078, -0.26720529794692993, -0.07694362848997116, 0.13494795560836792, -0.03254496678709984, 0.006190731655806303, 0.1432374119758606, -0.178370401263237, -0.10079731792211533, -0.06143996864557266, -0.32598116993904114, -0.006908451672643423, 0.0640520453453064, -0.38474756479263306, -0.004928791895508766, 0.25165650248527527, 0.13955870270729065, 0.042928315699100494, 0.11258619278669357, -0.235233336687088, 0.15361440181732178, 0.12136170268058777, -0.2641682028770447, 0.011305811814963818, -0.22510765492916107, -0.04020346328616142, -0.04773509129881859, -0.24002104997634888, 0.00777223939076066, 0.11994113773107529, -0.18952573835849762, 0.0634184405207634, 0.07714588940143585, -0.05080252140760422, -0.08725285530090332, -0.036595627665519714, -0.16619552671909332, -0.14034833014011383, -0.035597268491983414, 0.12398989498615265, -0.014486213214695454, -0.21360792219638824, -0.022078480571508408, 0.13756000995635986, 0.04912862181663513, 0.21317780017852783, -0.2994711697101593, -0.025669891387224197, 0.19890263676643372, -0.07703164219856262, -0.21424898505210876, 0.24553702771663666, -0.010435817763209343, -0.19210217893123627, 0.03679821640253067, 0.10496117919683456, -0.11918926239013672, 0.03243045136332512, -0.14418478310108185, -0.018829016014933586, 0.12039346247911453, -0.256757915019989, 0.13905592262744904, 0.17105990648269653, 0.5279423594474792, 0.010229184292256832, 0.06008521467447281, -0.27088436484336853, -0.004320846404880285, 0.12818986177444458, -0.1697799414396286, 0.08148892223834991, 0.08995665609836578, -0.22845594584941864, -0.07843256741762161, -0.03034921921789646, 0.11157863587141037, 0.16736261546611786, -0.12050402909517288, 0.07444857060909271, -0.029822666198015213, -0.14733672142028809, -0.2382674366235733, 0.006951490417122841, -0.2263275682926178, 0.07589463144540787, 0.07637188583612442, 0.1751926988363266, -0.11467412859201431, -0.042160000652074814, -0.21990934014320374, 0.11818016320466995, 0.08410217612981796, -0.20640873908996582, -0.00869724527001381, 0.052170999348163605, 0.11778102815151215, -0.3809330463409424, -0.14227695763111115, 0.12762795388698578, -0.060441844165325165, -0.0816962793469429, -0.009313702583312988, 0.09071643650531769, -0.016462523490190506, -0.057875681668519974, -0.10148327797651291, -0.02011364884674549, 0.06027987226843834, -0.16336649656295776, 0.2529042065143585, -0.04996730759739876, -0.2074042558670044, 0.1277080625295639, 0.17782007157802582, 0.14161215722560883, 0.11468807607889175, -0.2581642270088196, 0.1396550089120865, 0.16414807736873627, 0.020316107198596, 0.2845730185508728, -0.2353522777557373, 0.0004291605728212744, -0.13125641644001007, -0.10799029469490051, 0.3401603400707245, 0.09441204369068146, -0.01704217679798603, -0.17901191115379333, 0.014865774661302567, -0.19920556247234344, 0.12260130792856216, 0.06988974660634995, 0.02435719594359398, -0.1605563908815384, 0.03807170316576958, 0.19060330092906952, 0.130020871758461, 0.07844588160514832, -0.0477314367890358, -0.018631599843502045, 0.28955015540122986, -0.24330954253673553, -0.12907525897026062, 0.10948477685451508, -0.3053973317146301, -0.05047682672739029, -0.08895573765039444, 0.20274104177951813, -0.06873419880867004, -0.019408922642469406, 0.15874134004116058, 0.2265148162841797, 0.2238444834947586, 0.14146332442760468, -0.01041470468044281, 0.07577434182167053, 0.17940136790275574, -0.0997827798128128, 0.12724776566028595, -0.04761224612593651, 0.029405003413558006, -0.08514047414064407, -0.10742636770009995, 0.0892973467707634, -0.21870550513267517, 0.1482587307691574, -0.13589778542518616, -0.3389016389846802, 0.05603329837322235, -0.24470987915992737, -0.07712601125240326, 0.09532595425844193, -0.14506496489048004, -0.05805257707834244, -0.03109532780945301, -0.012336205691099167, -0.07734005153179169, -0.01668492518365383, -0.05564397573471069, 0.03052481822669506, 0.1341765820980072, 0.005539766512811184, -0.1605633944272995, -0.05124363303184509, -0.16675350069999695, 0.23755449056625366, 0.18235212564468384, 0.07344318926334381, -0.28551509976387024, 0.11356231570243835, 0.09277167916297913, -0.16611209511756897, 0.1451455056667328, 0.17772547900676727, 0.046894438564777374, -0.18776392936706543, 0.2403492033481598, -0.10945151746273041, 0.04544300585985184, -0.14709709584712982, -0.22686615586280823, -0.11432986706495285, 0.15545617043972015, -0.17709338665008545, 0.03729879483580589, 0.05629969388246536, 0.3286309540271759, -0.0070118713192641735, -0.05702408403158188, -0.12614212930202484, 0.10550897568464279, 0.16607338190078735, -0.03519608825445175, -0.01144951581954956, -0.0984402671456337, -0.05470393970608711, -0.09611450880765915, -0.003972612787038088, -0.06857533007860184, -0.05282416567206383, 0.17291803658008575, 0.011201691813766956, -0.04632671922445297, -0.3122929632663727, 0.0757550299167633, -0.08870071917772293, 0.09674697369337082, 0.10576624423265457, 0.26414114236831665, 0.03707386553287506, 0.3879874050617218, -0.20057286322116852, -0.159903883934021, 0.153463676571846, -0.1893431544303894, -0.23219186067581177, -0.038150396198034286, -0.10166563093662262, -0.09483453631401062, 0.08517859876155853, -0.030298816040158272, 0.1356564611196518, 0.027765817940235138, -0.03671451285481453, 0.08314940333366394, -0.07491838186979294, -0.07672110199928284, 0.11477230489253998, -0.023147478699684143, 0.08780685812234879, 0.02904171496629715, -0.07818721979856491, 0.07339542359113693, -0.10562409460544586, -0.378245085477829, 0.20547547936439514, -0.040230777114629745, 0.3349089026451111, -0.039267491549253464, -0.3482358455657959, 0.130360409617424, 0.06171785295009613, 0.11898022145032883, 0.3118393123149872, 0.4745546281337738, 0.23836125433444977, 0.03376104310154915, 0.22030453383922577, 0.07559715211391449, 0.0011251496616750956, -0.12189826369285583, -0.24840094149112701, 0.08455976098775864, 0.16148827970027924, -0.07034793496131897, -0.10979204624891281, -0.19497588276863098, -0.06462258845567703, 0.11137769371271133, 0.028361044824123383, -0.0024126817006617785, -0.26697197556495667, -0.10549190640449524, 0.08451865613460541, 0.23366977274417877, 0.5163253545761108, 0.30498453974723816, 0.296135812997818, 0.4314526617527008, -0.13336315751075745, -0.12788011133670807, -0.1749187856912613, -0.086168073117733, -0.06400955468416214, 0.11198753863573074, 0.040101390331983566, 0.10954690724611282, 0.07195242494344711, 0.20055845379829407, 0.29782938957214355, 0.18988725543022156, -0.07174436748027802, -0.04878399521112442, -0.05457964539527893, -0.1036328449845314, 0.08601050823926926, -0.06759179383516312, -0.11196951568126678, 0.13187403976917267, -0.019696025177836418, -0.07451170682907104, -0.012677974998950958, 0.04267594590783119, 0.1389368623495102, -0.09925990551710129, -0.09899497777223587, 0.24376587569713593, -0.18982423841953278, -0.10706233233213425, 0.1565629541873932, 0.056299448013305664, 0.12141256034374237, 0.17174650728702545, -0.08397974818944931, -0.006872482132166624, -0.23495686054229736, 0.16266952455043793, 0.15251632034778595, 0.014831905253231525, -0.014498762786388397, -0.12111613899469376, 0.13049347698688507, -0.037086937576532364, 0.06948357075452805, -0.036294374614953995, -0.007275266572833061, -0.1759023368358612, -0.2753494679927826, 0.031266503036022186, 0.0253459345549345, -0.30523547530174255, 0.10782559216022491, -0.12401583790779114, 0.20535175502300262, 0.09011085331439972, -0.10213954001665115, -0.0010360846063122153, 0.027884352952241898, -0.05362938717007637, 0.033177681267261505, 0.49617210030555725, 0.2279646247625351, -0.1644282341003418, -0.31306561827659607, 0.1349211186170578, 0.028395958244800568, -0.3378341495990753, -0.06618484854698181, 0.1701039969921112, -0.10113707929849625, 0.15109136700630188, -0.16609424352645874, 0.16218413412570953, 0.07575998455286026, -0.29661718010902405, 0.024892577901482582, 0.10148569941520691, 0.013658464886248112, -0.061995286494493484, -0.0181561429053545, -0.28602102398872375, 0.1448497176170349, -0.028148584067821503, 0.2438696026802063, -0.13035880029201508, -0.08552273362874985, -0.2483082115650177, 0.044347185641527176, 0.22183401882648468, -0.15769986808300018, -0.06832509487867355, -0.17693859338760376, 0.13897792994976044, -0.15042297542095184, -0.0685083344578743, 0.002924675354734063, -0.09478001296520233, -0.06438270211219788, 0.003969958052039146, -0.04536180943250656, 0.0060257818549871445, -0.01617366261780262, -0.11966121196746826, 0.10297855734825134, 0.004764121491461992, -0.18937449157238007, 0.12218400835990906, 0.13868597149848938, -0.08845262229442596, 0.20416343212127686, -0.1236594095826149, 0.2757495641708374, 0.08533231168985367, -0.029424702748656273, -0.32940006256103516, 0.0790320411324501, 0.12185312062501907, 0.08274010568857193, -0.08987441658973694, 0.07700435072183609, -0.08334613591432571, -0.020032351836562157, 0.029424607753753662, 0.6802215576171875, 0.4307003915309906, 0.6011263728141785, -0.7726662755012512, -0.6213213205337524, 0.07980976998806, -0.2000059187412262, -0.05240904912352562, 0.49677982926368713, 0.435403972864151, -0.9212689995765686, 0.35772764682769775, -0.06262727826833725, -0.7985681295394897, -0.001403401023708284, -0.1940217763185501, -0.28797924518585205, -0.07447535544633865, 0.17804300785064697, -0.34457162022590637, 0.08650176972150803, 0.2648635506629944, -0.1667676419019699, -0.34048086404800415, -0.36442914605140686, -0.07135927677154541, -0.06933289766311646, -0.12252330034971237, -0.13208676874637604, -0.0721716433763504, 0.2333614081144333, -0.17049650847911835, 0.05061506852507591, -0.5479046106338501, 0.21283011138439178, -0.2455189973115921, -0.19130659103393555, -0.08604911714792252, 0.16384677588939667, 0.21646983921527863, -0.10526420176029205, 0.08310109376907349, -0.20493343472480774, 0.30469706654548645, 0.1633746176958084, 0.0630788579583168, 0.4738370180130005, 0.2851063907146454, 0.002851496683433652, 0.06159472092986107, -0.29901689291000366, -0.0616689957678318, -0.15344472229480743, -0.14077799022197723, -0.2601124346256256, 0.33496132493019104, 0.3684349060058594, -0.24794358015060425, -0.09597322344779968, -0.07076183706521988, 0.07878062129020691, -0.05586394667625427, 0.10937508195638657, 0.2684435248374939, -0.3614695072174072, 0.11926133185625076, -0.1379881352186203, 0.2328185886144638, 0.2240196168422699, 0.34044456481933594, 0.22156748175621033, 0.07998201251029968, -0.14044825732707977, -0.13345469534397125, 0.08375673741102219, -0.11492779850959778, 0.2790379524230957, 0.17454348504543304, 0.23921769857406616, -0.3102521002292633, 0.39205312728881836, -0.15698273479938507, 0.1157059445977211, -0.2473386973142624, 0.15720126032829285, -0.1569254845380783, 0.07750019431114197, -0.12168896198272705, 0.40820378065109253, 0.25649112462997437, 0.04706208035349846, 0.2716137170791626, -0.26503679156303406, -0.20338083803653717, -0.31435057520866394, -0.020810913294553757, -0.2772621214389801, 0.2858581244945526, 0.1558641493320465, 0.09618374705314636, -0.35329926013946533, 0.28892064094543457, -0.14880582690238953, 0.05579904466867447, 0.12002823501825333, 0.05287773907184601, -0.290572851896286, 0.21279942989349365, -0.13532540202140808, 0.1154564842581749, -0.27855223417282104, 0.015417123213410378, -0.09865061938762665, -0.3858519196510315, -0.029155157506465912, -0.17150631546974182, -0.04955534636974335, -0.19274835288524628, 0.1624441146850586, 0.21584931015968323, -0.42235279083251953, -0.12509319186210632, 0.1093432828783989, 0.060372475534677505, 0.26609522104263306, -0.0502232201397419, 0.15336908400058746, -0.17306171357631683, -0.16821330785751343, 0.09908830374479294, -0.2833716571331024, 0.12601059675216675, 0.17162840068340302, -0.02493828348815441, -0.07153935730457306, 0.35271167755126953, 0.08800620585680008, 0.006071906071156263, 0.004631150979548693, 0.1008903980255127, -0.11764604598283768, 0.12389791756868362, 0.5360181927680969, -0.08958510309457779, -0.206141397356987, 0.10094262659549713, -0.08714044839143753, 0.24772492051124573, 0.2929717004299164, 0.05589247867465019, -0.032641444355249405, -0.23971861600875854, -0.011267420835793018, 0.028648212552070618, 0.007120809983462095, -0.1599157750606537, 0.20724748075008392, 0.11276377737522125, 0.06774920225143433, -0.002152577508240938, 0.035093508660793304, 0.22229671478271484, 0.19627998769283295, -0.5999377369880676, -0.18765127658843994, 0.19941644370555878, -0.25100186467170715, 0.05439666286110878, -0.29231229424476624, -0.24050459265708923, 0.05587853863835335, -0.15146057307720184, 0.15375278890132904, -0.1365918070077896, 0.25354281067848206, 0.03270465135574341, -0.28683826327323914, 0.2680608034133911, -0.3232598602771759, -0.24373950064182281, -0.15658408403396606, -0.1765429675579071, 0.10450484603643417, -0.3028098940849304, 0.15871216356754303, -0.11868435144424438, -0.04856079816818237, -0.25137069821357727, -0.2499064803123474, 0.04589683935046196, -0.01512809470295906, -0.07779199630022049, -0.03734700381755829, 0.3205634355545044, 0.07993464916944504, -0.12002056837081909, -0.01489697303622961, -0.5226450562477112, 0.1221904531121254, -0.27808529138565063, -0.22651435434818268, 0.32045525312423706, 0.3014836013317108, -0.030849512666463852, -0.07961226999759674, 0.24640409648418427, -0.5157471895217896, -0.04362456873059273, -0.03240776062011719, 0.22681285440921783, -0.01855284906923771, 0.6997361183166504, -0.23530173301696777, 0.004430899862200022, -0.16534993052482605, -0.008151915855705738, 0.18754442036151886, 0.3214271664619446, -0.11167299747467041, -0.2046995460987091, -0.05067233741283417, 0.07048845291137695, -0.009026642888784409, -0.16921742260456085, -0.08813938498497009, 0.2354544848203659, -0.01595436781644821, 0.30207425355911255, 0.27261167764663696, 0.21309949457645416, -0.11307664960622787, -0.3073917329311371, -0.04567352682352066, 0.21731387078762054, 0.20168644189834595, -0.20447133481502533, -0.2895244061946869, -0.1391369253396988, -0.09671611338853836, -0.20059436559677124, 0.32715392112731934, -0.04259905964136124, 0.14952947199344635, 0.12863877415657043, -0.283823162317276, -0.31802210211753845, 0.18090227246284485, 0.30428051948547363, -0.033279500901699066, 0.17044082283973694, -0.2678156793117523, 0.13215935230255127, 0.11013873666524887, -0.02034558542072773, -0.16558001935482025, 0.3026899993419647, -0.030547184869647026, 0.13754327595233917, -0.033762287348508835, 0.1848660111427307, -0.27191510796546936, -0.33608609437942505, 0.36810633540153503, -0.0446365550160408, -0.16806462407112122, 0.2944920063018799, -0.046496421098709106, -0.01491909846663475, 0.1894104927778244, -0.11169760674238205, -0.10689771175384521, 0.1391630470752716, -0.2444673776626587, 0.21094366908073425, 0.17802023887634277, -0.2570151686668396, 0.05297893285751343, 0.17116300761699677, 0.1320907175540924, 0.19459998607635498, -0.19557888805866241, 0.20207130908966064, 0.03408779576420784, -0.14598962664604187, 0.1216716468334198, -0.34696662425994873, -0.0761609598994255, -0.10446257144212723, 0.13358230888843536, 0.11049340665340424, -0.28216660022735596, 0.1826878786087036, 0.46933895349502563, 0.1733517199754715, -0.039627376943826675, 0.20930983126163483, 0.050302907824516296, -0.08339335024356842, 0.3614470660686493, 0.1667354702949524, 0.05297159403562546, 0.055738914757966995, -0.14995262026786804, 0.13636992871761322, -0.16370950639247894, -0.013927382417023182, 0.14599795639514923, 0.4143037796020508, 0.1052946001291275, 0.19380103051662445, -0.0131680928170681, 0.09824277460575104, -0.06966143846511841, -0.09708840399980545, 0.2115897536277771, 0.27362334728240967, -0.2457195371389389, -0.1736520677804947, 0.07427921891212463, 0.24023286998271942, -0.19661125540733337, -0.0194462388753891, 0.6310862898826599, -0.37621933221817017, -0.0761461928486824, 0.04211222380399704, 0.18582288920879364, -0.16303709149360657, -0.11585880815982819, -0.04142094403505325, 0.0117531418800354, -0.05027754604816437, 0.003485448192805052, -0.2192896008491516, 0.21090006828308105, 0.051911912858486176, 0.06084517762064934, -0.08926834166049957, 0.14101259410381317, -0.0020543751306831837, -0.0652254968881607, -0.08104034513235092, -0.19771118462085724, -0.19876502454280853, 0.0036865437868982553, -0.10563207417726517, -0.040265269577503204, 0.10241572558879852, 0.13064329326152802, 0.05153495445847511, -0.12819789350032806, 0.09994173794984818, 0.03078557923436165, -0.19422529637813568, -0.14136822521686554, 0.18026743829250336, 0.11433595418930054, -0.026815328747034073, -0.04839308187365532, -0.24968315660953522, -0.08896461874246597, 0.012229998596012592, 0.23363880813121796, 0.09943899512290955, 0.07246935367584229, -0.12567785382270813, 0.13392049074172974, -0.24174487590789795, 0.13592085242271423, -0.1410040706396103, -0.1831657588481903, -0.014012053608894348, -0.09314344823360443, -0.20044878125190735, 0.14909987151622772, -0.012198932468891144, -0.1333685964345932, 0.17133697867393494, 0.04597450792789459, 0.09811616688966751, -0.21593059599399567, -0.12022809684276581, -0.1298701912164688, -0.03817470371723175, -0.317158043384552, -0.5716257095336914, -0.08325566351413727, -0.12798450887203217, -0.3815942108631134, -0.027535315603017807, -0.1461225003004074, -0.35795557498931885, -0.0310725849121809, -0.01700248382985592, -0.4100137948989868, 0.2201412469148636, -0.3045564293861389, -0.1691744178533554, -0.24079670011997223, 0.12247277051210403, 0.4536150097846985, -0.0075529697351157665, -0.09201746433973312, -0.6261231303215027, -0.10655967146158218, -0.024951165542006493, -0.025880318135023117, -0.27386197447776794, 0.052524179220199585, -0.13097260892391205, -0.17121709883213043, -0.09855975955724716, 0.12145380675792694, 0.01768997311592102, -0.01479219552129507, 0.03874814882874489, -0.05108514800667763, 0.03865550830960274, -0.7007547616958618, -0.044452451169490814, 0.08126315474510193, 0.020773334428668022, 0.0240356232970953, 0.15830375254154205, 0.14922119677066803, 0.07077928632497787, 0.24788817763328552, -0.03778207674622536, 0.11638974398374557, 0.11697081476449966, -0.5181742310523987, 0.11131554841995239, 0.09382794797420502, 0.00762958824634552, 0.05640279874205589, -0.01758541166782379, -0.0017379889031872153, -0.03386702015995979, 0.2190219610929489, 0.27572333812713623, -0.06632078438997269, 0.13889367878437042, -0.12544265389442444, -0.13576611876487732, -0.052893221378326416, 0.031279902905225754, 0.18382903933525085, -0.11161211878061295, -0.045643363147974014, 0.3065689504146576, 0.14151565730571747, -0.16353802382946014, 0.15020573139190674, -0.07983148097991943, 0.06554114818572998, -0.0469772107899189, 0.12329668551683426, 0.024588944390416145, -0.08915269374847412, -0.21557152271270752, 0.07180783152580261, 0.18724504113197327, 0.168007031083107, 0.09208506345748901, -0.1435270756483078, 0.0710131973028183, -0.3048396408557892, -0.030435211956501007, 0.11370328813791275, 0.11845055222511292, -0.16452471911907196, 0.05564118176698685, 0.09256872534751892, -0.2740459144115448, 0.01933547668159008, -0.14646485447883606, 0.2630672752857208, 0.17511634528636932, 0.09494173526763916, 0.030833357945084572, 0.03348511457443237, 0.042398855090141296, 0.11219675838947296, -0.0644945502281189, 0.3148343563079834, 0.10555975884199142, -0.02444225549697876, 0.1959964632987976, 0.24935105443000793, -0.20166423916816711, 0.3395034372806549, 0.06781542301177979, 0.12019989639520645, -0.00027490180218592286, -0.12113818526268005, 0.22936996817588806, -0.15621055662631989, -0.25088760256767273, -0.02215506322681904, 0.16764803230762482, -0.1846916228532791, 0.27726325392723083, 0.06778516620397568, -0.0012111513642594218, -0.11255994439125061, -0.016110016033053398, 0.2999521493911743, 0.25970330834388733, -0.03194950520992279, 0.02514062635600567, -0.04634001851081848, 0.05211314186453819, -0.17716313898563385, 0.08026878535747528, 0.02317180298268795, -0.40803205966949463, -0.2875654995441437, 0.02712596394121647, 0.151482954621315, -0.11341749876737595, 0.018037104979157448, 0.05278081074357033, -0.09770051389932632, 0.048191480338573456, -0.09177368879318237, -0.0540228970348835, 0.09895607829093933, 0.17575907707214355, -0.18615640699863434, -0.06668787449598312, -0.07669353485107422, -0.2242949903011322, 0.12983879446983337, 0.01919536665081978, 0.13132871687412262, -0.08360911905765533, 0.03183557465672493, 0.003346118377521634, -0.08702195435762405, 0.014538019895553589, -0.19595465064048767, -0.10536087304353714, 0.08771645277738571, -0.17722976207733154, 0.03613193333148956, -0.24874542653560638, 0.08362676203250885, -0.02449158951640129, -0.19103676080703735, -0.0687752366065979, 0.16277162730693817, -0.0360812246799469, 0.044901564717292786, -0.19209779798984528, 0.07230374217033386, -0.14905063807964325, 0.15554051101207733, -0.18189631402492523, 0.012120152823626995, -0.1055683046579361, -0.024033356457948685, -0.27593377232551575, 0.002958002733066678, 0.10551385581493378, 0.16087296605110168, -0.03809667006134987, -0.07186407595872879, 0.04042353481054306, -0.13970422744750977, 0.06568659842014313, 0.08251889050006866, 0.4572029113769531, -0.14922262728214264, 0.04933243617415428, 0.20460312068462372, 0.0490095429122448, 0.04036829620599747, -0.07041288912296295, 0.15454919636249542, 0.18354536592960358, -0.0007274753297679126, -0.2713247537612915, -0.19883732497692108, -0.24320511519908905, 0.07313857972621918, -0.09306513518095016, -0.11743675917387009, 0.17035968601703644, 0.1889699399471283, 0.1914553940296173, -0.24602724611759186, 0.17073766887187958, 0.2099749892950058, -0.08358336240053177, 0.0041587380692362785, 0.12916040420532227, 0.042393315583467484, -0.06682078540325165, -0.04012037068605423, -0.10617753118276596, -0.13860931992530823, -0.12179283797740936, 0.30933743715286255, 0.14187216758728027, 0.13766425848007202, -0.1767125427722931, -0.0867217406630516, -0.004220103845000267, 0.13121815025806427, 0.12597332894802094, -0.05081842839717865, 